video_id,lsa_1,lsa_2,lsa_3,lsa_4,lsa_5,lsa_6,lsa_7,lsa_8,lsa_9,lsa_10,lsa_11,lsa_12,lsa_13,lsa_14,lsa_15,lsa_16,lsa_17,lsa_18,lsa_19,lsa_20
wmeUOPjA_qc,0.01767505,0.01249415,0.05303516,0.02085744,-0.01918932,0.20038136,-0.08023741,0.02071145,-0.01139367,-0.03268949,-0.00496186,-0.00853256,-0.02570228,0.01490805,0.1345771,-0.10578887,-0.24479081,-0.0169116,-0.0856082,0.02413736
MjWI_rWQL68,0.0145617,0.00923174,0.04669679,0.01242132,-0.02155687,0.15112142,-0.03774772,-0.03065341,0.03069112,-0.3651385,0.39912398,0.16650341,0.01345896,0.01617151,0.1117108,-0.18199866,-0.01573748,-0.10095575,-0.03003841,-0.14581242
B9ocddyGfo8,0.01166235,0.0015259,0.03384199,0.02740857,0.00572826,0.12918495,-0.05708203,0.01251746,-0.0004127,0.01898044,-0.03641075,-0.02131296,-0.02642641,0.00021952,0.09380037,-0.04504874,-0.11598904,0.01285649,-0.04476017,0.02970275
k8j-6Xvw_G4,0.00357826,0.00114611,0.01099863,0.00332795,-0.00801676,0.00902197,0.00441667,-0.00151395,-0.01122131,-0.00743237,-0.00608311,0.02276723,-0.00203108,-0.00451458,0.00657682,-0.00326753,0.0367642,0.04303104,0.03375741,-0.02233075
TG39Ow5fepA,0.01518456,0.01201284,0.04353956,0.01672738,-0.02383349,0.15776319,-0.02536056,-0.04222968,0.04233555,-0.41059449,0.45458006,0.1870396,0.00721466,0.01747279,0.13029882,-0.17075998,0.00615152,-0.07934789,-0.04895395,-0.10855528
0idqiLonGYI,0.06015617,0.08184477,-0.01650074,0.00402627,-0.00522073,0.06383354,-0.02600875,0.04706572,0.02764023,-0.01018874,0.02493471,0.02905231,0.0075511,0.00052192,-0.03169433,0.02387406,0.02780592,-0.012153,0.00165199,0.0101151
T_LWKGJDKgo,0.01833732,0.01395439,0.05086148,0.02211849,-0.026147,0.16530512,-0.02965784,-0.05037874,0.04584489,-0.4689471,0.50573684,0.21370239,0.00763656,0.02516863,0.13892079,-0.19643699,0.00155917,-0.10223962,-0.02071882,-0.15107237
lDyiY5vjqaw,0.01479853,0.01186887,0.03059728,0.02028396,-0.00089545,0.06912695,-0.02332773,-0.00380957,0.00247559,0.0046103,0.00010482,-0.00835967,-0.00494494,-0.00455979,0.00573933,-0.02498601,-0.02983038,-0.01849788,-0.01004273,-0.02299426
4m_M1Wpnr2Q,0.01234076,0.00475683,0.04206388,0.01523802,-0.02294165,0.11508142,-0.04740761,0.00842903,-0.01870643,-0.00390769,-0.02513994,-0.00551244,-0.00450661,0.02368417,0.02039142,-0.0171407,-0.19285059,-0.01919809,-0.05470157,0.01243227
NdU6UdUKaYc,0.01024158,0.00601146,0.05269437,-0.00702226,-0.00319748,0.26677584,-0.10879719,0.07727011,-0.00405575,0.07148979,-0.05021028,-0.00881903,-0.00248814,0.00456214,-0.05703285,0.0042482,0.19671315,-0.07615362,0.02578555,-0.07673853
QPWScf-86po,0.02548608,0.00814408,0.05366549,0.01748453,-0.02781655,0.19064852,-0.0676353,0.05032136,-0.00557148,0.0170166,0.00798918,-0.0035858,-0.00343155,-0.01113347,-0.04678635,-0.01061807,0.05688711,-0.02488761,0.02199414,-0.01096096
9iKWeo8sWh4,0.01660091,0.00649697,0.03971324,0.01006274,-0.02350296,0.11866866,-0.04399267,0.00468582,-0.02236361,-0.03961441,-0.02142427,-0.00562472,-0.01440874,0.02440688,0.08494897,-0.09774886,-0.29929156,-0.03967243,-0.10755369,0.01736146
5EWqr_Y2uH0,0.01679771,0.00785005,0.04047588,-0.0017718,-0.00684451,0.06177507,-0.01726669,-0.01555943,0.01646261,-0.00560597,-0.03353555,-0.01708179,0.00878425,0.00541857,0.01507617,0.01374009,-0.04069803,0.06999713,0.09362956,0.1151608
BAORYfrrBzc,0.00734427,0.00544852,0.01758414,0.00609938,-0.00841279,0.06589337,-0.02447322,0.01465568,-0.00561044,0.00665214,0.00313512,0.00979145,0.00080291,-0.00599227,0.01460316,0.00219386,-0.00426044,0.02174008,0.00912224,0.04172707
OrI86PV-aPg,0.07567299,0.01686809,0.10501178,0.03796311,-0.09169781,-0.01912795,-0.01326958,-0.05923529,-0.00729113,0.121,0.1070817,-0.01969016,0.04776589,-0.01290008,-0.00652455,-0.04022752,-0.02404135,-0.02414088,-0.05571102,-0.1138044
fRjAMALJ0r0,0.05179097,0.02210459,0.10478558,0.04197872,-0.04172171,0.03785926,0.02545229,-0.087353,-0.022783,-0.02620968,-0.08748239,0.11126606,0.18634393,0.05168353,-0.07271878,-0.07189064,-0.08476338,-0.05831589,0.06040784,0.0541118
n2T6AOoUkOM,0.01249321,0.00934188,0.04324442,0.01509157,-0.00769939,0.17985606,-0.07536065,0.01729077,-0.00180733,0.0325447,-0.02750703,-0.03482033,-0.00689287,-0.01795636,0.08559045,-0.02936536,-0.1374136,0.0547324,-0.09205821,0.07402484
SVTPv4sI_Jc,0.01796179,0.00311451,0.0383585,0.00118339,-0.00663604,0.11114247,-0.03451604,0.01758571,-0.00279501,0.05385003,-0.04982119,-0.01122377,-0.00690658,-0.00020838,0.0223469,-0.01930768,-0.04255349,-0.01652348,0.02390174,-0.07471434
PGBt4pOj4Vc,0.05396708,0.02316889,0.13476618,-0.00054215,-0.04187571,0.01664067,0.01889505,-0.08584273,-0.00923638,-0.02093393,-0.01270909,0.08318263,-0.05965864,-0.01716988,-0.03952743,-0.04762385,-0.02945398,0.00418216,0.00267218,-0.01313967
qgzwtKsXCMo,0.00702033,0.00313115,0.02197885,0.00616026,-0.01578001,0.01789005,0.00281965,-0.01330199,-0.00675026,-0.0142562,-0.00988087,-0.00274215,-0.00163519,0.03370954,-0.01669013,-0.0011294,0.0343181,0.01874119,0.04548172,-0.00193208
gpfhjHmbmIE,0.07458803,0.0797255,0.13352038,-0.05960261,0.01642457,0.06005164,0.06538076,-0.00669846,0.01925371,0.01565355,-0.04607584,-0.04782929,0.09829516,-0.04380998,-0.05959888,-0.09866543,0.14772733,-0.14402128,0.0056282,0.05027522
4yDM3ZFcQm4,0.00618001,0.00351495,0.02690239,0.0079285,-0.00841804,0.21017538,-0.09093456,0.05027646,-0.00212001,0.00139581,0.03686839,0.02914273,-0.00334136,0.01034828,-0.08196976,0.13136916,0.02582242,0.05218361,0.00932488,0.11406596
Rij6WQMuxcw,0.05774588,0.07807291,0.00949508,0.01485424,-0.00806295,0.24646601,-0.10418006,0.08750837,0.02414979,-0.03588189,0.07076999,0.07170033,-0.00086163,0.03759607,-0.05535668,0.10587305,0.06148371,0.0651626,0.00537827,0.2138776
V6VQ54eTok0,0.00547499,0.00238932,0.02445288,0.00816468,-0.01010438,0.13044,-0.05438603,0.02477176,-0.00541501,0.03171855,-0.00769041,-0.03509915,0.01747651,-0.03541226,-0.15734432,0.09731618,-0.18533309,0.05977594,0.02291389,-0.10556218
1_H80JEZ2ko,0.03847224,0.03310081,0.03713708,0.0115477,-0.02791945,0.01836012,0.0351528,-0.05714803,0.01257374,-0.01562914,-0.02590501,-0.02056793,0.03283579,0.03230121,0.02653871,0.01635334,0.02975982,0.02765531,-0.00615622,-0.02525422
U5l0Z8T4tCk,0.00156123,0.00195851,0.0047511,0.00529282,0.00395497,0.003935,-0.00095884,-0.00537805,-0.00256903,-0.00243131,0.00064518,0.00441891,0.00838029,-0.00639227,0.00412796,0.00018136,-0.00177068,-0.00823374,0.00091527,0.00676602
WOTUpoI2LQA,0.03657516,0.02977441,0.07676392,-0.03390066,0.00699972,0.00833911,-0.00962771,-0.03262472,-0.00595593,0.00706993,-0.00391613,0.01321108,0.0502777,-0.03998664,-0.00855452,-0.01357929,-0.01318116,-0.02925055,0.02291649,0.0288025
7Y7Iv5XAXwI,0.01707729,0.01081289,0.04361496,0.00854171,-0.02203602,0.1254507,-0.04537586,0.01357234,-0.0015927,-0.07648959,0.04266093,0.01328011,0.01092116,-0.01818905,0.0552914,-0.05799551,-0.07554296,0.00598252,-0.01556164,0.01222644
P1DSZNhApJA,0.02681513,-8.089e-05,0.06267883,0.02789347,-0.05593815,-0.00064034,0.00489935,0.03625376,-0.09034499,0.00950315,-0.04052842,0.14950532,0.01824486,-0.07276863,0.07678248,-0.02293685,0.0937711,0.25898559,0.0962347,-0.05345622
vmRbevilfpU,0.10496078,0.06516228,0.07632877,0.02036553,-0.05949437,0.00982548,0.0349161,-0.13032917,0.04099387,-0.02319809,-0.00696338,-0.11669618,-0.02236998,0.10033869,0.00062773,-0.01041855,0.07784845,0.10096461,0.02485128,-0.03315201
5LJ1cxjQhyE,0.02197873,0.01537155,0.03403877,0.01638486,-0.01655852,0.06841029,-0.02118878,-0.00020614,-0.00711762,0.01755238,-0.00378103,0.00133457,-0.00573995,0.00091693,0.01058139,-0.04146415,-0.0045008,0.00905688,0.00294945,0.02430257
OTt76d3wPiQ,0.07877828,0.04509588,0.09454679,-0.00148616,-0.0351861,0.03910893,0.04893717,-0.11749015,0.03133131,-0.03766223,-0.01094612,-0.0260819,0.05998615,-0.05148443,0.04109727,-0.01715738,-0.04473766,0.00430033,-0.00137296,0.09089741
4s9LuOSR3Q4,0.01441734,0.00659439,0.03133494,0.0073752,-0.00770621,0.20204003,-0.08559329,0.04801648,-0.00318767,-0.00020325,0.02370301,0.02369176,0.00411247,0.03355793,-0.01084007,0.03901522,0.04197858,0.01826324,-0.01626235,0.15764279
ksn5yrsC3Wg,0.02121393,0.00725791,0.05467802,0.01160531,-0.01581402,0.23670749,-0.08669187,0.04487019,-0.00244179,-0.00522273,0.0715117,0.03140814,0.00015165,-0.00690695,-0.08068795,0.10211324,0.07980815,0.02893215,-0.02085858,0.06049154
MOrBFf1DVvs,0.01653735,0.00914251,0.03594575,0.0146625,-0.00988696,0.15649929,-0.06902457,0.02220678,-0.00808662,-0.01301304,-0.01876847,-0.00329292,-0.01825256,0.00921912,0.12101245,-0.07644333,-0.13667134,0.00352065,-0.03867969,0.0172125
IEJALLQFmDs,0.0089652,0.001983,0.03196818,-0.00811136,2.576e-05,0.13198343,-0.05061614,0.03349682,-0.00020628,0.06169166,-0.0496261,-0.03386759,0.00512616,-0.00851165,0.03296251,-0.05059124,0.06171547,-0.03814309,-0.02245377,-0.06933329
dqazxW8R5BY,0.00412731,0.00200007,0.01742375,0.00412057,-0.00723816,0.10175235,-0.03986523,0.02620934,-0.00520639,0.02324944,-0.01611053,0.00332556,-0.00201271,-0.00642137,-0.01598109,0.02155368,-0.00863084,0.00697525,0.01417616,-0.01555882
GDex3WIPF7c,0.01300447,0.01037428,0.03694314,0.01533222,-0.01036568,0.16519908,-0.06880176,0.02062267,0.00219714,-0.06579554,0.09784791,0.05491645,0.00148444,0.02413405,-0.12139911,0.14772917,0.0419129,0.04067095,0.0325358,0.08259613
UncqiOQc4rI,0.01059816,0.0070852,0.03978875,0.00137415,-0.00890488,0.11223035,-0.05149526,0.00888674,-0.01263535,0.01673551,-0.03898646,-0.00521551,-0.02617523,0.01074104,0.07025336,-0.04711036,-0.19043921,-0.00991521,-0.04458822,0.00467523
66gMxbNKaYA,0.10517242,0.13571099,0.06957186,0.02615434,-0.06550175,0.01844128,0.04246895,-0.09684455,-0.01588604,-0.03434958,-0.02943146,-0.06811596,0.03472186,-0.06358906,0.08069345,0.08525369,0.07845851,-0.09385852,-0.0762205,0.01989262
0y8vRPcSvbw,0.0184793,0.01422048,0.04677568,0.02036017,-0.01985229,0.1358855,-0.04313948,0.00282378,0.01417982,0.00523042,-0.02772331,-0.00858689,-0.0046603,-0.01481223,0.07779218,-0.07866755,-0.058738,0.02292251,-0.00859571,0.10739034
FMdrD_jcYgE,0.01218707,0.00560741,0.04204809,0.00994094,-0.02303684,0.14667457,-0.05644775,0.01824399,-0.00748655,-0.02630393,0.01951976,0.02946793,0.00549116,-0.00608997,-0.11653318,0.1166349,0.04817765,0.00408009,0.01634945,0.04407531
FCaTFLdtsco,0.02589029,0.02094237,0.0552667,0.00753678,-0.00678862,0.31475003,-0.13305576,0.07149221,-0.00039335,-0.02054041,0.05886429,0.04499701,-0.0082124,0.02194755,-0.11642818,0.20556828,0.06354519,0.10388253,0.057644,0.16809931
mK3xENFCGnI,0.07191978,0.05408322,0.11870095,0.02496418,-0.0638918,0.02686777,0.05581081,-0.12292297,0.0271862,-0.03341838,-0.02841331,-0.07701547,-0.04852241,-0.02406224,0.09710561,0.0908357,0.04005415,-0.00026797,-0.04845499,0.04112016
6dt3fd17_d0,0.14806113,0.00777687,0.20134306,0.02882504,-0.14264421,-0.0420001,-0.0250548,-0.05228557,-0.01567547,0.2040258,0.16299533,0.02047602,0.04372646,-0.01145584,-0.02044096,-0.09249475,0.02622356,0.12032039,-0.10427695,0.04660621
Su0aCV35IFM,0.01094482,0.00739014,0.03974514,0.00778678,-0.01192954,0.26429239,-0.1167085,0.06256677,4.024e-05,-0.03163681,0.10392323,0.06498263,-0.00155529,0.0355736,-0.20078301,0.24666015,0.12338023,0.03496637,0.039653,0.16933079
ydRguU_cH8Y,0.01490374,-0.00299427,0.02637962,0.0111077,-0.00772789,0.13259703,-0.06151283,0.04899731,-0.01493915,0.04760185,-0.05912506,-0.01838913,0.02254635,0.01734927,-0.04060577,-0.06877579,0.15773795,-0.08408004,0.04302328,-0.04980809
jLFG_FZKbks,0.02117976,0.00813772,0.06438908,-0.00842037,0.0005349,0.21251933,-0.07901973,0.0459394,-0.00798089,0.06522408,-0.08785733,-0.02289446,-0.00289552,-0.01172989,0.06561075,-0.06843429,0.07416976,-0.03431053,0.00303992,-0.02445197
Z50QkVZcP1k,0.04274938,0.04133835,0.06705865,0.01834732,-0.04303151,0.01974816,0.03290482,-0.06318458,-0.00144935,-0.04480046,-0.02778919,-0.04891716,-0.03502367,4.671e-05,0.08557338,0.11051768,0.03812982,0.00552787,-0.0468607,-0.00888546
a1aFhMw2wQE,0.14776467,0.02821749,0.12126648,0.03969529,-0.13621491,-0.0395414,-0.03869039,0.02499958,-0.02489154,-0.13417267,0.01854944,-0.11069798,0.03497206,-0.0042169,-0.03130043,-0.04319678,0.0274252,0.01881408,-0.11354682,-0.09361118
Czf68kDF_7Y,0.00952394,0.00471778,0.04087251,0.02059325,-0.0088633,0.20014286,-0.08895037,0.04035046,-0.01232602,0.02458324,-0.03545325,-0.01750484,-0.03488021,0.03042675,0.13935354,-0.08725085,-0.24241524,0.03141614,-0.07094895,0.06713488
SAtFZPtbMpI,0.0069301,0.00543638,0.0180423,0.00325661,-0.0061738,0.02701793,-0.00271812,-0.00680848,0.00053163,-0.00105163,-0.00593312,-0.00017186,0.00236103,-0.00656487,-0.00094743,0.00461459,-0.00325208,0.00529239,0.01146577,0.02030595
reCJ5EuvukI,0.01668597,0.01398377,0.02296562,0.01003239,-0.00445044,0.0676047,-0.02113825,0.00595726,0.00093161,-0.01009207,0.01329055,0.00154977,-0.00142015,-0.00523873,-0.02600016,0.00803,-0.01275128,0.01349638,0.01329598,-0.01778969
KUvWaj4IFZg,0.07232541,0.04336895,0.02623671,0.01849594,-0.00507483,0.01687042,0.01346766,-0.05060908,0.0105414,-0.01680605,-0.00164981,-0.02940108,-0.04004082,0.03682755,-0.01405515,-0.02973956,0.01534261,0.03915721,0.03234374,0.00330392
AtSQBfBK6HE,0.01603578,0.00729444,0.0282485,0.01111076,-0.01134294,0.17542393,-0.07010278,0.03892207,-0.00311993,-0.01917872,0.06070768,0.02923749,-0.00061389,0.02764548,-0.11837448,0.14391834,0.02938345,0.02982308,0.00897805,0.09986121
snM0UfZxakc,0.02058553,0.00224382,0.04561245,0.02296984,-0.00751335,0.16322938,-0.05712234,0.02235074,0.0002703,-0.01515855,-0.01306588,0.00962661,-0.03547254,0.00330002,0.13133964,-0.07755121,-0.14932723,0.01419976,-0.0197585,0.0835893
Hk-ARbCTKzM,0.01937432,-0.00036454,0.04095282,0.01272159,-0.00726994,0.1710016,-0.07359156,0.03207334,0.00110224,0.05794571,-0.04077039,-0.00187578,-0.01801981,-0.01750103,0.04534933,-0.04576533,-0.04395324,0.0195327,-0.04873943,-0.02463837
jKTNMlUEdgU,0.0004108,0.00020952,0.00185292,0.00083264,-0.00025229,0.00686745,-0.0029561,0.00057869,-0.00048014,0.00146475,0.00072951,-0.00079001,0.00052819,-0.00083737,0.00100525,0.00014583,-0.00118496,0.00096565,-0.00047321,0.00307717
A2O_CSDImRs,0.0174869,0.00930405,0.06642593,-0.01783873,0.00706432,0.36578481,-0.14721535,0.11343285,0.00582097,0.09600047,-0.06457181,-0.03054408,0.01352666,0.0319716,0.02711931,-0.01658807,0.23690574,-0.03561931,0.00499706,0.04114721
fuxYQrqkfns,2.389e-05,2.894e-05,7.06e-05,1.041e-05,-5.16e-05,8.501e-05,0.00012194,-0.00019131,0.00023162,-0.00018141,-3.164e-05,-0.00066922,-9.184e-05,-0.00018354,-0.00080099,-0.00041055,0.00086608,-0.00015112,-0.00028212,-0.00137985
iBpxQpktHN4,0.00359306,7.914e-05,0.01083377,0.00297401,-0.00836236,0.02662706,-0.0186056,0.01663996,-0.01172785,-0.02724676,-0.00889545,-0.00980384,0.00408153,0.00969068,0.00677055,-0.02789728,-0.04668201,-0.00779582,-0.01519479,0.00530943
3PZ3d4eNWrc,0.01535056,0.01327037,0.04895531,-0.00100137,-0.01077402,0.24246988,-0.1041737,0.05998757,0.00248869,0.12039008,-0.06897146,-0.03004562,0.02211178,-0.00547934,-0.07571036,-0.03304315,0.14825601,-0.21071188,-0.07158716,-0.16623264
9pPCy9wqxuk,0.04893374,0.03558647,0.11465765,0.02948992,-0.0149179,0.01113654,0.04505048,-0.09526639,0.00358434,-0.01243355,-0.0278988,0.00733739,0.1566872,0.10371105,0.04666051,0.10058844,-0.0090889,-0.00318555,-0.07943108,-0.00205622
yE8fJOgv7Pc,0.01766028,0.00242211,0.04679855,0.0118579,-0.02828663,0.12455691,-0.04112413,0.00578295,-0.02853871,-0.04123017,-0.01930553,-0.01083031,-0.02124916,0.02535163,0.08119209,-0.09835202,-0.34654672,-0.06142305,-0.12728262,0.00054395
33HT7CnI79k,0.00690637,0.00402661,0.02843875,0.00943221,-0.0110773,0.20731392,-0.08769878,0.04370097,-0.0008547,-0.03151291,0.0689638,0.05889756,-0.01494418,0.02781165,-0.18477184,0.20792869,0.09034642,0.04710488,0.05702915,0.13259409
eOI7WQIEX1Y,0.05046834,0.05852033,0.06657935,0.00875618,-0.03283987,0.03122689,0.02422989,-0.08929328,-0.00657227,0.00205172,-0.01515452,0.01953569,0.1206802,-0.01369721,0.01108564,0.01625967,0.01662356,-0.06009981,0.03483754,0.07793367
2ZV29QhLfjw,0.06792116,0.05896255,0.08703294,0.02727334,-0.05837408,0.03804872,0.03983436,-0.10493899,0.00257102,-0.03102068,-0.00022368,-0.04513165,0.04189227,-0.02883677,0.11376153,0.12379708,0.04313389,-0.07382569,-0.066403,0.03604966
W65cfPslnzo,0.01075686,0.00266718,0.02752819,0.00928515,-0.01245872,0.12026951,-0.04376768,0.02293717,-0.00216336,-0.01227041,0.03746734,0.01942068,0.00122434,-0.01026245,-0.03842341,0.03611719,-0.03063939,0.0171732,0.00225759,0.00624105
PoHZWjU54jY,0.01497995,0.01941221,0.02118497,0.00488382,-0.00069024,0.17946877,-0.07843841,0.04083394,0.00206007,-0.02828373,0.07847253,0.0453321,-0.00195672,0.01694423,-0.14485884,0.1774711,0.08742659,0.06870736,0.03640289,0.12283054
pXI3xinu4bc,0.00800011,0.00379519,0.03331049,0.00739666,-0.00547074,0.11935978,-0.05137747,0.02068388,-0.00931195,0.04830114,-0.03174897,-0.00855505,-0.0168824,-0.0145097,0.05083203,-0.05593765,-0.01926964,-0.01218035,-0.0403682,-0.03093688
xjcVnFd-4YA,0.01557317,0.00802662,0.02386475,0.00786873,-0.01767334,0.02124921,-0.00155951,-0.01781915,0.00202139,0.01052346,-0.00545255,0.02341645,0.01900471,0.01401487,-0.01931582,-0.01573054,-0.0104679,-0.00843336,0.00553699,-0.02906366
VVLYJf2t88c,0.0420575,0.02131288,0.12233564,0.01279054,-0.04819387,0.03358377,0.01971512,-0.12819389,0.01871982,0.01525802,0.03658395,-0.02798286,0.06864024,-0.08941762,-0.047676,-0.07673738,-0.00233509,-0.0178787,-0.06749335,0.06333983
mpZK1dqX6aA,0.00140651,0.00129803,0.00307965,0.00123136,-0.00094716,0.01334524,-0.00432886,-0.00082697,-0.00026469,-0.00065743,0.00014025,-0.000756,-0.00333764,0.00289824,-0.0075953,0.00874665,-0.00757632,0.00074351,0.00027309,-0.0021803
uWa0odbimaU,0.14646684,0.0040791,0.12208071,0.0381374,-0.09869202,-0.00695571,0.00017537,-0.11618035,0.32033641,0.0758498,0.03369422,-0.03019536,-0.03711313,0.00257891,0.07589096,0.12231301,0.05212448,0.05668401,-0.03583938,-0.01197372
OEtIq4tR1rA,0.01074143,0.00463908,0.03781174,0.00969181,-0.02197131,0.10831375,-0.03589172,0.01794826,-0.0182239,0.02858593,-0.05970133,-0.00911398,0.0215844,0.03098231,0.08466598,-0.07334456,-0.05691996,0.05237952,-0.03817853,0.02876918
PnpHwhTWw0c,0.02539803,0.02249383,0.04725789,0.00313904,-0.00882285,0.14907569,-0.06197787,0.01937997,-0.00908348,0.0195203,-0.06869334,-0.03085434,-0.00524943,0.01956251,0.13305938,-0.05051378,0.01164954,0.00874707,0.00422556,0.11685521
TmkbUF0V0hM,0.02840653,0.00882457,0.04562274,0.02606514,-0.01375262,0.19518312,-0.03560814,-0.02541198,0.04570209,-0.43146259,0.49109653,0.20542752,0.01219177,0.03252484,0.11528229,-0.15020419,0.02136331,-0.07160565,-0.02978383,-0.10374476
8--Bq5oEsZ8,0.03228217,0.02434872,0.02211137,0.01176832,-0.02483013,0.03856923,-0.02550318,0.02874295,-0.01713273,-0.02094493,-0.00924487,0.01440173,-0.0013472,0.01578888,-0.04124195,-0.00300507,-0.01470399,-0.04367042,-0.00568536,0.02627753
2r0m4TsyIxs,0.00988402,0.00106001,0.02295615,0.00631682,-0.01393639,0.08730276,-0.03862826,0.02391985,-0.0066856,0.0105293,-0.01448907,-0.00386192,0.0169285,-0.00232497,-0.01258317,0.00515473,0.05723004,0.00372082,0.01126009,0.03899336
u_f8bJkfg68,0.0760162,0.07597044,0.02958711,0.01561211,-0.04275525,-0.00308939,-0.02592142,0.03877735,-0.02846877,0.01120914,0.00282898,-0.00113644,-0.00548357,-0.00567501,-0.01899752,-0.00247907,-0.03921026,-0.09758687,-0.00970081,0.02352678
WgcdDVIUXcI,0.04846039,0.03611974,0.0853555,0.0240931,-0.06587405,0.02832286,0.051902,-0.06138183,0.04692331,-0.05533041,-0.00077324,-0.06930499,-0.01252574,-0.00566177,0.0156336,-0.01930747,-0.05732874,-0.00375979,0.09076511,-0.00635198
LNKCHWOW7aI,0.01083769,0.0064914,0.04488348,-0.00089418,-0.00802344,0.16529659,-0.05934746,0.00906758,0.00057473,0.02644835,-0.0099518,-0.03963829,0.00073171,0.00231595,-0.05760187,0.0377948,-0.02058669,-0.03463309,-0.03908686,-0.10510342
tpay1lEGZ7g,0.0602592,0.01369846,0.13541955,0.04494758,-0.08063477,-0.00959096,-0.00858291,-0.08097934,-0.0218594,0.09357507,0.0700693,-0.02536345,0.00892589,-0.04766627,0.09787565,0.12367741,-0.00760406,-0.05380048,-0.03043343,-0.03201754
kB_PJC80JhY,0.1077745,-0.02211138,0.13035022,0.03213348,-0.10569119,-0.02300447,0.00618795,0.01952572,-0.08044425,0.00676905,-0.10279148,0.22595869,-0.06345822,0.0057615,0.02621542,-0.00351862,0.0266093,0.07785509,0.11989606,-0.10905802
N-zjDtQOwxc,0.09996431,0.04545965,0.19472623,0.03087143,-0.10654954,0.00350305,0.01908995,-0.13597922,-0.0480699,0.14845905,0.03052118,0.14238291,0.22819362,-0.03815114,-0.0043235,-0.02237135,-0.05203321,-0.00716596,0.06969448,0.02781137
ucN2hf0CgI8,0.02263165,0.0084425,0.03912966,0.01726543,-0.02062189,0.07615104,-0.02071344,0.00133377,0.01486039,-0.02430898,0.02783618,0.00436897,0.00413552,-0.00922902,-0.00819283,-0.00336897,-0.00747051,-0.03536416,0.02569099,-0.00824883
-CTY5XDxt8E,0.0055697,0.00264307,0.02355564,0.00715497,-0.00636772,0.18115041,-0.07689345,0.04373278,0.00024329,-0.02354855,0.0621771,0.04114455,0.00057615,0.02242274,-0.13056544,0.17584378,0.09667281,0.04780034,0.03088192,0.11823525
if955Z_s4Ts,0.01255077,-0.00262513,0.02098924,0.00677408,-0.00503198,0.12633399,-0.05170993,0.03283579,-0.00077306,0.04428144,-0.04140092,-0.02779899,-0.00845775,-0.03699146,0.03021723,-0.06609796,0.01993716,-0.03854735,0.01457615,-0.03706129
UPbaPjDGQIE,0.00930288,0.0046847,0.04124022,0.00160187,-0.00300312,0.17181546,-0.07810797,0.04021462,-0.003644,-0.00873139,0.03903005,0.0236911,-0.00619856,0.01062046,-0.09342068,0.11663567,-3.75e-05,0.03806287,0.02278571,0.06084766
k3wiE1KtSW4,0.06480386,0.01854816,0.03858594,0.01112802,-0.02895851,0.00396202,0.01436651,-0.07728893,0.04485013,0.00429272,0.00478389,-0.05289952,-0.04738011,0.07513288,-0.03130409,-0.03460834,-0.00137136,0.07807436,0.09747582,-0.0200223
suqYhItddAc,0.01368809,0.0055759,0.02898804,0.00694747,-0.015739,0.11158148,-0.03940158,0.01455973,-0.0102766,0.01669633,-0.02388515,-0.0169874,0.00942236,-0.01166439,-0.07969599,0.02464692,-0.00252835,-0.05715234,-0.01243489,-0.05473406
JWOErbTL9N4,0.01529129,-0.0001262,0.03338709,0.00293402,-0.00987797,0.13006047,-0.04974236,0.01005573,-0.00474061,0.0297027,-0.0156607,-0.01013838,0.00388024,-0.03021873,-0.07956503,0.03787707,-0.01426738,-0.03943181,-0.03095819,-0.05432438
rfRFwXnk660,0.03553004,0.00170702,0.04680241,0.00958537,-0.03188427,0.00420728,-0.00237974,-0.01485304,0.00018941,-0.03430688,-0.04322309,0.00939752,0.03135789,-0.06525014,0.01179829,-0.01867074,0.00947497,-0.02170186,0.014501,0.02221594
tkLxg6h07aE,0.03142036,0.01122573,0.06930194,0.03401576,-0.02290148,0.32761799,-0.0960003,-0.01668814,0.05386753,-0.53424278,0.5989035,0.2475021,0.00595388,0.05313303,0.04173667,-0.0627481,0.07509288,-0.03852795,0.01816336,-0.08488452
QNHEqcXa3Zg,0.10981833,0.09504583,0.13120125,0.01798613,-0.06942283,0.02598785,0.04911942,-0.10893744,0.01562594,-0.0849647,-0.05816764,-0.09375473,-0.04423992,0.0722546,0.04059809,0.10560984,0.01008906,-0.03245552,0.01803804,0.01379442
JjwHFerSu4M,0.04721217,0.03098177,0.08013721,0.02872502,-0.02758214,0.05887869,0.04316123,-0.10608395,0.01841629,-0.06294958,-0.01795724,-0.01667439,-0.02366718,0.02511974,0.05446361,0.02308747,-0.039,0.01796647,0.00287487,0.00025326
s6XPoPYDn-Y,0.01724721,0.00775551,0.04379758,0.01689456,-0.02399768,0.15678394,-0.03255069,-0.03936158,0.04653309,-0.42782596,0.47367463,0.1883145,0.0162635,0.02218429,0.11666133,-0.1766702,-0.00297806,-0.08940646,-0.03280501,-0.13713102
_dxtH2u5aAk,0.01185548,0.00089238,0.03194107,0.00706541,-0.00927827,0.15801745,-0.06505536,0.02807013,-0.00901029,0.01918097,-0.01172533,-0.03113316,0.00895162,-0.03479165,-0.16530372,0.09477438,-0.29090323,0.06517658,0.0011153,-0.12055935
W41XcEogOB0,0.01928582,-0.00141865,0.03160509,0.01879748,-0.00648777,0.12107582,-0.0387233,0.00997649,0.00729597,-0.07136349,0.07747522,0.03345086,-0.00688274,0.00484181,-0.03866257,0.03123642,-0.00851222,0.04071123,0.03917591,-0.03281737
oCsFEpxTxlI,0.10489706,0.09247811,0.11398687,0.0501632,-0.07934528,-0.00866439,0.02583866,-0.04583833,-0.12426368,0.06225217,-0.12428976,0.36446237,-0.19160397,0.07787673,-0.10963346,-0.05703447,-0.05650545,-0.17771999,-0.07129096,0.01391231
KGeCwEOLPGE,0.01664625,0.01357786,0.05458784,0.00091678,-0.01399002,0.26796999,-0.11405162,0.06301968,0.00334466,0.11765768,-0.05941207,-0.02404026,0.02468753,-0.00300052,-0.09217775,-0.01725153,0.15446268,-0.20797891,-0.06605706,-0.15218797
pUlUgkaTQZg,0.0093444,0.00505342,0.0403055,0.01785537,-0.00827259,0.19763284,-0.07682274,0.02937856,0.00680341,0.01506417,-0.00664672,-0.02068907,-0.01233246,0.001628,0.06710144,-0.0007179,-0.0591195,0.02807091,-0.01944156,0.07000143
ktkpd9A8MD8,0.0761258,0.00439724,0.12634021,0.01702487,-0.0789987,-0.0145104,-0.00422487,-0.06383274,-0.01539375,0.07372421,0.06970398,0.01279282,-0.05283009,-0.08071784,0.10240819,0.11818356,-0.02207659,0.04837298,0.01485982,-0.02327347
8OjVlmrtW4M,0.16588315,0.03462603,0.13043556,0.04948469,-0.10971611,-0.01045507,0.02456849,-0.09311292,-0.01164875,-0.0227128,-0.03019419,-0.01995799,-0.13377787,0.13607207,0.0020866,-0.02268575,0.08515041,0.03122389,-0.01146938,0.04416926
dl0-TveDDGA,0.00994556,0.00628387,0.04458889,-0.00185543,-0.0056072,0.21665777,-0.09108218,0.0622707,-0.00260688,0.08204022,-0.06458003,-0.0329045,-0.00058552,-0.01139142,0.07744245,-0.07731991,0.04916027,-0.03499005,0.00776237,-0.02606437
pG99B0ui06s,0.0065637,0.00277472,0.02491781,0.00569553,-0.01355127,0.10941418,-0.04523016,0.02266584,-0.00363538,0.02421505,-0.01698043,0.00123095,0.0007623,-0.01233143,-0.0834346,0.05391387,-0.01027922,-0.04043745,-0.02952558,-0.0507326
p4zPmpXfGyY,0.03100692,0.00891607,0.07942072,0.02022372,-0.02185172,0.25307995,-0.09184133,0.04784029,-0.00891281,-0.02704214,0.03350512,0.00667158,0.00341519,0.01184605,-0.01068421,0.01100834,-0.06420596,-0.03333244,0.01240928,-0.03790326
t9PF8V132Y4,0.01318915,0.00577199,0.03216127,0.00849689,-0.01297301,0.07573478,-0.03383088,0.00078052,-0.00963246,0.00772747,-0.0163288,-0.00617149,-0.0032318,-0.03157651,0.00291311,0.03252162,0.00682443,-0.02289976,0.00484235,-0.01990851
R-klQGp_308,0.01796511,0.01972836,0.0294296,0.00892479,-0.00960551,0.14892708,-0.06595773,0.03206887,-0.0068309,0.00801826,0.0222851,0.01399679,0.01181593,-0.0130645,-0.0373898,0.01080044,-0.02886405,0.00768197,0.00073111,0.01133704
ndkH5fZSIvs,0.02042713,0.00809849,0.06510411,0.06691125,0.03277803,0.15708082,-0.07309995,0.01407218,-0.00246033,-0.01839452,0.05933869,0.01261884,0.0027047,0.00898464,0.00740589,-0.0118021,-0.05301437,0.01323577,-0.00836681,0.0146283
a9T6IRpz31E,0.04467396,0.00481536,0.06672929,0.03198824,-0.02935342,0.1836853,-0.0320328,-0.04854448,0.03935389,-0.44510378,0.47730762,0.20049255,0.01664517,0.01024043,0.12868285,-0.16695217,0.00068281,-0.08985605,-0.00723965,-0.14178406
gdjCR9h1yGc,0.01357096,0.00459408,0.05528949,-0.01550903,0.00172893,0.21713337,-0.0961305,0.06002373,-0.01571614,0.06754602,-0.06639889,-0.01594511,-0.00073763,-0.00614752,0.05072752,-0.01779366,0.01514382,-0.01199134,-0.00931247,-0.05677042
5z8hOrxhApI,0.05324131,0.01153832,0.10004108,0.03724535,-0.07479161,-0.00678978,0.01597459,-0.00869613,-0.04728558,-0.01232731,-0.05763364,0.079827,-0.04044921,0.06287118,-0.00841428,-0.01854591,-0.03119448,0.07994526,0.02955854,0.01505795
Lqq78q17jDY,0.11819241,0.06527526,0.21596478,0.00912395,-0.08849795,0.02745872,0.02769986,-0.2336114,0.07393131,-0.20816915,-0.11354861,-0.29340446,-0.12916221,-0.20112336,-0.34197064,-0.12694652,-0.02415362,0.13002417,-0.37964669,-0.18112013
8TvJvfKz8Fo,0.0613095,0.01086093,0.1330402,0.03505143,-0.1139473,-0.01851788,0.01115994,0.07922322,-0.06040887,-0.04319768,-0.06002556,0.00515688,0.07457676,0.11382365,0.01337152,-0.02824431,0.0481322,0.05346529,0.02617825,0.00898407
m-nnyNZ0TQ0,0.01512601,0.00684345,0.05958928,-0.0132208,-0.00062912,0.19441169,-0.06599733,0.05499334,-0.00018709,0.0838493,-0.09879446,-0.05324365,0.0076486,0.00739059,0.06582067,-0.08099503,0.02721721,-0.04742232,0.02629384,-0.12345349
dU5sDKcwN9E,0.02118682,-8.55e-06,0.04620289,0.00429332,-0.00333777,0.24777936,-0.09920191,0.05364099,0.00912087,0.01920211,0.00995172,-0.00138592,0.00947948,0.00063092,-0.06541138,0.06257549,0.13026745,-0.01480959,0.00908901,0.01252312
OCGgYu3vku4,0.09666286,0.09386472,0.06133422,0.0266065,-0.04846052,0.01698935,0.01438298,-0.05470626,0.00594501,-0.05213062,-0.06627859,-0.02357757,0.00379098,0.02262771,0.0383415,0.05537789,0.00919458,-0.04415609,-0.05337454,-0.02640918
ExlWYbISs6I,0.0174697,0.00487382,0.05677936,0.01866257,-0.02312415,0.18570358,-0.07940422,0.02120837,-0.01774505,0.03589519,-0.05409211,-0.00292076,-0.02483073,-0.06076107,-0.10022584,0.04094525,-0.11420566,-0.07308543,-0.1306349,-0.13169616
eRD2C7w9r6Y,0.04585831,0.03647595,0.034507,0.01206429,-0.02675103,0.01904663,0.04147062,-0.04432311,0.00548736,-0.03212094,-0.01928477,-0.03201072,-0.00900525,0.0197394,0.02403947,0.02864966,0.02714836,0.02778256,-0.02609591,-0.01984351
ERWIJPTNZVM,0.00564769,0.00555297,0.01462618,0.00785447,-0.00348331,0.0424297,-0.00963227,-0.00944793,-0.00138744,-0.00575419,-0.01382809,0.00171024,0.02351194,0.00970073,-0.02497411,0.0109794,-0.01980788,0.03539418,0.03935222,-0.00738152
8nwaOxXIj0g,0.05267939,0.02893501,0.14022411,0.00915822,-0.03922679,0.02540768,0.02112048,-0.07968285,0.00231615,-0.07445182,-0.05956693,-0.00856031,-0.00727968,-0.10731108,-0.03917695,-0.00259824,-0.02645695,-0.04087405,0.0335557,0.05730351
L5HQ_jx0HX8,0.01545769,0.00465522,0.05711546,-0.00031725,-0.00784209,0.35650896,-0.14465371,0.08863694,-0.00857869,0.03980613,-0.00408202,0.00322363,-0.002424,0.00441793,-0.18578571,0.13024013,0.13691823,-0.07110739,0.01913035,-0.04862107
fwUWAoSeg2g,0.03995444,0.02571415,0.1482197,0.24581167,0.20495745,-0.01990738,-0.02314676,-0.01949177,-0.0010088,-0.00856538,-0.01684031,0.00639045,0.04770362,0.0133494,-0.02175323,-0.0129491,-0.02890483,-0.04307563,0.01844978,0.04380876
XoDfpxBy8Ag,0.05419546,0.0100564,0.1282557,0.04835572,-0.07024838,0.04131193,0.04707099,-0.14599674,-0.04872446,0.05439271,-0.10377037,0.30808158,0.16938506,0.06857484,-0.09166481,-0.04599188,-0.00794239,-0.08741503,-0.06748931,0.08601061
5wuHYQMnYhA,0.01673585,0.00798202,0.03895101,0.01470803,-0.01877511,0.14624043,-0.06199119,0.02162613,-0.00391536,0.02015146,-0.00128064,-0.03694753,0.00777569,-0.02357357,-0.17040881,0.11807883,-0.27137129,0.09427932,0.01798457,-0.10048318
5YKhtb3DNNo,0.06070544,-0.01143148,0.06526384,0.03660602,-0.01808439,0.01036609,0.0167313,-0.05115376,0.00254837,0.08515731,0.0529909,0.03761423,-0.06123712,-0.01266623,0.0510075,0.05465435,-0.00899497,-0.0591501,0.06991455,0.00770633
4Zi41MRVP0g,0.08521712,0.03511989,0.10785759,0.14860757,0.0732186,0.01527681,0.02418063,-0.09909425,0.02978316,-0.04591315,-0.01939738,-0.06592169,-0.05063604,0.05995307,0.06862432,0.07649572,0.04579733,0.02769049,-0.01068534,0.00033147
vgwG6e9TFcw,0.01146456,0.00815252,0.03568241,0.00649806,-0.01295073,0.16461445,-0.07675117,0.04037123,-0.01046206,0.03278112,-0.07298983,-0.02787744,-0.02158358,0.0799031,0.25198731,-0.12002841,-0.07651074,0.0755885,-0.01338583,0.23219852
JQ8OpyAeTxw,0.07590516,-0.00068457,0.10997582,0.03445004,-0.07643668,0.04244012,0.06657718,-0.15298791,-0.06679425,0.06973437,-0.18050546,0.44343965,-0.22085069,0.08801261,-0.06938232,-0.1161781,0.03644246,-0.12095593,0.0461798,-0.17843859
0kHJZFOuMWc,0.06447609,0.01378037,0.16811646,-0.07041733,0.00029711,-0.01340002,-0.01140731,-0.09447847,-0.02009493,-0.04415468,-0.04280476,-0.00139096,-0.0514665,-0.1127583,0.13047258,0.2423794,0.00499984,0.01722245,-0.10315718,-0.12569332
98VQpHj17Ws,0.01373177,0.00997767,0.03577032,0.00644616,-0.01882117,0.06754147,-0.02282975,-0.00801803,-0.01192526,0.01460899,-0.02538625,0.00978003,-0.01825047,0.01997833,0.00853856,0.0017714,0.01948669,-0.01680357,0.00479817,0.01257661
0t118SCf-2w,0.00528111,0.00330762,0.01870716,0.00549557,-0.00750587,0.11142531,-0.04570695,0.02111058,-0.0022758,0.01193576,0.00159527,0.00774573,-0.00132712,-0.00997627,0.01299782,0.02415614,-0.02610882,0.03285397,-0.01432849,0.04717026
dNNyCZwEa6k,0.01014603,0.00479408,0.04371294,-0.00038361,-0.01072069,0.1521169,-0.05887708,0.03173604,-0.00903606,0.04627586,-0.04863503,-0.01302273,-0.00199858,0.00302214,0.02518113,-0.01189252,-0.01012331,-0.01957434,-0.00521212,-0.04331768
07T7V-Szcx0,0.00823617,0.0047433,0.04300231,-0.00453047,-0.00190002,0.21427243,-0.08663967,0.06619365,-0.00046367,0.09677195,-0.07385894,-0.04332442,0.00216669,-0.00118038,0.07349461,-0.10618469,0.10169779,-0.02314927,-0.00206635,-0.03185284
IrGd4xIhTN0,0.01090894,0.00539449,0.03515941,0.01069272,-0.01433629,0.16291351,-0.05745073,0.02299051,-0.0008666,-0.03939306,0.05741853,0.0409458,0.00220391,0.02094636,-0.122026,0.15053118,0.06231187,0.02251606,0.02863216,0.11213003
BdUzhVM5w1U,0.00999091,0.00358551,0.02667778,0.00464143,-0.00697339,0.15696607,-0.06777421,0.03335746,-2.67e-06,0.04948533,-0.03626694,-0.01565499,-0.01434741,0.02362956,0.08551901,-0.04413321,0.02230411,0.0555437,0.00178309,0.06946312
XsY6iChNzf0,0.02084267,0.02039827,0.05933045,-0.00450563,0.01169564,0.03580513,0.04182167,0.01590703,-0.00577301,0.00033028,-0.01614393,0.01667101,0.01507632,-0.03160548,0.01057458,-0.00527355,-0.0348539,-0.01474683,0.02009018,0.00709778
up__2flbXw4,0.01027496,0.00694419,0.02947807,0.00066402,-0.00719377,0.07079154,-0.03047867,-0.00519289,-0.00992282,-0.05636648,0.02529194,0.02007489,-0.00904482,2.374e-05,0.06838656,-0.06194782,-0.14610594,-0.02963693,-0.04742555,-0.020431
4at2bVIhLgc,0.00975714,0.00294471,0.01660126,0.00383796,-0.00320327,0.11591967,-0.04240333,0.0279294,0.00106674,-0.02674713,0.06333231,0.03561736,-0.00505466,0.01821014,-0.11295933,0.14415667,0.04733191,0.037342,0.0285313,0.07978122
1baBzd1XPkU,0.01392429,0.00443028,0.03322692,0.00283868,-0.01488461,0.05664175,-0.02723105,0.00438226,-0.0004797,-0.01162784,0.00503305,-0.00381832,0.0049356,-0.00189444,0.01405299,-0.01240051,-0.01166804,0.00941794,0.01580449,0.02548698
MVFd0qFB9TE,0.00780607,0.00571065,0.02700573,0.00639374,-0.0075335,0.14116697,-0.05499298,0.03522694,-0.00026135,0.05115949,-0.041758,-0.02847251,-0.00162684,-0.01263324,0.03378736,-0.08993372,0.03137573,-0.0337615,0.00728325,-0.02254223
69AWec8qjjo,0.05153441,0.0192701,0.06570408,0.01485272,-0.03920315,0.05144853,0.02554107,-0.12311087,0.01660178,-0.00021907,-0.08819198,0.123689,-0.14452576,0.11379799,-0.01425902,-0.1017734,0.05973944,0.02178567,0.08603905,-0.09567706
gzjXoJoWgjs,0.03597517,0.02164795,0.06025479,-7.048e-05,-0.01943356,0.25650655,-0.10194347,0.05349854,0.00417681,0.06088325,-0.0685059,-0.05556157,0.02145083,-0.05813717,-0.09518216,0.01977369,0.09763184,-0.12578681,-0.02416886,-0.20072178
0HSNPIttevk,0.03695007,0.0095873,0.07265603,0.02667859,0.01439052,0.30357477,-0.13335926,0.07515736,-0.00890787,0.08568394,-0.12285685,-0.06571633,-0.02086896,-0.01638056,0.18584379,-0.13630171,-0.11830763,-0.00961548,-0.00036693,-0.09339338
3fsJFUvA6Ts,0.01481601,0.00971064,0.05258622,0.01662393,-0.02163476,0.34608262,-0.15134057,0.07962743,-0.01539261,0.02533934,0.00277771,-0.02453158,-0.00966613,0.01604015,-0.16105965,0.16290651,-0.3583999,0.13358042,-0.01732952,0.07963326
vNXFk8iGHk8,0.01767493,0.01411158,0.05609219,0.00067178,-0.01698469,0.25644202,-0.11034224,0.06448374,-0.00212732,0.12131843,-0.0584151,-0.02036496,0.01649606,-0.00089973,-0.10711396,0.0039466,0.15780759,-0.18222803,-0.06493379,-0.13371313
DmcKWMeNWaQ,0.06859193,0.03254807,0.14875305,0.05471807,-0.11088154,0.00979148,-0.01523625,-0.08769698,-0.02063398,0.17008443,0.14591038,0.00499292,0.02702066,-0.05068366,0.05862292,0.00133767,0.00202152,0.07312401,-0.04393818,-0.0534692
39czcByvq7c,0.02420433,0.00799808,0.04124422,0.01170765,-0.02391526,0.14161696,-0.033453,0.0300324,-0.00493837,-0.00021365,0.02363312,0.00481249,0.01755064,-0.04362778,-0.01971836,-0.01924834,-0.00393487,-0.00208095,0.01973685,0.05564133
FYMdllTCrc0,0.01258992,0.00489904,0.03931071,0.00873889,-0.01261073,0.25166154,-0.0930082,0.05685404,0.00495587,-0.06836841,0.12671084,0.07406046,0.0012122,0.0148844,-0.18826263,0.24605436,0.09548646,0.07067724,0.03513553,0.17860739
z7Qp9Q_Br88,0.01514267,0.00500215,0.03753435,0.0129635,-0.02250666,0.10514633,-0.04510671,0.01146573,-0.00407345,0.02347782,-0.02476876,-0.01491896,-0.00228991,0.00638359,0.08430055,-0.04046533,-0.02739953,0.07065541,-0.01187638,0.07273347
ywEV7NQlO1Y,0.02764269,0.02862139,0.06391902,-0.02194888,0.00105426,0.03086218,0.0036296,-0.0275359,-0.00466016,-0.03649004,-0.00576997,-0.00252896,0.00947942,-0.0105729,0.00807633,-0.04421736,-0.11554049,-0.02039907,0.02241493,0.04033406
QfUb5MEAOXA,0.01014073,0.00644401,0.03419382,0.001876,-0.01198187,0.08743111,-0.03506602,0.0104103,-0.00626252,0.01212597,-0.01788251,-0.00420726,-0.01220458,0.00304142,0.04746863,0.00808626,-0.03764778,0.02765456,-0.00326845,0.05491655
6hNY0K71Ewo,0.06131663,0.04650017,0.11176015,0.02974654,-0.08150284,0.00996068,0.04237223,-0.09097715,-0.03292781,-0.07418067,-0.0572429,-0.04687568,-0.03080375,-0.09018762,0.06998939,0.08450205,0.06343664,0.09822258,-0.08422997,-0.07600831
u5HPVyEpyNI,0.08272993,0.04584177,0.12892218,0.03739956,-0.09697173,0.03057442,0.05523643,-0.16862394,-0.01567423,0.01298943,-0.08439152,0.17236972,-0.15378949,0.09315499,-0.06235126,-0.07231145,-0.01121079,0.02785742,0.06833897,-0.02223568
kBctc9rV__4,0.09065663,0.06617809,0.27242609,-0.14645972,0.10345293,-0.01715722,-0.02761328,-0.09568046,-0.00342209,-0.07693454,-0.05813365,-0.03079535,-0.0494767,0.0088262,0.07504138,0.1039711,-0.01670871,0.06451537,-0.04853965,-0.00964138
kijJaXVri7Q,0.04261989,0.03795425,0.05632683,0.02272254,-0.03314218,0.03167166,0.01786097,-0.05880718,-0.00279737,-0.02943258,-0.02804141,-0.03482931,-0.00020314,0.02348552,0.00719182,0.00436936,0.0173497,0.00523033,-0.02928778,-0.00428103
roUppNywDks,0.02677429,0.0090017,0.0598138,0.018582,-0.02795756,0.27844994,-0.08897044,-0.00294711,0.03377099,-0.42299356,0.45924489,0.19513796,0.01085919,0.02896498,0.03832878,-0.06003078,0.01641777,-0.0515442,-0.01943385,-0.05919524
nN9QYJdEcw0,0.0075495,0.00301026,0.02499934,0.00755316,-0.01639011,0.04204358,-0.01205128,-0.01137818,-0.00383826,0.01906757,0.0053048,-0.001567,-0.0079958,0.00020783,-0.01278017,-0.00699292,-0.02140786,0.01059735,-0.00183798,-0.00507781
bRy54zQmixQ,0.01517574,0.00852137,0.03909099,0.01373123,-0.00295309,0.16453786,-0.06472112,0.01408725,0.01816715,0.03081067,-0.07224699,-0.04489918,0.0039431,0.01555727,0.04421619,0.00653397,-0.07975628,0.06490486,0.07034332,0.09786706
BPt0fwBCDbQ,0.07852476,0.07224269,0.10182857,0.05447681,-0.07081636,0.01164247,0.0218433,-0.08830619,0.02415756,0.04096554,0.00289589,0.00616689,-0.06041527,0.0862047,-0.09757689,-0.05350638,-0.0275285,0.12900783,0.03320347,0.05801809
tbvteFr4SPQ,0.05584131,0.03051352,0.10605745,-0.00541153,-0.03638072,0.02264599,0.01815057,-0.09678463,-0.00108369,-0.00532384,0.01639938,-0.00075318,0.00565533,0.00581322,0.10410315,0.12189828,0.02729829,0.02070141,-0.0405142,-0.04275055
HRxULulg_hM,0.02318887,0.01128281,0.05915759,0.02323309,-0.03505409,0.16688309,-0.06754596,0.04427617,-0.03423911,0.02671164,-0.03257531,0.03844919,-0.01998149,-0.02968921,-0.0973772,0.05657169,-0.08359671,0.03419892,-0.05282962,-0.08314805
LLK879SXq_w,0.11119308,0.0571893,0.31047621,-0.13590454,0.21964563,-0.04096812,-0.06862237,-0.11195142,0.03939385,-0.03057804,-0.01514892,-0.03646653,-0.05190632,0.00798344,0.00635986,0.03866739,-0.04461492,0.06539938,0.03583265,-0.00431494
3era1_feC3U,0.00807409,0.00251635,0.02214528,0.00769822,-0.01553471,0.01450609,-0.00437074,-0.00429791,-0.0084353,-0.00615845,-0.00968125,-0.00277296,0.00281921,0.00739573,-0.00633622,-0.00793987,-0.02203476,-0.00223278,0.00156184,0.00610172
oOCN30ulVyo,0.01710341,0.0176265,0.02304482,0.00456737,-0.01382066,0.05079461,-0.01398112,-0.00625675,-0.01308598,0.00140173,-0.0127982,0.03074342,-0.03387834,0.00078724,-0.01275999,0.01210816,-0.06521804,-0.04209624,-0.01099755,-0.01148968
JrGlAw_Q7ow,0.01476793,0.00671688,0.05420822,-0.00169212,-0.01592328,0.20603816,-0.09172531,0.06941485,-0.00922077,0.06890653,-0.05775256,-0.0392019,0.01083281,-0.00529785,0.08085267,-0.09731708,0.04695076,-0.03568439,-0.00299592,-0.02860149
8u7HqZJQHDM,0.0226997,0.01164112,0.06506097,0.02934811,-0.02618813,0.32402998,-0.09984489,-0.00964216,0.05196871,-0.50594021,0.59174426,0.25790204,0.02186621,0.04113996,0.03080603,-0.04276209,0.08565958,-0.0559479,-0.00453138,-0.02182304
pcAJLeGAtwc,0.01379202,0.00105156,0.02936114,0.00611451,-0.0110933,0.06726375,-0.02547047,0.00373141,-0.01001643,0.01690463,-0.02403771,-0.00575911,0.00839808,-0.01315908,0.00803479,-0.01188942,-0.00590361,-0.00132475,-0.00596208,-0.01320547
BOmc_wliaRg,0.02279883,0.0057998,0.02662537,0.0192365,-0.00525026,0.03378116,-0.00339124,-0.02126281,0.00653145,-0.05790509,0.04242329,0.01078023,0.00539735,0.00994083,0.03490974,0.00209817,0.01310204,-0.01119698,0.01120255,-0.0171576
UM9dcnJXX0k,0.02939557,-0.00389542,0.0278743,0.01904562,-0.00361829,0.05330204,-0.00364717,-0.00446036,0.00239579,0.0030143,0.00293086,-0.0036671,0.00466319,-0.03146584,0.00557402,0.01498955,0.0407282,-0.00755104,-0.01667202,0.03276276
Cr7oGnSzmb4,0.00797535,0.00729997,0.01969165,0.00515679,-0.00999892,0.11203404,-0.04775359,0.02779348,-0.00972957,0.03022021,-0.03311871,-0.0049586,0.00125297,0.02294684,0.0912125,-0.03470383,-0.03205739,-0.00784974,-0.02955971,0.0907687
eBbqRceO2qY,0.06313951,0.08322647,-0.01168289,0.00941315,7.259e-05,0.0392882,-0.01126699,0.03296079,0.03446499,-0.01450428,0.01378838,0.023513,0.007681,0.01488068,-0.03606425,0.01829591,0.0290523,0.01830767,0.00902101,-0.00491706
io_Ysi-LFWE,0.01015797,0.00725778,0.03154144,0.00963166,-0.01489326,0.15003339,-0.05672127,0.01925881,-0.0098126,-0.08177623,0.07955868,0.03577028,-0.00599934,0.00513086,-0.01704939,0.01409,-0.16068831,-0.00078419,-0.02870545,0.00715702
81RBVN6P9cM,0.02778994,0.01082353,0.05692178,0.00615243,0.01229505,0.15083676,-0.03249251,0.03221366,0.01451287,0.01115961,-0.05673513,-0.02877797,-0.00684018,-0.00903286,0.06789176,0.00481511,-0.07418769,0.06802559,0.07762645,0.13334566
_WrHMsTYlOU,0.01165403,0.00727803,0.03274802,0.00781406,-0.01181911,0.07387282,-0.02615145,-0.00205507,-0.00721439,-0.04275393,0.01838407,0.01186201,-0.00465422,-0.01885508,0.01381662,-0.02185525,-0.13227435,-0.01180473,-0.02951187,-0.0459837
YUwjueXzffE,0.02501795,-0.00340308,0.05255728,0.00443654,0.00372008,0.21159376,-0.07748437,0.04173876,0.0058529,-0.02213927,0.02167145,0.0065116,-0.0119643,0.02700727,0.08710649,-0.0322825,0.07679722,0.04034237,0.0027476,-0.0015481
1PIbKMyFMAY,0.0478882,0.04461922,0.10377269,-0.01736787,-0.02480777,0.00659366,0.01746788,-0.05726859,-0.01383186,-0.04092936,-0.0270038,-0.01244831,0.01392229,-0.07123556,0.05135655,0.09499528,-0.01399121,-0.09847328,-0.00711764,0.09804415
31t_CBePs34,0.0372233,0.00901654,0.1090845,-0.03604891,-0.01284878,-0.01723364,-0.00086007,-0.05698188,-0.01951017,-0.03539818,-0.02776528,-0.01969834,-0.06106278,-0.03458991,0.0318704,0.13077884,-0.01782072,-0.04964712,-0.14803001,-0.02322632
7NeECqsR_u4,0.01103849,-0.00078442,0.02626961,0.00719651,-0.01537177,0.14250626,-0.07029568,0.04368625,-0.02209283,-0.0327438,-0.01218444,-0.00189744,-0.0084961,0.02129007,0.13506414,-0.11784195,-0.18813439,-0.02778394,-0.08127708,0.06465975
UsS6bOYnnOI,0.01871151,0.00800434,0.04819857,0.00826172,-0.01539553,0.15156671,-0.06138439,0.0325051,-0.00520898,-0.01291456,0.01663171,0.00837658,0.00205227,-0.00207666,-0.08579789,0.08800564,0.06177024,0.01423014,0.04476037,0.05559439
lEhOg8oVpjU,0.17733259,0.04681402,0.21257863,0.07104003,-0.17258706,-0.0148918,-0.01058673,-0.12682825,-0.02392071,0.14848327,0.07264785,0.02373246,-0.12445774,0.07944315,-0.00446965,-0.06951506,0.09402719,0.081035,-0.05053522,-0.00409917
er7v-GJj_V0,0.09242376,0.0439632,0.10902906,0.0392658,-0.08835591,0.00645051,0.0130646,-0.06795912,-0.01432599,-0.05426332,-0.04298945,0.01377047,-0.03456464,0.09648285,0.04499954,0.01399214,0.03817179,0.13782081,0.0258104,-0.0529517
JuRjZqzpP0g,0.01654332,0.00634483,0.0729437,-0.00731578,-0.00192989,0.36503306,-0.14231841,0.10177319,0.00392937,0.08901229,-0.06431674,-0.06980224,0.01011077,0.00207511,-0.1837188,0.10852341,-0.06861634,0.04042335,0.08109292,-0.13991427
8QsAx7s9PmQ,0.01144098,-0.00085328,0.02258865,-0.003577,-0.00342019,0.05690244,-0.01480572,0.01106693,-0.00395075,0.011898,-0.00429167,0.01336395,0.00351129,-0.00300023,-0.007946,-0.00657703,0.03630903,0.01093524,0.02032872,-0.01807172
DYkyYUjOZTk,0.01271783,0.01011344,0.02866809,0.00850041,-0.01851338,0.08334521,-0.02720384,0.00678235,-0.00290252,0.0198665,0.01056272,0.01209367,0.00896799,-0.0087804,-0.02401735,-0.0046502,-0.01648481,-0.00287878,0.0100961,0.01366983
_UFmkJrpc3Q,0.01100391,0.00590045,0.05290861,0.00913139,-0.00034701,0.26671334,-0.11924144,0.07144868,-0.00433376,0.09404202,-0.13168387,-0.0624478,-0.03386451,0.03198362,0.2952783,-0.18395839,-0.15958074,0.05019429,-0.0004035,0.04459747
TET8fTKH1e8,0.12184642,0.05104688,0.1540015,0.00962965,-0.06142952,0.02387761,0.04602454,-0.1485409,0.02128651,-0.02818539,-0.05529541,-0.00539903,0.08131391,-0.04585029,0.1146101,0.11388449,0.00776552,-0.05742769,-0.03205353,-0.00373803
Y254oB1QNOE,0.02595064,0.01108283,0.03869817,0.00413233,-0.01390831,0.13044375,-0.05654568,0.02113886,-0.00754315,0.01862384,-0.01339029,-0.01818802,0.00516237,-0.02488002,-0.01674235,0.01431494,0.05021137,-0.03728132,0.00741677,-0.06430933
2pao0845DQQ,0.01344592,0.00231406,0.03868637,0.00759776,-0.0212621,0.04216449,-0.01021337,0.01071599,-0.03356419,0.02417211,-0.0321846,0.05120101,0.00759121,-0.03022882,0.03776592,-0.02578004,0.03680584,0.09108336,0.0392858,-0.0142474
aqvgY-woRYk,0.04973873,0.04421335,0.09186728,-0.01062227,-0.02202841,0.03637244,0.01166236,-0.06058458,-3.329e-05,-0.04212921,-0.03050275,-0.0375402,-0.00355942,0.03381004,-0.00334554,-0.05201178,-0.07554294,-0.00776739,0.02378088,-0.02381621
GXeBi91SkIw,0.01319714,0.00091756,0.03048922,0.01504199,-0.00532704,0.14884752,-0.05617073,0.02088716,0.00620206,-0.04838418,0.07288801,0.0361812,0.00066505,0.01714026,-0.06914786,0.0834237,0.07021214,0.0156559,0.02547676,0.07814542
IAn3Wu2BdyY,0.09821644,0.03478809,0.10922417,-0.00137461,-0.0396731,0.02819064,0.04665476,-0.17419606,0.06202057,-0.02983366,-0.03848943,-0.07146115,-0.06835588,0.13439338,-0.04487133,-0.02869867,-0.00567158,0.04778198,0.09876007,0.0227376
0D14LJGiBkg,0.0076653,0.00574948,0.02182919,0.01129749,-0.00390986,0.08703463,-0.0347894,0.01200141,-0.00163159,0.02174287,-0.03590262,-0.00658767,-0.00351486,0.01156403,0.05383588,-0.02275857,-0.04897728,0.04450145,0.00503305,0.05083087
-1Fhry-Mqks,0.01162252,0.00470621,0.02808244,0.00696901,-0.00841854,0.12824261,-0.05223818,0.01782041,-0.00438743,-0.00460958,-0.00301117,8.656e-05,-0.01104912,-0.01463136,-0.00120343,0.00144589,-0.02278682,-0.03797072,-0.02427524,-0.06006767
U0f47Nt9g-Q,0.04490398,0.03089207,0.1097387,-0.01531974,-0.01835975,0.00596699,0.01318022,-0.05674784,0.00098198,-0.03723187,-0.04621144,-0.02228697,-0.01611554,-0.05784527,0.07447717,0.08773449,0.00861034,-0.07478952,0.01958545,0.1294109
IMM5cm6xrXQ,0.0130658,0.00635557,0.04366243,0.00823158,-0.01869401,0.12285987,-0.05090144,0.00607429,-0.01685886,-0.01281307,-0.01116325,0.00934131,-0.02962415,0.00356561,0.03701573,-0.03878729,-0.21044902,-0.03336972,-0.08688656,-0.03951479
VgH5rhALEfU,0.02126564,0.02122318,0.03671973,0.00793436,-0.01181866,0.08249984,-0.03314585,0.00961209,-0.00503148,0.01555873,-0.02715393,-0.01052561,-0.0092517,0.00495865,-0.00902357,-0.00798953,-0.03175682,0.00409106,-0.00117837,-0.04483323
jAaw0vn7eLs,0.00961635,0.00435342,0.03493822,0.0127646,-0.01397819,0.15013474,-0.06049069,0.03026207,-0.00214001,0.00097815,0.03060966,0.01676889,-0.0063827,0.0208276,-0.06254702,0.07397013,0.08508601,0.04404646,0.01876433,0.08849339
v_1Dhh8G84c,0.01590592,0.01098938,0.04192329,0.01389064,-0.02535727,0.12184968,-0.04262042,0.00285889,-0.0013926,-0.00807323,0.01023228,0.00612167,-8.447e-05,-0.02106058,-0.03143137,-0.01084021,-0.05510461,-0.02853652,-0.02250851,-0.05107048
jFZPpkVszCg,0.11049633,0.0789301,0.19043034,-0.05026859,-0.05103437,-0.03014472,-0.00747868,-0.0542528,-0.05910046,-0.0540731,-0.03389121,-0.0061052,-0.11074306,0.03991384,0.0269944,0.1701902,-0.05727853,-0.16428501,-0.22843503,0.02645771
Gmfpq60LbVQ,0.03160172,0.01458116,0.11044551,-0.0521441,0.00816574,0.03387926,0.01842326,0.0172169,0.01677134,0.01146461,-0.03761824,-0.01868143,0.04884571,0.00717834,-0.03078021,-0.06677961,0.06193222,-0.05971902,-0.01675709,0.00414317
aZVcAlzBIp4,0.01603704,0.01426402,0.01256652,0.00689721,-0.01055875,0.0370541,-0.01658829,0.0121527,-0.00431747,0.00243579,0.00351043,0.00721358,0.00840886,-0.00661158,-0.01718653,0.01564306,-0.00041861,-0.02162805,-0.0059315,-0.00182805
kH_bSvf7EVA,0.0063775,0.00599812,0.01853703,0.00613583,-0.00677464,0.13257112,-0.05479745,0.02860368,-0.00416297,0.02871171,-0.03894557,-0.00311163,-0.006853,0.03113988,0.09344606,-0.03157417,-0.01787198,0.03450116,-0.02186237,0.15883922
enQeP-ztP5A,0.07723009,0.03818773,0.05872909,0.00021835,-0.00613181,0.02176257,0.01392366,-0.05029743,0.00977604,0.00899889,-0.0027892,0.00253236,0.01030514,-0.01079315,0.01126955,-0.00487541,-0.00756554,0.0082344,0.01568322,0.01338205
BflRX7z7SHs,0.07433187,0.03383437,0.11501432,0.00173727,-0.05231154,0.01853742,0.00703634,-0.07007312,0.00144682,-0.03472565,-0.01588534,-0.03541279,-0.0634024,0.08017507,-0.04766041,0.01426426,-0.0782086,-0.03963426,-0.02790446,-0.01964937
wgADj9n8XMs,0.07308582,0.06324495,0.1394572,0.01108987,-0.06773937,0.00980592,0.02307749,-0.06036014,-0.08122437,0.05526876,-0.08989344,0.29105835,-0.10559403,0.01446158,-0.11752525,-0.08848698,-0.0660073,-0.1465634,0.09405965,0.0235667
3LnNwS6rqk8,0.06425298,0.06655495,0.09582081,0.0235438,-0.06565676,0.04693012,0.04378244,-0.1160789,0.01268647,-0.07785739,-0.0538714,-0.07812581,-0.06468978,0.06928173,0.07169835,0.10128985,0.0231521,0.0154311,-0.0337614,-0.02568953
RniYUmKs93U,0.00713111,0.00274587,0.02416745,0.00753053,-0.01517391,0.04233235,-0.01522761,-0.00574142,-0.0041337,0.01074959,-0.00556863,-0.00274504,-0.00270514,-0.01218969,0.00020388,-0.02016896,-0.02583767,0.01598655,0.01040416,0.01064918
XGAhqBxEV78,0.01832705,0.00696393,0.03883068,0.00665057,-0.00967262,0.10192639,-0.03548821,-0.01001026,0.013136,-0.00424707,-0.0479657,-0.02970468,0.00367822,-0.00464864,-0.01602849,0.03180041,-0.0286837,0.06964254,0.08105451,0.07300592
WeliLUboy3M,0.04077131,0.00833815,0.06461345,0.03663404,-0.01750429,0.30534497,-0.07541455,-0.00241165,0.0539049,-0.49223167,0.56678507,0.23555668,0.00806344,0.05343202,0.03050401,-0.06110854,0.06908983,-0.03846637,0.01502215,-0.08494343
wy3a_xJI3so,0.01889384,0.01017302,0.06285772,-0.01108209,-0.00117014,0.20554524,-0.07192564,0.05005676,0.00437416,0.10028969,-0.08686122,-0.03826548,0.0074107,-0.00832099,0.02913292,-0.08526621,0.1065812,-0.09067432,0.01672526,-0.14263518
iK6HT02LYX4,0.01125455,0.0079053,0.03620548,-0.00979975,-0.00142264,0.13352107,-0.05346256,0.04883376,-0.00707883,0.06798074,-0.08220861,-0.04404562,0.00616452,0.01631578,0.07351087,-0.07267241,-0.03963454,-0.02671648,-0.00357016,-0.09220182
gEUMAljLr78,0.05996164,0.0601334,0.09279329,0.03008232,-0.07308646,0.03638603,0.04150975,-0.1043072,-0.06908558,0.04807314,-0.06514427,0.28398356,-0.04302991,0.01910685,-0.09476816,-0.07180838,-0.01443912,-0.110691,-0.00328619,-0.01902132
CbDN7o5Ed_M,0.08415575,0.04769287,0.05219782,0.01272479,-0.04656162,0.02049376,0.03169077,-0.10787257,0.02616457,-0.05511384,-0.0362227,-0.08907583,-0.06141538,0.08025035,-0.0041688,0.00660805,0.04985803,0.07883201,-0.06645581,-0.03284618
oRVJREzko-M,0.01376331,0.00694086,0.02435617,0.01671008,-0.00460135,0.08728895,-0.04025159,0.0199254,-0.00108908,-0.00049681,0.01557931,0.00221491,0.00988935,0.00796291,-0.03046946,0.030829,-0.0347893,0.03457795,0.00992459,0.05957204
5-ASQ44GpNI,0.13248598,0.09849378,0.16730813,-0.00052918,-0.06495832,0.03214471,0.05314876,-0.17840023,0.03920444,-0.05727905,-0.05156216,-0.0936637,0.01152298,0.00588489,0.05069628,0.08043274,0.0468211,-0.01396707,0.05878703,0.04527412
rJgtb2s7Oz8,0.06920342,0.05646269,0.12271215,0.01395371,-0.04850445,0.04830597,0.0238778,-0.16357796,-0.00409611,-0.03343604,-0.02550261,-0.01425869,-0.07180999,-0.02988568,-0.03256056,-0.04086683,0.10605397,0.04590411,-0.13577003,0.10321646
Hk20QLW6nEc,0.07167811,0.05282078,0.12389431,0.04433116,-0.08444308,-6.24e-05,0.0245199,-0.10169272,-0.01310462,0.05993317,0.03281627,-0.02870774,-0.02086065,-0.00989582,0.07776384,0.12151743,0.01895299,-0.0349571,-0.04488275,-0.0516288
OwbaFLtBpkQ,0.01449475,0.00779311,0.04972661,0.01125882,-0.02050732,0.13136257,-0.05030339,0.00739965,-0.01389407,-0.00032431,-0.02730668,-0.01406491,-0.01462707,0.0022624,0.02781542,-0.03605239,-0.22580013,-0.01525626,-0.06891189,-0.03152235
Qy_YMLKX8bQ,0.70261055,-0.45065532,-0.12816999,-0.03437429,0.07565615,0.04341798,0.03959647,-0.06626854,-0.39902101,-0.02370632,0.04676642,-0.1453601,-0.00590416,0.0481535,-0.06657406,-0.04611568,0.01686673,0.02749469,0.13072954,0.0573912
iTOXHp4c1YE,0.04376843,0.03273451,0.08195148,0.02929788,-0.05594654,0.00268025,0.00741259,-0.05168425,-0.04096864,0.04193446,-0.0167009,0.11364039,-0.01963065,-0.01719095,0.00491116,0.00429396,0.01557542,-0.03111775,-0.00239641,-0.03936252
rc-xQnupse0,0.09747742,0.04103405,0.16063819,0.04571341,-0.11203849,0.01760523,0.01567919,-0.17005442,0.01288067,0.02245865,0.03309735,-0.04054907,-0.01009249,-0.12566004,0.15281848,0.14695217,0.02270109,0.14695756,0.06770831,-0.13355613
KdmRWazuBRU,0.05980486,0.04694098,0.1083693,-0.01289074,-0.03552576,0.02871623,0.03216387,-0.12076977,-0.00656407,-0.06783971,-0.04360171,0.00116045,-0.13192427,0.00754789,-0.05966213,-0.02891903,0.06705301,0.09838223,-0.2282863,0.03107021
fpmYvXCzO1c,0.00949171,0.00709674,0.03167245,0.01166941,-0.01100583,0.1710721,-0.07082295,0.03373521,-0.00545815,0.01946159,-0.00044701,0.006059,0.00035643,-0.00508378,0.01633076,-0.01386918,-0.09633944,0.04937856,0.00564496,0.08829407
P9yleRV8tto,0.0186198,0.01059865,0.0510505,0.01944955,-0.01714647,0.23368917,-0.0978499,0.04576959,-0.00359636,-0.00792566,0.03209464,-0.00268411,0.01388462,-0.02979186,-0.22899902,0.21181944,-0.13686094,0.10701882,0.07290068,-0.01380073
6jI9H3lyil4,0.06221224,0.03206607,0.13957118,-0.0452802,0.00263112,0.00668215,0.02351259,-0.08706674,0.00145724,-0.03664144,-0.04162871,-0.05234963,-0.0372189,-0.04411212,0.12200385,0.17543123,0.03728145,-0.05431491,-0.0889506,-0.00661663
465Vc9I4fvc,0.01586063,0.01042484,0.04968442,0.00884033,-0.00318425,0.21704697,-0.10120681,0.05319964,0.00516016,0.04828473,-0.09581672,-0.05303232,-0.03924737,0.06461626,0.32163371,-0.1455722,-0.13730395,0.09965381,-0.03189219,0.23482458
jytAQWCc_TI,0.05608537,0.05739497,0.03252528,0.01017253,0.00448624,0.33843271,-0.14372487,0.10853811,0.0378765,0.04139467,0.00741977,0.01218049,0.00286751,0.02458855,0.00625678,0.02142062,0.11116593,-0.0243004,-0.00668793,0.05827795
Duk_kOhIimU,0.06759807,0.01506576,0.11826186,0.04142936,-0.08173563,0.01806618,0.00358094,-0.11490979,0.00915389,0.08913784,0.07605775,-0.01973854,-0.03691067,0.00315615,0.05922366,0.05978759,-0.01073476,-0.00151788,-0.0190913,-0.05744032
tVpky2riji0,0.06711619,0.02951421,0.14876084,0.00448008,-0.06979988,-0.00792589,0.02643196,-0.09758096,0.02281243,0.07811485,0.06880187,-0.06233998,-0.07652153,-0.00704863,0.15202596,0.18052265,0.0170089,-0.02038487,0.03532381,-0.0427158
9rHaUzPlJws,0.033064,0.02047523,0.12923737,-0.0471599,-0.00096507,-0.01232352,-0.01552638,-0.06612353,-0.00047491,0.02548971,0.02174405,-0.00307332,-0.03166225,-0.05882037,-0.03382407,0.0151418,-0.064207,-0.03813403,-0.04061893,0.01205044
-uUlnDjQxhg,0.01910936,0.01888128,0.0395297,0.01394271,0.00150426,0.26557361,-0.1121903,0.07112639,0.0112512,-0.00943475,0.03521474,0.0206219,-0.00414769,0.02783554,-0.0441604,0.09159817,0.04399256,0.03839728,0.01205157,0.15060077
UUzxEVhRQgQ,0.03251046,0.036315,0.03038594,0.01985062,-0.01256515,0.00353198,-0.0016369,-0.01854015,-0.01202029,-0.01265123,-0.01155678,-0.01152421,0.02814151,-0.01038486,0.01787086,0.00856769,0.01216106,0.01042238,0.01681685,0.00816896
e5jQUYrRPRk,0.18020205,0.00482103,0.14715675,0.05139577,-0.1264613,-0.0538727,-0.01545122,0.0996672,-0.03278601,-0.13211636,-0.07119045,-0.05171492,0.04442517,-0.04486831,-0.01504383,-0.01277373,0.032641,-0.00315085,0.03154844,0.01978831
sKME5er1OKc,0.05377686,0.02991549,0.10941186,0.03847801,-0.08581812,-0.00325131,0.00561238,-0.08689129,0.03688522,0.11036488,0.0895908,-0.03964849,-0.00383286,0.00086357,-0.00291744,-0.04271752,-0.04348787,0.00146231,0.04515617,0.04428467
3REHDZgXE1k,0.00760577,0.0029369,0.02690547,0.00725223,-0.01301605,0.07170015,-0.02708436,0.01340457,-0.00494458,0.00578862,-0.01289383,-0.00389724,-0.0137745,0.01620184,0.00192652,0.00190074,-0.07197199,0.00766408,-0.00657396,0.03384217
K9S3YgFZN9Y,0.007852,0.00264138,0.02703636,0.00844174,-0.01660149,0.07164555,-0.03066639,0.004372,-0.01826598,0.00332332,-0.02538985,-0.00720324,-0.01716525,0.01598923,0.03159196,-0.04601034,-0.21258998,-0.01558894,-0.07332654,-0.00774497
msYTFQ4OIu8,0.02099704,0.01185895,0.06822029,0.02966996,-0.0311211,0.28515215,-0.09115216,-0.00642585,0.04045599,-0.3772468,0.43053591,0.16964542,0.0034066,0.02778308,0.21233838,-0.23742013,-0.06192449,-0.05139326,-0.04902524,-0.05644925
YhNUPGphSM8,0.06028547,0.06771489,0.07585475,0.01611006,-0.04805572,0.03618593,0.02816707,-0.09531167,0.00338683,-0.05496303,-0.04936723,-0.07620993,-0.0526252,0.03162124,0.1096904,0.13244359,0.07957323,0.01022745,-0.07793431,-0.05005495
rbSEOholMxI,0.08791227,0.04400846,0.13272859,0.01767242,-0.02812486,0.02201935,0.02321495,-0.09895138,0.01645577,-0.07680172,-0.05209242,-0.03204046,-0.01501107,0.00072884,-0.00551754,-0.00954838,-0.00660433,-0.02309625,0.01806136,0.02397519
dZftIemBYVE,0.08011145,0.02576811,0.1305587,0.03893956,-0.09080453,0.02358164,0.00472112,-0.09707913,0.00362167,0.07794749,0.04737209,-0.03798056,0.02376736,-0.11981562,0.05948181,0.09958962,-0.00219536,0.00442395,-0.0065902,-0.08989255
QUBjCcBXy3o,0.01928752,0.01307,0.11582866,-0.05492576,0.05915626,0.06663699,0.05285373,0.04652288,0.00775677,0.01756217,-0.02605491,-0.01998265,0.10675128,0.06973929,-0.01853733,-0.0700499,0.09618343,-0.03963735,0.00478921,-0.05076585
t6GzhyGTKCo,0.00954948,0.00465774,0.04561753,-0.0005193,-0.00482495,0.21888821,-0.09156899,0.06121475,-0.00800817,0.08501204,-0.0741953,-0.00937283,-0.00615387,0.01410592,0.07870947,-0.04839751,0.06301244,0.00612755,-0.00816542,-0.01821161
mMLOG0bsjRQ,0.09066214,0.01749225,0.16991684,0.00788084,-0.08148775,-0.00610591,-0.00260887,-0.12953626,0.00187624,0.06791426,0.04963768,-0.06692824,-0.04996334,0.00582499,-0.09624721,-0.06528369,-0.08263416,0.02191491,-0.01925635,0.03018068
6r-qlEX6hGY,0.01090138,0.00285472,0.03266497,0.00429786,-0.0142318,0.07218382,-0.02444851,0.00052058,-0.00704349,0.00912605,-0.03238964,-0.00635941,-0.01798988,0.0245749,0.03665854,-0.01371546,-0.02422323,-0.01023974,-0.00435609,0.03600553
g-7nUex4nVg,0.10618235,0.09784124,0.1271621,-0.01919562,-0.03497857,0.01669487,0.03497083,-0.1596697,0.03310336,-0.0288558,-0.01442438,-0.09276527,0.00326443,0.02546578,0.09000247,0.15069368,0.07272255,0.01187393,-0.04916676,-0.04349177
MqpQhyjFZQU,0.04748044,-0.02806281,0.00652498,0.00764794,0.00318647,0.02435895,-0.00198865,-0.00641145,0.00266908,0.00912138,-0.01217342,0.01900571,0.01144782,-0.0280132,-0.00031611,0.02004923,0.02409947,-0.01237402,0.00151504,-0.0261288
1pglkwgsu1I,0.07121839,0.05561323,0.1231736,0.04192186,-0.09293279,0.02933695,0.04924102,-0.11888502,-0.0253123,0.00152196,-0.10432317,0.17480981,-0.06761218,-0.0025994,-0.05052501,-0.07260485,0.03504783,-0.02164283,0.00233732,-0.02169721
QIKiQjEMUjY,0.03263568,0.00144646,0.12368848,0.31254559,0.26603959,-0.01565998,-0.04093074,0.00471802,0.00094414,0.00224844,-0.0097636,-0.00368362,0.01119345,0.00691609,0.02049424,-0.0061167,0.00480523,-0.00375853,-0.01186159,0.00206526
J7ieKmP96Hc,0.01391403,0.00550513,0.03893781,0.00763218,-0.00890511,0.26135266,-0.1113431,0.06454471,0.00497452,-0.06208942,0.12257409,0.07357008,-0.01023791,0.03585745,-0.17880643,0.2273532,0.10044101,0.07412453,0.05575906,0.18611486
oNjLzGpMCuw,0.06469377,0.03019708,0.0810036,-0.0151487,-0.02236006,0.01370773,0.01227313,-0.08289757,0.01495184,-0.03675465,-0.01321314,-0.03187587,0.00055753,0.05228921,0.0355263,0.04994844,0.00011356,-0.00573027,0.04782528,-0.01715963
98ShZgIhSbk,0.02357814,0.00651348,0.07020439,0.02936775,-0.02827679,0.22788381,-0.08758208,0.04771232,0.009198,0.07990146,-0.02654005,-0.0446289,-0.02619042,-0.03398305,0.13980682,-0.13330057,-0.06041884,-0.01195695,0.00963297,-0.01376546
S0WQP5GeTZs,0.01502571,0.00197964,0.0405029,0.01362356,-0.01982181,0.16290658,-0.06005794,0.02465282,-0.00133582,-0.01725386,0.04306923,0.03759258,0.00243771,0.00014674,-0.06996963,0.08383982,0.02554806,0.00925532,0.01046775,0.05456268
Bcag49Fk3zA,0.01729805,0.01056606,0.05433495,0.02222394,-0.0289039,0.20748049,-0.05299656,-0.03939799,0.03345729,-0.46424961,0.48039694,0.20257936,0.00465952,0.02781824,0.16023493,-0.21819324,-0.12467263,-0.1170724,-0.07945884,-0.14244355
rRw7sYwfSVI,0.09406356,0.05184619,0.16103239,-0.00606689,-0.06121242,-0.00537704,0.02567906,-0.03897629,0.01715933,-0.05713041,-0.05863053,-0.07142732,0.01060465,0.0620088,0.01663758,0.05264338,-0.04482769,-0.07523777,0.08881325,0.07849411
5W2lIWDyXjI,0.01025109,0.00409943,0.0348463,0.00445478,-0.01246087,0.06541859,-0.01593654,0.00559201,-0.00487458,0.01874457,-0.0149349,0.00583317,0.00188663,-0.0093672,-0.00632419,-0.00467059,0.03376475,0.00728977,-0.01023314,-0.01478181
IldLswg2yAM,0.10567184,-0.01496183,0.053209,0.01004406,-0.03015022,0.04607247,0.01328266,-0.06733655,0.02177166,0.00841803,-0.02652101,0.06185535,0.05706495,-0.07165042,-0.02477782,-0.00811893,-0.01326164,-0.03266552,0.0094275,0.04093967
eCw33snvoNI,0.01876805,0.00760383,0.03626125,0.01115029,-0.01214451,0.12205549,-0.04995839,0.01659769,0.00144561,-0.01727689,0.00928161,0.01868474,0.00073227,-0.01100306,-0.01888317,0.01872488,0.01375245,-0.006378,0.02045611,0.04714155
yIUDe9YH0ac,0.014173,0.01004387,0.03753276,0.00891215,-0.01727257,0.06474821,-0.01786765,-0.00601061,0.00277642,0.00931327,-0.00785394,-0.00627762,0.01792113,-0.01110855,0.01468025,-0.02503879,-0.03417164,0.00165184,0.00806697,0.00390798
48hHo2WcAQI,0.04347291,0.03950954,0.0871397,0.02514577,-0.05463367,0.04959058,0.05516133,-0.10808811,0.00845303,-0.07569451,-0.03731736,-0.08100086,0.0049176,-0.01448703,0.16111449,0.06645955,-0.02470055,-0.02443379,-0.07637224,0.10916851
daa-UCIuoY8,0.07888016,0.03352501,0.11266664,0.04889437,-0.0621379,0.00541877,0.03195652,-0.04542731,0.15161972,-0.08215243,-0.09627726,-0.01007967,-0.00889663,-0.07238848,-0.02022232,-0.03032382,-0.03660814,0.02166011,0.0962504,0.04572562
1d3wR5LJ4-4,0.04059905,0.01355843,0.10643435,0.03684032,-0.07432629,0.04227349,0.05360791,-0.14475538,-0.0791665,0.06014834,-0.18892703,0.45215532,-0.26065905,0.09858388,-0.08130176,-0.13076235,0.06300129,-0.09570196,0.05671119,-0.1592414
D4fkiQfzw_I,0.00514961,0.00257689,0.02161632,0.00828964,-0.00885542,0.08642067,-0.03339216,0.00804066,-0.004115,0.01041857,0.00214483,-0.00102842,0.0030436,-0.01649088,-0.05319859,0.01051638,-0.05544811,-0.04498104,-0.04908894,-0.06567752
mDh52QTqR0o,0.09313584,0.04689892,0.14117585,0.00767444,-0.06046028,0.0525987,0.06554847,-0.1530545,0.03275781,-0.06963087,-0.02421964,-0.0814568,0.04203198,-0.06159479,0.10452545,0.06615542,-0.00664116,-0.02573088,-0.03879506,0.10484808
jCyhEO3h-Ik,0.01509766,0.0055219,0.04951735,-0.00834306,-0.00326126,0.13980534,-0.06224664,0.01931322,-0.0144175,0.01287193,-0.01202068,0.01887522,-0.00182723,-0.02087233,-0.03467273,0.03491649,-0.05345958,-0.01059724,-0.02693289,-0.01146455
aQi987cz1nk,0.08121743,0.06892997,0.04397872,0.02019757,-0.04254408,0.02112144,0.02319544,-0.04294437,-0.02577134,-0.0077482,-0.05403418,0.05082474,-0.04574418,0.05032968,-0.03857214,-0.00972661,0.02503675,0.00335938,-0.0645777,-0.06334267
MpPS5I1pJD8,0.01836342,0.00893926,0.05622829,-0.00435919,-0.0050154,0.2813644,-0.11973029,0.08738031,-0.002676,0.10990336,-0.10371534,-0.05531649,0.00498816,-0.04073011,0.0321464,-0.08857492,0.23502188,-0.11562305,0.02126189,-0.15611053
dhbt8y_LXQY,0.02765308,0.02014642,0.03856455,0.01504308,-0.02188148,0.12959627,-0.0538638,0.03324784,-0.00623137,0.01415612,0.00608345,0.00543832,0.00989637,-0.00249404,-0.08146223,0.05398237,-0.03416477,-0.02508647,-0.00799668,-0.03079179
z_XHk-DZ1nY,0.02333997,-0.00088168,0.05247606,0.00978306,-0.02860424,0.00804516,0.01336369,0.02665839,-0.04602764,0.01139086,-0.00865899,0.07276145,0.00717203,-0.03034021,0.03291712,-0.01608686,0.0305471,0.11178983,0.04291348,-0.01169878
WPOhGVSPOyM,0.02636343,0.01840797,0.0196026,0.01862556,-0.00891356,0.0366239,-0.02448385,0.01465373,-0.01742811,-0.01051974,-0.02360368,-0.01381255,-0.02655473,0.03681036,-0.01449144,0.01822527,0.05204005,-0.05971215,0.00265679,0.0187086
5tW7CPAVii0,0.01212179,0.00809369,0.045419,0.01983282,-0.01158461,0.28098382,-0.12665131,0.06558463,-0.00685098,0.0799495,-0.09809477,-0.03068703,-0.02644279,0.04426832,0.29034474,-0.16886869,-0.15360932,0.09935699,-0.02866815,0.20079534
rVixyOY_Xr4,0.06880027,0.03419602,0.09544157,0.00147288,-0.03323945,0.01473114,0.02276157,-0.04933375,0.07261163,-0.00326709,-0.02891868,0.02395175,0.07108392,-0.19453874,-0.04501699,-0.04038768,-0.02052035,-0.0709249,0.10336369,0.07608215
TfojYStTlZE,0.06555044,0.0228378,0.13130409,0.05176086,-0.10349859,-0.00877847,-0.02303817,-0.05232874,-0.00385625,0.16104193,0.11438192,-0.01540143,0.0522736,-0.10094051,-0.0360518,-0.07172721,-0.04531674,0.07986783,0.02309236,-0.06212073
UcgjSqz0CZs,0.12133585,0.07904731,0.1863966,-0.01003804,-0.08286645,0.00626697,-0.01144676,-0.12670152,-0.00253254,0.0931344,0.08005622,-0.04282546,-0.02240125,-0.06190547,-0.09108022,-0.0712098,-0.07487207,-0.044498,-0.03314926,-0.00464414
OgbLx7K5jKI,0.01044068,0.00469954,0.03788036,0.01302864,-0.01784487,0.14506184,-0.05627651,0.02052681,-0.00237741,0.00828636,0.00018379,-0.01427551,0.00438862,-0.00379488,-0.00612762,-0.00305355,-0.09488007,0.03458311,-0.00110042,0.04789176
Cp3DxMyEBIM,0.06067572,0.01066706,0.17581575,0.01633191,-0.10188309,-0.00800387,-0.00713709,-0.14309036,-0.08013941,0.15227768,-0.01851784,0.33240487,0.19083933,0.12522589,-0.0952663,-0.02755818,-0.03472851,-0.0104134,-0.15255495,0.00164307
iR6FvFoW0F4,0.06748638,0.04797698,0.24853019,0.63906673,0.5525686,-0.0622644,-0.05850582,0.03543831,-0.00532408,0.00826898,0.00816192,-0.01521718,-0.00261414,0.01976644,-0.01046884,0.00213453,0.01192738,-0.02268649,-0.03242727,-0.00504761
qxj4Sr5Cm24,0.03998993,0.02098948,0.03742795,0.02589802,0.0144915,0.086263,-0.0413524,0.01558374,-0.00895166,-0.00821787,-0.01138261,-0.00624125,-0.00252939,-0.05054774,0.03844766,-0.01510936,-0.01853013,-0.03671632,-0.01564593,-0.05024803
iaYdIU5n6vw,0.02609895,0.00955619,0.0684991,0.01007768,-0.02944864,0.25198318,-0.10790921,0.07759241,-0.03573491,0.06620948,-0.05845131,0.02185958,-0.00440479,-0.02839236,0.0478463,-0.04596727,-0.10410372,0.08259716,0.00176275,-0.015053
8fIRAhGGRgA,0.02007169,0.01249802,0.06021743,0.0108878,-0.00879897,0.33667847,-0.13615077,0.08159294,0.00069897,0.0192727,0.01636958,0.0249819,0.00291426,0.05544867,0.02614065,0.02989079,0.12248177,0.00309528,0.00958326,0.14290627
f9AFrDB-73g,0.10819333,-0.01438443,0.12899126,0.03695754,-0.11164966,-0.04016419,-0.04744245,-0.0523915,0.25642744,0.1855539,0.10254723,0.05966633,-0.02005994,-0.16202297,0.14957716,0.1814339,0.02545015,0.06076951,-0.04064311,-0.06164959
d7qfcHa4LTY,0.01653476,0.0164313,0.02790547,0.00921665,-0.01548669,0.09852418,-0.03670193,0.00619691,-0.00431704,-0.00503944,0.01071953,0.00566462,-0.00842239,-0.01677317,-0.00598172,0.00041425,-0.05200405,-0.0270795,-0.03650814,-0.03234595
FJNk3OGtmbk,0.05798722,0.03068138,0.26431317,0.60399205,0.53854833,-0.06732096,-0.06082132,0.01587197,-0.00251235,0.01928462,0.01202464,-0.00777968,0.00818788,0.03574073,-0.00942844,-0.00047057,-0.00464454,0.00046394,-0.03405224,-0.01062314
EGTF9mGda4U,0.0180676,0.00132713,0.02179068,0.01249263,-0.01093939,0.06806569,-0.02845822,0.01899469,0.00605247,-0.03746446,0.04670556,0.01727896,0.00344839,0.00045427,-0.05785695,0.04505901,-0.01462339,0.03741131,0.03032238,0.01767534
GlgzzZEePXo,0.09562298,0.03701631,0.18595597,0.02712576,-0.09010093,-0.01348284,0.01487228,-0.1201205,0.00196479,0.07974668,0.05846246,-0.05163493,-0.05939625,0.08274874,-0.05790267,0.01052306,-0.08773772,-0.06320425,0.05973657,-0.05264095
uSjcVPbJayU,0.09860435,0.01152566,0.12635758,0.04241833,-0.07409516,0.02941323,0.08396367,-0.17249745,-0.01282368,0.04708196,-0.09292834,0.18643117,0.24002752,0.11590863,0.0629821,0.10391091,-0.03266441,-0.02130297,-0.09232283,0.02085737
SZ8r5VKtGes,0.08776863,0.06958568,0.10264633,0.02456402,-0.06214648,0.05394536,0.0620712,-0.1334598,0.03211403,-0.08871432,-0.05417778,-0.12073939,-0.03916411,0.03562461,0.14055536,0.08533142,0.00584706,0.06448544,-0.02089644,0.05027125
Jnc7hVslXdk,0.09175349,0.06402818,0.07556983,0.02170262,-0.05412696,0.10793229,0.01718749,-0.12412344,0.06517378,-0.07945401,-0.02981644,-0.11839698,-0.042858,0.12411849,-0.05402346,0.08888484,0.0474417,0.13626941,0.03933704,-0.02533559
fKtG9uPeMCc,0.10819731,0.01211654,0.08098937,0.03018356,-0.06007747,0.01612506,0.02771746,-0.10705986,0.01261785,-0.01922036,-0.10441094,0.08452819,0.3592364,0.18955475,0.0382175,0.03263101,0.04733025,0.08932302,-0.07492207,-0.03239878
VKaslzzv1QM,0.05531306,0.04326058,0.10530111,0.03635677,-0.04051681,0.04982289,0.05273249,-0.15405005,0.0160461,-0.07592216,-0.01905063,-0.05670952,-0.01421963,0.02360672,0.01184098,-0.04033924,0.0048787,0.04809583,-0.02129057,0.05317554
XXZ2wOom1l0,0.07394919,0.06416483,0.15885844,-0.1068248,0.05595956,0.01165353,-0.00451794,-0.10529832,-0.00821322,-0.0756433,-0.0443277,0.00427584,-0.11376759,-0.04556231,-0.04248023,-0.02947504,0.05537348,0.03556209,-0.156429,0.04922775
ZAmCJoz4c4w,0.01413526,0.00280818,0.03974382,0.01348281,-0.02116897,0.14534592,-0.05674717,0.02767414,-0.00205002,0.0151967,-0.00949453,-0.04429324,0.01942936,-0.05248305,-0.19382359,0.12534857,-0.26772812,0.0873851,0.02826502,-0.10841422
JbjnuF8OiZc,0.06193033,0.05638443,0.10692742,0.03177017,-0.07836621,0.04086355,0.03872843,-0.12915099,-0.01013123,-0.06085029,-0.07375375,-0.05592562,-0.04720735,0.09862697,-0.03712167,-0.00347447,0.00672593,-0.03787413,0.030649,-0.00611765
oqoBSeL5GIU,0.01258529,0.00563373,0.04485212,-0.00408613,-0.00681374,0.17469474,-0.06051153,0.04083395,-0.00192694,0.05386645,-0.08528224,-0.04626434,-0.01515776,-0.00137721,0.09511283,-0.07900066,-0.08139698,-0.01944358,-0.00360436,-0.0934256
WKBwkE4dn-k,0.00983865,0.00706256,0.0330191,0.01568453,-0.00710056,0.1758734,-0.07650301,0.0409562,-0.00204841,0.05433195,-0.03223403,-0.00980578,-0.01054642,0.00370521,0.09547552,-0.03525974,-0.05441516,0.05278597,-0.01724155,0.09823558
Y9HJ_U3TdXk,0.01192141,0.00323471,0.03885618,-0.00040125,-0.00954562,0.14224774,-0.04685061,0.03178489,-0.00236329,0.02948752,-0.02523193,-0.00323958,-0.00868173,-0.01176535,-0.01455871,-0.00353227,-0.00970196,-0.00422216,0.00104857,-0.07024784
1VSBgPn28zA,0.01468907,0.00388659,0.05654562,-0.01618703,0.00509102,0.23459537,-0.09476347,0.06551397,-0.01366055,0.07225537,-0.06338491,-0.0100216,-0.00203217,-0.00751159,0.05321189,-0.07117777,0.07818779,-0.04357757,-0.02814204,-0.0411235
UgfrzicHc80,0.02951104,0.01481124,0.13381274,0.24971859,0.17278004,-0.00742792,-0.03287984,-0.01327531,-0.00915628,-0.02595666,-0.02983101,0.00321135,0.02437396,-0.04372414,-0.02196921,-0.00631519,-0.00150375,0.01991696,0.02627592,0.02376275
9oVPXnEkegY,0.08642531,0.03334735,0.08909068,0.01551168,-0.03749017,0.03844732,0.02753406,-0.06644733,0.02564585,-0.02418143,0.00763149,-0.05388069,-0.02573199,0.0157956,-0.01543765,-0.05722472,-0.00388532,0.03057041,0.07017627,-0.03813711
3Ip-TJvpjLQ,0.08000638,0.05043496,0.10251646,0.02864541,-0.0885529,0.04282845,0.03778268,-0.14674063,0.02692079,-0.07473383,-0.07418456,-0.14768643,-0.12216321,0.24005103,0.03820044,-0.08873996,-0.05294342,0.13207752,0.03362871,0.05825701
DYhg0nWZ1UQ,0.10366375,0.04585574,0.11394641,0.02887033,-0.08672489,0.07811391,0.05346012,-0.15207561,0.10021661,-0.1697222,0.13337062,-0.04903116,-0.04525608,0.10904296,0.01617742,-0.09115696,0.05090314,0.04620034,0.09363091,-0.02801031
rk2b7fH_Gcc,0.06222172,0.0594021,0.09698446,-0.00465684,-0.02438538,0.03419496,0.03567072,-0.09656243,0.01175197,-0.06401058,-0.02714279,-0.0619092,0.01645013,-0.01106398,0.08112207,-0.01704737,-0.03185181,0.01851923,0.00703933,0.07997225
iRach9lpIlg,0.01583285,-0.00439703,0.02099032,-0.0007171,-0.00813406,0.00635625,-0.00437276,0.00534898,-0.00909432,-0.00350676,-0.00675772,0.01442069,-0.00503322,-0.00151922,-0.00307155,0.00030331,0.01195909,0.00560476,0.00366665,-0.00719115
F1gM7N-WXdU,0.02239831,0.01467538,0.05493666,0.04710998,0.01392733,0.07505997,-0.03253474,-0.00866397,-0.00511077,-0.0137525,0.00026754,-0.01498579,-0.00830017,-0.0157702,-0.00547707,0.02544763,-0.03064383,-0.01190413,0.01889818,-0.01156007
POn6IRgP5-A,0.11383279,0.0291224,0.07478933,0.01584279,-0.04614854,0.03662562,0.04101231,-0.118765,0.06177579,-0.04175836,-0.05486596,-0.07567944,-0.01472326,0.0901132,0.01664332,0.02382638,0.03030104,0.04269746,0.04822173,-0.06350098
aRLwX_dN8AQ,0.00726524,0.00415819,0.03497377,0.01238845,-0.01261371,0.2231797,-0.09390141,0.04467981,-0.00810426,0.04250813,-0.02281647,-0.04853403,-0.00580122,-0.04314678,-0.21575734,0.13721193,-0.37924978,0.10174515,-0.01040512,-0.13773599
RWGr8LwG3TY,0.1127186,0.05431851,0.12930306,0.03525823,-0.08737189,0.02982348,0.07194218,-0.18438825,0.0457506,-0.07409607,-0.09190215,-0.07722528,-0.02303008,-0.07804857,0.05670535,0.07785462,0.09590859,0.03223622,0.01020875,0.01118714
Rvy2kXZpBtM,0.08921348,0.07338458,0.08651817,0.0307927,-0.06287135,0.038272,0.06029248,-0.14593234,0.04875847,-0.0716575,-0.04736318,-0.10880252,0.0007108,0.12014835,0.02149206,0.00178842,0.06265365,0.0967241,0.0428401,-0.06380326
PDQ3laPc--4,0.68884538,-0.44729863,-0.10635646,-0.01727333,0.04545422,-0.01993642,-0.02445532,0.07342729,0.04618714,0.01059392,-0.00124637,0.07872784,0.02314325,-0.03707993,0.04748527,0.03274943,-0.00550696,-0.03032249,-0.09378124,-0.03687232
rn0fCmYeDaI,0.17859744,-0.06210379,0.10667221,0.03643028,-0.1359726,-0.09643506,-0.08528922,0.18522664,-0.10446799,-0.11079156,-0.05681738,-0.04059332,0.06985078,0.03050062,-0.05235959,-0.0021083,-0.02300889,-0.0540063,0.03553372,0.0267878
RnT_izvRznQ,0.10630262,0.04403523,0.18840049,0.05888648,-0.14702812,-0.00598144,0.03199458,-0.05234402,-0.00559051,0.13318672,0.18667593,-0.13862854,0.02699433,-0.15156892,-0.05309755,-0.02658858,-0.06448788,-0.06077087,-0.09303607,-0.13670187
KXpgCNB6Dcs,0.07648998,0.05523962,0.08087611,-0.03432641,-0.00187784,0.00950755,0.01020016,-0.09419208,0.04489377,-0.03595068,-0.02092703,-0.0766784,-0.04368055,0.09866378,-0.00235207,-0.00394165,0.02836298,0.08362533,0.05791835,-0.01309959
-uSQcEfnKp0,0.01022209,0.00165052,0.02535745,0.0078573,-0.01186694,0.07564689,-0.02263734,0.00360329,0.00188706,-0.00434191,-0.00483135,0.00609704,0.0124716,0.00044522,-0.02408448,-0.00297555,-0.00597924,-0.02614644,0.00281009,-0.01500553
T7_l896OH20,0.07335677,-0.0204033,0.05802979,0.02924168,-0.03198798,0.00930866,-0.0012884,-0.00694663,-0.0043213,-0.00138777,-0.02243741,0.01936236,0.02981803,-0.04520637,-0.01205683,-0.0461222,0.0345284,0.06920016,-0.00671874,-0.04191319
gZ3EniqK8Qc,0.17797885,-0.05816234,0.1787452,0.05404062,-0.18660847,-0.09414148,-0.06615912,0.17939861,-0.07642023,-0.04782847,-0.00523329,0.02898983,0.03486222,-0.11331936,-0.00205687,-0.1064973,0.05007113,0.14868914,-0.0014967,0.00205657
JRHTVNoJjb0,0.09133268,0.02069818,0.09799162,0.04766134,-0.07734477,0.00427812,0.01225863,-0.05712999,-0.01604188,0.03113443,-0.00485638,0.02514047,-0.00200908,-0.03341839,0.01965538,-0.06520285,0.04188943,0.28714004,0.16252859,-0.06416476
x2r3FTy9HHE,0.01933941,0.0094898,0.04036596,0.0086472,-0.01522343,0.1846553,-0.07402626,0.0266914,-0.00387448,0.02025987,0.0458845,0.02921804,-0.01122111,0.00082393,-0.16285761,0.16034316,0.03775389,-0.0042898,-0.01884997,0.02850605
Ycdklm6W1_o,0.01612765,0.00575726,0.03457113,0.01009393,-0.01280839,0.174872,-0.08015765,0.03970809,-0.01318367,0.0024143,0.00660408,0.01236827,-0.00706422,0.01117391,0.08665729,-0.05545803,-0.07633429,0.01651241,-0.05716562,0.06615065
kTlm_3HwRFg,0.01560046,0.0005019,0.03465906,0.01486866,-0.01425287,0.0964399,-0.04214739,0.00995263,-0.00380022,-0.00849498,0.0105016,0.00486872,0.00605655,-0.00590183,0.01667469,-0.01821359,-0.01545319,-0.01316447,0.01129131,-0.03772945
zxQJIBt9CBI,0.07151913,0.03945532,0.10129353,0.02917461,-0.08225692,0.00906608,-0.00808464,-0.01754237,-0.01885247,-0.05288336,-0.04803296,-0.04118618,0.01168629,0.09982597,-0.00953551,0.00432371,-0.01201488,-0.03226081,0.00057091,-0.00846746
ftk4VdOcaj8,0.11040809,0.0641472,0.19910551,0.03988712,-0.13002208,-0.02782671,-0.01797357,-0.07521965,-0.02054881,0.24304265,0.16528557,0.03936648,0.08738925,-0.11345789,-0.00651419,-0.06030187,0.00850485,0.03413041,0.03758051,0.0523429
wEb6ULf3TzU,0.01281974,0.00799315,0.02707032,0.00444704,-0.01048733,0.09922175,-0.04134657,0.0147035,0.0019678,0.02295239,-0.00669715,-0.00297178,0.0106963,-0.00643947,0.02608218,-0.0297745,0.01406277,-0.00297248,0.01612051,0.03871848
DSRfs1qKWR0,0.00183604,0.00056127,0.00682128,0.00237857,-0.00435077,0.03351193,-0.01553595,0.00673431,-0.00175192,0.00292529,0.0063292,0.00551183,0.00056742,-0.00218595,-0.02435259,0.03249907,0.00979326,0.02218383,0.00869895,0.02406914
YPboGQjMxNY,0.01199974,0.01486312,0.00942573,0.00527574,-0.00682914,0.01588429,-0.0025492,-0.00416585,-0.00551225,-0.00853966,-0.00850353,0.00878881,0.02436253,0.01233143,-0.01295459,-0.00733124,-0.01530251,-0.02365118,0.00280178,-0.00179538
4iXwPD-VHyg,0.05184788,-0.02172421,0.02251739,0.00854916,0.02405063,0.15432023,-0.05812377,0.01926694,0.01989034,0.03371831,-0.01969651,-0.01515194,-0.02068809,0.01133368,0.10595342,-0.05040618,-0.05975112,0.005555,-0.01406723,0.04795774
VjqsnOrW3AM,0.02188142,0.00480943,0.037171,0.01458192,-0.00695516,0.21679423,-0.0933148,0.05034968,-0.02592841,-0.01762975,-0.00839176,0.00582512,-0.00321218,0.01114197,0.07597781,-0.06397928,-0.15330373,-0.03066329,-0.09120196,0.05302981
0Z1lChyi2W4,0.01201967,0.00250646,0.03880317,0.01432948,-0.01159565,0.16679454,-0.06756023,0.0333718,-0.00574782,0.03656949,-0.05376753,-0.02787159,-0.02594753,0.01873833,0.10204307,-0.08019364,-0.14279222,0.00533977,-0.04054903,0.00242814
TekYNY3eGC0,0.03375831,0.02593867,0.05949799,-0.00735798,-0.00117331,0.01918805,0.01173837,-0.01693465,0.00156706,-0.01064652,-0.01904625,-0.00406483,0.00721712,-0.02243545,0.00783325,-0.00328658,-0.02453765,-0.01377791,0.0219264,0.04099556
6WqWhSmCbXk,0.10069697,0.03555867,0.18641156,-0.01090179,-0.07827845,0.01216831,0.0174604,-0.11571204,0.13186213,-0.05428318,-0.06106959,-0.11682236,0.04703763,-0.19166849,-0.16739777,-0.11179746,-0.0360224,-0.08503615,-0.13120838,0.03122378
ABoKfabPQyY,0.01793316,6.977e-05,0.05245647,-0.0015078,0.0050045,0.27462195,-0.10806474,0.08822136,-0.004353,0.12729262,-0.12452472,-0.05372296,0.02051584,0.01953118,0.01927525,-0.1507426,0.27608126,-0.12181328,0.0654282,-0.136547
dqOmDZPkIF4,0.10488866,0.05487447,0.19017925,0.00523142,-0.07496596,0.01280635,0.01935995,-0.1790815,0.07151029,-0.18075755,-0.10209954,-0.29564316,-0.06757213,-0.18346778,-0.29707137,-0.0953372,-0.06688761,0.10654787,-0.2924077,-0.22716954
xfMhpaP8QSg,0.0469937,0.04598535,0.06078546,0.02767912,-0.05111496,0.01947235,0.02894414,-0.09158311,-0.03363141,0.02967171,-0.04371923,0.14785797,0.44061041,0.11892422,0.05627848,0.04483157,-0.01104832,0.08536106,-0.04123172,0.02534972
ByJAH8vTgfw,0.05770321,0.03132536,0.14599022,0.02485764,-0.09342064,-0.02927293,0.00459198,-0.0934307,3.061e-05,0.09167639,0.09051453,-0.05834536,-0.05403704,-0.05738795,0.18279516,0.26488119,0.0355447,-0.05085281,-0.10850956,-0.01343097
zuzydZz-cmo,0.06482201,0.05911494,0.10637894,0.14246115,0.08816552,-0.00062467,-0.00376046,-0.03528335,-0.0209303,-0.03421807,-0.0136453,-0.02368105,-0.01915249,-0.06676571,0.08777223,0.07535751,0.0022602,-0.04899984,-0.00453446,0.01923605
TRVnxUYQAmI,0.05798868,0.040107,0.09692222,0.02700747,-0.05431674,0.03890811,0.06828252,-0.06796355,-0.0012386,-0.06763648,-0.04392843,-0.08472005,-0.01807796,0.00484917,0.09481639,0.11306737,0.02074065,-0.04653664,0.02184377,-0.01892703
iQxwDGnuByc,0.16363121,0.04053905,0.18462786,0.03081038,-0.10153682,0.02421273,0.03549038,-0.1471962,0.01742521,-0.00595647,-0.01230482,-0.04546728,-0.07582803,0.05165562,0.06289941,0.03418215,0.05760692,-0.00423623,0.01633115,0.02468762
ttdfIEKLVks,0.02400566,0.00609882,0.04937876,0.01536718,-0.02563103,0.01054517,-0.00070937,-0.00632513,-0.01688096,-0.05222266,0.00433858,-0.03298842,0.02553662,-0.04470008,-0.04295868,-0.06022977,-0.0329916,-0.02988178,-0.01062729,0.01031755
MWrMtRjLhjk,0.05780132,0.00527766,0.09539664,0.03255935,-0.07771586,-0.02266085,-0.02972064,-0.05724978,0.00117538,0.1536062,0.13319637,-0.0124694,0.0015163,-0.01503529,0.03514128,0.02114524,-0.02018282,0.00830144,-0.04965871,-0.03919474
nGakcu0V0ZM,0.01191909,0.00917545,0.03222949,0.00926466,-0.01517519,0.14898666,-0.06541381,0.0262498,-0.02201773,-0.03562435,-0.00683157,-0.00174599,-0.01454423,0.0395421,0.13617969,-0.11215273,-0.27887274,-0.0021266,-0.09987908,0.10658663
v2SVwN2WLHA,0.21157912,-0.01331494,0.2471723,0.03986474,-0.20120956,-0.15509378,-0.147148,0.11865185,-0.04304252,0.07505098,0.11361291,-0.06420706,-0.00695876,0.04824756,-0.11543336,-0.10343834,-0.15045005,-0.02687391,-0.04866093,-0.03592707
2y_3sFy4R1A,0.04963116,0.02363495,0.07157345,0.02480162,-0.04515702,0.02360247,0.00923926,-0.06613204,0.07275641,-0.05911138,-0.03526385,-0.01471758,-0.01259157,-0.02674726,0.06999301,0.07513674,0.02254063,0.02044971,0.00993558,-0.02928392
KPjUKzX4bo8,0.11297985,0.03369938,0.11082988,0.00581305,-0.05362542,0.01170975,0.00463043,-0.06370864,0.00581728,-0.05737991,-0.04324242,-0.02572924,0.01509193,0.02347,0.02932794,0.09643898,-0.04501109,-0.07437613,0.07112539,-0.00281153
crrTHKN_R58,0.05878334,0.06005606,0.08696197,0.03487016,-0.04696765,0.02595079,0.03632343,-0.10215533,-0.0453525,0.01832988,-0.06032041,0.21807262,-0.05883747,0.03138166,-0.06250571,-0.06521157,-0.00417278,-0.06831357,0.03412818,-0.05183791
LMJb-_uL6lQ,0.00500018,0.00236851,0.01953751,0.00995542,-0.00470672,0.06873421,-0.02326478,0.00093412,-0.00826725,0.00518707,-0.02318449,0.01272079,-0.0150632,0.02009735,-0.03708876,0.01132875,0.07355969,-0.0097663,0.04723255,0.0085283
wJOakc64crg,0.03944091,0.01458429,0.07954977,0.03599818,-0.0368916,0.02463799,0.02107737,-0.05871123,-0.00424911,-0.04373418,-0.02695782,-0.00728533,-0.01964285,-0.08472314,0.09092511,0.01359268,-0.03406119,-0.03375087,0.03312651,0.11274378
kmKuk_TCEvU,0.11897753,0.04696197,0.13752454,0.04374378,-0.10496919,0.03463104,0.05541102,-0.17318385,0.05280996,-0.01979742,0.01169231,-0.08399387,-0.08718989,0.11924906,-0.01194831,-0.07004751,0.00500367,0.08069267,0.1556589,0.04909851
Cit2bKRejmc,0.17572534,-0.03012574,0.13334877,0.04219779,-0.16396915,-0.09069302,-0.10245131,0.13341603,-0.0295267,-0.11929206,-0.05927898,-0.10272185,0.02968806,0.00579675,-0.02400582,-0.02862594,0.03001273,-0.00543009,-0.02523385,-0.00036196
9rRvmcDpWwA,0.01193269,0.00779393,0.0439223,0.01716444,-0.00921683,0.24550415,-0.10665927,0.05444954,-0.00689922,-0.04036983,0.092259,0.06851206,-0.00449379,0.0091251,-0.16100061,0.20362337,0.05485133,0.04933926,0.02030087,0.15444234
yk8ziJow5dw,0.01299711,0.00399835,0.05251239,0.00721094,-0.00503821,0.2348838,-0.10212597,0.06092327,-0.00994996,0.05900038,-0.08633048,-0.04623617,-0.03520238,0.02536877,0.19721244,-0.14439774,-0.22329304,0.00270834,-0.0484129,-0.02775756
FZbMPtLRr00,0.00499574,0.00358117,0.02723757,-0.0001085,0.01099947,0.10884198,-0.04454929,0.03520979,-0.00161108,0.05345156,-0.06818696,-0.03647765,-0.0078271,-0.00527288,0.05947537,-0.05144549,-0.04451447,-0.02064974,0.01626385,-0.10656297
THMW7bXTog4,0.02633471,0.01026512,0.06417235,0.00949542,-0.01610303,0.03516737,0.00129067,-0.02382881,-0.04232756,-0.01120505,-0.05903558,0.08788656,-0.0221962,0.0011505,0.01189592,0.02492227,-0.02008623,-0.02914484,0.0205061,-0.06608469
NRELko2BoRk,0.14171775,0.06777583,0.11696702,0.0414974,-0.0947712,0.03016606,0.05096614,-0.1273146,-0.00521887,-0.04577993,-0.07880428,-0.01726628,0.06199346,-0.07706301,-0.03693082,-0.07038185,0.07612558,-0.02003069,-0.04966391,0.04950741
WwEyLRmGU9g,0.0408439,0.0226393,0.13737185,-0.03937223,-0.02341103,0.00381396,-0.00135399,-0.08652878,0.00930479,-0.00529801,0.01816455,-0.01709986,-0.05338747,0.00595241,-0.01069619,-0.00101439,-0.06275212,0.01239499,-0.04139364,0.02344924
q4PUKnyy3QQ,0.28429834,-0.05578531,0.18302243,0.06761537,-0.21805812,-0.13933219,-0.12232642,0.21501937,-0.13438491,-0.09038415,-0.10117864,0.17596457,0.0211232,0.04033236,-0.06464186,-0.0794081,0.01710969,-0.00904274,0.03562148,-0.08672228
9VyCOVdFpL8,0.00834802,0.00444723,0.03493243,0.01318388,-0.01123441,0.22108835,-0.09283634,0.04843134,-0.00334236,-0.00797569,0.04132957,0.0309272,-0.00385923,0.02989515,-0.06789153,0.12513387,0.02852492,0.08668298,0.03566054,0.16432726
IJJbQTVdAtE,0.03188598,0.03152065,0.04969145,0.01727241,-9.385e-05,0.30942386,-0.10225428,0.08492556,0.00487641,-0.0384688,0.10005165,0.0438675,0.00156835,0.01367787,-0.22160395,0.23643804,0.06968776,0.07734706,0.06907053,0.12837773
Q5rmW96IGqA,0.00661081,0.00776733,0.01146498,0.01089322,0.00212864,0.07791729,-0.03629222,0.02452427,-0.00699004,-0.01800852,0.00725681,0.0097412,-0.00463123,0.00435924,0.00166989,0.00717182,-0.03316149,0.01263656,-0.00080563,0.03494938
LkaaMQx9uZ0,0.06726141,0.03309125,0.17933426,0.00667053,-0.08934826,0.00349292,-0.00307441,-0.14336083,0.01353193,0.06581932,0.08217029,-0.11504623,0.04322649,-0.17320766,0.03204255,0.13887774,0.00290097,-0.01100932,-0.16165531,-0.11920592
wdCDxH9KBss,0.11291251,0.06830324,0.16776334,0.05551214,-0.09846725,0.02460607,0.06981978,-0.21771757,0.01767084,-0.03618853,-0.09187076,0.02440944,-0.10361451,-0.02834389,0.05119215,0.06889333,0.04131254,0.03190945,0.02957864,0.01645591
_jxLMMcKmRQ,0.10623245,0.04429105,0.0900921,0.0194598,-0.05597121,0.02840839,0.05931491,-0.18110514,0.03373236,-0.0514586,-0.03298533,-0.11926415,-0.04760156,0.06599896,0.0997747,0.15410201,0.07698209,0.03865841,-0.01250603,-0.01502361
nnUFM61waQU,0.06437152,0.01584914,0.15556437,0.04502599,-0.12641243,0.00089845,-0.01238394,-0.10156737,0.0038373,0.15831174,0.10916379,-0.0393075,0.13781292,-0.4214006,-0.04298136,-0.07124701,0.04725159,0.02751799,0.12656682,0.00943758
eYDQWSBQ47s,0.06826107,0.00333283,0.11458332,0.04303953,-0.05058725,0.0202541,0.03036514,-0.09723474,-0.00523636,-0.04717406,-0.04764535,-0.00701681,-0.0245456,-0.10162612,0.04683754,0.06120641,-0.05330031,0.00712793,-0.02201093,-0.00104434
2gFNJ6_ogzg,0.0974683,0.04322143,0.16393113,0.05005604,-0.1374916,0.01220047,0.02135177,-0.08268545,-0.01092826,0.22373416,0.18916739,0.00196327,0.00980536,0.02844677,0.04506873,-0.0007141,0.0371185,0.16512422,-0.10979472,-0.01645532
nVHr2D6tnA4,0.09566141,0.01486551,0.12264592,0.03977654,-0.1146127,-0.03525215,-0.02468385,-0.04465985,0.24346459,0.19918264,0.13876648,0.01399294,-0.01379808,-0.03897299,-0.01048012,-0.05845588,-0.0416825,0.00780237,0.06789313,0.06854503
t4S8XOHv1jg,0.15092172,0.05995046,0.12400402,0.04568113,-0.09246373,0.06397753,0.07555624,-0.22461506,0.04874457,-0.07130069,-0.08557026,0.03310182,-0.24776831,0.25524699,-0.00505306,-0.07248734,0.12981212,0.09701754,0.10398145,-0.11149208
_9bYQ2tvc_s,0.08030777,0.00510955,0.09000571,0.02890986,-0.07703816,0.01766109,-0.02122412,-0.07500804,0.02981746,0.13254034,0.12521441,-0.0151303,-0.03560411,0.03602212,-0.01280303,0.01070847,0.02989449,0.10088148,0.01259219,-0.03118863
KKwxanUOAd4,0.05363915,0.02824613,0.12340159,-0.00679549,-0.0443508,-0.00978684,-0.01561095,-0.07208435,-0.02698788,0.07907698,0.01866762,0.07486424,-0.02187408,-0.00894149,0.03081055,0.05414609,0.00083141,0.000593,-0.00894637,-0.08128109
UtXLbVdM7wk,0.13416189,0.00386921,0.15853546,0.06681413,-0.10953375,0.00556553,0.01739091,0.05042136,-0.01127655,-0.15506444,0.05220094,-0.06454647,0.0546569,0.01507817,-0.04672527,-0.05254636,-0.01169939,0.00081714,-0.0182745,-0.08625105
Gl_2LVRaM8U,0.03019231,0.02518958,0.06912201,-0.0131088,-0.0128745,0.04295125,0.01231729,-0.05716156,0.01869169,-0.00533453,-0.033579,-0.02068687,0.03278355,-0.07017027,-0.08098081,-0.02765258,0.02493232,-0.07316774,0.03049924,0.05143226
Cql6TAdpPDU,0.20017144,0.3166129,-0.0023044,-0.06847514,0.06587989,0.01311775,-0.00570526,-0.02376864,-0.00430765,-0.04203406,-0.04745838,0.00952572,-0.0464896,0.00168173,-0.00958931,-0.01444776,-0.0176472,0.12939739,-0.01904043,-0.01072509
q8AEtTOo2ZU,0.25791434,-0.01362966,0.27795906,0.02219338,-0.19688127,-0.1454424,-0.08637801,0.13930972,0.13348209,0.0505741,0.02827068,-0.03776855,-0.0180202,0.14037049,-0.07699514,-0.04026241,-0.05681859,-0.03817479,0.10831321,0.0500168
nnKkk3CpLes,0.03598276,0.00284059,0.06847107,0.00564362,-0.00269596,0.03380728,-0.00330267,-0.04073355,-0.00046662,-0.01682265,-0.02876187,0.01809396,0.0192868,-0.07023919,-0.01437812,-0.00387075,-0.03277072,-0.00983849,-0.02482246,-0.01116329
ZrvvBKldeo0,0.05894072,0.02611015,0.17657851,0.01205175,-0.0757742,-0.00213636,0.03352462,-0.11985703,-0.09788876,0.09106652,-0.09383644,0.37184965,-0.20385988,0.04685571,-0.12226262,-0.04263512,-0.01954083,-0.11875388,0.01701425,-0.03288937
-pNi4dh7VFo,0.06283061,0.03991418,0.07141975,0.01217358,-0.04273017,0.02920515,0.01706325,-0.09140297,0.02070591,-0.00235618,-0.01662312,-0.06203709,-0.04708164,0.05817349,0.00810422,0.00459749,-0.00311245,0.02720425,0.04741313,-0.05789311
sjbKZ4CY1Ow,0.02500485,0.01123886,0.05800633,0.00625545,-0.02281906,0.29637057,-0.12168137,0.07147779,-0.00151023,0.02701313,-0.02574913,-0.00334268,-0.00138011,-0.01149475,-0.11321756,0.07518274,0.0570366,-0.09455988,-0.03960078,-0.10529723
yy_J5fdELm0,0.00857368,0.00260289,0.03020639,0.01213105,-0.01124801,0.11561517,-0.02862018,0.03095457,0.00309461,0.04197441,-0.03211984,-0.02637643,0.00992242,-0.03691022,0.06733041,-0.00988537,0.09559721,0.03797799,-0.01342236,0.13244795
nHH771Vtkxw,0.06229628,0.0353824,0.13248451,0.01048772,-0.05446056,0.01591607,0.04636222,-0.12223994,-0.07693375,0.04130817,-0.15197956,0.34561665,0.08003909,0.05376585,-0.10395946,-0.09680472,-0.09394542,-0.12335137,0.07733336,0.04168187
AzNb2nQrM7U,0.02845937,0.01969089,0.04891798,0.01452901,-0.02938027,0.01624167,-0.01148922,-0.01769955,3.226e-05,0.03497914,0.01833564,0.00293671,0.02951173,-0.02951927,-0.00309842,0.00067751,-0.02107506,0.01519502,-0.01442039,0.00582831
WB1bBLedJQ4,0.08301002,0.03075505,0.25114721,0.56555427,0.45040174,-0.04436064,-0.03794582,-0.02541883,0.00465555,0.00324452,-0.03489826,0.07000112,-0.03196575,0.08962917,-0.03667634,-0.01888291,0.01110736,0.00814475,0.04544276,-0.05223093
sXV44nHGfAA,0.02913284,0.00922939,0.04681287,0.00968914,0.0314196,0.21442112,-0.09254946,0.08023224,-0.00856073,0.09749023,-0.10630062,-0.04895897,-0.0002213,-0.02597783,0.08121924,-0.09166781,0.11965716,-0.06382741,-0.02952045,-0.14924564
2mOqRPcWgMM,0.02061244,0.01020642,0.03582335,0.01371626,-0.0069494,0.22306109,-0.10269933,0.06059988,-0.01680545,0.02120805,-0.03613332,-0.01483579,-0.01001027,-0.00617308,0.05004246,-0.03487634,-0.07226097,-0.0340195,-0.03197123,0.01727505
toJGQUZbdqc,1.07771892,-0.72780823,-0.26923055,-0.07421391,0.18805931,0.08957523,0.08817493,-0.1374871,-0.32577047,0.0151711,0.05375541,-0.10315603,-0.01078469,0.018168,-0.03071722,-0.026378,-0.00277618,-0.00578469,0.07093164,0.04248359
Rpw1_eKZCEA,0.04537194,0.05315858,0.0565821,0.01757375,-0.03715121,0.06503862,0.03105531,-0.06870569,0.01489234,-0.0310415,-0.03092077,-0.0749453,0.02113026,-0.01316903,0.03603667,0.0367446,-0.03937686,0.05828056,-0.1255454,0.04083912
EFhMcL3Kf1c,0.01714675,0.00868188,0.03653289,0.00535583,-0.01874132,0.11514477,-0.04780776,0.00869564,-0.00964085,0.01978146,-0.02445027,-0.01522485,-0.01564721,-0.03312089,-0.06142438,0.06297601,-0.0210543,-0.07900363,-0.06367703,-0.11048027
zj0BKLv9r8Y,0.1628132,-0.01134162,0.09542646,-0.02968464,-0.00029403,0.05668454,0.02907745,-0.14147378,0.03646846,-0.02961628,-0.04550678,-0.05399288,-0.03586558,0.0254315,0.12425922,0.16567283,0.02299163,0.02377819,-0.04499368,-0.07231694
Xbang1Y_jbA,0.07802953,0.04833916,0.29159924,0.60169585,0.53302381,-0.06083131,-0.04978799,0.00551031,-0.00443059,-0.00549708,-0.0080693,-0.00331986,0.05269862,0.03008003,-0.02419893,-0.02061903,-0.02884946,-0.05165014,0.01331208,0.03268919
sebAi3RkL4o,0.21458656,0.06976234,0.19469255,0.06477455,-0.1974544,-0.09775663,-0.09023147,0.07538497,-0.0583156,0.15229382,0.17914298,-0.0479964,0.0741244,-0.06371555,-0.01818997,-0.06858846,0.00428787,-0.05585968,0.03040284,0.08122501
Hpl10gpuOGw,0.14206986,-0.03056122,0.18483549,0.06587315,-0.16406047,-0.06574121,-0.08624162,0.09551556,-0.0349973,-0.1628414,-0.01548005,-0.08315557,0.00587959,0.00807595,-0.01797649,-0.07036518,-0.12891781,-0.03758634,0.11568345,0.06856315
bfENsVP77VQ,0.04885471,0.0583662,0.02877192,0.00158189,-0.00961801,0.27925573,-0.11187189,0.09186658,0.02587435,0.01041666,0.02328112,0.0245421,0.02404684,-0.0274727,-0.09872262,0.09883869,0.18322184,-0.01317424,0.05161849,0.05590739
0VjrLsr61pk,0.07043633,0.07541422,0.10121499,0.01078301,-0.05873346,0.03414632,0.03548974,-0.11883461,0.00513796,-0.08285231,-0.04834398,-0.09346479,-0.05995578,0.03532891,0.13836045,0.18897809,0.05960291,-0.00188414,-0.08391389,-0.02813413
AxM96v9ZCzI,0.05571675,0.01621212,0.04409397,0.02017085,-0.02915287,0.01891517,0.02696402,-0.1069191,0.04088481,-0.00763342,-0.01163893,-0.0566417,-0.04540512,0.06266778,-0.04429613,-0.05533553,-0.00420832,0.06093602,0.06280673,0.01194887
mbGPgjXCx24,0.08876125,0.01062159,0.12017842,0.04968181,-0.07170761,0.02573273,0.01088005,-0.1277954,0.02440938,0.04113968,0.04792419,-0.04737232,0.0059643,-0.03311375,0.07482005,0.06406306,-0.01838013,0.00048081,0.0361561,-0.04507694
HVPhcOmSMtM,0.14843232,0.07852511,0.15849455,0.06820864,-0.11550421,0.02219544,0.024649,-0.15290498,0.04285508,0.08043822,0.13071542,-0.13558977,0.05419787,-0.09846709,-0.06034404,-0.07278392,-0.05877987,-0.00460976,-0.04874223,-0.17074648
GAf7J_t1o8U,0.10402547,0.07215094,0.15200541,-0.00383829,-0.0484832,0.07614029,0.10853307,-0.1316357,0.06304627,-0.05727899,-0.06955113,-0.16294827,-0.01418275,0.12738832,-0.049461,0.01320308,0.06806144,-0.01575191,0.15261452,-0.03174274
VsLOWe6VuyQ,0.0161969,0.009942,0.03334614,0.00758046,-0.00012602,0.08419748,-0.02806108,-0.00625042,0.0125558,0.00026116,-0.05174907,-0.02266482,0.0113529,0.01361513,-0.0137246,0.03100215,0.02528631,0.063898,0.12258873,0.09618612
RCl-cN1Hf-Q,0.08688189,0.06995961,0.30380767,0.66027135,0.56278099,-0.05108076,-0.0379452,-0.01101652,0.00638458,-0.05189311,0.00781267,-0.04231777,-0.01200164,0.03577868,0.03099135,-0.01415694,0.0271394,0.01277666,-0.00702867,-0.02901989
KztyymfW3Dg,0.10743658,0.08301707,0.1687423,0.28657962,0.17973087,-0.01570135,-0.01047644,-0.03510605,0.01507933,-0.0125639,-0.0107905,-0.05695422,-0.02531229,0.04109177,-0.02475557,-0.0201273,-0.0150273,0.01767216,0.03237335,0.00088904
XfY_L8MLOsU,0.01647411,0.00482679,0.05309648,0.01712237,-0.0208181,0.17350851,-0.07402038,0.0138654,-0.01516044,0.03415055,-0.0537364,-0.00139463,-0.0335274,-0.05528343,-0.10784401,0.0368583,-0.10527155,-0.08228066,-0.12735959,-0.13116123
HeY4a7uDlkg,0.0105229,0.00029746,0.02648356,0.00622901,-0.01315928,0.14663046,-0.05875011,0.03247908,-0.02241859,0.04910656,-0.04248323,-0.00803748,0.02083009,-0.00817262,-0.1084454,-0.05570316,-0.01766267,-0.12772982,-0.03594063,-0.15838721
hXPy19kPego,0.05016736,0.04304449,0.07984004,0.02078802,-0.05158038,0.01870339,0.04521167,-0.06857833,0.00018997,-0.04531688,-0.02756671,-0.06418892,-0.04377335,0.01269658,0.07798122,0.10569875,0.00913113,-0.01982625,-0.07125667,-0.03109226
q1l42BPzbIk,0.0214183,0.01356296,0.05406207,0.02094395,-0.0266668,0.00934383,-0.01152837,-0.02895513,-0.01809973,0.04166768,0.02628295,0.01525726,0.02285273,-0.03624627,0.03379815,0.02558837,-0.00062367,0.0306408,-0.00151981,-0.02010864
rhVEOqNhjKo,0.01212237,0.0013672,0.03668146,0.00047751,-0.00314361,0.13955265,-0.06153354,0.02667796,-0.01493813,0.04055979,-0.03492347,-0.01559698,-0.01370296,-0.02067333,0.03409142,-0.02276148,-0.02146765,-0.00633769,-0.0561465,-0.08002315
VVfMO6SJZLw,0.09277986,0.06549421,0.11769973,-0.00666778,-0.03918688,0.05411439,0.10922002,-0.06334668,0.02744716,-0.06453204,-0.02203036,-0.07032397,-0.0239995,0.0674048,0.00761661,-0.0670904,-0.05805764,0.03832557,0.01996211,-0.00819512
CPJhzRv9y_8,0.01162599,0.00582928,0.05130936,-0.00998507,-0.00545225,0.14354449,-0.05342847,0.03282631,-0.00908958,0.04559122,-0.05539825,-0.01456808,0.01779718,-0.00505684,0.04696397,-0.12512285,-0.0058374,-0.089133,0.01623,-0.14169706
Gr6qcQdzDfw,0.07490121,0.038881,0.13100965,-0.03994029,-0.01003946,0.01500272,0.00345521,-0.11628123,0.04463177,-0.04564933,-0.01568997,-0.06974036,-0.02435472,0.00252116,0.02409355,0.00535352,-0.03834124,0.02124868,0.03461388,0.00559207
vTXoE7BLv9s,0.05807088,0.03023686,0.08270469,0.02558288,-0.05263515,0.03965973,0.04221999,-0.08322078,0.00318343,-0.05376605,-0.01616134,-0.0449525,-0.00171809,-0.04089058,0.1053136,0.07955905,0.02334675,-0.04011873,-0.06323626,0.01867893
kf9ghd5-VII,0.08447171,0.07908647,0.14501694,0.00577871,-0.06910816,0.0209956,0.0116282,-0.06729841,-0.02057823,-0.03625595,-0.02086114,-0.00674418,0.01948863,-0.08621472,0.03415713,0.04190753,0.02843445,-0.14527313,-3.267e-05,0.19577185
MlcUa5-3G68,0.10917701,0.07425625,0.14060195,0.03224146,-0.08589173,-0.0041818,0.00524085,-0.11068927,-0.00166819,0.1551182,0.11762967,-0.03449131,0.01050696,0.01320745,-0.01595291,-0.04749586,0.00762362,0.01201569,0.01383745,-0.01913587
AHyZdLVYJfc,0.04263756,0.05982336,-0.00391857,-0.00031211,-0.00194386,0.08081677,-0.03111178,0.03287661,0.02508897,-0.00210248,0.00438672,0.02286754,-0.00169433,0.00901111,-0.00649133,0.01841331,0.00911706,0.03350424,0.01896488,0.02849886
q_ynGwBIxLk,0.7228817,1.15232414,-0.33989537,-0.01903765,0.07900578,-0.00826418,-0.01578551,0.05832538,-0.0066455,0.0150252,0.0119216,0.02159881,0.00014793,0.01088787,-0.01090803,-0.00805162,-0.00759246,0.03940635,-0.00411155,-0.03127296
a4jo0YM7WRg,0.01385217,0.01253499,0.03406443,0.01694535,-0.01161749,0.03954584,0.01090665,-0.03330083,0.00443365,-0.0106841,-0.01129061,-0.00745478,0.04345783,-0.0453335,0.02242449,0.00960666,-0.0155598,-0.0527515,-0.03954059,0.02697166
bbhBRpDlFHE,0.01199784,0.00472752,0.04191751,0.01835803,-0.0181863,0.07822376,-0.01996859,-0.00066336,-0.00377917,-0.02194472,0.01304593,0.00598989,0.00549433,-0.00518836,0.03117796,-0.0412522,-0.03429148,-0.00653789,0.00506546,-0.00072141
fxb9BMISN54,0.25442148,-0.08361778,0.15467645,0.05783198,-0.16910314,-0.12434155,-0.13623911,0.24278879,-0.06277461,-0.1744863,-0.12114103,-0.00266002,0.04997952,-0.07665661,-0.05205058,-0.09019201,0.02065618,0.02373083,-0.01554948,0.05682033
XFpBgNMBNNI,0.01131905,0.00918156,0.03732572,0.01729783,-0.00710813,0.2201381,-0.0880586,0.03608464,-0.00022998,-0.06292834,0.09742704,0.05807987,-0.00843905,0.01534763,-0.10887343,0.15007071,0.0206626,0.03368034,0.01203935,0.09120384
40-68Uco_u0,0.04847662,0.03045513,0.08536677,0.01148846,-0.01340565,0.01321488,0.00402173,-0.0628974,0.00531825,-0.01772113,-0.03523762,-0.01433816,0.03071339,0.01778157,0.0467496,0.04680286,0.0128642,0.02431512,-0.03940342,-0.03709513
