video_id,lsa_1,lsa_2,lsa_3,lsa_4,lsa_5,lsa_6,lsa_7,lsa_8,lsa_9,lsa_10,lsa_11,lsa_12,lsa_13,lsa_14,lsa_15,lsa_16,lsa_17,lsa_18,lsa_19,lsa_20
ksn5yrsC3Wg,0.01974466,0.01047149,0.04748382,0.0283685,-0.03531702,0.23585046,-0.09442693,-0.04888522,0.03740666,-0.00766784,0.11460295,0.01324015,0.04717023,-0.05663508,0.01743337,0.03862843,-0.06438567,-0.02807657,-0.03272095,-0.04316039
WOTUpoI2LQA,0.04656465,0.00140352,0.08311431,-0.01535148,-0.00986449,0.00831464,-0.01673803,0.02672998,0.00875498,-0.00870635,-0.0013508,0.044713,0.01000984,0.00783479,-0.04427226,-0.02013675,0.03907647,-0.07132414,0.01924085,-0.02285616
Su0aCV35IFM,0.01221104,0.00298153,0.03545626,0.0212656,-0.02673301,0.28102391,-0.12592782,-0.07137749,0.03040218,-5.277e-05,0.233841,0.07139321,0.06886837,-0.00826423,0.10317273,0.07439002,-0.20776001,-0.08572262,-0.10021411,-0.08443044
xjcVnFd-4YA,0.01624251,0.00449491,0.01794558,0.01523167,-0.0226994,0.01985096,-0.00698918,0.02283658,-0.00234068,-0.01353818,-0.01365779,0.02163345,-0.00306272,-0.01582852,-0.01905057,0.01810353,0.00619203,-0.00413363,-0.02203483,-0.03346995
0y8vRPcSvbw,0.0215291,0.00269425,0.03601683,0.03381301,-0.03191178,0.14313262,-0.04865565,-0.01087291,-0.00239179,0.01395491,-0.01750755,0.0062991,0.01115791,0.01699912,-0.02548002,-0.0183061,0.01596951,0.05953642,-0.10217684,0.09624607
7Y7Iv5XAXwI,0.01876533,0.00469447,0.03534288,0.02130194,-0.0337102,0.12457288,-0.04471636,-0.01400599,-0.02845242,-0.01799756,0.11097405,-0.00768587,-0.00276907,-0.02632583,-0.03052024,-0.02605648,0.04474074,0.03036991,0.00710324,0.11045967
WgcdDVIUXcI,0.0561239,0.00272002,0.0607695,0.04272178,-0.07761192,0.02985844,0.02171714,0.11093246,0.01581222,0.06349587,0.00163565,-0.02425864,-0.06482967,0.02799286,-0.03776329,-0.04936693,0.03373548,-0.02158632,0.03086208,0.08696174
jLFG_FZKbks,0.02037211,0.01008739,0.0612238,0.00985977,-0.01918419,0.20216442,-0.07680944,-0.04738623,-0.0013287,0.00428939,-0.13607055,-0.00832747,-0.02090224,0.04003829,-0.02052654,-0.02909126,-0.02473859,-0.01303691,0.10697023,0.00388184
vmRbevilfpU,0.12860796,0.01903164,0.06356192,0.04652028,-0.08633261,0.0059551,0.02966782,0.14242184,-0.02863446,0.04989801,-0.00870963,-0.01225718,-0.13729638,-0.00589227,0.10692845,-0.07686866,-0.03720889,0.1162693,-0.00907527,0.04205473
u_f8bJkfg68,0.10812247,-0.01224759,0.01952152,0.02626497,-0.05071208,-0.00862723,-0.0299945,-0.05364803,0.00052968,-0.03529061,0.01081475,-0.01322195,-0.00826576,0.0316203,-0.02366238,0.03344028,-0.01835294,-0.03321431,0.01322331,-0.0372602
pG99B0ui06s,0.00624833,0.0033721,0.0203545,0.0137394,-0.02149124,0.11899199,-0.0506507,-0.02893293,-0.01029522,-0.00539193,-0.00635494,0.01309849,0.02534204,-0.02104647,0.00557918,0.04926628,0.11195928,-0.00343594,-0.00993477,-0.02990181
UncqiOQc4rI,0.01185377,0.00290985,0.03602743,0.01148095,-0.02062614,0.0981095,-0.04733264,-0.01210045,0.0045286,-0.02449523,-0.03936263,-0.02183571,0.01535352,0.03250971,0.0489564,1.329e-05,0.03799282,0.02819546,0.01950817,0.11659583
eOI7WQIEX1Y,0.07226328,-0.01311265,0.05354394,0.02887206,-0.04531899,0.03046334,0.01387294,0.09041641,-0.01435152,-0.032893,-0.00120848,0.14377461,-0.03678,-0.01161913,0.00100255,0.01397966,-0.01161825,-0.03389256,0.03741676,0.03266797
tkLxg6h07aE,0.02842085,0.01380224,0.05172453,0.052223,-0.04109665,0.33669559,-0.11668591,0.01516295,0.02040093,-0.00763857,0.80112481,0.08648051,0.03450966,-0.07321998,-0.00389588,-0.08449717,0.03664641,0.16660174,0.15167359,0.09011323
jKTNMlUEdgU,0.00040403,0.00017942,0.00158336,0.00156551,-0.00064214,0.0066482,-0.00343012,-0.0009472,0.00111169,-0.0010668,-0.00140222,0.00081272,-0.00279853,-0.00107252,-0.00243396,0.00285191,9.713e-05,0.00076655,-0.00562401,-0.00015114
Hk-ARbCTKzM,0.01391491,0.0144969,0.03367633,0.02397792,-0.01724591,0.16861127,-0.07726791,-0.03508664,-0.00145649,-0.00579142,-0.11330226,-0.03633015,0.00263567,0.02744593,-0.02593002,-0.0142459,-0.03257957,0.01510599,0.00484566,-0.01532349
oRVJREzko-M,0.01482508,0.00500321,0.02030975,0.02476921,-0.01043771,0.09197131,-0.04457712,-0.02316315,-0.00713181,-0.00447985,-0.00707829,0.01926078,-0.0125915,-0.0103573,0.01336914,0.02307419,-0.02346817,0.05002597,-0.08669489,-0.04615023
s6XPoPYDn-Y,0.01707534,0.00717207,0.03316534,0.02840565,-0.03737813,0.16098191,-0.04605093,0.04370024,0.01050956,0.00134743,0.55281809,0.04711492,-0.00106563,-0.05434888,-0.04196826,-0.11683267,0.10539565,0.18132705,0.18119026,0.10202622
ndkH5fZSIvs,0.01978468,0.01067936,0.05592915,0.08208215,0.01686883,0.16330022,-0.08487432,-0.02588749,0.00321881,-0.02251807,-0.00548634,0.01131888,-0.01039384,0.01135146,0.02811379,0.00594941,-0.02469392,0.1101611,-0.00090101,-0.0875667
W41XcEogOB0,0.01292988,0.01517864,0.02220279,0.02640722,-0.01250855,0.1215475,-0.0464055,-0.01760681,-0.00965572,-0.01523982,0.14871334,0.00809912,0.02881655,-0.03373262,-0.02803455,0.01914352,0.06146641,0.01802906,-0.03171907,0.05465363
MVFd0qFB9TE,0.00896924,0.00213921,0.02374252,0.01496105,-0.01631357,0.15197499,-0.05962882,-0.03856231,0.01586382,0.01251088,-0.12515897,0.00217212,-0.02384445,0.04922057,-0.00861708,-0.03753319,-0.03862001,0.05299889,0.16296784,-0.06062625
v_1Dhh8G84c,0.01780768,0.00352584,0.03281956,0.02606898,-0.03677419,0.12827307,-0.04909057,-0.00638102,-0.00677363,-0.01164337,0.01468302,-0.02436352,0.01558353,-0.01353606,-0.02833923,0.01356151,0.04845963,0.01333799,0.06321013,0.01696911
iBpxQpktHN4,0.00304165,0.00387407,0.00859724,0.00642134,-0.01362225,0.0173861,-0.01558481,-0.01745094,-0.03184783,-0.01913834,0.02109332,-0.01300285,-0.00190368,-0.0151335,-0.00075791,-0.04611421,0.01804181,-0.00924603,0.03440445,0.05636571
Czf68kDF_7Y,0.00881511,0.00396968,0.03039947,0.02962177,-0.01856129,0.17713613,-0.07903649,-0.04816434,0.01981289,-0.01310132,-0.05112437,-0.01561314,-0.00160245,0.04603295,0.01931991,-0.01335185,0.02514409,0.09077798,-0.10485485,0.13252921
31t_CBePs34,0.03441667,0.02144109,0.11824673,-0.01092526,-0.03645627,-0.02226053,-0.00935148,0.05841758,-0.03664519,-0.06237649,0.01406203,-0.10716233,0.02890112,0.06526979,-0.08705222,0.18679678,-0.07034673,0.06482458,-0.02151119,-0.01642285
PnpHwhTWw0c,0.03262612,0.00093262,0.04346743,0.01700383,-0.02351686,0.15143303,-0.06949083,-0.03092439,-0.00795631,0.00327527,-0.08671008,0.00270432,-0.02416672,0.02109567,0.05331923,-0.03908031,-0.03489647,0.06352021,-0.06034142,-0.04585175
Bcag49Fk3zA,0.0174096,0.00517618,0.03902054,0.03559563,-0.0426713,0.19528874,-0.06044752,0.04205647,0.00042586,-0.01976652,0.57796415,0.04239605,0.01584949,-0.05540555,-0.01122132,-0.13661128,0.12984879,0.16733753,0.26976269,0.14868797
IrGd4xIhTN0,0.01120732,0.00475536,0.02810001,0.02206003,-0.02430558,0.16154992,-0.05895068,-0.02250307,0.00443583,-0.00789686,0.15502838,0.0517675,0.04279523,0.00303493,0.07034009,0.03717382,-0.1227067,-0.05604449,-0.07307455,-0.05446021
dNNyCZwEa6k,0.00994005,0.00508741,0.04052077,0.01289741,-0.02447754,0.16108025,-0.06205858,-0.04363973,0.00340849,-0.00417687,-0.06618156,-0.00424088,-0.01736703,-0.00543115,-0.02997158,-0.01500198,0.0482387,0.00402963,-0.04167629,0.08793436
ExlWYbISs6I,0.01542233,0.0102442,0.04708407,0.03396279,-0.04019636,0.19650163,-0.08879703,-0.02379841,-0.03403597,-0.00586776,-0.06984114,-0.00491701,0.07249544,-0.02990555,0.00591598,0.09129795,0.32330516,-0.02051963,0.11881973,-0.11772929
IMM5cm6xrXQ,0.01314983,0.00535564,0.03638767,0.01950546,-0.03143915,0.11158455,-0.0477244,-0.01203996,-0.00433288,-0.04554394,0.01861752,-0.02733148,0.04027226,0.02506735,0.0517378,0.0039191,0.05372077,0.02135173,0.11939815,0.1406865
pUlUgkaTQZg,0.00924421,0.00400013,0.03354106,0.03061687,-0.02108474,0.21387251,-0.08784495,-0.04305211,0.01439591,0.0003292,-0.00038405,-0.00803758,-0.00204037,0.01279903,-0.00584726,0.00631751,0.02793676,0.03729061,-0.14343529,0.09739439
4at2bVIhLgc,0.00907177,0.00466348,0.01443348,0.00908267,-0.00824774,0.11635867,-0.04235363,-0.03306355,0.01874307,-0.00638599,0.13259235,0.02527251,0.03748091,-0.01139651,0.03836516,0.06254895,-0.07865026,-0.04409236,-0.06144871,-0.04444043
a9T6IRpz31E,0.03591255,0.02720116,0.04841133,0.04769728,-0.04305483,0.18446221,-0.04624192,0.05754688,0.00275751,-0.00992506,0.57492535,0.04585249,0.00314596,-0.05520701,-0.04501489,-0.13348976,0.10192457,0.15259353,0.2116101,0.11583498
JWOErbTL9N4,0.01126983,0.01140027,0.02953151,0.0123588,-0.02042245,0.13346041,-0.05898634,-0.01256339,-0.00273403,-0.00566024,-0.03887854,-0.01020479,0.02425108,-0.03823028,-0.02525482,0.06349845,0.07253049,-0.00508867,0.04522528,-0.07427895
mDh52QTqR0o,0.09771084,0.02571219,0.12068857,0.0436951,-0.09601207,0.0494544,0.04657252,0.15347573,-0.01641273,0.00613656,0.03288091,-0.01390153,-0.05357443,0.10836057,0.04020165,-0.01330492,0.03826087,-0.09021886,0.01047276,0.00858206
dU5sDKcwN9E,0.01559499,0.01552151,0.04227979,0.01836981,-0.0191553,0.2516439,-0.0988939,-0.06099613,0.01578748,0.0158158,0.04254056,0.00533871,0.00162951,-0.01658419,-0.02605308,0.0429579,-0.08886747,-0.01019753,0.03585543,-0.02516348
0t118SCf-2w,0.0052113,0.00192166,0.01482299,0.01072514,-0.0126964,0.10557186,-0.04599816,-0.02438939,-0.00468426,-0.00959261,-0.02670849,-0.00766734,-0.01766964,-0.00543071,-0.025513,0.00135001,-0.01862386,0.00948372,-0.02845647,0.01738113
JrGlAw_Q7ow,0.01499804,0.00686138,0.05037815,0.01382153,-0.03433562,0.22140586,-0.09816179,-0.08088489,0.01117521,0.0115471,-0.14377601,-0.01486821,-0.0612943,0.02724462,-0.02173445,-0.0354234,-0.01236448,-0.01025092,0.08535005,0.01917756
gdjCR9h1yGc,0.01258499,0.0074752,0.05694748,-0.00056899,-0.01622528,0.22876827,-0.09979831,-0.07353053,-0.00295751,-0.00689608,-0.13940887,-0.02150096,-0.03973609,0.00803283,0.00870936,-0.00376563,0.025585,-0.01247751,0.06858168,0.04702686
XsY6iChNzf0,0.02758695,-0.00169474,0.05880126,0.00446703,-0.00620469,0.0352424,0.03812756,0.00172913,0.00976248,-0.01095638,-0.00250013,0.00986822,0.03106291,0.02775518,-0.02396254,0.00277257,0.03570784,-0.05484255,-0.04004797,0.02124887
PoHZWjU54jY,0.02319757,-0.00534609,0.02098186,0.01240217,-0.01182114,0.18921794,-0.08399014,-0.04476021,0.02282673,-0.00172406,0.17715664,0.04145269,0.06149547,-0.0301962,0.06816243,0.05297507,-0.13816894,-0.06509764,-0.08673256,-0.06331727
5YKhtb3DNNo,0.04052116,0.05117255,0.0542094,0.06096072,-0.02912654,0.00090329,0.00845313,0.02908018,0.11717922,0.02938946,-0.0002503,-0.02243084,0.03099835,0.0716407,0.07636131,0.03669448,0.01732333,-0.04750377,0.00174597,-0.06008225
-1Fhry-Mqks,0.0114536,0.00551047,0.02397607,0.01607397,-0.01793333,0.14011837,-0.05980084,-0.02519932,-0.01011136,-0.00423203,-0.00609071,-0.00251634,0.02475152,-0.01252428,0.05479059,0.00663671,0.05364293,-0.0054788,0.02895524,-0.04495361
BdUzhVM5w1U,0.00914752,0.00481529,0.02124099,0.01425872,-0.01679567,0.16966763,-0.07636594,-0.03836114,0.01851925,0.01207189,-0.09501322,-0.01606572,-0.01075124,0.04011477,-0.02180043,-0.0500292,-0.11471618,0.01208513,0.02757366,-0.01470316
vgwG6e9TFcw,0.01275779,0.00297124,0.03109125,0.01734298,-0.02336843,0.16383561,-0.08037933,-0.04415339,0.00120776,0.01939611,-0.12671888,0.00164076,-0.03939035,0.04810254,0.05548224,-0.10858457,-0.11445242,0.13049748,-0.18869803,8.946e-05
z7Qp9Q_Br88,0.01365175,0.00725535,0.02815051,0.02278841,-0.02962723,0.1107092,-0.05003866,-0.0072353,0.00706985,0.00467925,-0.05635096,-0.01377349,-0.01351458,0.01796309,-0.0150172,-0.03585445,-0.0638573,0.00241688,-0.05952355,0.03302587
m-nnyNZ0TQ0,0.0153666,0.0069133,0.06018513,0.00399197,-0.01970182,0.19702935,-0.06014214,-0.05947892,0.00045048,0.01280159,-0.15587774,-0.02318912,-0.06428224,0.01186035,-0.06194678,-0.02983598,0.07459316,0.00596279,0.03938815,0.08266582
pcAJLeGAtwc,0.01084692,0.0088536,0.02543341,0.01440927,-0.01861221,0.07332488,-0.0312875,-0.00283379,-0.0010696,-0.00471582,-0.03798456,-0.00503561,0.00758844,0.02428198,0.00477922,-0.01117491,0.01832182,-0.0199034,0.02922172,0.01344914
tVpky2riji0,0.09951711,0.00896597,0.07156152,0.06407409,-0.06382118,0.02976412,0.03779505,0.11558787,-0.03851679,0.00428065,-0.02772091,0.04047837,-0.0592421,0.05691518,0.06130404,-0.01597127,-0.02309414,-0.0007122,0.03642363,0.0273588
39czcByvq7c,0.02302345,0.01148044,0.0330678,0.02435221,-0.03586079,0.15510446,-0.04302013,-0.04271498,-0.01047967,-0.00967669,-0.00394479,0.01849508,-0.01584149,-0.01263791,-0.01382843,0.01227941,-0.04288141,0.05746247,-0.03525242,-0.08144733
jytAQWCc_TI,0.07756269,-0.00987992,0.03206522,0.02298559,-0.0108396,0.34755692,-0.1387799,-0.12562182,0.02910245,0.05718003,0.01487695,0.03112111,0.00709811,-0.01024907,0.00795157,0.00795374,-0.08563423,0.04413895,-0.03938727,0.00641502
ktkpd9A8MD8,0.05607885,0.04708152,0.09315167,0.04465122,-0.09251635,-0.02452041,-0.01743283,0.044635,0.14624798,-0.00443478,0.00540222,-0.02880546,-0.00085218,0.06149724,-0.0062715,0.07604112,-0.01333552,0.01772598,-0.00736747,0.00819518
roUppNywDks,0.02445394,0.01249568,0.04588091,0.03499727,-0.04436786,0.27969545,-0.09881668,0.0089301,0.00813663,-0.00593169,0.62726265,0.06772021,0.03291721,-0.06342718,0.01282019,-0.08302769,0.0284418,0.11678314,0.17014214,0.04649587
WeliLUboy3M,0.03455508,0.02188544,0.04759404,0.05270578,-0.03419167,0.30884631,-0.09359078,0.00031381,0.01938497,-0.00920572,0.72677043,0.08105914,0.03518148,-0.06918085,-0.01450716,-0.06553919,0.03854136,0.14919789,0.12734896,0.07920679
nVHr2D6tnA4,0.08226754,0.05860073,0.08832671,0.0760701,-0.14030623,-0.04774818,-0.04704908,0.03770409,0.19328615,0.32598302,-0.02917275,0.021199,0.07999402,0.04095085,-0.04512577,-0.0281855,0.01175797,0.01212616,-0.02816273,-0.03089663
fwUWAoSeg2g,0.04503127,0.0111048,0.13103538,0.26834886,0.19183313,-0.0156165,-0.02329301,0.02048145,-0.0110672,-0.01530365,-0.00614836,0.0437594,-0.01242247,-0.01069926,-0.00252112,-0.02651601,0.0032864,-0.04156257,-0.00058039,-0.0204321
Cr7oGnSzmb4,0.00895807,0.00046335,0.01577312,0.01029054,-0.01639727,0.10214331,-0.04458089,-0.0254842,0.01107779,0.0108086,-0.08050832,-0.00454096,-0.02143776,0.01474268,0.04018283,-0.04218928,-0.0543899,0.02095026,-0.05328491,0.00515794
KGeCwEOLPGE,0.01942047,0.00231614,0.04745745,0.01710087,-0.03113049,0.25757852,-0.10815831,-0.07093251,0.01300469,0.01871578,-0.09314745,0.01887582,-0.0096756,-0.01911437,0.0211581,0.03187505,0.05326433,-0.02603013,0.15128796,-0.06543906
wy3a_xJI3so,0.02053412,0.00672937,0.06436325,0.00742738,-0.02193609,0.22106498,-0.07358708,-0.05541716,0.01553799,0.02618134,-0.17426453,-0.02820652,-0.04352105,0.04861992,-0.04022301,-0.04387312,-0.02390076,-0.01166958,0.19335105,-0.03534994
iTOXHp4c1YE,0.05268242,0.00532525,0.06420587,0.05448499,-0.07043677,-0.00514257,-0.00792258,0.05190908,0.06003312,-0.04482626,-0.02742963,0.02951824,0.08862377,-0.00334562,-0.02060627,-0.05836813,0.02139362,0.00973481,0.02796483,0.06341527
eRD2C7w9r6Y,0.05912573,0.0008167,0.02693424,0.02278922,-0.03672131,0.01812796,0.03801476,0.05492218,-0.02282697,-0.01141872,-0.00052062,0.00356596,-0.03253485,0.02376289,0.0337565,0.0006898,-0.00365875,0.00251429,0.0064951,0.03977188
-uSQcEfnKp0,0.00868256,0.00654863,0.02141444,0.01612206,-0.02014676,0.08375602,-0.02848599,-0.00259035,-0.01522901,-0.003664,-0.00273771,0.00957144,0.01064493,-0.01883252,0.00321511,-0.00068453,-0.004692,-0.01425819,0.02449422,-0.01745284
TRVnxUYQAmI,0.06882143,0.00685439,0.08039955,0.05491142,-0.07580182,0.0505395,0.08575808,0.09259614,-0.0116818,-0.02803068,0.00872228,-0.0584978,-0.08091823,0.11230419,0.01722698,0.08067358,0.02075082,-0.01343497,0.01166219,0.00654295
-uUlnDjQxhg,0.02501821,-0.00116523,0.03612167,0.02611935,-0.01218602,0.27038531,-0.11218242,-0.07525906,0.0238423,0.01819007,0.09618476,0.04974024,0.02828125,0.01682747,0.06982481,0.02651979,-0.10699753,-0.0311475,-0.12613396,-0.0246365
dl0-TveDDGA,0.01075621,0.00345764,0.04254699,0.01150196,-0.02126628,0.22698115,-0.09395948,-0.07498972,0.01550464,0.01668377,-0.13898339,-0.01123273,-0.05493607,0.02878745,-0.03464177,-0.00839661,-0.00697967,0.02721413,0.06069411,0.03576214
sbzsqNJuZvg,0.01280485,0.00210357,0.0399214,0.01576221,-0.01069221,0.22385033,-0.09369872,-0.08730463,0.01868859,0.02441375,-0.16871703,-0.02549662,-0.07023501,0.01223263,-0.04401063,-0.05561405,0.06909429,0.09868707,-0.20005603,0.16865737
6r-qlEX6hGY,0.0096804,0.00607229,0.02876019,0.01388797,-0.02466881,0.07591071,-0.02844834,-0.00475608,0.00066935,-0.0028146,-0.02730965,-0.00575493,0.00432903,0.01282405,0.012372,0.00285816,0.02967518,0.0044196,-0.01465299,0.01906529
FYMdllTCrc0,0.01162155,0.0053249,0.03428339,0.02224074,-0.02677371,0.264597,-0.10717659,-0.05834143,0.02386813,-0.00894523,0.28079402,0.06400191,0.08125087,-0.01290688,0.0690976,0.06887514,-0.18976174,-0.08729155,-0.11456279,-0.09764325
rc-xQnupse0,0.09737172,0.03337822,0.12072232,0.08751031,-0.13955154,0.02007018,0.00099487,0.19079059,0.07377698,0.02122398,-0.01279162,-0.00452502,-0.10079962,0.11190622,0.07379892,0.06115148,-0.05800043,0.04257774,0.0472186,0.09322031
jAaw0vn7eLs,0.00877115,0.00488294,0.0285164,0.02254984,-0.02431945,0.15854082,-0.06869319,-0.03216468,0.020292,-6.467e-05,0.05118317,0.01681078,0.01649008,0.02411327,0.03166355,0.01296036,-0.14196606,-0.03092019,0.0123048,-0.06062655
kijJaXVri7Q,0.05544204,-0.00149719,0.0431211,0.03780176,-0.04612589,0.0307504,0.01396937,0.06252148,-0.02897801,-0.01794074,-0.01515834,0.00019557,-0.03657707,0.0106884,0.02829003,-0.01449399,0.02019248,0.00608816,0.02574975,0.00175104
0HSNPIttevk,0.03271963,0.01748234,0.06306741,0.04418166,-0.00474072,0.29724116,-0.1241382,-0.07698227,0.01146054,0.00876894,-0.14787068,-0.03996801,-0.02497903,0.02159467,-0.06050933,-0.02436459,0.19977738,0.06022505,-0.09816928,0.15230935
BOmc_wliaRg,0.02128808,0.01159571,0.02069536,0.02699121,-0.01130477,0.03388782,-0.00572785,0.02123951,-0.00357493,-0.00961732,0.05422545,0.0120593,-0.00894748,0.03418594,0.01990855,0.01087303,0.00732695,0.04821496,0.014597,0.02347195
kH_bSvf7EVA,0.00795141,0.00027086,0.01513848,0.01264104,-0.01357591,0.1274674,-0.05484583,-0.02642549,0.00357611,0.01026519,-0.04920658,-0.00131421,0.02530854,0.00933977,0.02657862,-0.02417826,-0.08425619,0.02291711,-0.10031376,-0.01399867
QfUb5MEAOXA,0.01127661,0.0034208,0.03102786,0.01260942,-0.02401211,0.08902879,-0.04118266,-0.01541954,0.00437263,-0.01063725,-0.02649414,-0.01109579,0.00417531,0.02030373,-0.01152748,-0.01348678,-0.01455942,-0.01231532,-0.07087635,0.02098553
8fIRAhGGRgA,0.02229381,0.00603845,0.05490255,0.02947132,-0.03028395,0.34392343,-0.1401698,-0.08695331,0.0262995,0.01506381,0.02651497,0.03987963,0.01045989,0.05419503,0.06561257,-0.0533678,-0.20587697,-0.0339682,-0.01564119,-0.05631343
xhCLLakHBa8,0.04402925,0.01206776,0.05807344,-0.01306307,-0.00461514,0.01557654,-0.00802623,-0.00413579,-0.02185355,-0.01376141,0.01635624,-0.00972106,0.00487263,0.00860357,-0.03341328,0.00227452,0.02460442,-0.04152136,0.01196827,0.01507099
0Z1lChyi2W4,0.00998758,0.00796262,0.0309127,0.02472406,-0.02205818,0.16118938,-0.06599009,-0.04131232,0.01046843,-0.01028066,-0.08135096,-0.02214886,-0.00420336,0.04944239,0.00623096,-0.02512652,0.00798641,0.06225524,0.01150046,0.10913302
gEUMAljLr78,0.06247507,0.0017847,0.05576357,0.04959151,-0.0769236,0.01039098,0.01150547,0.0467194,-0.0582625,-0.0438555,-0.02215611,0.07990554,-0.05640349,-0.03186877,0.00282975,0.02437942,0.03616501,-0.03307831,-0.02141874,-0.01101836
DYkyYUjOZTk,0.01549766,0.00164921,0.02282248,0.01688713,-0.02607591,0.0914368,-0.03484281,-0.01346979,0.00318365,-0.00970668,-0.02149275,0.02851826,0.00894266,0.00491091,0.01955858,0.01782405,-0.01396097,0.04033097,-0.02089349,-0.06567039
48hHo2WcAQI,0.05628334,0.00037419,0.07025449,0.05097365,-0.07664235,0.04964532,0.03967652,0.13308891,-0.05412104,-0.04769748,0.01586073,-0.02779404,-0.11229298,0.28243403,-0.04204123,-0.19986863,-0.08542903,-0.29741541,-0.12375281,0.00288892
3LnNwS6rqk8,0.08927556,-0.00795913,0.07656833,0.04996651,-0.09422905,0.04617144,0.03025499,0.11836857,-0.04325246,-0.03444024,0.00697994,-0.0423969,-0.08904944,0.11700852,0.09858472,0.0638967,0.00956799,0.04031677,-0.00455229,0.0041483
LLK879SXq_w,0.1208153,0.03458275,0.38106189,-0.06870109,0.15963033,-0.041081,-0.09116779,0.12253152,-0.03982059,0.04335786,0.01325137,-0.03049705,-0.0028093,0.02305697,0.01060972,0.00948701,-0.02628232,0.04502391,-0.04080117,-0.01969568
shkHigLwBnM,0.0534351,-4.934e-05,0.02827424,0.02503492,-0.03400875,0.02406951,0.02259397,0.05513819,-0.02380375,-0.00652167,-0.01081644,-0.01749494,-0.04302742,0.04781056,0.03886032,0.02735986,0.00752381,0.01605086,-8.271e-05,0.02801194
mbGPgjXCx24,0.07530866,0.05269058,0.09285354,0.08580975,-0.09567354,0.02893244,0.00081426,0.14146109,0.05838308,0.02617019,0.00331532,-0.03073791,-0.04911839,0.07937806,0.01003153,0.03384845,-0.02846835,-0.01377651,0.03033977,0.04841265
ucN2hf0CgI8,0.02224685,0.0096263,0.02901641,0.02697214,-0.02949095,0.07575165,-0.02238464,0.00333889,-0.01500519,0.01281013,0.04318338,-0.00311009,0.00384947,-0.00175118,-0.01412418,-0.02114402,0.02086025,-0.01612747,0.01434976,0.0114973
_WrHMsTYlOU,0.01240212,0.00250612,0.02641927,0.01568609,-0.01770576,0.06609736,-0.02568441,0.00585921,-0.01066626,-0.02785993,0.04268888,-0.01492176,0.01758188,-0.00661962,0.00234746,-0.00703537,0.05909408,-0.00974223,0.05194347,0.08805863
S0WQP5GeTZs,0.01138896,0.00975872,0.03134481,0.02567104,-0.02973155,0.16756851,-0.06593895,-0.02769558,0.01540431,-0.00561682,0.10534915,0.03265657,0.04137044,-0.01012124,0.03534158,0.00797154,-0.08327519,-0.04740744,0.0021283,-0.00379411
ERWIJPTNZVM,0.00715603,-0.00061253,0.01084782,0.01143845,-0.00677928,0.03919265,-0.01346894,0.01106751,0.00083058,-0.01485317,-0.00178376,0.01173624,0.0155808,0.01082468,0.011182,0.03138781,0.03595624,-0.01538689,-0.06969064,0.01283015
UPbaPjDGQIE,0.00908379,0.00428534,0.03939594,0.01518617,-0.01451233,0.180197,-0.08548435,-0.04759251,-0.00087976,-0.02302333,0.05933492,-0.00161274,0.03452242,-0.01078267,0.02978981,0.03817196,-0.07200214,-0.01833766,-0.05681765,-0.0479862
UM9dcnJXX0k,0.02013541,0.02342773,0.02064693,0.02692103,-0.0094497,0.05561816,-0.01063187,0.0072335,0.00301828,-0.01259343,-0.01179016,-0.02929067,-0.01472631,0.01954603,-0.0704968,0.02335606,-0.15955951,-0.16879911,-0.12685265,0.09951434
up__2flbXw4,0.01168933,0.00229602,0.02621599,0.00800825,-0.01470682,0.05939892,-0.02652606,0.00680664,-0.00962567,-0.02961236,0.06420725,-0.010094,0.01846642,-0.00492192,0.02655188,-0.03579282,0.0344276,0.00485899,0.10163609,0.10871116
9VyCOVdFpL8,0.00830056,0.00354154,0.02989561,0.02504047,-0.02275692,0.23440914,-0.10151225,-0.05450597,0.01036025,-0.00847785,0.11038628,0.03231596,0.03817304,-0.00675733,0.00518516,0.0261346,-0.11338744,-0.01158262,-0.17114279,-0.06087418
8u7HqZJQHDM,0.02162601,0.00704065,0.05000304,0.04752685,-0.04550942,0.33294118,-0.11989821,0.00842852,0.02875017,-0.00655856,0.74905307,0.09440525,0.04609449,-0.05210304,0.01179349,-0.0880525,-0.03564289,0.12981187,0.12641334,0.05092985
eBbqRceO2qY,0.10251492,-0.02896432,-0.00991783,0.00835446,-0.00054013,0.04137316,-0.00387099,-0.03217712,-0.01343121,0.03510718,0.02652531,0.02009214,0.02332618,-0.02135937,-0.00052542,-0.00111441,-0.00106433,0.01447544,-0.0292578,-0.01898198
vNXFk8iGHk8,0.02073121,0.00273705,0.04921789,0.01781986,-0.03496677,0.2504687,-0.10645709,-0.07535061,0.01704152,0.0151395,-0.09200045,0.01357736,-0.00235826,-0.02997135,0.02820464,0.04344738,0.04781401,-0.02933239,0.13662094,-0.05646873
tbvteFr4SPQ,0.06215598,0.01659107,0.10242555,0.02530287,-0.06546493,0.0189266,-1.029e-05,0.10519331,0.04770913,-0.04132113,0.01586675,0.05263827,-0.00846569,0.0785554,0.04129988,0.10734373,-0.00553115,0.04833049,0.00450609,0.04423896
er7v-GJj_V0,0.09834078,0.03073602,0.08175523,0.07127616,-0.11483281,0.00070732,0.00976804,0.06526801,-0.06565494,-0.05997966,0.00278011,0.03302792,0.00012749,0.01214898,0.10856877,-0.06255553,-0.01014165,0.11776078,-0.02151389,0.05050792
BPt0fwBCDbQ,0.10425533,1.261e-05,0.08321285,0.09208746,-0.10463137,0.0039335,0.00728001,0.09930432,-0.05474687,0.01310613,-0.04187295,-0.0264019,0.05002649,-0.11010798,0.10775013,-0.18992925,-0.03931787,0.06841499,-0.04187434,-0.01256324
oOCN30ulVyo,0.02469664,-0.00275364,0.01924546,0.01107604,-0.02119727,0.04756383,-0.01887104,0.00404942,0.00189081,-0.02150306,-0.01702177,-0.01417304,0.05152334,0.0129523,0.03228329,0.0082331,0.01638123,-0.04723476,-0.02059739,0.00341416
TET8fTKH1e8,0.12512143,0.04168447,0.13668782,0.05314064,-0.10054858,0.01496064,0.02439352,0.12922152,-0.02726976,-0.02252537,0.00938482,-0.01884013,-0.02435803,0.16771608,0.04269346,0.08753726,0.02617012,-0.12304252,0.09024925,0.06610976
if955Z_s4Ts,0.0080298,0.01083546,0.01805245,0.01409508,-0.01118604,0.13909651,-0.05685451,-0.03640053,0.01029114,0.00925795,-0.11688234,-0.01113989,-0.01712352,0.04433924,-0.02798808,-0.03981994,0.02773696,0.02352834,0.12192187,-0.01915693
ZAmCJoz4c4w,0.01165656,0.00874242,0.03022156,0.02521928,-0.02953369,0.13720601,-0.05349256,-0.02850934,-0.04567182,-0.04128055,-0.01110679,-0.05722016,0.00994575,-0.07967657,-0.0585676,0.13551865,0.29941028,-0.01774006,-0.24254471,0.04971107
_jxLMMcKmRQ,0.10742872,0.03439119,0.0671107,0.04302781,-0.075547,0.02803436,0.04614154,0.17173944,-0.01588835,-0.0187298,0.00709214,-0.03704752,-0.11113851,0.12392889,0.09985138,0.1152562,-0.01753387,0.06834114,0.0058026,0.01338141
Cql6TAdpPDU,0.29442756,-0.08703972,0.09028257,-0.02343879,-0.02425941,0.02463611,0.01679428,0.10494643,-0.08737982,0.00010369,-0.03826893,-0.02567629,-0.01229819,-0.09374453,0.04387009,-0.09705827,0.01674257,-0.07635042,-0.00559592,0.05739307
Lqq78q17jDY,0.13156541,0.0328181,0.20257112,0.07071811,-0.12996656,0.03628597,0.03463927,0.34534143,-0.31774682,0.18610668,0.02189957,-0.50851227,-0.00439333,-0.46199527,-0.30057131,0.18950437,-0.14726918,0.01913283,-0.12494486,-0.25262358
aZVcAlzBIp4,0.01990997,-0.00030421,0.00881718,0.01103359,-0.01253941,0.0327677,-0.01667176,-0.01296703,-0.00236571,-0.01164637,8.9e-06,0.00226067,0.00223806,-0.00745495,-0.0034669,0.02204881,0.00492195,-0.01399484,-0.00961406,0.01433269
LKxIrZFhONI,0.01884024,0.02874021,0.02009252,0.02609012,-0.00063732,0.10696272,-0.00834447,-0.01395994,0.00606064,-0.01313639,-0.03940317,-0.06608565,-0.05951668,0.0444061,-0.15014316,0.00369443,-0.3727971,-0.41785742,-0.30969809,0.19637616
3era1_feC3U,0.00730245,0.00447284,0.01625408,0.01322059,-0.01918757,0.01349029,-0.00394784,0.00429056,-0.01655514,-0.01469523,-0.00347166,-0.00133127,-0.00042928,-0.00201443,-0.00221894,-0.0154779,0.0103653,-0.0055681,0.01000912,0.0022836
VsLOWe6VuyQ,0.01623576,0.00323006,0.02459539,0.01448127,-0.0072289,0.05543401,-0.02288473,0.00827323,0.00783292,-0.00265715,-0.00511705,0.01295966,0.0346979,0.02004027,-0.00916199,0.00110723,-0.00484203,-0.07232032,0.05586689,-0.02234644
WwEyLRmGU9g,0.0427212,0.01468367,0.14165422,-0.00844123,-0.05506315,-0.00394765,-0.03029456,0.09301941,0.01036217,0.00972131,0.0077552,-0.04895769,-0.00173304,0.00054718,-0.03073698,0.04044908,-0.06436272,0.07982956,-0.04670463,0.01877075
HeY4a7uDlkg,0.00808817,0.00730961,0.02037557,0.0132981,-0.02067586,0.14548872,-0.05877975,-0.03039516,-0.01307231,-0.00035348,-0.11295106,0.02062134,0.0430242,-0.00042229,-0.02772003,0.01462024,0.19577494,-0.00274302,0.24549347,-0.07178112
OwbaFLtBpkQ,0.01500918,0.00574855,0.0405859,0.02441625,-0.03337802,0.11740557,-0.04637365,-0.01155536,-0.01323806,-0.03803664,-0.01191836,-0.03683132,0.0146329,0.01406354,0.04299757,0.02004265,0.0675406,0.01821806,0.03376068,0.14165635
lk7HWLeXjS4,0.09751647,0.01744915,0.0904676,0.05604844,-0.06113038,0.0254903,0.0212366,0.12857223,-0.02913967,-0.02261405,-0.03057181,0.00361511,0.03151749,0.09742879,0.04692878,-0.10467592,0.03694903,0.04509629,0.0159539,-0.00763655
5wuHYQMnYhA,0.01679295,0.00642302,0.03054815,0.02635281,-0.02688606,0.13614519,-0.06139832,-0.02568836,-0.03785624,-0.04418972,-0.02072721,-0.05239765,0.0077788,-0.06764473,-0.05539968,0.1138336,0.28201332,-0.0062929,-0.24361841,0.03821305
iRach9lpIlg,0.0094626,0.01473126,0.01810752,0.00380559,-0.01271239,0.00906239,-0.00311499,-0.00663907,-0.00469613,-0.01105048,-0.00134799,-0.00021933,0.01321493,-0.00501565,0.00906081,-0.00655246,-0.00494087,0.00767757,0.00741719,0.00219639
KKwxanUOAd4,0.05712363,0.01854311,0.11700888,0.02630272,-0.07036202,-0.01974721,-0.0351749,0.0629993,0.09716789,-0.02655874,-0.02175685,0.02697332,0.06804246,0.01573666,-0.02872363,-0.01562283,-0.00428245,0.00283747,-0.00740707,0.05368041
8QsAx7s9PmQ,0.00832596,0.0090676,0.02106243,0.00215913,-0.00843599,0.06577662,-0.01743952,-0.01496552,-0.00422121,-0.00298239,-0.0118734,0.00346303,0.0065001,-0.00431947,-0.00914216,-0.01255176,-0.02899178,0.01230654,0.05749679,-0.01167499
K9S3YgFZN9Y,0.00676356,0.00427517,0.01932417,0.01414447,-0.02158596,0.04831556,-0.01974317,-0.00954587,-0.00437582,-0.03155622,-0.0167223,-0.02943178,0.01461561,0.02395846,0.03678772,0.00983255,0.02062021,0.02947401,0.03238573,0.08622214
3OUrr_2UCYs,0.01393964,0.00559718,0.04674108,0.00373786,-0.01525305,0.23806654,-0.09475399,-0.07942234,0.005482,0.01327225,-0.10980996,-0.01822638,-0.02947372,-0.00655278,0.01442345,-0.00064235,-0.04532088,-0.02240008,0.15075459,-0.03586732
MWrMtRjLhjk,0.04601226,0.0363447,0.07181388,0.06224888,-0.09782056,-0.03466782,-0.04219764,0.03585225,0.19397758,0.04774404,-0.01310114,-0.0063905,0.00435552,-0.08805119,-0.02217064,-0.04480978,-0.01929724,0.0125962,0.01261996,0.09417041
YR-4vFbwe18,0.08347302,0.02337286,0.14134178,0.05516877,-0.10963676,0.00659596,-0.01402812,0.10010859,0.11694794,0.02149344,-0.02733908,-0.05415624,-0.00331911,0.06576778,-0.02337397,0.0519497,0.0451199,-0.05446595,-0.01270453,-0.00024976
RWGr8LwG3TY,0.12040448,0.03134883,0.09865465,0.0690967,-0.11392589,0.0380828,0.07341442,0.2087915,-0.08724994,0.01593625,-0.00674191,-0.03634785,-0.03877547,0.10803853,0.07487836,0.1371705,-0.05140868,0.07555209,0.05319967,0.0875081
zxQJIBt9CBI,0.07967923,0.02035947,0.07842799,0.05897264,-0.10725948,0.00573964,-0.00842133,0.01401462,-0.06633211,-0.05615197,-0.00560119,0.01715709,-0.04271973,-0.0169835,0.02821743,-0.06119069,0.0196371,-0.03071449,0.00160562,0.05215147
sKME5er1OKc,0.05667939,0.01607827,0.07906703,0.06948493,-0.10524016,-0.01651694,-0.01895467,0.07364926,0.12671791,0.07501471,-0.02523056,0.00026435,-0.01705946,0.00338805,-0.01213514,-0.03933989,-0.00291509,0.02172013,0.01282655,0.02830414
0DB_Qj43O6Q,0.01527246,0.0105262,0.0276807,0.02872794,-0.02899254,0.05202444,-0.01849266,-0.02252039,-3.723e-05,-0.0270044,-0.01580677,0.03288976,0.07443685,0.01400849,0.00643001,-0.06624626,0.03612265,-0.00610144,0.03475191,0.08342505
HRxULulg_hM,0.02402824,0.0103882,0.04596368,0.03930604,-0.05190885,0.17508074,-0.06930756,-0.05335668,-0.01126309,-0.0265192,-0.00217091,0.02905129,0.08440882,-0.00910956,0.0364838,0.03335757,0.22934979,0.03405216,0.01073254,-0.02336526
yy_J5fdELm0,0.00770969,0.00529096,0.0245306,0.02143207,-0.01980656,0.12558457,-0.03584805,-0.02148447,0.00299895,-0.00920501,-0.0639801,-0.06058266,-0.04993442,0.04548486,-0.12566436,-0.02028915,-0.34361355,-0.36170392,-0.28887002,0.17514514
msYTFQ4OIu8,0.02100305,0.00693922,0.05172629,0.04830898,-0.05041225,0.2962799,-0.10974195,-0.00148248,0.02930857,0.00674577,0.48296435,0.04519809,-0.00933716,-0.03903311,-0.05662676,-0.14293141,0.09881043,0.23831274,0.08031129,0.14570557
fpmYvXCzO1c,0.01142806,0.00268248,0.02811261,0.02273811,-0.02348298,0.18669529,-0.08404119,-0.04714531,-0.00536928,-0.01557711,-0.05307315,0.02803408,-0.02510504,0.00864233,0.02099551,0.0115815,-0.01159756,0.07709383,-0.11128701,-0.01845852
GXeBi91SkIw,0.00977835,0.00939582,0.0247809,0.02468919,-0.01470369,0.16113174,-0.06347266,-0.02751229,0.01540365,0.00013866,0.15316783,0.02929777,0.03104488,-0.01194792,0.02402961,0.02340808,-0.09629361,-0.00442116,-0.02121986,-0.03386631
-pNi4dh7VFo,0.07394765,0.01187797,0.05897358,0.03259946,-0.06294284,0.02482446,0.01284819,0.09267555,-0.01215501,0.02214781,-0.02782926,-0.03501122,-0.06159108,0.02849283,0.06757099,-0.03002082,0.01796996,0.06086128,-0.02862333,-0.04049329
CE6tiT3Q6c4,0.09910818,0.01264741,0.12808951,0.09506763,-0.17138472,-0.01408402,-0.02939504,0.09997964,0.25488865,-0.01926906,-0.0338514,-0.05738055,0.0188194,-0.03063724,0.06178082,-0.02179243,-0.03604883,0.05685245,-0.04659166,0.13140753
6UPfq3KETg4,0.04000064,0.00777292,0.09669177,0.01021545,-0.04329141,0.02572263,-0.01411088,0.09072661,-0.00982653,-0.01554795,0.03902212,-0.00868609,-0.01621277,-0.00565366,0.00659891,0.02305046,-0.00177831,-0.0014866,0.02375905,0.06258322
MqpQhyjFZQU,0.02188228,0.05296932,0.00419638,0.00941137,0.00267391,0.03010694,-0.00285858,0.01154728,-0.00019232,-0.00393392,-0.00674008,0.01300306,0.02546078,0.00989031,-0.01275857,0.03314585,-0.0155375,-0.03890822,0.03314182,0.01133008
FZbMPtLRr00,0.00569744,0.00140461,0.02828494,0.00744286,0.00285908,0.10934564,-0.03922816,-0.04218762,0.00047646,0.01420164,-0.08931213,-0.01961843,-0.03304177,-0.01322688,-0.0228265,-0.01706253,0.12583654,0.03218656,-0.04155922,0.09779256
EGTF9mGda4U,0.01425616,0.01205167,0.01574068,0.01808862,-0.01508908,0.06932013,-0.03131499,-0.02153363,-0.01598511,-0.00750943,0.08549393,0.00302351,0.01395124,-0.03053604,-0.02007123,0.02476158,0.02289754,0.00926611,-0.05368264,0.0312922
oixqYBAPwXA,0.00271664,0.00113361,0.00997745,0.00073082,-0.00487676,0.00459879,-0.0026011,0.00755656,-0.00785508,-0.00333965,-0.00437649,-0.00741871,0.00654775,0.00139706,0.00734154,-0.00149949,0.00438282,-0.00695193,0.00757138,0.00313425
UUzxEVhRQgQ,0.04712541,-0.00771518,0.02289141,0.02974277,-0.01543265,0.00427756,-0.0015107,0.02619308,-0.02443537,-0.0111978,-0.00281194,0.0305828,-0.03706004,-0.01025941,0.0359668,-0.01969557,-0.0161231,0.01062374,0.0110954,0.01343449
UDiJI3q9wFQ,0.02538049,0.00649692,0.10850335,-0.02933015,-0.010143,0.00313893,-0.03008285,0.04215161,-0.01284259,-0.0031455,0.00359926,-0.08738927,0.02211235,-0.05346958,-0.1114438,0.05085236,-0.0466277,0.10166002,-0.06414038,-0.00438362
0kHJZFOuMWc,0.05658226,0.03429124,0.1837143,-0.03551038,-0.03188138,-0.01045807,-0.02079543,0.11043324,-0.00549414,-0.05137058,0.02252752,-0.0670587,0.01636232,0.10851738,-0.0196541,0.25599984,-0.07149596,0.09574337,-0.01714841,0.07429938
wEb6ULf3TzU,0.01448237,0.00378757,0.02375199,0.01282903,-0.01939507,0.10521776,-0.04630362,-0.01909154,0.0122865,0.00979173,-0.04381151,0.02599938,-0.01783998,0.0154118,0.0087255,-0.0068806,-0.03587869,0.05689512,0.00435885,-0.05380351
wJOakc64crg,0.03860226,0.01691063,0.06327371,0.06070431,-0.04768696,0.02411318,0.01152195,0.07966999,-0.02932225,0.00076075,0.01980389,-0.03981396,-0.04085475,0.20067486,-0.05984999,-0.17314784,-0.03080841,-0.29444921,-0.06231034,-0.06938905
sjbKZ4CY1Ow,0.02540341,0.01008235,0.05163505,0.02491035,-0.04431441,0.31084095,-0.1256151,-0.08011142,-0.01594754,-0.00062576,0.00829658,-0.02059107,0.03897539,-0.03285921,0.01868458,0.09057191,0.05191596,-0.02886175,0.15005199,-0.05818401
kf9ghd5-VII,0.10886359,-0.00296302,0.12287442,0.04290005,-0.09794149,0.01842437,-0.00233189,0.04662738,-0.03356214,-0.07329989,0.02230514,0.02128479,0.01004333,0.11691791,-0.06212629,0.09295748,-0.00046431,-0.00463137,0.04804943,0.06110152
9oVPXnEkegY,0.08738142,0.03166736,0.07436398,0.03513732,-0.05822855,0.04057594,0.02240739,0.07256869,-0.01476902,0.03483347,0.01379361,-0.01838736,-0.03906708,0.02364389,0.01726914,-0.02227979,0.04754096,0.04133983,0.01814341,-0.0662164
iaYdIU5n6vw,0.02500177,0.01406116,0.05814493,0.02969936,-0.04870041,0.25609922,-0.10652442,-0.09110113,0.00297155,-0.01851788,-0.10273422,0.03602522,0.00975509,-0.00161939,0.00473009,-0.02753422,0.12114959,0.07914014,-0.09122075,0.06324576
fKtG9uPeMCc,0.09253811,0.06508657,0.05824178,0.05167357,-0.07769742,0.01510656,0.01966661,0.11999694,-0.08520416,-0.05141766,-0.08986151,0.36269888,-0.08277713,-0.11481192,0.03858703,0.11992221,0.02105173,0.00379825,-0.00757451,-0.04604477
1VSBgPn28zA,0.01331443,0.00874976,0.05963348,0.0001469,-0.01439683,0.25304387,-0.10230192,-0.08028915,0.00126151,0.00188776,-0.15989074,-0.01863604,-0.02160986,0.029728,-0.01056003,-0.0550953,-0.06338987,-0.01944597,0.17802346,-0.00954416
oj3-hWAf1uQ,0.05464376,0.01016772,0.10036519,0.04096094,-0.05275717,-0.00590761,-0.00623196,0.0512617,-0.02393828,-0.11877577,-0.04334027,-0.00207704,0.11618144,0.13579484,-0.05957892,0.02019933,-0.00048193,0.07455393,-0.0132567,-0.06647243
XeN7wKfDOPk,0.0138035,0.00854354,0.03458359,0.03991143,-0.01314628,0.12138114,-0.04547676,-0.00227225,0.00253144,0.0038736,-0.03254046,-0.02107681,-0.01743681,0.02435699,-0.08692165,-0.04661457,0.04556276,-0.0092635,-0.06811396,0.02116209
Ycdklm6W1_o,0.01439707,0.00703803,0.02774641,0.0200574,-0.02109315,0.17056464,-0.08086749,-0.04296883,0.00234698,-0.00426931,-0.02555009,0.00267214,0.01552324,-0.01999158,0.05417854,-0.04385221,0.01979837,0.06007724,-0.06802431,-0.0313971
oqoBSeL5GIU,0.01198173,0.00455212,0.04105223,0.00792339,-0.02019468,0.15883786,-0.04832879,-0.04232411,-0.00142036,0.01029159,-0.08664575,-0.04185004,-0.03436393,-0.01008244,-0.08666216,-0.00846685,0.13455684,0.05292723,-0.02559956,0.12711215
Cp3DxMyEBIM,0.04955331,0.03936283,0.14814389,0.06115966,-0.13917008,-0.02832404,-0.05041882,0.12103493,0.11231441,-0.14470671,-0.0959017,0.23809111,0.20433849,-0.16723477,-0.13751764,0.05405127,-0.08981148,0.13121573,-0.03138341,-0.10300492
07T7V-Szcx0,0.00825809,0.00357584,0.04192376,0.00788732,-0.01631347,0.23394247,-0.09404171,-0.07725424,0.01614958,0.01866639,-0.19898303,-0.02565874,-0.06320973,0.0518689,-0.03371944,-0.02727259,-0.09685756,-0.0001146,0.13755024,-0.03698463
D4fkiQfzw_I,0.00472585,0.00250164,0.01722461,0.01320913,-0.01736905,0.09652344,-0.04027096,-0.01460408,-0.0083253,-0.00961888,0.00682996,0.00288163,0.02734725,-0.03376655,0.00206527,0.03088408,0.12189041,-0.00741404,0.0594952,0.00459579
T7_l896OH20,0.04467578,0.06871889,0.04081797,0.04503924,-0.03410781,0.00704571,-0.00609813,0.00236752,-0.04598155,-0.01722942,-0.01183351,0.05643181,0.01684013,-0.01816562,-0.04413307,-0.01205095,0.01420833,-0.05293024,0.02972502,0.02684245
UEBpQgCIFTk,0.08762621,0.0288312,0.08856191,0.00305552,-0.03957118,0.01548641,0.01455432,0.1334713,-0.03871841,0.03612641,0.0047053,-0.00175865,-0.07654413,0.04425983,0.0529137,0.00532846,-0.00859357,0.04714155,-0.02063036,0.01234259
WB1bBLedJQ4,0.0809889,0.04067282,0.20924149,0.60047441,0.4380147,-0.03731217,-0.03330984,0.01927392,-0.01802043,-0.01566464,-0.0299715,0.03342287,0.04446915,0.02390328,0.04263128,-0.04728297,-0.00715638,0.08985332,0.0044823,-0.04353393
pGGJHrxn1VU,0.07627401,0.07467672,0.1824374,0.57477473,0.46239021,-0.05128531,-0.03125419,-0.04110249,-0.02680734,-0.00984783,-0.00711728,0.02453052,-0.00836403,-0.01631906,0.01195313,0.00156143,0.00253196,0.01188462,0.00304832,-0.01566599
qey62i2fvg0,0.00755696,0.00405737,0.0256675,0.01669952,-0.02136866,0.14055269,-0.0578839,-0.02813977,0.00374111,0.00351028,-0.08718859,-0.00193343,-0.0279422,0.02230481,-0.05218191,-0.03303592,-0.01300153,0.04456758,0.12262765,-0.08140744
YhNUPGphSM8,0.08943815,-0.01310615,0.06634183,0.04089846,-0.07286855,0.03425731,0.02341177,0.10215466,-0.01979903,-0.04030051,-0.01588382,-0.05385685,-0.07464474,0.118368,0.07006628,0.10147566,-0.00178723,0.02861673,0.01178798,0.06332021
qGDMB-PryIU,0.02536907,0.00430238,0.04396727,0.04303484,-0.03201307,0.20692456,-0.0864766,-0.03431662,0.00246168,-0.012444,0.08212827,0.01858445,0.01692794,-0.00151581,-0.00318247,0.06107051,-0.03583286,-0.02508237,-0.0305096,-0.05953908
o8YcWD2ri9U,0.00996132,0.00256143,0.02473082,0.02089787,-0.01951259,0.17525589,-0.07892079,-0.03933243,0.00048181,-0.01095781,-0.04518762,-0.01843161,-0.01334143,0.0044225,-0.03319936,-0.01846701,-0.01637504,0.03108619,-0.07627931,0.0478784
bfENsVP77VQ,0.07298545,-0.01534576,0.02673211,0.01333442,-0.02301881,0.28710838,-0.11116941,-0.10139498,0.00245741,0.02762553,0.06637806,0.02463328,0.02578347,-0.02869518,-0.00702843,0.04649404,-0.13598793,-0.05798937,0.00015132,-0.08046698
IJJbQTVdAtE,0.04373182,-0.00267765,0.04709594,0.0336277,-0.01879326,0.32732961,-0.10968821,-0.09399981,0.00918117,-0.01461579,0.21362118,0.03493212,0.06631283,-0.04016403,0.05116622,0.10070045,-0.11152591,-0.05986105,-0.12709883,-0.08702007
x2r3FTy9HHE,0.02030426,0.0065644,0.03529258,0.02201635,-0.03011643,0.19474382,-0.08927893,-0.03080262,0.03604272,-0.01075404,0.09059626,0.0277973,0.06879117,-0.02597835,0.0454238,0.07833572,0.01793776,-0.0397003,-0.03410649,-0.09362525
SZ8r5VKtGes,0.11318086,0.00453296,0.0881326,0.05811726,-0.09235169,0.05427213,0.0509322,0.17044561,-0.05951451,-0.0144274,0.01287637,-0.04262041,-0.14453624,0.25725492,0.02179171,-0.14577058,-0.06394873,-0.16915043,-0.1005029,-0.00163595
Lnhy0tZ8SUI,0.02430529,-0.00075722,0.03793473,-0.00312388,-0.00264361,0.18037396,-0.07343286,-0.06389342,-0.01029657,0.00706894,-0.12106092,-0.03162812,-0.01105561,-0.03919297,-0.00317844,0.00080069,0.21983867,0.01539606,-0.05543728,0.08110093
dhbt8y_LXQY,0.03245594,0.00342149,0.03016977,0.02651784,-0.03205051,0.12255771,-0.05204588,-0.03572354,-0.004256,-0.01339822,0.01406091,0.00464507,0.00812033,-0.03271746,0.00396709,0.05617918,0.06771662,-0.01442502,-0.05069897,0.03315864
Y9HJ_U3TdXk,0.01036924,0.00721429,0.03625386,0.01051812,-0.02161829,0.14856775,-0.04614851,-0.03815087,-0.00342125,-0.00254741,-0.05470241,-0.02829863,-0.00585691,-0.00285771,-0.02243138,0.00450979,-0.00985251,0.03143742,0.05792335,-0.0173965
sj1y9FDJKCM,0.01754951,-0.00163237,0.03871237,0.00661158,-0.01392497,0.29984697,-0.12110318,-0.0985408,0.02185249,0.01660076,0.03442109,0.03636174,-0.00078664,0.00915551,0.05837263,0.04554823,-0.17266841,-0.00350353,0.0568353,-0.12589732
EFhMcL3Kf1c,0.01739683,0.00534971,0.02845344,0.01553112,-0.0276831,0.12208934,-0.05487345,-0.016647,-0.01778074,-0.01154812,-0.03187612,-0.03703316,0.05691704,-0.04647754,0.047192,0.0928175,0.22302341,-0.05319799,0.06352282,-0.050216
KztyymfW3Dg,0.13474296,0.00926271,0.13931435,0.32074345,0.16365567,-0.01248282,-0.00850162,0.03875423,-0.02988318,0.00740631,0.00172272,-0.01858334,-0.05199375,0.05300058,0.02708618,-0.00349161,-0.00963316,0.05081786,-0.01995013,0.01253324
2gFNJ6_ogzg,0.10018077,0.0368309,0.12772157,0.10055172,-0.18196977,-0.00668198,-0.01196143,0.07748909,0.30650145,0.03596637,-0.05696188,0.02971014,0.00665881,-0.10376514,0.02002067,-0.0974998,-0.02007633,0.0405381,-0.04903719,0.12060886
GybLbhXj2Nw,0.01595322,0.01073279,0.03613049,0.02958951,-0.02583143,0.25547951,-0.10300541,-0.02966287,0.02074586,-0.00505058,0.26622659,0.08868665,0.05675949,0.00427563,0.08843893,0.10110796,-0.20576488,-0.09958462,-0.10709206,-0.09242886
tUmd3tWCDKs,0.00637035,0.0023795,0.02586208,0.02556465,-0.01027939,0.24123678,-0.11169204,-0.07492149,0.02163575,0.02176749,-0.11775936,-0.01282508,-0.03863106,0.05380375,-0.03561879,-0.06766682,-0.06969749,0.09288037,-0.28115081,0.13031611
5tW7CPAVii0,0.01211244,0.00280516,0.03498267,0.03224637,-0.02255818,0.27861544,-0.1284165,-0.07215027,0.02476573,0.01379851,-0.1717687,-0.0080999,-0.02589511,0.05775787,-0.02202492,-0.08328897,-0.06364637,0.11411802,-0.26489591,0.09478075
uSjcVPbJayU,0.08141566,0.05852241,0.0957633,0.07407754,-0.10497778,0.02054301,0.05481692,0.17537351,0.03469557,-0.12374622,-0.09591026,0.28585569,0.11013433,0.02308405,0.02161328,0.17065086,-0.04421268,0.00710292,-0.03137894,-0.08876859
kXenRXelpKs,0.00814073,0.00558131,0.02207627,0.01237627,-0.01991629,0.11149883,-0.04332454,-0.01404663,-0.02292328,-0.0051967,-0.01873732,0.00153579,0.02572146,-0.01805265,0.02648358,0.00801057,0.11091593,-0.02155119,0.02997526,-0.05000783
hXPy19kPego,0.06504188,0.00146091,0.06622866,0.04521674,-0.07230929,0.01782166,0.04186486,0.07476744,-0.01970513,-0.03661235,0.00744464,-0.05089809,-0.04780183,0.09368547,0.02798264,0.08865485,-0.00272694,0.01491518,0.02522228,0.04253255
Rvy2kXZpBtM,0.11476327,0.00161471,0.06730679,0.05665991,-0.08295419,0.03878489,0.05388309,0.16445496,-0.07592722,0.03141086,-0.01473823,0.0251831,-0.1251381,0.029113,0.08758641,-0.04918048,0.0118419,0.07289145,-0.00437946,0.0065453
nnKkk3CpLes,0.02807202,0.02220007,0.06287887,0.02289267,-0.01032148,0.0315185,-0.01177534,0.04618549,-0.03155284,-0.00509504,-0.01080059,-0.02577744,0.04029647,-0.01071256,-0.04350434,0.03542221,0.01285751,-0.02718647,-0.06186342,-0.01698115
DSRfs1qKWR0,0.00156796,0.00127413,0.00474989,0.00403828,-0.00614436,0.0233818,-0.01254667,-0.00760041,-0.00030885,-0.00441,-0.00045634,-0.00027456,0.00144391,-0.01331689,-0.00967519,0.00155868,-0.00298004,-0.00123099,-0.01611607,0.01758036
6WqWhSmCbXk,0.09716813,0.04402299,0.16759764,0.03668659,-0.11177071,0.01576602,0.0130355,0.15713593,-0.12516174,0.15450058,-0.00720679,-0.10433183,-0.00950582,-0.11568946,-0.30134981,0.1208595,-0.01736375,0.03808578,0.00906771,-0.07583559
J7ieKmP96Hc,0.01294449,0.00594674,0.03385972,0.02043603,-0.02039442,0.2709109,-0.11801315,-0.06975028,0.02716525,-0.00028244,0.27489256,0.07013961,0.07769366,-0.01074825,0.07126956,0.07243023,-0.20573045,-0.07297955,-0.14369294,-0.08329038
YPboGQjMxNY,0.0187432,-0.00492714,0.00593443,0.00787359,-0.00861694,0.01737101,-0.00624408,0.00720556,-0.00106768,-0.01624709,-0.00284409,0.02094954,0.01546362,0.00462353,0.01367405,0.01929157,-0.00248648,-0.01336613,-0.05101437,-0.00754476
QIKiQjEMUjY,0.02553123,0.02545138,0.10688852,0.33889509,0.27369255,-0.01071382,-0.03539253,-0.01110234,-0.00499803,4.229e-05,-0.00643981,0.00225913,-0.01229761,0.00026416,0.01126804,-0.00737288,-0.00032303,-0.0210277,-0.00865179,0.02177396
9LsgBjswQZY,0.01450485,0.00103902,0.02213949,0.02603152,-0.01306166,0.0707087,-0.027804,0.00587117,-0.00502114,-0.01931001,0.0309339,-0.00124242,0.00553974,0.0151637,-0.00093964,-0.01955775,0.0520889,-0.02599341,-0.00600261,0.04588885
XfY_L8MLOsU,0.01487724,0.00924628,0.04472718,0.03152695,-0.03745248,0.18694027,-0.08381123,-0.01442444,-0.03516865,-0.00015715,-0.0676337,-0.01625103,0.08423766,-0.03191685,0.02871475,0.09207766,0.33044382,-0.03101959,0.12286852,-0.11703079
kTlm_3HwRFg,0.01196824,0.01160557,0.02782276,0.02620663,-0.02124517,0.10138877,-0.04382402,-0.00776208,-6.796e-05,-0.00396044,0.01324382,-0.00067161,0.00901491,-0.00587951,-0.01949511,-0.01617384,0.03186743,0.0103004,0.02557219,0.0197746
vTXoE7BLv9s,0.06242742,0.01647366,0.06310352,0.04583211,-0.07262934,0.03759414,0.02905505,0.08658651,-0.01834785,-0.03511466,0.02189323,-0.02010256,-0.05897883,0.15125699,-0.01500632,0.02149912,0.01061481,-0.05881482,-0.0024828,0.03907148
8hN5PF2oXGs,0.00923914,0.00546973,0.02803935,0.02234694,-0.02563671,0.07779451,-0.02976407,0.00337168,-0.01060165,-0.01197523,-0.02805677,-0.0264443,-0.03238312,-0.02549291,-0.05351606,0.00478871,-0.00205543,0.02694857,-0.0458054,0.00188301
LkRVMOzUypo,0.01225195,0.00847396,0.03845613,0.02191852,-0.0205998,0.23194155,-0.09476395,-0.04904303,0.01900946,0.00044508,0.08883394,0.03890627,0.05156294,0.02019323,0.07220754,0.06435631,-0.14029996,-0.09850324,0.03126683,-0.11271049
F1gM7N-WXdU,0.02537986,0.00513286,0.0454121,0.05958905,0.00259491,0.07273429,-0.03458189,0.00346228,0.00160092,-0.0082181,0.02304742,-0.02947585,0.00651018,-0.00626122,0.00019409,0.02557772,0.06506518,-0.04448105,-7.541e-05,0.01738721
VjqsnOrW3AM,0.01833968,0.0121936,0.02955467,0.02337862,-0.01791511,0.2005846,-0.08655938,-0.05148525,-0.00579489,-0.01419698,-0.01335891,-0.00543488,0.02550275,-0.00913835,0.06387341,-0.05267769,0.02920473,0.02011759,0.03822874,0.01582277
nbHMeopNtDg,0.00756571,0.00422012,0.029013,0.02082744,-0.02626992,0.26674963,-0.1208423,-0.08036469,0.01137055,-0.00592092,0.11216525,0.03832393,0.03291558,0.00553886,0.02552933,0.017924,-0.15951744,-0.0268477,-0.14925985,-0.02811106
t9_dqoKfqLo,0.11755521,-0.00226852,0.05562686,0.04183355,-0.08899663,-0.02377779,0.01595905,-0.0394974,0.00013066,-0.14395902,-0.03273708,-0.00930462,0.16247009,0.05885312,-0.01872307,0.03441908,-0.04711683,0.04578818,0.00900945,-0.03189945
Fy8H9I2kJkI,0.02455765,0.00412699,0.05387666,0.02290322,-0.03145452,0.2339348,-0.09743301,-0.05134494,-0.00431434,-0.0037164,-0.08440062,-0.03444067,-0.00010901,-0.01984345,0.02223501,-0.02768116,-0.01126546,0.00071182,0.04893136,0.01062288
crrTHKN_R58,0.07885508,-0.00760514,0.06642929,0.05654043,-0.0626593,0.01546611,0.01054533,0.10356162,0.00525722,-0.10152079,-0.03548617,0.08079569,0.19321107,0.04308855,-0.06049163,-0.10160733,-0.01301686,0.12300049,0.03693097,-0.05952974
PN8bHAr0f1M,0.00690554,0.00238528,0.02610775,0.02127335,-0.02029516,0.23591051,-0.1034548,-0.05679707,0.02341366,-0.0028828,0.0990813,0.02559383,0.05736079,0.01338654,0.0494431,0.00574889,-0.17273376,-0.02894943,-0.10595778,-0.06326673
wd_xh6gSSOs,0.0053974,0.00140388,0.03370629,-0.00937355,0.00253379,0.07790361,-0.04311267,-0.01977305,-0.00451525,-0.00126334,-0.02739108,-0.00321295,0.01346124,0.00551226,0.02595289,-0.00555539,0.02374101,-0.01679735,0.0267667,-0.0236819
jIj6PuMrDGA,0.15384733,0.32205827,0.04583498,0.04892889,-0.16318604,-0.13239361,-0.1190374,-0.27648575,-0.19049291,-0.09996419,0.0252222,0.07719913,-0.05889116,-0.06788617,-0.02774526,-0.02600847,0.04828216,-0.05048349,0.05058958,-0.02922686
_dASAu79K0s,0.00445371,0.00249607,0.0181974,0.0128061,-0.01562498,0.18154021,-0.07903282,-0.04851725,0.01013624,-0.01349086,0.12875672,0.03060446,0.05999049,-0.02057484,0.05974931,0.07823017,-0.06516167,-0.06144021,-0.0590081,-0.04717698
ND9eyW5Fw0s,0.01901113,0.00318159,0.03878567,0.0292143,-0.02800091,0.16364662,-0.06624737,-0.0200896,0.00365383,-0.01670467,0.07975079,0.03453406,0.02145367,0.0137238,0.02809175,0.02785807,-0.0551677,-0.03231238,-0.0094668,-0.02289796
na5Enw8P18A,0.01165918,0.01854346,0.02142199,0.01715588,-0.00681667,0.1184844,-0.03142874,-0.0265505,-0.00183829,-0.01024719,-0.07361977,-0.06818507,-0.07166503,0.05014314,-0.13972511,-0.01331381,-0.35589539,-0.39248983,-0.30973493,0.18856841
tQCVAU-fZPA,0.42817478,1.08392725,-0.17914932,-0.09498526,0.12078769,0.00063989,-0.01399964,-0.02690505,-0.15916357,0.55299656,-0.01941467,0.16715716,0.23881213,0.12818951,-0.00672401,0.07721434,-0.0326193,0.05478758,-0.01957504,0.07480105
lWj_3TE2UsE,0.00597309,0.00220333,0.03866823,-0.00421853,-0.00555882,0.18170926,-0.0750257,-0.07582651,0.00968174,0.02984852,-0.15817109,-0.02884159,-0.07298441,0.0155121,0.00922539,-0.04376671,-0.08469003,-0.00616966,0.15911779,0.00610526
n1G2FQ0UEqc,0.04964718,0.03887538,0.11161342,0.09825491,-0.14607975,-0.01026131,0.0035042,0.08395561,0.01601198,-0.20233699,-0.09333199,0.01633169,0.37589316,0.07844307,-0.01157602,-0.14136492,-0.02207375,0.15957605,-0.0296526,0.02145901
ABoKfabPQyY,0.0133607,0.01349957,0.05139169,0.01343144,-0.01247378,0.29392319,-0.10797274,-0.0900556,0.02934908,0.03958983,-0.24425046,0.00157516,-0.02920662,0.07879361,-0.04203219,-0.0382201,-0.1063528,-0.06167922,0.44064193,-0.11930533
r6AB_e8Rk1I,0.11358697,-0.01551375,0.06245337,0.05685346,-0.08385725,0.06434808,0.03926455,0.17287708,-0.03629597,-0.06286604,-0.03186317,0.28806544,-0.12508076,-0.02569098,0.08254042,0.11874635,-0.01701395,0.00093411,0.01145531,0.03610132
THMW7bXTog4,0.02624478,0.01262972,0.05779828,0.02454907,-0.03138013,0.03222708,-0.00467108,0.02830788,-0.01377297,-0.07080114,-0.02174608,0.01958566,0.06283896,0.05076617,-0.0044765,-0.03789142,0.03631574,-0.00664044,0.02066341,0.03844281
NlW_R21cBXs,0.04033514,0.0257935,0.07265325,0.0687963,-0.0646368,0.03222682,0.00725919,0.09411412,-0.03956803,0.00388807,0.00572837,-0.03783961,-0.06125953,0.21156873,-0.10000363,-0.23823311,-0.0622506,-0.26766915,-0.10686648,0.01721645
ZhRgnBzcYHQ,0.10434636,0.01021189,0.22204003,0.0074293,-0.05307632,0.03413243,0.01547436,0.18738946,-0.08618132,0.00348143,-0.00077263,-0.07073973,-0.00534782,-0.10869798,-0.23268064,0.04125243,0.05808911,-0.12077008,0.00575869,-0.05236152
_9bYQ2tvc_s,0.06658385,0.05260104,0.06836121,0.05748247,-0.10067858,0.00965546,-0.03655039,0.06139147,0.16641341,0.06832854,-0.00671418,-0.01757366,0.01081581,-0.04579891,0.02599966,-0.0462888,-0.04176905,0.05477086,-0.02623835,0.01381661
TfojYStTlZE,0.05905398,0.03022683,0.0902747,0.0807468,-0.1247491,-0.01778319,-0.03599925,0.01725293,0.12329441,0.00681903,-0.02409646,0.05114013,0.00434132,-0.07616417,-0.04225401,-0.01903609,0.01294324,-0.02302043,0.00133488,0.04911621
WEnvorobhEE,0.02064324,0.01474581,0.04082235,0.0304948,-0.04156019,0.09932181,-0.02928583,0.00435658,-0.01879416,-0.01333576,0.02300752,-0.000383,0.01247186,-0.0271738,0.00107989,0.00763787,0.00622574,-0.04412832,0.00800212,-0.02727913
AzNb2nQrM7U,0.03398706,0.00592513,0.04035033,0.03100174,-0.04201396,0.01110299,-0.0184174,0.01218727,0.03525981,0.01047563,0.00124896,0.04290387,0.0043488,-0.04567374,-0.00356939,-0.01228145,0.01609298,-0.02879447,-0.00620944,0.05820027
zj0BKLv9r8Y,0.12556374,0.11693096,0.09901664,-0.00708914,-0.02626805,0.05967733,0.01826112,0.15833623,-0.00701148,-0.00880301,-0.00944858,-0.01385053,-0.05661677,0.13056102,0.08375104,0.10825314,-0.03529785,0.03382806,0.00949316,0.09603277
XFpBgNMBNNI,0.01359586,0.0016511,0.0309366,0.02927012,-0.01931728,0.2218145,-0.09428493,-0.03590554,0.00721072,-0.01000947,0.17645583,0.03823802,0.06888215,-0.01352019,0.11316402,0.00550396,-0.11522091,-0.0709771,-0.09809627,-0.05059855
U14_qm5y38o,0.06697505,-0.00128706,0.09489904,0.01825405,-0.04833197,0.01121592,0.02051792,0.05639677,-0.02830826,-0.00695236,-0.01836505,0.04127951,-0.03325518,0.01780092,-0.0672823,-0.0538657,0.05682474,-0.09726891,0.00294125,-0.00183209
h9kh7KssnMc,0.08743805,0.0196657,0.10541646,0.04611924,-0.07991705,0.02114351,-0.00560673,0.08610709,-0.02794954,-0.02840575,0.0201418,0.03888948,-0.0541664,0.03981346,0.03490226,-0.0550003,0.02565858,-0.05163964,0.03183923,0.01619462
cnCEUFzWspI,0.01495325,0.00634297,0.02809878,0.02551072,-0.01813545,0.22822472,-0.09055081,-0.05204163,0.01488518,-0.01096138,0.08179654,0.03094988,0.06809427,0.00591317,0.04010766,0.07999682,-0.18827788,-0.15868463,0.07064284,-0.13471941
0VjrLsr61pk,0.10165525,-0.01114406,0.09100621,0.0421147,-0.09287441,0.02860288,0.0304566,0.12796634,-0.02164556,-0.04986134,0.00148189,-0.06295347,-0.09309083,0.15876476,0.07871968,0.16984174,0.02545645,0.00033546,0.04906587,0.09896544
fr78adfAnuA,0.01881342,0.01109141,0.07460425,0.02636957,-0.04201132,0.3529611,-0.13802842,-0.06763676,-0.03691312,-0.03988468,-0.08338613,-0.09107178,0.00648408,-0.11631964,-0.05040938,0.22896295,0.60133884,0.00110786,-0.25462366,0.06749369
XXZ2wOom1l0,0.09752232,0.0002496,0.19241322,-0.06903788,0.00586512,0.01177692,-0.01426151,0.14287478,-0.08129722,0.00120238,-0.02098366,-0.18272301,0.15170584,-0.1107374,0.18545013,0.0327191,0.06055638,-0.19159972,0.07738077,0.06409366
KXpgCNB6Dcs,0.0966212,0.00776772,0.09013852,-0.01103105,-0.02763459,0.00906372,0.00259433,0.10605478,-0.05257567,0.03922504,-0.0096942,-0.01476878,-0.08159965,0.03870334,0.08559277,-0.04812701,-0.00905251,0.08386939,-0.0268972,-0.03359925
OuOIrxBXB0M,0.00832247,-0.00048593,0.01131032,0.00849247,-0.01243982,0.0878524,-0.03885497,-0.0201211,-0.00874808,-0.00535393,-0.01550953,-0.00331132,0.02558252,-0.02688344,0.00469773,0.05762461,0.14336159,-0.00404057,0.02530397,-0.03150306
6XxQMeqG1P4,0.10279641,0.00031651,0.13503046,0.05990203,-0.12192033,0.04265594,0.0479875,0.21949878,-0.06706092,-0.0021024,0.00723592,-0.19692203,0.06113707,0.0187955,0.16722949,0.09715166,-9.36e-05,0.02291435,0.01888914,0.08168691
Cd5EHfRerGI,0.04301275,0.05237645,0.15390546,-0.06237785,0.04330418,0.27052928,-0.01921671,-0.12011526,0.01833799,0.04461091,0.03673876,0.03265517,0.0003456,-0.03473765,0.14174009,0.04105718,-0.05934874,0.01838347,-0.00878531,-0.10854313
M_FKC2NTb24,0.08144774,0.01691984,0.03968188,0.03290156,-0.04791677,0.02494412,0.02187277,0.08772175,-0.04013597,0.00157035,-0.00461935,-0.02329049,-0.06184686,0.02101567,0.03041183,-0.00085188,-0.00624783,0.03340216,-0.00904799,0.01680767
VKaslzzv1QM,0.06659883,0.00479767,0.08282605,0.05900256,-0.06714082,0.04760194,0.02939938,0.16158327,-0.06969649,-0.01307227,0.02091668,-0.02227302,-0.04701571,0.08886274,0.07997917,-0.07652338,0.0210946,0.01404962,0.01098744,0.01403444
XjAeQOmdNFU,0.01174167,0.01265625,0.0308864,0.0102684,-0.01609502,0.117721,-0.05688671,-0.02024057,0.00404843,-0.02127745,-0.0634918,-0.026052,0.0367752,0.00133324,0.02979237,0.00169215,0.06324397,0.00173179,0.03223799,-0.04408585
gPmmDEGCQLg,0.03867107,0.02953874,0.0939897,0.07408572,-0.11689135,-0.01331375,-0.01459334,0.04748591,0.0213355,-0.17634888,-0.07964286,0.02329474,0.30935054,0.02776407,-0.04567222,-0.08719248,-0.04840405,0.16526043,0.00227017,-0.08381379
Ju0usucry_g,0.07572462,0.02556045,0.10569315,0.06781748,-0.1149139,-0.04582721,-0.04727452,0.01151377,0.21949082,0.02210669,-0.00779565,0.04441577,0.04206528,-0.08174135,-0.035915,-0.10395682,-0.02145129,0.02136368,-0.03939694,0.17859477
rfnB9MhBI44,0.07807168,-0.00224206,0.10072831,-0.00220008,-0.02643045,0.01485267,0.00208996,0.08938226,-0.03024204,-0.02645351,0.00527107,0.03528389,-0.0444324,0.06048869,0.04763261,0.01149661,0.00515806,-0.00575098,-0.00649313,0.07737459
OEqMxMEBQQY,0.03925818,0.01713592,0.09240577,0.04974897,-0.07547817,0.01407791,-0.00257338,0.09326106,0.01351604,-0.15088438,-0.0814096,0.0273127,0.30462344,0.08267099,-0.09101487,-0.17263047,0.05350177,0.06938817,0.00924269,-0.09013789
yzajLZXh9JU,0.07004019,-0.01811509,0.01056644,0.01540376,-0.02030162,0.19599278,-0.07173628,-0.06313736,-0.00494992,0.01468453,0.06375332,0.02667303,0.06003019,-0.01691724,0.05174613,0.042406,-0.08622183,0.03032302,-0.07628737,-0.11440641
nHH771Vtkxw,0.06816016,0.01678319,0.11703141,0.04691637,-0.08145944,0.00180764,0.00748234,0.1273789,-0.0274944,-0.19733194,-0.10156082,0.25832429,0.2142207,0.03017618,-0.07941954,-0.08856797,0.01238476,-0.02987799,0.0010924,-0.19962575
SvLaz6y-mhs,0.18734357,-0.00755957,1.07301005,-0.74209618,0.45366013,-0.11414334,-0.15777369,-0.03268423,0.00525332,-0.01110234,0.01882237,0.0281881,0.02083197,-0.01262118,0.02270635,-0.02260431,-0.00259108,-0.00066275,-0.01664709,0.00597416
GMXWOLJHnJc,0.01100187,0.01217981,0.02754707,0.01426168,-0.01804728,0.08126598,-0.04082072,-0.01183154,-0.0041131,-0.01765134,0.02503842,-0.00769964,0.01342632,-0.00993631,-0.01869243,0.02805805,0.05728084,-0.0029976,-0.03780496,0.0389744
-txFIHA4ez8,0.06093476,0.00406708,0.05721933,0.03256454,-0.05715487,0.02424387,0.01553322,0.08902282,-0.05560156,-0.01303706,0.0023792,0.01451343,-0.06429438,0.04592135,0.01326729,-0.03499273,-0.01467624,0.00381684,-0.0153925,0.04188869
UgfrzicHc80,0.02966718,0.01300908,0.11038596,0.27726001,0.16922304,-0.00100102,-0.03200716,0.01726754,-0.05170866,-0.01461955,-0.00337676,0.01969221,-0.00632102,-0.0159847,-0.03861162,-0.00057677,0.01509011,-0.0912142,-0.01163961,-0.03172342
eGmGoahyI-U,0.04080685,0.0074542,0.07438625,0.05045132,-0.03785038,0.00483572,0.0033123,0.02227647,-0.07012852,-0.06394355,-0.02165818,0.01113712,-0.00429815,0.01228656,0.01575598,0.01524616,0.01343103,-0.07465981,-0.00248299,0.01606334
DB1fSfulSJQ,0.02498917,0.00063948,0.04264418,0.03744797,-0.02347821,0.25822211,-0.11952412,-0.0711788,0.01401431,0.02211485,-0.15119977,0.00190772,-0.06784622,0.07501035,0.02905564,-0.13357132,-0.1047308,0.17414761,-0.31319437,0.08714886
wnoSOSgBNHk,0.07238745,0.01331804,0.05850252,0.04084854,-0.08439977,0.0212416,0.02715316,0.10703913,-0.07767059,0.00632776,-0.0242507,-0.09602233,-0.06544647,-0.02737099,0.11461923,-0.03046848,-0.0426984,0.12848587,-0.03207453,-0.08157535
VVfMO6SJZLw,0.10775297,0.01013935,0.10288217,0.02262692,-0.0621292,0.04706895,0.11041636,0.07342727,-0.03852068,0.01418405,0.02398352,-0.00346398,-0.04424934,0.03404804,0.01082595,-0.05302462,0.02929304,0.042883,0.01431164,-0.04266993
4uRgDr5maYo,0.07156591,0.12279105,0.04116283,0.01815925,-0.0277107,0.05297068,0.03034191,0.17192936,-0.0144746,0.02558807,-0.03899331,-0.15677454,0.17980673,-0.12208642,0.12704061,0.03282149,0.01781606,-0.17519186,0.07524543,0.10689738
AU6gGMDF7ts,0.04864512,0.01392396,0.07059174,0.05846283,-0.07938582,0.03792682,0.03109462,0.1665622,-0.06108967,-0.14514893,-0.1385929,0.59731532,-0.06884817,-0.16759612,0.02154058,0.15071223,0.0142443,-0.12537931,0.00481227,-0.19145507
yXl7MRLoxrM,0.01241431,0.0041235,0.02369625,0.02015571,-0.02730592,0.06909469,-0.03081149,-0.01829438,0.00067377,-0.01468398,-0.03560197,0.01130421,-0.01741668,-0.02764226,-0.00432435,-0.00982879,-0.02630522,0.02098119,-0.04393178,0.01236423
KppJdbUvqp8,0.29341298,0.54536939,0.03017284,0.06129849,-0.15990685,-0.15447768,-0.12406386,-0.26223237,-0.35344821,0.68720536,-0.00487671,0.21508922,0.1929303,0.14204108,0.0255357,0.04584851,-0.00094603,0.07540851,-0.0226212,-0.01409854
q1l42BPzbIk,0.02358117,0.00531915,0.04206483,0.03454201,-0.03624011,0.00312569,-0.01829752,0.02432547,0.05904167,-0.00403884,-0.00364645,0.03160819,-0.01282175,-0.02290367,0.00847245,-0.01280995,-0.01360075,-0.00839608,-0.01017938,0.03696133
aqIgIWIc3uw,0.06483446,0.01571279,0.07132174,0.05321605,-0.09472543,0.04313211,0.05121558,0.19158848,-0.0227794,-0.10782728,-0.11403289,0.50607242,-0.12325718,-0.16535354,0.09493884,0.24142703,-0.00111997,-0.05645972,-0.0633674,-0.0750099
siKdeoxrxIA,0.08295449,0.03012913,0.04282827,0.04755285,-0.05108748,0.02652364,0.01565753,0.11551102,0.00305611,0.00058115,-0.04192624,0.1435016,-0.05357963,-0.01163015,0.00291567,0.04445342,-0.0095642,0.02377845,-0.00421887,-0.01136627
nWfp_X31vqk,0.07802516,0.00532696,0.09780052,0.03787198,-0.07446624,0.02637933,0.00167125,0.04225384,0.06674866,-0.01839575,0.01669019,0.05707892,-0.00309762,0.01837975,-0.03436881,-0.04554645,0.07704647,-0.07465595,-0.02711387,-0.01929866
IldLswg2yAM,0.07147421,0.01983722,0.07116182,0.05020669,-0.07161476,0.0557454,-0.00276051,0.13064893,-0.03178629,0.0154362,0.01465409,-0.01950374,-0.03590986,-0.05301402,-0.10000497,0.06833083,-0.03157146,0.07525276,-0.03074602,0.00568773
shgZ8WYcC6k,0.01231502,0.00486158,0.03804276,0.0021943,-0.01377119,0.19878824,-0.08182567,-0.07133778,0.00417669,0.01816161,-0.16369191,-0.035997,-0.06547914,-0.0056805,-0.00301997,-0.01867697,-0.02323356,0.00112276,0.1388053,-0.00512286
ZOPXzlpBVoM,0.09330408,-0.03402183,0.01516257,0.02390539,0.02551468,-6.505e-05,0.00081043,0.00555812,-0.01631058,-0.0255042,0.01406562,-0.02221002,-0.00683662,0.05819734,0.01403935,0.02289537,-0.01869731,0.02768083,-0.00034975,0.0493397
Hs6RxFMX1i4,0.01457964,0.00819258,0.02999193,0.02745698,-0.0252427,0.08021423,-0.03232092,-0.02744938,0.01118061,-0.02591194,0.04122698,0.04350833,0.07170062,0.01783908,0.02395637,-0.04979846,-0.02808267,-0.0185633,-0.02849796,0.03718209
DerWppSGkmE,0.16956393,0.02455588,0.12670795,0.06317016,-0.13059269,-0.01979224,0.02853482,0.07054391,-0.07767614,-0.03380679,-0.02756957,-0.04526545,0.09057685,0.06108632,0.00756519,0.03858402,-0.04657644,0.01506666,-0.030009,-0.03991478
QLnHGjCD-Vw,0.15378796,0.19054379,0.09413891,0.08318954,-0.21488397,-0.14842224,-0.10282137,-0.23169818,-0.09250367,-0.10161595,0.05883356,-0.033954,-0.1212758,0.09292521,0.04943721,0.0770594,0.03592748,-0.06402285,0.05636232,0.04878251
8Uk97zU2GCg,0.04902382,0.01432171,0.0353092,0.03043135,-0.03799186,0.03339177,0.01316535,0.09224725,-0.03405747,-0.00772962,0.00589654,0.02398659,-0.07040412,0.1592477,-0.01793894,-0.17528308,-0.04414965,-0.18405366,-0.07390563,0.01659832
f2fDaAMvlV4,0.058308,0.03445353,0.21084564,0.62836515,0.50499583,-0.05311983,-0.05203942,-0.02815418,-0.03198722,0.00904551,0.00391393,-0.03149766,-0.00989979,-0.01835915,-0.0004656,0.00520409,0.0075427,-0.00893254,-0.00475125,-0.02462338
TekYNY3eGC0,0.04260743,0.00319461,0.06100784,0.010161,-0.01434725,0.01908947,0.0084466,0.02131169,-0.01709551,-0.01025856,-0.00096074,-9.622e-05,-0.00847393,0.01920523,-0.03417937,-0.02535955,0.01291574,-0.03966833,-0.00974822,-0.00454096
myMj_ZfZ_xI,0.00917019,0.00787897,0.03317333,0.01895632,-0.02592372,0.28285706,-0.12865089,-0.07985092,3.265e-05,-0.0170325,0.07342427,0.01821837,0.08699645,-0.05439063,0.05927691,0.15196213,0.05981454,-0.1015204,0.05268287,-0.16043982
_twN29IEQlc,0.08000912,0.016578,0.04409023,0.03908688,-0.05516924,0.04378868,0.02183081,0.1332562,-0.06672827,0.04258036,0.01289483,-0.00182538,-0.10301566,0.05755376,0.09894991,-0.05334449,-0.02140774,0.09506982,-0.0181074,-0.04633037
DBWMP58IOcw,0.15372399,0.16292694,0.08563803,0.0919528,-0.19492511,-0.10930139,-0.07437676,-0.19815807,-0.14172735,0.10911933,0.01668828,0.11388963,0.06100839,0.0527383,-0.0745122,-0.02922811,0.05056117,-0.05223005,-0.03659566,0.02304382
lWQY5zccbQs,0.00824504,0.00367303,0.02536181,0.01939877,-0.02656713,0.19430943,-0.08720731,-0.05461641,0.03269574,0.0111724,0.15520277,0.0344461,0.05825995,-0.00040771,0.05244276,0.09912429,-0.13057792,-0.07808977,-0.03739086,-0.11749545
0dwlHNDdn2s,0.00688659,0.00265663,0.01731536,0.01543504,-0.01106771,0.01355655,0.00906774,0.01393599,-0.00990996,0.00372419,-0.01165006,-0.00101867,-0.01968543,0.00328239,0.0206282,-0.01636775,-0.0041642,0.02166023,-0.0152247,-0.00116588
95KqKaDsIAM,0.08615048,0.01065575,0.09392217,0.08320048,-0.08191216,0.03684492,0.02028701,0.12569479,-0.00923155,-0.00398576,0.02687682,-0.01787597,0.037994,0.00321061,0.0027342,-0.1033212,0.02361292,0.02320601,0.02778526,0.0590108
TLdMXZSABH8,0.11047302,0.00389374,0.13567828,0.04667899,-0.12968917,-0.02045953,0.00714224,0.11015743,0.02729717,-0.09458547,-0.04346212,-0.02969059,0.18072761,-0.03765681,0.06336655,-0.10832407,-0.03246714,-0.01297152,-0.01875673,-0.13456429
IwjPma4PPTM,0.10647191,0.02199349,0.10507552,0.06930078,-0.12296918,0.05958844,0.07865734,0.26702883,-0.15615437,0.11958572,-0.00936124,-0.20913854,-0.10550083,-0.19396353,-0.13043514,0.07556531,-0.07105309,0.10823164,-0.00864304,-0.10592585
dVb9vyCwM2s,0.03822139,0.00672189,0.12218323,-0.03833343,0.00653896,0.06204406,0.05929129,-0.02650398,-0.00528324,0.03255032,-0.02175288,0.00767964,-0.04916557,-0.02528599,0.05330174,-0.03415507,0.01149685,0.05880782,0.03297493,0.03401361
bFO0uAMPx1g,0.01417437,0.00537725,0.02830394,0.02357383,-0.02618223,0.11648593,-0.05117668,-0.00066582,0.00203172,-0.00838787,0.01551741,-0.01036758,0.01605801,0.0258066,-0.0234262,-0.04933826,-0.05443531,-0.04326228,-0.0545439,0.01423261
AHyZdLVYJfc,0.06923444,-0.02177053,-0.0014484,0.00089742,-0.00370143,0.08086537,-0.02648841,-0.03397584,-0.00566202,0.02327218,-0.00385545,0.0139499,0.01814363,-0.01114597,0.00861687,-0.0094034,-0.0296098,0.0303818,-0.04176625,-0.02562807
g_7mUw6Xt2E,0.04862947,0.02211343,0.04876983,0.04661399,-0.04460051,0.02266896,0.01396438,0.06406473,-0.01399504,-0.01377317,-0.00388185,0.055839,0.01915826,0.03455609,0.03738747,-0.04035865,0.03239273,0.08219047,-0.0269963,0.08106605
-APimd6TUro,0.08380845,0.04946451,0.27098305,0.68672697,0.42143087,-0.09116669,-0.06110511,-0.0444136,0.20612134,0.00340744,-0.01731701,0.04228287,0.03345583,-0.0817806,0.01856312,-0.0783033,-0.00541069,0.04783136,-0.02707778,0.11015096
TOKUlItJpY4,0.1519188,0.21068717,0.16481989,0.15720508,-0.30981178,-0.19581342,-0.13561539,-0.2224176,0.18252671,-0.05799114,0.00874377,0.03835987,0.00447206,-0.13151547,0.06442329,-0.18132295,-0.01582864,0.05627018,-0.04094212,0.15840216
pdNaIhcp3z4,0.08554816,0.0396205,0.08835216,0.04160265,-0.03546679,0.02669176,0.00240713,0.08868807,0.02753211,0.04541376,0.02906289,0.00546547,-0.02344826,-0.02367143,-0.07031494,-0.06305417,0.03686721,-0.08849829,0.02570939,0.02579795
MlSS4ZqvJuA,0.11231002,0.16703769,0.12424225,0.09836425,-0.21298826,-0.07218962,-0.0332704,-0.16815041,-0.01960169,-0.05256731,0.11796948,-0.0118037,-0.06213641,0.15636536,0.07554094,-0.00842275,0.13046881,-0.09464856,-0.02531032,0.03285309
x3P8Zqux4A4,0.00956963,0.00334256,0.05592604,0.00727472,-0.0087372,0.30480088,-0.1220988,-0.11702391,0.01760677,0.03965731,-0.28576307,-0.05546554,-0.12443003,0.05183222,-0.03219132,-0.07206896,-0.08232516,0.05050748,0.12995408,0.06702399
rk2b7fH_Gcc,0.08643661,-0.0043473,0.09593231,0.02314979,-0.05269317,0.03599722,0.02262703,0.12955535,-0.04690778,-0.0162444,0.02457287,0.00022593,-0.1086227,0.21841775,-0.07199607,-0.27948234,-0.00675044,-0.26434077,-0.09944365,-0.06086671
Xbang1Y_jbA,0.08699432,0.0231795,0.25672585,0.63646347,0.51114974,-0.0485613,-0.03927902,-0.0095322,-0.00494396,-0.02151695,-0.00836506,0.04805334,-0.02407753,-0.00997952,0.00440972,-0.02293199,0.00923246,-0.01277795,0.01251038,-0.02467083
_SdzVNht_nU,0.08342814,0.07116461,0.18210387,0.02738073,-0.10742131,-0.00365697,-0.06002835,0.11666772,0.20175702,0.00597026,0.0135211,0.0685968,-1.791e-05,-0.03737451,0.01094646,0.08929571,-0.05625215,0.01506874,0.02818888,0.18583486
H3lUaL6-XQQ,0.02117055,0.00293794,0.11388668,-0.04808127,0.01493683,0.062252,0.05833132,-0.03387977,-0.00752946,0.03339532,-0.02438613,-0.0046667,-0.05195176,-0.01759418,0.03243906,-0.02123424,0.01416056,0.01766791,0.04422982,0.05408484
NM-bwZZoX80,0.09668533,0.02503465,0.13886414,0.10965048,-0.21423381,-0.04741251,-0.0561809,0.08066078,0.37338669,0.00648637,-0.04898319,-0.03801828,0.05188671,-0.12072379,0.06068953,-0.12086715,-0.03901459,0.07465624,-0.05864399,0.13395736
0EqJD2o-Mnk,0.00927171,0.00455832,0.02964482,0.0250656,-0.02578869,0.15277047,-0.06725035,-0.02444764,-0.03425266,-0.04495211,-0.00694627,-0.06307462,0.00639576,-0.07359111,-0.06586175,0.1351209,0.32375408,-0.00867102,-0.26174878,0.05703909
4IeYytwcpuQ,0.00929213,0.00457828,0.03033245,0.02687487,-0.02157179,0.16684415,-0.05500525,-0.01919184,-0.00413035,-0.01687434,0.11025233,-0.01491351,-0.0131783,0.02815623,-0.06178035,0.02388463,-0.30265357,-0.32677619,-0.23467922,0.06086163
zyJ1yZwX_tE,0.0206002,0.00351914,0.05021309,0.00722947,-0.00761191,0.12731664,-0.0433016,-0.02821331,-0.00152626,-0.00983077,-0.07453679,-0.02431133,0.01633237,0.0182176,0.0229074,-0.01478995,0.11365604,-0.01076389,0.06175208,-0.00451268
ys1zQyiLrMc,0.07400978,0.03400349,0.21991816,0.60893719,0.41398203,-0.062011,-0.05089276,-0.0316515,0.1156256,0.03441911,-0.01057632,-0.01278084,-0.01719991,-0.02975132,-0.00056767,-0.02060976,-0.02005685,0.01459764,0.00932703,0.02620517
fpkC4nn2D60,0.09628953,0.01244352,0.0736524,0.05372027,-0.09601127,0.04827797,0.0569824,0.20395061,-0.06425369,-0.02500743,-0.09300742,0.38389716,-0.10294352,-0.10824297,0.07585601,0.18531774,-0.01919105,0.0104054,-0.02376385,-0.06271301
-IhdnUzV64Y,0.12455805,0.03324934,0.13026804,0.04473136,-0.10227245,-0.01679612,-0.02270533,0.1168349,0.06124254,0.05287189,-0.01251212,0.00334022,-0.06872286,0.01245287,0.00968859,-0.08981631,-0.00140159,0.01748198,-0.01370704,-0.07010275
MnlZeYcfowk,0.19579226,0.13923528,0.10342882,0.09518584,-0.23460778,-0.1552768,-0.09296213,-0.23760149,-0.15566052,-0.20824805,0.03645957,-0.13904308,-0.01855338,0.07068187,0.02826068,0.22343809,-0.10522362,0.05542493,0.03451703,0.06799999
GmTuhpMe1oM,0.05078822,0.01938693,0.03011982,0.01996379,-0.02698576,0.0182223,0.01792309,0.0785771,-0.03170906,0.03604996,-0.01372807,-0.00070992,-0.03647289,0.0136192,0.06307303,-0.05904122,-0.02329312,0.06533537,-0.01348133,-0.03404407
yIUDe9YH0ac,0.01627799,0.00281067,0.0315886,0.01990352,-0.0266514,0.06781016,-0.02660889,0.00764184,-0.00254082,-0.00404761,-0.0378129,0.00796195,-0.02371589,0.00759978,-0.02112641,-0.04528242,0.00148822,-0.04484849,0.00199438,0.02128153
51dULrDA8E8,0.12482235,0.06128333,0.06227228,0.04536995,-0.07803368,0.01007329,0.02316229,0.01573764,-0.06168201,0.00987225,-0.00393008,0.06420603,0.03743485,0.04031032,-0.01963191,-0.05118494,0.03618138,-0.02147298,-0.00996503,0.10157534
jcfifYFAdpM,0.06889396,0.01436864,0.11265646,-0.00447268,-0.03719375,0.00585173,0.01133742,0.14364275,-0.00342972,-0.0239645,-0.05740458,0.28802193,-0.08214007,-0.05206263,0.08407273,0.1169886,0.01267602,-0.03672062,-0.05124338,-0.06069972
LQd65ctML6o,0.2776837,0.20077675,0.16502469,0.07047942,-0.19596756,-0.05210272,0.02413641,0.01506315,-0.16236561,-0.05914527,0.02082266,-0.14727788,-0.11499485,-0.15168011,-0.18051149,0.15592409,-0.11717137,0.14569899,-0.04074961,-0.07899608
1lx0bttCAbs,0.17626234,0.09480946,0.1046751,0.0553042,-0.13374728,-0.05736798,-0.00225026,-0.13106611,-0.09026064,-0.02618881,0.02486399,0.04460115,-0.08943166,0.02286965,-0.00039261,-0.01630252,0.05307004,-0.09589389,0.0238089,-0.02764592
sncgYGQt1T8,0.60203256,-0.19289907,0.01529139,0.02227997,-0.05316358,-0.01373835,0.02830557,0.03855843,0.03711859,-0.08565033,0.02849141,-0.04967169,0.0057793,0.21383562,-0.14339912,0.23119651,-0.00793112,-0.11577283,0.15332279,0.06783097
67JREKwyixk,1.2796599,-0.50161468,-0.25216134,-0.06940812,0.10753774,-0.00322446,-0.01118248,-0.05710173,0.00983319,0.0064514,-0.00540879,0.00603759,0.02077024,-0.04174288,0.00915413,-0.02751017,0.00116732,0.01676434,-0.02667829,-0.01526067
UszcZZ1QZho,0.08729024,0.11495791,0.05189547,0.04047834,-0.04153059,0.02495468,0.05359805,0.02776643,-0.03783814,0.06054956,-0.01381756,0.06385363,0.06035663,0.02827344,-0.12921533,0.04558845,0.03267204,-0.0367427,0.01084516,0.06539745
HVPhcOmSMtM,0.15871746,0.03594603,0.11512765,0.10979519,-0.1457903,0.01283094,-0.00198064,0.16585122,0.12263954,0.10616964,0.00541779,-0.02225221,-0.12099474,-0.1179746,-0.15395237,0.08967566,-0.07114095,-0.03230233,0.04685342,0.07815912
B2ag364pRgQ,0.00799672,0.00688396,0.02050132,0.01857029,-0.01383034,0.09080285,-0.03285917,-0.00744565,-0.00855848,-0.00617676,-0.01005317,-0.00916879,0.02334161,0.00293954,0.00216292,-0.00208483,-0.00234879,0.01165867,0.03820927,-0.02450443
mT-7tbs7rVw,0.15671074,0.18995235,0.13632378,0.11673393,-0.23454666,-0.11366622,-0.09057985,-0.13800985,-0.07426995,-0.11683952,-0.0241511,0.03568151,0.03171061,-0.04313474,-0.01589461,-0.07548116,0.04736929,0.01463513,0.01099564,-0.03441561
nJ0oh5u6YbM,0.02745645,0.0065085,0.03882857,0.0259845,0.00010686,0.15826762,-0.06392697,-0.04707665,0.02127072,0.02109576,-0.0838593,-0.00790422,-0.03046085,0.03465197,-0.03083867,-0.03176781,-0.01562287,0.03559846,0.08320641,0.00286971
0SSctcuOy0o,0.0515003,0.00351689,0.04487433,0.03691374,-0.04536391,0.0226468,0.01785943,0.0601002,-0.04496355,0.03501157,-0.00866665,-0.0049402,-0.04171548,0.02077889,0.06394118,-0.02008738,-0.00522125,0.0177429,-0.01734622,-0.0123707
5BbGrGFI2gQ,0.01587247,0.01037399,0.03608611,0.02988949,-0.03213378,0.02497063,0.02217696,0.07239922,-0.00474212,-0.05185413,-0.03978365,0.25356105,-0.03828223,-0.05821139,0.03457778,0.07691923,0.00400071,-0.04808547,-0.03560967,-0.00410979
y3HkZSayX2s,0.04590156,0.01434424,0.06481653,0.04994425,-0.08175259,0.01487638,-0.00446244,0.04527474,-0.03144467,-0.07417081,-0.00935234,-0.02254118,0.04682182,0.07302982,0.0425648,-0.0170733,-0.02464635,0.04382176,0.01978102,-0.02530869
NuoEsHIW5JA,0.0108867,0.0116029,0.02295477,0.01295672,-0.01761269,0.0967655,-0.03582623,-0.00225126,-0.00241592,-0.00359531,-0.05227679,-0.01457208,-0.00885475,0.01626483,-0.0207431,-0.02217029,-0.00194031,-0.03212556,0.07192437,-0.03178947
-0FsgHxwxgQ,0.09288312,0.02922118,0.06969271,0.05643187,-0.10296434,0.01064506,0.010659,0.09899335,-0.10710529,0.01412782,-0.01111041,-0.02107951,-0.06543861,0.05722931,0.1023462,-0.11339045,-0.05661002,0.03398646,-0.04426211,-0.05580642
Ff0AYRWrnGY,0.01986326,0.00377178,0.04432329,0.02617578,-0.02064318,0.13572608,-0.05532654,-0.01003369,-0.00281317,-0.00280245,0.11567006,0.0365893,0.012331,-0.00678305,0.04557674,-0.00163179,-0.08806612,-0.05506149,-0.01876695,-0.02542346
4ZK7Ms4IZ7g,0.02128686,0.00622197,0.05095111,0.01844756,-0.02525668,0.26374683,-0.10490178,-0.08177374,-0.04381696,-0.03206834,-0.11410951,-0.06528198,0.00227633,-0.10521016,-0.03104357,0.17458745,0.53969029,-0.00069292,-0.22029999,0.04373748
1t2Yd_bmg_k,0.42817478,1.08392725,-0.17914932,-0.09498526,0.12078769,0.00063989,-0.01399964,-0.02690505,-0.15916357,0.55299656,-0.01941467,0.16715716,0.23881213,0.12818951,-0.00672401,0.07721434,-0.0326193,0.05478758,-0.01957504,0.07480105
uHXjo7DUAAM,0.01332479,0.00011066,0.02219291,0.01041569,-0.00971153,0.02157097,-0.0062372,0.01519121,-0.00307967,-0.00488401,-0.00366523,0.02223057,-0.00746771,-0.00173508,-0.01083363,-0.02042213,0.00270996,-0.02412357,-0.00200065,-0.00270896
yemarhfhVA0,0.01798033,0.00493643,0.03306257,0.02659114,-0.02674923,0.15000505,-0.05304265,-0.01010188,-0.01879692,-0.00819511,0.04364657,-0.02024359,0.01727166,-0.03579364,0.01393654,0.02846237,0.01778754,-0.05324522,-0.01693148,0.00453617
2JhSWzxzLXA,0.04178433,0.02356349,0.06105013,0.04483507,-0.04800058,0.01741733,0.01565957,0.08636489,-0.05020761,0.01499978,-0.02586844,-0.0021293,-0.03832475,0.05174775,0.0442731,-0.00181414,-0.03772971,0.00596012,0.02069282,-0.00560434
UWRxdKxuOb8,0.43120085,1.20577601,-0.25187722,-0.16032516,0.24587669,0.09345018,0.06886135,0.13374727,0.15499522,-0.2743871,-0.00325927,-0.10750974,-0.11156569,-0.05671105,0.00229064,-0.02806923,0.01421797,-0.0071321,0.00272847,-0.06385805
7PY7jbupwSg,0.0408832,0.022813,0.09815306,0.07076819,-0.12407978,0.00609005,-0.01005202,0.11152549,0.15678633,0.04037045,-0.03231512,-0.00658035,0.13667571,0.00406206,-0.14792255,-0.08875368,0.0104578,0.01871755,-0.00853949,-0.08190744
YD2iT-SCJb0,0.18734357,-0.00755957,1.07301005,-0.74209618,0.45366013,-0.11414334,-0.15777369,-0.03268423,0.00525332,-0.01110234,0.01882237,0.0281881,0.02083197,-0.01262118,0.02270635,-0.02260431,-0.00259108,-0.00066275,-0.01664709,0.00597416
Um1DSnUqmko,1.2796599,-0.50161468,-0.25216134,-0.06940812,0.10753774,-0.00322446,-0.01118248,-0.05710173,0.00983319,0.0064514,-0.00540879,0.00603759,0.02077024,-0.04174288,0.00915413,-0.02751017,0.00116732,0.01676434,-0.02667829,-0.01526067
5fKeNMp7F6s,0.01088026,0.00510417,0.04383829,0.0360199,-0.03353338,0.35388596,-0.15563711,-0.08550296,-0.01473384,-0.04756662,0.04416603,-0.03082599,0.02436062,-0.0662851,-0.01435158,0.17745106,0.23176987,-0.03487914,-0.31792004,0.00412688
A83vXatD6sY,1.2796599,-0.50161468,-0.25216134,-0.06940812,0.10753774,-0.00322446,-0.01118248,-0.05710173,0.00983319,0.0064514,-0.00540879,0.00603759,0.02077024,-0.04174288,0.00915413,-0.02751017,0.00116732,0.01676434,-0.02667829,-0.01526067
v3JV42WbomE,0.12806927,-0.00529595,0.10911911,0.06495827,-0.05753938,0.02316092,0.02040086,0.14657277,-0.07082956,-0.08206479,-0.06399775,0.27101416,-0.04079683,-0.04525851,-0.01595906,-0.03326467,0.02369536,-0.11808142,0.05552982,-0.07112511
rhVEOqNhjKo,0.00950804,0.00808786,0.03407646,0.00990239,-0.0153955,0.14277654,-0.06633648,-0.02976878,0.00408043,-0.0239813,-0.08425158,-0.03702213,0.0373899,-9.65e-05,0.02933757,-0.00966418,0.05947302,-0.01119469,0.04822657,-0.03672913
LPTQADIf6Xk,0.07752152,0.0132164,0.08602052,0.0732044,-0.13177557,-0.01805188,-0.0207355,0.10861855,0.19300811,0.09342918,-0.01122072,-0.03199307,-0.07190626,-0.04692693,-0.00670744,-0.02877244,-0.03544749,0.00840322,0.00803747,0.04840231
DQiQ30VepbU,0.02795976,0.01649202,0.05362019,0.0402507,-0.06697941,0.05102402,0.03109058,0.10563919,-0.04583889,-0.05743488,-0.05877949,0.00633794,0.26393788,-0.06369122,-0.03055899,-0.0256864,-0.04461267,-0.08427991,0.08969863,-0.0382152
j584RpaMrDg,1.2796599,-0.50161468,-0.25216134,-0.06940812,0.10753774,-0.00322446,-0.01118248,-0.05710173,0.00983319,0.0064514,-0.00540879,0.00603759,0.02077024,-0.04174288,0.00915413,-0.02751017,0.00116732,0.01676434,-0.02667829,-0.01526067
sqXsMACtso0,0.04183993,0.02209025,0.10431268,0.01794609,-0.05415199,-0.00078943,-0.00948085,0.06712127,-0.02577862,-0.05510468,0.02156902,0.03933793,-0.03962174,0.08032126,0.04252142,0.09077385,0.00842812,-0.05292324,0.02696588,0.08801947
3skIuC1lP00,0.06014807,0.03121709,0.10076581,0.02979236,-0.07287924,-0.0122685,-0.02573419,0.03109988,-0.03045285,-0.00773666,-0.00242576,0.02696859,-0.01739832,0.02171554,-0.00574855,0.00464583,-0.00609894,-0.00608148,0.0153408,0.02314031
uvfU2B8b4G4,0.04698835,0.02551998,0.08746296,0.06730402,-0.09878835,0.01484942,0.02982546,0.10463057,-0.02939036,-0.12513035,-0.06934951,0.0501466,0.29588224,0.06095536,-0.11340041,-0.07468243,-0.03233719,0.08601583,0.07958028,-0.01050398
T34ygnCahZc,0.12076979,0.02553886,0.06663931,0.05763905,-0.08117351,0.05232263,0.06780596,0.15498514,-0.096983,0.06436889,0.00151678,-0.00859464,-0.08414156,0.02654554,0.05612854,-0.02535926,-0.03817028,0.0730351,0.02408831,0.00878771
4vHF2qU89Jo,0.14911967,0.09769554,0.04999978,0.06436581,-0.08311501,-0.02168034,-0.02628634,0.05544694,0.08641528,0.30267152,-0.02335613,0.03926034,0.03937792,0.04003316,0.02520607,-0.01820051,-0.01501203,0.09434998,-0.0430723,-0.04218793
wN3O2GSvoWE,0.09429269,-0.00461649,0.06994517,0.05320607,-0.10493709,0.01562384,-0.01737725,0.07544461,0.03722503,0.01859889,0.04162169,-0.02410757,-0.12226938,-0.03807519,-0.09726999,-0.00659401,-0.00917363,-0.11335997,0.07227439,0.00383001
krqt6eg3UoI,0.09108858,-0.00165433,0.06854182,0.05431132,-0.0773285,0.02889248,0.02461575,0.0943574,-0.01090823,-0.05187706,0.00375284,-0.0636137,-0.06639801,0.16414423,0.06305034,0.15051161,-0.01879519,0.0338663,-0.01669888,0.08133333
H_i8nh8uBco,1.2796599,-0.50161468,-0.25216134,-0.06940812,0.10753774,-0.00322446,-0.01118248,-0.05710173,0.00983319,0.0064514,-0.00540879,0.00603759,0.02077024,-0.04174288,0.00915413,-0.02751017,0.00116732,0.01676434,-0.02667829,-0.01526067
lE7rIBv-nV8,0.00763704,0.00379412,0.03443118,0.01195943,-0.01572045,0.16553929,-0.07245844,-0.04587798,-0.03379301,-0.03796177,-0.03617205,-0.05242052,-0.0004592,-0.06923062,-0.05697245,0.14313881,0.30822664,-0.03100211,-0.28423059,0.04955222
Xy09nfcwZ3E,0.13426069,0.01197964,0.21860965,0.54268502,0.42543499,-0.04153016,-0.01234558,0.01160058,-0.00127165,0.02417384,-0.00522078,0.03156083,-0.05950447,0.00664977,0.03615555,-0.04101396,-0.00091899,0.04051705,0.00552163,-0.02834891
HEW0VJx9iw0,0.0091208,0.00446566,0.04253268,0.00669328,-0.02133169,0.18448625,-0.06355608,-0.06770196,-0.00454782,0.01706724,-0.20321718,-0.04964537,-0.08221775,0.01192903,-0.0104896,-0.05430554,-0.03184024,0.01696925,0.17313079,0.06118756
IQZiAOokKXo,0.01361044,0.01005477,0.05749482,0.01489575,-0.02412917,0.31047779,-0.13288331,-0.09637409,0.02274868,-0.00179127,-0.20460698,-0.05301024,-0.01856573,0.03626867,-0.0354867,-0.04930289,-0.08390824,0.03473918,0.12863074,-0.03466153
U4gpio58908,0.03398491,0.0069913,0.04905758,0.01828162,-0.03551192,0.13618317,-0.04887926,-0.01330645,-0.01321533,-0.00597986,0.01603091,0.01682379,-0.00917513,0.02400106,0.0475501,-0.00869508,-0.06398069,0.01956692,-0.03891811,-0.00759614
_BhjwaNE8mc,0.11479558,0.17498763,0.10404814,0.09391788,-0.20737786,-0.11894383,-0.09512781,-0.18340743,-0.18024888,-0.1030161,-0.00284799,0.07514024,-0.08450618,-0.05389457,0.05232693,0.01313681,-0.00361789,0.00753782,-0.02364345,-0.08511581
pVXm6lt1F7w,0.19410197,0.1582744,0.19451729,0.06455099,-0.23307918,-0.19139751,-0.12677714,-0.23682318,-0.18712298,-0.27369667,0.02994439,-0.20085881,0.09455884,0.15999901,-0.113949,0.34908237,-0.1705043,0.20763175,-0.00653426,0.0136793
CZe8DucT3qA,0.02015569,0.00518969,0.03354932,0.02341015,-0.03783426,0.03208638,-0.00252235,0.03142111,-0.03440623,0.00591353,-0.01301321,0.0096662,-0.07016997,0.01453974,0.07905453,-0.08011266,-0.01963953,0.10601658,-0.06812671,-0.03019431
Q4zggacUY6E,0.11150427,0.00274002,0.13320068,0.05413741,-0.0831806,0.04106908,0.00308371,0.12101429,0.07640558,0.00796527,0.19133553,-0.06844509,-0.05672937,0.13177449,0.02182415,0.11557081,-0.00215272,-0.01340401,0.06313496,0.01571249
ckyeC880OPA,0.0554705,9.518e-05,0.08137126,0.04122889,-0.06375857,0.03005703,0.02324306,0.09149795,0.00338165,-0.05428924,0.02139635,-0.04138096,0.10168455,0.03510777,0.03177807,0.00683899,0.01376686,-0.06375595,-0.05555103,-0.05640682
XX7hskkX1AA,0.12001692,0.0011011,0.14486726,0.06474342,-0.12095493,0.02615972,0.04011939,0.15711066,0.00985159,-0.10602236,0.02726299,-0.01875493,-0.00146131,0.26627153,0.03154481,0.1733787,0.01686093,0.03138231,0.03341561,0.04438828
cdOcjUyQr8A,0.01087951,0.00594138,0.04349253,0.02734743,-0.01619974,0.13686721,-0.05845847,-0.03195483,-0.00047241,0.00956879,-0.11559729,-0.02099596,-0.05468089,0.02188403,-0.02382224,-0.03321319,-0.0568805,-0.00967569,0.07784165,-0.00413904
NDF3VSFbxAU,0.03927358,0.00174251,0.04563001,0.03007305,-0.05717821,0.03166887,0.01874816,0.15726727,-0.11471272,0.02527874,-3.275e-05,-0.25532927,0.26466848,-0.26723591,0.36593555,0.05683461,0.06395798,-0.2960567,0.1342317,0.11921948
nOR-IY0SnEY,0.06748642,-0.00253574,0.05369402,0.06149568,-0.03363974,0.0347924,0.0592037,0.10914065,0.03278458,-0.05369856,-0.0796831,0.39225459,-0.08660513,-0.12955726,0.03319813,0.12500496,-0.01850919,-0.01934991,-0.00193037,-0.01654643
EXOQ7vN2NXk,0.09941181,0.03951544,0.09762362,0.08683203,-0.12955495,-0.00418826,0.06247996,0.07873034,-0.00599276,0.02081775,-0.02008166,-0.11246751,0.04796486,0.04784273,0.17302831,0.01844815,-0.03444882,0.01858089,0.0149466,-0.06682971
QDZUOBnmf4Q,0.07593576,0.02747743,0.06509532,0.06727558,-0.05541028,0.02843067,0.03094537,0.09477864,-0.08071636,-0.02631747,-0.04229695,0.17177326,-0.06169651,-0.05753644,0.02641993,-0.00670926,0.00109489,0.0052978,-0.00753421,-0.09347896
Cs1nC8kqS5k,0.09260405,-0.00949836,0.09970971,0.02621437,-0.06601725,0.01731817,0.01800457,0.09062037,-0.0106359,-0.06524874,0.0145178,-0.01660297,-0.04721031,0.19895562,0.0109944,0.10766505,0.05843582,-0.04597612,0.04244748,0.00304203
a8LrJMGoVL4,0.08982348,0.04632133,0.11467265,0.0691399,-0.12904358,0.03074784,0.05022455,0.11039278,-0.14303529,0.12620911,-0.00248423,-0.02407521,0.04013537,0.06378964,-0.11214468,0.19106107,-0.05698832,0.05449915,0.01619814,0.10730851
QSe13hyv68o,0.19268777,0.00838963,0.05757409,0.07509815,-0.08223464,0.02700476,0.03477435,0.13576999,-0.14259467,0.18317601,-0.03697554,0.02960139,0.0526081,-0.08881433,0.0743609,-0.08813883,-0.04090468,0.02499214,0.00385262,0.0638397
87jnYKGVetM,0.01172018,0.00848541,0.03939173,0.03393918,-0.02398719,0.20680263,-0.09967943,-0.04337006,0.03298781,-0.01001395,0.02415958,-0.00135277,0.02966358,0.00337813,0.00036725,-0.03761058,0.00726051,0.08696537,-0.06006455,0.05620228
DHk0gFHyHeE,0.22453408,-0.00026805,0.02994657,0.04479671,-0.08411414,-0.00476846,-0.00076365,0.04257035,-0.15352667,0.09982014,-0.0463634,-0.00497975,0.12097975,-0.08212115,0.11167176,-0.09050549,-0.00030861,0.01975122,-0.06274774,0.03102693
AXvou3mSGQA,0.05549748,0.01282812,0.05778931,0.04186328,-0.08551447,-0.00328051,-0.01756672,0.01626341,0.03818505,-0.06652146,-0.04747962,0.03252628,0.15184594,-0.10940134,-0.01687585,-0.05782469,-0.05970071,-0.06343484,-0.00443626,0.05782355
TUSbI3pqiCM,0.11473933,0.02031263,0.12848609,0.09642737,-0.19689213,-0.04117625,-0.03287925,0.08541091,0.14277378,0.02437362,-0.01828717,-0.00043064,-0.08126589,-0.23211799,-0.16737269,0.18209332,-0.09543936,0.00214144,-0.00176362,0.03435124
Jr9Xm5f44NQ,0.09583362,0.03651089,0.10424069,0.10671316,-0.10875878,0.00816299,-0.01553818,0.11380188,0.12490933,0.05147987,-0.03448789,0.01659941,-0.06249113,-0.04201604,0.06177691,-0.11438407,-0.01264327,0.04372808,-0.01767754,0.06567279
stk7f11pyr8,0.7936528,-0.27640577,-0.03908112,-0.01082958,0.01796803,-0.013512,0.01154143,0.01514293,0.02085334,-0.04881091,0.02973879,0.02244626,-0.01841988,0.09797002,-0.19073074,0.07247197,0.00980493,-0.11376273,0.12165863,0.00920085
664cs6FZEZo,0.01605012,0.01337542,0.06827157,0.0117005,-0.02671624,0.40182371,-0.15928215,-0.14042307,0.03582105,0.0427584,-0.19653491,-0.0157791,-0.05848457,0.07798895,-0.01461597,-0.06033855,-0.24704573,-0.05708441,0.27125751,-0.08968593
jdrW-vJOD1w,0.11115932,0.04236104,0.08750316,0.06652494,-0.04250225,0.02682968,0.0213017,0.14785844,-0.09070707,0.02411913,-0.02590668,-0.00882166,-0.00428668,0.00167712,0.01184719,-0.033617,-0.0033141,-0.0806867,0.04438553,-0.0048426
0IGNbK4bbXA,0.08073072,-0.00168188,0.06480869,0.05139387,-0.08751693,0.02893161,0.03902254,0.07397262,-0.06141293,-0.00632512,-0.00819004,0.01979217,-0.0355718,-0.02100263,-0.02573209,0.0105453,-0.01091309,-0.04767818,0.05835628,0.07805013
3QRWlCFdzyE,0.42817478,1.08392725,-0.17914932,-0.09498526,0.12078769,0.00063989,-0.01399964,-0.02690505,-0.15916357,0.55299656,-0.01941467,0.16715716,0.23881213,0.12818951,-0.00672401,0.07721434,-0.0326193,0.05478758,-0.01957504,0.07480105
rYKQ0Ukxe6k,0.0850677,0.06242867,0.06592874,0.011923,-0.00836618,0.02281345,0.00694584,0.10577305,-0.00534252,0.05761054,-0.00648266,0.00844497,-0.03390381,0.05353934,0.02385441,-0.02607481,0.02882678,0.00414833,-0.0009715,-0.06268454
3W1KfxQnQiU,0.0836829,0.05432389,0.08152853,0.065213,-0.10057319,-0.00227335,0.00911784,0.05322522,0.00124586,0.30429703,-0.0165785,0.07927191,0.1299592,0.04170551,-0.1449384,0.05240005,0.01205867,-0.0052185,0.06157223,0.12624944
xO5diVmgE8Y,0.00587836,0.00344303,0.01845977,0.01663574,-0.01254619,0.06828232,-0.00923517,-0.00694416,-0.00335838,-0.01602669,-0.01371282,-0.03891374,-0.04252632,0.03348995,-0.09837758,-0.01016121,-0.24058769,-0.28264875,-0.21179482,0.12652489
dYJM9jmLBzY,0.03739069,0.03288824,0.07583575,0.05406852,-0.10347557,-0.0278934,-0.00447147,-0.05058097,0.15019227,0.00210785,0.00226969,0.04088858,0.05588568,-0.01582181,0.03519273,-0.09095645,0.05692929,-0.02221359,-0.05708531,0.10585348
GfSGy5C1OIA,0.03419758,0.02518387,0.06899532,0.05646592,-0.09724479,-0.00520358,-0.00258318,0.03225968,0.15192175,0.01871242,-0.01168677,0.0552862,0.00845384,-0.07105062,-0.04343271,0.0120391,-0.01731203,0.04231137,-0.00103008,0.02574948
z-7AhJ55htQ,0.08347457,0.02028368,0.10260693,0.03745017,-0.08051941,0.01875639,0.01156447,0.11044626,-0.02740713,2.908e-05,-0.0169977,0.02938578,-0.06336023,0.08569528,0.01637565,-0.01720242,-0.01551371,-0.03496594,0.04228794,-0.00317327
SK8tkpErsm8,0.12663088,0.15498796,0.08272638,0.09854668,-0.17908848,-0.11500391,-0.10191672,-0.22613153,-0.04684428,-0.07888074,0.04942542,0.04175273,-0.02046715,0.01991831,0.03847204,-0.05717898,0.04287279,-0.04499361,-0.02841865,0.05577814
01NMf5-J_P4,0.01151917,0.00923613,0.05461141,0.00055555,-0.01243609,0.29495215,-0.11459377,-0.10749927,0.02391615,0.03049771,-0.17877651,-0.01656582,-0.04366302,0.04054245,-0.04531494,-0.05383612,-0.09776844,0.05589336,0.30318696,-0.08589541
OkuWh46I4m4,0.04773523,0.01800536,0.0771929,0.04665356,-0.09270417,0.03070771,0.05836906,0.11305521,-0.08584972,0.0869017,0.01066221,-0.06918081,-0.00662145,-0.14537084,-0.27596068,0.14608815,-0.05448054,-0.00729603,0.05362071,0.00767446
kLJNcHqVmJA,0.05168277,0.02761319,0.08440063,0.06988579,-0.12389685,0.01782011,-0.03687612,0.0930665,0.18475093,0.07276333,0.1562116,0.00802583,-0.0328095,-0.03356466,-0.04990091,-0.1110029,0.01663619,0.05398166,0.08132525,0.09197543
G9L3zK57X6Y,0.08035633,0.027602,0.17775379,0.0625862,-0.10519033,-0.05106006,-0.04927186,0.02193059,0.07935562,-0.1292753,-0.00712011,-0.14317209,0.11386808,0.07588333,-0.13323265,0.23577975,-0.11705489,0.20796207,-0.02744892,0.0577607
AxM96v9ZCzI,0.05443828,0.02366862,0.03085272,0.0325899,-0.0353445,0.0216161,0.02210544,0.11564573,-0.04820755,0.04854608,-0.01710554,-0.03420065,-0.02955115,0.01436496,0.08928535,-0.05422771,-0.01688028,0.06828846,-0.01405551,-0.01486915
BnAKfe0qGbE,0.10941811,0.04535652,0.14771077,0.02521977,-0.10399433,0.02354987,0.05906303,0.15106128,-0.22362611,0.10911005,-0.01132681,-0.28696719,-0.06689557,-0.25277737,-0.20626803,0.09244086,-0.17352356,0.13180746,-0.14335963,-0.16916626
lvw8Fe5wcBo,0.12432693,-0.01040403,0.04486823,0.04844526,-0.07862972,0.00495724,-0.00015853,0.05064643,-0.05962752,-0.00344194,-0.02512311,-0.13584304,0.15959785,-0.12529176,0.20762318,-0.01975574,0.02004766,-0.13914369,0.00286,-0.04784837
2FFoc89SAj0,0.04182011,0.04363,0.0569059,0.03704183,-0.07127181,0.02766749,0.03484464,0.07250009,-0.11284571,0.24106614,-0.02877114,0.05381042,0.14277132,0.06813181,-0.17187979,0.10100771,0.02265853,-0.01150816,0.0960152,0.15991238
vd8fb3noIgY,0.2928245,0.80879443,-0.11483217,-0.06408753,0.06357193,0.00429164,0.00257325,-0.05346405,-0.03705319,-0.04645476,0.01482216,0.08530096,0.0825901,0.00120359,-0.00994825,-0.02262078,0.01018477,-0.08014814,-0.01473819,0.1737314
6-PunI-5Ts4,0.05947321,0.01106105,0.11879421,0.02133865,-0.07614191,-0.01187364,-0.03089041,0.08333945,0.13221127,0.02839806,-0.01069822,0.00216535,0.00186483,0.00610364,-0.0252628,0.02057754,-0.01936899,0.00948879,-0.00698782,0.09482348
OWkM5YoEhgM,0.10561345,0.00921856,0.08505836,0.05508923,-0.08577917,0.03593994,0.02326572,0.13128704,-0.04559486,-0.03095532,0.04679831,-0.04807239,-0.0881094,0.13630429,0.08788432,0.13198222,-0.00693317,0.07792991,0.03565982,0.07076685
L8_m7pOI2-A,0.06355303,-0.0059947,0.08930278,0.00483985,-0.03547558,0.00955137,-0.01081482,0.0761412,-0.00184275,-0.02451523,-0.01208799,0.03841308,-0.03994593,0.03654843,0.03242566,0.00426213,-0.00898741,0.03800809,-0.0116763,0.00938916
0ShXZN7aHqA,0.09169909,0.00359881,0.090684,0.069009,-0.13313189,0.00331821,0.0309171,0.11498523,-0.06600663,-0.12365932,-0.06218848,-0.04892683,0.15831618,0.04415157,0.02041269,-0.07249898,-0.07719077,0.12749142,-0.05193054,-0.13651441
EZLeWRbCEbA,0.10362305,-0.00032428,0.12911893,0.02868087,-0.07691386,0.04654736,0.02919787,0.10000976,-0.01236124,-0.02351274,0.02256335,-0.02087208,-0.01771151,0.03017128,-0.12666634,0.04771568,0.00859268,-0.08461972,0.07548089,-0.04197704
1gyuiKoSc-w,0.06718912,0.02353247,0.08809694,0.0348654,-0.06341893,0.03185758,0.0670767,0.0487583,-0.01938227,-0.03100632,-0.00763602,0.03794455,0.03939583,0.05775651,-0.09825489,-0.07964734,0.01347736,-0.08259436,0.00577628,0.06068575
uWOLkr7S47A,0.01204755,0.0061307,0.03704133,0.03438838,-0.02924692,0.17836847,-0.07787356,-0.03444592,0.00874216,0.00433403,-0.08498521,-0.00777617,-0.01574493,0.03680889,-0.0386476,-0.06510842,-0.00989803,0.10775973,-0.16322146,0.10797455
Vd3Pkc0YGrM,0.15595158,0.15075597,0.06848769,0.06955091,-0.159348,-0.06851519,-0.02170088,-0.17250012,-0.10611864,-0.0484664,0.00453608,0.13365949,-0.04447749,-0.08184398,-0.01509764,1.492e-05,0.03046197,-0.06538637,0.00803637,0.00898843
XzkJ2WrHR2c,0.11284622,0.15002398,0.16548562,0.13177077,-0.23779917,-0.08455047,-0.04426045,-0.09573248,0.03760002,-0.11886165,0.01822778,0.02644819,0.05238137,0.09233122,0.00119194,0.08945515,0.00756308,0.00501805,-0.01169114,0.18320281
I-rogofBX8c,0.00883902,0.00568662,0.01195869,0.00861865,-0.01543633,0.0505518,-0.0199262,-0.01256254,-0.00337496,-0.00520958,-0.00562627,0.00076415,0.0084918,0.00570478,-0.00862029,-0.01845576,-0.0265083,-0.0289234,-0.01723409,0.01205539
9QKOkpu78CQ,0.07857778,0.01549792,0.13318597,0.06377681,-0.12719785,-0.01793089,-0.02413125,0.08035646,0.14509265,-0.09363317,-0.04988872,0.0394905,0.24305863,0.05974014,-0.14511646,-0.15688872,0.03627681,-0.00136458,-0.01148894,-0.07643861
S3JuEF7RQ5k,0.14012748,-0.02941415,0.07640705,0.05825083,-0.09029678,0.04652442,0.06395406,0.13658714,-0.00763143,-0.0483246,0.04636133,-0.00437601,-0.08865617,0.11249253,0.05630535,0.11649402,-0.00757582,0.07180338,0.07551087,0.13794044
p5zWy46yWxU,0.00727015,0.00653003,0.02419887,0.01350225,-0.01978112,0.15923251,-0.07229179,-0.04132205,-0.01428452,-0.01678316,-0.03471727,-0.01178937,0.04617815,-0.04310096,0.02372578,0.03657178,0.18314468,-0.00642946,0.13072023,-0.01867448
tg0LuGGeOPA,0.05866231,0.00394841,0.10449925,0.02176361,-0.05660103,0.01661796,0.00824311,0.09860233,0.05317177,0.06507884,0.0051722,0.00745485,-0.03807334,0.06516099,-0.08651532,-0.0736837,0.06609084,-0.09129207,0.03085471,0.00595447
bouvNyq8xCY,0.00970683,0.00527658,0.02203422,0.0198635,-0.01074627,0.05223992,-0.0129913,0.00895052,0.00197722,-0.00250458,-0.01301267,-0.00291551,0.00235823,0.00024645,0.00164142,-0.00983204,-0.0023266,-0.02689852,0.01961929,0.00838288
5ymn2oV1Zls,0.03651037,0.0238782,0.07600187,0.05379699,-0.09870315,-0.00202262,-0.01188804,-0.02334197,-0.07982649,-0.07963669,-4.913e-05,0.01408808,0.04641145,-0.02525294,0.00185082,-0.0299634,0.01729826,-0.01135026,0.02929483,0.01576042
DgX6SMZaC_8,0.0434102,0.03800658,0.04817069,0.04409888,-0.04858883,0.00455577,0.01014812,0.03555058,-0.03901833,-0.02991287,-0.01230894,0.01926232,-0.01075561,0.00340054,-0.01030195,-0.01189369,0.00695795,-0.02937157,-0.00089957,-0.02021109
SYdW3cZKdmY,0.1646075,-0.00690716,0.06762927,0.08946337,-0.03362541,0.0341922,0.02096531,0.16508927,-0.1225217,0.07963464,0.00163454,-0.00900095,0.01369722,-0.11626926,0.0478074,-0.16636763,-0.02302607,-0.00763948,-0.01808814,-0.01324467
-5kkpHpexIA,0.05922804,0.03060912,0.21486113,0.60797626,0.46216242,-0.03150104,-0.02784244,-0.0172711,-0.01014781,-0.00988477,0.01649099,0.00614074,-0.02835535,-0.00872997,0.01330297,0.02703695,0.00929616,-0.01390308,0.00697259,0.05853451
k0ZYVWoVWAc,0.08759365,0.06112124,0.08227051,0.05494604,-0.11418045,0.02418346,0.04022283,0.13681643,-0.1253162,0.01503241,-0.02111569,-0.00683716,0.08879655,-0.06958987,-0.18385354,0.0432321,-0.04783526,0.03878358,0.03672306,-0.04243208
CzIJ566XexE,0.07806242,0.10618803,0.08939295,0.06888171,-0.12141423,-0.00378223,-2.555e-05,-0.03047434,-0.06334367,-0.13444577,-0.03502901,0.08188491,0.21921624,-0.00020981,-0.05695496,-0.13403952,0.08928699,0.03361198,0.02115273,0.0646335
Nq-c06vj5PM,0.06760748,0.02270002,0.0962676,0.07051104,-0.12040199,0.00326707,0.00659505,0.08822352,0.08305884,-0.14514854,-0.03070927,0.11360162,0.24540757,0.09434131,-0.10375976,-0.01414532,-0.02433787,0.09619027,-0.02086585,-0.03489853
yawQxLw0K08,0.09507816,0.15577772,0.08240302,0.07268322,-0.18318146,-0.12232666,-0.09273543,-0.18652799,-0.17216078,-0.10387907,0.02363448,0.00273984,-0.06556521,-0.00799096,0.09727269,-0.04913327,-0.02596064,0.01499706,0.00941003,-0.0858198
x0HFad-M2iE,0.13285458,0.130642,0.03942989,0.03742054,-0.05226421,0.05072324,0.03916024,0.15829784,-0.03917209,0.05205013,-0.01506871,0.00511391,-0.05202096,0.05042198,0.10167948,-0.08291817,-0.03931038,0.11041397,-0.04260743,-0.00769915
7m9uIc31Egw,0.06347305,0.0316474,0.14838251,0.05894209,-0.14324193,-0.00807651,-0.00566738,0.05024417,0.15147755,0.08915191,-0.03955864,0.01364035,-0.00257352,-0.1917322,-0.09213976,-0.01467338,-0.10711112,0.00869929,0.05176235,0.12955047
RVu1kgj-miw,0.04828332,0.0141026,0.07824313,0.08429357,-0.05702408,0.02543173,0.02044809,0.15125253,-0.04244358,-0.11349401,-0.11189046,0.490415,-0.07899967,-0.13924561,0.03027078,0.1378698,0.01764075,-0.08741222,-0.03127504,-0.14112626
B18aH00d8oE,0.06099004,0.02997471,0.08152736,0.06924191,-0.08739639,0.03192199,0.03446116,0.12323381,-0.06164281,-0.00370946,-0.0012967,0.00813373,-0.02555348,0.09744566,0.00961165,0.04382034,-0.03220148,-0.01549882,0.0570978,0.04946753
l1-D1s67YU4,0.03182901,0.01095583,0.0490515,0.04626472,-0.04302058,0.03795679,0.01025087,0.07526774,-0.00943651,0.01777767,-0.04123553,-0.00059375,0.09807997,-0.0517537,-0.00550633,-0.01908873,0.01852362,-0.15369452,0.06638899,0.03609233
KKq5yX8mrw0,0.03269222,0.00023489,0.04484245,0.02965859,-0.05479596,0.04148402,0.0145464,0.16641118,-0.11560306,0.02401513,0.00135124,-0.26146715,0.28578865,-0.26198835,0.37152559,0.06066285,0.07608761,-0.30535387,0.14045484,0.10870834
dA8XrnlFY5w,0.05339341,0.0082372,0.08918398,0.03182234,-0.03840902,0.0629288,-0.00211068,0.14084688,-0.00401063,0.0437774,0.1829606,-0.00260182,-0.09041173,0.07125711,-0.33073903,-0.23539385,0.24074706,-0.1198764,0.00030047,-0.19931398
ZjtJALByo70,0.0659189,0.03635871,0.0637982,0.05366121,-0.08314372,0.01478594,0.02837934,0.09532478,-0.03188706,-0.05812649,-0.04559316,0.00313225,0.13595085,0.06102452,-0.03388486,-0.0741325,-0.05882343,0.07023283,-0.02982987,-0.08345051
qsJSGpOs5q4,0.43120085,1.20577601,-0.25187722,-0.16032516,0.24587669,0.09345018,0.06886135,0.13374727,0.15499522,-0.2743871,-0.00325927,-0.10750974,-0.11156569,-0.05671105,0.00229064,-0.02806923,0.01421797,-0.0071321,0.00272847,-0.06385805
HyWpbCUdCr8,1.2796599,-0.50161468,-0.25216134,-0.06940812,0.10753774,-0.00322446,-0.01118248,-0.05710173,0.00983319,0.0064514,-0.00540879,0.00603759,0.02077024,-0.04174288,0.00915413,-0.02751017,0.00116732,0.01676434,-0.02667829,-0.01526067
-ZL_mpjxaUo,0.28966276,0.08498286,0.14578307,0.13187398,-0.22848365,-0.09994214,-0.03255542,-0.10756348,-0.05500494,-0.08441055,0.02119912,-0.04100503,-0.11630592,-0.02200618,0.00049687,0.02585906,-0.08362124,0.14214124,0.02024496,0.00089062
