video_id,lsa_1,lsa_2,lsa_3,lsa_4,lsa_5,lsa_6,lsa_7,lsa_8,lsa_9,lsa_10,lsa_11,lsa_12,lsa_13,lsa_14,lsa_15,lsa_16,lsa_17,lsa_18,lsa_19,lsa_20
Su0aCV35IFM,0.01257053,0.00253197,0.03948077,0.02140964,-0.02385573,0.29438451,-0.15408851,0.08473917,0.01364381,0.18664506,0.01183242,0.05685223,-0.05923506,0.091763,0.07324244,0.02487507,0.19148647,0.13082787,0.27362778,0.13844596
vmRbevilfpU,0.12776286,0.01673123,0.06527877,0.04225683,-0.07789691,0.00107456,0.0142438,-0.12337731,-0.03708789,-0.01408342,0.05246632,0.01364244,0.06460237,-0.14412819,-0.08314719,0.0232812,0.11999494,-0.02125086,0.0311548,-0.07465189
WgcdDVIUXcI,0.05765546,0.001318,0.06912311,0.04265043,-0.07698856,0.03276292,0.01265047,-0.10811456,0.00883021,0.02230863,0.11308242,0.01107539,0.02485739,-0.00165855,-0.01966026,-0.13684103,-0.1058237,0.00607936,0.00580305,-0.05187278
u_f8bJkfg68,0.10969316,-0.01603804,0.02159033,0.02671073,-0.04655548,-0.00606816,-0.02163613,0.0488861,0.0095227,0.0022059,-0.01147487,0.01089695,0.03593853,0.03500746,0.02210877,0.01114743,-0.03058413,-0.01970268,0.0103475,0.02701833
ndkH5fZSIvs,0.01922205,0.00927278,0.05810316,0.07591282,0.0216646,0.14796044,-0.08931613,0.02848947,0.01163373,-0.01977827,-0.00893256,-0.00156962,-0.00569661,0.01949326,-0.00863929,0.02161128,-0.00287,-0.06366875,-0.05606645,-0.04279039
s6XPoPYDn-Y,0.01701661,0.006729,0.0371344,0.02876771,-0.03359374,0.1833217,-0.07484626,-0.03569974,-0.09802372,0.58959117,-0.026225,-0.00802234,-0.08645856,-0.03609461,-0.13679769,0.09565369,-0.16248862,-0.19176824,-0.24000674,-0.14081336
eOI7WQIEX1Y,0.07044199,-0.01564118,0.05150844,0.02431186,-0.0342976,0.03365811,0.0069868,-0.0854894,-0.04602356,-0.00848203,-0.00795485,0.09473865,-0.01073101,-0.02103597,0.04772987,0.03919658,0.00352105,-0.00670246,0.03261817,0.0481578
a9T6IRpz31E,0.03578246,0.02589159,0.05312623,0.04753454,-0.03611283,0.20932392,-0.08005496,-0.05108168,-0.11225448,0.6098141,-0.03329428,0.00208992,-0.0830481,-0.02885593,-0.12026654,0.08479459,-0.16873095,-0.16508587,-0.23720658,-0.15852376
UncqiOQc4rI,0.01185591,0.00232317,0.03821732,0.01053783,-0.01768662,0.09771837,-0.05969345,0.00857144,0.00989087,-0.05770749,0.00739371,-0.01917539,0.01840806,-0.01503574,0.07160861,0.0120948,0.01976752,0.01943048,-0.13091831,-0.14743325
4at2bVIhLgc,0.00928613,0.00442601,0.01635109,0.00900006,-0.0070584,0.12340957,-0.05376862,0.03820875,0.01153063,0.11072227,-0.00238539,0.00920354,-0.02891995,0.0329275,0.05963276,0.00539263,0.09842699,0.07499761,0.10676781,0.08649348
Hk-ARbCTKzM,0.01420483,0.01368237,0.03595429,0.02305799,-0.01413594,0.15888445,-0.0861918,0.03725239,0.03747191,-0.11295761,0.01372054,-0.00304364,0.02479791,0.0010474,-0.03035295,-0.01322235,-0.00494139,-0.05790395,-0.04183307,-0.00805467
iBpxQpktHN4,0.00324349,0.00391624,0.00992447,0.00687013,-0.01413527,0.01585418,-0.01604242,0.01927322,-0.04482419,0.00629592,-0.02746885,-0.01471879,0.02544257,-0.00697311,-0.00134952,0.01442674,-0.0076503,0.00895851,-0.01133769,-0.01881494
MVFd0qFB9TE,0.00883225,0.0015618,0.02498659,0.01342932,-0.01223732,0.13541773,-0.06327974,0.04371872,0.02602416,-0.11894144,0.02252981,0.01429141,-0.0170749,0.02971594,-0.06973966,0.02285217,0.00107619,-0.02014724,0.0349797,-0.02659077
XsY6iChNzf0,0.02781089,-0.00275863,0.0615352,0.00068783,-0.00301593,0.03900397,0.03241065,-0.01435975,0.00738444,-0.010968,-0.01382337,0.00178044,-0.00226762,0.02597759,0.03439738,-0.02674381,-0.03678689,0.03415945,-0.00509519,-0.03808299
JWOErbTL9N4,0.01120404,0.01067344,0.03017431,0.01147474,-0.01653818,0.11733525,-0.06293757,0.00612385,0.01307682,-0.04693934,-0.01450809,-0.03698779,-0.0141734,-0.00481846,0.08429835,-0.05937631,0.04160064,-0.00234637,-0.00033674,-0.066695
v_1Dhh8G84c,0.01781357,0.00282643,0.03531348,0.02566914,-0.03319289,0.11923258,-0.05638272,-0.0001947,0.00149835,0.02786631,0.00543938,-0.01117888,-0.00188081,-0.02571223,0.07902286,-0.01352141,0.00582618,0.001044,-0.06133615,-0.04755816
5YKhtb3DNNo,0.0400537,0.04822352,0.05387379,0.03742735,-0.0504696,0.00114348,0.00797241,-0.03898661,0.13488476,0.00737694,0.01001084,0.00085548,0.04616997,0.04860321,0.03964698,0.11036785,-0.04283981,0.01215445,-0.02655804,0.04395897
PnpHwhTWw0c,0.03224871,-0.00042535,0.04592025,0.01538544,-0.01882692,0.14911136,-0.08219323,0.04174213,-0.0050708,-0.10959725,0.02511409,-0.01140677,0.04408705,-0.01997148,-0.11662108,0.07601706,-0.06983815,-0.03116691,-0.02270073,-0.02553586
Czf68kDF_7Y,0.00879736,0.0032262,0.03321422,0.02876944,-0.01412627,0.17250933,-0.0931391,0.0465087,0.02751085,-0.07046959,-0.01595619,0.0084786,0.02036155,-0.04561915,-0.00993012,0.02212815,-0.05540267,-0.05617114,-0.08968157,-0.06882743
ZAmCJoz4c4w,0.01211568,0.00819428,0.0343518,0.02608174,-0.02673992,0.14018058,-0.06496295,0.03190505,-0.00942728,-0.0559024,-0.04350453,-0.05909608,0.0476354,-0.12204217,0.3667701,-0.06807093,-0.06341693,0.1009907,-0.17527949,0.0738649
IMM5cm6xrXQ,0.01320052,0.00463546,0.03936903,0.01889656,-0.02781421,0.11463329,-0.0622219,0.00371799,-0.00433876,0.01380378,-0.00377858,-0.02892305,0.00666079,-0.01271464,0.108326,0.00104604,0.06576859,0.00364364,-0.12277228,-0.2025281
pUlUgkaTQZg,0.00908257,0.00329223,0.03604276,0.02972576,-0.01606822,0.21135644,-0.10368966,0.04489891,0.01612546,-0.02120199,-0.01553756,0.0170672,0.01400649,-0.03605812,0.01610472,0.0148277,-0.07249536,-0.00978967,-0.03475593,0.01570895
dNNyCZwEa6k,0.00982172,0.00442677,0.04332162,0.01179728,-0.0214314,0.16594925,-0.07665432,0.049197,0.01974542,-0.08808972,-0.01111285,0.01926484,0.02383268,0.00307029,0.01113502,-0.03638072,-0.01632459,-0.01744635,-0.04589229,-0.04486195
_jxLMMcKmRQ,0.1078023,0.03269381,0.06666982,0.03523222,-0.06955719,0.02790626,0.03011427,-0.1621767,-0.00198266,-0.0104344,0.01200872,0.01513685,0.13187748,-0.05412998,-0.00056702,0.13980347,0.09432883,-0.00286544,0.02697139,-0.03310586
m-nnyNZ0TQ0,0.01540198,0.00601641,0.06236967,0.00046722,-0.01502717,0.18689241,-0.06942656,0.05967088,0.01917511,-0.1607897,0.00811044,0.01344106,0.04769434,-0.02079535,-0.02768987,-0.04067201,-0.03711138,-0.00084112,-0.07591825,-0.03524572
Bcag49Fk3zA,0.01725866,0.00458686,0.04356857,0.03604113,-0.03750638,0.21823934,-0.09365749,-0.0380166,-0.11160481,0.61334614,-0.0250346,-0.01406004,-0.08114278,-0.03734775,-0.09223651,0.11449019,-0.15294006,-0.17463962,-0.28234561,-0.22635846
gdjCR9h1yGc,0.0123429,0.00637827,0.05719357,-0.00371566,-0.01152921,0.21080073,-0.10887299,0.07468988,0.02124852,-0.14865552,-0.01797158,-0.00486406,0.0453849,0.01054059,-0.02731613,-0.01636518,-0.01605373,-0.06343401,0.02217192,-0.05159429
31t_CBePs34,0.03396146,0.01873295,0.11930821,-0.02262639,-0.03302259,-0.01943783,-0.00994003,-0.06804937,0.01642804,0.00562216,-0.05504065,-0.04474344,0.09666742,0.06536558,0.06948486,0.08864134,0.0527119,-0.10692227,-0.02964528,0.05689682
PoHZWjU54jY,0.0235578,-0.00602861,0.0225325,0.01220938,-0.00858977,0.19630001,-0.10241413,0.0543502,0.01305166,0.14811764,0.01435572,0.02109144,-0.06830641,0.04364249,0.04351231,0.00208513,0.15351735,0.10187385,0.15163557,0.14431829
0t118SCf-2w,0.00531511,0.00151465,0.01630145,0.0105872,-0.01083969,0.10516447,-0.05437819,0.02743066,0.01090888,-0.04081491,-0.00446264,0.00271802,0.01366165,0.00063471,-0.02935049,-0.00788882,-0.02220117,-0.05065015,-0.00150587,0.05890501
vgwG6e9TFcw,0.01290542,0.00252709,0.03471861,0.01744339,-0.02014694,0.17190826,-0.09785296,0.06345002,0.00559333,-0.1581679,0.05272355,-0.00635576,0.0481935,-0.04609916,-0.25234435,0.14214825,-0.18590891,-0.07223054,-0.08459968,0.07046875
pcAJLeGAtwc,0.01104758,0.00830415,0.0275825,0.01391029,-0.01612909,0.070677,-0.03772042,0.0039873,0.01133268,-0.04848688,-0.00546933,0.00455331,0.00352439,0.00910974,0.01062671,-0.00260942,0.01556819,0.00136555,0.01918014,-0.01039058
-uUlnDjQxhg,0.02461509,-0.00216365,0.03785069,0.02347878,-0.00814111,0.2590287,-0.12645432,0.08238715,0.01072708,0.07282735,0.01372006,0.03615074,-0.04328711,0.03077584,0.01663801,0.03348805,0.07011195,0.06640684,0.12093555,0.0490313
fwUWAoSeg2g,0.04487745,0.00816908,0.14153797,0.26168589,0.21128916,-0.02068785,-0.02409756,-0.01824493,-0.02187508,-0.00120178,-0.02292959,0.03805848,0.00250923,0.0093335,0.00559079,-0.0059073,-0.01836751,0.01185754,0.00836619,-0.00978932
39czcByvq7c,0.02285909,0.01027779,0.03560404,0.02268437,-0.0311882,0.14436743,-0.0460153,0.03832395,-0.00582508,-0.02653776,0.00126811,0.00734231,0.00940204,0.03889412,-0.01465527,-0.02911847,-0.02408141,-0.0532851,0.01090939,0.05687633
W41XcEogOB0,0.01330973,0.01481036,0.02523965,0.02702075,-0.01003759,0.12393861,-0.05851196,0.01684346,-0.02334411,0.15015514,-0.03198384,-0.00530646,-0.01470473,-0.03859318,0.06725549,0.00562087,-0.02476693,0.00045288,-0.04189325,0.0351575
9VyCOVdFpL8,0.00831676,0.00312754,0.03344206,0.02530498,-0.01912627,0.24583213,-0.1259159,0.06859796,0.01653257,0.06986857,0.01494571,0.02087742,-0.02987016,0.04845797,0.00658119,-0.01484888,0.0420926,0.07566387,0.10752309,0.15747414
roUppNywDks,0.02461166,0.01176903,0.05075132,0.03516499,-0.03913887,0.30127774,-0.13628673,0.00181454,-0.10385331,0.64042405,-0.02643418,0.00893776,-0.09628411,-0.00420233,-0.07312887,0.1035603,-0.05848373,-0.09749182,-0.11558756,-0.08784042
ucN2hf0CgI8,0.02258271,0.00873031,0.03266156,0.02744998,-0.02748313,0.0799206,-0.03317765,-0.00440292,-0.02187243,0.03622508,0.01139358,0.01184328,-0.01316214,0.01482542,0.031524,-0.02454583,-0.02007398,0.01377316,-0.00451054,-0.05862145
z7Qp9Q_Br88,0.01363365,0.00667721,0.03062986,0.02246199,-0.02543011,0.11397731,-0.06224674,0.01520467,0.01270336,-0.06807899,0.01204768,-0.00434644,0.01351823,-0.00228883,-0.08818482,-0.01660801,-0.04138816,-0.02830026,0.00326813,0.07645595
UPbaPjDGQIE,0.0090181,0.00373057,0.04093159,0.01411125,-0.00995968,0.17323431,-0.0961843,0.05282271,0.00952105,0.04162941,-0.00259164,0.00677326,-0.00815723,0.01571759,0.07615141,0.01188904,0.07860363,0.06159047,0.03386982,0.09096008
BOmc_wliaRg,0.02159229,0.01108048,0.02387203,0.02713424,-0.00981522,0.03808292,-0.01097724,-0.0221523,-0.02161016,0.05812284,-0.01009995,0.00252699,0.02081546,-0.00468067,-0.03077468,0.02000581,-0.00067283,-0.05098465,-0.02115247,-0.04134526
WeliLUboy3M,0.03466437,0.02085506,0.0535391,0.05276908,-0.02744162,0.33432118,-0.1350431,0.01054332,-0.10347074,0.74928553,-0.03850957,0.01583143,-0.11809762,-0.02300629,-0.0798553,0.11376478,-0.0835195,-0.11570451,-0.150253,-0.03469228
8fIRAhGGRgA,0.02245616,0.0049922,0.05908696,0.0277748,-0.02520761,0.34175405,-0.16462461,0.09889699,0.0288901,-0.00016912,0.04740945,0.04505057,-0.01654512,0.04461796,-0.14980341,0.07956309,0.04613436,0.06510107,0.13156358,0.10192851
shkHigLwBnM,0.05442951,-0.00275147,0.03145514,0.02464003,-0.03151736,0.02641857,0.01881966,-0.0634841,-0.01890355,-0.01039619,0.00095247,0.00136366,0.07050902,-0.04336183,-0.04077599,0.00752517,0.0475707,-0.02048236,0.03611812,-0.06178575
0Z1lChyi2W4,0.0099827,0.00716025,0.0334334,0.02374971,-0.01792796,0.1515675,-0.07680383,0.03833562,0.02218853,-0.08576779,-0.0038021,0.00711166,0.01347148,-0.02813821,-0.02415002,0.02017059,-0.02075602,-0.04375831,-0.05880477,-0.07318748
BdUzhVM5w1U,0.0094077,0.00458219,0.02383254,0.01426557,-0.01424104,0.16954298,-0.09097731,0.04969517,0.04545752,-0.09329181,0.0451894,0.01694085,0.01179836,-0.02206004,-0.13301482,0.02628871,-0.00658411,-0.01340904,0.03152145,0.09809987
ktkpd9A8MD8,0.05738321,0.04547762,0.10054303,0.04168357,-0.09283205,-0.02516732,-0.01824077,-0.04757066,0.16256915,0.02831605,0.00261386,0.01581822,0.02726522,0.00907139,0.04794987,-0.00778672,0.05015196,-0.05624237,-0.02923162,0.03103245
kH_bSvf7EVA,0.00829327,-3.306e-05,0.0181939,0.01344801,-0.01273262,0.13712538,-0.07008512,0.03241605,0.01673159,-0.0739125,0.03181797,-0.02615515,-0.0059645,-0.0156663,-0.10620981,0.07942257,-0.06988605,0.00274344,-0.01086744,0.05670152
KGeCwEOLPGE,0.0195456,0.00143921,0.05072589,0.01585338,-0.02711875,0.25504175,-0.12243648,0.07815747,0.01680379,-0.11035167,-0.00211886,0.00594907,-0.05190477,0.0172767,0.05926221,-0.06205454,0.09918246,0.00578509,0.06325204,-0.18313711
up__2flbXw4,0.01180939,0.00173376,0.02807347,0.00786872,-0.01288673,0.06380331,-0.03752097,-0.01153191,-0.02445778,0.06624493,0.00040686,-0.00427702,0.00811666,-0.00546174,0.04854739,0.03090566,-0.0158052,-0.00363955,-0.12531643,-0.13345592
48hHo2WcAQI,0.05658096,-0.00181128,0.07616715,0.04748842,-0.07335954,0.05531556,0.02134023,-0.15216541,-0.04802476,1.922e-05,0.01972085,0.01908043,0.30304118,0.1297737,-0.17903036,-0.0149965,0.06896326,0.33197095,-0.29229794,0.27940891
DYkyYUjOZTk,0.01525445,0.00051293,0.02435258,0.01620989,-0.02306855,0.09399083,-0.04211719,0.01013829,0.00103885,-0.03798064,-0.0090956,0.0134038,-0.02483849,0.04134313,0.00922828,-0.01394051,0.02566949,-0.02633215,-0.01187363,-0.0250278
iRach9lpIlg,0.00958937,0.01420536,0.01921625,0.00339603,-0.01184958,0.00931942,-0.00249009,0.00438133,-0.00737812,-0.00054782,-0.01130182,-0.00587853,-0.00860147,0.01388663,-0.00364959,0.00046332,0.00742167,-0.00836438,-0.0017548,-0.00329789
iaYdIU5n6vw,0.02504571,0.01199533,0.06406478,0.0288943,-0.04405552,0.26252836,-0.12594465,0.10144538,0.00387175,-0.1735684,-0.06204781,-0.03221621,0.00241179,0.04990036,-0.00067947,-0.04333491,-0.00154649,-0.06936892,-0.06506233,-0.03942068
QfUb5MEAOXA,0.01422542,0.00134134,0.03099794,0.01412181,-0.02349641,0.08862453,-0.0364647,-0.00098357,0.00109411,-0.07670257,0.01661542,-0.0635376,-0.00297455,-0.02929427,-0.05670377,0.10733571,-0.08282063,0.04001769,-0.04061548,0.01341498
if955Z_s4Ts,0.00810509,0.01032696,0.01853523,0.01208403,-0.00791503,0.11645573,-0.0574478,0.03554307,0.02749357,-0.11290258,-0.00078792,0.00672711,0.00611659,0.04206214,-0.03236819,0.03124738,-0.02238665,-0.02202572,0.01401368,-0.00246134
vNXFk8iGHk8,0.02090899,0.00184021,0.05294809,0.01665281,-0.03124379,0.24834185,-0.11921644,0.08197009,0.02434934,-0.11084055,-0.00212328,-0.00834995,-0.05263134,0.01412312,0.0758796,-0.06343916,0.10238421,0.01198851,0.07290628,-0.17039875
FYMdllTCrc0,0.01174189,0.00485599,0.03722879,0.02185743,-0.02257571,0.27477567,-0.13447632,0.06908812,0.00328057,0.24170484,0.00571489,0.03789723,-0.06548834,0.09109291,0.0560288,0.01569047,0.19848716,0.12595532,0.22081871,0.18575157
kijJaXVri7Q,0.05688754,-0.00319028,0.04810511,0.03791692,-0.0432048,0.03051986,0.00863273,-0.06820862,-0.02885632,-0.01057221,0.0007883,0.00586716,0.03663996,-0.04676276,-0.00455932,0.01339627,0.05072351,0.01047988,0.00216139,-0.04983856
MWrMtRjLhjk,0.04701278,0.03578384,0.08002234,0.06484238,-0.09448306,-0.03852376,-0.04167479,-0.03392052,0.18223579,0.01614811,0.02573153,0.00347017,-0.08312143,-0.07315331,-0.03463426,-0.10281164,0.02336864,-0.05766756,-0.02823953,0.00054982
Cr7oGnSzmb4,0.00923817,0.00017128,0.01826754,0.01061694,-0.01580012,0.10351237,-0.05294464,0.02843967,0.01747708,-0.09092561,0.02185804,-0.0065891,0.02619938,-0.01722747,-0.10993831,0.06032901,-0.07673668,-0.03030691,-0.02175767,-0.01418241
3LnNwS6rqk8,0.09002472,-0.01115056,0.08253222,0.04600212,-0.09145727,0.04967396,0.01799734,-0.12535593,-0.02498907,0.00327184,0.01166296,0.01489652,0.12764465,-0.02697637,-0.01249055,0.03493683,0.13225444,-0.03614951,0.02481585,-0.09873374
dl0-TveDDGA,0.01061329,0.00280941,0.04476208,0.00969495,-0.01709627,0.21729939,-0.10402682,0.08074517,0.036207,-0.15452687,0.01827354,0.01649045,0.03461749,0.02207748,-0.08918003,-0.023983,-0.05505145,-0.08663073,0.02908656,0.01646309
-uSQcEfnKp0,0.00877652,0.00625277,0.02337478,0.01585017,-0.01781562,0.08004895,-0.03486489,0.00212561,-0.01184737,-0.01782455,-0.00183226,0.0134334,-0.02949947,0.01394887,0.0176304,0.00966082,0.01987544,-0.00508466,0.00057796,-0.02970957
wy3a_xJI3so,0.02071239,0.00579311,0.06621671,0.00411989,-0.01708221,0.19855322,-0.07904397,0.05167251,0.043058,-0.15269108,0.0427663,0.0308227,0.01569889,0.01746891,-0.07592222,-0.02771324,0.02404623,-0.00689909,0.02021395,-0.07366912
mbGPgjXCx24,0.07569503,0.0506406,0.09881872,0.08254356,-0.08883606,0.02775332,-0.01830729,-0.15051409,0.04926545,0.01538382,0.04561567,0.03656264,0.077587,0.01181804,0.0331686,-0.05619055,-0.01801954,-0.03045566,-0.03102892,0.02559202
eBbqRceO2qY,0.10216567,-0.03092893,-0.0080327,0.00981299,-0.00142524,0.04485024,-0.00546192,0.03648346,-0.01920985,0.02490935,0.01622986,0.01903855,-0.04762289,0.01633029,-0.0167793,-0.01198659,0.02293147,0.02965747,0.00965089,-0.01129436
rc-xQnupse0,0.09737446,0.03034429,0.12636399,0.08120164,-0.12885247,0.01919688,-0.01763833,-0.19116903,0.05818126,0.00780323,0.06232454,0.07174585,0.1205983,-0.02290542,0.02913103,0.0130283,0.08705407,-0.098112,-0.10882323,-0.01133563
LLK879SXq_w,0.12084186,0.03044313,0.37589614,-0.09467508,0.17619856,-0.0620603,-0.11326899,-0.10903138,-0.00914427,0.00326035,0.06996547,0.00827765,0.02291902,-0.01442806,0.01717091,0.05129085,0.0468556,-0.02262292,-0.04693605,0.03590879
8u7HqZJQHDM,0.02155626,0.00642368,0.05555901,0.04746016,-0.03902559,0.36006229,-0.16476001,0.00715287,-0.09208074,0.7494123,-0.02283205,0.02958332,-0.12701089,0.02078883,-0.134751,0.12696233,-0.05917149,-0.11968475,-0.09890477,-0.02601407
dU5sDKcwN9E,0.01594151,0.01485315,0.04495782,0.01676041,-0.01516418,0.24948306,-0.11671784,0.06962802,0.02300874,0.02535565,0.01513325,0.01851333,-0.01813377,0.03309244,-0.0216981,-0.01547949,0.06774039,-0.00420546,0.12574845,0.07483742
BPt0fwBCDbQ,0.10562025,-0.00295914,0.09350603,0.09468573,-0.10076968,-0.00111124,0.00170023,-0.11495196,-0.00172811,-0.08146621,0.02552084,-0.0575603,-0.19155707,-0.05491591,-0.04782933,-0.04785766,0.18923581,-0.01356353,-0.05489037,0.26609688
TET8fTKH1e8,0.12395596,0.03618548,0.13747867,0.04292554,-0.09095874,0.01382799,0.00060818,-0.13135463,-0.02861289,0.00101695,0.01724059,-0.00060187,0.11048045,0.06294669,0.03184549,0.06959444,0.00561114,-0.00558321,-0.01376764,-0.00231656
_WrHMsTYlOU,0.01241895,0.00204867,0.02845135,0.01565806,-0.01513603,0.06917197,-0.0363699,-0.00836111,-0.0152425,0.042376,-9.763e-05,-0.00996038,0.01466086,-0.01365719,0.09508548,0.00596142,-0.0135664,0.0246179,-0.12799506,-0.10851054
0HSNPIttevk,0.03269837,0.01621127,0.065945,0.04057384,0.0031347,0.2813493,-0.14404759,0.07789235,0.02908019,-0.16860402,-0.03323199,0.00035933,0.05938378,-0.05714303,0.03515309,-0.02254406,-0.14900921,-0.02863453,-0.15446593,-0.07336012
3OUrr_2UCYs,0.01388829,0.00485702,0.04771261,0.00120976,-0.01084058,0.22173664,-0.10223528,0.07931347,0.02389781,-0.11351662,0.0074905,0.00271203,0.01110693,0.01231372,-0.04326679,-0.01600359,0.02771635,-0.03179603,0.0950063,-0.04227797
tbvteFr4SPQ,0.06316866,0.01410431,0.10724496,0.01902127,-0.06471269,0.01935642,-0.01165585,-0.11425945,0.04119487,0.00763582,-0.04257207,0.0498481,0.04864538,-0.00250476,0.01876192,0.10127691,0.04874915,-0.07597689,-0.05255247,-0.00089893
er7v-GJj_V0,0.10038031,0.02818539,0.09258986,0.07216743,-0.1135735,0.00146559,-0.00028838,-0.07286271,-0.07195424,-0.01565963,-0.07568001,0.00533196,0.00561077,-0.03018807,-0.07797635,0.05074297,0.10829872,-0.04306727,-0.01998218,-0.05401775
n1G2FQ0UEqc,0.04950573,0.0359749,0.12385892,0.09902489,-0.1396813,-0.00741714,-0.00393625,-0.11762141,0.04047255,-0.08393906,-0.28453443,-0.14066188,-0.15062886,0.29055239,-0.06584661,-0.0158961,0.02382789,0.00669686,-0.00304648,-0.01878974
VsLOWe6VuyQ,0.01644154,0.00265083,0.02568011,0.01380122,-0.00433691,0.04977702,-0.02847215,-0.0106349,0.01012331,-0.01005722,0.00405955,0.01175908,-0.00112526,0.02704258,0.02409347,-0.01426874,0.02182911,0.03790466,0.04917819,-0.05752038
0kHJZFOuMWc,0.05657832,0.03127584,0.18575141,-0.05116553,-0.02740294,-0.00994383,-0.03307006,-0.12313284,0.04242938,0.00433794,-0.01146213,0.00262358,0.10850655,0.04518311,0.13394678,0.15559756,0.123959,-0.20478953,-0.10559682,0.06537421
S0WQP5GeTZs,0.01152376,0.00927049,0.03440051,0.02550019,-0.02582657,0.17029385,-0.08341471,0.02959047,-0.00424264,0.0857624,0.00149635,0.02914684,-0.03983711,0.05936119,0.04087492,-0.00921126,0.07560077,0.05865258,0.08642687,0.02201063
aZVcAlzBIp4,0.0198425,-0.00134351,0.0087596,0.01081485,-0.00964231,0.02831872,-0.01463513,0.0100829,-0.00383956,0.00015937,-0.00683632,0.00517442,0.00034406,0.0031479,0.03207792,0.00789623,0.00090622,0.00492009,-0.00832904,0.00235388
sKME5er1OKc,0.0551679,0.01310006,0.08399896,0.06835061,-0.09557154,-0.01994152,-0.02583017,-0.06494668,0.13071776,0.00492737,0.08082605,0.05234066,-0.05630974,-0.0435638,0.00972108,-0.10162234,0.01536606,0.01045402,-0.03139191,0.00680401
ERWIJPTNZVM,0.00707922,-0.00094173,0.01138022,0.01097873,-0.00431758,0.0364759,-0.01655603,-0.01486969,0.0008499,-0.02102132,-0.01297217,0.00427533,-0.00144548,-0.01036404,0.04855163,-0.00505591,0.0001649,0.03328134,-0.00652095,-0.03379616
oOCN30ulVyo,0.01599098,0.00825822,0.03541838,0.02277447,-0.02998934,0.08965812,-0.04912345,-0.01657287,-0.01680084,-0.01262588,-0.01735662,-0.04722038,-0.00232782,-0.03021838,0.13143077,-0.01818972,-0.00399556,0.03761214,-0.07004497,-0.08417457
UM9dcnJXX0k,0.02072278,0.02264051,0.02235313,0.02571115,-0.00664502,0.05473796,-0.01802347,-0.0161212,-0.00139814,-0.00390384,-0.01039946,-0.00892109,0.05013091,0.04504414,-0.02071832,-0.04930161,0.01908361,-0.04603271,-0.140381,0.08421048
yy_J5fdELm0,0.00781864,0.00474394,0.02702689,0.02070287,-0.01682602,0.12600511,-0.04018868,0.01482359,0.00441894,-0.03910203,0.0026956,-0.01424976,0.10055999,0.04274768,-0.12864321,-0.08782076,0.02406585,-0.02872898,-0.2381289,0.20133471
OwbaFLtBpkQ,0.01482125,0.00488346,0.04283092,0.02345775,-0.02880853,0.1128871,-0.05834944,0.00356377,-0.00278425,-0.01905093,-0.00422316,-0.02520702,0.02014203,-0.03964452,0.12471799,-0.00751502,0.03107674,0.02200731,-0.12484544,-0.12002793
3era1_feC3U,0.00707814,0.00440479,0.01789529,0.01372332,-0.01835184,0.01189994,-0.00553043,-0.00755216,-0.01371633,-0.00427966,-0.01234648,-0.00050608,0.00493098,-0.0033899,-0.00038261,0.00898289,0.00309947,0.01318544,-0.01448645,-0.00267017
Lnhy0tZ8SUI,0.02453126,-0.00165687,0.03854838,-0.00579643,-0.00035638,0.17511534,-0.08486467,0.06833303,0.01283252,-0.16210252,-0.0292091,-0.02802533,0.03595012,-0.03333763,0.10232555,-0.03018751,-0.04235213,0.03858948,-0.15839917,-0.09874766
nnKkk3CpLes,0.02747198,0.02002233,0.0647304,0.02067105,-0.00210691,0.03046271,-0.01919658,-0.04926579,-0.00871346,-0.02729177,-0.00837599,-0.01368859,0.00325408,0.02433988,0.05917051,-0.01367901,-0.02290505,-0.00864689,-0.02179957,0.03299236
6UPfq3KETg4,0.03982183,0.00588156,0.09849107,0.00490927,-0.03589304,0.02646039,-0.02600557,-0.0964843,-0.02416801,0.02080417,0.01626678,0.0085487,0.01822873,-0.02349659,0.03426102,0.00668454,0.01471272,-0.07079634,-0.05252876,0.01354899
UUzxEVhRQgQ,0.04792586,-0.0091086,0.02638483,0.03069998,-0.01332311,0.00333758,-0.00277502,-0.02548036,-0.02812386,-0.01255159,0.00368488,0.01441512,0.00859988,-0.02829968,-0.01362992,0.02785412,0.01539827,-0.0199419,0.01169471,0.03366594
RWGr8LwG3TY,0.12164842,0.0280449,0.10572105,0.06244887,-0.10768022,0.0410782,0.05142103,-0.21939159,-0.05397478,-0.04994285,0.06630577,-0.02310287,0.07365306,-0.01516489,0.10552018,0.14703317,0.09305416,-0.17842835,0.03471283,0.09172471
MqpQhyjFZQU,0.02268951,0.05271232,0.00492079,0.00916848,0.00436416,0.03056965,-0.01083701,-0.01565391,-0.00338845,-0.00912406,0.00511833,0.00505445,0.00467641,0.02937024,0.0357194,-0.00805864,0.01532893,-0.02106214,-0.00158715,-0.000359
msYTFQ4OIu8,0.02091097,0.00610259,0.05720803,0.04844407,-0.04417325,0.31285579,-0.14757736,0.01198226,-0.06818791,0.50380994,-0.03686419,0.01958247,-0.08423436,-0.06404206,-0.17350516,0.11285222,-0.24395624,-0.24315042,-0.26692243,-0.14378191
FZbMPtLRr00,0.00588153,0.00100825,0.02997439,0.00514922,0.00448933,0.11212219,-0.04872606,0.04849813,0.01446171,-0.12305208,-0.00801469,-0.00276521,0.04000712,-0.01709692,0.02090846,-0.01116459,-0.04755194,-6.162e-05,-0.117345,-0.04182948
-pNi4dh7VFo,0.07478981,0.01010693,0.06088875,0.03152282,-0.05831772,0.02102978,-0.00349471,-0.09104196,0.00354301,-0.01536533,0.02684834,0.01428336,0.07150805,-0.03822546,-0.02229715,0.01237107,0.04390087,0.02390471,-0.0335695,-0.07355102
2gFNJ6_ogzg,0.10262458,0.03419513,0.14459858,0.10370427,-0.18112937,-0.00937775,-0.0172745,-0.08327698,0.30137308,0.02747715,0.00306011,0.08171699,-0.09215689,-0.168297,-0.16847684,-0.23969248,0.18962278,-0.11509618,-0.0795062,-0.08815108
Lqq78q17jDY,0.12634727,0.02604374,0.19448393,0.05830505,-0.10164357,0.02947585,0.00964887,-0.2978773,-0.19304782,-0.02272739,0.14273376,-0.34234606,0.01157419,-0.2255808,0.05674498,0.07463057,-0.04630281,-0.06610383,0.13790192,0.08223944
Ycdklm6W1_o,0.01452382,0.00657198,0.03077371,0.02035618,-0.01860522,0.17133604,-0.09502981,0.04724732,-0.00066371,-0.04878208,-0.00669767,-0.02069797,-0.00763092,-0.03939253,-0.03348768,0.08852264,-0.10877112,-0.0269374,-0.11696658,-0.09399204
wJOakc64crg,0.0394196,0.01476408,0.07042715,0.05904524,-0.0456855,0.02673393,0.00167107,-0.09777719,-0.00855966,0.01335109,0.05192222,-0.00097934,0.2305852,0.13793791,-0.08907107,0.01325018,-0.03795713,0.28115463,-0.2109407,0.26521792
1VSBgPn28zA,0.01309143,0.00786324,0.06059782,-0.00306172,-0.00955329,0.23292191,-0.11321059,0.07997947,0.0322143,-0.15314503,0.00360111,0.0060142,0.02351763,0.05413472,-0.11350859,0.00742923,0.00195699,-0.09268,0.07762471,-0.01209356
zxQJIBt9CBI,0.08033141,0.01760917,0.08634765,0.05921972,-0.1013697,0.00898298,-0.00754499,-0.02209125,-0.07767828,-0.01736137,-0.03783334,0.01485823,0.0414248,-0.08818836,-0.04512142,-0.0252306,0.06396787,0.02719865,0.01661776,-0.04771605
EGTF9mGda4U,0.01449222,0.01156103,0.01794459,0.01849885,-0.01370991,0.07325885,-0.03818767,0.02441318,-0.0178574,0.07601868,-0.01524543,-0.00132789,-0.01773946,-0.01830646,0.04035405,-0.00347467,-0.015039,-0.00301151,-0.00646357,0.06227708
K9S3YgFZN9Y,0.00668483,0.00367347,0.02062806,0.01348527,-0.01833188,0.04676873,-0.02482306,0.00248403,0.00339321,-0.02466056,-0.00449828,-0.01946096,0.01306805,-0.01762206,0.05351083,-0.0180511,0.03502452,-0.00188343,-0.06178439,-0.0866201
Cp3DxMyEBIM,0.04964028,0.0376623,0.15876614,0.05877069,-0.13296542,-0.03353273,-0.05942804,-0.13359402,0.09808099,-0.04735723,-0.24961991,0.15439978,-0.29590519,0.05029404,-0.00479408,0.00645889,-0.04086928,0.02433838,-0.02626498,0.03213216
UEBpQgCIFTk,0.08959959,0.02738231,0.09109544,-0.00121261,-0.03611974,0.01084932,-0.00235378,-0.13079056,-0.03237093,-0.00766466,0.06226417,0.03626436,0.07274041,-0.06339748,-0.01482813,0.0547796,0.09706432,-0.01525387,-0.02350598,-0.01519956
shgZ8WYcC6k,0.01252367,0.00434238,0.03945889,0.00023211,-0.01077921,0.18520954,-0.08841069,0.07163395,0.02943694,-0.15575402,0.00551715,-0.00302866,0.04618259,-0.01086455,-0.09120354,-0.01192073,-0.04353446,-0.08890007,0.07333471,-0.07158804
fpmYvXCzO1c,0.01099098,0.00188656,0.02957468,0.02085225,-0.0184613,0.17949199,-0.09342395,0.05461031,0.0063638,-0.09949844,-0.01000844,-0.00126536,0.00743758,0.04315861,-0.02210702,-0.00769559,-0.02946114,-0.07296308,-0.03705412,0.03652432
5wuHYQMnYhA,0.0170654,0.0057432,0.03467953,0.02719991,-0.02330395,0.13853294,-0.07456637,0.02962707,0.00398368,-0.05705467,-0.03743165,-0.05600703,0.04648669,-0.10224108,0.32358653,-0.07962378,-0.06674965,0.10405143,-0.18229431,0.07307055
PN8bHAr0f1M,0.00716314,0.00195544,0.02920573,0.02155484,-0.01691145,0.24198471,-0.12626974,0.06585078,0.02874379,0.06866424,0.01154067,0.01760153,-0.03474532,0.05905814,-0.05616664,0.04029156,0.10294609,0.06376855,0.14401719,0.1525414
kf9ghd5-VII,0.10765164,-0.00713909,0.12696265,0.03546453,-0.08792954,0.02532073,-0.00445983,-0.04666611,-0.03889639,0.01075044,-0.03101147,0.02639737,0.06964897,0.05431709,0.082068,-0.01570992,0.01817875,-0.13477849,0.06214022,0.09559161
oqoBSeL5GIU,0.01215432,0.00390167,0.0433554,0.00580184,-0.01693011,0.15925295,-0.06175724,0.04551591,0.01879648,-0.11060466,-0.00872187,-0.00033961,0.04581778,-0.02087437,0.03045313,-0.03398466,-0.06240395,-0.0184501,-0.09840999,-0.04139743
tQCVAU-fZPA,0.44101213,1.05735193,-0.16128238,-0.07342151,0.09083811,-0.01668151,-0.01555023,0.05228631,-0.07467981,-0.04228034,0.50613935,0.09230268,-0.14682999,0.29408723,0.03034231,0.03215019,0.0908323,-0.02416779,-0.1173338,-0.12448332
GXeBi91SkIw,0.00996572,0.00895293,0.02724751,0.0242717,-0.01182253,0.16549592,-0.07833912,0.0330863,2.828e-05,0.13593078,-0.00256759,0.02260864,-0.04226948,0.04677848,-0.01388863,0.02173838,0.08107802,0.00551377,0.1026284,0.07818038
8QsAx7s9PmQ,0.00828827,0.00835946,0.02189134,0.00126554,-0.00668848,0.06782562,-0.0228807,0.01934966,0.00284459,-0.01726171,0.01043717,0.00415158,-0.01649039,0.0068473,-0.01589461,0.01869111,0.02141577,0.00237719,-2.959e-05,0.01791279
uSjcVPbJayU,0.08340677,0.05582111,0.10639345,0.07025572,-0.10448054,0.02610275,0.03837132,-0.2049691,0.01586055,-0.07104594,-0.18029001,0.23056306,-0.11102387,0.11821973,0.01961945,0.14842691,-0.07477918,0.02799742,-0.03087956,-0.04959224
T7_l896OH20,0.0456547,0.06689897,0.04626564,0.04768838,-0.03008031,0.00783402,-0.00802658,-0.00778663,-0.05137684,-0.01079436,-0.0096228,0.05138647,-0.02535904,0.02672086,0.03528091,-0.06171096,-0.03500115,-0.03411054,-0.03389212,-0.00667941
D4fkiQfzw_I,0.00476084,0.00219857,0.01922317,0.01336251,-0.01531735,0.09983216,-0.04863567,0.01234489,-0.00274176,-0.00614196,-0.00711868,-0.02207523,-0.01967785,-0.01240103,0.11612313,-0.03339504,0.05291903,-0.00539276,-0.08684286,-0.13093395
wEb6ULf3TzU,0.01402511,0.00213203,0.02482114,0.01085605,-0.01613963,0.09587957,-0.0496601,0.02160826,0.00736293,-0.05892308,0.01278993,0.01774024,-0.01261759,0.03371696,-0.03803834,0.03205685,-0.01621767,-0.02137568,0.01114637,0.01218737
8hN5PF2oXGs,0.0081544,0.00455771,0.02694511,0.02222085,-0.02107462,0.07742692,-0.03950983,0.00550609,0.00982392,-0.02380312,0.00183595,0.00911639,-0.00803586,0.00215203,0.02677629,-0.04130906,0.00907499,0.00530042,-0.01857522,-5.195e-05
SvLaz6y-mhs,0.18309309,-0.01657009,1.01337324,-0.80815909,0.45834343,-0.14690951,-0.17693828,0.04669439,-0.00738216,0.01977716,-0.02598814,-0.00386191,-0.03336243,0.00298651,-0.01124753,0.00628971,0.00422861,0.00642924,-0.0204904,0.01495904
o8YcWD2ri9U,0.00990172,0.00201023,0.02710987,0.02063369,-0.0161932,0.17520742,-0.09434653,0.04498877,0.02048298,-0.06230346,-0.00616319,-0.00268668,0.0207995,-0.02424002,-0.04324537,0.00660374,-0.06483464,-0.04980086,-0.04994522,0.07702943
XeN7wKfDOPk,0.01432443,0.00795844,0.03818069,0.03895593,-0.00966762,0.11910038,-0.05649276,-0.00150565,0.00378114,-0.04793216,-0.00092557,0.00078942,0.05492728,-0.00832283,-0.04052463,-0.0690808,-0.10553191,0.00164176,0.00451934,0.05516776
HRxULulg_hM,0.02418797,0.00880813,0.05278823,0.04017289,-0.04939395,0.18164456,-0.08384399,0.05505346,-0.0302469,-0.05630873,-0.08977386,-0.08723633,-0.03541432,0.00257099,0.17428943,-0.05969349,0.14422605,0.02805348,-0.0338985,-0.21282573
bfENsVP77VQ,0.0723663,-0.01699178,0.02975754,0.0133097,-0.01991247,0.28331321,-0.12715246,0.10904409,0.01014741,0.05077117,0.03891736,0.03780629,-0.03593864,0.06818226,-0.03256052,-0.02940059,0.05927212,0.02837254,0.15552229,0.0907809
XjAeQOmdNFU,0.01202106,0.0123478,0.03307986,0.00902989,-0.0153839,0.11449557,-0.06481307,0.01798241,0.02275967,-0.07095839,-0.01618684,-0.01070104,0.01442775,-0.00788335,0.10089917,0.01931465,-0.00285096,0.01765255,-0.08448832,-0.14195313
YhNUPGphSM8,0.09136407,-0.01641857,0.07178971,0.03737941,-0.07259981,0.0387531,0.01655368,-0.11266377,-0.0079273,-0.02264939,-0.02402441,-0.01369324,0.15624727,-0.01800345,-0.03427307,0.07030226,0.09122707,-0.04505648,0.02988453,-0.1016806
GybLbhXj2Nw,0.01598314,0.01017346,0.03892396,0.02878262,-0.02130402,0.26541263,-0.12873056,0.0442882,-0.00350455,0.21916866,0.01062121,0.07232509,-0.05430738,0.08907415,0.06710903,0.02525695,0.1998526,0.13315343,0.25863254,0.17880652
qey62i2fvg0,0.00711917,0.0034468,0.02544967,0.0147464,-0.01645294,0.11007895,-0.05612985,0.02253361,0.01680597,-0.07972316,0.00315371,0.00778302,-0.01173796,0.04926402,-0.04467968,-0.02011444,-0.0341998,-0.03041621,0.04332478,0.02410123
fKtG9uPeMCc,0.09410541,0.06210571,0.06521306,0.0526295,-0.07556721,0.00827737,0.00814009,-0.12426655,-0.12243848,-0.0791535,-0.10643934,0.34372833,-0.16481114,-0.08217454,-0.00063143,0.11451364,-0.07814468,0.09188902,0.00957176,-0.0513925
sj1y9FDJKCM,0.01757055,-0.00260624,0.04053381,0.00441227,-0.0099705,0.29519697,-0.13763198,0.11116316,0.02419699,0.0068832,0.02983545,0.02576518,-0.0365485,0.07811299,-0.05482234,0.02134205,0.10288038,0.02713597,0.19915626,0.06954186
ND9eyW5Fw0s,0.01873965,0.0022736,0.04049816,0.02850932,-0.02169805,0.15719151,-0.07786608,0.02210678,-0.00137958,0.06066214,-0.00172998,0.04055713,-0.02678079,0.02292419,0.03810483,0.00712247,0.06708335,0.02196687,0.05147147,-0.00773074
hXPy19kPego,0.06571965,-0.00096921,0.07122638,0.04046489,-0.07180992,0.02181189,0.03657076,-0.08747512,-0.00395616,-0.00156111,-0.00532722,-0.00630314,0.10440741,0.0148734,0.01404024,0.05946142,0.06397006,-0.04070858,-0.00931702,-0.02742617
x2r3FTy9HHE,0.02093464,0.00570605,0.03945975,0.02237154,-0.02757084,0.20021405,-0.10628686,0.03286399,0.04229915,0.06095346,-0.02143989,-0.00466467,-0.04952581,0.03297536,0.10990922,-0.07690459,0.19004483,0.06303442,0.08721795,-0.04429196
SZ8r5VKtGes,0.11474256,0.00134365,0.09429576,0.05315326,-0.08807157,0.0576418,0.0299755,-0.18538164,-0.04889832,-0.00901299,0.04628607,0.01810399,0.28993234,0.04892309,-0.15462285,0.0522884,0.13512492,0.2436093,-0.20552524,0.17735461
IJJbQTVdAtE,0.0440745,-0.00431612,0.05155515,0.03242118,-0.01182627,0.33588128,-0.13683193,0.10480356,0.0115956,0.16169217,0.00077258,0.00990997,-0.05426583,0.04139793,0.12076249,-0.00879513,0.15859231,0.13345461,0.15590575,0.1928374
EFhMcL3Kf1c,0.01728413,0.00465973,0.03085341,0.01484503,-0.02556781,0.11897213,-0.06237618,0.00857416,-0.00561711,-0.05351037,-0.02944201,-0.09428734,-0.00715038,-0.02168853,0.20302502,-0.02397896,0.03343126,0.06603529,-0.07281517,-0.20415276
crrTHKN_R58,0.07903133,-0.00988071,0.07292869,0.05620457,-0.05751758,0.01661763,0.00097802,-0.12075957,0.01219283,-0.01500867,-0.13977511,-0.00292585,-0.08716321,0.17201766,-0.04870636,-0.01443405,0.02167648,-0.01229598,0.01223418,-0.03925983
THMW7bXTog4,0.0263561,0.01042641,0.06245343,0.02324475,-0.02826259,0.03327352,-0.01041013,-0.04056719,-0.01329667,-0.02276725,-0.07465588,0.00019645,0.01674001,0.10501392,-0.01189461,0.01287356,-0.01223582,0.0253812,-0.02342557,-0.06117576
07T7V-Szcx0,0.00832482,0.00299985,0.0439449,0.0055374,-0.01235196,0.22511924,-0.1039348,0.08876862,0.0484482,-0.19325528,0.04581488,0.01538744,0.03999076,0.00111975,-0.16710557,-0.01917303,-0.03726213,-0.08220766,0.06302167,0.04660939
QIKiQjEMUjY,0.02521697,0.0226272,0.11799112,0.33276196,0.29534786,-0.01768966,-0.03286954,0.01524737,-0.00132336,-0.00055192,0.00241519,0.01070534,0.01427638,-0.00846759,-0.00966556,0.00192842,0.00892426,0.00170321,-0.01267098,-0.00866254
siKdeoxrxIA,0.08499079,0.02921109,0.04754615,0.04674991,-0.04923898,0.02795412,0.00502674,-0.12354265,-0.01896251,-0.03860708,-0.01069163,0.15665695,-0.0232225,-0.06430063,-0.00767011,0.0212969,0.01544573,-0.01489547,-0.02494557,-0.02230581
Xbang1Y_jbA,0.08651976,0.01753825,0.27547127,0.60834363,0.53801357,-0.05840944,-0.03227716,0.01491208,-0.01646916,-0.0020729,-0.02943422,0.03571895,-0.00096438,-0.00132272,-0.00643423,0.00535883,-0.01336721,0.0080003,0.02211045,-0.02562665
tUmd3tWCDKs,0.00653487,0.00186484,0.02872364,0.02482911,-0.00677893,0.24251125,-0.13179025,0.08645679,0.03818237,-0.14504899,0.01488978,0.01640892,0.05621363,-0.0635385,-0.20576157,0.0657451,-0.20221854,-0.11419418,-0.08488727,0.12629795
wd_xh6gSSOs,0.00467885,0.00094041,0.03052185,-0.01172787,0.0050053,0.05481099,-0.03795958,0.01691364,-0.00546306,-0.02191431,-0.00833573,-0.00560933,-0.01006177,0.01300321,0.00019316,0.00532579,0.02397275,-0.02549867,-0.00569836,-0.02510795
5tW7CPAVii0,0.01222779,0.00214495,0.03914639,0.03238477,-0.01779367,0.27996452,-0.15357449,0.084277,0.04839914,-0.20392886,0.01446993,0.01325287,0.04359917,-0.04810607,-0.22002171,0.0775883,-0.2277529,-0.12968503,-0.11529634,0.09552848
vTXoE7BLv9s,0.06278524,0.01402758,0.06837734,0.04188457,-0.07048433,0.04090786,0.02079971,-0.09354057,-0.01437143,0.01372433,-0.01069562,0.01158394,0.14842142,0.0520225,-0.01608206,-0.02747361,0.00343344,0.03761925,-0.05471415,0.01699515
6WqWhSmCbXk,0.09494316,0.03780674,0.16865118,0.02906717,-0.09742871,0.01527189,-0.00114711,-0.13638114,-0.09405919,-0.02738223,0.14269105,-0.01279612,-0.01185014,-0.00804477,0.13114788,-0.09714494,-0.04309215,-0.13585085,0.1213808,0.06847768
h9kh7KssnMc,0.08694619,0.01560685,0.10971724,0.0416431,-0.0713806,0.01819198,-0.01845802,-0.08141174,-0.03737672,0.0032674,-0.00058576,0.03831138,0.04122775,-0.01568894,-0.01142638,-0.01628164,0.03535176,0.01299485,0.00112458,-0.04572185
DSRfs1qKWR0,0.00163498,0.00127146,0.00534078,0.00419832,-0.00578694,0.02180725,-0.01368699,0.00796512,0.00158833,-0.00235507,-0.00646765,-0.00036032,-0.00641565,-0.01293978,0.01000857,-0.00472178,-0.00489751,0.00149273,0.00198454,0.02815665
wnoSOSgBNHk,0.0732578,0.01135928,0.06230619,0.04073235,-0.08079277,0.01688878,0.0138531,-0.11749044,-0.04920748,-0.03676948,0.01401205,-0.07306559,0.04058488,-0.0767362,-0.08695136,-0.00677159,0.09385464,-0.06804405,0.0810327,-0.05388114
Fy8H9I2kJkI,0.02383492,0.0027507,0.05516258,0.02028258,-0.0241017,0.22005308,-0.10772953,0.05056608,0.00368025,-0.08826125,0.01376209,-0.02480632,0.02393788,-0.03817091,-0.06491965,0.0412032,-0.06167965,-0.00549476,-0.05020397,-0.04649108
6XxQMeqG1P4,0.10168345,-0.00349899,0.1403891,0.0512628,-0.11375424,0.04618433,0.02665145,-0.22042168,-0.03481879,0.0136576,0.0441369,-0.21433079,-0.01095085,-0.0223406,0.00916893,0.09151998,-0.00125015,-0.00201182,-0.04505532,-0.04789852
zj0BKLv9r8Y,0.12855292,0.11254421,0.10271866,-0.01382691,-0.02390474,0.05831071,-0.00271301,-0.1624993,0.01380395,-0.02291999,0.04511923,0.01942456,0.13181394,-0.01673895,-5.849e-05,0.13338618,0.11552465,-0.05484386,-0.04653388,-0.02628101
9oVPXnEkegY,0.09432757,0.0554061,0.12675278,0.06904904,-0.11977193,0.00136973,-0.03088047,-0.13095613,0.11661573,-0.02346607,0.00055476,-0.00220695,-0.07776416,0.00425109,-0.04647133,-0.13919795,0.01134294,-0.01991305,0.01587155,-0.0766112
yzajLZXh9JU,0.06929515,-0.01974612,0.01290012,0.01566225,-0.01880781,0.19170877,-0.08259139,0.06691999,0.00514374,0.03922609,0.01466552,0.01320213,-0.06948502,0.07142762,0.03041106,-0.00162279,0.10078465,0.06008922,0.07379788,0.04534402
jIj6PuMrDGA,0.15802823,0.31497975,0.06086479,0.05894675,-0.17075182,-0.13261364,-0.08626496,0.28674668,-0.2398154,0.0029785,-0.09728006,0.01488301,-0.03177048,-0.01383818,-0.00727869,-0.03018268,-0.06775488,0.05525272,0.00648243,0.03767072
mT-7tbs7rVw,0.16048413,0.18379276,0.15679616,0.1234904,-0.23785206,-0.11672464,-0.06776614,0.12923617,-0.09502739,-0.02171794,-0.14156382,-0.00714904,-0.03968117,0.02022041,-0.06076538,-0.08222016,-0.00211586,0.0141969,0.05780591,0.00050731
VKaslzzv1QM,0.06468561,0.00210767,0.08227703,0.05347311,-0.05617872,0.04672008,0.01066731,-0.14939393,-0.05828686,0.00668719,0.00977318,-0.00394401,0.05986679,-0.02338582,-0.02383355,-0.02619141,0.02616101,0.01075222,-0.01294131,-0.00587379
_9bYQ2tvc_s,0.06869852,0.05224822,0.07790191,0.06031744,-0.10122138,0.00353668,-0.04582186,-0.05934552,0.18280285,0.02595594,0.04343083,0.02102115,-0.05473955,-0.08687085,-0.05664064,-0.06975706,0.12528933,-0.00623341,-0.01698597,0.02686912
kTlm_3HwRFg,0.01181204,0.01114007,0.0300203,0.02673501,-0.01701831,0.09414907,-0.05319876,0.00530203,-0.00058475,0.01875361,-0.00421777,0.02495032,-0.01102275,-0.01066781,0.01406648,-0.00540521,-0.01738208,-0.00755534,-0.04472163,-0.04020186
YPboGQjMxNY,0.01893989,-0.00540082,0.00736804,0.00832188,-0.00792948,0.01754452,-0.00727407,-0.01532472,-0.00585607,-0.01815937,-0.01414491,0.01016634,-0.01347971,-0.00232621,0.01053611,0.00600523,0.00014071,0.01614531,0.00641421,-0.03236246
ABoKfabPQyY,0.01336985,0.01261497,0.05167385,0.01018653,-0.00616254,0.25251318,-0.11034614,0.09176549,0.05867278,-0.1987412,0.05765803,0.05308761,-0.00443043,0.03160874,-0.14034861,0.02813819,0.0189908,-0.00993888,0.19371003,-0.08197164
GfSGy5C1OIA,0.03484204,0.02398766,0.07624089,0.05756481,-0.09459917,-0.00443986,-0.00614963,-0.03369728,0.13512224,-0.00150703,-0.02505653,0.04167088,-0.09953577,-0.06922121,0.00723262,-0.04112643,0.0138913,-0.04217928,-0.01745368,0.04796529
lE7rIBv-nV8,0.00774665,0.0033017,0.03662383,0.01139113,-0.0123032,0.16071381,-0.08174387,0.05094516,0.0074658,-0.08237285,-0.04779841,-0.07663019,0.06130693,-0.11516749,0.30930113,-0.07375638,-0.05080259,0.12007462,-0.19063209,0.09371892
dhbt8y_LXQY,0.03293719,0.00218647,0.03337453,0.02638439,-0.02869421,0.12562549,-0.06065017,0.03795534,-0.00358626,-0.00726314,-0.01439502,-0.00559797,-0.01424184,-0.01084732,0.11235153,-0.01661237,0.01492488,0.03428409,-0.02281257,-0.01496067
Ju0usucry_g,0.07559363,0.02234389,0.11471174,0.06663434,-0.11152311,-0.04568373,-0.04548175,-0.01058732,0.17937124,0.00293336,-0.0404725,0.01206764,-0.0947988,-0.05169021,-0.06055486,-0.12722753,0.04549537,-0.05190477,-0.0516629,0.02444472
TfojYStTlZE,0.05870893,0.02590624,0.09650353,0.08156013,-0.11299543,-0.00852013,-0.03036741,-0.03302036,0.10676395,-0.00197137,0.0027165,0.07408455,-0.07992781,-0.03733353,0.04338324,-0.10152477,-0.02928814,-0.07124123,-0.07575658,0.00913465
cnCEUFzWspI,0.01546663,0.00585478,0.03179294,0.02553682,-0.01535057,0.23120679,-0.11237709,0.0560688,0.02301959,0.0585862,0.00681199,0.02840339,-0.02322236,0.10500507,0.05355676,0.01513612,0.14192007,0.07283307,0.19793642,0.00758252
J7ieKmP96Hc,0.01333604,0.00536014,0.03750086,0.02046207,-0.01680134,0.28293335,-0.14528219,0.0834026,0.00651051,0.23324143,0.01150676,0.04285412,-0.06362538,0.07195448,0.04318753,0.03249675,0.16093508,0.11761452,0.23039702,0.19349663
VjqsnOrW3AM,0.01846872,0.01157128,0.03233877,0.02280041,-0.01409315,0.19488965,-0.09950715,0.05101782,-0.00965857,-0.02699178,-0.00577765,-0.01347411,0.01186325,-0.01731804,-0.00561625,0.07845837,-0.06137098,-0.00986808,-0.04689499,-0.11569108
aqIgIWIc3uw,0.06552779,0.01425806,0.07869931,0.05182079,-0.0883532,0.04342982,0.0345167,-0.20571214,-0.09348861,-0.09567399,-0.17062874,0.50135247,-0.19704128,-0.1462279,0.04848088,0.21842468,-0.1287294,0.10714855,-0.02101063,-0.0384747
-txFIHA4ez8,0.06150901,0.00176095,0.0603492,0.02901485,-0.05426556,0.02643527,0.00385678,-0.09589927,-0.05539383,-0.0210651,0.01558072,0.0368761,0.05545426,-0.01833187,-0.02015323,-0.0013958,0.01397305,-0.02029433,-0.0061653,-0.00021932
9LsgBjswQZY,0.01464873,0.0005965,0.0252223,0.0262333,-0.01075202,0.07143904,-0.03622889,-0.00883228,-0.0041415,0.01755921,-0.00374143,-0.00370397,0.0306455,0.00916741,0.05355067,-0.00990874,-0.01520457,0.03557219,-0.09747823,-0.02045845
WEnvorobhEE,0.02052433,0.01374682,0.04378237,0.0297199,-0.03693471,0.09559108,-0.03551218,-0.01207088,-0.0264764,0.01858096,-0.00514628,-0.01219081,0.00444384,0.01220831,0.05173212,-0.02665017,0.00148701,0.01802048,0.00251364,-0.00112496
sjbKZ4CY1Ow,0.02484712,0.00880548,0.05313497,0.02306069,-0.03750512,0.28250034,-0.13465721,0.07473751,-0.0045252,0.00400186,0.00689741,-0.03153266,-0.00928814,-0.00875026,0.10605905,-0.02517553,0.12380365,0.03629069,0.05298723,-0.11319333
NlW_R21cBXs,0.04038942,0.0240258,0.08033367,0.06933149,-0.05632199,0.03302332,-0.00908751,-0.09995007,-0.03880659,0.00859819,0.0719854,0.0327694,0.20645652,0.13209953,-0.11628092,-0.1212982,0.00752663,0.31522453,-0.29150785,0.25209525
r6AB_e8Rk1I,0.1124057,-0.01801325,0.06663345,0.05432958,-0.07537019,0.0597998,0.02004247,-0.16924539,-0.07371616,-0.03153008,-0.06838136,0.27559344,-0.05533768,-0.08499529,0.01008531,0.11382419,-0.01741711,0.02703225,0.00429066,-0.05400083
Vd3Pkc0YGrM,0.15945943,0.14661078,0.08538752,0.07705126,-0.16337768,-0.06157019,-0.00432553,0.16888578,-0.16285353,0.00303306,-0.04311767,0.09151857,-0.06595157,-0.03928347,0.0244579,-0.01873702,-0.05767369,0.02219925,-0.01016643,0.02166145
lWQY5zccbQs,0.0087272,0.00334755,0.02920075,0.01998707,-0.02538273,0.20106407,-0.10515518,0.06247972,0.03568532,0.12899129,0.02381108,0.02112668,-0.03086733,0.06422087,0.06873871,0.01492697,0.12934986,0.0973213,0.19581279,0.1048069
yIUDe9YH0ac,0.01642749,0.00219662,0.03449754,0.01965628,-0.02362901,0.06760602,-0.0346206,-0.00913215,-0.00043392,-0.03990517,0.02538547,0.03111558,0.0024343,0.0023143,-0.00822506,-0.028547,0.02284229,0.03360565,-0.05899277,0.00685689
OuOIrxBXB0M,0.00816649,-0.00082712,0.0123439,0.00840167,-0.01066088,0.0869891,-0.04342139,0.02023604,-0.00133218,-0.03536771,-0.02732342,-0.03890326,-0.00573847,-0.01290712,0.119097,-0.04429313,0.03723625,0.01679959,-0.03614397,-0.13231329
Rvy2kXZpBtM,0.11710429,-0.00091474,0.07387208,0.05503417,-0.0778335,0.03702195,0.03459074,-0.16475856,-0.0770711,-0.01922159,0.05392581,0.0668502,0.0646069,-0.11127544,-0.06566877,0.01689923,0.1090137,0.03168307,0.01455986,-0.09489534
0VjrLsr61pk,0.10257891,-0.01474046,0.09403972,0.0353975,-0.08802072,0.03894932,0.02078857,-0.12786275,-0.02422489,-0.0126521,-0.0214562,-0.02131423,0.15968242,-0.04172736,0.01333448,0.15679949,0.10771699,0.01713819,0.03336363,-0.10901761
na5Enw8P18A,0.01198515,0.01808777,0.02290677,0.01581308,-0.00433327,0.11298934,-0.03127643,0.01738841,0.00042794,-0.04015241,0.00261953,-0.01184538,0.1263008,0.05190447,-0.12626657,-0.11039501,0.02871117,-0.04509542,-0.2865884,0.20836403
TLdMXZSABH8,0.11025643,-2.231e-05,0.14315007,0.0445263,-0.12436168,-0.02147405,0.00034729,-0.1266104,0.0583487,-0.02816252,-0.11393963,-0.10943205,-0.06839456,0.09666,-0.15900818,-0.07686458,0.02099644,0.05240781,0.04709604,-0.0861592
XFpBgNMBNNI,0.01379845,0.00105894,0.0340469,0.0286375,-0.01618651,0.22404552,-0.11438023,0.04094139,-0.00658022,0.13235497,-0.00014691,0.0122308,-0.04760429,0.0478607,0.02987053,0.0494209,0.11304289,0.12179093,0.08533263,0.08531836
Cd5EHfRerGI,0.04406499,0.05215095,0.15328551,-0.0759392,0.04691533,0.27584378,-0.03013254,0.12863666,0.00644809,0.00278445,0.03939701,0.01198603,-0.06087974,0.02082563,0.04546538,0.01294928,0.11428058,0.10623333,0.11139625,-0.06562002
Y9HJ_U3TdXk,0.0104411,0.00656946,0.03818991,0.0084905,-0.01802109,0.14428866,-0.05518145,0.04028214,0.01736553,-0.0621288,0.00333008,-0.00331662,-0.00338862,0.00271738,-0.01820581,-0.00741951,0.02190347,-0.02534301,-0.00752139,-0.00601478
GMXWOLJHnJc,0.01099075,0.01150026,0.0291684,0.01398634,-0.01491519,0.07679346,-0.04645597,0.00889179,-0.00214878,0.02386127,-0.0269288,-0.00933017,0.00974919,-0.03078356,0.07487559,-0.00417073,-0.00935652,0.02775855,-0.04454142,0.00369407
uHXjo7DUAAM,0.01336186,-0.0003973,0.02370058,0.0100423,-0.00760672,0.02412345,-0.01070518,-0.01658403,-0.00785893,-0.00443748,0.01010518,0.02923043,-0.0143757,0.00631182,0.01052349,-0.01361539,0.02029541,0.02550076,-0.02666589,-0.00262779
F1gM7N-WXdU,0.02575755,0.00398601,0.04913286,0.05704908,0.00619005,0.07050699,-0.03915609,-0.00821524,-0.00634103,0.00944073,-0.01792267,-0.03388078,0.03213038,-0.00965814,0.08199347,-0.02467934,-0.02462175,0.03233566,-0.0330569,-0.07067154
U14_qm5y38o,0.06875789,-0.00343531,0.10125413,0.01577882,-0.04429105,0.01254575,0.01402124,-0.06522358,-0.03127523,-0.00412112,0.06886908,0.06709841,0.01799635,0.0256516,0.01490986,-0.13526627,-0.07424992,0.01682029,0.01714568,-0.00888982
VVfMO6SJZLw,0.11083066,0.00768922,0.11105924,0.01828464,-0.05848699,0.05192384,0.09457752,-0.08882505,-0.04118304,0.0229551,0.02056915,0.02128289,0.0472868,-0.02892341,-0.04295348,-0.00443296,0.02601504,0.02356924,0.03436388,-0.07655622
XXZ2wOom1l0,0.09948824,-0.00321305,0.19191157,-0.07950298,0.00900231,0.0067056,-0.03114794,-0.15858245,-0.07437593,-0.01068854,0.04951201,-0.32038448,-0.0747554,-0.03163377,0.00078143,0.11320939,-0.14391955,0.10405395,0.01602705,-0.10501616
kXenRXelpKs,0.00827733,0.00515664,0.02365196,0.01172694,-0.01733991,0.10560162,-0.04873214,0.00982136,-0.02173874,-0.03685304,-0.02031957,-0.03856783,-0.00554943,-0.00537825,0.07705027,-0.00806374,0.0567987,0.00891874,-0.01888163,-0.1121012
rfnB9MhBI44,0.07835239,-0.00622714,0.10317337,-0.00750019,-0.02108828,0.01419721,-0.00827457,-0.09001629,-0.03126682,-0.00513651,0.0145341,0.03670113,0.069342,-0.02764918,0.00016039,0.05598045,0.06764662,-0.00901767,-0.03566185,-0.04242418
x0HFad-M2iE,0.13576859,0.12940716,0.04340492,0.03458251,-0.04714355,0.04666428,0.01639574,-0.14965693,-0.02899531,-0.03481929,0.0553388,0.00831568,0.04104552,-0.0377984,-0.07228007,0.077508,0.12377359,0.02953034,-0.02360592,-0.01962515
bFO0uAMPx1g,0.01415933,0.00488051,0.03091729,0.02394301,-0.02287184,0.1192893,-0.06678884,-0.0001329,0.01348822,0.02518162,0.01176539,0.00380507,0.01107184,0.00604094,-0.06281448,0.02485389,-0.01247671,0.02605966,-0.05149283,0.05655643
MlSS4ZqvJuA,0.11361242,0.15698044,0.1457538,0.10145804,-0.21885666,-0.05955936,-0.01056114,0.16170757,-0.0551592,0.08303388,-0.07065927,-0.04287506,0.19444243,0.05532834,-0.01883643,0.0742643,-0.10867753,0.14164296,0.05649408,-0.07974716
KXpgCNB6Dcs,0.09805234,0.0060566,0.09060054,-0.01545019,-0.02428441,-0.00022925,-0.01018236,-0.09769456,-0.03493395,-0.01699718,0.05244741,0.01668861,0.04146734,-0.05998775,-0.05252748,0.0300377,0.08778734,0.00385265,0.01123843,-0.0324648
rYKQ0Ukxe6k,0.08739797,0.06324192,0.06629184,0.00535129,-0.00498741,0.01649194,-0.00672466,-0.10248413,-0.00206639,-0.00948749,0.0691739,0.03081605,0.03413947,-0.00859316,-0.00181995,0.00838324,0.01475407,0.06635739,0.03910597,-0.0283234
8Uk97zU2GCg,0.04916446,0.01211677,0.03935108,0.02993639,-0.03471832,0.03581395,-0.00066918,-0.10071795,-0.04579322,0.00036565,0.04010485,0.04375605,0.16247855,0.06848675,-0.13208862,-0.00962338,0.04976026,0.2452582,-0.20019379,0.16585098
pGGJHrxn1VU,0.07779914,0.0725208,0.20084092,0.55483523,0.48323176,-0.060088,-0.01859712,0.04993714,-0.02504063,-0.0085602,-0.00897403,0.02224774,-0.01136938,-0.01654084,-0.00115003,0.00749388,0.02479711,-0.00548708,0.03822153,-0.02479494
5BbGrGFI2gQ,0.01553529,0.00864447,0.04072814,0.02989363,-0.02873798,0.02603454,0.01361879,-0.07926733,-0.03868998,-0.03475464,-0.07271848,0.22291642,-0.09146968,-0.03118575,0.01300745,0.08920164,-0.05392543,0.07504406,-0.05018565,-0.01164923
ZhRgnBzcYHQ,0.10408844,0.00574642,0.22427718,-0.00406939,-0.03617868,0.03124469,-0.00458845,-0.18952104,-0.0898922,-0.01470738,0.00801735,-0.0605779,0.03133721,0.03681807,0.07669303,-0.11626523,-0.17441649,0.01508437,0.12623294,0.00315609
XfY_L8MLOsU,0.0150712,0.00863471,0.04924056,0.03163586,-0.03344529,0.18841727,-0.09750339,0.01393413,-0.04256451,-0.11209627,-0.06476108,-0.14026123,-0.02729518,-0.04856484,0.24218745,-0.04235058,0.15850432,0.0266679,-0.04140134,-0.33036854
vd8fb3noIgY,0.29303301,0.76138546,-0.09636187,-0.04540897,0.04690623,0.00460386,0.00384896,0.0427662,-0.06051108,-0.01163009,-0.04367152,-0.01017472,-0.00751089,0.08286833,-0.0159155,0.01049838,-0.00590454,0.0076541,-0.04159682,-0.00226593
q1l42BPzbIk,0.02351728,0.00451166,0.04428979,0.03345793,-0.03092908,0.00194415,-0.02000439,-0.02193169,0.03417251,0.00131836,-0.00575655,0.02345088,-0.01722306,-0.01832741,-0.01133981,-0.03561831,0.02757743,-0.03530719,-0.03128398,-0.04354893
_twN29IEQlc,0.08120657,0.0153042,0.04692293,0.0370315,-0.0502269,0.04003402,0.00311525,-0.12157187,-0.05200466,0.0010026,0.06612309,0.02947921,0.07219627,-0.0651576,-0.06416966,0.05116108,0.08596456,0.01699521,0.02053553,-0.03688781
IldLswg2yAM,0.07220194,0.01779892,0.07633236,0.04870939,-0.06301335,0.05541092,-0.01546344,-0.13168021,-0.02763429,-0.00898427,0.00549963,-0.01871427,0.03423444,-0.08824497,0.0280248,0.02229034,0.01899029,-0.04364019,0.07593705,0.01630246
fr78adfAnuA,0.01824645,0.00968846,0.07809295,0.02366679,-0.03326127,0.33444423,-0.15963779,0.06856676,0.01803389,-0.14397988,-0.09419746,-0.10588696,0.07788855,-0.16850248,0.5334069,-0.12813485,-0.03083054,0.20217917,-0.28159406,-0.11978023
OEqMxMEBQQY,0.0385427,0.01498141,0.09640611,0.04780557,-0.06840465,0.0141386,-0.01695301,-0.12408497,0.03166231,-0.05099542,-0.20634825,-0.0547021,-0.07838033,0.32365299,-0.06162683,-0.10123304,-0.06358238,0.05556462,-0.04451014,-0.11759845
-APimd6TUro,0.08317098,0.04365984,0.29552822,0.66136883,0.44518281,-0.10166166,-0.04477026,0.05646301,0.1715902,0.00720294,-0.06416743,-0.01555895,-0.089772,-0.0486855,-0.06175795,-0.06641343,0.03488917,-0.03103856,-0.02542433,-0.00701527
myMj_ZfZ_xI,0.00934676,0.00752674,0.03649165,0.01906018,-0.02256502,0.28314103,-0.15087231,0.0846577,0.00962739,0.03037396,-0.03922865,-0.0284477,-0.03563233,0.03781704,0.23922449,-0.03835175,0.19363632,0.11288502,0.11524202,-0.12734155
IwjPma4PPTM,0.10655911,0.0191205,0.10748526,0.06444527,-0.10968751,0.05733475,0.05361848,-0.26275992,-0.13680876,-0.05878695,0.11501557,-0.14119786,0.03754721,-0.15489118,0.05177477,-0.04534191,-0.00917438,-0.20367324,0.21535152,0.08972801
sqXsMACtso0,0.04198339,0.01898319,0.10918718,0.01180834,-0.05143651,0.00100908,-0.01459302,-0.07492496,-0.02976524,0.00679761,-0.00141881,0.04029561,0.09727565,-0.0070603,0.04493322,0.11845143,0.04276107,-0.01015947,-0.05203,-0.01618108
UgfrzicHc80,0.02955839,0.01016233,0.12208657,0.27445334,0.18806267,-0.00413129,-0.0300469,-0.01762591,-0.04585242,-0.00479176,-0.00870209,0.04338045,0.04334445,-0.01090355,0.02762479,-0.04398846,-0.04922034,0.00276438,0.01238401,0.01778626
g_7mUw6Xt2E,0.0494885,0.02086293,0.05520785,0.04709686,-0.04204629,0.02223707,0.00151887,-0.06733742,-0.03166159,-0.02186893,-0.04017673,0.01873521,-0.00602735,0.02476665,-0.01831328,0.02296814,0.04127529,-0.02472373,-0.04481531,0.00454637
gPmmDEGCQLg,0.03839478,0.02752762,0.10233184,0.07407362,-0.11193823,-0.01271732,-0.01705013,-0.06915869,0.05664049,-0.05996017,-0.24002658,-0.07604082,-0.15901612,0.25905462,-0.07705275,-0.04101722,0.07255159,-0.02865379,0.01335676,-0.05155427
Xy09nfcwZ3E,0.1350329,0.00703424,0.23642345,0.52084412,0.44904787,-0.05350945,-0.01201536,-0.00219158,-0.00018839,-0.00200735,0.03431877,0.02500513,0.00592921,-0.04865079,-0.02202225,0.01594064,0.01444431,0.00840384,0.04430081,0.00184896
BnAKfe0qGbE,0.10611576,0.03997067,0.14248657,0.015207,-0.09056114,0.01450424,0.03270102,-0.12231419,-0.10464839,-0.03391713,0.0708584,-0.11919708,0.02954543,-0.15933776,0.02898887,0.0536299,0.10977785,-0.13924451,0.03723251,0.05998104
pVXm6lt1F7w,0.18884212,0.14213951,0.19918446,0.05672103,-0.21500636,-0.15728369,-0.07467853,0.17411822,-0.09247878,0.00744838,-0.20841723,-0.11715724,0.11719862,0.10607321,0.08824568,0.08506987,0.07400392,-0.21408491,0.01381859,0.08665376
v3JV42WbomE,0.12702846,-0.00934474,0.11115932,0.06055572,-0.0410189,0.01997093,0.00599673,-0.14882488,-0.10707834,-0.08034723,-0.06142935,0.20408675,-0.16038546,0.01997726,0.09866056,0.04557744,-0.0976077,0.09220894,0.07546179,0.10030214
Hs6RxFMX1i4,0.01419932,0.00661456,0.0334471,0.0279426,-0.02322011,0.08575359,-0.04218468,0.02873029,-0.00951511,0.02245732,-0.05159954,-0.01323395,-0.0355553,0.08127464,-0.01048212,0.00694878,0.03730148,0.01551119,0.03624292,-0.00112564
GmTuhpMe1oM,0.05128652,0.01914437,0.03149695,0.01883914,-0.02274521,0.01312211,0.00553458,-0.07255716,-0.01398604,-0.02376941,0.04478133,0.01536213,-0.00957131,-0.0245393,-0.02717824,0.02127924,0.07728153,0.02131726,0.00485503,-0.00705588
nHH771Vtkxw,0.067736,0.01386491,0.1210624,0.04333201,-0.07002746,0.00103614,-0.00370645,-0.15052203,-0.03988896,-0.09442548,-0.23467569,0.1453548,-0.19583194,0.25836209,0.0013584,0.02289723,-0.09355799,0.13449825,0.07610921,0.03182973
H3lUaL6-XQQ,0.02082462,0.00178349,0.11349729,-0.05665773,0.0183813,0.06936836,0.05737373,0.03497079,-0.01728296,-0.01918335,0.04608506,0.0067774,-0.00510415,-0.01495724,-0.03641973,-0.0295092,-0.00876414,0.02216562,-0.01390214,-0.05388424
Ff0AYRWrnGY,0.01956591,0.00261606,0.04568342,0.02481672,-0.01509264,0.1398105,-0.07031377,0.01855831,-0.01035953,0.07658586,-0.00041363,0.02227572,-0.03048701,0.02909666,0.01871333,-0.00570957,0.08887837,0.05840201,0.10856298,0.10743998
_BhjwaNE8mc,0.11677314,0.16911355,0.12104338,0.10085706,-0.20900911,-0.11692252,-0.06882576,0.18683919,-0.19918955,-0.01889392,-0.0865098,0.07332655,-0.0042248,-0.05423486,0.00523393,0.04490682,0.02903699,0.00895648,0.00764825,-0.04086121
AzNb2nQrM7U,0.03363474,0.00484216,0.04479216,0.03129473,-0.03812811,0.01023523,-0.0191669,-0.01353502,0.021889,-0.00465493,0.01529304,-0.00549591,-0.03820183,-0.01972306,-0.00936381,-0.0454641,-0.01907262,-0.00590565,-0.01981702,-0.02708797
HVPhcOmSMtM,0.15831528,0.03131194,0.12072964,0.10340537,-0.12879821,0.01545031,-0.00697817,-0.15342064,0.05152368,0.00135279,0.10952729,0.02424647,0.0143659,-0.07852763,0.03915491,-0.05842479,-0.05721493,-0.09968763,0.00852035,0.05496776
pdNaIhcp3z4,0.08801314,0.03844735,0.09445072,0.03938044,-0.03008355,0.02661581,-0.0076706,-0.09087077,0.01990784,0.04269949,0.07432009,0.00419821,0.01204399,0.00155681,-0.02881691,-0.12540313,-0.09209146,0.02355629,0.02909761,-0.0219983
_dASAu79K0s,0.00453078,0.00205593,0.02042531,0.01285704,-0.01376094,0.18596804,-0.09678376,0.05458425,0.00893805,0.09532039,-0.01330407,0.01396041,-0.04253806,0.04078745,0.10973494,0.00113292,0.14964185,0.09732549,0.12040757,0.03588993
DB1fSfulSJQ,0.02503465,-0.00042945,0.04656715,0.03618303,-0.01805568,0.26191326,-0.14193893,0.08963127,0.0192725,-0.19377729,0.03153141,0.00771091,0.08062941,-0.07062615,-0.32772161,0.15730094,-0.27352501,-0.14686511,-0.14114009,0.11160055
x3P8Zqux4A4,0.00941949,0.00240515,0.05604288,0.00302741,-0.0040711,0.27045257,-0.12487199,0.11320716,0.05491928,-0.25003617,0.031146,0.01397417,0.08798349,-0.02230987,-0.24696835,0.02199556,-0.15649191,-0.17962741,0.07705282,-0.03808875
0dwlHNDdn2s,0.00707505,0.00249411,0.01942389,0.01537521,-0.00925962,0.01543311,0.00668893,-0.01276085,-0.01196327,-0.01667369,0.01093454,0.00120459,0.00835312,-0.01068994,-0.01949868,0.01597676,-0.02464838,-0.01735563,0.00819643,0.00265439
NM-bwZZoX80,0.0994818,0.02260245,0.15796844,0.11483639,-0.21724698,-0.05173477,-0.05629005,-0.0957141,0.38777348,0.04218421,-0.04749217,0.00613429,-0.09452577,-0.18165182,-0.21419102,-0.2496371,0.25791881,-0.10523612,-0.06526973,-0.1172161
ZOPXzlpBVoM,0.08771564,-0.0346193,0.01128532,0.01746836,0.03051458,-0.00366408,-0.00485261,0.01591325,-0.00392878,0.00123874,-0.01506629,-0.00678654,0.0289842,0.01340295,0.02553065,-0.00334601,-0.01089757,-0.01470727,0.00195052,0.00348348
UszcZZ1QZho,0.08853544,0.11111264,0.05753919,0.04129932,-0.03524917,0.03489198,0.04965291,-0.04039923,-0.05650024,-0.01829898,0.06429966,0.04955203,-0.03302157,0.08244969,0.0852012,-0.07145561,-0.06034416,-0.1399622,-0.05002033,0.05857964
jdrW-vJOD1w,0.11103664,0.03869793,0.09006016,0.06461787,-0.02774537,0.02262984,-0.00240676,-0.15050357,-0.07622504,-0.02831005,0.06482825,-0.00397183,-0.03409918,0.00826082,0.05553667,0.0335954,-0.01805571,0.03738291,-0.048359,0.06039522
dVb9vyCwM2s,0.03836122,0.00490592,0.12426079,-0.04643626,0.01140357,0.07174249,0.05938165,0.02459789,-0.01993031,-0.0234928,0.04680269,0.01861082,-0.01732659,-0.00690682,-0.04733758,-0.01506306,-0.03071476,-0.00117164,0.00885418,-0.07554273
AHyZdLVYJfc,0.06842923,-0.0230074,-8.43e-06,0.00151697,-0.00379058,0.08114301,-0.03166917,0.0383211,-2.392e-05,-0.01351972,0.01593429,0.01544215,-0.03769773,0.02737898,-0.04502278,0.00534396,0.00656836,0.00824179,0.01453215,0.01992977
2JhSWzxzLXA,0.04146921,0.02141691,0.06333182,0.04251818,-0.0437585,0.01263047,-0.00361011,-0.09417861,-0.04176445,-0.01365981,0.05075175,0.05206686,0.04949929,0.03478349,0.02875679,-0.03733611,0.00757925,-0.0652799,-0.05668151,-0.00449218
-IhdnUzV64Y,0.12667903,0.03139291,0.13743253,0.04195727,-0.09410493,-0.02447404,-0.03949609,-0.11201708,0.06523501,-0.00016248,0.05986748,0.04801353,0.02790695,-0.08804038,-0.03569404,-0.03135208,0.05779778,0.06555706,0.01645028,0.00657571
5fKeNMp7F6s,0.01078899,0.00429128,0.04752086,0.03559769,-0.02591313,0.34812007,-0.18043059,0.09711261,0.03063731,-0.02809086,-0.05989933,-0.05277649,0.04168382,-0.07748872,0.32121425,-0.08236023,0.02011409,0.12349587,-0.07927947,0.15421191
4IeYytwcpuQ,0.00930888,0.00402545,0.03313552,0.02592832,-0.017227,0.16771462,-0.0659708,0.01583479,-0.01817691,0.10173919,-0.00778076,0.01061296,0.05933882,0.08432696,-0.01812885,-0.09038105,0.10530099,0.06294048,-0.04074198,0.17643074
95KqKaDsIAM,0.08662537,0.00695963,0.10160149,0.08244289,-0.07057608,0.0370133,0.00341425,-0.13448107,-0.01219351,0.03029202,-0.00328282,-0.02408157,-0.01844825,0.05598177,-0.05399942,-0.00218074,-0.01685957,-0.00970726,-0.0159783,-0.05307389
XX7hskkX1AA,0.11985877,-0.00377385,0.15071431,0.05322003,-0.11564553,0.03289483,0.02583103,-0.17296109,0.03605343,0.02511357,-0.06697162,0.01356318,0.18183456,0.14160171,0.02566146,0.11320652,0.06342025,-0.05919727,0.00851444,-0.06368901
jcfifYFAdpM,0.06963199,0.01291757,0.11534396,-0.01064821,-0.03134824,-0.00196588,-0.009063,-0.14882978,-0.03882873,-0.04489145,-0.03987867,0.30559276,-0.08738778,-0.08247662,0.01851166,0.14578672,-0.04889625,0.08512403,-0.02751859,-0.0282045
51dULrDA8E8,0.12365998,0.05615569,0.06761892,0.04361279,-0.074692,0.01269941,0.01413811,-0.01456702,-0.07822635,-0.02793455,-0.01084257,0.01242199,-0.01847315,0.07299004,-0.01295807,-0.0460348,-0.02855359,-0.00069967,-0.0105773,-0.00205792
rk2b7fH_Gcc,0.08809575,-0.00716842,0.10111529,0.01954573,-0.04766031,0.03687971,0.00108103,-0.14558991,-0.05792034,0.02358834,0.03513674,0.03618507,0.26005029,0.0821191,-0.18679786,-0.10596193,0.03952918,0.33463844,-0.20411436,0.19233346
y3HkZSayX2s,0.04522221,0.01222806,0.06962783,0.04917165,-0.0770896,0.01905043,-0.00903803,-0.05665486,-0.00704946,-0.00168349,-0.06497173,-0.0216592,0.03755324,0.07677816,-0.02121999,0.03427785,0.05471131,-0.00876931,-0.02756477,-0.04163441
HyWpbCUdCr8,1.27287207,-0.51856322,-0.25735962,-0.05869191,0.09622726,-0.00503578,-0.00552397,0.06212195,0.00758686,0.00068454,-0.01213862,-0.00393539,-0.05093713,-0.00845901,-0.02692408,-0.01687484,0.00969085,0.03452119,-0.03214836,-0.00450909
RVu1kgj-miw,0.04794808,0.0122376,0.08403867,0.08207204,-0.04672059,0.02412291,0.00832214,-0.16119041,-0.10566929,-0.10677094,-0.14671385,0.45027966,-0.25340311,-0.04111635,0.09932621,0.15055714,-0.16072003,0.13215425,0.01069291,0.04897071
0EqJD2o-Mnk,0.0092275,0.00422045,0.0335085,0.02613319,-0.02205714,0.15550288,-0.08172623,0.02509901,0.00407143,-0.04099618,-0.05338439,-0.07888185,0.05867055,-0.13543378,0.36127494,-0.09108942,-0.05863276,0.12373479,-0.20266806,0.07247085
UWRxdKxuOb8,0.45870723,1.21990883,-0.25549797,-0.15054262,0.2344596,0.09077552,0.04944976,-0.12679397,0.10633333,0.01586416,-0.2078632,-0.03996432,0.06082037,-0.1249951,-0.00970488,-0.01422455,-0.03290193,0.00709929,0.0535456,0.04923726
M_FKC2NTb24,0.08300504,0.01448522,0.04296376,0.03151416,-0.04508105,0.02407994,0.01517969,-0.08935911,-0.04726033,-0.00966713,0.00582351,-0.00121795,0.0657336,-0.05677933,-0.05510912,-0.00350804,0.0566688,-0.02232025,0.03684634,-0.05060077
0IGNbK4bbXA,0.0820105,-0.0039653,0.07257667,0.05023236,-0.08504643,0.03162233,0.03367212,-0.07996436,-0.08270657,-0.02940099,0.01895984,-0.00784333,0.00073833,-0.0528738,0.04586851,-0.0197734,-0.00166466,-0.06051843,0.02867785,0.04988451
-0FsgHxwxgQ,0.09178326,0.02649446,0.07504805,0.05463279,-0.0951849,0.00390703,-0.00134584,-0.08997809,-0.07145724,-0.02501965,0.04292245,-0.00251927,0.0724133,-0.02120177,-0.10065308,0.0188129,0.09518514,0.04321227,-0.00822525,0.00733431
zyJ1yZwX_tE,0.02050666,0.00271079,0.05180207,0.00376845,-0.00335911,0.12177337,-0.05324086,0.0271025,0.00565517,-0.08387599,-0.01923644,-0.01267008,0.03096451,0.01514186,0.10884513,-0.01187143,-0.01483634,0.05085856,-0.08802732,-0.16358331
SK8tkpErsm8,0.12830403,0.14627393,0.09622221,0.10302114,-0.17562284,-0.10685441,-0.06941126,0.22119983,-0.1021489,0.01666913,-0.09469729,-0.03416652,0.04096921,0.03586824,-0.01736817,0.01192658,-0.04549397,0.00695479,-0.00694918,-0.01500295
Jr9Xm5f44NQ,0.09617086,0.03384437,0.11170593,0.10557185,-0.09975419,0.00196141,-0.03015347,-0.1077902,0.10984846,-0.00605787,0.03316465,0.04297608,-0.01838166,-0.09033807,-0.07566368,-0.10124256,0.07324196,-0.00617731,-0.08141969,-0.06930209
a8LrJMGoVL4,0.09171998,0.04141045,0.12604804,0.06677962,-0.12830621,0.03343407,0.03576952,-0.12231203,-0.09861239,-0.04381267,0.16767028,0.01049369,0.03706866,0.0856791,0.15527482,0.05252429,0.06829682,-0.28991161,-0.01206431,0.09164842
Um1DSnUqmko,1.27287207,-0.51856322,-0.25735962,-0.05869191,0.09622726,-0.00503578,-0.00552397,0.06212195,0.00758686,0.00068454,-0.01213862,-0.00393539,-0.05093713,-0.00845901,-0.02692408,-0.01687484,0.00969085,0.03452119,-0.03214836,-0.00450909
U4gpio58908,0.03362504,0.0055321,0.05205621,0.01608234,-0.03074104,0.13817951,-0.06070382,0.01602693,-0.02216343,-0.0088842,0.01296946,0.00943152,0.00158952,0.04318742,-0.05024424,0.01980459,-0.01036042,-0.06387104,-0.0118257,0.02915581
NuoEsHIW5JA,0.01122686,0.01145535,0.024837,0.01253745,-0.0150785,0.09223336,-0.04293211,0.00354919,0.00593236,-0.05190716,0.00809367,-0.00069667,0.01237378,-0.00448272,-0.03689029,-0.02724425,-0.01979792,0.01036595,0.04357405,-0.00495997
3skIuC1lP00,0.06022128,0.02847415,0.10593621,0.02720045,-0.0664653,-0.01117554,-0.0295333,-0.03104162,-0.04367477,-0.00111622,0.03725696,0.05564624,-0.00714268,0.00958204,0.07267079,-0.03042142,0.00500353,-0.02639475,-0.09750703,0.03385334
yemarhfhVA0,0.01732458,0.00419663,0.03445089,0.02593907,-0.02172287,0.13832791,-0.06142977,0.00735345,-0.02065923,0.04504382,-0.00504684,-0.00407591,0.0003373,-0.01175474,0.11667347,0.01664062,0.01398909,0.05950159,-0.03119948,-0.03301987
01NMf5-J_P4,0.01099093,0.00792869,0.05294959,-0.00454771,-0.00522579,0.2541673,-0.11500823,0.11135919,0.04475853,-0.15403851,0.02897485,0.01700692,-0.02260487,0.06144524,-0.1426389,0.03432228,0.01438421,-0.04630889,0.13080627,0.00725888
cdOcjUyQr8A,0.01071799,0.00537066,0.04591527,0.02683254,-0.00995098,0.12682106,-0.06245067,0.03739087,0.01559005,-0.10874647,0.03787613,0.01504693,0.02545996,0.00170319,-0.09496022,-0.02580959,-0.00365975,-0.03825443,0.01290614,-0.00345925
TekYNY3eGC0,0.04239129,0.00138555,0.06233275,0.00741068,-0.00845897,0.01656147,0.0043881,-0.02596064,-0.02406831,-0.00616911,0.0029718,0.01018237,0.01990487,0.03094456,-0.00145378,-0.03894185,-0.00777791,0.00374746,0.00019462,0.00865416
1lx0bttCAbs,0.18048814,0.08913391,0.11800738,0.0573283,-0.13328412,-0.05229643,0.01071127,0.12727155,-0.11945045,0.0130793,0.00837193,0.04033701,0.06486909,-0.01816468,0.02087805,-0.007586,-0.05318807,0.02514921,9.128e-05,-0.00817275
uvfU2B8b4G4,0.04705846,0.02380375,0.09439349,0.06687657,-0.09248245,0.01445033,0.02061775,-0.13061178,-0.00772367,-0.06814312,-0.15624095,-0.04736518,-0.11611343,0.25597845,0.02859185,0.00374603,-0.03217731,-0.08466305,0.074926,0.02661493
4ZK7Ms4IZ7g,0.02170873,0.00525665,0.05555654,0.01776383,-0.0209345,0.26199175,-0.12243751,0.08916815,0.00475763,-0.18394476,-0.08304167,-0.10556113,0.06727314,-0.15509177,0.46507544,-0.11668492,-0.01495092,0.16157824,-0.27093543,-0.1431037
QSe13hyv68o,0.19468965,0.00126889,0.06715861,0.07754302,-0.07967238,0.02252134,0.02132603,-0.14584005,-0.09830339,-0.09545951,0.19928018,-0.02022959,-0.19937654,-0.01738284,0.03478128,0.02727746,0.12161829,-0.03843564,-0.04798536,0.2316764
4vHF2qU89Jo,0.1512643,0.09384793,0.0570523,0.06455985,-0.08477808,-0.03612371,-0.03368616,-0.03259991,0.13293841,-0.0169308,0.25856466,0.07229891,-0.08982931,0.03906602,0.00898943,0.02903845,0.05692834,0.01941815,-0.01693493,-0.03271167
krqt6eg3UoI,0.09200988,-0.0053276,0.07338668,0.04904345,-0.07450684,0.03609804,0.01897022,-0.10327983,0.00326786,-0.00442374,-0.0266945,-0.02046946,0.17635173,-0.00902394,-0.00583172,0.07586094,0.09335146,-0.0697739,0.01398994,-0.06918076
OWkM5YoEhgM,0.10604329,0.00624865,0.08831147,0.048611,-0.0778209,0.04095353,0.00883085,-0.12874875,-0.03712286,0.02839518,0.00555648,-0.02901544,0.12339359,-0.03182506,0.01136969,0.14510906,0.09252696,-0.04320239,0.00420059,-0.04986236
rhVEOqNhjKo,0.00963551,0.00770621,0.03623164,0.00912196,-0.01382761,0.13921183,-0.07684086,0.02804901,0.02784312,-0.08399531,-0.01769202,-0.01546965,0.01091245,-0.00478633,0.09417947,-0.00165139,0.01041912,0.02162382,-0.09078214,-0.16780772
Cs1nC8kqS5k,0.09354932,-0.01281479,0.10336434,0.0193884,-0.06312086,0.0190257,0.00653481,-0.10084182,-0.00779999,0.00372181,-0.03398286,0.00350451,0.16952906,0.05549396,0.02121658,0.05925286,0.07181683,0.0190704,-0.0396351,-0.03417429
nJ0oh5u6YbM,0.02757392,0.00559081,0.04026714,0.02275706,0.00422788,0.14147641,-0.06892808,0.05070764,0.03583339,-0.09366879,0.0077016,0.01602367,0.00320817,0.04443755,-0.06033144,0.02141827,-0.0445305,-0.05649004,0.05440409,0.04250433
AMpe2jD0lZw,0.15387375,0.18544353,0.14009032,0.1181989,-0.21122093,-0.09709867,-0.05063413,0.10374687,-0.21074613,-0.04896387,-0.16763392,0.008116,-0.0241829,0.14936119,-0.05587019,-0.04874394,-0.03042277,0.03181899,0.05721591,-0.0662755
wB2Kb0MiyAc,0.06039186,0.02807792,0.24121494,0.59055662,0.46131559,-0.05999493,-0.00913796,0.02864002,-0.01528324,-0.01683449,-0.0748883,-0.00680475,-0.03684703,0.07086323,-0.01967539,0.02067556,0.01289135,-0.00748592,0.02063205,-0.04949347
DHk0gFHyHeE,0.2291934,-0.00748877,0.04125612,0.05246858,-0.08938516,-0.0065007,-0.00166458,-0.05132465,-0.1069219,-0.0669942,0.11991304,-0.0801611,-0.14825781,-0.03508216,-0.07520302,-0.04313788,0.17465629,0.03164775,-0.07313015,0.0126311
87jnYKGVetM,0.01207204,0.00790451,0.04341311,0.03388155,-0.02097557,0.20566382,-0.11830664,0.04641614,0.03434807,0.01260081,-0.02391499,0.02226123,-0.03117909,-0.03329603,-0.01986159,0.0493586,-0.06718416,-0.07324765,-0.09550055,-0.08705338
1t2Yd_bmg_k,0.44101213,1.05735193,-0.16128238,-0.07342151,0.09083811,-0.01668151,-0.01555023,0.05228631,-0.07467981,-0.04228034,0.50613935,0.09230268,-0.14682999,0.29408723,0.03034231,0.03215019,0.0908323,-0.02416779,-0.1173338,-0.12448332
OkuWh46I4m4,0.04900865,0.01642437,0.08391548,0.04464007,-0.08762637,0.03806906,0.05258678,-0.11627935,-0.09983912,-0.03561833,0.07756877,-0.05886379,0.0017257,-0.05900068,0.1693558,-0.02836058,-0.09144804,-0.25815586,0.17113141,0.18875002
yawQxLw0K08,0.09809665,0.15219167,0.09886434,0.08029879,-0.18846839,-0.12246915,-0.06777388,0.18704962,-0.1826331,-0.00459197,-0.08137305,-0.01007005,0.03118458,-0.02524724,-0.04356061,0.04725945,0.05279459,0.01649817,0.03103266,-0.00573208
T34ygnCahZc,0.12305547,0.0236684,0.07284823,0.05505966,-0.07621961,0.05075659,0.04630904,-0.15323525,-0.07628658,-0.02899882,0.10469843,0.02128745,0.04469659,-0.08144815,0.00676628,0.06737096,0.09411894,-0.07657012,0.04296181,0.02521835
EXOQ7vN2NXk,0.10175059,0.03725274,0.11004383,0.07934155,-0.13668913,-0.00195564,0.0612459,-0.10420121,0.04395093,-0.03761905,0.01978592,-0.08963994,0.04143799,0.02684754,0.04813518,0.1901481,0.00073295,-0.07056657,0.08399598,0.08882599
CZe8DucT3qA,0.01941217,0.00448947,0.03548159,0.02146415,-0.03178425,0.03390534,-0.00897346,-0.01935236,-0.04156751,-0.02799307,0.02990348,0.0165004,0.0273901,-0.0094097,-0.09277516,0.02760878,-0.04915615,-0.03985142,-0.03722641,-0.00633901
sncgYGQt1T8,0.60727989,-0.20640408,0.0200172,0.01636071,-0.05641531,-0.00694682,0.03126688,-0.06205061,0.05186625,0.01891441,-0.03858721,0.00575953,0.24385167,0.15719348,0.22868823,0.1138294,-0.14049195,-0.24403847,0.14490232,0.03825061
3QRWlCFdzyE,0.44101213,1.05735193,-0.16128238,-0.07342151,0.09083811,-0.01668151,-0.01555023,0.05228631,-0.07467981,-0.04228034,0.50613935,0.09230268,-0.14682999,0.29408723,0.03034231,0.03215019,0.0908323,-0.02416779,-0.1173338,-0.12448332
kLJNcHqVmJA,0.05163446,0.02644127,0.09189198,0.06935066,-0.11854332,0.02157907,-0.04883595,-0.07598713,0.11770261,0.2069396,0.06079435,0.02323972,-0.0652051,-0.05744084,-0.05521592,-0.11875621,-0.06894244,-0.02790401,-0.14333923,-0.00350474
CzIJ566XexE,0.07746124,0.10063462,0.09740462,0.0697611,-0.11697655,-0.00399189,-0.0048519,0.01958141,-0.08348533,-0.03907248,-0.19691082,-0.03250584,-0.11624206,0.21577402,-0.03628354,-0.09357141,-0.04436377,-0.00583488,-0.02193954,-0.02258214
B2ag364pRgQ,0.00780789,0.00651969,0.02073484,0.0176388,-0.01027167,0.07160104,-0.03346874,0.0002454,-0.00159966,-0.00402722,0.00016171,0.00837135,-0.00931833,0.00367371,0.02733116,0.01627877,0.0083476,0.00780439,-0.03222972,-0.06257837
HEW0VJx9iw0,0.00906007,0.00370402,0.04323417,0.00446222,-0.01777504,0.15925539,-0.06399588,0.05631815,0.02797301,-0.17073654,0.01448795,0.00394626,0.06036542,-0.00944983,-0.12235141,-0.019217,-0.07781155,-0.13366668,0.08149163,-0.0696833
IQZiAOokKXo,0.0138671,0.00918359,0.06062376,0.01305415,-0.01938302,0.29885662,-0.14868311,0.10637838,0.072195,-0.19167562,0.04408165,0.00974913,0.02993108,-0.02995663,-0.08702535,0.02733151,-0.03515651,-0.02119324,-0.01483682,0.00805963
LPTQADIf6Xk,0.076788,0.0112042,0.09094572,0.07117122,-0.12108074,-0.02078607,-0.02236556,-0.08609227,0.14617864,0.016892,0.08045583,0.01392652,-0.02305019,-0.0871415,-0.04516007,-0.10894585,0.0246456,0.0221939,-0.05189671,-0.02991214
AYIqxqyY-es,0.06514152,0.01023305,0.05506119,0.03373645,-0.0637977,0.00927227,0.00715439,-0.06242635,-0.02401896,-0.01967211,0.02199856,-0.00579394,0.05658985,0.01312401,0.00196871,0.00454567,0.04235367,-0.03730915,0.02251274,-0.03251335
ZjtJALByo70,0.0672777,0.03565846,0.07194989,0.05392635,-0.07820038,0.01727013,0.01593831,-0.10813163,-0.01035,-0.0348112,-0.04292404,-0.02379455,-0.03905498,0.09674117,-0.02029743,-0.02057401,0.03432132,0.05242315,-0.03181874,-0.03874451
S3JuEF7RQ5k,0.13858934,-0.03289524,0.08147394,0.05176387,-0.08332875,0.05557433,0.05106329,-0.13244416,-0.01113541,0.04140697,-0.00696755,-0.00222526,0.09826621,-0.03052433,0.00820914,0.07994132,0.08750674,-0.08794348,0.02098335,-0.03616818
DQiQ30VepbU,0.02928132,0.01566691,0.06135774,0.04116637,-0.06524598,0.05985576,0.01706259,-0.14198004,-0.03186207,-0.04846073,-0.02630962,-0.121005,-0.15290188,0.17077175,0.10067077,0.01448361,-0.09941624,-0.04682108,0.06039449,-0.09114897
6AKlPLtjBR8,0.02429889,0.00566655,0.05416742,0.02657466,-0.03656108,0.02515651,0.01941661,-0.01082343,-0.01132594,-0.02839031,-0.01719067,0.02865649,0.02202572,-0.04980863,0.0402698,0.01687256,0.03925782,0.07099388,0.0335623,-0.01700973
qsJSGpOs5q4,0.45870723,1.21990883,-0.25549797,-0.15054262,0.2344596,0.09077552,0.04944976,-0.12679397,0.10633333,0.01586416,-0.2078632,-0.03996432,0.06082037,-0.1249951,-0.00970488,-0.01422455,-0.03290193,0.00709929,0.0535456,0.04923726
ckyeC880OPA,0.05656163,-0.00220465,0.08787169,0.03790165,-0.0620597,0.03801612,0.0124777,-0.1179878,0.02188925,0.00172236,-0.03542937,-0.08664967,0.02005518,0.08704048,-0.01556182,-0.01171051,0.00114269,0.0259363,-0.0390894,-0.04599241
ys1zQyiLrMc,0.07382345,0.02966297,0.24103939,0.5874588,0.43510054,-0.07383745,-0.03810553,0.03992892,0.11841462,0.00993158,0.02551241,-0.00144607,-0.02365451,-0.04878028,-0.01519817,-0.03497685,0.03484657,-0.01786095,-0.02784243,0.00735568
0SSctcuOy0o,0.05253845,0.00159287,0.04949679,0.03665116,-0.04391529,0.02199919,0.0118825,-0.06059353,-0.04026211,-0.0201187,0.05060666,0.01596665,0.04181299,-0.01266817,-0.05338402,-0.00019463,0.06847671,-0.00223212,0.00652719,-0.06036511
664cs6FZEZo,0.01580445,0.01207019,0.07026312,0.00809697,-0.01915531,0.37682177,-0.17246885,0.15618725,0.06767947,-0.17287077,0.09151723,0.04786116,0.00525482,0.02234408,-0.24164061,0.02168598,0.03816147,9.643e-05,0.22774369,0.05196937
G9L3zK57X6Y,0.07780463,0.02180515,0.18157058,0.05180492,-0.08995158,-0.03613702,-0.03855725,-0.05744719,0.14942073,0.01030376,-0.12596766,-0.07989194,0.04176612,0.03093666,0.0738293,0.03127023,0.07679698,-0.14293836,-0.01495298,0.07199247
XzkJ2WrHR2c,0.1146378,0.14283164,0.18628167,0.13173043,-0.23936181,-0.07414114,-0.03112559,0.08140062,0.00612092,-0.01121348,-0.14226587,-0.05049221,0.04774978,0.08755149,0.05985011,0.05518254,0.06666503,-0.08762982,-0.07134707,0.07714756
TUSbI3pqiCM,0.11450306,0.01655935,0.13638496,0.09160404,-0.18798366,-0.03918603,-0.02914349,-0.06384682,0.09787552,0.00100067,-0.00975708,0.01625086,-0.0820269,-0.20538066,0.08309993,-0.02783773,0.00726947,-0.10433907,0.01089354,0.05253147
dYJM9jmLBzY,0.03499185,0.02723141,0.07798317,0.0508368,-0.09194077,-0.01957861,0.00892632,0.04070233,0.1165195,0.00039954,-0.05369886,-0.02773555,-0.03002916,0.03488589,-0.04838246,-0.01236573,-0.00671213,0.00085868,-0.00337842,-0.02422334
z-7AhJ55htQ,0.08472604,0.01771268,0.10910934,0.03504017,-0.07456316,0.01793895,-0.00137626,-0.11360724,-0.03878793,0.00114607,0.0382932,0.09938628,0.07758631,0.02629669,0.03297789,-0.06532306,-0.04173306,-0.01420673,-0.02582875,-0.00502971
QDZUOBnmf4Q,0.07443468,0.02535011,0.06709516,0.06477848,-0.04273725,0.02709942,0.01981432,-0.08807551,-0.0878228,-0.06140618,-0.03945445,0.15751212,-0.10991007,-0.03583508,0.04205726,0.06367806,-0.01906089,0.05589643,0.03874519,0.03795927
tg0LuGGeOPA,0.05952016,0.00190059,0.11138953,0.01758969,-0.05183838,0.01840325,-0.00284389,-0.09721132,0.0473862,0.03063444,0.11727305,0.03744422,0.02705261,0.05551698,0.01559095,-0.20510304,-0.16353049,0.05807886,0.03470292,-0.01417578
L8_m7pOI2-A,0.0631675,-0.00804814,0.09085184,-0.00069888,-0.0285639,0.0068068,-0.01883872,-0.06552484,0.00071039,-0.0042932,0.03090147,0.05633818,0.02750652,-0.01477505,0.04182963,-0.00131781,0.07174737,-0.08080335,-0.06727209,0.01031224
Mxv60XerzG4,0.45870723,1.21990883,-0.25549797,-0.15054262,0.2344596,0.09077552,0.04944976,-0.12679397,0.10633333,0.01586416,-0.2078632,-0.03996432,0.06082037,-0.1249951,-0.00970488,-0.01422455,-0.03290193,0.00709929,0.0535456,0.04923726
nZlhHf8vSbU,0.11823482,0.19053548,0.12440606,0.09589899,-0.18879379,-0.061474,-0.04571473,0.10591331,-0.21638201,-0.03324213,-0.10322894,0.02089911,-0.01848592,0.07730548,-0.03241671,-0.00639424,-0.02206793,0.06013725,0.03220291,0.00851626
EZLeWRbCEbA,0.10267854,-0.00398641,0.13232152,0.02032222,-0.06546485,0.04575898,0.02181142,-0.11744066,-0.01256222,-0.00043978,0.03124777,-0.00114489,0.09195482,0.06371102,0.09515896,-0.0759447,-0.10161493,-0.11954535,0.12709524,0.07915004
AXvou3mSGQA,0.05549584,0.01096126,0.06484603,0.04276713,-0.08438748,-0.0025952,-0.02355432,-0.01844156,0.02231007,-0.02678359,-0.07089327,-0.0903073,-0.15785083,0.03361557,0.03511351,-0.05242612,-0.03088917,0.02587066,-0.06681988,-0.07430076
96k8OXI58Ko,0.1205515,0.11042876,0.09072242,0.07401265,-0.16031516,-0.051653,-0.03870197,0.11749158,-0.19376257,-0.01108081,-0.03380718,0.0108381,0.08247113,-0.10378542,0.02542113,-0.00613145,-0.00256742,0.00032962,0.0441827,-0.01759686
rXs8JlFIS-U,0.45870723,1.21990883,-0.25549797,-0.15054262,0.2344596,0.09077552,0.04944976,-0.12679397,0.10633333,0.01586416,-0.2078632,-0.03996432,0.06082037,-0.1249951,-0.00970488,-0.01422455,-0.03290193,0.00709929,0.0535456,0.04923726
67JREKwyixk,1.27287207,-0.51856322,-0.25735962,-0.05869191,0.09622726,-0.00503578,-0.00552397,0.06212195,0.00758686,0.00068454,-0.01213862,-0.00393539,-0.05093713,-0.00845901,-0.02692408,-0.01687484,0.00969085,0.03452119,-0.03214836,-0.00450909
61fk5yAs7Jw,0.06705178,0.02823532,0.24890312,0.66146514,0.56215961,-0.07696001,-0.03165815,0.04547464,-0.0349168,0.0025127,0.04301775,-0.02758886,0.00174308,0.02535819,0.01352817,0.01553,-0.01225071,0.0153781,-0.00206026,0.02068411
3W1KfxQnQiU,0.08424931,0.04866103,0.09404433,0.06958451,-0.10111721,-0.00440064,0.00442003,-0.0483612,0.02297905,-0.01800162,0.30661339,0.06048002,-0.13389614,0.14460642,0.1201585,-0.09512332,-0.03744914,-0.19732182,-0.03544086,0.0761047
I-rogofBX8c,0.00871789,0.00531217,0.01322549,0.00865293,-0.01444673,0.05057365,-0.02430847,0.01084317,0.00354996,-0.00675274,0.00052519,0.00073965,-0.00096211,0.01362103,-0.01262538,-0.00484044,0.01482606,-0.02480744,-0.02196782,0.00839374
uAOfsghz2NY,0.79517591,-0.28052827,-0.0156563,-0.06720663,0.06624681,-0.01896768,-0.00106668,-0.0234339,0.01757377,0.02404092,-0.00849171,0.03359527,0.1263949,0.09374064,0.14268985,-0.04061519,-0.16510393,-0.16223959,0.13657241,0.05103732
NAooB35YkHA,0.08601229,0.04432102,0.07157272,0.05253114,-0.0787179,0.01934932,-0.01055279,-0.14937766,-0.03559037,-0.05086373,0.09196046,-0.02062874,-0.05119283,0.07989282,0.00053474,0.0043854,0.09869895,-0.02035449,-0.05467487,-0.13030145
kkQDCTCcgC0,0.07235752,0.03093178,0.26267836,0.71112675,0.62380382,-0.06115743,-0.04202632,0.04449729,-0.01254742,-8.264e-05,0.04752398,-0.03077015,0.01247357,0.00486472,0.0344817,0.00941149,-0.01211809,0.01803724,-0.00579931,0.01553153
Xf_v62TQOx4,0.00813554,0.00136104,0.01257384,0.01411256,-0.00679825,0.0515803,-0.02866937,0.00723059,0.00233312,-0.01910162,-0.00594124,-0.00294255,-0.00801629,0.01247713,0.04342798,-0.00274514,0.00568291,0.04611866,-0.02135229,-0.0340651
ax0ogeQpq3E,0.18309309,-0.01657009,1.01337324,-0.80815909,0.45834343,-0.14690951,-0.17693828,0.04669439,-0.00738216,0.01977716,-0.02598814,-0.00386191,-0.03336243,0.00298651,-0.01124753,0.00628971,0.00422861,0.00642924,-0.0204904,0.01495904
ERxzxl6fXbw,0.03138227,0.01283076,0.07613773,0.05821083,-0.06485626,0.04004922,0.02589509,-0.14741793,-0.10534613,-0.05590334,-0.09499686,0.31521926,-0.14591183,-0.06115174,0.11097501,0.14156663,-0.10694542,-0.06938128,0.01741982,0.0719597
nLlqkXdlNsM,0.15006875,0.30988066,0.08805897,0.09061521,-0.13979929,-0.08434444,-0.02669846,0.15410542,0.02909295,0.01657515,0.00708639,-0.00607693,0.00969127,-0.09051645,-0.01724809,-0.01573719,0.02612237,-0.00549628,-0.03789048,0.00916383
6-PunI-5Ts4,0.05923458,0.0089232,0.12187909,0.01622485,-0.06867131,-0.01492489,-0.03728519,-0.08367549,0.12083463,0.00395618,0.0425185,0.03641863,-0.02536401,-0.0437761,0.02471061,-0.03597277,0.0452678,-0.0646585,-0.05897417,0.04938146
p5zWy46yWxU,0.00713116,0.00634723,0.02651958,0.01354088,-0.01750277,0.15475503,-0.08190953,0.03746997,-0.00159948,-0.04646252,-0.02976968,-0.0435281,-0.00129711,-0.02014863,0.15752259,-0.01941784,0.0452132,0.01242202,-0.07424604,-0.22457121
iq599kyAjVA,0.01669757,0.01124519,0.04828513,0.01638088,-0.02619414,0.23658798,-0.11952156,0.06108819,0.0010027,0.00528792,-0.00648864,0.00264689,-0.00589722,0.02216303,0.01381016,0.01067364,0.0464761,0.04200116,0.03922194,0.01433108
7m9uIc31Egw,0.06435942,0.0297752,0.15995848,0.05591808,-0.13768017,-0.00698086,-0.01073763,-0.03906164,0.12746573,-0.00563895,0.11525371,-0.00740823,-0.1851003,-0.14220902,0.05956529,-0.16685094,-0.01952034,-0.10121481,-0.06270971,0.12310903
_SdzVNht_nU,0.08355406,0.0682796,0.18641372,0.01906808,-0.09664217,-0.00520332,-0.07448871,-0.11624441,0.15954376,0.02835805,0.03135173,0.09437417,-0.04591541,-0.05085377,0.06704473,0.02397933,0.13251399,-0.17755447,-0.15049506,0.02862006
k0ZYVWoVWAc,0.09001539,0.05841489,0.09120805,0.05501895,-0.11135136,0.02578029,0.0299117,-0.14440033,-0.1207854,-0.05624422,0.00025185,-0.04562789,-0.04490112,0.05378127,0.06536516,-0.03838303,-0.0228176,-0.15604636,0.11102704,0.10109267
5ymn2oV1Zls,0.03677164,0.0222887,0.08298129,0.05428151,-0.0939109,0.00374034,-0.00596589,0.02172059,-0.08813963,-0.01077458,-0.06214353,-0.00635647,-0.00668392,-0.02494259,0.02164423,-0.02640033,0.04434102,-0.04887298,0.06580625,0.01629061
9QKOkpu78CQ,0.07912703,0.01173311,0.14139065,0.06184311,-0.11921791,-0.02072805,-0.035145,-0.10006536,0.13826627,-0.01914315,-0.15402439,-0.02299115,-0.06588717,0.2107031,-0.04105288,-0.15115816,-0.05544629,0.04919794,0.03374643,0.00300819
AxM96v9ZCzI,0.05439978,0.02301653,0.03158276,0.03067052,-0.02901563,0.01722667,0.00647036,-0.10878147,-0.02270999,-0.03055663,0.06356856,-0.03084044,-0.02466683,-0.0502929,0.0056344,0.04389147,0.05480804,0.02013013,-0.00758,0.03320772
AVyYMXc_t9s,0.07134344,-0.00890893,0.06421408,0.0274894,-0.05149211,0.04716754,0.00958845,-0.09610893,-0.06491726,-0.02118506,0.02090336,-0.03849088,0.07880249,-0.1047855,0.00230238,-0.00102113,0.08724097,-0.04718379,0.08145826,-0.0781277
gtdao7DVsBo,0.01269321,0.00951416,0.06049634,0.00684275,-0.01532523,0.31531457,-0.15746651,0.11700568,0.0398942,-0.1845461,0.00370579,-0.00787257,0.02135496,0.03468641,-0.01226874,-0.03002222,0.01604955,-0.05398895,0.10729698,-0.0866993
B18aH00d8oE,0.06191864,0.02819695,0.09046256,0.06775731,-0.08228464,0.03760914,0.02348004,-0.14065892,-0.05346978,-0.01213526,0.04154402,0.04317492,0.09299823,0.03476276,0.0860973,0.00025379,-0.03187594,-0.11530252,0.01509887,0.03132033
lYpHv3Tg0Vg,0.09065794,0.0181263,0.32692381,-0.04117082,0.00389431,0.2676503,0.70537021,0.22961816,0.03839055,0.00839091,0.05210866,0.03729618,-0.084678,-0.04258296,-0.00107241,-0.10865879,-0.07765626,0.07349709,0.00181563,-0.04103478
iS1jGgfO9Z0,0.77337176,-0.2822219,-0.05181793,-0.00227655,-0.01523016,0.00037329,0.01532943,-0.07504401,0.0333283,0.02056736,-0.05369879,0.04244343,0.28355647,0.06691293,0.10681396,0.10374252,-0.03680301,-0.18539093,0.13298228,-0.07502334
Nq-c06vj5PM,0.06823174,0.01939383,0.10435932,0.06738042,-0.11516402,0.00751441,-0.00180753,-0.11231668,0.07557518,-0.03560714,-0.21726659,-0.00279731,-0.0725677,0.2108856,-0.00908528,0.03679222,-0.00435457,-0.00397077,0.01811873,0.02405452
oeymdn1d4qg,0.08890499,0.02191411,0.11064272,0.03898972,-0.07515907,0.03411123,0.01376421,-0.13911554,-0.0341371,0.00334167,0.04930391,0.01928587,0.30141923,0.16047358,-0.24091968,0.00705952,0.07604516,0.42321052,-0.31146888,0.34862816
lvw8Fe5wcBo,0.11771052,-0.01074796,0.05302223,0.04633032,-0.08372272,0.00732479,-0.00090475,-0.07444228,-0.02893301,-0.03447607,0.01215577,-0.24224634,-0.14394459,-0.00882248,-0.01949565,0.15278833,-0.07123264,0.14521517,-0.02649197,0.08027118
-6t20SnbOyc,0.09588341,0.05180935,0.18954603,0.11116798,-0.2041233,-0.03441781,-3.846e-05,-0.06174101,0.17271545,-0.02088052,-0.05321799,-0.05556833,-0.05337493,-0.05649269,-0.06667617,0.00273283,0.15017681,0.03837099,0.01503075,-0.004916
FHeTJmwxo5s,0.16065156,0.2543935,0.12252999,0.11211006,-0.21623461,-0.10834418,-0.0840119,0.15852371,-0.03736189,-0.0001589,-0.04922472,-0.00316861,-0.09984606,-0.05858313,-0.03903697,-0.05831155,-0.02148169,0.05680443,-0.00515768,0.0540527
bouvNyq8xCY,0.00957978,0.00468485,0.02411248,0.01964548,-0.00778118,0.05217854,-0.01863881,-0.01047426,0.00845979,-0.02071804,0.0042434,0.00119233,0.00022818,0.01488789,0.00920812,-0.00201213,0.00941948,-0.00761828,-0.01013777,-0.03615937
DgX6SMZaC_8,0.04432881,0.03657001,0.05398715,0.04541055,-0.04362222,0.00578233,0.00720333,-0.03932463,-0.03521924,-0.00942977,0.01101315,0.04556616,0.01360908,0.00320771,0.02754413,-0.02327348,0.03385802,-0.0128584,-0.00837374,-0.01154895
Qyf99inRvDE,0.13802288,0.01405001,0.15886893,0.00897416,-0.09821102,-0.02382808,-0.02024212,-0.0557789,-0.01607419,0.00163406,0.14960171,0.01790806,0.09504074,-0.01696088,0.0235277,0.02685873,0.04054189,-0.00328282,-0.02116154,-0.10044031
l1-D1s67YU4,0.03261878,0.00970449,0.05594115,0.0448072,-0.04349621,0.04525887,-2.024e-05,-0.09749771,-0.00061342,-0.01591563,0.08767593,-0.06509163,-0.07390774,0.07925881,0.070261,-0.02814853,-0.15849331,0.0442254,0.02050888,-0.14591625
xO5diVmgE8Y,0.00559036,0.00290788,0.01935805,0.01556584,-0.00998876,0.06799559,-0.01117762,0.00132281,-0.00104214,0.00592666,-0.0078298,0.00364104,0.07623232,0.04936239,-0.04915047,-0.08940886,0.0543697,-0.00573406,-0.17005666,0.1219474
BYv6i1MhiRA,0.07589258,0.01812701,0.17658229,0.05667666,-0.05728944,0.18286823,0.59391883,0.20324251,0.07137281,0.02800247,-0.04963444,-0.00897524,-0.01685437,0.05853396,0.03141421,0.01667617,-0.01538444,-0.00674608,-0.04797805,0.04530625
PQOKPfU-zIs,0.14796954,0.11610532,0.13242713,0.03178878,-0.12581842,-0.09186276,-0.06076276,0.08446088,-0.1050645,0.00840762,0.02991001,0.04058874,0.05503108,-0.01822688,-0.0113953,-0.03455197,0.0230745,0.04608746,0.01119118,-0.02406306
nOR-IY0SnEY,0.06809264,-0.00389012,0.06048717,0.05994234,-0.02613734,0.03822184,0.05213886,-0.11809478,-0.02989381,-0.05341311,-0.08501965,0.34977533,-0.16614543,-0.1029102,0.0260608,0.09337136,-0.12099326,0.0480317,-0.02681349,0.01263933
vrW0swCG3Kg,0.01586127,0.00256473,0.05561417,0.02306495,-0.01145805,0.25589296,-0.11978764,0.08044378,0.03019517,-0.12033912,0.00416847,0.02030239,0.03612492,0.00455684,-0.09757943,0.00580517,-0.05258543,-0.05871049,0.03558482,0.09363138
R1iBWKeX42I,0.10355602,0.01674972,0.09382115,0.06796917,-0.1118951,-0.01492567,-0.01226934,-0.09128118,0.16893736,0.00650431,0.13536736,-0.02076753,-0.06734535,-0.04788339,0.01848813,-0.07454073,-0.07744487,0.00910625,0.04576718,0.01375012
5Z4z2oEoxw8,0.10872656,0.00913928,0.16998561,0.05956109,-0.13292438,-0.00559997,-0.02230663,-0.14404194,0.07248287,-0.00299405,0.05517272,0.00703133,0.04240858,-0.15372027,0.06127123,-0.10486904,0.00789109,0.00606129,0.08794551,0.01472291
RBz3O-4xBYE,0.45870723,1.21990883,-0.25549797,-0.15054262,0.2344596,0.09077552,0.04944976,-0.12679397,0.10633333,0.01586416,-0.2078632,-0.03996432,0.06082037,-0.1249951,-0.00970488,-0.01422455,-0.03290193,0.00709929,0.0535456,0.04923726
wJwQm_aqC8U,0.00212294,0.00030018,0.00712871,0.00292892,-0.00325151,0.05455011,-0.02382805,0.02261362,0.00757386,-0.05320456,-0.00030311,0.00459007,0.00395467,0.01425245,-0.01969365,0.01754514,-0.01025019,-0.00602952,-0.038103,0.00593293
XoY4BiK1WW8,0.10514982,0.13103372,0.11532185,0.08306712,-0.18257091,-0.08597827,-0.0412411,0.15578009,-0.1511387,0.00814854,-0.09117319,-0.01754406,0.06820238,-0.05609973,-0.01081073,0.00335478,0.03974317,-0.00315407,0.05923303,-0.00986124
UQXupr6-Wmg,0.00926868,0.00407831,0.03464225,0.02607321,-0.02214764,0.15092218,-0.07335373,0.02179001,0.01056655,-0.06258387,-0.03713507,-0.07151041,0.04947594,-0.12307544,0.33424728,-0.08492141,-0.05389562,0.09469914,-0.20059009,0.05478803
-5kkpHpexIA,0.05797024,0.02432424,0.23473653,0.58566159,0.48813593,-0.03767472,-0.01834445,0.02089911,-0.00742229,0.00896474,0.00113399,-0.01035417,0.02260047,-0.02676786,0.0160335,0.03061895,0.00804311,-0.00357735,0.00241754,-0.01692379
oOLYgK6RqS4,0.00516328,0.00187339,0.01614496,0.0093904,-0.01230478,0.0153118,0.01039485,-0.01441684,-0.00120901,-0.00976414,0.00488488,0.00155033,0.00463222,0.01345025,0.00319926,0.00031352,-0.00297944,-0.00329932,-0.01417537,0.01824596
0xTKuxdSrRI,0.17962015,0.1610272,0.21163164,0.08885489,-0.23590208,-0.11624278,-0.06515431,0.07024082,-0.23237613,-0.03271662,0.00203242,-0.01848594,0.06985618,-0.06892733,-0.02262513,0.05764955,0.14841024,-0.02474712,-0.00717289,-0.02080229
K38w2QlgHPQ,0.11862024,0.09836355,0.07528049,0.0097885,-0.04099871,0.01610233,-0.0102853,-0.11119914,0.09903489,-0.02875113,-0.14690058,-0.03520842,-0.05934128,0.26874145,-0.0311699,-0.03110286,-0.04229188,0.02364484,0.03336221,-0.04974288
IBBboS2nK3c,1.27287207,-0.51856322,-0.25735962,-0.05869191,0.09622726,-0.00503578,-0.00552397,0.06212195,0.00758686,0.00068454,-0.01213862,-0.00393539,-0.05093713,-0.00845901,-0.02692408,-0.01687484,0.00969085,0.03452119,-0.03214836,-0.00450909
L7fVqlOzegQ,0.09154362,-0.00899812,0.09286732,0.03437723,-0.05164951,0.02882118,0.00125875,-0.11878969,-0.02268628,-0.01981301,-0.01979749,0.02715513,0.09867907,-0.01234344,-0.00157328,0.02135208,0.05660572,-0.00990506,-0.01006174,-0.077697
UkbeRKmr5kM,0.11644871,0.02360076,0.41981357,-0.07324932,-0.00115046,0.31566398,0.89544702,0.3152288,0.05505059,0.00885275,0.10644071,0.02945012,-0.02405714,-0.13917469,-0.0678652,0.04009542,-0.00334543,0.16002223,0.05274724,-0.12527429
XV4eV0wnx-c,0.01275378,-0.00130412,0.01890964,0.01230346,-0.01397024,0.15287799,-0.07099162,0.04367908,0.00072556,0.10456112,0.0107109,0.02331861,-0.01952021,0.05449073,0.03386613,0.00569447,0.1419491,0.09394567,0.12563606,0.10596359
N14hiQw7Wdk,0.07309573,0.01536024,0.10516508,0.07737425,-0.08151105,0.02678226,0.00556898,-0.13308554,0.00852325,0.02708222,0.02154074,-0.01884447,0.15752553,0.03199897,-0.01510183,-0.00847991,-0.0654281,0.06574093,0.04830724,-0.03321102
03uRM4Uz5t8,0.15689663,0.2103913,0.17423178,0.08550952,-0.20703,-0.11516905,-0.05672494,0.15858305,-0.154255,-0.0243876,-0.22148839,-0.04299708,0.01636807,0.23674657,-0.02501679,-0.0046238,-0.06261043,0.03969893,0.03343385,-0.00173091
La4ogJrxI0g,0.03406528,0.03127645,0.05490844,0.03959521,-0.03325305,0.0394046,0.00628642,-0.049454,-0.01155829,-0.00735895,0.01124393,0.03305293,0.03020241,-0.01417036,0.05534146,-0.02063635,0.00361683,0.01784514,-0.01740118,-0.00834386
0ShXZN7aHqA,0.09288239,0.00036006,0.10114688,0.06886247,-0.12854207,0.00699066,0.02236507,-0.13899825,-0.00828906,-0.05333709,-0.12374461,-0.06863845,-0.02525477,0.10158445,-0.07064947,-0.01193796,0.13525306,-0.03118625,-0.00037004,-0.05868923
yaBzATxyEYs,0.08057254,0.02310756,0.1022317,-0.00553037,-0.01753835,0.02011214,0.00595295,-0.10511592,0.01522655,-0.00349104,0.08416233,0.04067457,0.05752876,-0.01275426,0.01556616,0.04938049,0.09511261,-0.02816273,-0.09086253,0.0165806
uWOLkr7S47A,0.01199114,0.00540129,0.03973715,0.03374611,-0.02442319,0.1714502,-0.09232714,0.03747217,0.02300501,-0.09847131,-0.00660419,0.02596326,0.02101999,-0.04196988,-0.10707942,0.0254638,-0.13237639,-0.09926136,-0.05818657,0.04512186
MSl5mD3E7PE,0.07402167,0.00653268,0.09169824,0.07637148,-0.1133181,-0.0380777,-0.03757837,-0.0119054,0.24760983,0.07748771,0.03833335,0.04059261,0.00793111,-0.02972849,0.01184184,-0.04391579,-0.08831176,0.04029016,-0.00726753,0.00628881
_O6ICkmg1Zg,0.06418346,0.00694166,0.07836687,0.07703521,-0.0376914,0.0086316,0.01416329,-0.0973291,-0.13945782,-0.0728728,-0.06613723,0.20178512,-0.12716057,0.01689224,0.09842465,0.0405359,-0.12379491,0.12209712,0.0906306,0.11778776
dA8XrnlFY5w,0.05419327,0.00599264,0.09405263,0.02828487,-0.0288503,0.06847514,-0.02055525,-0.16132018,-0.08592308,0.19487176,0.03390354,0.05172339,0.19787531,0.02328566,-0.08051057,-0.46881463,-0.30507002,0.142189,0.14039508,-0.07872067
X9fGa-F_ars,0.03991178,0.00848402,0.05784139,0.03654045,-0.05674962,0.0082023,-0.01907745,-0.04873329,0.03879308,-0.00543351,-0.01194502,0.02628698,-0.00747616,-0.02999134,-0.01476518,-0.00731364,0.02294051,-0.02006274,-0.04245647,-0.05480519
bM3ojc2bhdA,0.04501672,0.02122746,0.05401894,0.03723788,-0.04902301,0.02832501,-0.00964175,-0.10904493,0.00188709,-0.02515316,0.03516418,-0.00222059,-0.03346346,-0.00175837,0.00012876,-0.02677855,0.00959076,-0.01402518,-0.01417262,-0.02816066
pS5AOr4B7hg,0.08232146,-0.00760442,0.07872925,0.029171,-0.06209688,0.01409307,-0.00370525,-0.10293834,-0.03475897,-0.02949916,-0.03208788,0.06169109,0.12337902,-0.06070731,-0.04387319,0.09053701,0.07851491,0.01008574,0.00936706,-0.15911267
1gyuiKoSc-w,0.06759629,0.0208219,0.09326113,0.03145299,-0.05796633,0.03266978,0.04072999,-0.07221757,-0.01946475,-0.00510434,0.04136356,0.0419914,0.00223234,0.08777181,0.01273841,-0.10530665,-0.05037068,-0.00935577,-0.06047927,0.04496033
v8z-clVwRxM,0.17900782,0.02714057,0.13577695,0.10370099,-0.18266678,-0.04000702,-0.01959314,-0.12589287,0.17667638,0.00131608,0.05432586,0.03055128,0.0055078,-0.09462173,-0.11149806,-0.08261866,0.09329143,0.01765855,0.02206813,-0.07932988
PCAPjDDY-h4,0.10259375,0.00281377,0.09886019,0.05085416,-0.09960873,0.04615492,0.02778483,-0.12559882,-0.01717362,-0.00600378,-0.0326905,-0.00476207,0.19518927,0.0468855,0.03496648,0.09802144,0.10779296,-0.02635321,-0.04660777,-0.04654612
u7sbQBw3X3g,0.06081188,0.01788338,0.23864658,0.60168023,0.51278308,-0.06479384,-0.01395007,0.03486851,0.03614065,0.00677641,-0.02167422,-0.02212555,0.05847532,0.00560572,0.01487917,0.06718305,0.03812191,-0.04884799,0.01412253,-0.02547822
s47EWzAbZL4,0.00732153,0.00213337,0.04167808,-0.00414273,-0.00453334,0.18369988,-0.08625469,0.08336386,0.0316966,-0.15977451,0.01796235,0.00728545,-0.01124928,0.04701029,-0.12648262,0.02799833,0.00033046,-0.06000178,0.08930522,-0.03966152
7vdW8a6jEfw,0.02644367,1.213e-05,0.01518754,0.01156534,-0.02126287,0.09759786,-0.0563913,0.05766636,-0.00240647,-0.08580303,0.01999923,-0.00945821,-0.00214708,-0.03856615,-0.07732053,0.05218457,-0.05483348,0.00546919,-0.03018326,-0.02070421
HOwVuamQvTc,0.13210323,0.04534594,0.21998225,0.06099719,-0.12970291,-0.0245397,-0.02508917,-0.11572295,0.0245943,0.02516296,-0.01149262,-0.00462202,0.04155676,-0.10869754,0.00441321,0.09134119,0.15992341,-0.08061687,-0.00463109,-0.00605725
SY53rwqE2i0,0.00979037,0.00459793,0.02369809,0.01427324,-0.02364398,0.01232787,-0.00138469,-0.03798159,-0.02277284,0.01480496,0.02198716,0.02127713,0.02437972,-0.00400797,-0.01057584,-0.02236968,0.001575,0.00238839,-0.01223397,-0.00544396
7u0DJM1SNPs,0.04118055,0.07434685,0.04522787,0.04542456,-0.04123433,0.00806847,0.01222537,-0.00530869,-0.01678994,-0.03821573,-0.08874772,-0.03050393,-0.0436766,0.12646187,-0.01760281,-0.01617514,0.01404178,-0.01183814,-0.03076322,0.0414356
J9p4GMskefU,0.04962765,0.02201452,0.05821262,0.03776419,-0.06696672,-0.00461047,0.01246362,-0.01743583,0.01961722,-0.00300539,0.06450994,0.01282794,0.07028075,-0.02722736,0.02124674,0.08532059,0.00494538,0.05316732,0.05602291,-0.02324533
-tzJJPnAenI,0.11816253,0.02079888,0.33358658,-0.01614782,-0.01708898,0.26404867,0.70781663,0.1696192,-0.03150206,0.01415753,0.03867588,0.01019985,-0.00291912,-0.11062066,-0.00897894,-0.1006023,-0.02629755,0.02979894,0.07856185,-0.01451253
5zwotvZ1rl0,0.04934371,0.03106833,0.06497125,0.03768781,-0.05478534,0.18443388,-0.08316038,-0.08007312,-0.0435659,0.26629929,-0.01076672,0.03596923,-0.0220464,-0.00197219,-0.05772305,-0.00168132,0.01508811,0.03262801,0.05423358,0.05263488
xUWqMdypNsM,0.10841104,0.02108513,0.1450897,0.11619091,-0.14182641,-0.00831715,0.0163921,-0.09718756,-0.01918297,-0.08403143,-0.27157642,-0.1158407,-0.09939005,0.28900762,-0.06808846,-0.03686363,0.03696267,-0.06461535,0.03923527,-0.00764528
Zu3g28TTetU,0.07937143,-0.01155241,0.06990553,0.05122381,-0.05153486,0.04167137,-0.01389841,-0.10383885,-0.0304836,-0.03592663,-0.04533591,0.02146831,-0.04028385,0.0859284,0.02131243,0.00446682,-0.00458476,0.03032255,0.01147274,-0.13728719
6q2ptE-BXIc,0.04844338,0.01354685,0.10023377,0.08209991,-0.08951135,0.01879895,0.00738307,-0.23699106,-0.09208676,-0.11728991,-0.2311783,0.55884533,-0.24353409,-0.03152501,0.01798497,0.25471272,-0.16068994,0.17783141,-0.0572666,-0.06906254
Wj8owIKaQKQ,0.00834202,0.00793539,0.03518397,-0.00149464,-0.00899291,0.15267749,-0.067724,0.08204486,0.02919886,-0.13408473,0.04961428,0.01184306,0.02028735,-0.00268998,-0.14216441,-0.00581097,0.00349354,-0.01948054,0.07975588,-0.03562032
_QHAqfILwPk,0.18309309,-0.01657009,1.01337324,-0.80815909,0.45834343,-0.14690951,-0.17693828,0.04669439,-0.00738216,0.01977716,-0.02598814,-0.00386191,-0.03336243,0.00298651,-0.01124753,0.00628971,0.00422861,0.00642924,-0.0204904,0.01495904
evVs-Jtor50,0.00617061,0.00279548,0.02201405,0.02004401,-0.01280523,0.08096016,-0.04158681,-0.02325817,0.01850979,-0.01907285,0.01086983,-0.00430736,-0.05943246,0.09693583,0.05283202,-0.00197881,0.00032102,0.05289933,0.06357851,-0.16332387
5ov8sBSV-pc,0.04221696,0.03360877,0.03984829,0.0215779,-0.03659633,0.03197013,0.02914029,-0.08304896,-0.03570072,-0.03034584,0.02132344,0.03422882,-0.04554198,0.00042973,0.08843351,0.02618857,-0.05081268,-0.10295444,0.05632837,0.11247535
9361MUAmA24,0.0761437,0.0868591,0.08480035,0.04778005,-0.10190839,0.0054099,0.0063665,-0.00480451,-0.15620973,-0.0446967,-0.01746723,-0.0014495,-0.04554846,0.0788323,0.15057995,-0.05854481,-0.08978927,-0.18316121,0.07992679,0.1966904
oXKkhajzwgE,0.03125582,0.00951301,0.0684391,0.04446861,-0.07382571,0.01519541,0.00645593,-0.18585013,-0.06897463,-0.09737447,-0.18708704,0.55727364,-0.31866279,-0.11488554,0.04605098,0.20515794,-0.20913469,0.1277762,-0.02648878,-0.00161572
zEUstENVghI,0.73547793,-0.27813505,0.06693192,-0.11225526,0.06673401,-0.04334033,-0.0209956,0.00023376,0.07552916,0.04207231,-0.10081348,0.00903988,0.23731154,0.17448986,0.2128611,0.08649657,-0.14958956,-0.21127296,0.10661174,-0.02989534
PfdNPN9Jv6s,0.45870723,1.21990883,-0.25549797,-0.15054262,0.2344596,0.09077552,0.04944976,-0.12679397,0.10633333,0.01586416,-0.2078632,-0.03996432,0.06082037,-0.1249951,-0.00970488,-0.01422455,-0.03290193,0.00709929,0.0535456,0.04923726
