video_id,lsa_1,lsa_2,lsa_3,lsa_4,lsa_5,lsa_6,lsa_7,lsa_8,lsa_9,lsa_10,lsa_11,lsa_12,lsa_13,lsa_14,lsa_15,lsa_16,lsa_17,lsa_18,lsa_19,lsa_20
wmeUOPjA_qc,0.01766635,0.01249187,0.05307068,0.02096049,-0.0194457,0.19980339,-0.07767667,0.01880652,-0.00569853,-0.05796934,0.03474781,-0.00266909,0.00126503,0.01561796,-0.01458191,-0.08711239,-0.16882513,-0.17397654,-0.04428087,-0.08917734
MjWI_rWQL68,0.01455457,0.00922839,0.0467138,0.01239297,-0.02153663,0.1524167,-0.03590286,-0.02776925,0.03172226,-0.37387384,0.38373449,0.16223651,0.02204456,0.01419257,-0.03634369,-0.146929,-0.01611366,-0.05276217,0.18838629,0.02462128
TG39Ow5fepA,0.01517737,0.01200795,0.04353116,0.01671066,-0.02381611,0.15905034,-0.0235494,-0.0377435,0.04259781,-0.42144805,0.43580721,0.1823778,0.00968371,0.0147951,-0.03609114,-0.16819538,-0.02375172,-0.03544871,0.171734,0.06700788
B9ocddyGfo8,0.01165838,0.00152473,0.03384142,0.02752437,0.00568391,0.13012703,-0.05602335,0.0139606,-0.00047426,0.00310233,-0.03136426,-0.01762145,-0.00259441,-0.01208667,-0.01435303,-0.05418203,-0.12243885,-0.09814603,-0.04700639,-0.02704506
k8j-6Xvw_G4,0.00357982,0.0011479,0.01102991,0.00326718,-0.00790474,0.00890423,0.00386972,-0.00093385,-0.01128901,-0.00018221,-0.01126617,0.02654099,-0.01361289,-0.02290166,0.03359843,-0.00056571,0.06551955,-0.04833614,-0.02206373,0.02505786
lDyiY5vjqaw,0.01479053,0.01186369,0.03059215,0.02036604,-0.00090831,0.06896235,-0.02348864,-0.00621912,0.00211785,0.00230491,0.00420674,-0.004645,0.00264928,0.00166363,-0.00109726,-0.01854172,-0.00697837,-0.01340023,0.01984179,-0.00813316
T_LWKGJDKgo,0.01832895,0.01395004,0.05086649,0.02210069,-0.02609024,0.16639695,-0.02797552,-0.04617571,0.04433987,-0.47956169,0.48729581,0.20907462,0.01124416,0.02073421,-0.03779928,-0.18635337,-0.00833619,-0.03595694,0.20795409,0.03849312
0idqiLonGYI,0.06014356,0.081843,-0.01648712,0.00407715,-0.00530373,0.06360534,-0.02660827,0.04844164,0.02895441,-0.00989283,0.02877888,0.02560041,0.00649247,0.01898419,-0.01303129,0.01675222,0.01326038,0.05439376,-0.02908841,-0.01665998
NdU6UdUKaYc,0.01023694,0.00600705,0.05267048,-0.00696511,-0.00317575,0.26651351,-0.10890375,0.07450524,-0.00509989,0.08800164,-0.06001614,-0.01445086,0.00869987,0.017309,-0.01570493,-0.02065766,0.10718572,0.14943786,0.16624543,0.07343525
5EWqr_Y2uH0,0.0167887,0.00784588,0.04048377,-0.00157302,-0.00668878,0.06232277,-0.01773663,-0.01462969,0.02645716,-0.00685203,-0.03019993,0.01419206,-0.00106015,-0.040846,-0.01458574,-0.01171519,-0.1029811,-0.07372771,-0.04974486,0.00628186
4m_M1Wpnr2Q,0.01233476,0.00475685,0.04209202,0.01523099,-0.02307208,0.11378701,-0.04597722,0.00543339,-0.01207175,-0.01570011,0.00044705,-0.00126028,0.00316069,0.01916897,-0.00412191,0.01212853,-0.06436122,-0.13343921,-0.0312463,-0.04518426
QPWScf-86po,0.02547627,0.00813951,0.05362025,0.01754361,-0.02796538,0.18952646,-0.06880667,0.05066288,-0.00530184,0.02316522,-0.00892907,-0.00083792,-0.00625106,0.01142675,-0.02065838,0.0043097,0.03552103,0.0994396,0.09205084,0.04919463
BAORYfrrBzc,0.0073403,0.00544603,0.01757397,0.00613403,-0.00851398,0.06546377,-0.02501397,0.01599478,-0.00140797,0.00317408,-0.00361439,0.00397502,-0.00491017,-0.0064003,0.00438988,-0.00701077,0.0190825,0.02584065,-0.01774886,0.01768374
PGBt4pOj4Vc,0.05392617,0.02316482,0.13460622,-0.00053126,-0.04178171,0.01686593,0.01727834,-0.08900656,-0.01872398,-0.0196947,-0.01580335,0.09247389,-0.0658007,-0.00992553,-0.07725372,-0.00418196,-0.03785951,0.0827657,0.00021851,0.00766953
9iKWeo8sWh4,0.01659288,0.00649708,0.03977921,0.0100007,-0.02385721,0.11609813,-0.04141931,-0.00047305,-0.01238624,-0.0552475,0.02849479,0.00332282,-0.0117587,0.0344178,-0.00956398,-0.04467125,-0.10194781,-0.21222139,-0.01621574,-0.08464157
U5l0Z8T4tCk,0.00155996,0.00195764,0.00474725,0.00531816,0.00395901,0.00392372,-0.00069818,-0.00545405,0.00063658,-1.097e-05,0.0007802,0.00374267,0.00715181,-0.01010063,-0.0092303,-0.00379058,-0.00559636,-0.00552579,-0.01169941,0.00828598
OrI86PV-aPg,0.0756346,0.01684457,0.10491145,0.03794885,-0.09148486,-0.02024332,-0.01511861,-0.06318405,-0.01294122,0.12504994,0.11804087,-0.02122554,0.08889034,0.01846798,-0.05136186,0.05360494,0.02307423,-0.01940471,0.01276343,0.07096293
SVTPv4sI_Jc,0.01795564,0.00311143,0.03835588,0.00121784,-0.00659856,0.11121109,-0.03368354,0.01687025,-0.00925779,0.05545453,-0.04349717,-0.01476978,-0.00724597,-0.00955951,-0.00361499,-0.02244373,-0.0331651,-0.03463624,0.01898855,-0.0294002
4yDM3ZFcQm4,0.00617685,0.00351189,0.02685375,0.00791178,-0.00843242,0.21074283,-0.09021553,0.05043571,0.00485667,0.00128532,0.03108064,0.02659885,-0.00875399,0.01592166,0.03503757,0.10647064,0.03889214,0.09250427,-0.09696868,0.00706718
fRjAMALJ0r0,0.05174429,0.02208408,0.10474417,0.04178145,-0.04198567,0.03943496,0.02540821,-0.08572105,-0.03323538,-0.05603227,-0.09480465,0.06709898,0.20663104,0.07188702,-0.07378385,0.04756443,0.056935,0.15565245,-0.10770218,0.00346949
Rij6WQMuxcw,0.05773302,0.0780714,0.00952047,0.01492024,-0.00813133,0.2455038,-0.10488457,0.08942942,0.03951744,-0.03128573,0.08495979,0.06736095,-0.01010895,0.04752387,6.154e-05,0.05348218,0.02300448,0.11039516,-0.22965173,0.01373768
n2T6AOoUkOM,0.01248671,0.00933448,0.0432231,0.01524827,-0.00781215,0.18084759,-0.07483358,0.01822618,0.00770057,0.0185197,-0.03166498,-0.03026027,-0.00527521,-0.02478572,0.01099099,-0.05140923,-0.11132017,-0.05848898,-0.06019002,-0.00148331
P1DSZNhApJA,0.02680524,-7.658e-05,0.062696,0.02778208,-0.05587499,-0.00044531,0.00523405,0.04004009,-0.07227264,0.00216663,-0.05087914,0.128113,0.00168893,-0.12786713,0.07235174,-0.06853711,0.291049,-0.15850826,-0.10449836,0.06463636
gpfhjHmbmIE,0.07455689,0.07970745,0.13357097,-0.05972713,0.01640644,0.06041859,0.06646108,0.00097577,0.01968432,0.02060461,-0.03861503,-0.05955619,0.06626471,-0.08087091,-0.10655747,0.00818849,0.01413764,-0.10298521,0.13370858,-0.03911569
1_H80JEZ2ko,0.03843386,0.03304739,0.03699239,0.01151849,-0.02771532,0.01836958,0.03489061,-0.05656194,0.01183319,-0.01773148,-0.02955497,-0.02092921,0.02194336,0.02537152,0.02664328,-0.00315493,0.02657269,0.00431904,-0.00664127,-0.03353616
V6VQ54eTok0,0.00547332,0.00238825,0.02441191,0.00791853,-0.01010641,0.13024555,-0.05694693,0.0247386,-0.02442292,0.0405377,-0.00717474,-0.01824855,-0.03227064,0.01261241,0.03271273,0.18215336,-0.05127672,-0.07469012,0.01738882,-0.08178614
WOTUpoI2LQA,0.03656421,0.02977418,0.07677204,-0.03379933,0.00698706,0.00814361,-0.00963262,-0.03438265,-0.00670874,0.01015959,0.00244651,0.01324173,0.0574906,-0.03259911,-0.02238584,-0.01628794,0.0157538,0.03723854,-0.02825166,0.00066915
qgzwtKsXCMo,0.00701576,0.00313181,0.02200785,0.00611029,-0.01566602,0.01778647,0.00256595,-0.01242883,-0.00440956,-0.00646907,-0.00944566,-0.00131731,-0.01732356,0.00640991,0.01910065,0.00598237,0.06792459,-0.02121263,-0.03383123,0.02272178
OTt76d3wPiQ,0.07873984,0.04505507,0.09443619,-0.00134627,-0.03512256,0.03905022,0.04807515,-0.11965604,0.03462375,-0.03182902,-0.02308906,-0.02327518,0.05908475,-0.04021451,-0.01408044,-0.0435557,0.0510464,0.11266706,-0.05647064,-0.03606032
5LJ1cxjQhyE,0.02198683,0.01539721,0.03402023,0.01639676,-0.01653244,0.06862223,-0.02185215,-0.00305002,-0.00654983,0.01797383,-0.01256744,0.00675675,-0.0036671,0.00163053,-0.00559158,-0.04616606,0.0093267,0.01860739,0.02222775,0.03784785
4s9LuOSR3Q4,0.01441206,0.00659275,0.03135145,0.00737621,-0.00775338,0.20135926,-0.08578434,0.04871138,0.00642244,5.57e-05,0.03025169,0.01654209,-0.00192708,0.03066739,0.00879351,0.01818156,0.0165345,0.09487591,-0.14304229,0.05075852
vmRbevilfpU,0.1049142,0.06513784,0.07631187,0.02031129,-0.05951911,0.01025252,0.03482266,-0.12813329,0.04563389,-0.0256332,-0.01406567,-0.11335963,-0.04147252,0.07789219,0.03158611,-0.03593123,0.07586599,-0.03735856,-0.00203062,-0.08473038
6dt3fd17_d0,0.14801313,0.00777653,0.20131709,0.02878491,-0.14272767,-0.04142747,-0.0262319,-0.05731512,-0.00694319,0.19894377,0.16649581,0.02012209,0.05581707,0.02071036,-0.06124905,-0.07504141,0.07788049,-0.03341485,-0.01178788,0.00794155
ksn5yrsC3Wg,0.02120525,0.00725438,0.05465217,0.01167937,-0.01581459,0.23657324,-0.08540532,0.0464923,0.00975055,-0.00251029,0.06821314,0.03323125,-0.00076331,-0.00947708,-0.00715459,0.12305314,0.04211174,0.0620513,-0.03072265,0.00326785
IEJALLQFmDs,0.0089623,0.00198127,0.03196423,-0.00812123,7.66e-06,0.13254203,-0.05052193,0.03350914,0.00043676,0.05997574,-0.05405613,-0.04302126,0.0064659,-0.02441857,-0.03018366,-0.06024916,0.05425555,0.07643449,0.11681528,0.04086295
66gMxbNKaYA,0.10516739,0.13571625,0.06956682,0.02610525,-0.06541163,0.01859597,0.042658,-0.09168548,-0.01159693,-0.023134,-0.03319734,-0.06205659,0.03038096,-0.10119467,0.09286143,-0.01678646,-0.07158041,-0.12210866,0.08204674,0.01018087
FMdrD_jcYgE,0.0121808,0.00560327,0.04202693,0.00995957,-0.02307893,0.14673353,-0.05575379,0.01770329,-0.0027425,-0.0216524,0.01894119,0.02994176,0.00103861,0.00711696,0.02469539,0.1248287,0.03100826,0.09165683,-0.0351974,0.01727276
dqazxW8R5BY,0.00412393,0.00199595,0.01739684,0.00415078,-0.00722883,0.10199299,-0.03981307,0.02687302,-0.00506294,0.01985488,-0.0154171,0.00280827,-0.00353552,-0.01466096,0.00203816,0.03194399,0.01590254,0.0030372,0.0052355,-0.02840742
mK3xENFCGnI,0.07191251,0.0540763,0.11874524,0.02479435,-0.06360074,0.02694344,0.05371869,-0.1250747,0.01509902,-0.01639957,-0.01726144,-0.07487965,-0.05227141,-0.0556221,0.15759859,-0.10973109,-0.00749362,0.00843182,0.01281921,0.01035295
GDex3WIPF7c,0.01299527,0.01036773,0.03691308,0.01533011,-0.01029156,0.16530773,-0.06825296,0.0205028,0.00725962,-0.05895191,0.09557302,0.05955341,-0.00799317,0.03237848,0.0394362,0.14717647,0.02663691,0.05216307,-0.102818,0.00531189
Su0aCV35IFM,0.01093646,0.00738267,0.03969581,0.00784334,-0.01182095,0.26399833,-0.11561837,0.0623668,0.01157045,-0.02268857,0.09902966,0.06922866,-0.00498346,0.04856971,0.05589516,0.24355687,0.07928573,0.14316439,-0.17162497,0.00820276
3PZ3d4eNWrc,0.01534053,0.01325693,0.04889,-0.00067925,-0.01100126,0.24265467,-0.10211885,0.06554397,0.00316945,0.10479329,-0.07905167,-0.02448558,0.01877784,-0.00615516,-0.00882954,0.07110302,0.08591844,0.18714584,0.2670585,-0.02720083
Z50QkVZcP1k,0.0427481,0.04132072,0.06708269,0.01830234,-0.04294491,0.0197811,0.03250831,-0.06276036,-0.00503745,-0.03873884,-0.02307863,-0.03811225,-0.03961945,-0.02456636,0.14101336,-0.01974802,-0.019341,-0.02262059,0.03535526,-0.02026168
MOrBFf1DVvs,0.01653579,0.00914911,0.03595929,0.01476893,-0.00998871,0.15619451,-0.06722459,0.02154928,-0.00503422,-0.02491534,-0.00113699,0.00054849,0.00673659,0.00371701,-0.00903516,-0.06705145,-0.1081724,-0.12835073,-0.04118607,-0.03321215
7Y7Iv5XAXwI,0.01706863,0.01080862,0.04360172,0.00845537,-0.02209798,0.12560583,-0.04435772,0.01279659,-0.0061722,-0.08034445,0.05219151,0.01173808,0.00618737,-0.00523128,-0.00826926,-0.04455729,-0.06958628,-0.10352861,-0.02981026,-0.02959014
jKTNMlUEdgU,0.00041063,0.00020944,0.00185104,0.000827,-0.00025717,0.00684623,-0.00293855,0.00077208,-0.00016491,0.00156808,0.00063624,-0.00033664,-0.00099024,-0.00117145,0.00022499,-0.00098147,0.00132757,0.00189912,-0.00265355,-2.739e-05
jLFG_FZKbks,0.0211835,0.00812862,0.0644033,-0.00849546,0.00054704,0.2128397,-0.07855855,0.04297023,-0.00990407,0.07046115,-0.08859426,-0.03632754,0.019725,-0.02026096,0.00316642,-0.14027747,0.05628479,0.04524184,0.06365538,0.07509574
33HT7CnI79k,0.00690319,0.00402468,0.02840152,0.00945776,-0.01097043,0.20699907,-0.08728984,0.04334492,0.00255022,-0.01456596,0.06410318,0.07064151,-0.02099494,0.04958984,0.0327725,0.20779113,0.03633691,0.09100399,-0.13111611,-0.01335189
Hk-ARbCTKzM,0.01936988,-0.00036825,0.04093492,0.0127227,-0.00746338,0.17262373,-0.07470026,0.02790384,0.00655783,0.04449573,-0.06054432,-0.01479511,-0.02840495,-0.02690586,0.02802652,-0.07239073,0.02648185,0.05799202,0.06081279,0.10153224
0y8vRPcSvbw,0.01846815,0.01421404,0.04675888,0.02038086,-0.01982946,0.137056,-0.04216329,0.00623408,0.01175552,-0.00565033,-0.02140576,-0.0043578,0.00567972,-0.03027482,-0.02155596,-0.07132385,-0.11273604,-0.09441929,-0.06667218,-0.02056571
FCaTFLdtsco,0.02587995,0.02093533,0.05522732,0.00747684,-0.00675737,0.31503694,-0.13158558,0.06999708,0.00227547,-0.01112029,0.04900825,0.04118843,-0.02022745,0.03302358,0.07401894,0.13937899,0.0302504,0.08320616,-0.20730488,0.02646877
AtSQBfBK6HE,0.01603122,0.00729244,0.02822784,0.01117051,-0.01131519,0.17535692,-0.06927843,0.03945727,0.00173459,-0.0121311,0.06368057,0.03243252,-0.00393741,0.03276858,0.0294857,0.14948038,0.01728168,0.03575805,-0.12198613,-0.01051436
SAtFZPtbMpI,0.00693033,0.0054362,0.01801042,0.00326174,-0.00615373,0.02693602,-0.00279176,-0.00725562,-0.00109283,-0.00014962,-0.00625638,0.00063173,0.00251986,-0.00732198,-0.00738268,-0.00278879,-0.01039921,0.00742786,-0.01898111,-0.00143603
fuxYQrqkfns,2.389e-05,2.89e-05,6.968e-05,1.351e-05,-4.677e-05,0.00010029,4.54e-05,-0.00028578,5.963e-05,-0.00028376,-7.89e-06,0.00013782,-0.00013657,0.00090386,-0.00081135,-3.114e-05,-0.00031844,-0.00033831,0.00074845,-0.00058604
W65cfPslnzo,0.01075232,0.002664,0.02748748,0.00925371,-0.0125379,0.12036217,-0.04425002,0.01994546,-0.00092791,-0.00980147,0.02861397,0.0145372,0.00240575,0.01223975,0.02103833,0.00377378,0.01617508,0.01594044,-0.02716596,0.02613148
iBpxQpktHN4,0.00359157,7.931e-05,0.01084736,0.00298382,-0.00838906,0.02643557,-0.01767077,0.01580522,-0.00693285,-0.02679688,-0.00488703,-0.01146409,-0.00328423,0.01257675,-0.01755981,0.00087678,-0.01980077,-0.04070501,0.01164633,0.00499743
Czf68kDF_7Y,0.00951839,0.00471704,0.04090081,0.02062139,-0.00901069,0.20003522,-0.08714681,0.04061676,-0.01035278,-0.00093986,-0.00769521,-0.00729459,-0.01799955,0.0150448,0.00966196,-0.09221006,-0.18067728,-0.18207043,-0.09464763,-0.07865528
KUvWaj4IFZg,0.07230271,0.04336391,0.02626043,0.01844981,-0.00504488,0.01695379,0.01222229,-0.05041013,0.00606125,-0.01893449,-0.0090449,-0.02980968,-0.03497245,0.0208941,0.0225789,-0.01016447,0.00994688,0.00921967,-0.02739424,-0.01761062
k3wiE1KtSW4,0.06477708,0.01854457,0.03859069,0.01113758,-0.02900599,0.00389991,0.01332808,-0.07792262,0.04522904,-0.0001822,-0.00238616,-0.05082782,-0.05521689,0.06638301,-0.00445482,-0.01498768,0.04675804,0.02716696,-0.04284391,-0.0511024
A2O_CSDImRs,0.01748055,0.00930088,0.06643015,-0.01789523,0.00704138,0.36509681,-0.14602333,0.1140367,0.00842788,0.10710504,-0.06682943,-0.04024078,-0.00118613,0.01320406,-0.01149717,-0.06916009,0.09090726,0.18708562,0.08069379,0.0873401
ydRguU_cH8Y,0.01491616,-0.00300349,0.02642573,0.01119128,-0.007651,0.13341185,-0.06155621,0.04452443,-0.00453668,0.07287959,-0.06664358,0.00230148,0.03843947,0.04428561,0.03111943,-0.04623312,0.11102542,0.07677177,0.12487381,0.07740304
reCJ5EuvukI,0.01667845,0.01398001,0.02295225,0.01000873,-0.00440149,0.06752586,-0.02169126,0.00530591,-0.00590053,-0.00642703,0.01848472,0.01116736,-0.00218259,0.00591144,-0.01029575,0.02452246,-0.00774601,-0.03074146,-0.01601701,-0.00302846
pG99B0ui06s,0.00655989,0.00277034,0.02490505,0.00579179,-0.01361344,0.10980597,-0.04444309,0.02425031,-0.00149301,0.01816074,-0.01958758,0.00196793,0.0042008,-0.00668389,0.0094785,0.1184649,0.02833306,0.00098842,0.02108706,-0.05924791
eOI7WQIEX1Y,0.05026388,0.05832727,0.06582971,0.00853975,-0.03234261,0.03068171,0.02283067,-0.08349254,-0.00091445,-0.00837791,-0.02216708,0.00072853,0.11224199,-0.02691382,-0.00053534,0.03141985,0.0045827,0.01755468,-0.04226034,0.02720865
a1aFhMw2wQE,0.14772008,0.02831506,0.12105549,0.03978102,-0.13595051,-0.03911682,-0.03907636,0.02303347,-0.0298557,-0.12957487,0.02289927,-0.1045261,0.02465022,0.00782169,-0.07251701,0.002647,-0.01765402,-0.02870812,0.05951818,-0.02418333
VVLYJf2t88c,0.0418652,0.02116521,0.12149453,0.01259778,-0.04751044,0.03275111,0.01586401,-0.12856882,0.00889223,0.01933528,0.04033155,-0.02138178,0.06333844,-0.0762187,-0.08050929,0.03286293,0.04287998,-0.03282129,-0.01010835,0.09963472
pXI3xinu4bc,0.00799961,0.00379288,0.03332452,0.00740739,-0.00556757,0.1202489,-0.05337143,0.01735211,-0.00775494,0.03853915,-0.04685371,-0.01402361,-0.01990395,-0.02920884,0.03290343,-0.08649536,0.01646744,0.04019488,0.07745847,0.0888086
snM0UfZxakc,0.02057844,0.00224219,0.04561664,0.02303471,-0.00760276,0.16341576,-0.05511092,0.02138835,0.00226842,-0.02740798,0.00696558,0.01326359,-0.00864609,0.00531118,-0.00094822,-0.08192816,-0.14582281,-0.09024597,-0.10889048,-0.02579587
mpZK1dqX6aA,0.00140609,0.00129788,0.00307401,0.00123046,-0.00094741,0.01342724,-0.00433323,-0.00118385,1.893e-05,0.00087624,-0.00135234,-0.00062794,-0.00427519,0.00521585,0.00654666,0.00830058,-0.00450131,-0.00392847,-0.00946128,-0.00378473
xjcVnFd-4YA,0.01552835,0.00798759,0.02368658,0.00783058,-0.0175084,0.02141595,-0.00218693,-0.01796524,-5.297e-05,0.00249013,-0.01759433,0.0151094,0.01247045,0.02138103,-0.00677334,0.03545811,0.03972501,0.00921453,-0.01175635,-0.04005083
TmkbUF0V0hM,0.02839793,0.00882189,0.04561786,0.02602495,-0.01368608,0.19659013,-0.03400024,-0.02265579,0.04685091,-0.44115752,0.47031685,0.20192092,0.01597381,0.03241705,-0.02050808,-0.15367176,0.00399157,-0.01232273,0.15795908,0.06211629
UncqiOQc4rI,0.01059163,0.00708252,0.03982619,0.00143789,-0.00908548,0.11100213,-0.0506268,0.00764818,-0.0114361,0.00047709,-0.01565898,-0.00342756,-0.01851344,-0.00546826,0.01077036,-0.03365123,-0.06746678,-0.1282584,-0.0227459,-0.07790347
PoHZWjU54jY,0.01497493,0.01940924,0.02117133,0.00487216,-0.00062583,0.17935354,-0.07744521,0.04145204,0.00813245,-0.01945228,0.07227545,0.04865929,-0.00833533,0.02608067,0.0289752,0.1726712,0.04251345,0.06632827,-0.13484566,0.01170945
2r0m4TsyIxs,0.00987966,0.00105899,0.02294612,0.00631398,-0.01388271,0.08777116,-0.03878911,0.02265981,-0.0041301,0.0114165,-0.02084735,-0.0038156,0.00956582,-0.00475433,0.0218124,-0.00121481,0.04414849,0.05990991,-0.00937109,0.05708858
u_f8bJkfg68,0.07599687,0.07597353,0.0296099,0.01560968,-0.04274596,-0.00330894,-0.02601817,0.03805566,-0.03467806,0.01229546,0.0077059,0.00864177,0.00730293,-0.00143678,0.00761666,0.04036529,-0.04539575,0.05305117,0.01437443,0.03056885
-CTY5XDxt8E,0.00556659,0.00264164,0.02352224,0.00715507,-0.00627767,0.18113958,-0.07576085,0.04419038,0.00811078,-0.0152981,0.05886283,0.04242216,-0.00549209,0.02583694,0.03508444,0.1638211,0.05114777,0.09958022,-0.11192398,0.01034524
2ZV29QhLfjw,0.0673459,0.05848806,0.08514207,0.02674035,-0.0568151,0.0362149,0.03659266,-0.10057108,0.00184538,-0.02893704,-0.0054634,-0.03132036,0.00864898,-0.04954234,0.11251868,-0.00603128,-0.0471871,-0.0080122,0.04599983,0.01921579
suqYhItddAc,0.01369385,0.00556392,0.02899473,0.00696022,-0.01578274,0.11210856,-0.03901875,0.01456465,-0.00385992,0.02703335,-0.02516995,-0.00283962,0.02030246,0.00864999,0.02409944,0.08751138,0.03768907,-0.02079274,0.01683392,-0.06426666
tkLxg6h07aE,0.03140678,0.0112179,0.06926835,0.03394982,-0.02274538,0.32872745,-0.09410295,-0.01336348,0.05253945,-0.53851152,0.57479222,0.2590992,0.00702847,0.06632519,-0.00800873,-0.05423668,0.00182284,-0.02621461,0.11946456,0.00104872
N-zjDtQOwxc,0.09992655,0.04543473,0.19472264,0.03083767,-0.10699679,0.00437143,0.02027833,-0.13050073,-0.03534013,0.11918614,0.02646921,0.09100651,0.25939064,-0.02857052,-0.02218997,0.04960655,0.10678356,0.07077237,-0.13599521,0.01711405
PnpHwhTWw0c,0.0253883,0.02249074,0.04728618,0.00315975,-0.00887359,0.14778307,-0.06203144,0.02091145,-0.00449991,0.03106077,-0.05272911,-0.05108706,0.00326802,0.00072605,-0.01255262,-0.18542488,-0.04159492,-0.01236018,-0.13681936,0.04068032
8--Bq5oEsZ8,0.03227117,0.02434576,0.02211033,0.01180733,-0.02492292,0.0382664,-0.02594662,0.02954401,-0.01874504,-0.01732092,-0.00835807,0.01151416,-0.00134159,0.03315109,-0.0113953,0.04804278,0.00855565,0.01289255,-0.03025638,0.01070935
tpay1lEGZ7g,0.06026601,0.01371044,0.13545109,0.04497909,-0.08069616,-0.01030349,-0.00821789,-0.0797107,-0.02142726,0.09885451,0.08206427,-0.02060911,0.02615902,-0.06689809,0.13217614,0.00380023,0.00297665,-0.02122025,0.00018981,0.04105984
JjwHFerSu4M,0.04718891,0.03096192,0.08009513,0.02877034,-0.02774091,0.05895434,0.04440245,-0.10969351,0.01316028,-0.06935418,-0.01878695,-0.0136966,-0.01674379,0.02445158,0.02787764,-0.04680892,0.02214638,0.01083108,-0.01730513,-0.00937521
s6XPoPYDn-Y,0.01724012,0.00775274,0.04379789,0.01686937,-0.02393463,0.15799233,-0.03108237,-0.03536031,0.04550558,-0.43810321,0.45584323,0.18575037,0.0144132,0.01933565,-0.04070168,-0.15760916,-0.01743198,-0.04148862,0.18901091,0.03554193
9pPCy9wqxuk,0.04892888,0.03557936,0.11464814,0.02954297,-0.01494161,0.01153493,0.04447783,-0.0955751,-0.00181179,-0.01564958,-0.02799421,0.00439371,0.13323825,0.11264284,0.11525638,0.01968283,-0.05208596,0.01021782,0.04469698,0.0388798
ucN2hf0CgI8,0.02261735,0.00843094,0.03908959,0.01731336,-0.02068132,0.07567279,-0.02100617,0.00216655,0.01409007,-0.02912673,0.02685575,0.01010543,0.00385023,-0.00919745,-0.00039844,0.01420502,0.0211584,0.02761249,0.0103105,-0.03013288
W41XcEogOB0,0.0192791,-0.00142075,0.0315676,0.01869825,-0.00646341,0.1212545,-0.03949738,0.00948113,-0.00293991,-0.06967334,0.07538025,0.05178584,-0.01029689,0.02976735,-0.0019605,0.05022282,-0.02287451,-0.0592301,0.00544008,-0.05380296
QNHEqcXa3Zg,0.10977956,0.09501578,0.13125244,0.01800043,-0.069482,0.02578927,0.04892912,-0.10828219,0.01288035,-0.08384817,-0.04744838,-0.08832718,-0.04277117,0.04063273,0.12681549,0.01385518,0.0114747,0.04000274,-0.02528596,-0.01152783
LNKCHWOW7aI,0.01083206,0.00648785,0.04487382,-0.00088517,-0.00801122,0.16587793,-0.05943116,0.00850686,0.0013152,0.02987707,-0.01276232,-0.0349709,-0.00682877,0.00459093,0.01961859,0.10640403,-0.00695476,-0.03819946,0.04646321,-0.06108459
fwUWAoSeg2g,0.03993814,0.02570494,0.14826665,0.24592887,0.20487294,-0.02015569,-0.02273471,-0.01955464,0.00223958,-0.0082169,-0.01731167,0.0087951,0.05030021,0.01916861,-0.0421464,0.01673723,-0.01197833,0.01763763,-0.01936055,0.02862495
8TvJvfKz8Fo,0.06128368,0.01086013,0.13305054,0.03497345,-0.11395383,-0.01940716,0.01393709,0.08624018,-0.03182831,-0.03731658,-0.07654273,-0.01807071,0.00784359,0.0631855,-0.02366678,-0.03341547,0.12603889,-0.18393985,0.01199665,0.09343276
OEtIq4tR1rA,0.01073576,0.00463812,0.03782819,0.00953119,-0.02200872,0.10814258,-0.03373139,0.01697193,-0.00743188,0.01926488,-0.05171639,-0.0201794,0.00108576,0.00896485,-0.01167728,-0.0743937,0.02836389,-0.09461409,-0.04199394,0.06239359
kB_PJC80JhY,0.10774695,-0.02209996,0.13028266,0.03214536,-0.1058398,-0.02275178,0.00817806,0.01561806,-0.07549048,0.00178615,-0.10824701,0.21161453,-0.0536687,-0.00484366,-0.02565651,-0.05399764,0.12253631,-0.01749863,-0.02799984,-0.01258219
gdjCR9h1yGc,0.01356486,0.00459124,0.05527921,-0.01554124,0.00168656,0.21775232,-0.09573129,0.05933108,-0.01024956,0.06122273,-0.0739364,-0.02980429,0.00397904,-0.02498173,0.00365611,-0.03523226,0.08083455,0.03055372,0.09660075,0.04790878
UPbaPjDGQIE,0.00929758,0.00468034,0.04120002,0.00154508,-0.00298936,0.17196858,-0.07793344,0.03721503,-0.00387118,-0.00011486,0.02650886,0.02069,-0.01998044,0.02985691,0.04802651,0.08371724,0.01910918,0.0392338,-0.07951335,0.03732327
if955Z_s4Ts,0.01256354,-0.00263606,0.02096413,0.00673381,-0.00494567,0.12636182,-0.05265965,0.03040493,-0.00531517,0.05473516,-0.04746307,-0.01244036,0.00931367,-0.01326333,0.01204883,-0.09098435,0.01386062,0.00534285,0.09452362,0.03007251
JQ8OpyAeTxw,0.07589682,-0.00069448,0.10997929,0.03460952,-0.07609911,0.04218514,0.06814877,-0.15503822,-0.07981167,0.08566004,-0.207117,0.45788461,-0.16149011,0.0972855,-0.14318206,0.08537295,-0.01095023,-0.04328193,0.11402338,-0.24095901
pUlUgkaTQZg,0.0093286,0.00503674,0.04021383,0.01786632,-0.0082108,0.1985677,-0.07619316,0.0322754,0.00443976,0.00295907,-0.00122473,-0.0125762,-0.00584823,-0.0055839,0.01275767,-0.02217931,-0.12201588,-0.06491658,-0.08335579,-0.03003962
uWa0odbimaU,0.14642992,0.00406671,0.12207036,0.03804446,-0.09883062,-0.0066671,-0.00084224,-0.11380085,0.32089432,0.07195829,0.0232594,-0.02490296,-0.05207803,-0.03178879,0.18165107,-0.01195325,-0.0126924,-0.04847975,0.0127726,0.02428216
yE8fJOgv7Pc,0.01765345,0.00242504,0.04688034,0.01179033,-0.02868499,0.12168141,-0.03853167,-0.00064392,-0.01805231,-0.05932061,0.03666354,-0.00229944,-0.01341139,0.03875054,-0.00871054,-0.02567821,-0.11013481,-0.22877659,-0.00890919,-0.08191138
rfRFwXnk660,0.03552178,0.00170627,0.04680806,0.00956092,-0.03190954,0.00465761,-0.00282266,-0.01482719,-0.00688782,-0.04256421,-0.03429913,0.00481856,0.03351345,-0.06486321,0.00831017,0.02559216,0.00085092,0.0420674,0.00252277,0.01411047
4Zi41MRVP0g,0.08519612,0.03510549,0.10786464,0.14863217,0.07324362,0.01506087,0.02362693,-0.10005361,0.02945433,-0.04448255,-0.02392934,-0.05628202,-0.05727891,0.04362398,0.10530752,-0.02298653,-0.00224492,0.00703124,0.02421712,-0.03089376
p4zPmpXfGyY,0.03099267,0.00890984,0.07943471,0.02034618,-0.02192517,0.25225567,-0.09054156,0.04823991,-0.00710259,-0.03799029,0.05408916,0.01051705,0.01672955,-0.00561229,-0.01002728,0.05239996,-0.00408997,-0.05842603,0.00407362,-0.09781602
dl0-TveDDGA,0.00994117,0.0062803,0.04457744,-0.00182767,-0.00567924,0.21752827,-0.09071486,0.06330378,-0.00160692,0.07233383,-0.07438164,-0.04339986,0.00092457,-0.03111453,-0.02067708,-0.0923585,0.0295373,0.07899323,0.10696402,0.02116455
XoDfpxBy8Ag,0.05417431,0.01004949,0.12819377,0.04837868,-0.07031869,0.04245434,0.04630162,-0.14259291,-0.05600169,0.056026,-0.11453125,0.30280802,0.13808556,0.1105491,-0.10075953,0.00403479,-0.17513943,-0.053421,0.11472228,0.02022715
ERWIJPTNZVM,0.00561855,0.00552534,0.01451122,0.00779868,-0.00321862,0.0423296,-0.01107604,-0.00946255,-0.00436016,-0.00244856,-0.0213863,0.01318194,-0.0006803,-0.00711682,0.01572177,0.03890513,0.02517811,-0.04885253,-0.04152412,0.00634659
KGeCwEOLPGE,0.01663546,0.01356317,0.05451592,0.0012523,-0.0142143,0.26810588,-0.11188166,0.06844327,0.00523448,0.10176283,-0.06998245,-0.01874236,0.02139291,-0.00316872,-0.00772362,0.09069931,0.09504575,0.20416837,0.25409799,-0.02845706
JWOErbTL9N4,0.01528751,-0.00012828,0.03336887,0.00303124,-0.00997346,0.13028064,-0.04923073,0.01202849,-0.00130974,0.0320782,-0.02142993,-0.00726199,0.00456934,-0.0249302,-0.01845158,0.11421308,0.00501359,0.01081214,0.0395133,-0.02967869
oCsFEpxTxlI,0.10486059,0.09246896,0.1140413,0.05017217,-0.07937567,-0.00838818,0.02449211,-0.04543157,-0.13531979,0.06724281,-0.13281366,0.38869337,-0.19584262,0.07296788,-0.08398246,0.02429162,-0.1461864,0.04407667,0.12178893,0.02474685
WgcdDVIUXcI,0.04843341,0.03609914,0.08527349,0.02438036,-0.06568523,0.02735104,0.05080876,-0.06373074,0.04469888,-0.03909794,-0.00836524,-0.06073621,0.00618952,0.00304823,-0.06370989,-0.0482665,-0.04589732,0.06140751,-0.10903734,0.0129394
m-nnyNZ0TQ0,0.01512243,0.00684352,0.05959182,-0.01317208,-0.00058014,0.194903,-0.06517441,0.05648949,-0.01023719,0.07864547,-0.09057624,-0.06507752,0.00609588,-0.02885778,-0.032001,-0.06998272,-0.00613496,0.00245094,0.10818753,-0.0376028
ExlWYbISs6I,0.01746217,0.00487099,0.05678628,0.01908044,-0.02330007,0.18575347,-0.07823686,0.02006179,-0.00548418,0.02579684,-0.05951127,-0.00788569,0.03231999,-0.04991145,-0.05281306,0.15877081,0.05299443,-0.16751552,0.10408418,-0.06321791
R-klQGp_308,0.01795834,0.01972346,0.02940325,0.00896854,-0.00981144,0.14830648,-0.06674727,0.03629122,-0.00296095,0.00670114,0.01166582,0.01103918,-0.00578771,0.00133807,-0.01974281,0.05337942,0.00032753,0.04267808,0.0172951,0.0067894
ndkH5fZSIvs,0.02041946,0.00809328,0.06507971,0.06692667,0.03256671,0.1568761,-0.07474042,0.01524115,0.00567963,-0.0230884,0.02996704,0.00310126,-0.01856281,0.00865798,0.0222439,0.00194865,0.03038213,0.06333517,0.03824678,0.05968896
eRD2C7w9r6Y,0.04583572,0.03645801,0.03449072,0.01206608,-0.02670276,0.01912926,0.04134771,-0.04397203,0.00629832,-0.03119962,-0.01941446,-0.02975999,-0.00915709,0.01044059,0.033457,-0.00862264,0.01170593,-0.00788612,-0.00609412,-0.01111133
a9T6IRpz31E,0.04465903,0.00480802,0.06671648,0.03198751,-0.02934964,0.18419885,-0.03076012,-0.04595554,0.03785257,-0.45722624,0.45929319,0.20112754,0.02321219,0.01148445,-0.02422668,-0.15312899,0.01470219,-0.0385576,0.17968993,0.0109654
BdUzhVM5w1U,0.00998723,0.00358343,0.02667819,0.0045287,-0.00697683,0.157556,-0.06746585,0.02967848,-0.00095119,0.05127693,-0.05132191,-0.02429727,-0.01446625,0.01840964,0.03002836,-0.12543917,0.00159342,0.03071136,-0.0468821,0.08881468
5z8hOrxhApI,0.05321821,0.01153692,0.10005072,0.03715953,-0.07503822,-0.00704542,0.01668008,-0.0099761,-0.04009147,-0.02170368,-0.06469808,0.05587309,-0.03530784,0.05345123,0.00840324,-0.06901141,0.08441472,-0.05952456,-0.05693184,0.06862443
L5HQ_jx0HX8,0.01546416,0.00463665,0.05707154,-0.00034242,-0.00774614,0.35695214,-0.14364244,0.08717116,-0.00675386,0.06386594,-0.01331997,0.01963357,0.00672835,0.03966049,0.03877672,0.18898038,0.08787997,0.08147824,0.05377073,-0.02360495
_dxtH2u5aAk,0.01185283,0.0008917,0.0319268,0.00678761,-0.00930037,0.15842462,-0.06776379,0.02540911,-0.0274296,0.02643627,-0.00317387,-0.01316813,-0.04039702,0.0250317,0.04832586,0.18133308,-0.07147398,-0.1780466,-0.03738259,-0.12130256
0t118SCf-2w,0.00527899,0.00330505,0.01866898,0.00545999,-0.00758982,0.11207078,-0.04571258,0.02103238,0.00097575,0.00704059,-0.00048775,0.00054605,-0.00206802,-0.00882373,0.00917748,-0.01646375,0.01109182,0.04205976,-0.03253062,0.01070774
t9PF8V132Y4,0.01318266,0.00576804,0.03215374,0.00862976,-0.012993,0.07510867,-0.0332403,0.00106696,-0.00306792,0.01119552,-0.01712067,-0.00571412,0.01193393,-0.03370443,-0.00526907,0.01862293,0.01168372,-0.01458046,0.00372706,0.00430471
dU5sDKcwN9E,0.02117934,-1.166e-05,0.04616457,0.00434298,-0.0032805,0.24795669,-0.0984218,0.05557659,0.01255667,0.02436082,0.00774598,0.00138522,0.00061294,-0.00498535,-0.0064743,0.05341809,0.03265092,0.12080631,0.04732433,0.02018691
IrGd4xIhTN0,0.01090354,0.00539236,0.0351312,0.01073411,-0.01426532,0.16264718,-0.05636983,0.02316834,0.00630227,-0.02863659,0.05499872,0.04316063,-0.00024672,0.02943487,0.02493641,0.14401738,0.03272677,0.06217822,-0.13118636,0.00585607
DmcKWMeNWaQ,0.0685896,0.03259849,0.14861852,0.0547285,-0.11079173,0.0092768,-0.0168221,-0.0886671,-0.01518884,0.17110927,0.15081006,0.01646278,0.03884933,-0.05787083,0.05325119,-0.06323605,0.08120387,-0.07065919,-0.02189556,0.07121852
7NeECqsR_u4,0.01103504,-0.00078185,0.02631581,0.00719691,-0.01568737,0.14123205,-0.06752077,0.04090836,-0.01121852,-0.04395991,0.01518901,-0.00487566,0.00182819,0.0319857,-0.01136778,-0.10435168,-0.08225028,-0.12862973,-0.06100275,-0.02049784
Lqq78q17jDY,0.11814412,0.06524602,0.21588531,0.00954709,-0.08889751,0.02903027,0.03033872,-0.2407572,0.07864187,-0.23061489,-0.0605369,-0.29645437,-0.15885558,-0.10445704,-0.38568806,0.31774166,-0.12679704,0.04056523,0.14985759,0.21090508
OCGgYu3vku4,0.09662181,0.09384173,0.06132451,0.02661731,-0.04845258,0.01616853,0.01423499,-0.05554998,-0.00051955,-0.05455028,-0.04900104,-0.01765006,0.01012807,0.02564925,0.07407458,0.02750429,0.00686447,0.02808529,0.01847179,0.01776326
ktkpd9A8MD8,0.07612776,0.00440075,0.12639522,0.01708499,-0.07920335,-0.01461263,-0.00326214,-0.06557668,-0.012205,0.07781191,0.06863803,0.01621117,-0.02585453,-0.0886033,0.15277323,-0.01809735,0.00066948,-0.01913296,-0.03325844,-0.01155449
8OjVlmrtW4M,0.16582849,0.03461902,0.13039491,0.04941739,-0.10991095,-0.011176,0.02266257,-0.09873711,-0.01397332,-0.02814831,-0.03869058,-0.01591698,-0.11740045,0.15017782,0.02587665,-0.04146408,0.05503926,-0.05288299,0.04832174,-0.01390184
vNXFk8iGHk8,0.01766452,0.01409938,0.05603454,0.0009823,-0.01720896,0.25660667,-0.10844716,0.06990698,-0.00011311,0.10731208,-0.06791868,-0.01531421,0.01179548,-0.00099884,-0.00114168,0.10612346,0.10142751,0.18450663,0.22957281,-0.02789549
u5HPVyEpyNI,0.08268658,0.04581988,0.12885935,0.037449,-0.09683571,0.03118045,0.05356706,-0.16999711,-0.01888536,0.02206702,-0.10981196,0.18196264,-0.17660393,0.08594109,-0.09216996,-0.05145949,-0.05232518,0.05969043,0.00813914,-0.09959802
8nwaOxXIj0g,0.05268407,0.02894538,0.14015984,0.00933087,-0.03937836,0.0239138,0.02022634,-0.08180666,-0.00278884,-0.07429091,-0.04251133,-0.00149917,0.01072143,-0.09440593,-0.06484994,0.05409132,-0.02992994,0.12829793,-0.06161312,0.04205023
1baBzd1XPkU,0.01391876,0.00442911,0.03323948,0.00291754,-0.01495963,0.0569566,-0.02680241,0.0060746,0.00459116,-0.01316709,-0.00309678,-0.01217351,-0.00249829,-0.01765427,-0.01674828,-0.02264441,0.00261793,-0.00521112,-0.03172133,0.02261815
81RBVN6P9cM,0.02777917,0.01081749,0.05692844,0.00638446,0.01236935,0.15200645,-0.0317861,0.03527824,0.02441004,0.0026664,-0.05002656,0.00117796,-0.00332896,-0.05950775,-0.00835708,-0.03020611,-0.16295476,-0.08894052,-0.10963808,-0.03706037
io_Ysi-LFWE,0.01015262,0.00725528,0.03154754,0.00962792,-0.01504003,0.1491028,-0.05576798,0.01409755,-0.00545814,-0.08299175,0.09293727,0.03911181,-0.00549693,0.03950467,0.03226571,0.03438182,-0.04362531,-0.09714214,-0.06827386,-0.02605079
gzjXoJoWgjs,0.03596264,0.02164366,0.06025229,6.612e-05,-0.01944952,0.25613921,-0.10238098,0.05311705,0.00072252,0.07250169,-0.0622954,-0.05612053,0.04844822,-0.04044101,-0.05279599,0.10264448,0.05369776,-0.02248203,0.1880216,-0.06412555
69AWec8qjjo,0.05152221,0.01927352,0.0657302,0.01501856,-0.03901159,0.05083808,0.02649541,-0.12571482,0.01094009,0.00566062,-0.1073852,0.13357196,-0.09479308,0.10898713,-0.04561675,0.0298467,0.12074743,-0.07250068,0.00271175,-0.19919681
roUppNywDks,0.02676283,0.00899801,0.0598111,0.0185972,-0.02793729,0.27860843,-0.08647031,-0.00243741,0.04075124,-0.42697378,0.45042048,0.1972641,0.01876199,0.04135058,-0.00891601,-0.04293689,0.01360367,-0.03247553,0.08892825,0.01974486
vgwG6e9TFcw,0.01145946,0.00815005,0.03570049,0.00648935,-0.01313857,0.16374866,-0.0760808,0.04297486,-0.00487236,0.03175668,-0.06714788,-0.05591771,-0.02941693,0.05217472,0.00147471,-0.27201387,-0.13100409,-0.02262443,-0.27969679,0.06743391
98VQpHj17Ws,0.01372401,0.00997373,0.03577531,0.00653454,-0.01886555,0.06777879,-0.02215276,-0.0063218,-0.00460414,0.01373581,-0.02742585,0.00379415,-0.01410171,-0.00184864,2.91e-06,-0.00558208,0.0331101,-0.01602958,-0.01341061,0.01697414
U0f47Nt9g-Q,0.04490396,0.03088751,0.10982909,-0.01539084,-0.01828097,0.00571863,0.01281079,-0.05620411,-0.00415809,-0.03164811,-0.02677088,-0.0176208,-0.02421097,-0.09246413,0.13710557,-0.01578039,-0.03493319,0.06617369,-0.02828297,0.06389945
07T7V-Szcx0,0.00823292,0.00473948,0.04300358,-0.00457985,-0.00196132,0.21533073,-0.08750183,0.06239353,-0.00273817,0.0957914,-0.09582981,-0.05372886,-0.00329783,-0.00970425,0.00336407,-0.16340446,0.08430176,0.1284685,0.1466154,0.11282607
dNNyCZwEa6k,0.01014098,0.00479128,0.04372523,-0.00032627,-0.01070784,0.15259836,-0.05785953,0.03294343,-0.00906294,0.03678332,-0.04021723,-0.0243743,0.00106899,-0.01965618,-0.00608846,-0.00024949,-0.00166809,-0.02743729,3.974e-05,-0.04021274
0kHJZFOuMWc,0.06449583,0.01376843,0.16821154,-0.07042437,0.00025357,-0.01425061,-0.01231752,-0.09572557,-0.02880405,-0.03545649,-0.04310763,0.00120386,-0.03676634,-0.14460132,0.27206477,0.08203728,-0.03215021,-0.00756149,0.0491438,0.06116166
3fsJFUvA6Ts,0.01480995,0.00970968,0.05258153,0.0162863,-0.02175109,0.34537435,-0.15300804,0.07866355,-0.02845215,0.02443315,0.0288361,-0.00805274,-0.06975644,0.06232491,0.06811703,0.21190294,-0.11978115,-0.14438801,-0.20568025,-0.14208308
bRy54zQmixQ,0.01516852,0.00851691,0.03908493,0.01395744,-0.00284465,0.16567735,-0.06425784,0.01834161,0.02384847,0.01919263,-0.0640903,-0.00766227,-0.01278035,-0.03738966,-0.00636766,-0.01005891,-0.17896767,-0.09368851,-0.05139127,-0.03351503
LLK879SXq_w,0.11115194,0.05716988,0.31062026,-0.1357578,0.21947963,-0.04169916,-0.07003124,-0.11483093,0.03416599,-0.03081933,-0.01846657,-0.02907694,-0.05274247,0.01657465,0.04152764,0.02254933,-0.03786572,0.05932453,-0.04833814,0.03125906
5YKhtb3DNNo,0.06071901,-0.01144527,0.06523378,0.03659132,-0.01815522,0.00980116,0.01680596,-0.05194381,0.00398843,0.08239433,0.04332345,0.03714323,-0.04180931,0.00378363,0.0592905,0.03619075,-0.03449554,0.02146178,0.05078049,-0.04516233
2pao0845DQQ,0.01344107,0.00231438,0.03867406,0.00759081,-0.02124367,0.04193807,-0.00997417,0.01145186,-0.02935422,0.02231389,-0.02989657,0.04923549,0.00584505,-0.04269533,0.02188104,-0.05661642,0.0931105,-0.06669077,-0.03253757,0.04676248
QfUb5MEAOXA,0.0101364,0.0064417,0.03420006,0.00187545,-0.01203614,0.08764154,-0.03436703,0.00993277,-0.00650225,0.00820004,-0.0188298,-0.00882377,-0.01040587,0.00095032,0.01506515,-0.03966136,-0.03470533,-0.01007805,-0.07020391,0.01581708
4at2bVIhLgc,0.00975688,0.00294478,0.01659488,0.00382369,-0.00313323,0.11576237,-0.04188627,0.02810374,0.00459825,-0.01829766,0.0613568,0.04199904,-0.01198488,0.02493389,0.03752346,0.14278123,0.02716597,0.04268993,-0.08793178,-0.01206012
FYMdllTCrc0,0.01258292,0.00489346,0.03926166,0.00874585,-0.01245364,0.25155171,-0.09184925,0.05584548,0.01338106,-0.05536274,0.12073099,0.080028,-0.00081718,0.03325531,0.05215869,0.22717737,0.05423532,0.12222779,-0.18475411,0.0246884
er7v-GJj_V0,0.09238057,0.0439482,0.10903907,0.03916224,-0.08837,0.00631125,0.01271319,-0.06699976,-0.01354598,-0.06137116,-0.05652109,0.001718,-0.0437424,0.06581328,0.08966103,-0.04843996,0.11480778,-0.06906013,-0.01643922,-0.01148301
JrGlAw_Q7ow,0.01476089,0.00671343,0.05418843,-0.00174412,-0.01590976,0.20669084,-0.09107557,0.07013507,-0.00722227,0.06820244,-0.07517409,-0.04572884,0.00363579,-0.02250311,-0.02051787,-0.1103489,0.04995068,0.07660447,0.10897926,0.05010015
39czcByvq7c,0.0241999,0.00801306,0.04116069,0.01170916,-0.02408226,0.14109667,-0.03499369,0.03080075,0.0007422,-0.00448548,0.00771003,-0.002023,0.0150743,-0.02700465,-0.03126755,-0.01132411,0.0124078,0.0579945,0.00807923,0.03572711
_UFmkJrpc3Q,0.01099846,0.00589717,0.05292967,0.00919115,-0.00030791,0.26858894,-0.11626611,0.07617554,-0.01278401,0.06903504,-0.1121442,-0.07392794,-0.00321595,-0.02598771,-0.04013571,-0.23977735,-0.25232219,-0.17606943,-0.13255655,-0.06390177
eBbqRceO2qY,0.06312372,0.08322307,-0.01167112,0.00944115,3.924e-05,0.03922247,-0.01154849,0.03371033,0.03502875,-0.01516129,0.01400474,0.02207984,-0.00173405,0.02716095,-0.02049046,0.01910069,0.0166101,0.02781335,-0.01305645,-0.02469217
kijJaXVri7Q,0.0425957,0.03793596,0.05631144,0.02275754,-0.03321361,0.03153417,0.01801171,-0.05842299,0.0016407,-0.02973476,-0.03251712,-0.03074677,-0.00377844,0.02152583,0.00814095,-0.00851541,0.02061249,-0.02417802,0.02737745,-0.01482814
MVFd0qFB9TE,0.00780267,0.00570715,0.02700487,0.00642403,-0.00749843,0.1404976,-0.05609705,0.03229585,-0.00251181,0.05938662,-0.0516461,-0.02148104,0.01040269,-0.00108051,-0.00490581,-0.11433282,0.0377244,0.02317265,0.10978338,0.05099433
ywEV7NQlO1Y,0.02762445,0.0286095,0.06392073,-0.02196233,0.00093218,0.03062743,0.00417718,-0.02995386,-0.00263851,-0.03379068,0.00283853,-0.00315039,0.01292696,0.01478265,-0.01426111,-0.02509101,-0.03582542,-0.03071303,-0.0420933,0.0052961
5wuHYQMnYhA,0.01673525,0.00798776,0.03890411,0.01442264,-0.01875999,0.14643577,-0.06452277,0.01839216,-0.02894563,0.02808652,0.00578559,-0.02129994,-0.04804119,0.03549895,0.05058303,0.17645929,-0.07406964,-0.13412359,-0.05741554,-0.10658121
6hNY0K71Ewo,0.06131261,0.04648575,0.11177232,0.02973367,-0.08145733,0.01048458,0.04246576,-0.09072173,-0.02578747,-0.07899423,-0.05157179,-0.04798177,-0.04215811,-0.11682067,0.11102495,-0.00391031,0.07595006,-0.05234589,0.04832422,0.00952167
XsY6iChNzf0,0.02079223,0.02034991,0.0591542,-0.00446039,0.01185448,0.03603766,0.04168397,0.01641497,-0.00593773,-0.00668697,-0.01943268,0.01994674,0.01698143,-0.04859804,-0.00120873,0.01454154,0.00826158,0.01358437,-0.04885933,-0.03368305
_WrHMsTYlOU,0.01165313,0.00728287,0.03275838,0.00787903,-0.01190662,0.07303571,-0.02618348,-0.00538283,-0.01023945,-0.04795919,0.03277978,0.01514392,0.00105201,-0.00802717,0.00423926,0.01321917,-0.03553351,-0.08062609,0.0108567,-0.03988849
nN9QYJdEcw0,0.0075449,0.00300693,0.02497358,0.00753992,-0.01636811,0.04162064,-0.01287249,-0.01303261,-0.00707391,0.02065252,0.00901906,0.00483385,-0.01027666,0.00594071,-0.00160203,0.00095435,0.01447271,0.0012869,-0.01096765,0.00448703
JuRjZqzpP0g,0.01653733,0.00634264,0.07293893,-0.0075443,-0.00174268,0.36570775,-0.14346656,0.10010417,-0.02088623,0.10669187,-0.05340836,-0.0569507,-0.04298158,0.02598922,0.03127167,0.1674299,-0.01453079,-0.03692959,0.04679699,-0.10972169
8QsAx7s9PmQ,0.01143848,-0.00085297,0.02256906,-0.00358147,-0.00343989,0.05628378,-0.01487274,0.0092191,-0.00779061,0.01796017,-0.00793935,0.01311519,0.00145944,0.00611133,0.0141793,-0.04161736,0.03996707,0.00451613,0.0219642,0.03500202
kBctc9rV__4,0.09063675,0.06614589,0.27253616,-0.14638864,0.10329963,-0.0176872,-0.02825942,-0.0987084,-0.00766756,-0.07660341,-0.06018613,-0.02696092,-0.04182381,0.0071111,0.11667628,-0.00390626,-0.05026986,0.01268175,-0.00720152,0.03672971
up__2flbXw4,0.01027532,0.00695045,0.02950858,0.00075523,-0.00738365,0.06967437,-0.02923398,-0.00859556,-0.00633597,-0.06615717,0.04433415,0.01773916,0.00415092,0.00794094,0.00468152,-0.02588324,-0.03616679,-0.09722526,0.01071618,-0.02769973
jAaw0vn7eLs,0.00961135,0.00435122,0.03493138,0.01276113,-0.0138963,0.15001311,-0.06079994,0.02749118,0.00278699,0.00970337,0.02108499,0.01882764,-0.01034379,0.02223334,0.0317636,0.0406801,0.06872787,0.08690622,-0.06541205,0.057725
8u7HqZJQHDM,0.02269074,0.01163634,0.06504219,0.02932945,-0.02605235,0.3251978,-0.09766184,-0.00564845,0.05896397,-0.50935915,0.57226676,0.25967409,0.02498029,0.04635095,-0.00648553,-0.05389747,0.01924513,0.05341396,0.07862707,0.05445785
BOmc_wliaRg,0.02280325,0.00579142,0.02662392,0.0192339,-0.00523876,0.0338205,-0.00368313,-0.0203558,0.00567904,-0.05793557,0.03564543,0.01156538,0.00120117,0.00084746,0.03357464,-0.01871971,0.00507486,0.01004932,0.02062794,0.00508212
Cr7oGnSzmb4,0.00797198,0.00729853,0.01971254,0.00515669,-0.01010309,0.1112422,-0.048546,0.02802443,-0.00268166,0.02656265,-0.02148813,-0.01935866,0.00144208,0.01378805,0.00067726,-0.07785075,-0.00827286,0.02015451,-0.09930305,0.04902176
-1Fhry-Mqks,0.01161682,0.00470169,0.0280686,0.00712349,-0.00848214,0.12765575,-0.05145116,0.01696694,0.00142177,-0.00222693,-0.00505426,0.00060784,0.00680336,-0.01276457,-0.00275148,0.01508415,0.0153692,-0.05727868,0.02868515,0.00610214
jFZPpkVszCg,0.11047689,0.07892139,0.19058483,-0.05034462,-0.05117676,-0.03110183,-0.00975463,-0.05580339,-0.07768749,-0.04984882,-0.01714451,0.02330077,-0.10793027,0.0194249,0.2178574,0.11298566,-0.12861589,0.03711991,0.12367083,0.19599044
IMM5cm6xrXQ,0.01305928,0.0063554,0.04371391,0.00828999,-0.01887434,0.12137988,-0.04996545,0.0014737,-0.01347243,-0.0298001,0.0174667,0.01156715,-0.01050681,-0.00124737,0.01129929,0.00462177,-0.04403054,-0.14985255,0.01655397,-0.06634064
UsS6bOYnnOI,0.01871598,0.00802357,0.04816385,0.00826534,-0.01534475,0.15139452,-0.06150444,0.03162327,-0.00273141,-0.00457404,0.01183,0.00787497,-0.00454402,1.46e-05,0.0138028,0.09893327,0.03446373,0.08574765,-0.04990322,0.02040447
TET8fTKH1e8,0.12183076,0.05102148,0.15401734,0.00958805,-0.06143698,0.02399124,0.04736665,-0.15105433,0.00778487,-0.02651474,-0.04967005,-0.00487344,0.10974639,-0.02676201,0.13883191,0.00067311,-0.02084465,0.03359004,0.03895096,-0.02322461
3era1_feC3U,0.00806931,0.0025145,0.02213668,0.00772832,-0.01557937,0.01450157,-0.00417648,-0.00470767,-0.00724505,-0.00638195,-0.01115444,-0.00209012,0.00258201,0.00688832,-0.00869284,0.01194131,-0.00438636,-0.01403341,0.00239561,0.00644768
Y254oB1QNOE,0.02593841,0.01107649,0.03866878,0.00423351,-0.01390346,0.12985997,-0.05676718,0.02020948,-0.00657743,0.03035275,-0.01091752,-0.01634055,0.02549298,-0.01438292,-0.02805286,0.01341747,0.01944993,-0.03958628,0.06346012,-0.00533345
1PIbKMyFMAY,0.04789138,0.0446089,0.10386135,-0.01743737,-0.02477733,0.00674101,0.01707214,-0.05777496,-0.01996055,-0.03019343,-0.01448761,-0.00088456,0.01932003,-0.08248067,0.11819799,-0.01518597,-0.07316924,0.06547917,0.01161201,0.02909637
tbvteFr4SPQ,0.05584131,0.03049714,0.10607884,-0.00547301,-0.03629117,0.02236771,0.0177125,-0.09615577,-0.00533074,-0.00129838,0.01086769,-0.00289559,0.00039612,-0.00833522,0.16351284,0.00683069,-0.02366732,-0.01748479,0.04992069,0.01320853
oOCN30ulVyo,0.01709793,0.01762301,0.02305455,0.00468132,-0.01387094,0.05034218,-0.01366555,-0.00822303,-0.00815965,0.00388458,-0.01112551,0.03095904,-0.01276821,0.00319678,0.01410445,0.03633136,0.01792964,-0.05850998,-0.03367321,0.00625767
XGAhqBxEV78,0.01831836,0.00696068,0.03883741,0.00686182,-0.00955207,0.10213913,-0.03596529,-0.008817,0.02260487,-0.00173847,-0.04553138,0.00066134,-0.00713419,-0.04936438,-0.02428931,0.03039745,-0.07521394,-0.10736813,-0.02433475,0.01743755
DYkyYUjOZTk,0.01271267,0.01011015,0.02866003,0.00856218,-0.01865834,0.08294265,-0.02775254,0.00837106,0.00021855,0.01625644,0.00316498,0.00670716,0.00371325,0.0014709,-0.00756054,0.02208778,0.02466776,0.04703852,0.00667951,0.01888107
0D14LJGiBkg,0.00766141,0.0057474,0.02183399,0.01127237,-0.00387125,0.08740247,-0.03465714,0.01166603,-0.00269718,0.01659773,-0.0358834,-0.00613995,-0.00592025,-0.01165671,0.00118194,-0.04769579,-0.0344915,-0.05413786,-0.0694356,0.0228289
IAn3Wu2BdyY,0.09818178,0.03478174,0.1092392,-0.0013414,-0.0397715,0.02768668,0.04442137,-0.17532419,0.06048465,-0.0362247,-0.05368778,-0.08019187,-0.071685,0.10496288,0.02054688,0.02435717,0.07347335,0.01898156,-0.07133184,0.00622611
HRxULulg_hM,0.02317989,0.01128172,0.05917483,0.02348119,-0.03514294,0.1669014,-0.0669104,0.0449846,-0.02262506,0.01344613,-0.03211154,0.03421731,0.00426072,-0.03348535,-0.00143054,0.13912933,0.09710507,-0.15884881,0.02113974,-0.09471889
UM9dcnJXX0k,0.02939013,-0.00389756,0.0278375,0.01908568,-0.00349105,0.05399644,-0.00508442,-0.0063759,-0.00127643,-0.00621452,-0.00355532,0.00867185,-0.0050338,-0.05030322,0.02089291,0.00239093,-0.00770178,0.02374497,-0.00936219,0.07361699
wy3a_xJI3so,0.01889156,0.01017536,0.06284276,-0.01102579,-0.00119843,0.2056747,-0.07098654,0.04781238,-0.00119685,0.10335402,-0.09132643,-0.04762981,0.00820041,-0.01864794,-0.03012927,-0.08428297,0.0601026,0.11491502,0.19896353,0.03691617
RniYUmKs93U,0.00712751,0.00274359,0.02416273,0.00755265,-0.01526121,0.04267949,-0.01588819,-0.00592181,-0.00213681,0.00600285,-0.01469715,-0.00729685,-0.00394324,-0.00678255,-0.00600931,-0.01605407,0.00577552,0.00618098,0.00872327,0.01120002
z7Qp9Q_Br88,0.01513548,0.0049986,0.037515,0.01290326,-0.02253021,0.10599331,-0.04451611,0.01029568,0.00034918,0.01699907,-0.03833154,-0.02557057,-0.00766615,-0.00523798,0.01133553,-0.08452824,0.01766526,0.00512435,-0.0772691,0.07014386
oRVJREzko-M,0.01375765,0.00693721,0.02433222,0.01673832,-0.00471484,0.08695227,-0.04132568,0.02205552,0.00192689,-0.00271623,0.00771106,-0.00324053,-0.00622181,0.01545967,0.0027532,0.03710421,0.01917661,0.01972119,-0.04714734,-0.0036777
gEUMAljLr78,0.05993585,0.06011927,0.09276499,0.03013654,-0.0730199,0.03701924,0.04193845,-0.10091119,-0.06698935,0.05392399,-0.0757785,0.2809719,-0.06574546,0.00987102,-0.15707039,-0.00193042,-0.10503132,0.00851604,0.05868342,-0.04557845
YUwjueXzffE,0.02501122,-0.00340337,0.05255242,0.00441108,0.00373009,0.21133895,-0.07615704,0.04168857,0.00436933,-0.02519827,0.01379678,0.01130982,0.0001338,0.00895298,-0.01376941,-0.053521,-0.00760721,-0.03615845,0.01309377,0.01464904
WPOhGVSPOyM,0.02635708,0.01840664,0.01964876,0.01869842,-0.00891602,0.03640704,-0.0246585,0.01512841,-0.016726,-0.00094034,-0.02051486,-0.00443608,-0.00968561,0.03018821,0.03180763,0.01387342,0.0391581,0.0058124,0.01651254,0.08703083
msYTFQ4OIu8,0.02098718,0.01185432,0.06822423,0.02973526,-0.03112212,0.28686529,-0.08916958,-0.00020746,0.0445653,-0.40071467,0.42158461,0.16882865,0.02166794,0.01399057,-0.05662442,-0.23351453,-0.11775214,-0.06960037,0.10485553,0.02630101
5-ASQ44GpNI,0.13244422,0.09846467,0.16735858,-0.00061998,-0.06492105,0.03198046,0.05228459,-0.17790311,0.03540562,-0.0494342,-0.04961327,-0.0943483,0.00795737,-0.0116646,0.12158369,-0.05240701,-0.00324903,0.03532167,-0.00748569,-0.02579979
pcAJLeGAtwc,0.01380287,0.00103963,0.0293606,0.00606221,-0.01108075,0.06764283,-0.02503302,0.00222441,-0.00640402,0.01980436,-0.02820903,-0.00421318,0.00979251,-0.00831184,0.01923207,-0.0022364,0.03492275,0.00196627,0.00986146,0.02102218
kH_bSvf7EVA,0.00637513,0.00599675,0.0185554,0.00609269,-0.00691402,0.13231786,-0.05429164,0.03118062,0.00027502,0.02613867,-0.02982717,-0.01429145,-0.01201871,0.01273318,0.0009518,-0.08505917,-0.05712392,-0.00097812,-0.17365675,0.04843102
t4S8XOHv1jg,0.15086774,0.05992689,0.124018,0.04579743,-0.09240464,0.06315047,0.07521945,-0.22724265,0.04059604,-0.07271729,-0.1124403,0.05495761,-0.20824428,0.23613496,0.01675993,0.00263754,0.13315398,-0.1156498,0.05024214,-0.23613217
wgADj9n8XMs,0.0730544,0.06323057,0.13946893,0.01116518,-0.06773565,0.01100288,0.02334417,-0.06098966,-0.08247633,0.05877144,-0.09666002,0.29396396,-0.11474391,0.0174658,-0.17725268,-0.00886659,-0.12932974,0.10830618,0.03598387,-0.06777585
lEhOg8oVpjU,0.17730488,0.046867,0.21248592,0.07114713,-0.17285673,-0.0163037,-0.01005398,-0.13283039,-0.01976476,0.14453447,0.0854306,0.03499701,-0.09020518,0.10131027,-0.04220176,-0.02649542,0.18108312,-0.05447641,-0.02162206,-0.02689372
CbDN7o5Ed_M,0.08415818,0.04774711,0.05212506,0.01278015,-0.04646181,0.02021124,0.03125379,-0.10742812,0.02697583,-0.0537204,-0.03764467,-0.07592948,-0.06662573,0.06549711,0.01418905,-0.00565397,0.02125044,-0.02324643,0.01243228,-0.04200532
t6GzhyGTKCo,0.00954517,0.00465403,0.04559177,-0.00061185,-0.00488425,0.21957705,-0.09070782,0.05863222,-0.01413368,0.08594359,-0.08791486,-0.02673179,-0.01235623,0.00592518,0.01121511,-0.12171917,0.03362928,0.06729814,0.04577322,0.07912683
3LnNwS6rqk8,0.0642345,0.0665332,0.09582023,0.02355012,-0.06561676,0.04693844,0.04440396,-0.11798082,0.01329754,-0.07153245,-0.05211131,-0.07524979,-0.07032131,0.0409999,0.12793862,-0.03605188,0.01762041,-0.01871673,0.01204276,-0.02994222
GXeBi91SkIw,0.01319228,0.00091592,0.03046353,0.01506057,-0.0052777,0.14878434,-0.05571521,0.02163367,0.0137049,-0.04220804,0.0704496,0.04102535,-0.00032651,0.02026904,0.00999373,0.07089128,0.02880382,0.06071267,-0.05966679,0.01088774
VgH5rhALEfU,0.02126175,0.0212242,0.03669719,0.00797581,-0.01192569,0.08278994,-0.0335233,0.00913823,-0.00754933,0.01253456,-0.03245794,-0.01475746,-0.02155033,0.01219841,-0.00257628,0.00090116,-0.0184332,0.00825755,0.02918905,0.00749419
Gmfpq60LbVQ,0.03158703,0.0145756,0.11048314,-0.05209584,0.00806473,0.03429207,0.01956217,0.01862911,0.01819916,0.00359832,-0.02544077,-0.03841105,0.02954427,-0.01216572,-0.06929817,0.01370788,0.05370237,-0.00920219,0.06093084,-0.02643293
QUBjCcBXy3o,0.01916324,0.01297149,0.11528788,-0.0549038,0.05925297,0.06583315,0.05395593,0.05065395,0.01646553,0.01352176,-0.02830274,-0.03314185,0.05435913,0.04655008,-0.05843919,0.00915676,0.10524631,-0.0598356,0.09308637,-0.02057109
31t_CBePs34,0.03725971,0.00901383,0.10911437,-0.03606616,-0.01285643,-0.01730755,-0.0018264,-0.05903781,-0.02874109,-0.03240405,-0.01448859,-0.00489637,-0.0735041,-0.04700681,0.11349718,0.07157549,-0.0934625,0.04537345,0.08063333,0.09244873
P9yleRV8tto,0.01861154,0.01059448,0.05098642,0.01920378,-0.01706394,0.23382559,-0.09988553,0.04328095,-0.02328092,0.00465858,0.03654204,0.02068474,-0.02946413,0.02750211,0.05605975,0.26352794,-0.03096819,-0.04173873,-0.10146756,-0.09493374
rbSEOholMxI,0.08787385,0.04399023,0.13272949,0.01764892,-0.02822293,0.02115435,0.02231161,-0.10104501,0.00901145,-0.07583488,-0.05082789,-0.02491702,-0.01567674,0.01229936,0.01129521,0.02145276,-0.02629097,0.07068709,0.00603888,-0.01117997
6r-qlEX6hGY,0.01089638,0.00285391,0.0326885,0.00438283,-0.01425137,0.07242437,-0.02375603,0.00193594,-0.00160639,0.00462452,-0.02602678,-0.00996956,-0.00890622,-0.00530784,0.0024121,-0.02478325,-0.00813815,-0.03854314,-0.04076275,-0.00269996
fpmYvXCzO1c,0.00948682,0.00709236,0.03164568,0.01165763,-0.01120072,0.17142799,-0.07185037,0.03639018,0.00325734,0.00646951,-0.02069179,-0.0051741,-0.01897799,-0.00668257,0.00047588,-0.01174809,0.02902147,0.03687024,-0.02531459,0.00766817
rc-xQnupse0,0.09746703,0.04100633,0.1606633,0.04574227,-0.11223906,0.01720142,0.01506619,-0.17118771,0.01323162,0.02051078,0.02269027,-0.04884732,0.0290219,-0.14319553,0.21727731,-0.03480753,0.11747889,-0.01714568,-0.05783527,-0.05657118
BflRX7z7SHs,0.07428358,0.033828,0.11491408,0.00177294,-0.05237441,0.01807775,0.0061819,-0.07198822,-0.00254007,-0.03780641,-0.01154613,-0.03337627,-0.06969172,0.06881013,-0.0154002,0.06642794,-0.04330935,0.01357044,-0.00359166,0.10468308
aZVcAlzBIp4,0.01603045,0.01426006,0.01255375,0.00691581,-0.01058369,0.03706972,-0.01689225,0.01236388,-0.00626747,0.00177631,0.00586802,0.00629324,0.00915257,0.00789786,0.00909416,0.02843756,-0.00158501,0.01219225,-0.01349165,-0.00386569
465Vc9I4fvc,0.01585403,0.01042003,0.04968807,0.00888817,-0.00334466,0.21821036,-0.09905958,0.05901968,0.00657248,0.03317464,-0.09432484,-0.07570316,-0.03492677,0.01842909,-0.00082215,-0.31449923,-0.24421005,-0.08992543,-0.28415241,0.03309913
KdmRWazuBRU,0.05977811,0.04691861,0.10833345,-0.0127727,-0.0358883,0.02976407,0.03399055,-0.11698908,-0.00555436,-0.07687171,-0.04672087,-0.00514494,-0.14669652,0.01397361,-0.06575517,0.06056475,0.04947329,-0.10377912,0.02599583,0.1749179
Jnc7hVslXdk,0.09170745,0.06400039,0.07551502,0.02167276,-0.05401742,0.10808387,0.01646374,-0.12462661,0.06319228,-0.07811597,-0.0364291,-0.1098939,-0.07586109,0.12013731,0.05744725,0.03421792,0.03786045,-0.01956037,-0.05069417,-0.11426717
tVpky2riji0,0.0671154,0.02951066,0.1488236,0.00448831,-0.06980849,-0.00813625,0.02636111,-0.0965535,0.02065671,0.08268467,0.06430206,-0.05414101,-0.07112927,-0.03646503,0.25079618,-0.02096287,-0.02083688,0.01366173,0.01858451,-0.02670805
rRw7sYwfSVI,0.0940358,0.05183396,0.16109033,-0.00605116,-0.06124102,-0.00624298,0.02693542,-0.03864154,0.02295504,-0.04199486,-0.06344238,-0.07145771,-0.00773123,0.0381077,0.04154985,-0.03100621,-0.03447898,0.0304219,-0.02765771,0.01433257
WeliLUboy3M,0.04075722,0.00833377,0.06458216,0.036548,-0.01734475,0.30653054,-0.07387627,0.00071136,0.04925456,-0.49722085,0.54464627,0.24729041,0.00923494,0.06906982,-0.01095331,-0.04455322,-0.00439207,-0.01613623,0.12088041,0.00336719
3REHDZgXE1k,0.00760242,0.0029367,0.02693373,0.00730693,-0.01302965,0.07164406,-0.02677777,0.01191309,-0.00411868,0.00160983,-0.01214892,-0.00663168,-0.00781909,-0.00323598,-0.00011586,-0.00376346,-0.03246012,-0.03738471,-0.04476493,-0.00365172
jytAQWCc_TI,0.05606752,0.05738458,0.03249007,0.01033394,0.00440699,0.33901676,-0.14158721,0.11519831,0.045555,0.03084711,0.00941151,0.01500462,0.00161025,0.01158241,-0.02156761,-0.00541516,-0.03108927,0.12215384,-0.00214248,-0.01437263
rJgtb2s7Oz8,0.06916962,0.05643862,0.12264254,0.0140743,-0.0490551,0.04919894,0.02796712,-0.15904116,0.00360309,-0.04271049,-0.02095247,-0.03370776,-0.05752299,-0.00350721,-0.09306736,0.01457841,0.13179742,-0.11230771,-0.03711862,0.19659973
e5jQUYrRPRk,0.1801453,0.00482749,0.14714087,0.05142396,-0.12661,-0.05382132,-0.01550712,0.09982021,-0.0367051,-0.13118139,-0.0592496,-0.04945754,0.0480529,-0.02588062,-0.021984,0.01314562,-0.02262222,0.08834446,-0.00347347,-0.08479026
sKME5er1OKc,0.05375788,0.02991416,0.10938704,0.03853273,-0.08581015,-0.00354978,0.00510041,-0.08812753,0.0363412,0.11443397,0.08943741,-0.03449155,0.00130714,0.00325835,-0.02196982,-0.03853706,0.02269948,0.06783286,-0.06250886,0.0253681
dZftIemBYVE,0.08010905,0.02575277,0.13058731,0.03888909,-0.09100944,0.02332861,0.00461904,-0.09395045,-6.918e-05,0.08005372,0.04932695,-0.03419238,0.03222753,-0.11710373,0.12425474,0.06558068,-0.02118477,-0.0130621,0.04361016,0.01708542
MqpQhyjFZQU,0.04749371,-0.02806554,0.00651762,0.00767532,0.00322278,0.024013,-0.002185,-0.00655333,0.00220802,0.01178902,-0.01183054,0.01897083,0.02481924,-0.02665025,0.00638055,0.02107233,0.02087137,0.01434911,0.01126601,0.00825772
iTOXHp4c1YE,0.04374484,0.03271999,0.08189245,0.02933487,-0.0559498,0.00310455,0.00918461,-0.05055231,-0.03226622,0.04393759,-0.01576582,0.10729284,-0.01557629,-0.02751751,-0.03929025,-0.0035358,-0.00184467,-0.01593071,0.01009962,-0.02511685
UcgjSqz0CZs,0.12129012,0.07903401,0.18644383,-0.01004052,-0.08311618,0.00521553,-0.01385221,-0.13011137,-0.0102807,0.09985209,0.10035631,-0.01438485,-0.00638479,-0.01379716,-0.07433251,0.03284432,-0.06361512,0.02229553,0.02970515,0.08297088
9rHaUzPlJws,0.03304882,0.02046473,0.12922072,-0.04700957,-0.00106778,-0.01252966,-0.01620268,-0.07049398,-0.00544047,0.02521404,0.03586486,0.00170052,-0.03884204,-0.0395577,-0.05011033,0.06611164,-0.05399235,0.11700333,-0.03452018,0.07889295
Qy_YMLKX8bQ,0.70264541,-0.45056168,-0.12812201,-0.03437232,0.07565529,0.0437941,0.03988316,-0.06333278,-0.39933555,-0.01836419,0.0505246,-0.14689551,-0.03457718,0.05355598,-0.04812836,-0.00860531,-0.00518816,0.08164401,-0.04501821,-0.04088873
4iXwPD-VHyg,0.0518444,-0.02171899,0.02251505,0.00862854,0.02400006,0.15515257,-0.05672533,0.02188956,0.02403507,0.02462171,-0.01955475,-0.01315501,-0.01058208,-0.0001007,0.00036345,-0.07912785,-0.11959903,-0.06448479,-0.05464327,-0.01586535
d7qfcHa4LTY,0.01652833,0.0164263,0.02788773,0.00929969,-0.01558928,0.09885256,-0.03619259,0.00512477,0.00150557,-0.00503566,0.0095033,-0.00135338,-0.00755482,-0.00873941,-0.00091553,0.00730925,-0.02654814,-0.00730866,0.00974341,0.00718762
fKtG9uPeMCc,0.10816074,0.01210846,0.08091109,0.03020995,-0.06005392,0.01697954,0.02715717,-0.10778938,0.00863197,-0.03271443,-0.10557672,0.06852268,0.33723182,0.22759741,0.06093307,-0.02873948,0.00288724,-0.02969745,0.0342339,-0.03720189
zxQJIBt9CBI,0.07149275,0.03945242,0.10127275,0.02916894,-0.08226048,0.00885809,-0.00756233,-0.01654114,-0.01367272,-0.04960142,-0.05999422,-0.04850531,-0.00124833,0.08487899,-0.01247496,-0.01232823,0.00031516,-0.04207923,-0.00210189,0.030239
YhNUPGphSM8,0.06027016,0.06768795,0.07586893,0.01608531,-0.0480216,0.0364287,0.02827037,-0.09443625,0.00152062,-0.0517374,-0.04735292,-0.06800126,-0.06552223,0.00264179,0.17079275,-0.03701296,-0.00537101,-0.03510223,0.05682635,-0.03324499
6jI9H3lyil4,0.06222517,0.0320788,0.13970785,-0.0454929,0.00290376,0.00614504,0.02190275,-0.08814043,-0.01249943,-0.01676063,-0.02273882,-0.05016633,-0.0283224,-0.08820698,0.2405433,-0.0637733,-0.0393267,-0.0317757,0.0500161,0.04576468
J7ieKmP96Hc,0.01390796,0.00550301,0.03891227,0.00767226,-0.00878231,0.2614412,-0.10987055,0.0637209,0.01190739,-0.05305027,0.11335038,0.08166994,-0.00944025,0.04533761,0.04881864,0.21431701,0.03528105,0.10207071,-0.19502499,0.0055813
z_XHk-DZ1nY,0.02333171,-0.00087983,0.05248179,0.00975372,-0.02866051,0.00804878,0.01360314,0.02888581,-0.03542068,0.0038675,-0.01556457,0.06079486,-0.00066186,-0.05176668,0.02266899,-0.03270762,0.12525137,-0.06682471,-0.03667422,0.02445364
Duk_kOhIimU,0.06758943,0.01506574,0.11829356,0.04148173,-0.08177732,0.0175178,0.00240427,-0.11578196,0.00658175,0.09231294,0.08131034,-0.00245342,-0.03319892,-0.01419723,0.09742597,-0.02619273,0.01996856,-0.00638392,0.01563635,0.02677075
RWGr8LwG3TY,0.11270983,0.05430289,0.12932619,0.03509453,-0.08739476,0.02985846,0.07072921,-0.18158805,0.03736372,-0.06544083,-0.09628607,-0.08168557,-0.0167287,-0.11894665,0.15488664,0.01136344,0.03927429,-0.08545782,0.01920695,-0.04230821
iRach9lpIlg,0.0158286,-0.00439514,0.02099203,-0.00071479,-0.00816248,0.00631086,-0.00413318,0.00562439,-0.00895003,-0.00234137,-0.00856667,0.01338278,-0.00603753,-0.00379895,-0.00406054,-0.00048776,0.0135233,-0.01142442,0.00031437,-0.00117576
OwbaFLtBpkQ,0.01448483,0.00778867,0.04974263,0.01120353,-0.02067828,0.12989917,-0.04977105,0.00432376,-0.01512456,-0.01530361,0.00092949,-0.00602891,-0.01431804,0.00207279,0.00589828,0.00629265,-0.07001641,-0.16927895,0.01439989,-0.08078961
UUzxEVhRQgQ,0.03249663,0.03630204,0.03036524,0.01986909,-0.01263886,0.00325212,-0.00149149,-0.01644427,-0.00628155,-0.01460288,-0.02117127,-0.01488907,0.02369373,-0.01632248,0.00821864,-0.00181414,0.01750621,-0.0110829,-0.00815387,-0.01637549
D4fkiQfzw_I,0.00514706,0.00257603,0.0216296,0.00837417,-0.00890686,0.08638477,-0.03251042,0.00739678,-0.00095368,0.00693986,0.00412352,-0.00116635,0.01289118,-0.00307589,-0.00570447,0.09628968,0.01757256,-0.04622016,0.02250314,-0.04477568
mMLOG0bsjRQ,0.09062899,0.01748455,0.16988642,0.00791677,-0.08156434,-0.00570833,-0.00363114,-0.13336008,-0.00052013,0.06412985,0.06238691,-0.07917998,-0.06798317,0.00025928,-0.10252999,0.05649696,-0.00773682,0.10086614,-0.0813814,0.0647115
Cp3DxMyEBIM,0.06065257,0.01065813,0.1757461,0.01642799,-0.10199299,-0.00691313,-0.00851717,-0.14244701,-0.08636305,0.15183033,-0.02591438,0.33359628,0.15126222,0.17435416,-0.10732899,0.00300293,-0.13613403,-0.04606293,0.08708597,0.03959749
UgfrzicHc80,0.02949956,0.01480518,0.13384423,0.24979691,0.17259801,-0.00783206,-0.03359412,-0.01556131,-0.01010746,-0.03214534,-0.02321246,0.00028144,0.03290474,-0.01847251,-0.02943799,0.0247179,-0.01747365,0.04718655,-0.01794872,0.00623757
jCyhEO3h-Ik,0.01509123,0.00551831,0.04950328,-0.00828553,-0.00337069,0.13969649,-0.06226257,0.01430607,-0.00787662,0.01500112,-0.01569721,0.00587287,0.0234388,-0.00748654,0.0128416,0.02244213,0.03623961,-0.02608286,-0.01704324,0.05919136
1d3wR5LJ4-4,0.04058584,0.01355306,0.10644624,0.03704198,-0.07401009,0.04218879,0.05556982,-0.14594534,-0.0890457,0.07919437,-0.2146864,0.47208265,-0.21056838,0.09249218,-0.16626565,0.05689679,0.01180553,-0.07146223,0.10104522,-0.25608445
mDh52QTqR0o,0.09277298,0.04662282,0.14000149,0.00751557,-0.05952548,0.05073709,0.06299415,-0.15168387,0.0354949,-0.05280491,-0.0353927,-0.06628553,0.0263466,-0.06813493,0.07848107,-0.04812444,0.04943324,0.07108637,-0.01468829,-0.03502469
qxj4Sr5Cm24,0.03997928,0.02098653,0.03745414,0.02602371,0.01448468,0.08571904,-0.04109772,0.01455419,-0.00683346,-0.00989601,-0.0053885,-0.00770797,0.01387246,-0.06503124,-0.01037719,-0.00625161,-0.00114202,-0.03533429,0.02801011,-0.0018449
oNjLzGpMCuw,0.06416268,0.02988391,0.07942007,-0.01539077,-0.02122587,0.01196716,0.00923331,-0.07858944,0.01347597,-0.037607,-0.02668996,-0.03651173,-0.00250039,0.03983803,0.06538319,0.0292906,0.02993506,0.03273941,-0.02160015,0.01182291
aQi987cz1nk,0.08119181,0.06891905,0.04394977,0.02021053,-0.04256371,0.02160462,0.02395204,-0.04359155,-0.02597071,-0.00445079,-0.04873136,0.05270374,-0.05319128,0.03776396,-0.05192622,-0.00363891,-0.00228736,-0.05644556,0.04204276,-0.02681212
v_1Dhh8G84c,0.01590274,0.0109921,0.04188747,0.01392031,-0.02541141,0.12201984,-0.04245646,-0.00055742,-0.00331838,-0.01002852,0.01416024,0.00337162,0.00416444,0.00180652,-0.02225381,0.02417209,-0.00922325,-0.02374596,0.0422494,-0.01778276
-uUlnDjQxhg,0.01910208,0.01887702,0.03952785,0.01413143,0.00153474,0.2657181,-0.11149027,0.07305145,0.02265343,-0.01220476,0.03883014,0.03077112,0.00352613,0.02846928,0.01766918,0.07780781,-0.01727413,0.04562707,-0.13647301,-0.00976968
IldLswg2yAM,0.10569119,-0.01491696,0.05314848,0.01017364,-0.03020565,0.04594569,0.01289185,-0.06686094,0.01886128,0.00396518,-0.01623222,0.05539484,0.06966888,-0.05550608,-0.05922419,0.02066828,-0.03211504,0.03186376,-0.04931362,0.02470365
POn6IRgP5-A,0.11379193,0.02910821,0.07477339,0.01579514,-0.04602167,0.03601935,0.04059861,-0.12013328,0.05721307,-0.04407,-0.04737541,-0.07540192,-0.01488808,0.0828623,0.04831595,0.01966928,0.04829138,0.03905037,-0.01626369,-0.04779059
MpPS5I1pJD8,0.01835457,0.00893281,0.0561839,-0.00427403,-0.00486563,0.28082554,-0.12042122,0.08480372,-0.01320812,0.12873806,-0.10839391,-0.04837151,0.03719192,-0.03292646,-0.03579427,-0.13414482,0.1038826,0.09204032,0.26300168,0.08004382
yIUDe9YH0ac,0.01417287,0.01004932,0.0375107,0.00889621,-0.01725313,0.06493687,-0.0175645,-0.00705872,0.00227113,0.0067732,-0.0182154,-0.01112878,0.01783415,-0.01019439,-0.01233318,-0.01682848,0.01820059,0.02364487,-0.00925895,0.01007425
WKBwkE4dn-k,0.00983423,0.00705789,0.03298752,0.01561624,-0.00721706,0.17743117,-0.07603229,0.04035232,-0.00272583,0.03925617,-0.04522221,-0.02076003,-0.01583316,-0.00862923,0.01271257,-0.09560083,-0.02642233,0.02967673,-0.07683619,0.05379831
dhbt8y_LXQY,0.02763674,0.02013511,0.03852603,0.01505147,-0.02194759,0.12955599,-0.05431861,0.03516834,-0.01250373,0.01136244,0.01186207,0.00950122,-0.00249262,0.01894982,0.02095596,0.10350983,-0.00052798,-0.0022981,-0.00316773,-0.05713867
rVixyOY_Xr4,0.06878119,0.03418878,0.09545606,0.00138877,-0.03348293,0.01363157,0.02159696,-0.05006427,0.07117078,0.00622318,-0.02023187,0.03497011,0.09634054,-0.15888053,-0.07757807,-0.0100524,-0.09870434,0.03960565,0.00204751,0.03108101
iR6FvFoW0F4,0.06747482,0.04797867,0.24863465,0.63915094,0.55244453,-0.06212153,-0.05852703,0.03577417,-0.0055478,0.01352195,0.0127269,-0.01314258,-0.00356803,0.0126892,0.00188584,-0.00561052,0.00489506,-0.01233386,0.01253928,0.0067336
3Ip-TJvpjLQ,0.079949,0.05039442,0.10234862,0.02874186,-0.08866382,0.04135691,0.03807486,-0.15009531,0.04051435,-0.0533349,-0.10718808,-0.1476947,-0.13320659,0.24748084,-0.01219617,-0.17201836,-0.00581161,-0.09467612,-0.11244044,-0.00175624
zuzydZz-cmo,0.06484773,0.05916165,0.10635997,0.14240569,0.08821212,-0.00133877,-0.00511872,-0.03671486,-0.02701997,-0.0291531,-0.00653994,-0.01440529,-0.00788429,-0.09115478,0.10658483,-0.03251491,-0.03938147,0.03116595,0.00345638,-0.00832339
QIKiQjEMUjY,0.03262772,0.00144438,0.123709,0.31258693,0.26600746,-0.01564247,-0.04081773,0.00464827,-0.00083084,0.0024666,-0.01159556,-0.00114347,0.01495966,0.00970581,-0.00722301,-0.01162577,-0.0153659,-0.01496863,0.00717337,0.00728452
WwEyLRmGU9g,0.04082512,0.02262751,0.13737085,-0.03932307,-0.02336812,0.00315029,-0.00299966,-0.08990045,0.00458488,0.00024316,0.00998815,-0.01611506,-0.05733744,0.00574695,-0.00197361,0.03057016,-0.04498612,0.0447222,-0.02422955,0.08013066
yy_J5fdELm0,0.00856586,0.00259248,0.03010957,0.01210116,-0.0110217,0.11842734,-0.03024166,0.0267405,-0.00635707,0.01903158,-0.04993644,-0.02482993,-0.00889275,-0.07515145,0.04195508,-0.05614283,0.00371507,0.06910708,-0.07751588,0.17618664
g-7nUex4nVg,0.10613536,0.09779413,0.1271606,-0.01929836,-0.03491586,0.01676839,0.03411964,-0.15503338,0.03460819,-0.02636253,-0.02716264,-0.09047602,-0.01821506,-0.02091103,0.19591756,0.01006424,-0.0407838,-0.05246959,0.05095119,-0.00219898
oqoBSeL5GIU,0.01257829,0.00562773,0.04486432,-0.00396838,-0.00679819,0.17532093,-0.05863038,0.04345649,-0.00595776,0.03823208,-0.05648249,-0.04970992,-0.00497328,-0.04389745,-0.03005448,-0.05080244,-0.1017593,-0.0735992,0.04669451,-0.10157929
5W2lIWDyXjI,0.01024587,0.00409013,0.03481722,0.004459,-0.01243683,0.06547121,-0.01555806,0.00666955,-0.0042956,0.01382225,-0.01757506,0.00400123,0.00011761,-0.0131702,-0.00775169,0.01740918,0.03248415,0.01379322,0.00880361,0.00685507
YPboGQjMxNY,0.01195883,0.01482296,0.00926215,0.00522817,-0.00662758,0.01565989,-0.00345696,-0.0042492,-0.00882014,-0.00980672,-0.01446875,0.00855194,0.01536129,0.00996184,-0.00382454,0.02919604,0.02172874,0.00538439,-0.02596149,0.01383852
aRLwX_dN8AQ,0.00726309,0.00415691,0.03494709,0.01217918,-0.01262302,0.22338902,-0.097019,0.04054208,-0.02950385,0.04968895,-0.01579646,-0.02837314,-0.05506922,0.02851981,0.04747294,0.22037312,-0.07688291,-0.23521663,-0.04238663,-0.14858888
K9S3YgFZN9Y,0.00784811,0.00264316,0.02708695,0.00836964,-0.01677534,0.069973,-0.02970375,0.00106418,-0.01495466,-0.01078688,0.00741812,-0.00067086,-0.0154586,0.01139169,-0.00142187,-0.00772963,-0.05520357,-0.14088367,-0.00258723,-0.06549342
crrTHKN_R58,0.0587578,0.06004034,0.08694179,0.03492586,-0.04694335,0.02644639,0.03629014,-0.09992994,-0.04493557,0.02203657,-0.07481645,0.22248118,-0.06933486,0.01716214,-0.12199914,-0.01305752,-0.06856684,0.01068059,0.05165601,-0.04817757
LMJb-_uL6lQ,0.00499822,0.00236769,0.01954411,0.01007685,-0.00462341,0.06867333,-0.02325923,-0.00056853,-0.00180457,0.02207946,-0.02230662,0.02789702,-0.00776564,0.02769708,-0.00049018,0.00962086,0.03951896,0.00320155,0.01297005,0.03073553
daa-UCIuoY8,0.07885158,0.03350711,0.11263761,0.04893973,-0.06248483,0.00475755,0.03216131,-0.04758401,0.14721455,-0.08613747,-0.09195182,-0.01710568,-0.00213976,-0.05024479,-0.03886174,-0.02538372,-0.03498412,0.09556144,-0.04759437,-0.03299656
KXpgCNB6Dcs,0.07645431,0.05522058,0.08089312,-0.03429104,-0.00191348,0.00955913,0.00936608,-0.09433044,0.04530471,-0.03827502,-0.03000858,-0.07289582,-0.05966125,0.08691991,0.02253346,-0.03956087,0.03562896,0.00174572,-0.03108334,-0.04776963
enQeP-ztP5A,0.07721393,0.038194,0.05870856,0.00028277,-0.00611359,0.02196036,0.01371248,-0.05192121,0.01187865,0.00964239,-0.00281009,0.00555741,0.01308765,-0.01120573,-0.00885402,-0.03241587,0.00766926,0.01650684,-0.01570405,-0.01963329
1pglkwgsu1I,0.07117923,0.0555852,0.12310062,0.04191699,-0.09292342,0.03010757,0.04884219,-0.11611796,-0.03249967,0.00569115,-0.11049965,0.18625078,-0.09090184,-0.0037806,-0.09146051,-0.04219854,-0.03918579,0.0163211,0.082093,-0.08619434
TfojYStTlZE,0.0655241,0.02283489,0.1313043,0.05168289,-0.10363042,-0.00853845,-0.0228287,-0.05178315,-0.00648322,0.15085311,0.11811461,-0.02026598,0.0576535,-0.06481187,-0.04980726,0.04345066,0.02022908,0.00689578,-0.03715825,0.02884263
GlgzzZEePXo,0.09558503,0.03700581,0.18593243,0.02721652,-0.09034371,-0.01375517,0.01414115,-0.12419756,0.00253579,0.07158399,0.05794001,-0.0724044,-0.04138137,0.0902948,-0.03225969,0.09868909,0.02190878,0.06307655,-0.04385529,0.15265771
1VSBgPn28zA,0.01468333,0.00388293,0.05654147,-0.01623031,0.00505241,0.23537824,-0.09430965,0.06361278,-0.00836863,0.07347355,-0.0797732,-0.01969034,0.00217324,-0.01252563,0.00218916,-0.09202781,0.10114383,0.07758372,0.12030267,0.08074655
MWrMtRjLhjk,0.05778386,0.00527573,0.09537945,0.03266809,-0.07780514,-0.02313399,-0.02873918,-0.05692796,0.01439547,0.15570811,0.13545075,-0.01349312,0.01348535,-0.01868343,-0.00364242,0.00046565,0.01780206,-0.05351368,-0.01815423,0.05528718
98ShZgIhSbk,0.02356535,0.00650728,0.07014269,0.02934504,-0.02811927,0.22859009,-0.08790199,0.04842026,-0.00766712,0.07734051,-0.01983489,-0.02172014,0.00504923,-0.01864386,-0.02375456,-0.16526156,-0.16382194,-0.09923697,0.02932313,0.00413843
XXZ2wOom1l0,0.07391613,0.06413871,0.15888565,-0.10653561,0.05548174,0.01310388,-0.00182235,-0.10005244,-0.00254231,-0.08343767,-0.04310119,-0.00501582,-0.0859837,-0.03255257,-0.06221764,0.04937522,0.05328217,-0.12397932,-0.03443044,0.16581089
SZ8r5VKtGes,0.08774174,0.06956464,0.10254234,0.02454259,-0.06207503,0.05340655,0.06192076,-0.13989668,0.02882464,-0.0923869,-0.05814983,-0.10965267,-0.06622853,0.00803896,0.13246566,-0.07655222,-0.02430558,0.06327654,-0.01887303,-0.03090218
DSRfs1qKWR0,0.00183548,0.00056076,0.00680513,0.00239226,-0.00436197,0.03350929,-0.01572588,0.00686595,-0.0026659,0.0050346,0.00553473,0.00960896,-0.00012396,0.00653914,0.00082725,0.02404634,0.00369705,-0.00162359,-0.01967208,-0.01047662
T7_l896OH20,0.07334003,-0.02039337,0.05802288,0.02913689,-0.03198989,0.00913183,-0.00231493,-0.00948046,-0.01211554,-0.00638043,-0.01560803,0.01834595,0.04207227,-0.02595465,-0.01883992,0.00416321,0.044023,-0.00768404,-0.00423402,-0.01054404
ZrvvBKldeo0,0.05891585,0.0260992,0.1765392,0.01211009,-0.07591057,-0.00129207,0.03328896,-0.11935466,-0.09987375,0.09063922,-0.10920406,0.37696549,-0.22285321,0.04915539,-0.15341179,0.04395092,-0.13228585,0.04996323,0.10625944,-0.04291862
5tW7CPAVii0,0.01211678,0.00809053,0.04543642,0.01979209,-0.01170916,0.28241145,-0.12572789,0.0687609,-0.00724766,0.05612377,-0.08928829,-0.04520681,-0.01710183,0.00614927,-0.01042605,-0.27462538,-0.2051049,-0.08358118,-0.23438139,0.04967729
S0WQP5GeTZs,0.01501593,0.00197327,0.04045522,0.01370439,-0.01977318,0.16248198,-0.05921113,0.02339214,0.00420039,-0.01678391,0.04152316,0.03665263,0.01037727,0.01140814,0.01686893,0.10453594,0.0360388,0.05868461,-0.06563956,-0.00227412
DYhg0nWZ1UQ,0.10362111,0.04584041,0.11395864,0.02879739,-0.08647701,0.07837266,0.05204779,-0.15109638,0.09939241,-0.16910357,0.12803913,-0.05152598,-0.0685147,0.0640377,-0.00276133,-0.11361832,0.10359074,0.06314469,-0.01014263,-0.04961502
kmKuk_TCEvU,0.11892742,0.04694376,0.13746616,0.0437773,-0.10501434,0.03383719,0.05248633,-0.17708787,0.05009745,-0.02138522,-0.01356567,-0.08123644,-0.09867403,0.12551082,-0.01000385,-0.074319,0.0635166,0.09252331,-0.06891669,-0.09165849
ZAmCJoz4c4w,0.01413074,0.00280789,0.03969929,0.01318365,-0.021152,0.14579246,-0.05917704,0.02497131,-0.02817607,0.02316952,-0.00164678,-0.02904448,-0.04017966,0.0103172,0.04751249,0.20139008,-0.09357817,-0.17158225,-0.0420467,-0.13064264
Y9HJ_U3TdXk,0.0119175,0.00323245,0.03883927,-0.0003864,-0.00964763,0.14215121,-0.04660958,0.03030065,-0.00550987,0.03095378,-0.02583523,-0.00986281,-0.01116262,-0.00774414,-0.00396003,-0.02164655,0.01938458,0.01256878,0.06351564,0.00203289
Bcag49Fk3zA,0.01729006,0.01056367,0.05436984,0.02225764,-0.02900497,0.2076529,-0.05022676,-0.03918477,0.03794311,-0.48180438,0.48356883,0.19972133,0.01968132,0.04115489,-0.03494794,-0.16630793,-0.03873579,-0.12342589,0.17755417,-0.00543252
-uSQcEfnKp0,0.0102182,0.00164856,0.02534174,0.00790784,-0.01189853,0.07543771,-0.02235368,0.00410696,0.00247368,-0.00309315,-0.00612462,0.00674021,0.01185929,0.003208,-0.01500095,0.02134456,0.00305251,0.01831302,0.00644754,0.006672
gZ3EniqK8Qc,0.17793568,-0.05813423,0.17869477,0.0541177,-0.18680323,-0.0929139,-0.06535135,0.18318433,-0.07153125,-0.06072187,-0.00775096,0.01642904,0.02759167,-0.11513687,-0.06141273,-0.05306454,0.15243602,-0.04029102,-0.01906787,-0.01038202
qGDMB-PryIU,0.0217406,0.01549475,0.0545705,0.02739599,-0.01608354,0.19261783,-0.07366519,0.01945917,0.00044083,-0.0075649,0.03408985,0.01942944,0.01469062,-0.01074554,0.00678961,0.10836585,0.00117266,0.05412423,-0.01589125,-0.00698701
RCl-cN1Hf-Q,0.08684731,0.06993054,0.30388606,0.66040104,0.5626299,-0.05043531,-0.03803923,-0.01052428,0.00653565,-0.05283169,0.00272465,-0.03637299,-0.01995826,0.01995612,0.01208704,-0.05051576,0.0242149,-0.01877184,0.02936417,-0.05005289
yk8ziJow5dw,0.01299173,0.00399751,0.05256424,0.00725972,-0.00512113,0.23529496,-0.09956694,0.06382695,-0.01492221,0.0317889,-0.05057525,-0.04625034,-0.01538651,-0.02042708,-0.02040972,-0.13184357,-0.19831834,-0.19542234,-0.02669657,-0.12082162
eCw33snvoNI,0.01876154,0.00760224,0.03625055,0.0112764,-0.01223947,0.12141099,-0.05040616,0.01915389,0.00968884,-0.00937803,0.00231258,0.02041488,-0.00056321,-0.00864231,-0.01610908,0.00745787,0.02588507,0.02844128,-0.01614486,-6.17e-06
2y_3sFy4R1A,0.04962491,0.02362625,0.07159216,0.02477128,-0.04518874,0.02323324,0.00878652,-0.06537904,0.06868066,-0.05514589,-0.04038326,-0.01342168,-0.01244614,-0.04589528,0.11808253,-0.02043651,0.00366974,-0.01391376,0.01418704,0.00075029
0Z1lChyi2W4,0.01201523,0.00250485,0.03881658,0.01430411,-0.0116507,0.16656806,-0.0667507,0.03240954,-0.00928681,0.02485999,-0.03480813,-0.01801468,-0.0158058,0.00795672,0.01106186,-0.0981785,-0.11089307,-0.12022168,-0.00352353,-0.03340826
8fIRAhGGRgA,0.0200606,0.01248988,0.06019704,0.01083848,-0.00881318,0.33627864,-0.13498115,0.08084869,0.00753221,0.0251777,0.01493685,0.01355811,-0.00791255,0.03888085,0.03040457,-0.04462331,0.0494196,0.14765392,-0.1009319,0.09770599
Rvy2kXZpBtM,0.08917117,0.07336144,0.08646396,0.03081244,-0.06279311,0.03836941,0.06016043,-0.14523777,0.05104205,-0.07603232,-0.0579041,-0.1069229,-0.02072238,0.09617064,0.04047653,-0.03280888,0.09091089,0.00551976,-0.01203936,-0.09374546
iK6HT02LYX4,0.01125051,0.00790285,0.03623273,-0.0097099,-0.00141372,0.134106,-0.05188154,0.05208231,-0.01593979,0.06066805,-0.05885628,-0.05887099,0.01230688,-0.02212241,-0.03166497,-0.05370271,-0.04746378,-0.08272659,0.02851492,-0.08909702
KPjUKzX4bo8,0.11298505,0.03371987,0.11084802,0.00582058,-0.05352481,0.01115954,0.00449589,-0.06459461,0.00499633,-0.04052772,-0.05432638,-0.02293125,0.01534313,0.01601238,0.08521168,0.02101472,-0.06117076,0.03713907,-0.01052274,0.01303966
Cit2bKRejmc,0.17567258,-0.03011037,0.13331377,0.04238284,-0.16400893,-0.08915428,-0.10163317,0.13597605,-0.03285769,-0.12122159,-0.05464913,-0.11712118,0.01735131,-4.802e-05,-0.04781433,0.01562401,-0.01010177,-0.01679284,0.00576618,-0.05256263
uSjcVPbJayU,0.0986053,0.01150888,0.12637536,0.04250587,-0.07410307,0.03004502,0.08257007,-0.17222407,-0.01969002,0.04227882,-0.09851714,0.18046269,0.23189791,0.15360632,0.13410405,-0.00497817,-0.11602634,0.00488162,0.0535447,0.01894114
wEb6ULf3TzU,0.01281562,0.00799066,0.02705968,0.00449848,-0.01052466,0.09863088,-0.04233424,0.01587911,0.0017922,0.02578764,-0.01252825,-0.00580764,0.01254748,-0.00174261,-0.0073964,-0.06072638,0.01280177,0.04438453,-0.00198655,0.02673617
DB1fSfulSJQ,0.01979702,0.01818542,0.0506676,0.02266122,-0.00750896,0.26054536,-0.11498771,0.06799617,-0.00234776,0.01860727,-0.07098096,-0.06420954,-0.02908988,0.03396543,0.00319026,-0.36453401,-0.2558203,-0.08379503,-0.33191227,0.04363003
48hHo2WcAQI,0.04312232,0.03918578,0.08557104,0.02472315,-0.05328165,0.04717058,0.05249173,-0.1151524,0.00153572,-0.07609622,-0.04521182,-0.06581141,-0.02684497,-0.03343277,0.08723116,-0.07374822,-0.05899094,0.10591521,-0.00871268,0.01855634
_9bYQ2tvc_s,0.08027854,0.00510932,0.08999537,0.02890681,-0.07708856,0.01808109,-0.02165109,-0.07567379,0.03958637,0.12694752,0.11719545,-0.01719703,-0.03711152,0.02658496,0.0136701,0.00764822,0.05546308,-0.01393063,-0.02789402,-0.01315539
PDQ3laPc--4,0.68886309,-0.44718805,-0.10628646,-0.01729109,0.04556699,-0.01994798,-0.02411219,0.07131289,0.04493997,0.00866873,0.00508499,0.07994607,0.04682373,-0.03044642,0.02005171,0.00555001,0.00405314,-0.03310696,0.03054851,-0.00182061
F1gM7N-WXdU,0.0223906,0.01466895,0.05494306,0.04719416,0.01393202,0.07423896,-0.03316469,-0.00929756,-0.00408297,-0.01235198,0.00432268,0.00039481,-0.00642509,-0.02829925,0.00523308,0.04202129,-0.00965344,-0.05128172,0.00936874,-0.0210139
lk7HWLeXjS4,0.08679672,0.05131007,0.10934366,0.03154507,-0.03794397,0.03197962,0.04134707,-0.1155838,-0.00107549,-0.03225622,-0.0831437,0.07092536,-0.07741383,0.02229745,-0.02967055,-0.024536,0.04990919,0.01768617,-0.01935881,-0.10369034
Hk20QLW6nEc,0.07166235,0.05280456,0.1239031,0.04429895,-0.08450144,0.00029668,0.02483495,-0.10048214,-0.01115671,0.06155643,0.03592244,-0.02999359,-0.01776472,-0.03253216,0.12551704,-0.00517817,-0.03323133,-0.02172017,0.03597498,0.01730541
iaYdIU5n6vw,0.02608828,0.00955293,0.06849614,0.01019161,-0.02965413,0.25264165,-0.10736888,0.08146481,-0.02251497,0.04298655,-0.0652261,-0.00214799,-0.0100188,-0.05164492,-0.01404007,-0.01805939,0.08309943,-0.07944181,-0.00052235,-0.04446537
ABoKfabPQyY,0.01794628,5.753e-05,0.05250315,-0.00148385,0.00513768,0.27525102,-0.10811367,0.08153495,-0.00131128,0.16113288,-0.1389216,-0.03898267,0.03812578,0.03657812,0.01186519,-0.18058926,0.16587716,0.14232417,0.29100928,0.132334
_jxLMMcKmRQ,0.10618764,0.04426124,0.09005048,0.01931276,-0.05589766,0.02905799,0.05814817,-0.1778088,0.02996985,-0.05160183,-0.04300885,-0.11658241,-0.0719146,0.02168923,0.22946455,-0.00426848,-0.0282019,-0.01228229,0.04515156,-0.02935513
nVHr2D6tnA4,0.09563583,0.01486108,0.12261376,0.03985025,-0.11463752,-0.03454323,-0.02530934,-0.04520095,0.24293942,0.19837062,0.1287562,0.02081051,-0.02661031,-0.02289686,-0.05244625,-0.0510469,-0.03457991,0.08671064,-0.06250783,-0.02820016
0HSNPIttevk,0.03695072,0.00957307,0.07266738,0.02676337,0.0144833,0.30497061,-0.13156412,0.07766009,-0.0177165,0.07305384,-0.10372417,-0.06346543,0.01932208,-0.04947939,-0.0379046,-0.12690473,-0.18164686,-0.18842706,0.00997832,-0.08817526
KKwxanUOAd4,0.05364454,0.02829072,0.12333399,-0.00675584,-0.04430049,-0.01014174,-0.01505532,-0.07210557,-0.02600658,0.08603619,0.01937161,0.07715874,-0.02006487,-0.020599,0.02901019,-0.00440339,-0.00316323,-0.02040498,-0.00456822,0.01133164
dqOmDZPkIF4,0.10484498,0.05484992,0.19012048,0.00555921,-0.07505642,0.01389685,0.02041644,-0.19011065,0.07319686,-0.19843034,-0.04949514,-0.28880952,-0.10336639,-0.10000432,-0.32411613,0.28129044,-0.16789927,0.11899972,0.16191526,0.06748583
rk2b7fH_Gcc,0.0621893,0.05938244,0.09683098,-0.00462202,-0.02423017,0.03381229,0.03597821,-0.10648719,0.01073113,-0.0662213,-0.0302183,-0.05231427,0.00264051,-0.01717625,-0.0138022,-0.09481582,-0.01594738,0.09527826,-0.03548035,-0.03083303
GAf7J_t1o8U,0.10399104,0.07211644,0.15206646,-0.00397732,-0.04843403,0.07667913,0.10973594,-0.13004384,0.07529799,-0.05770736,-0.04134647,-0.1815306,-0.04344439,0.06274384,0.00865235,0.05697984,0.12793793,0.065482,-0.02391558,-0.10940872
ehizptRtYzM,0.05677011,0.05581031,0.08816837,0.00135076,-0.03450407,0.01711164,0.01069903,-0.05673205,-0.00278481,-0.02946016,-0.03257822,-0.01848691,0.01621649,-0.00088682,-0.00582629,-0.03398837,-0.00165317,0.02114676,-0.02196148,-0.03287047
RnT_izvRznQ,0.10628218,0.04403409,0.18848359,0.05905349,-0.14700472,-0.00721347,0.03017318,-0.05404454,-0.00953872,0.14050861,0.19761373,-0.0920282,0.05090162,-0.11774573,-0.07246896,0.07268454,-0.14451015,0.02890195,0.0836615,0.03712025
JbjnuF8OiZc,0.06190871,0.05637892,0.10692596,0.0317547,-0.07834417,0.04047672,0.03919812,-0.1285658,-0.00872677,-0.0531816,-0.07570798,-0.05960281,-0.03753728,0.04794806,0.00065828,0.05214825,0.09834404,-0.01805071,-0.0541212,0.00224826
EGTF9mGda4U,0.01806045,0.00132695,0.02176509,0.01242395,-0.01097406,0.06821169,-0.02939635,0.01959793,0.00136882,-0.03619849,0.0502956,0.02752014,-0.00572953,0.0188828,-0.00123928,0.0516489,-0.01403904,0.00367408,-0.03307676,-0.03856634
MlcUa5-3G68,0.10913924,0.0742476,0.14062692,0.03226752,-0.08596889,-0.0040027,0.00622468,-0.10733489,0.01156692,0.1542845,0.11849744,-0.03489134,0.01763285,-0.02296376,-0.03256804,-1.902e-05,0.07506021,-0.04459419,-0.05211801,-0.01237316
IZNeoCSdcfY,0.05744442,0.04978099,0.08073049,-0.01076271,-0.02536974,0.03285032,0.01066251,-0.07885369,0.00677408,-0.01022264,0.00424904,-0.02735551,0.06338701,-0.07677055,-0.04950959,-0.05374799,-0.0385284,0.01158698,0.02593887,-0.03114873
6WqWhSmCbXk,0.10066382,0.03553852,0.18634546,-0.01082076,-0.07821444,0.01340091,0.01749282,-0.11795738,0.12513236,-0.05708845,-0.03766506,-0.13587284,0.03180733,-0.15593177,-0.21297953,0.0949524,-0.09248848,0.03239493,0.05700724,0.02294674
7jg0cSWJpCA,0.25411941,-0.03035744,0.32109403,0.04694395,-0.26711098,-0.16810119,-0.14825842,0.05281457,-0.03132342,0.12489409,0.19006496,-0.14324189,-0.02055022,0.03125308,-0.10616165,0.07751661,0.03108957,0.0670997,-0.03776184,0.03389314
VjqsnOrW3AM,0.02188668,0.00480272,0.03723283,0.01463745,-0.00724463,0.2148199,-0.09292823,0.04622443,-0.00802482,-0.01974494,0.02232627,0.00462785,0.01184898,0.0333223,-0.00149716,-0.04631866,-0.02351558,-0.11491917,-0.08372869,-0.00079513
M_FKC2NTb24,0.07212021,0.03899438,0.05002255,0.01832241,-0.03194411,0.02684338,0.02641699,-0.08062341,0.01568095,-0.04995008,-0.03015098,-0.05406039,-0.03229769,0.02574667,0.04186081,-0.02806094,0.03397633,-0.02166591,0.02700372,-0.03298921
TekYNY3eGC0,0.03374076,0.02592615,0.05948015,-0.0073396,-0.00120034,0.01933842,0.01199917,-0.01797202,0.00487515,-0.01282318,-0.01658863,-0.01079152,0.01272976,-0.02178817,0.00148998,-0.00915318,0.01095446,0.02458572,-0.02796073,0.01269883
x2r3FTy9HHE,0.01933518,0.00948626,0.04035641,0.00876843,-0.01521075,0.18482955,-0.07293613,0.02745976,0.00387197,0.02298449,0.04196169,0.03341288,-0.00956741,0.01132745,0.02958284,0.21884389,0.04685536,0.06915287,-0.03814448,-0.04277897
wdCDxH9KBss,0.1128909,0.06829149,0.16779692,0.05554771,-0.09857214,0.02410263,0.06777766,-0.21920297,0.00582438,-0.03691126,-0.09043169,0.04831971,-0.10592925,-0.01725572,0.09919078,-0.00492341,-0.09639472,0.07711343,0.04014137,-0.11711385
Hpl10gpuOGw,0.14202304,-0.03054989,0.18476771,0.06605543,-0.16393645,-0.0659085,-0.08776411,0.09102979,-0.0343884,-0.14720121,-0.03336024,-0.09478425,-0.01218149,0.00433015,-0.11303211,-0.01430514,-0.0810489,0.1525139,-0.09062589,0.00362108
bouvNyq8xCY,0.01051106,0.00345835,0.02699641,0.01398227,-0.00287261,0.04860383,-0.00921861,-0.00972271,0.00097893,0.00232178,-0.00290547,-0.0032979,0.00438441,-0.01578936,-0.00949802,-0.00529756,0.01563151,-0.00421088,-0.0002852,0.00464215
Gl_2LVRaM8U,0.0301783,0.02518289,0.06912767,-0.0131492,-0.01285625,0.04349637,0.01242872,-0.05520266,0.01519709,0.00577315,-0.02101895,-0.0237734,0.03247266,-0.06672339,-0.05547149,0.05773103,-0.02296298,-0.02428678,0.01470522,-0.03225001
FBq_mtNPweg,0.10113672,0.0019973,0.25044207,0.62803867,0.53066704,-0.06179835,-0.03706493,0.00602801,0.01289856,0.05191693,0.02938628,0.02222395,-0.06307299,0.05341446,0.03132351,4.7e-06,-0.03331104,0.01074877,0.05073034,-0.02357716
Cql6TAdpPDU,0.20013291,0.31661,-0.00219532,-0.06841453,0.06568165,0.01284034,-0.00428847,-0.02147065,-0.0083303,-0.04284643,-0.05374793,-0.00123392,-0.05022549,-0.01666074,-0.04083884,-0.00030423,0.0727413,-0.08406933,-0.08573405,0.03602852
WB1bBLedJQ4,0.08298324,0.03074724,0.25120864,0.56566434,0.45026897,-0.04392365,-0.0378911,-0.02497941,0.00438779,0.00574904,-0.0443781,0.07136624,-0.04609245,0.07764162,-0.02940396,-0.0173792,0.00961478,0.00258083,0.00996549,-0.02503098
iQxwDGnuByc,0.16358979,0.04053086,0.18461241,0.03080658,-0.10173645,0.02342154,0.03609425,-0.15246769,0.010662,-0.00505936,-0.00370841,-0.03844079,-0.06754251,0.04942934,0.07167426,-0.06024865,0.10775816,0.0262432,-0.0093823,0.02714995
JRHTVNoJjb0,0.09129913,0.02069663,0.09800779,0.04758863,-0.07745583,0.0047763,0.01114667,-0.05443364,-0.0019355,0.00942893,-0.01581765,0.00719304,-0.01919115,-0.05791765,0.04029009,-0.04475277,0.2296693,-0.06119332,-0.10782408,-0.01043894
Q5rmW96IGqA,0.00660863,0.00776662,0.01148284,0.01100508,0.00212313,0.0777801,-0.03665315,0.02409454,0.00090271,-0.02041111,0.02034068,0.01021391,0.00120954,0.00408645,-0.0097047,0.01803714,-0.00583136,-0.0368587,-0.04688304,-0.02749024
f9AFrDB-73g,0.10821584,-0.01438643,0.12907884,0.03692317,-0.11202125,-0.04038865,-0.04573023,-0.04920404,0.27031408,0.1842302,0.09433496,0.05492572,0.00802951,-0.19678703,0.23126765,0.01231536,0.04263446,-0.09812169,-0.00106534,0.05513317
sbzsqNJuZvg,0.01090661,0.00810908,0.04327938,0.00361303,0.0031657,0.23356044,-0.09985628,0.0823751,-0.01192542,0.06595808,-0.08552591,-0.07568346,-0.00688879,-0.02183087,-0.02633935,-0.19064262,-0.20472427,-0.13657761,-0.10259521,-0.08020857
wJOakc64crg,0.03944768,0.01456896,0.07933208,0.03599656,-0.03685479,0.02317318,0.02060965,-0.06768874,-0.0070873,-0.05130695,-0.02954919,-0.00217522,-0.01390767,-0.07050109,0.01088855,-0.02128237,-0.06174158,0.141267,-0.00293708,-0.02573158
TRVnxUYQAmI,0.05799424,0.04007679,0.09693203,0.02694047,-0.05426685,0.03887668,0.06771691,-0.06840273,-0.00018696,-0.06386994,-0.04239837,-0.08909226,-0.01817635,-0.03685985,0.13845863,-0.00037374,-0.00081512,0.0207717,0.0184501,-0.01798269
LkaaMQx9uZ0,0.06723781,0.03307046,0.17933621,0.00666269,-0.08927452,0.00298855,-0.00324362,-0.14187376,0.01188114,0.07624319,0.08896013,-0.11030898,0.05062401,-0.18006401,0.10233883,0.10816447,-0.11327939,-0.06316601,0.06661017,0.06100117
31WQ21L6kE8,0.01680368,0.00472201,0.06893149,-0.00701562,0.00068801,0.34738001,-0.14784362,0.10263098,-0.00342437,0.07160618,-0.03858691,-0.01142193,0.01761895,-0.01470267,-0.00295371,0.08723435,0.11051474,0.15998919,0.131315,0.06428302
eYDQWSBQ47s,0.06827186,0.00332528,0.11460371,0.04305447,-0.05066862,0.01900813,0.03023092,-0.10266094,-0.01082777,-0.04152234,-0.04284008,-0.00811222,0.00199595,-0.08765738,0.06372273,0.03135154,-0.01963836,0.03826235,-0.02259031,0.03588462
ftk4VdOcaj8,0.11039304,0.06418416,0.19905119,0.0398322,-0.13004966,-0.02653616,-0.01752702,-0.0736027,-0.01205987,0.23770474,0.17652824,0.02217465,0.0936236,-0.11474724,-0.04574368,-0.01996736,0.07141148,-0.03699431,-0.07977601,0.00750331
kf9ghd5-VII,0.0844572,0.07907339,0.14511339,0.00569932,-0.06913685,0.02120693,0.01138653,-0.06479152,-0.0189726,-0.03222136,-0.00883249,-0.01458212,0.00107573,-0.12545513,0.06848022,0.00483761,-0.05669841,0.05031526,-0.0033198,0.0914912
-pNi4dh7VFo,0.06279954,0.03989726,0.07138321,0.01223679,-0.04273183,0.02933947,0.01696878,-0.09136129,0.02260308,-0.00177678,-0.02675374,-0.05406557,-0.04846337,0.05816607,0.01014262,-0.01685826,-0.00910642,-0.02610927,0.0179694,-0.07877013
mbGPgjXCx24,0.08861255,0.01054789,0.11959795,0.04953342,-0.07120978,0.02493255,0.00868523,-0.12744143,0.01927219,0.04145076,0.04012473,-0.04949408,0.02151708,-0.04167933,0.09373637,-0.00814545,0.02495042,0.02178757,-0.03735483,-0.00319112
nnUFM61waQU,0.06436414,0.01583456,0.15555671,0.04477105,-0.1267747,0.00092826,-0.01254397,-0.09714954,0.00787073,0.16521863,0.12197975,-0.03886354,0.17297011,-0.37305716,-0.0898342,0.03510702,-0.07945977,-0.08997796,0.02893213,-0.01749506
Rpw1_eKZCEA,0.04534129,0.05312657,0.05651285,0.0176641,-0.03731898,0.06530832,0.03154065,-0.06769349,0.02579807,-0.03612039,-0.03900516,-0.07709896,0.00265494,0.00046302,0.02588357,-0.01049741,-0.01134283,-0.00610279,0.00087665,-0.06654146
Ycdklm6W1_o,0.01612205,0.00575663,0.03460243,0.01016965,-0.01299098,0.17366886,-0.08049152,0.04026888,-0.00382911,-0.00091778,0.01989141,-0.00067767,0.00159535,0.00494597,-0.01636554,-0.06880356,-0.03071014,-0.04882953,-0.11256014,0.03610863
FZbMPtLRr00,0.00499386,0.00357947,0.02726882,-1.305e-05,0.01103183,0.10921212,-0.04339376,0.03689491,-0.00831311,0.04758761,-0.05156461,-0.04667029,-0.00221062,-0.03608948,-0.02365491,-0.03663671,-0.04547321,-0.07001028,0.036145,-0.07390285
9oVPXnEkegY,0.0863831,0.03333908,0.08902897,0.01547995,-0.03738404,0.03831576,0.02609983,-0.06872872,0.02335916,-0.01897421,0.00744914,-0.04818945,-0.01558463,0.01220974,-0.02089421,-0.04815522,0.05727079,0.00063731,-0.01947247,-0.08372314
9rRvmcDpWwA,0.01192611,0.00778913,0.04387593,0.01716924,-0.00919574,0.24570146,-0.10556886,0.04995199,0.00443536,-0.03046391,0.08531261,0.06324045,0.00555642,0.03242605,0.05358218,0.16840598,0.07062363,0.10349464,-0.16320866,0.05902733
THMW7bXTog4,0.02632537,0.01026094,0.06415083,0.00955659,-0.01615212,0.03487066,0.00233577,-0.02386346,-0.04284033,-0.00914122,-0.05553147,0.08645485,-0.02263424,-0.0067973,-0.00099188,0.00127867,0.00187195,-0.00986625,-0.0028306,-0.0332235
kTlm_3HwRFg,0.01559303,0.000499,0.03463633,0.01492372,-0.01426077,0.09653008,-0.04194159,0.00911262,-0.00111989,-0.00892687,0.00976576,0.00324395,0.01970419,-0.00326664,-0.01293253,-0.01427628,-0.02216894,-0.02662527,0.014373,0.01026718
lWj_3TE2UsE,0.00538061,0.00337387,0.03375716,-0.01478213,0.00708255,0.15615685,-0.06881407,0.05627836,-0.00167742,0.0802802,-0.06399715,-0.04016363,0.00471687,-0.00766485,-0.01767392,-0.08687343,0.09514009,0.11856458,0.1621291,0.0515642
tFD4653hJYE,0.72280647,1.1524399,-0.33964517,-0.01907908,0.07905628,-0.00850264,-0.0157654,0.05800789,-0.00834939,0.01409096,0.01073166,0.02065021,-0.00376804,0.01800326,-0.02214569,0.00494522,0.01649433,-0.00087025,-0.00898899,0.00848703
q4PUKnyy3QQ,0.28422896,-0.05573013,0.18294359,0.06756617,-0.21811304,-0.13830274,-0.12258686,0.21310281,-0.14693386,-0.0952994,-0.10411014,0.17212333,0.03426895,0.05020006,-0.09825877,0.00039751,0.03935453,0.06090407,0.00946796,-0.08002809
AzNb2nQrM7U,0.02844793,0.01968496,0.04889653,0.01456381,-0.02942074,0.01561964,-0.01096288,-0.01676911,0.00487024,0.0357656,0.02367642,0.00308599,0.03140016,-0.02554148,-0.03150898,0.01216496,0.01552271,-0.0143666,-0.0294763,-0.0015166
HVPhcOmSMtM,0.14838195,0.07849671,0.15847242,0.06844921,-0.11517947,0.01987036,0.02152919,-0.15832983,0.03757871,0.08747687,0.1480882,-0.10765801,0.10796132,-0.07107837,-0.13496838,0.06923035,-0.0488827,0.03185163,-0.02343825,0.02150484
0DB_Qj43O6Q,0.01689921,0.00457821,0.03796431,0.01897267,-0.02270344,0.0569252,-0.02140933,0.02179934,-0.01823924,-0.00246098,-0.01606693,0.05522558,0.00176215,-0.03205341,0.02572603,-0.01268231,0.10415922,-0.06466446,-0.01925692,0.01571012
UtXLbVdM7wk,0.13408636,0.0038613,0.15846357,0.06693056,-0.10951304,0.00608164,0.01708479,0.04959253,-0.01600059,-0.1610991,0.05614648,-0.06837806,0.04720451,0.0272293,-0.09401327,0.0042684,-0.04773019,-0.01556408,0.03477534,-0.01545443
rn0fCmYeDaI,0.17855911,-0.06207151,0.10668026,0.03651314,-0.13619602,-0.09605252,-0.08433976,0.18709379,-0.10781394,-0.10992851,-0.05277554,-0.05524385,0.07597279,0.04681285,-0.0567087,0.02555462,-0.05905147,0.0286129,-0.01063374,0.01594143
hXPy19kPego,0.05015541,0.04302043,0.07982991,0.02074545,-0.05154539,0.01853117,0.04516067,-0.06911344,-0.00339913,-0.0398694,-0.02449057,-0.05775871,-0.0458306,-0.0045638,0.13794927,0.00882358,-0.03056077,-0.02166221,0.04991945,-0.00027393
bfENsVP77VQ,0.04884274,0.05836302,0.02874731,0.00162925,-0.00963902,0.27909524,-0.11184045,0.09296912,0.03027873,0.0216066,0.02422333,0.02462581,0.02862731,-0.01405529,-0.02979987,0.05687941,0.05406516,0.15009573,-0.01341019,0.01831651
sXV44nHGfAA,0.02912578,0.00922661,0.04685279,0.00978267,0.03140999,0.21446284,-0.09241351,0.07824345,-0.00965506,0.09667924,-0.11007247,-0.05948802,0.01721331,-0.05632484,-0.02483492,-0.09761671,0.06512381,0.03172146,0.20707324,0.06138438
k7aOM--Ycts,0.01049131,0.00051027,0.02678736,0.01221892,-0.00895505,0.09231234,-0.02346212,0.03408071,-0.00723068,0.01270742,-0.046704,-0.02173898,-0.00080261,-0.06471303,0.04448007,-0.01438317,0.04272969,0.11238257,-0.00640996,0.14350932
Rax-kdRVG74,0.29508585,-0.08083176,0.16064922,0.06404771,-0.23082415,-0.18260977,-0.18302036,0.2987156,0.29634951,-0.1762865,-0.12979577,-0.16779023,-0.03267503,0.15851551,-0.07781575,0.0038643,-0.15719353,0.02654267,-0.06654807,0.03870496
EFhMcL3Kf1c,0.01714196,0.00867634,0.0365354,0.00555092,-0.01888462,0.11504632,-0.04640456,0.01062938,-0.0047399,0.02110939,-0.0223537,-0.01433583,0.00334481,-0.03351449,0.00995206,0.13825303,0.0280447,-0.08005319,0.06518601,-0.02370598
2gFNJ6_ogzg,0.09742364,0.04320245,0.1638946,0.0501055,-0.13755585,0.0139195,0.02258353,-0.08303798,0.01561752,0.20997413,0.18507773,-0.01841237,0.01312204,0.01775861,0.00465313,-0.01197754,0.07339619,-0.03666611,-0.02263545,-0.02919341
40-68Uco_u0,0.04845793,0.03044709,0.08534026,0.01152488,-0.01342846,0.0127166,0.00441109,-0.06374237,0.00431363,-0.01896422,-0.03229529,-0.01824177,0.0305506,0.0088738,0.05113535,-0.00766619,0.03018439,-0.02176686,-0.00463913,0.00266322
ByJAH8vTgfw,0.057722,0.03132726,0.14611531,0.02473743,-0.09344207,-0.02920736,0.0052277,-0.09100419,-0.00481871,0.10355569,0.09960494,-0.05027774,-0.05035232,-0.09879671,0.32721531,0.01069186,-0.07228705,-0.05260348,0.07170761,0.08598944
NRELko2BoRk,0.14167387,0.0677673,0.11693149,0.04135584,-0.09497669,0.03007246,0.05194454,-0.12442851,-0.00435239,-0.04652442,-0.07957542,-0.03641237,0.08650307,-0.0939239,-0.05821876,0.0456163,0.09393435,-0.12201849,-0.01055555,0.0376657
toJGQUZbdqc,1.07782769,-0.72768172,-0.26912678,-0.07426119,0.18817121,0.08967978,0.08847438,-0.13512657,-0.32400384,0.01983491,0.06040375,-0.10384934,-0.02974863,0.01723628,-0.02618201,-0.01077935,-0.01605184,0.04623483,-0.02084111,-0.01589756
fxb9BMISN54,0.25436531,-0.08357471,0.15465088,0.0578765,-0.16935241,-0.12408933,-0.13674488,0.23831715,-0.07604609,-0.18298237,-0.09958937,-0.01996333,0.06406965,-0.04299283,-0.10398254,0.04176728,0.01939254,0.0817909,-0.04016112,-0.03407822
nHH771Vtkxw,0.06225935,0.03536341,0.13248063,0.01034637,-0.05456535,0.01776802,0.04632909,-0.11933141,-0.08639349,0.02666367,-0.16829369,0.31874252,0.08427502,0.06790557,-0.13528883,0.03412102,-0.05689826,0.17643336,-0.04964722,-0.06885686
Xbang1Y_jbA,0.07800458,0.04832582,0.29171985,0.60184214,0.5328503,-0.06072631,-0.04919418,0.00624705,-0.00088615,-0.0027795,-0.00997288,-0.00305442,0.05255396,0.03051242,-0.03849626,0.00398153,-0.00593845,0.01237297,-0.014226,0.02741692
CPJhzRv9y_8,0.01162036,0.0058266,0.05135543,-0.00993593,-0.00548818,0.14439217,-0.05188246,0.03387491,-0.01173871,0.04468499,-0.04645711,-0.02241911,0.03484984,-0.01908394,-0.03837345,-0.06382405,-0.02156628,-0.04896506,0.13819972,-0.05053165
q8AEtTOo2ZU,0.25783953,-0.01361552,0.2779623,0.02237845,-0.19713571,-0.14432874,-0.08489982,0.13957518,0.12905379,0.03706216,0.02531064,-0.04631936,-0.04815642,0.15064389,-0.06338354,0.03584183,-0.01966304,0.10940115,-0.04080115,0.00670346
sj1y9FDJKCM,0.01247337,0.01425143,0.03711911,-0.00586768,0.00252808,0.28501612,-0.11927341,0.09080596,0.00839474,0.03952253,0.00583662,0.00824242,-0.00391318,0.02309612,0.01120621,0.06471565,0.11028079,0.18795334,0.02705853,0.05146101
-5kkpHpexIA,0.0588105,0.02552633,0.25082977,0.56716221,0.46861962,-0.04150518,-0.04408457,0.01070036,-0.00864444,-0.00684323,0.00518525,-0.01952744,0.01739575,-0.00031425,0.01285589,0.02030222,0.01375222,-0.01413482,-0.00269921,0.00317794
yzajLZXh9JU,0.04505889,0.05833598,0.01338406,0.00971701,-0.01244144,0.19021679,-0.07617261,0.05984397,0.02749601,-0.0010486,0.02854425,0.03860485,-0.02359346,0.04309374,-0.01246134,0.11995197,0.04575094,0.09328399,-0.07019021,-0.00156463
VITWpByrMdw,0.16395901,0.02775949,0.09191612,0.03354911,-0.09756813,-0.0022214,-0.00530828,-0.09200984,0.00696538,0.083203,0.09999532,-0.02956489,0.02889188,0.05045262,-0.11193,-0.01230274,0.09932746,0.02619708,-0.04888474,0.03745264
xfMhpaP8QSg,0.046975,0.04597415,0.06074135,0.02777011,-0.05117385,0.02013132,0.02890045,-0.08823567,-0.02336972,0.01927872,-0.05932138,0.11707515,0.41395518,0.15412335,0.06801524,-0.03235819,-0.00284278,-0.08630633,-0.00547341,0.03039699
GmTuhpMe1oM,0.04942325,0.01749195,0.03784624,0.00785643,-0.02001794,0.01863254,0.02436068,-0.06945893,0.03627842,-0.01057126,-0.01678166,-0.03805462,-0.04161262,0.05643902,-0.00965267,-0.04306361,0.03779126,0.00822913,-0.04843328,-0.01965984
VsLOWe6VuyQ,0.01618422,0.00993486,0.03334673,0.00780473,0.00010526,0.08464718,-0.02850436,-0.00622423,0.02507332,0.00929164,-0.04910665,0.01740522,0.00253518,-0.02830556,-0.00655944,0.00832763,-0.0566555,-0.06651581,-0.02586843,0.02344582
KKq5yX8mrw0,0.02409296,0.02282645,0.05012896,0.01076199,-0.03427279,0.04021979,0.02708612,-0.11255161,0.00901,-0.08250542,-0.02510288,-0.0284884,-0.11200138,-0.01754873,-0.1254347,0.10028304,0.11988258,-0.2178009,-0.03448199,0.41391788
LKxIrZFhONI,0.0310987,-0.00962039,0.02451767,0.01935,0.0057338,0.09589634,-0.00145811,0.02100517,-4.237e-05,0.00353978,-0.02640854,-0.01602693,-0.00485161,-0.09759804,0.05064374,-0.00836647,0.01717813,0.07615086,-0.04296295,0.16866538
4IeYytwcpuQ,0.00962938,0.00435248,0.0366335,0.01569817,-0.01055248,0.15264972,-0.04697539,0.02433368,-0.00101774,-0.03640078,0.01981931,0.01840242,-0.00638548,-0.05050429,0.05370985,0.10493625,0.05104261,0.12424965,-0.10180277,0.07878751
_SdzVNht_nU,0.10994823,0.00392489,0.19597311,-0.02108002,-0.07090935,-0.00169397,-0.03764186,-0.11740107,-0.0170749,0.12959109,0.07586759,0.03879225,0.09820799,-0.17503424,0.2070165,0.06787701,0.11216333,-0.06699718,-0.04284402,0.00069635
Hf6NC8AzAKo,0.10087006,0.09379569,0.14001298,-0.01890066,-0.0422735,0.03829566,0.02720947,-0.15096095,-0.00587019,0.00520375,-0.01625198,0.01829066,-0.04659483,0.00427691,-0.01514921,0.00708407,-0.07928059,-0.02257429,0.02709798,0.0402966
sjbKZ4CY1Ow,0.0249954,0.0112348,0.05798864,0.00642272,-0.0229099,0.29592627,-0.12063869,0.06870288,0.00350683,0.031919,-0.01825899,-0.00740761,0.02009272,0.01060105,-0.02372431,0.12939492,0.0600195,0.01213168,0.10493974,-0.0285203
OEqMxMEBQQY,0.04092161,0.01822962,0.11203579,0.02248391,-0.0538202,0.03025371,0.03188776,-0.092378,-0.09140265,0.0521734,-0.14961147,0.33137304,-0.13413039,-0.01164392,-0.16101497,0.00342616,-0.07044057,-0.00784335,0.05136515,-0.13707572
vTXoE7BLv9s,0.05760639,0.02996943,0.08125531,0.02520492,-0.05146009,0.03828158,0.03871804,-0.0837518,-0.00392653,-0.05141222,-0.0210389,-0.0244586,-0.01778901,-0.04955006,0.09971599,-0.03121989,-0.02118681,0.03425695,0.04645833,-0.00977322
95KqKaDsIAM,0.07276037,0.05053864,0.11789479,0.04659583,-0.06321823,0.04273178,0.03676346,-0.10420805,0.00395442,-0.06740121,-0.0114647,0.05029211,-0.03734745,-0.03154211,-0.03976212,-0.02127144,0.03496518,0.01586229,-0.00821808,-0.05362205
