video_id,lsa_1,lsa_2,lsa_3,lsa_4,lsa_5,lsa_6,lsa_7,lsa_8,lsa_9,lsa_10,lsa_11,lsa_12,lsa_13,lsa_14,lsa_15,lsa_16,lsa_17,lsa_18,lsa_19,lsa_20
MjWI_rWQL68,0.01454725,0.00922438,0.0466439,0.01254602,-0.0216034,0.15207767,-0.03722607,-0.03060185,0.01514476,-0.37626556,0.3816506,0.15037191,0.03409004,-0.00916744,0.03677132,-0.15859883,0.04813694,0.10059148,-0.04600195,-0.02209842
wmeUOPjA_qc,0.01759125,0.01239705,0.05267042,0.02119403,-0.01922625,0.20165752,-0.07792533,0.02009325,-0.00640769,-0.02610515,0.03645985,-0.01611515,0.00997523,-0.14012692,-0.00501326,-0.12685822,0.25870018,0.02386473,-0.01470195,-0.01390284
B9ocddyGfo8,0.01165127,0.00151804,0.03381462,0.02760929,0.00562817,0.13004837,-0.05684528,0.01242571,0.00012869,0.01501356,-0.03008591,-0.03008988,-0.01111239,-0.04834566,0.01802305,-0.10972667,0.10453631,-0.01346501,0.01281941,0.02049368
k8j-6Xvw_G4,0.00358009,0.00114505,0.01100823,0.00331268,-0.00792283,0.00887713,0.00351605,0.00010161,-0.0104114,-0.00141588,-0.01483427,0.02845317,-0.01330183,-0.00117574,0.04591207,-0.00121338,-0.00156584,-0.02766598,0.00435763,0.02194454
TG39Ow5fepA,0.01516858,0.0120007,0.04347913,0.01681329,-0.02385149,0.15838285,-0.02464984,-0.04145112,0.02399468,-0.43012249,0.43025687,0.17103178,0.02206055,-0.00301279,0.03735875,-0.193769,0.00101707,0.08450147,-0.02933232,0.02432459
T_LWKGJDKgo,0.01831844,0.01394159,0.05079576,0.02218834,-0.0261527,0.16602816,-0.02904778,-0.04961419,0.02363896,-0.48733148,0.48277659,0.19874788,0.02757379,-0.00259577,0.041839,-0.21373512,0.01881598,0.08748937,-0.06680516,-0.00278029
NdU6UdUKaYc,0.01022805,0.00600083,0.0526903,-0.00687093,-0.00325266,0.26713119,-0.10848237,0.07492807,-0.01057777,0.08844299,-0.05129227,-0.00829416,0.02190961,0.0530463,0.01901966,0.02333312,-0.14795213,0.11200148,-0.0093595,-0.0869267
lDyiY5vjqaw,0.01478487,0.01185822,0.03055747,0.02039151,-0.00087139,0.06935995,-0.02332162,-0.00516789,0.00048039,0.00687836,0.00321137,-0.00824273,-0.00024833,-0.01778044,-6.45e-05,-0.00527824,0.04202571,0.00280179,-0.00506892,-0.03283598
4m_M1Wpnr2Q,0.01231907,0.00473489,0.04194562,0.01536733,-0.02296399,0.11616061,-0.04592921,0.00802815,-0.01390588,0.00621348,0.00517293,-0.00987961,0.01944029,-0.08902625,-0.03798875,0.0110839,0.18810203,0.02902092,0.01198832,-0.01519324
0idqiLonGYI,0.060143,0.08181833,-0.01644806,0.00407165,-0.00532898,0.06360255,-0.026114,0.04704038,0.02854442,-0.01213655,0.0323863,0.01698049,0.00545491,-0.01627687,-0.02622465,0.02706626,-0.01857532,0.0190135,0.00442591,-0.00072523
QPWScf-86po,0.02545933,0.00812187,0.05359819,0.01761093,-0.02793813,0.1909623,-0.06837824,0.05153001,-0.01092811,0.03749634,-0.0165343,-0.01522947,0.00685355,0.02890733,-0.0146352,-0.02306552,-0.06029543,0.04425744,0.01061182,-0.01111248
9iKWeo8sWh4,0.01647593,0.00637512,0.03917279,0.01014867,-0.02335439,0.12005378,-0.04100852,0.00493985,-0.01322538,-0.02059596,0.02861294,0.00756469,0.01168071,-0.16400777,-0.04694246,-0.05723465,0.27264896,0.05511128,-0.02340173,-0.05020047
SVTPv4sI_Jc,0.01795035,0.00311093,0.0383434,0.00126055,-0.00666404,0.11091253,-0.03331195,0.01824593,-0.00322314,0.0595304,-0.04198879,-0.00266188,-0.00749766,0.00322486,0.00590143,-0.02203748,0.07520282,0.01163766,-0.04020917,-0.03153847
5EWqr_Y2uH0,0.01678955,0.00785397,0.04048397,-0.00166217,-0.00656137,0.06036668,-0.01726548,-0.02008924,0.00762327,0.01592314,0.00709615,0.01077889,-0.03007765,-0.07752089,-0.00647366,-0.03197633,0.08796319,-0.12251861,0.03887823,-0.03858671
n2T6AOoUkOM,0.01248477,0.00933058,0.04321957,0.01528763,-0.0078534,0.18026431,-0.0754943,0.01412613,-0.00156626,0.03498174,-0.03270355,-0.03896608,-0.01252813,-0.05961335,0.02342957,-0.10240006,0.11149692,-0.04587146,0.06662236,0.05597787
PGBt4pOj4Vc,0.05390154,0.0231509,0.1346088,-0.00027114,-0.04196852,0.01645928,0.01663813,-0.09061985,-0.01625403,-0.03501618,-0.0110923,0.07936007,-0.05285445,-0.00098044,-0.0845267,-0.04323262,0.01914849,0.00287042,0.02459126,-0.0711869
OrI86PV-aPg,0.07556971,0.01684504,0.10478222,0.03793668,-0.09148968,-0.0193013,-0.01766116,-0.0556293,-0.00768144,0.1292163,0.11474986,-0.01550796,0.03196665,-0.0262545,-0.04057136,-0.06160418,0.05346152,-0.00664726,0.10723685,-0.00238584
Rij6WQMuxcw,0.05773359,0.07804289,0.00957597,0.0147794,-0.00820802,0.24582617,-0.10390867,0.08799136,0.02639396,-0.04923471,0.09589162,0.05888899,0.00632407,-0.02634743,-0.03363264,0.07751901,-0.13196039,-0.03810307,0.05687814,0.03981318
V6VQ54eTok0,0.00546664,0.00238354,0.02443994,0.00780613,-0.01000329,0.13040419,-0.05479985,0.02924963,-0.0009456,0.03092049,-0.03328412,-0.00579702,-0.02269734,0.07015924,-0.0869495,0.1576924,0.16801651,-0.10976727,-0.03001964,0.04556065
BAORYfrrBzc,0.00733923,0.00544304,0.01757874,0.00608795,-0.00852366,0.06582543,-0.02508809,0.01482864,-0.00423515,0.01230257,-0.0037141,-0.00117215,-0.00232568,-0.00569294,0.00694495,-0.01488965,-0.02650703,-0.01540157,0.028012,0.0321722
P1DSZNhApJA,0.0267867,-8.19e-05,0.06263359,0.02798833,-0.05589448,7.003e-05,0.00340158,0.04335911,-0.06924295,0.01913318,-0.05504391,0.13669249,-0.03401293,-0.06179183,0.14245642,0.01060076,-0.13300184,-0.14555098,0.07424261,0.05922077
gpfhjHmbmIE,0.07454383,0.0796887,0.13361687,-0.05955158,0.0161082,0.06050912,0.06471878,-0.00446088,0.0233157,0.01632072,-0.04570809,-0.04531799,0.05987684,-0.08060262,-0.06059902,0.04757,-0.05660962,0.14738783,-0.20667978,0.0547665
qgzwtKsXCMo,0.00701292,0.00312947,0.02199484,0.00612814,-0.01572032,0.01725569,0.00229406,-0.01300144,-0.00310282,-0.01124426,-0.00554786,0.00196607,-0.00240626,0.01626233,0.03142223,0.01055122,-0.00549525,-0.04444153,-0.03042902,0.00199796
WOTUpoI2LQA,0.0365932,0.02982516,0.07682755,-0.03393698,0.00697689,0.00801019,-0.00982732,-0.03087241,-0.00591333,0.00882293,-0.00308536,0.01895661,0.01364457,-0.06944575,0.00497393,0.00943096,-0.00547346,-0.04226406,-0.01350092,-0.00175488
4s9LuOSR3Q4,0.01440941,0.00659156,0.0313731,0.00719016,-0.00775445,0.2011675,-0.08479346,0.04720661,0.0017509,-0.01000925,0.03536998,0.01893215,-0.00300818,-0.01635854,-0.0137288,0.01096289,-0.11933144,-0.03552792,0.04009627,0.0353734
fRjAMALJ0r0,0.05172597,0.02208283,0.10467288,0.04169038,-0.04217584,0.03794172,0.02502937,-0.0805185,-0.01234544,-0.03012382,-0.09497086,0.09223678,0.19372744,0.01030321,-0.0524227,-0.02493204,0.10910279,-0.08110281,-0.04846757,-0.07964948
4yDM3ZFcQm4,0.00617286,0.00350907,0.02688355,0.00798022,-0.00857443,0.20991359,-0.09081654,0.04796908,-0.00018091,-0.01129864,0.03168971,0.00331605,0.00316871,0.05628976,-0.01327062,0.13475219,-0.07373474,-0.04035993,0.04609897,0.06985297
1_H80JEZ2ko,0.03847947,0.03308377,0.03697144,0.01158292,-0.02776916,0.01750769,0.03438944,-0.05666068,0.0123002,-0.01859063,-0.02922189,-0.01630958,0.03879158,0.0297915,0.04062695,-0.00109157,-0.00349312,-0.02906235,-0.01155706,-0.03763744
U5l0Z8T4tCk,0.00156072,0.00195797,0.00474391,0.00529054,0.0039677,0.00393982,-0.00095086,-0.00479079,-0.00021053,-0.00241819,-0.00084665,0.00548749,0.00709521,-0.00976979,0.00194043,-0.00384471,-0.0001167,-0.01454781,-0.00215506,0.00856108
OTt76d3wPiQ,0.07878289,0.04513552,0.09442522,-0.00142242,-0.03511717,0.03888336,0.04670691,-0.11468085,0.02896379,-0.03835254,-0.02812542,-0.01147358,0.02634208,-0.05238542,0.05215659,-0.01978353,0.00645157,-0.11382589,-0.01595671,0.02855344
vmRbevilfpU,0.10492954,0.06519408,0.07630067,0.02056324,-0.05957564,0.00975201,0.03410128,-0.12929694,0.04050317,-0.01616802,-0.00677342,-0.119633,0.02476236,0.11667442,0.00094383,-0.02044216,-0.04788298,-0.05216873,-0.024073,-0.09313348
IEJALLQFmDs,0.00895715,0.00197876,0.03195886,-0.00810792,-7.606e-05,0.13207996,-0.05083405,0.03338184,0.00236091,0.06632477,-0.05412834,-0.03540435,-0.00397889,0.02530823,0.01648917,-0.06339828,-0.05570363,0.0421407,0.00933718,0.00323795
dqazxW8R5BY,0.00412112,0.00199384,0.01738054,0.00421089,-0.00730713,0.1018245,-0.04020008,0.02699998,-0.00297613,0.02107138,-0.01765633,-0.00045488,-0.01037447,0.02007176,-0.00160235,0.03848032,0.02058252,-0.00399471,0.02329916,0.00447209
5LJ1cxjQhyE,0.02199514,0.01537848,0.03401691,0.01643082,-0.01649821,0.06841432,-0.02183837,-0.00283357,-0.01442964,0.02039549,-0.00299771,0.00356721,-3.087e-05,0.00088169,0.00215643,-0.04387537,0.0019369,-0.00892355,-0.00208112,-0.01489354
ksn5yrsC3Wg,0.02119355,0.00724885,0.05465964,0.01173985,-0.01595369,0.23658955,-0.08570735,0.04289522,0.00355257,-0.0146525,0.07050915,0.02242516,-0.00697518,0.02201959,-0.01940952,0.11331772,-0.09820856,-0.0155556,0.05426406,-0.00262652
6dt3fd17_d0,0.1479495,0.00779551,0.20129235,0.02901047,-0.14274743,-0.04147487,-0.0258961,-0.05397222,-0.0090307,0.19597249,0.17455669,0.04167494,0.03243154,-0.05149069,-0.03100313,-0.0392957,-0.04447141,-0.10018099,0.03465179,-0.07919177
MOrBFf1DVvs,0.01646641,0.00906917,0.03564826,0.01485487,-0.0098478,0.15729839,-0.06777864,0.02161624,-0.00303282,-0.01062929,-0.00070542,0.00051408,0.00083545,-0.0743943,0.01852809,-0.12413291,0.12038474,-0.01540329,-0.00862378,0.02649487
mK3xENFCGnI,0.0719251,0.05411554,0.11874632,0.02491849,-0.0638387,0.0270402,0.05216214,-0.12103636,0.00974243,-0.02659189,-0.01881772,-0.05732636,-0.07542754,0.00471626,0.16670511,0.02025533,0.01398404,0.01274755,-0.02048438,0.00723568
GDex3WIPF7c,0.01299409,0.01036784,0.0369458,0.01534445,-0.01036927,0.16491,-0.06790461,0.02150999,-0.00172969,-0.07529722,0.09811239,0.05336252,0.00917907,0.05188283,-0.02253585,0.16915912,-0.05644522,-0.02363585,0.02865519,0.01684232
AtSQBfBK6HE,0.01602489,0.007285,0.02824588,0.01118578,-0.01141185,0.17489929,-0.06922674,0.03955826,-0.0012057,-0.03166746,0.06544194,0.02037479,-0.00415885,0.04346463,-0.02809708,0.17139862,-0.05517054,-0.01138322,0.0380203,0.0196716
Czf68kDF_7Y,0.00950884,0.00470318,0.04080758,0.02076432,-0.00890886,0.20128022,-0.08706287,0.04078669,-0.01050272,0.03008098,0.00122492,-0.0161858,-0.00368722,-0.10744626,0.00313716,-0.15064754,0.23922048,-0.00474393,-0.00279518,0.00981234
jKTNMlUEdgU,0.0004103,0.00020922,0.00185088,0.00082823,-0.00025701,0.00680783,-0.00299977,0.0005452,0.00014173,0.00188347,-0.0002001,-0.0014949,-0.00181533,0.00085912,0.0009837,-0.00021688,-0.00065118,-0.00246196,0.00415698,0.00577513
jLFG_FZKbks,0.02117224,0.00812558,0.06443518,-0.0084539,0.00044759,0.21276475,-0.07896221,0.04450027,-0.00855662,0.07004412,-0.07990189,-0.02520297,-0.00647188,-0.02104186,0.04311808,-0.062108,-0.07933962,0.02419999,-0.04134505,-0.02365604
66gMxbNKaYA,0.10520549,0.13575298,0.06954944,0.02621953,-0.0655384,0.01869774,0.04075427,-0.09358339,-0.01187321,-0.03148747,-0.05367935,-0.06249057,-0.00989762,-0.05222853,0.10655739,0.03679663,0.02237449,0.09739242,-0.04067605,-0.02490414
SAtFZPtbMpI,0.00692971,0.00543727,0.01801851,0.00331057,-0.00618947,0.02691435,-0.00306025,-0.00681163,-0.00119993,-0.00261171,-0.0059383,-0.00156745,-0.00162953,-0.00984204,0.00057191,0.0124291,0.0089302,-0.01183132,0.00645536,0.00619314
FCaTFLdtsco,0.02587204,0.02092833,0.05529047,0.00759121,-0.0068897,0.31433551,-0.13122844,0.07125426,-0.0050208,-0.03866944,0.05846957,0.031387,-0.00030868,0.05758539,-0.02282194,0.20494915,-0.10573353,-0.05492635,0.01493368,0.04880328
suqYhItddAc,0.01369083,0.00556822,0.02893989,0.00708568,-0.01581133,0.1122282,-0.0397363,0.01142677,-0.00453954,0.0271327,-0.02276642,-0.01703033,0.01006601,-0.02077111,4.832e-05,0.12061326,0.02899572,0.00933047,0.01995059,-0.11601511
7Y7Iv5XAXwI,0.0169893,0.01072673,0.04328436,0.00862543,-0.02192918,0.1260345,-0.04470859,0.01463853,-0.00243458,-0.07869536,0.04697729,0.01978284,0.00759771,-0.06432857,-0.01115559,-0.0424932,0.07219453,0.01727502,-0.05999817,0.02027392
0y8vRPcSvbw,0.01846276,0.01421059,0.04674449,0.02054928,-0.01984759,0.1363876,-0.04288472,0.00258066,0.00763845,0.00661413,-0.01547028,-0.00855056,-0.00349722,-0.07772585,-0.00450945,-0.10528309,0.06364172,-0.01656741,-0.00712321,0.06424471
iBpxQpktHN4,0.00355739,6.453e-05,0.0106953,0.00294578,-0.00826466,0.02669595,-0.01799738,0.01621508,-0.00662559,-0.02187545,-0.003683,-0.00474399,0.00234158,-0.01286024,-0.0180445,-0.01768151,0.0317122,-0.00390777,0.00939214,0.00346537
FMdrD_jcYgE,0.01217464,0.00560143,0.04203199,0.01004101,-0.0231579,0.14653905,-0.0555766,0.0176781,-0.00812556,-0.02405775,0.02405637,0.01813778,0.01033918,0.01900693,-0.02634426,0.14062811,-0.0537059,0.03149546,0.03456634,-0.03293171
W65cfPslnzo,0.01074372,0.00265917,0.0274932,0.00932237,-0.0125517,0.12034299,-0.04462368,0.02183719,-0.00260117,-0.01395413,0.02961873,0.00151949,-0.00112515,0.00492829,-0.02142624,0.06431851,0.01329273,0.0103008,-0.00316891,0.01507601
UncqiOQc4rI,0.01058318,0.00707143,0.03973911,0.0014866,-0.00897656,0.11262395,-0.04963139,0.0090549,-0.01214473,0.03046966,-0.01313933,-0.01052446,-0.00879705,-0.07986332,-0.00735093,-0.03782787,0.20524162,-0.00231259,0.00221384,-0.01390656
VVLYJf2t88c,0.04185199,0.0211693,0.12146715,0.01272048,-0.04750749,0.03353635,0.01433038,-0.12066802,0.01182556,0.01871858,0.02139171,-0.01583497,0.00328,-0.07750901,-0.05193286,0.03770209,-0.00177159,0.06235211,0.07276661,0.07453249
Z50QkVZcP1k,0.04276677,0.04135715,0.06701854,0.01841866,-0.04298874,0.01986454,0.03188245,-0.0609898,-0.00864936,-0.03845016,-0.02955398,-0.03721143,-0.03704509,0.03047895,0.13262292,0.02711105,0.02695146,0.04422014,0.00380765,-0.02084108
fuxYQrqkfns,2.39e-05,2.896e-05,7.09e-05,1.127e-05,-4.7e-05,9.649e-05,6.977e-05,-0.00014404,-5.109e-05,-0.00016316,-0.0002801,-0.00012417,-7.166e-05,-9.891e-05,0.00022422,-6.519e-05,-4.536e-05,-0.00034736,0.00043117,-0.00060547
pXI3xinu4bc,0.00799746,0.00379096,0.03333947,0.00739535,-0.00544093,0.11941211,-0.05281844,0.01659062,-0.01433276,0.06993294,-0.04664298,-0.010228,-0.02663984,-0.00082016,0.03804581,-0.0778073,0.00346401,0.02541467,0.00984758,-0.01155512
eOI7WQIEX1Y,0.05027429,0.0583379,0.06581794,0.00841118,-0.0323534,0.02995991,0.02174802,-0.08121603,0.00795478,-0.00634895,-0.02787764,0.01950943,0.07609478,-0.03522444,0.00928161,0.00542919,0.02234667,-0.03687391,-0.03667736,-0.0355298
reCJ5EuvukI,0.01667285,0.01396875,0.02294487,0.01006368,-0.00441381,0.06774049,-0.02154957,0.0070567,-0.00090903,-0.00834021,0.01300107,0.00748336,-0.00314034,0.00543156,-0.02216045,0.01288071,0.04321152,-0.00890672,0.00020918,0.00667222
snM0UfZxakc,0.02049117,0.00215604,0.04529008,0.02313888,-0.00747318,0.16378799,-0.05594426,0.02034368,0.00126691,-0.02217795,0.01075808,0.00959379,-0.01488801,-0.09183772,0.00900412,-0.13836483,0.11387323,-0.03779789,0.01127905,0.03998659
Su0aCV35IFM,0.01092488,0.0073678,0.03969693,0.00789376,-0.0119689,0.2641258,-0.11579834,0.06439756,-0.00232699,-0.04663473,0.11006742,0.05909495,0.00645136,0.07583554,-0.03918692,0.27010377,-0.15765713,-0.02705866,0.06244459,0.01174944
ydRguU_cH8Y,0.01490356,-0.00300532,0.0264125,0.01123533,-0.00763837,0.13258082,-0.06167252,0.03543701,-0.01681038,0.0694601,-0.04767943,-0.01765046,0.0700799,-0.01968979,0.02465088,0.00078143,-0.09357071,0.09446859,0.03671352,-0.15632983
mpZK1dqX6aA,0.00139196,0.00127978,0.00301764,0.00127262,-0.00091249,0.01333081,-0.00445841,-0.0006779,0.00056063,0.00017688,-0.00084918,-0.00042978,-0.00452153,0.00369262,-0.0022586,0.0163152,0.00319446,-0.00392846,-0.00202784,-0.00511225
LNKCHWOW7aI,0.01075573,0.00638876,0.04454097,-0.00070614,-0.00793464,0.16540485,-0.06036746,0.00732247,0.00812007,0.0376738,-0.02184024,-0.03173756,-0.02115091,0.01563247,0.00020779,0.10276534,0.04767417,-0.00418606,0.00013334,-0.06133693
a1aFhMw2wQE,0.14769337,0.02837326,0.12096661,0.04008546,-0.13604319,-0.03927633,-0.03994931,0.02772529,-0.03362404,-0.13185094,0.00135155,-0.10571011,0.03345781,-0.00887578,-0.04874873,-0.04732056,0.01221353,0.03601689,0.02702524,-0.05320484
33HT7CnI79k,0.00689854,0.004021,0.02844735,0.00954733,-0.01112631,0.20710145,-0.08755984,0.0441207,-0.00618032,-0.04000107,0.07190054,0.05524383,0.00058309,0.07740786,-0.0545536,0.23557713,-0.10052377,-0.01578733,0.05412971,0.01996595
A2O_CSDImRs,0.01747063,0.00929291,0.06645893,-0.0179171,0.00694817,0.36539237,-0.14553508,0.11249493,0.00432628,0.10540183,-0.05579575,-0.02072999,0.00969348,0.03756074,0.04078428,-0.04775735,-0.23057734,0.06097508,0.00116099,-0.03215508
PoHZWjU54jY,0.01497217,0.01940088,0.02120797,0.0049211,-0.00077867,0.17943448,-0.07734298,0.04199493,-0.00219604,-0.03648531,0.08276711,0.03888707,0.00961563,0.05623038,-0.03125263,0.1825454,-0.10712195,-0.02792974,0.04410149,0.02812942
tpay1lEGZ7g,0.06022763,0.01369887,0.13539721,0.04500635,-0.08078799,-0.0099296,-0.00815728,-0.07879728,-0.01263504,0.08835245,0.08170242,-0.02750281,-0.03074887,-0.04686617,0.13963819,0.02169644,0.05322558,0.02964153,-0.01140783,-0.00519573
KUvWaj4IFZg,0.07227014,0.04333845,0.02628292,0.01855995,-0.00501495,0.01642652,0.01233084,-0.0530651,0.00276898,-0.01815229,-0.00526024,-0.03657559,-0.03571662,0.05800148,-0.00833095,-0.00607068,-0.01490953,-0.01609048,-0.00655557,-0.00718346
3PZ3d4eNWrc,0.01533055,0.01324343,0.04876731,-0.00072566,-0.01099861,0.24368428,-0.10339615,0.06565633,-0.00317024,0.13148968,-0.07397207,-0.01773075,-0.05381537,0.01287051,-0.02626816,0.06275567,-0.12613456,0.08606478,0.05250434,-0.24939518
2ZV29QhLfjw,0.06735662,0.05851239,0.08512139,0.02683796,-0.05692691,0.03580233,0.0347638,-0.0981254,0.00021626,-0.03614467,-0.02623494,-0.03298379,0.00057588,-0.00226846,0.13741575,0.05544728,0.06285485,0.04475642,0.0135259,0.02968747
TmkbUF0V0hM,0.02838551,0.00881403,0.045582,0.02611885,-0.0137526,0.19572642,-0.03522767,-0.02552116,0.02521289,-0.45646575,0.46597784,0.18694606,0.03473705,0.01783655,0.04445497,-0.16958079,-0.0065734,0.07961035,-0.03348794,0.01548753
Hk-ARbCTKzM,0.01936484,-0.00036953,0.04095585,0.01277605,-0.00733963,0.17079604,-0.07454856,0.02468293,0.00131998,0.07097628,-0.05853118,-0.01853312,-0.02319713,0.01111855,0.02112469,-0.04906212,-0.0140615,0.01486801,0.02931219,0.01541439
ucN2hf0CgI8,0.02259514,0.00841032,0.03902852,0.01733289,-0.02066494,0.07589454,-0.01998918,0.00247253,0.01763028,-0.03049205,0.02434112,0.00129456,-0.00713908,-0.00507656,-0.00858609,0.01336803,0.00774751,-0.00413412,-0.02445196,-0.0312104
N-zjDtQOwxc,0.09991941,0.04545095,0.19461729,0.0307367,-0.10713825,0.00268741,0.02050293,-0.12923445,-0.01086722,0.12950247,0.04413625,0.12585449,0.18237622,-0.10430506,0.0161171,-0.01564401,0.03145676,-0.11813154,-0.05930357,-0.13416018
tkLxg6h07aE,0.03139486,0.01121255,0.06921865,0.0341737,-0.02286844,0.32871338,-0.09560574,-0.01414681,0.02708779,-0.56671449,0.56958877,0.23357397,0.04120881,0.07101586,0.01402146,-0.0906592,-0.03226521,0.07984134,-0.05237678,0.00229254
xjcVnFd-4YA,0.0155194,0.0079825,0.02366726,0.00782027,-0.01755965,0.02039755,-0.00197048,-0.02078993,0.0025619,-0.0031634,-0.01327325,0.01046448,0.019281,0.02591175,-0.01667123,-0.00368406,0.01317738,-0.01615162,0.00805447,-0.01389647
QNHEqcXa3Zg,0.10982321,0.09510302,0.13122053,0.01808604,-0.06958431,0.02531457,0.04834174,-0.10881063,0.01062834,-0.08378258,-0.04942101,-0.09532514,-0.02084036,0.08287471,0.09650541,0.04612817,0.0419362,-0.01445047,-0.00476716,-0.00264588
2r0m4TsyIxs,0.00987363,0.00105832,0.02294723,0.0063049,-0.01392904,0.08686274,-0.03900832,0.02012352,-0.0075565,0.00693811,-0.01082923,-0.01097107,0.00642716,-0.00191213,0.00033367,0.01630847,-0.07211791,0.02379791,0.01335128,-0.00652163
-CTY5XDxt8E,0.00556259,0.00263847,0.02355566,0.00721013,-0.0064291,0.18086067,-0.07609654,0.04363171,0.00026397,-0.0332563,0.06514338,0.02907941,0.0082952,0.06333464,-0.01725244,0.18433436,-0.11750679,-0.02605232,0.04451763,0.02990996
PnpHwhTWw0c,0.02538739,0.02249261,0.0473448,0.00300404,-0.00895443,0.14830383,-0.0610341,0.02040441,-0.00119099,0.02240462,-0.05274045,-0.03393128,-0.0035987,-0.08533476,0.05115029,-0.11130964,-0.06465368,-0.07255135,-0.01513618,0.04330013
JWOErbTL9N4,0.01525918,-0.00014811,0.03325718,0.00309015,-0.00999314,0.13012467,-0.04916459,0.00916715,-0.00058044,0.03160876,-0.02906628,-0.01571474,-0.01409196,-0.00430056,-0.02498141,0.09073649,0.00879398,0.0004342,0.0372616,-0.04759452
yE8fJOgv7Pc,0.0175199,0.00229414,0.04620304,0.01193814,-0.02815139,0.12612799,-0.03809896,0.00574244,-0.01752095,-0.02182497,0.03652303,-0.00119301,0.01026859,-0.17934926,-0.06031697,-0.05123805,0.31944827,0.07634835,-0.01110511,-0.0451862
s6XPoPYDn-Y,0.01723019,0.00774715,0.04374048,0.01697152,-0.02399367,0.15744188,-0.03208721,-0.03868999,0.02680298,-0.44693148,0.44951477,0.17327408,0.03023732,-0.00142879,0.03165177,-0.18725831,0.02652859,0.08647776,-0.05553103,-0.0015526
dU5sDKcwN9E,0.02116937,-1.517e-05,0.04619401,0.00439654,-0.00344537,0.24769786,-0.09847716,0.05428426,0.00418199,0.02157084,0.01747853,-5.481e-05,0.00045351,0.03036313,-0.00555336,0.054969,-0.08928392,0.04046058,0.01487359,-0.02983302
R-klQGp_308,0.01795616,0.01971529,0.02942287,0.00885917,-0.00981897,0.1487941,-0.0659408,0.0332969,-0.00128222,0.01476217,0.0048701,0.00308458,-0.00226422,0.00799312,-0.02795753,0.00429338,-0.00628129,-0.02220256,0.03678759,0.04854233
9pPCy9wqxuk,0.04892556,0.03559657,0.1146702,0.02963883,-0.01497605,0.01095356,0.04475644,-0.0967623,-0.00198078,-0.01856849,-0.02676848,0.01820967,0.18424105,0.02841543,0.07827152,0.0357062,0.03487958,0.09855358,0.07382739,-0.00450386
OEtIq4tR1rA,0.0107283,0.00463296,0.03776758,0.00966546,-0.02196872,0.10841584,-0.03415206,0.01657457,-0.00774524,0.03043878,-0.04179124,-0.01441127,0.03524353,-0.03979674,-0.01234254,-0.07697921,0.01500606,0.00869545,0.02427889,0.07326857
if955Z_s4Ts,0.01257628,-0.00265039,0.02097511,0.00683133,-0.00491394,0.12745156,-0.05304977,0.03195751,-0.00987397,0.0660543,-0.05370513,-0.01507401,0.00617172,-0.01134194,0.04377859,-0.08064443,0.01213699,0.02039742,-0.01950277,-0.02806772
uWa0odbimaU,0.14640888,0.00408186,0.12204126,0.0382287,-0.09887875,-0.00649806,-0.00078161,-0.11417718,0.3168165,0.07003458,0.03105809,-0.02483717,-0.04699365,0.06316823,0.14192996,0.01652059,0.02389615,0.06646357,0.06066219,-0.0768281
8--Bq5oEsZ8,0.03224733,0.02432339,0.02209386,0.01178905,-0.02489851,0.03789491,-0.02563936,0.02757321,-0.01403972,-0.0216111,-0.00665858,0.00703928,-0.0071962,-0.00408579,-0.03966673,0.03295958,0.00036832,0.01625504,0.02191627,0.02363845
u_f8bJkfg68,0.07596907,0.07593807,0.02962759,0.01563971,-0.0427582,-0.00386741,-0.0257941,0.03792587,-0.02856115,0.00568834,0.00676755,-0.00313859,-0.02204041,-0.01162826,-0.00559814,0.01953702,0.04976452,0.04201586,-0.01400187,0.02856748
pG99B0ui06s,0.00655465,0.00276652,0.02484363,0.00585396,-0.01367083,0.1101316,-0.04470141,0.02364345,-0.00126334,0.02228586,-0.02283546,-0.00189969,-0.01437742,0.01069215,-0.01758742,0.1179958,0.00561883,0.00738772,0.03204026,-0.07034508
gdjCR9h1yGc,0.01355667,0.00458942,0.05528837,-0.01553406,0.00158875,0.21745928,-0.09623269,0.05786954,-0.00796498,0.07458431,-0.07259259,-0.02788362,-0.00074082,0.03362826,0.03724068,-0.02779336,-0.03413876,0.00325921,0.0105345,0.05736249
ExlWYbISs6I,0.01745196,0.00486271,0.05664937,0.0191724,-0.02338428,0.18796265,-0.07963389,0.01995667,-0.00940543,0.03132707,-0.08174081,-0.03258168,-0.02586398,-0.03543754,-0.00475279,0.16182363,0.05143138,0.05021699,0.04730667,-0.1008188
k3wiE1KtSW4,0.06472668,0.01852116,0.0385678,0.01123457,-0.02902156,0.00394921,0.01325651,-0.0792861,0.04097968,0.00908341,0.00940023,-0.06021866,-0.01016335,0.09654904,-0.04261354,-0.02133546,-0.01998084,-0.05561995,0.0085521,-0.03371791
kB_PJC80JhY,0.10769129,-0.02210906,0.1302977,0.03240289,-0.10611303,-0.02225394,0.00730592,0.02071798,-0.07473336,0.00616479,-0.10413223,0.22385657,-0.04571408,0.01502363,0.04122718,-0.00776742,-0.099163,-0.06192377,-0.11904917,0.05941294
JjwHFerSu4M,0.04720249,0.03098927,0.08004082,0.02887149,-0.02786027,0.05989815,0.04328918,-0.10219222,0.011152,-0.05724023,-0.02428679,-0.01566756,0.0018691,0.06238476,0.06115605,0.00124132,0.06777534,-0.04082454,0.01807098,0.06058996
oCsFEpxTxlI,0.10481597,0.09242286,0.11405071,0.05030011,-0.07944334,-0.00961892,0.02568732,-0.05556198,-0.12823472,0.05266045,-0.10731344,0.36347088,-0.16903908,0.13733723,-0.1558684,-0.05543485,0.09672037,0.15499108,-0.07299879,-0.0583473
W41XcEogOB0,0.01926682,-0.00142485,0.03157593,0.01882819,-0.00647293,0.12176862,-0.039582,0.01227596,0.0022149,-0.08168732,0.06685567,0.04413154,0.00264069,0.05205515,-0.04613261,0.02368925,0.04906752,-0.01510868,-0.0145932,0.00911902
p4zPmpXfGyY,0.03096856,0.00888631,0.07933109,0.02043878,-0.02199946,0.25327497,-0.08948769,0.05026037,-0.00251094,-0.03165374,0.048332,0.00348483,0.01497692,-0.01554568,-0.00893994,0.0345695,0.10461561,0.03824273,-0.04027975,-0.03234543
dl0-TveDDGA,0.00993528,0.00627233,0.04456087,-0.00175483,-0.00578838,0.2168373,-0.09154496,0.06143886,-0.0029297,0.0910241,-0.07135303,-0.04430021,-0.00394991,0.02323855,0.03823708,-0.09989913,-0.03237592,0.04377329,-0.00539588,0.02887478
_dxtH2u5aAk,0.01184405,0.00088525,0.03193585,0.00669792,-0.0091386,0.15836446,-0.06537722,0.03213227,-0.00069526,0.01689299,-0.02561978,0.00900484,-0.03037516,0.04860389,-0.10738109,0.19444671,0.25814023,-0.11508514,-0.0435044,0.02380032
rfRFwXnk660,0.03551669,0.00171371,0.0468112,0.00966921,-0.03180646,0.00410551,-0.00302151,-0.01555531,-0.00498399,-0.03221217,-0.03705022,0.00754334,-0.00061212,-0.08842442,0.00081321,0.0013388,-0.01921194,-0.0032462,-0.00747865,-0.04586751
m-nnyNZ0TQ0,0.01510124,0.00682447,0.05950653,-0.01306816,-0.00075825,0.19406093,-0.06483677,0.05584141,0.00100993,0.08883856,-0.08979676,-0.04789941,0.00697592,0.02222643,0.03212856,-0.09411549,0.06221561,0.05087116,-0.04919174,-0.04578596
UPbaPjDGQIE,0.0092932,0.00467963,0.0412496,0.00158926,-0.00302542,0.17171742,-0.07783628,0.03965807,-0.00874978,-0.01163429,0.03240614,0.01694238,-0.00367581,0.04818199,-0.03023206,0.132758,-0.02293632,-0.01845513,0.00741131,0.02054131
eRD2C7w9r6Y,0.04588334,0.03652742,0.03447069,0.01212855,-0.02675519,0.01892372,0.04096077,-0.04340986,0.00433011,-0.0299907,-0.02244647,-0.02897505,0.00137758,0.0321454,0.03992113,-0.00187174,-0.00288623,-0.02790963,0.01496512,-0.02700478
JQ8OpyAeTxw,0.07586406,-0.00069519,0.10996859,0.03483261,-0.07625703,0.04039795,0.06715535,-0.16614569,-0.08410597,0.04363391,-0.18463843,0.43343539,-0.13889357,0.18913284,-0.18818355,-0.15988279,0.05408103,0.01867247,-0.07426615,-0.01423001
WgcdDVIUXcI,0.04844363,0.03613584,0.08521869,0.02461027,-0.06579597,0.02777909,0.05076563,-0.06692982,0.03863847,-0.05127967,-0.01522671,-0.08747243,0.00430565,-0.03137712,-0.0212959,-0.03381908,0.0117473,-0.10723559,0.01067848,0.03057451
Lqq78q17jDY,0.11808898,0.06526851,0.21580054,0.00984594,-0.08882424,0.02695247,0.03091255,-0.2384869,0.08431365,-0.21540256,-0.11028917,-0.31909884,-0.13901984,-0.13612942,-0.48506166,-0.06284524,-0.16213591,0.27333579,0.43785967,-0.06262035
0kHJZFOuMWc,0.06446433,0.01376836,0.16825625,-0.07041521,-0.00013855,-0.01384851,-0.01244344,-0.09525136,-0.02063844,-0.03824541,-0.04273609,-0.00463767,-0.10022283,-0.02331515,0.22298597,0.06143624,0.02854513,0.16551369,0.13605242,-0.07745889
vNXFk8iGHk8,0.01765487,0.01408768,0.05592825,0.00095318,-0.01724632,0.25755334,-0.10941971,0.06952402,-0.0062958,0.13021384,-0.06222268,-0.01279186,-0.05337942,0.02645732,-0.03135932,0.10467173,-0.13650731,0.07969675,0.06181613,-0.22703441
ktkpd9A8MD8,0.07608818,0.0043892,0.12637645,0.01720781,-0.07932114,-0.0137482,-0.00308598,-0.06396725,-0.01500965,0.06515135,0.07244831,0.01057594,-0.07354453,-0.007077,0.16491028,0.04655302,-0.00804893,0.01543454,0.03683947,-0.01839543
5z8hOrxhApI,0.05318207,0.01152841,0.10000104,0.0372988,-0.07513048,-0.00510137,0.01771686,-0.00362023,-0.03878272,-0.00096868,-0.06269387,0.06330467,-0.00622674,0.07147818,0.03168707,0.00215596,-0.01659811,-0.04819026,0.02813548,0.02169793
dNNyCZwEa6k,0.01013467,0.00478472,0.04368353,-0.00024571,-0.01085765,0.15212792,-0.05759525,0.03258192,-0.00364716,0.04421332,-0.03927149,-0.01194944,0.00377623,0.00993632,0.01423112,-0.02216398,0.0492826,0.01691873,-0.01127415,-0.01152606
8OjVlmrtW4M,0.16581199,0.03463882,0.13038404,0.04980483,-0.10994484,-0.00942563,0.02351583,-0.09331667,-0.01445626,0.00373912,-0.04527551,-0.01551759,-0.04054269,0.16835165,-0.00946347,-0.02495434,-0.04474292,0.00550117,-0.06163222,0.09572859
5wuHYQMnYhA,0.01671683,0.00797341,0.03890397,0.01439992,-0.0186267,0.14603139,-0.06183011,0.02540541,-0.00262302,0.0159238,-0.01612216,-0.00728649,-0.02580188,0.06336733,-0.11285891,0.19682905,0.25421842,-0.13209107,-0.06465414,0.04461476
OCGgYu3vku4,0.09663091,0.09385978,0.06131223,0.02672631,-0.04850883,0.01606979,0.01472681,-0.05696439,0.00795713,-0.05653958,-0.05775007,-0.02961177,0.01387915,0.01019959,0.05410788,0.02300863,0.03738744,0.03885291,-0.02541697,-0.04265235
4at2bVIhLgc,0.00975305,0.00294101,0.01661902,0.00383444,-0.00321587,0.1156273,-0.04160304,0.02859385,-0.00058737,-0.0361127,0.06458964,0.0346366,-0.00133372,0.05225804,-0.02134115,0.15421174,-0.05631923,-0.0229614,0.02212075,0.0184341
98VQpHj17Ws,0.01372406,0.00997219,0.03576857,0.00656834,-0.01892399,0.06727176,-0.0221209,-0.01002083,-0.0060503,0.01198676,-0.02461393,-0.00532824,-0.00359482,-0.00246536,0.02194424,-0.00382628,-0.01545661,-0.02107893,-0.01132569,-0.014921
pUlUgkaTQZg,0.00932141,0.00503058,0.04019824,0.01800472,-0.00826688,0.19819725,-0.07679801,0.03068755,0.00546106,0.01054319,0.00038304,-0.01944072,-0.0068289,-0.0310496,0.01326269,-0.07268709,0.08523726,-0.01971677,0.01020172,0.0404243
ndkH5fZSIvs,0.02043072,0.00807495,0.06510328,0.06676594,0.03264649,0.15685431,-0.07500974,0.01168739,-0.00254495,-0.00122682,0.02356667,-0.00772568,-0.00550324,0.03290371,0.00574968,-0.03318048,-0.01342958,-0.04465999,0.04827273,0.06731943
ERWIJPTNZVM,0.00561663,0.00552264,0.01450043,0.0077658,-0.00320964,0.04126112,-0.01063237,-0.00958216,-0.00329285,-0.00236157,-0.01488069,0.0120059,0.0006807,0.00250076,0.01120868,0.02421091,0.05840501,-0.05111086,0.00334873,0.01041137
vgwG6e9TFcw,0.01145484,0.00814464,0.03575151,0.00638561,-0.01313554,0.16333583,-0.07421341,0.0390491,-0.0032461,0.02611288,-0.05678761,-0.04429407,0.0148244,-0.093957,0.05213402,-0.24825461,-0.03456286,-0.12691112,0.02206571,0.10205772
KGeCwEOLPGE,0.01662477,0.01354975,0.05439389,0.00120986,-0.014234,0.2691283,-0.11314292,0.06860821,-0.00291737,0.12796517,-0.06361053,-0.01411846,-0.04999633,0.0155163,-0.02937456,0.08251602,-0.13675427,0.08290718,0.06061143,-0.253774
5YKhtb3DNNo,0.06061421,-0.01152684,0.06495301,0.03683802,-0.01806172,0.01012296,0.01618636,-0.05271408,0.01044157,0.09010759,0.04723772,0.03435,-0.03579492,0.01614517,0.03919851,0.0169271,0.02575735,0.0028152,-0.05500785,0.07707392
t9PF8V132Y4,0.01318039,0.00577158,0.0321426,0.00859257,-0.01303752,0.07565392,-0.03327437,0.00178938,-0.00255895,0.01082652,-0.02248388,-0.00421035,-0.01827625,-0.02171884,0.01339015,0.02722562,-0.01749411,-0.00162907,0.00627199,0.01691139
1baBzd1XPkU,0.01391405,0.00443352,0.03323452,0.00288988,-0.01501709,0.05667927,-0.02687003,0.00402008,-0.00103715,-0.00431729,-0.00123879,-0.01959956,0.0016587,-0.01022308,0.00507627,-0.02285109,0.0036976,-0.01586155,0.03369138,0.03969006
8TvJvfKz8Fo,0.0612419,0.01086052,0.13296046,0.0350887,-0.11405309,-0.01876808,0.01286643,0.08241553,-0.04303891,-0.02333982,-0.06108878,-0.00588536,0.07725568,0.06967556,-0.00701825,-0.044604,-0.08034239,-0.03586862,-0.00687696,0.15327212
39czcByvq7c,0.02418508,0.00799624,0.04114567,0.01170999,-0.02413955,0.14172836,-0.03523053,0.03108616,-0.00491739,0.00909021,0.00453153,-0.01985124,-0.00370655,-0.03087295,-0.03596724,-0.01361567,-0.02324688,0.01766233,0.01252378,0.05556653
FYMdllTCrc0,0.01258013,0.00489296,0.03930856,0.008814,-0.01264684,0.25142662,-0.0921323,0.05778408,-0.00020242,-0.08693597,0.12875913,0.06372177,0.00853789,0.06326945,-0.02652563,0.27035082,-0.13255,-0.03408689,0.07057366,0.03999505
LLK879SXq_w,0.11112683,0.05718787,0.3109077,-0.13597103,0.21905392,-0.0413428,-0.06900872,-0.11549376,0.03404466,-0.02681998,-0.0166956,-0.04851288,-0.02824316,0.03059041,-0.00134057,-0.00322114,0.02036462,-0.02751366,0.09744918,-0.03630655
IrGd4xIhTN0,0.01089154,0.00537564,0.03511321,0.01081231,-0.01436532,0.16254958,-0.05709897,0.0241979,0.00044664,-0.04660138,0.06150612,0.03332564,0.00324641,0.03322243,-0.0251266,0.17581251,-0.08760999,-0.02690998,0.01924814,0.01697555
bRy54zQmixQ,0.01516472,0.00851514,0.03906431,0.01388521,-0.00272901,0.16343326,-0.06358387,0.01259357,0.00914836,0.05244892,-0.02542804,-0.00884501,-0.04459245,-0.07785995,-0.01068912,-0.07223616,0.14646067,-0.12342668,0.04566748,-0.0430091
JrGlAw_Q7ow,0.01475096,0.00671082,0.05417642,-0.00164725,-0.01597218,0.20590279,-0.0921185,0.06832105,-0.00973708,0.07883005,-0.06862465,-0.04105771,-0.00281341,0.02937383,0.03512661,-0.10426355,-0.05743637,0.01183025,0.00388028,0.01861098
BdUzhVM5w1U,0.00997872,0.00357972,0.02670302,0.0046146,-0.00700238,0.15690895,-0.06726007,0.02947497,-0.0084742,0.04790804,-0.03621658,-0.02258442,0.01347653,0.00798013,0.03620282,-0.09435048,-0.04505478,-0.01458352,-0.00205291,0.01827879
gzjXoJoWgjs,0.03586039,0.02153798,0.05992897,0.00024667,-0.01945002,0.25725834,-0.10256572,0.05367849,0.00983058,0.07328082,-0.07358427,-0.04930284,-0.00473153,-0.02522609,-0.01063074,0.12347799,-0.01415023,0.11479895,-0.03936144,-0.13225663
XsY6iChNzf0,0.02078048,0.02033867,0.05915383,-0.00446268,0.01178927,0.0347963,0.04200892,0.01358551,-0.00645655,-0.00987758,-0.01436181,0.01417964,-0.01598432,-0.03983203,0.00616092,0.01989919,0.02968533,-0.02892395,0.00249363,-0.01123727
kijJaXVri7Q,0.04265072,0.03797834,0.05626782,0.02282591,-0.03321977,0.03194352,0.01790822,-0.05699031,-0.00111445,-0.02651675,-0.03396753,-0.03023342,0.01617681,0.02970975,0.02378159,-0.00470367,0.00516521,-0.00365152,-0.01765157,-0.02262015
up__2flbXw4,0.01018101,0.00684308,0.02907579,0.00078996,-0.00711356,0.07149879,-0.02901134,-0.00638635,-0.00863351,-0.04844646,0.04393927,0.01990872,0.00640259,-0.08288685,-0.00221688,-0.05062609,0.13361149,0.00396984,-0.00968783,-0.01071746
L5HQ_jx0HX8,0.0154522,0.00463082,0.05705164,-0.00012312,-0.00791114,0.35754974,-0.14451293,0.08625763,-0.01001159,0.04697309,-0.00585047,0.00982171,0.010176,0.06721762,-0.01254324,0.2385327,-0.08884808,0.07245405,0.0244523,-0.11467226
0t118SCf-2w,0.00527604,0.00330415,0.01868789,0.00552005,-0.0076602,0.11124861,-0.04620287,0.01880376,0.00102749,0.00466989,-0.00452755,-0.01732188,-0.00198415,0.01299382,0.00295395,0.01542415,-0.00449903,-0.02454578,0.01758134,0.07334078
t4S8XOHv1jg,0.15086133,0.05997868,0.12395093,0.04625052,-0.0924757,0.06365504,0.07608157,-0.23165622,0.02722474,-0.0807869,-0.10367322,0.01666717,-0.06396695,0.36592582,-0.06985627,-0.14319314,-0.0219312,-0.03534169,-0.03770477,-0.0164596
6hNY0K71Ewo,0.06131836,0.04652318,0.11165127,0.0298764,-0.08147854,0.01010036,0.0415935,-0.08796581,-0.02418934,-0.07295699,-0.06893198,-0.0491792,-0.07715675,-0.05179361,0.11234089,0.01787478,-0.07065849,0.04419681,0.06973853,-0.05313903
TET8fTKH1e8,0.12185408,0.05110587,0.15403818,0.00957136,-0.0615041,0.02375318,0.04461039,-0.14267038,0.00471076,-0.01086459,-0.0572527,0.01931896,0.05100799,-0.0368733,0.14515315,0.01776747,0.04106107,0.0233745,0.03043746,0.09036645
81RBVN6P9cM,0.02776938,0.0108127,0.05693115,0.00638128,0.01241905,0.14983912,-0.03127748,0.02738503,0.0082987,0.02599629,-0.01429955,-0.0071511,-0.03756658,-0.11097068,0.00628186,-0.0727883,0.10682191,-0.10821162,0.03877755,-0.02791317
8nwaOxXIj0g,0.05265348,0.02893293,0.14019286,0.00938934,-0.03941936,0.02379899,0.02211895,-0.08524772,0.01107444,-0.08762098,-0.0587245,-0.03379313,-0.05498879,-0.11251206,-0.05974329,0.03412572,-0.0250303,-0.02156286,0.04049581,-0.00777341
z7Qp9Q_Br88,0.01512592,0.00499636,0.03750252,0.01301436,-0.02255175,0.104991,-0.0453731,0.00872106,-0.00232316,0.0156955,-0.03041788,-0.03195002,0.00570794,-0.00016743,0.01594924,-0.07187289,-0.02768618,-0.04403258,0.0369212,0.08253626
DmcKWMeNWaQ,0.06854549,0.0325785,0.14853381,0.05483271,-0.1108072,0.01034437,-0.01825826,-0.08226427,-0.01347011,0.16759492,0.14531767,0.00810704,-0.0189814,-0.03648154,0.09680451,-0.02859732,0.01320312,0.00829178,0.10259542,-0.02037155
roUppNywDks,0.02669548,0.00893396,0.05951757,0.01873146,-0.02788763,0.27937195,-0.08784073,-0.00153601,0.01920184,-0.44357707,0.44471422,0.18659744,0.02989041,0.0001737,0.0175016,-0.05279859,-0.02886595,0.07905254,-0.03544778,-0.01981304
fwUWAoSeg2g,0.03994812,0.02573276,0.14834052,0.24552239,0.20509931,-0.01992818,-0.02266381,-0.01603024,0.0018516,-0.0105116,-0.01026875,0.01676658,0.04022497,-0.02061352,-0.02266282,-0.00486572,0.02633365,-0.02448873,-0.02093543,0.02700837
u5HPVyEpyNI,0.08267874,0.04583671,0.12884987,0.03780191,-0.09699944,0.03041319,0.05256934,-0.17583172,-0.02741356,0.01225413,-0.0826387,0.17685143,-0.09192916,0.14815282,-0.11054984,-0.06954141,0.00622929,-0.06336704,-0.05781351,-0.09366116
YUwjueXzffE,0.02499731,-0.00340966,0.0525474,0.00452732,0.00365558,0.21191522,-0.07666814,0.04187448,0.00832329,-0.03321261,0.01106809,0.0077964,0.00182901,0.04076298,0.0247818,-0.10397474,-0.06129458,0.00078146,-0.01138532,0.03716678
XoDfpxBy8Ag,0.0541501,0.01003204,0.12819577,0.04862129,-0.0702672,0.04121364,0.04623825,-0.15019384,-0.05684866,0.04592486,-0.10442573,0.32227177,0.16184605,-0.0128721,-0.13831516,0.00551354,0.0164499,0.15593469,-0.0071966,0.05210044
_UFmkJrpc3Q,0.01098285,0.00587758,0.05287167,0.00941179,-0.0005428,0.26717243,-0.117129,0.07178199,-0.00136715,0.08550924,-0.10330669,-0.07027757,-0.0020942,-0.08842328,0.05064428,-0.33684206,0.19652846,-0.03588428,-0.02583227,0.08593919
QfUb5MEAOXA,0.01013552,0.00644455,0.03420852,0.0019328,-0.0120997,0.08758476,-0.03433902,0.01102235,-0.00655636,0.00990875,-0.01532169,-0.00645435,-0.00342378,-0.01374686,0.0123413,-0.0229192,0.03223412,-0.02789943,0.009963,0.04765475
7NeECqsR_u4,0.010921,-0.00092874,0.02571843,0.00729974,-0.0153016,0.14330396,-0.06795643,0.04398632,-0.01351612,-0.02831909,0.01490885,0.00285338,0.00802449,-0.12677472,-0.01168756,-0.12192586,0.12029725,0.0246888,-0.01175163,-0.00923321
IAn3Wu2BdyY,0.09812029,0.03475324,0.10920236,-0.0012265,-0.03983913,0.02781162,0.04529978,-0.17590079,0.06060506,-0.02041792,-0.03918748,-0.08611993,-0.01024427,0.14610931,-0.02804372,-0.01872855,-0.0093161,-0.03809683,0.00924763,0.02217732
IMM5cm6xrXQ,0.01304839,0.0063412,0.04356365,0.00840013,-0.01870635,0.12386941,-0.0493131,0.00455805,-0.01703966,0.00417959,0.02059872,0.0016076,-0.0034131,-0.09393704,-0.01206829,0.00994527,0.23381439,0.02476021,0.00049396,-0.04614652
eBbqRceO2qY,0.063105,0.08318237,-0.01167594,0.00944219,8.637e-05,0.03931174,-0.01108694,0.03390143,0.0325946,-0.01472466,0.02127993,0.02295411,0.01417587,0.00523117,-0.03139739,0.0122068,-0.02402386,0.00173813,0.00022831,-0.02358387
MVFd0qFB9TE,0.00779534,0.0056961,0.02698813,0.00646549,-0.00746834,0.14215295,-0.05616475,0.03407904,-0.01377328,0.07558146,-0.04934173,-0.01980238,0.02297068,-0.01573528,0.03568963,-0.11272056,-0.00990604,0.04487381,-0.01764082,-0.04609303
_WrHMsTYlOU,0.01164075,0.0072724,0.03268264,0.00785772,-0.01177784,0.07419455,-0.02531337,-0.00260555,-0.00868999,-0.03672889,0.02864183,0.01535248,-0.00721791,-0.05330842,-0.02061775,0.00164263,0.13834471,-0.01118906,-0.01190521,-0.01784729
io_Ysi-LFWE,0.01006425,0.00715606,0.03114526,0.0096665,-0.01473633,0.15053926,-0.05580316,0.01971199,-0.00652942,-0.08209444,0.09089726,0.04618288,-0.00423636,-0.05507156,-0.03248134,0.05373277,0.10912522,0.01007851,-0.02624352,-0.02360585
0D14LJGiBkg,0.00765801,0.00574215,0.02182772,0.0112821,-0.0038489,0.08658897,-0.03414202,0.01123596,-0.00335994,0.02088424,-0.02399703,-0.00204711,-0.00614074,-0.02630849,0.00588106,-0.04749687,0.0484058,-0.05123065,0.00387577,0.0348218
4Zi41MRVP0g,0.085156,0.03509291,0.10773669,0.14869267,0.07333479,0.01525614,0.02279504,-0.0982927,0.02473667,-0.03957118,-0.0248297,-0.05911667,-0.01544556,0.09178003,0.09534129,0.0050055,0.00932439,-0.00387308,0.0031607,-0.01720782
jFZPpkVszCg,0.11042972,0.0788966,0.19059361,-0.05025808,-0.05148323,-0.03045889,-0.00795253,-0.0563193,-0.06675199,-0.05537117,-0.02086938,-0.00713807,-0.10023826,0.06777412,0.09844129,0.04683488,0.17363034,0.30517469,0.1438854,-0.04142676
DYkyYUjOZTk,0.01270773,0.01010437,0.02864937,0.00850573,-0.01867139,0.08345869,-0.02749468,0.00794817,-0.00372916,0.02845673,0.0046766,0.00363938,-0.00119424,-0.00593337,-0.0150491,0.00633729,-0.02193355,-0.00591514,0.03426015,-0.00196193
GXeBi91SkIw,0.01318563,0.00091355,0.0304825,0.01511929,-0.00537363,0.14893737,-0.0559483,0.02161498,0.00384011,-0.05343422,0.07765408,0.02963418,0.01043907,0.02622565,-0.01153274,0.08495138,-0.06883977,0.00658645,0.01999561,0.01208193
HRxULulg_hM,0.02316518,0.01126965,0.05905243,0.0236486,-0.03519658,0.1688396,-0.06813651,0.04555907,-0.02680465,0.02851874,-0.04110572,0.01705474,-0.02327175,-0.02078708,-0.00060703,0.1669094,0.05044342,-0.00921425,0.05450031,-0.08730775
tbvteFr4SPQ,0.05584859,0.03051062,0.10603818,-0.00541711,-0.0364735,0.02216724,0.01658609,-0.09558503,-0.00558745,0.00184661,0.01183162,0.00549514,-0.0018967,0.02977205,0.15402696,-0.00245596,0.03662299,0.02709064,0.02889864,-0.03511035
e5jQUYrRPRk,0.18010399,0.00489592,0.14710532,0.05164664,-0.12663366,-0.05424181,-0.01527415,0.09937296,-0.0366407,-0.126107,-0.07849048,-0.05504908,0.02554769,-0.03778072,-0.02818479,0.02212867,-0.01188008,-0.05881819,-0.06072004,-0.07933794
er7v-GJj_V0,0.0923657,0.04397436,0.10896622,0.03936231,-0.08849762,0.00668432,0.01260846,-0.06639384,-0.01601757,-0.04131424,-0.04290793,0.00555022,0.01165272,0.12252422,0.07113831,-0.03306144,-0.04286914,-0.03980608,0.02425475,-0.02554103
69AWec8qjjo,0.0514937,0.01926746,0.06571481,0.01520595,-0.03906127,0.05018587,0.02669418,-0.13197503,-5.123e-05,-0.01741166,-0.10205288,0.10377745,-0.04741396,0.17612914,-0.08783349,-0.1108705,0.00633041,-0.06198498,-0.00071883,0.01853785
Cr7oGnSzmb4,0.00796803,0.00729369,0.01971686,0.00497726,-0.01002555,0.11128028,-0.04686554,0.02619193,-0.00183859,0.02512205,-0.02027012,-0.00696921,0.00301287,-0.05848536,0.01647176,-0.08622956,-0.03971482,-0.03317738,0.02430976,0.04782285
8QsAx7s9PmQ,0.01143118,-0.00085355,0.02258764,-0.00349582,-0.00346009,0.05732105,-0.01468327,0.01398358,-0.00963367,0.02780146,-0.01111016,0.01720819,-0.00156371,0.00469714,0.01442865,-0.00575557,-0.0055565,0.00393481,-0.01453036,-0.02506052
oOCN30ulVyo,0.01709295,0.01761688,0.02305254,0.00461248,-0.01378807,0.05011229,-0.01305784,-0.00851803,-0.00529919,-0.0081733,-0.01672439,0.02929684,-0.03502023,-0.00248409,-0.01114137,0.03688469,0.03349501,0.00609371,-0.00503269,0.03601165
ywEV7NQlO1Y,0.02741036,0.02837153,0.06313754,-0.0218322,0.00113299,0.03144086,0.00316029,-0.02418858,-0.00497745,-0.02990448,0.00445733,0.01241456,0.00224666,-0.05897062,-0.0221395,-0.01971054,0.06599654,-0.04300202,-0.02987068,0.03886084
3fsJFUvA6Ts,0.01479999,0.00969289,0.05257424,0.01617985,-0.02160718,0.34603233,-0.15012561,0.08483311,-0.01037445,0.02309779,0.00990041,-0.00067953,-0.02711266,0.03181497,-0.12636429,0.21228601,0.27267424,-0.16579309,0.0054657,0.10448049
RniYUmKs93U,0.00712269,0.00274172,0.02415505,0.00755034,-0.01527667,0.04280425,-0.01602729,-0.00549399,-0.00512538,0.01724689,-0.0151628,-0.00943285,-0.00190756,0.00511128,-0.00636925,-0.01610436,0.00749008,-0.00268399,0.01274971,0.03126263
1PIbKMyFMAY,0.04791741,0.04465796,0.10390894,-0.01753775,-0.02485313,0.00672725,0.01601157,-0.05370901,-0.02634797,-0.02939134,-0.01750012,0.00618861,-0.03917448,-0.07250323,0.10475194,0.04577674,0.06404735,0.04957106,-0.01182058,0.0186206
07T7V-Szcx0,0.00822713,0.00473649,0.04302451,-0.00455556,-0.00199136,0.21455066,-0.08772635,0.06195551,-0.01089339,0.11058301,-0.08668386,-0.0476392,0.01017212,0.04195789,0.04885924,-0.12987118,-0.10014163,0.06588852,-0.01211605,-0.00394962
jAaw0vn7eLs,0.00960448,0.00434802,0.03494944,0.01277924,-0.01396814,0.15009481,-0.06079193,0.02874136,-0.00949665,-0.00070031,0.03225302,0.01462578,0.00763607,0.04069726,0.00574242,0.0680974,-0.10319781,-0.01057972,0.03361518,-0.00119533
nN9QYJdEcw0,0.00753768,0.00300414,0.02496163,0.00753832,-0.01634572,0.04178214,-0.01198792,-0.01206653,-0.0015504,0.0158289,0.00524575,-0.00016264,-0.00918216,0.0014818,-0.00963093,-5.371e-05,0.02728932,-0.0272535,-0.01669508,-0.00316769
XGAhqBxEV78,0.01831159,0.00696081,0.03880912,0.00673985,-0.00939508,0.10062764,-0.0351493,-0.01333192,0.00862058,0.02054864,-0.01474742,0.00360527,-0.0393273,-0.06033311,-0.01679325,0.00360983,0.07724799,-0.10974536,0.0399649,-0.01784119
kH_bSvf7EVA,0.00637221,0.00599319,0.01857071,0.00600978,-0.00686029,0.1316331,-0.05300315,0.02820919,7.34e-05,0.02412564,-0.02386088,-0.00707633,-0.00052198,-0.06124892,0.01145695,-0.08614252,-0.03654399,-0.04672959,0.02387936,0.05911217
oRVJREzko-M,0.01375137,0.00693313,0.02434542,0.01665611,-0.00474075,0.08688958,-0.04083166,0.01965324,0.00012655,0.00060725,0.00416848,-0.0109987,0.00944,0.01302321,-0.02502941,0.02180497,-0.00076678,-0.04231326,0.03059217,0.04902574
P9yleRV8tto,0.01860019,0.01058585,0.05103936,0.01921177,-0.0170731,0.23360127,-0.09808069,0.04954695,-0.00375212,-0.02448274,0.01774584,0.02412638,-0.01294775,0.09260544,-0.11369735,0.27508366,0.12498084,-0.12878372,-0.01017934,0.06068974
5-ASQ44GpNI,0.13245939,0.09853595,0.16738829,-0.00065766,-0.065071,0.03217122,0.05017538,-0.17356171,0.02780651,-0.04284977,-0.04883248,-0.07764414,-0.01024899,0.0174992,0.09204304,0.01295696,-0.00310833,-0.0358415,-0.01551017,0.00511061
U0f47Nt9g-Q,0.04491894,0.03092626,0.10987328,-0.01554145,-0.01829576,0.00539546,0.01158223,-0.05334009,-0.00519161,-0.02827475,-0.02947462,-0.00464509,-0.07346611,-0.060032,0.12435791,0.03099926,0.03956122,0.00949854,-0.01818198,0.00453824
a9T6IRpz31E,0.04464211,0.00479828,0.06663345,0.0320718,-0.02938136,0.18420026,-0.03099778,-0.04756046,0.02372571,-0.46879442,0.45187276,0.1868668,0.02628481,-0.0093458,0.04561124,-0.1830923,0.02305142,0.07503675,-0.07744222,-0.02057208
rRw7sYwfSVI,0.09402114,0.05187266,0.1610872,-0.00615919,-0.06139518,-0.00589703,0.02641983,-0.03691425,0.01291497,-0.04462695,-0.05469416,-0.06427648,0.00310662,0.0523078,0.04049152,0.00115881,0.03117766,-0.05752353,-0.05849818,0.07660878
8u7HqZJQHDM,0.02267866,0.01162664,0.0650124,0.0294584,-0.02620916,0.3245805,-0.09890608,-0.00748299,0.02802944,-0.53776486,0.57254063,0.23695409,0.04445312,0.03132939,0.03083439,-0.05378779,-0.06952348,0.08266901,-0.01796191,0.02362402
kBctc9rV__4,0.09063234,0.06617939,0.27265864,-0.14634926,0.10285238,-0.01659054,-0.02736126,-0.09476075,-0.00679624,-0.07477887,-0.07005567,-0.03802517,-0.01878999,0.05167968,0.11409533,0.01881522,0.03002116,0.01109521,0.09478299,-0.04887069
BflRX7z7SHs,0.0742389,0.03381021,0.11488849,0.00187139,-0.05253887,0.01867727,0.00672887,-0.07344377,0.00044668,-0.04239448,-0.00484735,-0.05212738,-0.02047116,0.06799373,-0.04627265,-0.00328851,0.09385923,0.03156055,0.11732633,-0.01162024
3LnNwS6rqk8,0.06427424,0.06659897,0.09576358,0.02370556,-0.06576019,0.04729734,0.04398129,-0.11490745,0.00565259,-0.07121011,-0.05352573,-0.07529025,-0.02228403,0.09809731,0.14660295,0.03552957,0.01606898,0.00524112,-0.02078671,-0.05047611
t6GzhyGTKCo,0.00953909,0.00464612,0.04560976,-0.00049281,-0.00493422,0.21878297,-0.0906119,0.05863692,-0.01325643,0.08430714,-0.07856107,-0.0145167,0.00268104,0.02540112,0.033302,-0.07890158,-0.06501714,0.02609491,-0.03081459,0.0065667
lEhOg8oVpjU,0.17719131,0.0468616,0.2123678,0.07141851,-0.17285425,-0.01595256,-0.00725049,-0.13358269,-0.01210624,0.13111756,0.07952607,0.01355785,-0.05600089,0.10170941,-0.04519118,-0.04700949,-0.0804676,-0.06735579,-0.02986802,0.07342399
UM9dcnJXX0k,0.02938332,-0.0039069,0.02784108,0.01909536,-0.00353092,0.05225157,-0.00380429,-0.01005738,0.01113669,-0.02165072,-0.00480445,-0.00914581,-0.01498066,0.0041393,-0.00384168,-0.01621419,-0.04325143,0.07872051,0.03866739,0.03678414
465Vc9I4fvc,0.01584706,0.01041407,0.04975088,0.0089302,-0.00344556,0.21629323,-0.09811331,0.05226843,0.01195715,0.03327826,-0.0795628,-0.07312924,-0.00298475,-0.09850433,0.06750223,-0.34242131,0.03922224,-0.12229281,0.02450074,0.15345807
-1Fhry-Mqks,0.01161327,0.00470121,0.028022,0.00710344,-0.00840605,0.12838895,-0.05182619,0.01984115,0.00151242,-0.00184515,-0.01430896,0.00513564,-0.02170465,-0.00202708,0.00401705,0.02133509,0.00052121,0.03673621,0.00586373,-0.02449288
Duk_kOhIimU,0.06753917,0.01504627,0.11822376,0.04157075,-0.08183575,0.01804958,0.00167339,-0.11479566,0.00778514,0.08984763,0.08303875,-0.01867748,-0.0485557,0.03409533,0.08290941,-0.0094304,0.05380048,0.05653293,0.01075375,-0.02240462
UsS6bOYnnOI,0.01870371,0.00801663,0.0481863,0.00826927,-0.01540627,0.15113489,-0.06104341,0.03094492,-0.00589956,-0.01674581,0.01388343,0.00431955,-0.0004165,0.02582994,-0.016902,0.09751749,-0.07053845,-0.04121611,0.00713839,0.0021051
v_1Dhh8G84c,0.01570183,0.01089386,0.04115196,0.01385833,-0.02492303,0.12142994,-0.04229076,-0.00022975,-0.0024922,-0.00279762,0.01035634,-0.00594481,0.01061236,-0.02168435,-0.02306663,0.04931959,0.06968549,0.02799588,-0.01463226,-0.02677989
BOmc_wliaRg,0.02279724,0.00579003,0.02661887,0.01924403,-0.00523972,0.03368235,-0.0038808,-0.0212798,0.00148985,-0.05268622,0.03793564,0.00749721,0.01277432,0.0071195,0.03749085,-0.02644394,0.01105092,0.00590254,-0.00684596,-0.01571797
wy3a_xJI3so,0.01888459,0.01017574,0.06283928,-0.01092199,-0.00128296,0.20552931,-0.07079262,0.0482123,-0.00300441,0.12018488,-0.08315347,-0.03316477,0.00755798,0.01269119,0.0342546,-0.05779659,-0.04523323,0.09259122,-0.02371119,-0.10725115
3REHDZgXE1k,0.00758024,0.00292665,0.02683618,0.00732344,-0.01299946,0.07207446,-0.02679845,0.01288686,-0.00713726,0.00804908,-0.00801275,-0.00471721,-0.0021495,-0.02265084,-0.00336328,-0.01684537,0.0494946,-0.01889931,0.00846293,-0.00124002
WeliLUboy3M,0.04073614,0.00832162,0.06454987,0.03675017,-0.01747403,0.30627255,-0.07510263,-0.0001957,0.02728864,-0.52481848,0.53944531,0.22220641,0.04165721,0.07537265,0.00428109,-0.08927922,-0.01992861,0.07235957,-0.04590121,0.00348651
gEUMAljLr78,0.05993301,0.06011463,0.09276753,0.03023102,-0.07314634,0.03546211,0.04042529,-0.10706295,-0.06187039,0.03161295,-0.06518792,0.28090822,-0.05700344,0.04217211,-0.14366758,-0.03910592,0.02774798,0.04350562,-0.11587916,-0.05728563
Gmfpq60LbVQ,0.03157562,0.01457602,0.11051459,-0.0520393,0.00786831,0.03380774,0.01943732,0.01570968,0.02231481,0.00233922,-0.02815986,-0.02818852,0.0426588,-0.02759976,-0.03705346,-0.00207207,-0.04365416,0.06192724,-0.09742956,-0.00800847
2pao0845DQQ,0.0134318,0.00231088,0.0386641,0.00771071,-0.02126576,0.04270239,-0.01068385,0.01470879,-0.02758121,0.03611413,-0.03495763,0.05109688,-0.01343759,-0.03127208,0.04750774,-0.02666377,-0.02967873,-0.04448043,0.0277376,0.01165969
rc-xQnupse0,0.09743303,0.04101375,0.16053594,0.045842,-0.11246604,0.01849102,0.01309826,-0.16364861,0.0108142,0.03967589,0.03343797,-0.03814111,-0.06044484,0.00241242,0.22486259,0.01807877,-0.0209519,-0.0422794,0.07750793,-0.02229183
sKME5er1OKc,0.05372409,0.02989288,0.10935066,0.03864698,-0.08586591,-0.00388142,0.00523386,-0.08830261,0.03886705,0.10063625,0.10155269,-0.03637274,-0.00543883,-0.00841146,-0.00316953,-0.01151507,0.00271501,-0.06946488,-0.00977632,0.00232544
Y254oB1QNOE,0.02594908,0.01106017,0.03864756,0.00429046,-0.01390787,0.13095943,-0.05638725,0.01990399,0.00014493,0.02239846,-0.02053625,-0.01242802,0.00701922,-0.01100662,0.01448319,0.04441113,-0.0163943,0.02470606,-0.0097406,-0.03026323
CbDN7o5Ed_M,0.08416488,0.0477836,0.0520918,0.01287046,-0.0465056,0.02052337,0.03072072,-0.10441894,0.02030392,-0.04431326,-0.0423917,-0.07410486,-0.02021955,0.10750568,0.00216005,-0.03116389,-0.02125392,-0.01846934,0.02847339,-0.02428702
jCyhEO3h-Ik,0.01508161,0.00551736,0.04952016,-0.0083089,-0.00335394,0.13992217,-0.0625086,0.01677118,-0.00396645,0.00619114,-0.01877574,0.00636344,-0.01044231,-0.01017113,-0.00022032,0.10312941,-0.01570644,0.01027406,0.0053943,0.02172785
6jI9H3lyil4,0.06220346,0.03207645,0.13978062,-0.04557461,0.00245985,0.00645243,0.02075472,-0.08273968,-0.0115262,-0.02495331,-0.02936866,-0.03366388,-0.09254764,-0.0121234,0.22503432,0.03848081,0.04583603,0.09708972,-0.0126995,0.00323865
fKtG9uPeMCc,0.10815633,0.01215222,0.08093993,0.03038619,-0.06005243,0.01588964,0.0263307,-0.10508288,0.00626919,-0.01928686,-0.10911788,0.11657382,0.39875642,0.02006234,0.04706891,-0.00190487,-0.02933948,0.01787002,0.01392559,-0.02571693
wgADj9n8XMs,0.07303314,0.06322771,0.13942593,0.01115827,-0.06770314,0.00954843,0.02265571,-0.06316684,-0.08520271,0.05428982,-0.07251536,0.30006592,-0.10227573,0.0354176,-0.17170687,-0.05659312,0.06596689,-0.02225276,-0.13383366,-0.03533408
mMLOG0bsjRQ,0.09057692,0.01746561,0.16989132,0.00816573,-0.08172435,-0.00628605,-0.00321286,-0.13831677,0.00384647,0.05547968,0.06922196,-0.08667425,-0.03209558,-0.01492349,-0.12276587,0.01150026,0.02369732,-0.00688635,0.12678408,-0.05153557
JuRjZqzpP0g,0.01652344,0.00633453,0.07297694,-0.00751486,-0.00184723,0.36508329,-0.14094531,0.10542104,-0.002188,0.096267,-0.06313664,-0.02446557,-0.00201053,0.11364125,-0.06972338,0.17318425,0.14956835,-0.06032284,-0.08313332,-0.03452552
31t_CBePs34,0.0372345,0.00900954,0.10915031,-0.03601169,-0.01303569,-0.01767498,-0.00149919,-0.05946009,-0.0223787,-0.0439657,-0.02444167,-0.01944781,-0.07632037,0.00341568,0.0655279,0.03186337,0.05858577,0.17907958,0.12761784,-0.05198417
VgH5rhALEfU,0.02125857,0.02121801,0.03670808,0.00801526,-0.01189719,0.08250348,-0.03261018,0.00850709,-0.00471916,0.02364882,-0.0322297,-0.01238138,-0.0007522,0.02008292,-0.00682429,-0.00217977,0.02730211,0.02072532,0.01223669,-0.01313443
KdmRWazuBRU,0.05978639,0.04694859,0.10826788,-0.01267371,-0.0357757,0.02989721,0.03327447,-0.11609857,-0.0080949,-0.05690911,-0.05338059,0.0083689,-0.09106385,0.06488062,-0.08063262,-0.04857322,-0.09778417,0.04822411,0.18024347,0.08744451
d7qfcHa4LTY,0.01651417,0.01641018,0.02786051,0.00935327,-0.01552485,0.09823288,-0.03632162,0.00353259,0.00245705,-0.00551596,0.00420373,-0.0051382,-0.01592053,-0.02338516,-0.00626967,0.02523375,0.01907838,0.03004684,0.00580892,-0.02020003
msYTFQ4OIu8,0.02097153,0.01184119,0.0681499,0.02988066,-0.03118947,0.28599584,-0.09066325,-0.00645276,0.02451149,-0.39608283,0.42253576,0.1484917,0.02272699,-0.06427257,0.04073974,-0.31134914,0.06942121,0.05265469,-0.02915488,0.027723
aZVcAlzBIp4,0.01602303,0.01425313,0.01255995,0.00692792,-0.01057739,0.03670501,-0.01670685,0.01187961,-0.00251911,0.00010076,0.00498316,0.00351727,-0.0015419,-0.01051938,-0.01061425,0.02811052,0.01250718,0.02241829,-0.00096956,-0.00640482
fpmYvXCzO1c,0.00948431,0.00708787,0.03166504,0.01156738,-0.01127013,0.17103579,-0.07279589,0.03263411,-0.00421101,0.032098,-0.02636349,-0.02636354,-0.005503,0.02301432,-0.01482581,-0.0362214,0.01308715,-0.06644066,0.06322458,0.13389852
tVpky2riji0,0.06707583,0.02950064,0.14878136,0.00455055,-0.07001493,-0.00838363,0.02580729,-0.09646883,0.01787231,0.08095023,0.06979497,-0.05478859,-0.07603672,0.06922882,0.21311741,0.02900963,0.03548503,0.06380691,-0.02387795,0.04154095
K9S3YgFZN9Y,0.00784145,0.00263047,0.02695418,0.00847159,-0.01657779,0.07267106,-0.02903207,0.00496546,-0.01478058,0.01836246,0.00960513,-0.0038658,0.00300034,-0.09520679,-0.03707417,-0.00892806,0.21615001,0.03568635,-0.00082959,-0.03241153
Hk20QLW6nEc,0.07166467,0.05283558,0.12383387,0.04438276,-0.0846114,0.00032373,0.02451306,-0.09880507,-0.01122948,0.06170979,0.03640558,-0.02124674,-0.02579738,0.01869733,0.12830927,0.01970049,0.04879633,0.06146999,-0.00172439,-0.04663021
pcAJLeGAtwc,0.01379668,0.00103979,0.02935857,0.00611487,-0.01106508,0.06736065,-0.02572352,0.0011879,-0.00767332,0.02396177,-0.02439341,-0.00711329,0.00937694,-0.01260994,0.01601268,0.01423182,0.00239957,0.00020609,0.01659698,-0.02465202
jytAQWCc_TI,0.05606307,0.05736344,0.03250982,0.01038398,0.00427005,0.33896465,-0.14199254,0.11260093,0.03431963,0.04075878,0.03010567,0.01200792,-0.0088331,-0.01074065,-0.00803496,-0.0349945,-0.09650596,0.01996297,0.02707816,-0.04297209
3era1_feC3U,0.00806371,0.00251107,0.02212127,0.00777251,-0.01556783,0.01454179,-0.00385756,-0.00558991,-0.0067831,-0.00624057,-0.00672488,-0.00440847,0.00766208,-0.00440639,-0.00700972,0.00914067,0.01616101,-0.00620643,0.0016773,-0.00165488
zxQJIBt9CBI,0.07148899,0.03948488,0.10121553,0.02922898,-0.08234813,0.00908415,-0.0067456,-0.01528504,-0.01781945,-0.04025721,-0.05303228,-0.04019317,0.03977192,0.08973686,-0.01061629,-0.03480835,0.0293372,-0.04406392,-0.01920811,0.01686141
9rHaUzPlJws,0.03303445,0.02046599,0.12928347,-0.04695272,-0.00121058,-0.01305356,-0.01548319,-0.07279911,0.00295916,0.00389284,0.0293612,-0.0150121,-0.03583003,-0.06747116,-0.06002107,0.02307442,0.02210944,0.026899,0.11347311,-0.02737338
48hHo2WcAQI,0.04312961,0.03920836,0.08557174,0.02510003,-0.05355069,0.04787664,0.05078555,-0.11102383,0.00610209,-0.09716971,-0.07920962,-0.08878313,-0.01705497,-0.00169032,0.20801393,0.05963685,0.12508172,-0.08344956,0.05864179,0.10892831
Qy_YMLKX8bQ,0.70256974,-0.45062535,-0.12794203,-0.03445562,0.07566959,0.04348969,0.04026547,-0.06908555,-0.41103054,0.00158023,0.04800252,-0.14785991,0.0354318,0.0370994,-0.07622048,0.01347192,-0.05811716,-0.04249224,-0.04836955,-0.04044905
QUBjCcBXy3o,0.01915557,0.01296797,0.11530086,-0.05490581,0.05901234,0.06569839,0.05291831,0.04768502,0.01653972,0.01466786,-0.01769985,-0.02524111,0.10982879,0.02675439,-0.03037349,-0.02052173,-0.0517558,0.08993181,-0.1123052,0.04327185
9VyCOVdFpL8,0.00833772,0.00444044,0.03494135,0.0131733,-0.01132651,0.22045783,-0.09163769,0.04810387,-0.00416362,-0.02325861,0.04325551,0.02122409,0.0093802,0.02714928,-0.02301312,0.10342296,-0.05557055,-0.0821894,0.02727149,0.05691035
oqoBSeL5GIU,0.01257161,0.00561687,0.04480281,-0.00382438,-0.00692904,0.17438776,-0.05845743,0.0417439,0.00110953,0.05838242,-0.05800789,-0.04434852,-0.00808996,-0.03254978,0.02297727,-0.10181384,0.18676251,0.03954822,-0.01959318,-0.02333485
YhNUPGphSM8,0.06032379,0.06776686,0.07582877,0.01624419,-0.04809857,0.03646897,0.02787105,-0.09333057,-0.00371958,-0.04453875,-0.0536715,-0.06329749,-0.02971235,0.07925696,0.1656999,0.01477088,0.0090794,0.0551574,-0.01781485,-0.05582737
RWGr8LwG3TY,0.11269599,0.05433559,0.12927321,0.0353712,-0.08750486,0.03032074,0.06997571,-0.18201638,0.03602517,-0.04917221,-0.09900369,-0.07331002,-0.06036474,-0.00346089,0.13298491,0.07865762,-0.0510824,0.09934701,-0.03852318,0.02719791
yIUDe9YH0ac,0.01416993,0.01005263,0.03750585,0.00896329,-0.01730235,0.06434476,-0.01787571,-0.00707494,0.00085664,0.00814607,-0.01369023,-0.01463469,0.01106262,0.00274103,0.00211257,-0.00101112,0.01855232,-0.03818474,0.01353015,0.01278257
rJgtb2s7Oz8,0.06919318,0.05649376,0.12255781,0.0141397,-0.04890648,0.04911838,0.02571884,-0.1537492,0.00117363,-0.00958311,-0.02502417,-0.00918471,-0.04316321,0.00560617,-0.06306932,-0.03276829,-0.1354428,-0.05058743,0.057884,0.24023893
3Ip-TJvpjLQ,0.07994313,0.05042307,0.10234418,0.02905747,-0.08889371,0.04492749,0.03921239,-0.14609396,0.03443207,-0.05901353,-0.0838543,-0.15820749,0.03095962,0.19870881,0.04282776,-0.0467277,-0.07998212,-0.08477451,0.01684823,0.02425797
dhbt8y_LXQY,0.02762715,0.02012952,0.03851338,0.01505138,-0.0219461,0.12943792,-0.05351483,0.03652506,-0.00422555,0.01224902,0.00592382,0.01080039,-0.01633141,0.01727143,-0.04471709,0.09839556,0.05233244,-0.00030787,0.00029497,-0.02586463
z_XHk-DZ1nY,0.02334152,-0.00090225,0.05244404,0.00986218,-0.02866012,0.00845318,0.01293104,0.0302264,-0.03385238,0.014777,-0.01660144,0.06219686,-0.01428294,-0.02505972,0.04833942,0.00148448,-0.06295217,-0.05607857,0.02737077,0.02972323
nnUFM61waQU,0.06431825,0.01582437,0.15552135,0.04505769,-0.12673979,0.00223462,-0.01216266,-0.09044959,0.01201451,0.16916478,0.13329634,-0.01572571,-0.06011227,-0.36117798,-0.05646319,0.09157335,-0.05547645,0.06093445,-0.1162292,0.01262292
MpPS5I1pJD8,0.01834327,0.00892464,0.05619528,-0.00414831,-0.00491785,0.28251436,-0.12009809,0.08736051,-0.01160727,0.13408744,-0.11576164,-0.0293276,0.01803813,0.02200187,0.07174127,-0.1121608,-0.12948928,0.13000331,-0.04878437,-0.10616964
q8AEtTOo2ZU,0.25773198,-0.01359447,0.27802685,0.022613,-0.19728952,-0.14551143,-0.08360035,0.13637351,0.12354126,0.03720137,0.04648518,-0.04050047,0.06488892,0.11058739,-0.10304277,-0.01309104,0.01078301,-0.02001299,-0.03291154,0.03865856
QIKiQjEMUjY,0.03261167,0.00143451,0.1237967,0.31226294,0.26627709,-0.01540137,-0.04111633,0.00635975,0.00039304,0.0006476,-0.00828377,-0.00079316,0.01940637,-0.00726885,0.00149693,-0.02102332,0.01561056,0.00612164,0.00141308,0.00850147
-uUlnDjQxhg,0.01909605,0.01886508,0.03953312,0.01411193,0.00139517,0.26591792,-0.1121551,0.07081832,0.0105945,-0.01895259,0.0524398,0.01298376,0.00361567,-0.0048077,-0.01622791,0.06005137,-0.0746046,-0.01332588,0.05019133,0.01163408
98ShZgIhSbk,0.02354215,0.00649433,0.07013496,0.02960817,-0.02815111,0.22968665,-0.08865558,0.05015095,-0.00536535,0.09156232,-0.02478542,-0.02324195,-0.00825209,-0.05557939,0.03733304,-0.2564107,0.12675479,-0.00581677,-0.03607615,0.02047137
mDh52QTqR0o,0.09279739,0.04668945,0.13997048,0.00744339,-0.05954852,0.05108308,0.06135496,-0.14538894,0.02798032,-0.0670379,-0.04430922,-0.05578484,-0.01828244,-0.03735838,0.14337181,0.01477594,-0.0049314,-0.06165945,-0.03173006,0.07444313
aRLwX_dN8AQ,0.00725325,0.00414775,0.03494377,0.01208967,-0.01245208,0.22391032,-0.09425963,0.05062595,-0.00416933,0.04005633,-0.0506804,-0.01288717,-0.03775385,0.07222252,-0.12183649,0.25014062,0.32837011,-0.13378172,-0.03731191,0.04033982
S0WQP5GeTZs,0.01500089,0.00196678,0.04040578,0.0137543,-0.01980409,0.16288601,-0.05963669,0.02462681,-0.00298883,-0.02262987,0.0484951,0.03107144,0.00415476,0.0022507,-0.0209704,0.10011549,-0.04430959,-0.03404714,0.0444137,-0.00984195
SZ8r5VKtGes,0.08771552,0.06957636,0.10242311,0.02489043,-0.06222361,0.05416801,0.06071033,-0.13772029,0.02500121,-0.09171064,-0.08021302,-0.12434888,-0.01866304,0.06540011,0.19002873,0.03432366,0.08110724,-0.09381967,0.04610494,0.04390331
UUzxEVhRQgQ,0.03249428,0.03629522,0.03034506,0.01985789,-0.01266939,0.00358052,-0.00226847,-0.01731918,-0.00647568,-0.01302998,-0.02433064,-0.01606972,0.02092012,-0.00592884,0.02265025,1.413e-05,-0.00640211,-0.0225222,0.00536746,0.00046172
8fIRAhGGRgA,0.02005063,0.01247994,0.06022927,0.01080367,-0.00887702,0.3357955,-0.13427484,0.08043685,-0.00197869,0.0125052,0.02910049,0.02348825,0.01039539,0.00985185,0.03631676,0.00197085,-0.15840965,-0.01101577,0.01791237,-0.00451966
Jnc7hVslXdk,0.09173226,0.06406435,0.07550114,0.02188825,-0.05410844,0.10809306,0.01608214,-0.12235229,0.05717659,-0.07431866,-0.03696192,-0.10802998,0.0204078,0.17016148,-0.00101959,0.0703891,-0.0264319,-0.08212698,-0.00905931,-0.03505399
MqpQhyjFZQU,0.04748173,-0.02806319,0.0065322,0.00763565,0.00321707,0.02400129,-0.00213112,-0.00656467,0.0064797,0.01160672,-0.0139201,0.01718903,-0.00125295,-0.01849917,0.01673409,0.0115155,-0.01913537,0.00874218,0.00595705,-0.00984078
IldLswg2yAM,0.10566119,-0.01492123,0.05318914,0.01021433,-0.03015718,0.04516441,0.01376001,-0.06748982,0.02972288,-0.00611516,-0.0300127,0.04527715,0.00698591,-0.09705567,-0.04315035,0.00295241,-0.01346011,0.01525448,0.01133628,-0.00433662
WwEyLRmGU9g,0.04080715,0.02262509,0.13740462,-0.03914464,-0.02361256,0.00373307,-0.00285926,-0.09088442,0.00744193,-0.01289877,0.01471114,-0.02411494,-0.03242783,0.00450278,-0.01526137,-0.00796935,0.03596903,0.01626527,0.10571941,-0.03588928
enQeP-ztP5A,0.07724968,0.0382262,0.05871963,0.00030074,-0.006157,0.02167611,0.01331723,-0.05103624,0.00996223,0.00638504,-0.00222558,0.00784082,0.0047206,-0.02122237,0.01039178,-0.00800091,0.00070077,-0.04731121,-0.01126487,-0.02942024
4iXwPD-VHyg,0.05184244,-0.02174342,0.02250032,0.00871135,0.02398984,0.15457309,-0.05746773,0.01817281,0.02547271,0.03327194,-0.01234341,-0.01970393,-0.01424317,-0.04532895,0.02267148,-0.10973744,0.04962333,-0.02240646,-0.00231591,0.01138838
1pglkwgsu1I,0.07121548,0.05564655,0.12305026,0.04224284,-0.09295823,0.02915094,0.04854978,-0.12202993,-0.03449502,0.00977105,-0.1045367,0.1804633,-0.06138271,0.02335351,-0.09001581,-0.04506791,-0.02194938,0.02461139,-0.13295092,-0.11355735
OwbaFLtBpkQ,0.01447173,0.00777107,0.04960691,0.0113503,-0.02049435,0.13248633,-0.04878391,0.00807791,-0.01309676,0.01667829,0.00110904,-0.00957963,0.0007272,-0.08869845,-0.03777837,0.00557811,0.25103829,0.02585231,-0.01540568,-0.02138375
Ycdklm6W1_o,0.01611255,0.00575241,0.03459348,0.00992491,-0.01286124,0.1739769,-0.07924791,0.03915055,0.00114089,-0.00342459,0.00981198,0.01146983,-0.02387337,-0.06685542,0.00769728,-0.08007597,-0.02001837,-0.03892208,0.02435946,0.04780318
eCw33snvoNI,0.01875146,0.00759564,0.03625437,0.01123691,-0.01232627,0.12189949,-0.05067303,0.01684539,0.00442577,-0.00820906,0.00482497,0.01141713,-0.00884866,-0.02359157,-0.01437837,0.01257727,-0.0312181,-0.00540702,0.02865496,0.02034627
GlgzzZEePXo,0.09551691,0.03696905,0.18590222,0.02740297,-0.0905331,-0.01350605,0.01599729,-0.12741226,0.01007534,0.06368755,0.07593728,-0.09018345,0.01376018,0.05166549,-0.0754205,0.00206749,0.05309386,0.01608242,0.08524754,0.04681491
5W2lIWDyXjI,0.0102406,0.00408331,0.03479922,0.00448483,-0.0124595,0.06529225,-0.01529473,0.00694877,-0.00344407,0.01610579,-0.01322228,0.00884458,-0.00993301,0.00269001,-0.00474779,-0.00667995,-0.04369342,-0.00916249,0.00328796,-0.01727494
iRach9lpIlg,0.01582365,-0.00439693,0.02099849,-0.00067656,-0.00820712,0.00646448,-0.00426665,0.00594096,-0.00956489,-0.00239647,-0.00666137,0.01436018,-0.00467796,0.00285773,0.00046599,4.698e-05,-0.01105177,0.00866524,-0.01381734,0.00407135
0HSNPIttevk,0.03691214,0.00953867,0.0725607,0.02696451,0.01430325,0.304526,-0.13273418,0.07460333,-0.00243702,0.0893618,-0.10773546,-0.05960123,-0.01127493,-0.06734878,0.04179343,-0.2105379,0.19432146,0.01363418,-0.03777839,0.01076912
6r-qlEX6hGY,0.01089418,0.00284847,0.03266663,0.00442532,-0.01430296,0.07181081,-0.02357334,-0.00151829,-0.00225276,0.00706686,-0.02225253,-0.02028689,-0.00051071,-0.0231673,0.02719945,-0.03459088,0.04167145,-0.02165494,-0.00681018,-0.00621199
g-7nUex4nVg,0.10614278,0.0978194,0.12716604,-0.01924548,-0.03509768,0.01662895,0.0323419,-0.15421908,0.031532,-0.02092458,-0.03524646,-0.08482987,-0.00963706,0.07242155,0.15641219,0.02373939,0.02672603,0.06610101,0.02119675,-0.07999717
D4fkiQfzw_I,0.00512714,0.00255803,0.02148773,0.0084865,-0.00890993,0.08689588,-0.0329289,0.00724047,-0.00041439,0.01189635,0.00114566,-0.00892805,0.00176573,-0.01176378,-0.01490135,0.09929508,0.058717,0.0123871,0.02512782,-0.0594681
iPg5fXvAqqo,1.07781266,-0.72781893,-0.26881159,-0.07454582,0.18815438,0.08922703,0.08860028,-0.14006915,-0.33018048,0.02959071,0.0577289,-0.1056433,0.01038873,0.00926399,-0.03846244,0.01118749,-0.02273737,-0.01363134,-0.03228986,-0.01256161
lk7HWLeXjS4,0.08680288,0.05130429,0.10929665,0.03175205,-0.03811436,0.03120803,0.03999302,-0.1176382,-0.0067885,-0.02201276,-0.07208147,0.06550749,-0.04423928,0.09759708,-0.01608564,-0.02504996,-0.00417546,-0.07148256,-0.052484,-0.04436098
qxj4Sr5Cm24,0.03996353,0.02097261,0.03743121,0.02596457,0.01451676,0.08583199,-0.04041322,0.01465864,-0.00246123,-0.01003441,-0.01830069,-0.00437217,-0.02388173,-0.0386068,0.01899861,-0.01159977,0.01896206,0.03144988,0.00264314,-0.00317161
iK6HT02LYX4,0.01124514,0.00789806,0.0362125,-0.00965165,-0.00158374,0.13308374,-0.05166137,0.0516969,-0.00233657,0.06919105,-0.06477796,-0.04231403,0.00196896,-0.00222181,0.0212416,-0.07348914,0.10857102,0.04777169,-0.03583246,-0.00702972
5tW7CPAVii0,0.01210348,0.0080746,0.04544003,0.0198232,-0.01176534,0.28068188,-0.12578542,0.06345529,-0.00380687,0.07058118,-0.08044355,-0.04792999,-0.00412055,-0.09584824,0.03831661,-0.34123899,0.07771738,-0.08170776,0.03461883,0.1556066
POn6IRgP5-A,0.11377804,0.02913542,0.074756,0.01591322,-0.04614215,0.03548394,0.03962051,-0.12111291,0.0581357,-0.03942596,-0.04296275,-0.07616429,0.02500663,0.09320727,0.01020282,-0.01583376,-0.00089371,-0.04583117,0.01073047,-0.03979575
rbSEOholMxI,0.08786136,0.04402921,0.13266323,0.01761966,-0.02813298,0.02153224,0.02285776,-0.09892218,0.01305201,-0.06977296,-0.05482124,-0.02626691,-0.02379019,0.01602807,-0.0134874,-0.00525265,0.01216029,0.01583423,0.00996765,-0.02163157
kmKuk_TCEvU,0.1188961,0.04693652,0.1374137,0.04418208,-0.10510204,0.0350649,0.05205388,-0.17682605,0.04661943,-0.01025922,-0.00338854,-0.0938459,-0.00579351,0.14896597,-0.03869682,-0.02001447,-0.01913968,-0.12281157,-0.03958096,-0.00599285
PDQ3laPc--4,0.68877553,-0.44722287,-0.1060627,-0.01738264,0.04549218,-0.01991401,-0.02513062,0.07742126,0.05307944,0.00073117,-0.00401984,0.08591033,-0.00459817,-0.0421542,0.0582561,-0.00159459,0.03305456,0.02438224,0.00537932,0.06305793
TfojYStTlZE,0.06548059,0.02281928,0.13123793,0.05186074,-0.10359114,-0.00879931,-0.02162159,-0.04830519,0.00134195,0.15814941,0.13157228,-0.00662695,0.00397613,-0.06512324,-0.0297355,-0.00787337,-0.00506043,-0.03494323,-0.00876358,-0.05620775
iTOXHp4c1YE,0.04374181,0.03271625,0.08189793,0.02947544,-0.05610951,0.00206894,0.00797286,-0.0541963,-0.03274728,0.03717854,-0.010515,0.11145012,-0.02157606,-0.02856681,-0.022369,-0.00953505,-0.01703422,-0.02123619,-0.06239181,-0.02508353
Q5rmW96IGqA,0.00660299,0.00776273,0.01144748,0.01094158,0.00210249,0.07808939,-0.03684577,0.0242986,-0.00225576,-0.02064397,0.01978824,0.00556447,-0.00150274,-0.01945274,-0.00939361,0.01457178,0.03136017,-0.00129949,0.01782382,0.00800454
daa-UCIuoY8,0.07886576,0.03355198,0.11261571,0.04908549,-0.06247138,0.00587474,0.03477994,-0.04623856,0.1477418,-0.07853054,-0.10910133,-0.02192928,-0.00802994,-0.04535767,-0.01438828,0.02996159,-0.02392545,-0.04754158,-0.04854942,-0.08141716
iR6FvFoW0F4,0.06745338,0.0479523,0.24885741,0.63844873,0.5530616,-0.0622791,-0.05844485,0.03521878,-0.00619743,0.01087418,0.01112145,-0.01384976,0.00301689,0.0055083,0.0042628,0.00943847,-0.00387597,0.02901706,-0.00894092,-0.001722
EGTF9mGda4U,0.01804554,0.0013238,0.02178782,0.01248107,-0.01099002,0.0683174,-0.0292025,0.02105667,0.00309308,-0.0441858,0.04648301,0.02189215,0.00414613,0.02546677,-0.04714449,0.05715433,0.02942178,-0.01756561,0.00619387,0.02110142
MWrMtRjLhjk,0.05775411,0.00526677,0.09534213,0.03273436,-0.07786878,-0.02284509,-0.0282969,-0.05948176,0.01617972,0.14501502,0.1409015,-0.01935036,0.00617206,-0.03643843,0.01997006,-0.01844629,0.01549433,-0.01264099,0.05489238,-0.00758071
oNjLzGpMCuw,0.0641314,0.02987118,0.07941562,-0.01538089,-0.0213945,0.01151107,0.00803378,-0.07767395,0.01294086,-0.03171371,-0.02050626,-0.03856066,0.01080259,0.06318085,0.03262097,-0.01254284,0.01969523,-0.02911674,0.02656101,-0.005472
Cit2bKRejmc,0.17562219,-0.03005404,0.13326665,0.04272033,-0.16400688,-0.08982077,-0.10183169,0.13536525,-0.04069178,-0.11088181,-0.0683313,-0.1041715,0.05135206,-0.0039615,-0.02628057,0.0137049,-0.02218522,0.01680881,-0.02370844,-0.04148744
dZftIemBYVE,0.08010184,0.02578747,0.13052013,0.03899085,-0.09101645,0.02378069,0.00564999,-0.09292381,0.01003482,0.0855423,0.04864468,-0.03297645,-0.02688907,-0.05452616,0.11255522,0.04730525,0.04737484,0.05641996,-0.02921132,-0.06418896
uSjcVPbJayU,0.09857373,0.01150811,0.12630974,0.04260258,-0.07399816,0.02880807,0.08290999,-0.17398616,-0.02285993,0.04738562,-0.08568847,0.20923082,0.2549865,0.01192661,0.07882838,0.02446126,0.04918927,0.08831437,0.07512643,0.04136451
0Z1lChyi2W4,0.01200707,0.00249665,0.0387647,0.01442611,-0.01158269,0.16763498,-0.06608851,0.03350299,-0.00958256,0.05052959,-0.02634654,-0.01831997,-9.085e-05,-0.06592124,0.01600587,-0.12414616,0.17034631,0.01531262,-0.01882695,-0.02639262
YPboGQjMxNY,0.01195723,0.01481729,0.00926584,0.00521179,-0.00665249,0.01476862,-0.00321554,-0.00536712,-0.00562192,-0.01481927,-0.01070001,0.00261736,0.01341491,-0.00013608,-0.00406465,0.01297775,0.02256088,0.00259435,0.00683381,0.01461659
aQi987cz1nk,0.08119947,0.06892326,0.04395405,0.02041772,-0.04269667,0.02099358,0.02347483,-0.04463894,-0.02582677,-0.00878913,-0.04720016,0.05169925,-0.02571038,0.04591946,-0.04549112,-0.0122706,-0.0151776,0.04655363,-0.02488,-0.03381238
gZ3EniqK8Qc,0.17774907,-0.05808943,0.17851906,0.05450756,-0.1866289,-0.09305966,-0.06527776,0.17973275,-0.07164651,-0.03916844,-0.02150692,0.01489827,-0.00207259,-0.13711625,-0.01795103,-0.00959142,-0.14186072,-0.09136894,0.00922594,-0.08902957
RnT_izvRznQ,0.10621777,0.044001,0.18835259,0.05914421,-0.14715635,-0.00565834,0.02844562,-0.04020607,-0.00588256,0.13479097,0.16941517,-0.11772275,-0.07402883,-0.08855241,-0.06418735,-0.0575853,0.11262317,0.16375428,0.05022718,-0.00584206
Gl_2LVRaM8U,0.03012425,0.02512828,0.06890307,-0.01305875,-0.0127813,0.04295929,0.01158753,-0.05616601,0.01589951,0.00663191,-0.025912,-0.00773863,-0.00474779,-0.09374149,-0.05310328,0.08787147,-0.01334528,0.0340371,-0.06304712,0.04055891
q4PUKnyy3QQ,0.2840773,-0.05574884,0.18293858,0.06791254,-0.21826596,-0.13884689,-0.12346904,0.21772608,-0.14187314,-0.08332962,-0.10546975,0.18779484,0.02227435,0.02186651,-0.07313218,-0.05314088,-0.02695685,-0.03485084,-0.12584352,-0.05264963
DSRfs1qKWR0,0.00183442,0.0005603,0.00681674,0.00244675,-0.00439574,0.03363683,-0.01612246,0.00694599,-0.002908,0.00160171,0.00547071,0.00526208,0.00229019,0.0088696,-0.013787,0.03553432,-0.00479601,-0.00475493,0.01788612,0.00628501
ZrvvBKldeo0,0.05890426,0.02606709,0.1765276,0.0123819,-0.07616608,-0.00231303,0.03315455,-0.12806277,-0.09294906,0.08059794,-0.0873496,0.3679846,-0.15628092,0.11483895,-0.19533729,-0.05380892,0.03105622,0.08641025,-0.08783905,-0.04882996
kTlm_3HwRFg,0.01557314,0.00048377,0.03458707,0.01501135,-0.01431518,0.09672756,-0.04216803,0.0081411,-0.00153889,-0.00709001,0.01189947,-0.0048458,0.016611,-0.02985843,-0.00046649,-0.01599093,0.03143263,0.01060285,-0.00560306,-0.03253239
Y9HJ_U3TdXk,0.01190765,0.00322828,0.03883309,-0.0002746,-0.00967407,0.14244194,-0.0460996,0.03228638,-0.00502797,0.04240337,-0.02738768,-0.00982886,-0.00469339,0.00969328,-0.0005508,0.00712751,0.03432526,0.03591579,-0.01387939,-0.0221353
dqOmDZPkIF4,0.10479511,0.0548718,0.19007873,0.0058231,-0.07510349,0.01163456,0.02193885,-0.18805397,0.08091355,-0.19946186,-0.09662238,-0.31821384,-0.09602619,-0.14179461,-0.41799638,-0.04067141,-0.08608181,0.25324206,0.36263399,-0.20297988
UgfrzicHc80,0.02947853,0.01479329,0.13389103,0.24952758,0.17287935,-0.00728977,-0.03198764,-0.01313147,-0.00930527,-0.0278589,-0.02520127,0.00450063,0.0113103,-0.038611,-0.02573036,0.02029503,-0.00375497,-0.03883025,-0.00278221,-0.0134895
Cp3DxMyEBIM,0.06060822,0.01063954,0.17576247,0.01668902,-0.10203667,-0.00884794,-0.00787221,-0.1497242,-0.07951244,0.12097566,-0.01225158,0.34258541,0.18932635,0.02425048,-0.14841154,-0.04173511,0.02770422,0.15112485,0.09017796,-0.04708924
nVHr2D6tnA4,0.09559423,0.01484276,0.12260953,0.04010549,-0.11465624,-0.03534764,-0.02557521,-0.05016733,0.23906151,0.1745025,0.14731138,0.02180647,-0.01903308,-0.03427843,-0.0400687,-0.00370721,-0.01859132,-0.06773964,-0.01307589,-0.00228364
VjqsnOrW3AM,0.0217874,0.00470926,0.03682368,0.01449046,-0.00688806,0.21720422,-0.09219398,0.04895651,-0.00670238,-0.01340041,0.01605306,0.01913644,-0.00048073,-0.11907476,-0.0091105,-0.04783058,0.06660567,0.01050601,0.01406436,-0.02084831
_jxLMMcKmRQ,0.10620562,0.04428061,0.09001314,0.01948533,-0.05594438,0.02856599,0.05690794,-0.17890175,0.02059101,-0.03839732,-0.04388941,-0.11180788,-0.02490491,0.12720072,0.16588248,0.02630095,0.02240981,0.07146184,0.01571753,-0.03124422
XXZ2wOom1l0,0.07394093,0.06418665,0.15895785,-0.10645275,0.05541376,0.01251729,-0.00294741,-0.1022002,-0.00987914,-0.06143282,-0.058749,-0.00140204,-0.08909767,-0.00361446,-0.06623121,-0.01515081,-0.10983552,0.01177565,0.11117237,0.1815631
-pNi4dh7VFo,0.06279455,0.03991541,0.07134491,0.01237866,-0.04284261,0.02954361,0.01646518,-0.09181427,0.01968231,0.00106181,-0.02135896,-0.0616113,-0.00641805,0.07527271,-0.00847798,-0.02370004,0.01184373,-0.02500799,-0.04465212,-0.03115685
FBq_mtNPweg,0.10114168,0.00195016,0.25064892,0.6274448,0.53125625,-0.06125935,-0.03717656,0.00438767,0.01209056,0.05931857,0.03386129,0.02037307,-0.01928887,0.06232072,0.00872264,0.01397874,0.00086778,0.03440994,-0.05736055,0.07792188
rVixyOY_Xr4,0.06880472,0.03418729,0.09544369,0.00136064,-0.03347794,0.01499553,0.02280577,-0.04230862,0.0726391,0.00885151,-0.01692783,0.03914647,-0.03388464,-0.19785048,-0.05935945,0.0316743,0.02797989,-0.00236131,-0.08474523,0.00702294
Bcag49Fk3zA,0.01717518,0.0104398,0.0538047,0.02241753,-0.02875386,0.20868314,-0.05152057,-0.03983948,0.01738789,-0.47751402,0.47537892,0.1881172,0.04064393,-0.06810091,0.02855689,-0.20117155,0.13281578,0.09451167,-0.06172111,-0.02724861
T7_l896OH20,0.07322396,-0.02044108,0.05781851,0.02934096,-0.03186981,0.00900849,-0.00202567,-0.00479002,-0.00433451,0.00353262,-0.02146509,0.02807284,-0.00093801,-0.02907103,-0.00529421,-0.01676653,-0.02983855,-0.05062283,-0.03747734,-0.05520209
FZbMPtLRr00,0.00499076,0.00357687,0.02723518,1.836e-05,0.01096981,0.10842003,-0.04287297,0.03813657,0.00160172,0.05755194,-0.06026783,-0.02796318,-0.00562078,0.0067811,0.020132,-0.05754185,0.10545939,0.04252602,-0.03239705,-0.01320807
tFD4653hJYE,0.72303753,1.15237467,-0.33934683,-0.01925015,0.07915426,-0.00805093,-0.01538527,0.05875014,-0.00708024,0.01605779,0.01460447,0.02186274,0.00892705,0.01147388,-0.01722916,-0.01966869,-0.00432401,-0.01066458,0.02873793,-0.00518346
JbjnuF8OiZc,0.06184963,0.05632028,0.10666111,0.03189278,-0.07830174,0.03986655,0.04043478,-0.12977338,-0.00091328,-0.06647222,-0.07004489,-0.05351982,-0.02325995,0.0786343,0.04540148,0.05155478,-0.0292255,-0.04051034,-0.07315802,0.0482966
9oVPXnEkegY,0.08627974,0.03325296,0.08885849,0.01563724,-0.03744439,0.03871316,0.0250933,-0.064657,0.02453064,-0.02106975,0.01028795,-0.046976,-0.03158444,0.02468266,-0.0038799,-0.00574857,-0.0279833,-0.06212671,-0.05839964,-0.00853978
ByJAH8vTgfw,0.05768578,0.0313209,0.14605542,0.02480058,-0.09358893,-0.02910485,0.00413912,-0.09076953,-0.00526242,0.09466989,0.10487356,-0.04660623,-0.10142835,0.01096815,0.28746409,0.04338787,0.08662013,0.16578665,0.05052389,0.03582112
TekYNY3eGC0,0.03375763,0.02595899,0.05951965,-0.00742554,-0.00123067,0.01924727,0.0117099,-0.01717211,0.0037093,-0.01341754,-0.01530358,-0.00643683,-0.00274878,-0.04344412,0.01306673,-0.0034665,0.00360325,-0.04517203,-0.00401484,0.0214807
rn0fCmYeDaI,0.17846875,-0.06206648,0.10665816,0.03670555,-0.13619517,-0.09537932,-0.0836194,0.19010411,-0.11093007,-0.09857301,-0.05706714,-0.04565634,0.09203443,-0.01072639,-0.05826711,0.02539282,0.02632294,0.00443047,-0.02084122,0.01721378
F1gM7N-WXdU,0.02234866,0.01463006,0.05479823,0.04708828,0.0140427,0.07450364,-0.03227027,-0.00940401,0.0011332,-0.01238198,0.00081014,-0.00433266,-0.03193379,-0.01612722,-0.00059592,0.02498679,0.04488764,-0.01849831,-0.01103255,-0.00055769
ZAmCJoz4c4w,0.01409729,0.00279756,0.03964939,0.01314896,-0.02096826,0.14555582,-0.05659372,0.03329183,-0.00154039,0.0151898,-0.02657348,-0.00634406,-0.02501364,0.04676483,-0.12344466,0.22691217,0.26330118,-0.10659974,-0.08415391,0.03818998
yk8ziJow5dw,0.01298487,0.00398483,0.05246992,0.00744065,-0.00515273,0.23540703,-0.09922256,0.06267618,-0.00622224,0.06574665,-0.0465373,-0.04343552,-0.00600717,-0.08872788,0.03013288,-0.21675143,0.2883808,0.01954986,-0.03107665,0.01212977
JRHTVNoJjb0,0.09123487,0.02067172,0.09794098,0.04782807,-0.077362,0.00486982,0.0107251,-0.05162808,-0.00181198,0.03962995,-0.00271678,0.00971961,-0.02643561,0.00974498,0.03975695,-0.00833316,-0.12356949,-0.14855768,0.05687141,-0.0280213
CPJhzRv9y_8,0.01161173,0.00581835,0.05128152,-0.00976126,-0.00563313,0.14414264,-0.05251744,0.0320325,-0.00780656,0.0620444,-0.04459915,-0.0165242,0.03461283,-0.02169723,0.02088622,-0.05778014,0.09700971,0.10292198,-0.04280984,-0.07216632
iaYdIU5n6vw,0.02608858,0.0095305,0.068432,0.01021253,-0.02980013,0.25287132,-0.10873389,0.07995001,-0.02417628,0.07668896,-0.07552704,-0.0109658,-0.01434527,-0.00298918,0.02491072,-0.02945986,0.04032571,-0.05702763,0.05788264,0.08134852
yy_J5fdELm0,0.00855992,0.00258723,0.03012331,0.01211628,-0.01107733,0.11355452,-0.02814239,0.01802357,0.01860392,-0.01842022,-0.03877761,-0.0473485,-0.00601932,0.02031724,0.00416699,-0.0898957,-0.14510236,0.10639806,0.03784602,0.13931506
wJOakc64crg,0.03944152,0.01455277,0.07934965,0.03633814,-0.03698556,0.0243219,0.02032985,-0.06822063,-0.00042113,-0.06079403,-0.05977178,-0.0303095,-0.03692501,-0.07380857,0.08770774,0.06454131,0.06604738,-0.10274892,0.0111422,0.10989618
NDF3VSFbxAU,0.02967927,0.0256308,0.05008341,0.01089221,-0.03581111,0.0307947,0.0251268,-0.10510627,0.00482223,-0.02988028,-0.02292163,-0.00446977,-0.07007866,0.00063851,-0.15379095,-0.05550664,-0.1886554,0.04867764,0.18851936,0.40214661
kf9ghd5-VII,0.08444611,0.07908305,0.14506965,0.00562519,-0.06901179,0.02101672,0.0102224,-0.06319469,-0.0200366,-0.03054749,-0.01452335,0.00496129,-0.0485561,-0.10604489,0.07877161,0.05004573,0.03352041,0.03298371,-0.03699542,-0.01484245
wdCDxH9KBss,0.1128674,0.06831432,0.16778867,0.05574509,-0.09846742,0.02379962,0.06899086,-0.22288186,0.00276678,-0.03595906,-0.0967497,0.02628065,-0.10360404,0.08193784,0.03614002,-0.00096821,0.00527275,0.0108577,-0.00044544,-0.03122078
J7ieKmP96Hc,0.01389926,0.00549706,0.03895439,0.00777652,-0.0089606,0.26127294,-0.11026543,0.06513298,-0.00220875,-0.0812144,0.12479024,0.06326474,0.00652493,0.07028128,-0.04237158,0.22633627,-0.1380775,-0.03415849,0.05686408,0.03588639
sXV44nHGfAA,0.02911428,0.00921838,0.04684134,0.0096955,0.03144333,0.2145308,-0.09201896,0.07766191,-0.00334642,0.10960037,-0.11331407,-0.03076207,-0.01703544,0.01907713,0.06134038,-0.1015366,-0.09491118,0.10002761,-0.0273569,-0.05343777
0VjrLsr61pk,0.07046466,0.07546658,0.10119888,0.01090062,-0.05885085,0.0347188,0.03510864,-0.11493934,-0.00423224,-0.07072327,-0.04410759,-0.08231572,-0.04707022,0.07907781,0.20269694,0.02339612,0.0656111,0.07698812,-0.02678569,0.0156779
Cql6TAdpPDU,0.20020122,0.31660813,-0.00211151,-0.06841371,0.06554676,0.01452409,-0.00272008,-0.02178833,-0.00904647,-0.02780475,-0.05637867,0.01159547,-0.02459643,0.02698982,0.00813616,0.00125323,-0.03557134,-0.06395801,0.08225369,0.0614302
TRVnxUYQAmI,0.05800656,0.04011509,0.09686869,0.02704569,-0.05440786,0.03860789,0.0670577,-0.06983554,-0.00076241,-0.06646117,-0.04645036,-0.0898365,-0.02444876,0.01642979,0.12769932,0.01622297,0.03326868,0.01434219,-0.02322833,-0.01088485
Rvy2kXZpBtM,0.08919479,0.07341801,0.08637867,0.03100805,-0.0628457,0.03747574,0.05973377,-0.14463625,0.04921026,-0.06855655,-0.05256905,-0.10143009,0.0466538,0.12998239,0.03536604,-0.02831815,-0.05027587,-0.09538309,-0.0638991,-0.0889092
0DB_Qj43O6Q,0.01689031,0.00456947,0.03792798,0.01908355,-0.02271786,0.05712579,-0.02232859,0.02248503,-0.01884503,0.00553984,-0.01125438,0.05524634,-0.00627188,-0.02164017,0.03586688,0.03262488,-0.0227489,-0.04780272,0.02762264,-0.00299931
1d3wR5LJ4-4,0.04057327,0.01354343,0.10643049,0.03732525,-0.07418423,0.04043635,0.05503222,-0.15873797,-0.09774933,0.03208215,-0.19362282,0.44234522,-0.16483252,0.20623671,-0.19916607,-0.15827015,0.03058335,0.00417347,-0.10461045,-0.00777169
f9AFrDB-73g,0.10817931,-0.01440403,0.12905618,0.03704981,-0.11213309,-0.03986362,-0.04485055,-0.05207676,0.273397,0.17569645,0.11955537,0.05930059,-0.08618083,-0.09382879,0.23162488,0.06191787,-0.00632037,0.05249681,0.05739325,-0.08527367
v2SVwN2WLHA,0.21136028,-0.01331715,0.24707875,0.04032524,-0.20130182,-0.15459258,-0.15067994,0.11468974,-0.05655851,0.07028266,0.13196728,-0.06942266,0.02131648,0.00722674,-0.16221208,-0.05085005,0.10969983,0.00623308,0.18431325,-0.08088496
_9bYQ2tvc_s,0.0802246,0.0050937,0.08997355,0.02908063,-0.07716102,0.01781432,-0.02135158,-0.0783141,0.0327955,0.1291531,0.1378987,-0.01625108,-0.00879124,0.05416724,-0.00329202,-0.01014382,-0.0388896,-0.04097487,0.03339295,-0.08110126
wEb6ULf3TzU,0.01281138,0.00798439,0.02708542,0.00446598,-0.01053437,0.09918709,-0.04208258,0.01577148,-0.00223638,0.0372317,-0.01602939,-0.01171072,0.01125414,-0.02017987,0.01920839,-0.06160517,-0.02499644,-0.01299188,0.00861215,0.01176248
DYhg0nWZ1UQ,0.10361034,0.04586368,0.11390944,0.02908053,-0.0866611,0.07702419,0.05015068,-0.15446044,0.09043688,-0.18102422,0.13436029,-0.05352272,-0.0095097,0.10357277,0.02089268,-0.062934,-0.03158763,-0.0872407,-0.07226719,-0.0722425
-uSQcEfnKp0,0.01020811,0.00164049,0.02530685,0.00793678,-0.01189522,0.07544294,-0.02222239,0.00411656,0.00263315,-0.001426,-0.00553606,0.00349424,0.00888389,-0.00257708,-0.01559118,0.01134308,0.00407181,0.01242309,0.01132606,-0.02525396
ehizptRtYzM,0.05682156,0.05587917,0.08816003,0.00137206,-0.03453334,0.01722057,0.01073404,-0.05252663,-0.004085,-0.0201244,-0.03517441,-0.00982648,0.01718546,-0.01275879,0.02009296,-0.00176555,0.02361698,-0.05230112,-0.04997914,-0.0427338
6WqWhSmCbXk,0.10063686,0.03556164,0.1863769,-0.0107154,-0.07844983,0.01232559,0.01678232,-0.11763205,0.12888358,-0.07422251,-0.06064207,-0.11918905,-0.0320751,-0.21993212,-0.20963311,0.02434153,-0.04253394,0.10617994,0.02704785,-0.03464742
x2r3FTy9HHE,0.01932699,0.00947541,0.04033811,0.00885794,-0.01535848,0.18511611,-0.07321123,0.02555888,-0.00506616,0.01375995,0.04606079,0.02303139,-0.0145919,0.03715849,-0.02952379,0.22887321,-0.05564604,-0.02410162,0.08256947,-0.09104234
mbGPgjXCx24,0.08856072,0.01051836,0.11950421,0.04953861,-0.07130765,0.02499014,0.00734842,-0.1232315,0.02130151,0.04181941,0.04437067,-0.04600439,-0.02815304,0.01174513,0.07988729,-0.02132001,0.03592714,-0.01825279,0.06069853,0.00041626
ftk4VdOcaj8,0.11036369,0.06419591,0.19904626,0.04005035,-0.13009011,-0.02760888,-0.01924999,-0.07297127,-0.00822097,0.23306223,0.18202148,0.04517236,0.02058287,-0.15547605,-0.00021907,0.04194523,-0.04180785,-0.05670636,-0.00956078,0.01685347
LMJb-_uL6lQ,0.00499559,0.00236806,0.01957424,0.01009286,-0.00464294,0.06820533,-0.02287986,-0.00551926,-0.00629935,0.01227605,-0.01665494,0.01332972,0.01807231,0.0077079,-0.00914402,0.01936255,-0.03454755,0.0140404,0.03678269,-0.02854123
q_ynGwBIxLk,0.72303753,1.15237467,-0.33934683,-0.01925015,0.07915426,-0.00805093,-0.01538527,0.05875014,-0.00708024,0.01605779,0.01460447,0.02186274,0.00892705,0.01147388,-0.01722916,-0.01966869,-0.00432401,-0.01066458,0.02873793,-0.00518346
hXPy19kPego,0.05016279,0.04304905,0.07975919,0.02083963,-0.05163934,0.01881559,0.0446464,-0.06815806,-0.00487313,-0.04231572,-0.02884342,-0.05913736,-0.03533051,0.04014737,0.12832919,0.02023596,0.04277248,0.06428082,0.01492811,-0.01679675
AXvou3mSGQA,0.04775651,0.02929531,0.07177206,0.01977478,-0.06243173,0.01039639,-0.00113832,-0.03487845,-0.05328307,0.03226314,-0.04296731,0.12060719,-0.03767071,0.03516464,-0.02345916,-0.0382381,-0.02784257,-0.0029917,0.05594189,0.06631569
AzNb2nQrM7U,0.02844282,0.01968508,0.0489097,0.01456424,-0.02942439,0.01577799,-0.01091312,-0.01607471,0.00655802,0.03532924,0.01803466,0.00375211,0.00988565,-0.05505779,-0.01307157,0.00835761,-0.00272403,-0.0524103,0.01232886,0.00250844
LkaaMQx9uZ0,0.06721442,0.0330851,0.17928523,0.00668416,-0.08958543,0.00323741,-0.00433441,-0.13640251,0.01931257,0.07068022,0.07200712,-0.10718254,-0.06202714,-0.10936165,0.08601165,0.01553565,0.06919509,0.16093289,0.09804524,-0.0603224
eYDQWSBQ47s,0.06824054,0.00331828,0.1145763,0.04312866,-0.05073944,0.02033335,0.03059322,-0.09648233,-0.00615092,-0.04230344,-0.057944,-0.01455509,-0.06721524,-0.04864471,0.08156046,0.04517642,0.02243749,0.01310662,0.06563842,0.04988573
UtXLbVdM7wk,0.13403519,0.00388243,0.15832593,0.06711247,-0.1096199,0.00638859,0.01685764,0.05695379,-0.01977506,-0.15299125,0.04276097,-0.06372412,0.06157014,0.00823082,-0.07490077,-0.07322388,0.05700197,0.01905292,-0.00714122,-0.03738672
WKBwkE4dn-k,0.00982866,0.00705317,0.03300377,0.01568683,-0.0072567,0.17566448,-0.07641614,0.0375632,-0.00020539,0.03803279,-0.04158629,-0.03319371,-0.00224212,0.00859162,0.01710096,-0.08489246,-0.00702524,-0.03137133,0.01128189,0.10842112
THMW7bXTog4,0.02630777,0.01024074,0.06412166,0.00963704,-0.01626051,0.03503226,0.00204425,-0.02594938,-0.04049246,-0.00992746,-0.05299302,0.08578186,-0.01948724,-0.00552008,0.00787852,0.00323404,0.02455451,0.00138082,-0.06526576,-0.027667
fr78adfAnuA,0.02060462,0.00742711,0.08261784,0.00170491,-0.01690827,0.3711892,-0.14513329,0.06722996,0.00475395,0.08571033,-0.09317187,-0.04440092,-0.04493294,0.0978429,-0.12168121,0.32410161,0.39735595,-0.07757479,-0.09712516,-0.04260854
zuzydZz-cmo,0.064826,0.05913252,0.10640124,0.14234605,0.0882539,-0.00102412,-0.00517497,-0.03763586,-0.02204615,-0.03670257,-0.02321883,-0.03038774,-0.06860976,-0.05482563,0.11290905,0.02909007,0.05901675,0.01156291,-0.01023663,-0.00920828
crrTHKN_R58,0.05875731,0.06002942,0.08693948,0.03500458,-0.04705951,0.02531707,0.03518995,-0.10455144,-0.04263661,0.0085703,-0.06061676,0.21874907,-0.05741634,0.05540935,-0.1179694,-0.06721299,0.02276469,-0.00109426,-0.07933891,-0.07973343
KXpgCNB6Dcs,0.07641003,0.05519715,0.08085061,-0.03426201,-0.00192459,0.0096363,0.0092097,-0.09421403,0.03885906,-0.02770953,-0.02210251,-0.07663356,0.01313602,0.11405065,0.00339851,-0.01753034,-0.0194939,-0.05220196,0.00424296,-0.03417295
B2ag364pRgQ,0.00966561,0.00108254,0.02401789,0.01022421,-0.00751722,0.08590229,-0.0296912,0.0042177,0.00257549,0.00383901,-0.00466122,0.00737581,0.00039142,-0.01463597,-0.01789752,0.02551587,0.02025497,0.03809024,0.00515603,-0.05002059
KKwxanUOAd4,0.05361819,0.02827314,0.12334047,-0.00666552,-0.04456866,-0.01034269,-0.01562249,-0.07321773,-0.02106639,0.07675102,0.02301055,0.07479807,-0.02903269,0.00108639,0.04110582,-0.02006451,0.01077675,0.01752689,-0.02216755,-0.04234373
q1l42BPzbIk,0.0214082,0.01356317,0.05404091,0.02103153,-0.02685267,0.00937325,-0.01019488,-0.0282548,-0.00550913,0.03883554,0.0280154,0.008857,0.0132289,-0.04021234,0.03998617,0.00809884,-0.01045711,-0.03948491,0.00642139,-0.04350907
tUmd3tWCDKs,0.00642629,0.00376126,0.03234085,0.01618423,-0.00104197,0.23797531,-0.10666691,0.06329174,0.00457377,0.04329046,-0.05554628,-0.044481,-0.00967166,-0.07891698,0.05060764,-0.30424363,0.07166721,-0.0716018,0.0163605,0.13047796
iQxwDGnuByc,0.16351588,0.04058103,0.18451288,0.03084928,-0.10182104,0.02394975,0.03589034,-0.14430297,0.01250104,0.00332332,-0.00993551,-0.03441786,-0.05079913,0.09105456,0.08860073,-0.00125557,-0.01777156,-0.03189242,-0.07520087,0.129706
fxb9BMISN54,0.25423472,-0.0835711,0.15468412,0.05811043,-0.16929199,-0.12421841,-0.13551334,0.24027642,-0.07037592,-0.17856639,-0.1301068,-0.0107319,0.01137951,-0.10383438,-0.09066248,0.0116264,-0.07887924,-0.05477587,0.01127489,-0.01204533
4vHF2qU89Jo,0.17063829,0.01919123,0.07602803,0.04099652,-0.07168264,-0.02027154,-0.01821514,-0.05169199,0.24350928,0.12492049,0.10000286,-0.02805732,-0.01951304,0.0741814,-0.06162253,-0.02548586,-0.01360062,-0.06450109,0.00135913,-0.03438913
9rRvmcDpWwA,0.01191657,0.00778276,0.04391489,0.01722849,-0.00930802,0.24535598,-0.1065902,0.05201382,-0.00445397,-0.06476375,0.09470128,0.0438768,0.00300842,0.05183661,-0.02423475,0.2670888,-0.13325749,-0.01052035,0.04749562,0.03841453
nHH771Vtkxw,0.06227325,0.03539964,0.13247195,0.010258,-0.05478734,0.01484769,0.0455127,-0.12220816,-0.0700057,0.02578646,-0.14612472,0.33902331,0.07804162,0.03246518,-0.13205145,-0.07541363,0.10575722,-0.05244562,-0.13412301,-0.11982025
zj0BKLv9r8Y,0.16279579,-0.01128663,0.09551242,-0.02970398,-0.00043536,0.05598905,0.02778959,-0.14045347,0.03292749,-0.02039146,-0.0510402,-0.05726319,-0.03150994,0.07308501,0.18064486,0.01406186,0.04081951,0.04115946,0.01468696,-0.03995842
RCl-cN1Hf-Q,0.08684006,0.06993912,0.30401241,0.65966175,0.56320457,-0.05065511,-0.03847112,-0.00980921,0.00127387,-0.05138055,0.00197547,-0.03294989,0.00289443,0.04164337,0.02696053,-0.02367197,-0.00544461,-0.00252067,-0.03458805,-0.02650357
siKdeoxrxIA,0.08092862,0.03022561,0.0550351,0.02719257,-0.03737711,0.02752512,0.02921581,-0.0985681,0.02957792,0.02717298,-0.00171748,-0.00060926,0.10508599,0.01197783,0.0424858,-0.01930102,-0.00190439,-0.04150275,0.01434244,-0.07736615
2y_3sFy4R1A,0.04963112,0.02364811,0.07154838,0.02485466,-0.04525278,0.02359508,0.00899878,-0.0649616,0.06635718,-0.04729964,-0.04198576,-0.01381915,-0.022649,0.01390422,0.10810231,0.01153921,0.00193699,0.03916429,-0.0007594,-0.02752856
KPjUKzX4bo8,0.11295947,0.03375557,0.11084648,0.00574392,-0.05364207,0.01118115,0.00326762,-0.062427,-0.00075873,-0.03953813,-0.04690052,-0.02064881,-0.00031558,0.03215725,0.05560966,0.00458465,0.06656658,-0.0081734,0.01383168,0.0237195
VsLOWe6VuyQ,0.01618574,0.00994136,0.03335486,0.00768269,0.00025406,0.08239762,-0.0273748,-0.01406472,0.00418427,0.02702902,-0.00869882,0.01012359,-0.01006068,-0.06431623,-0.00252271,-0.00721308,0.05655596,-0.1096309,0.04913224,-0.05708333
40-68Uco_u0,0.04845928,0.03046445,0.08533674,0.01156836,-0.01356015,0.01286184,0.00407229,-0.06128634,0.00718739,-0.01627025,-0.03697398,-0.01117378,0.03113366,0.00838444,0.06989056,0.00385422,0.00356346,-0.01163561,-0.00255143,-0.02213093
bbhBRpDlFHE,0.01198405,0.00471749,0.04188631,0.01839613,-0.01836241,0.07877451,-0.02023899,-0.00011727,-0.00407112,-0.02126602,0.00315865,-0.00699489,0.01212605,0.00327795,0.00487808,-0.06432186,0.02548336,0.01083364,0.0069628,0.02137353
xfMhpaP8QSg,0.04697012,0.04597036,0.06075486,0.02788278,-0.05111671,0.01979742,0.02756712,-0.08977684,-0.02891129,0.0258222,-0.06141895,0.15919466,0.44118505,-0.07751906,0.07273859,0.04150966,-0.01186265,0.0070955,0.10616717,0.04978314
sjbKZ4CY1Ow,0.02494842,0.01120115,0.05779703,0.00663383,-0.02290495,0.29722934,-0.12043095,0.0676678,-0.00081498,0.03564328,-0.01867895,-0.01768009,0.01954039,-0.01211806,-0.02314768,0.16360282,-0.0095515,0.10281883,0.01312551,-0.11986826
WB1bBLedJQ4,0.08293488,0.03070355,0.25135934,0.56512816,0.45068662,-0.04426818,-0.03856061,-0.02694467,-0.00063436,0.0081386,-0.02872362,0.07298297,0.00845279,0.08542692,-0.04343685,-0.02597118,-0.01400544,0.00983562,-0.04249019,-0.03274254
FJNk3OGtmbk,0.05794562,0.03064786,0.26462297,0.60341434,0.5389494,-0.06691165,-0.06078267,0.01797543,-0.00454679,0.02353927,0.014998,-0.00322548,0.02142705,0.02720525,0.00477512,0.00292186,0.00765802,0.02512285,0.01176218,0.00406963
Hpl10gpuOGw,0.14193177,-0.03054305,0.18471998,0.06632436,-0.16407689,-0.06556423,-0.08835191,0.08505528,-0.0463247,-0.16295389,-0.03049262,-0.10355533,0.01774297,-0.02652785,-0.08818026,-0.03995784,0.0762712,-0.17656767,0.07894206,0.00243162
p5zWy46yWxU,0.00912529,0.0009864,0.02826029,0.00542398,-0.01070961,0.14884192,-0.06494792,0.02835715,-0.00600414,0.02245241,-0.01365799,0.00012456,0.00089507,-0.02562496,-0.00449782,0.11729087,0.06222955,0.03863501,0.02716899,-0.0836238
vTXoE7BLv9s,0.05761121,0.03000171,0.08121402,0.02535048,-0.05153316,0.03828983,0.03760822,-0.07917557,-0.00566909,-0.05751449,-0.04032998,-0.03454794,-0.0396356,0.00655038,0.13710588,0.02871202,0.06172195,0.02350259,0.0057792,0.01480514
OuOIrxBXB0M,0.00608063,0.00652197,0.01319735,0.00415998,-0.00643706,0.0817645,-0.03340199,0.01374564,0.00038719,0.02273664,-0.01734982,-0.00866562,-0.01446478,-0.00117665,-0.01657191,0.10619061,0.0234,0.01965277,0.02269226,-0.0757837
HVPhcOmSMtM,0.14834779,0.07850294,0.15839099,0.0685285,-0.11536662,0.02117134,0.01885181,-0.14577651,0.04558248,0.08684404,0.11416892,-0.13463223,-0.0199148,-0.09911793,-0.10803066,-0.07749799,0.05726151,0.01980378,0.13015474,-0.05201799
-APimd6TUro,0.0884086,0.03137712,0.32873593,0.63617742,0.45369453,-0.08842632,-0.06711839,0.014982,-0.03211747,0.16189837,0.1332659,0.03563121,0.02007564,-0.0224143,0.04443883,-0.01384403,-0.05840375,-0.04503765,0.04122079,-0.00725417
sbzsqNJuZvg,0.01090104,0.00810243,0.04327996,0.00371189,0.00300653,0.23136319,-0.09949361,0.07789804,0.00369099,0.08000164,-0.08234474,-0.0632485,-0.01119333,-0.05680826,0.04691669,-0.26408527,0.1460725,-0.00741809,-0.01528093,0.06680869
o39vHtwxPRg,0.06652597,0.04691536,0.2684416,0.59806653,0.57246901,-0.07044025,-0.05447862,0.03791484,0.0026366,0.00534253,0.00066866,0.01280065,0.00696062,0.00922041,-0.00028237,0.00818203,-0.00279645,0.01728306,0.00226398,0.0072481
2mOqRPcWgMM,0.02060519,0.01018859,0.03578604,0.01381702,-0.00697133,0.22344924,-0.10208174,0.05841426,-0.00570005,0.02304131,-0.02503731,-0.01020338,-0.01694441,-0.0637455,0.00482677,-0.04647921,0.02289725,0.02121483,0.0177476,-0.02141701
k7aOM--Ycts,0.01048381,0.0005071,0.02679719,0.01216681,-0.0089971,0.08823988,-0.02154601,0.02586047,0.0108558,-0.02095242,-0.03509242,-0.04249666,-0.00670511,0.02008949,-0.0018283,-0.0387572,-0.16099105,0.12448683,0.03586252,0.04426886
XNDiFY5vIk0,0.00748325,0.0084409,0.01873081,0.00517267,-0.00736167,0.1608936,-0.06938355,0.04213951,-0.00084398,0.03389484,-0.03680408,-0.01963768,-8.362e-05,-0.08777743,0.02762701,-0.19294834,-0.04015325,-0.07303577,0.02426653,0.08182247
VITWpByrMdw,0.16388076,0.02772385,0.09188182,0.0336247,-0.09769367,-0.0001768,-0.00829819,-0.07389909,0.01017314,0.09523093,0.08287971,-0.04124947,-0.04355,0.04983867,-0.09342068,-0.08854251,0.02667726,-0.03930554,0.09620232,0.02895885
Nq-c06vj5PM,0.06507226,0.03251744,0.12607632,0.03630401,-0.09284766,0.01754617,0.04253816,-0.09622771,-0.08205288,0.05282287,-0.05791063,0.28247273,-0.06493861,0.02132013,-0.02147794,-0.02667795,0.0312732,0.03419552,-0.0162291,-0.01918071
3OUrr_2UCYs,0.01372965,0.00627127,0.04567401,-0.0099548,0.00120809,0.22946769,-0.09475395,0.06798635,0.00050138,0.08240457,-0.06361379,-0.02053096,-0.00246659,0.05179016,0.0428713,-0.00964371,-0.13593274,0.05855816,0.00848207,-0.02040563
bfENsVP77VQ,0.04883646,0.05834476,0.02880331,0.00172964,-0.00978967,0.27938972,-0.11111223,0.09261083,0.02171206,0.01011207,0.03429499,0.01808616,0.02154801,-0.0090425,-0.02519145,0.10584645,-0.13875285,0.04869903,0.00274924,-0.01593899
MK-6-YuFzC4,0.10030737,0.05196564,0.1760769,-0.03851852,-0.04636879,-0.01685961,-0.02071677,-0.13145386,0.03000802,0.11881506,0.1154943,-0.05780549,-0.03828092,0.0199487,-0.07263012,0.00154328,0.03730363,0.01758191,0.08905705,-0.08243835
HyO6rMqRXw0,0.06552594,0.04536394,0.04259993,0.00865627,-0.03068674,0.0249367,0.03390259,-0.09883674,0.03408187,-0.03479675,-0.03844219,-0.06827528,0.00586629,0.11847226,0.0052808,-0.02693676,-0.02260929,-0.04473903,0.00428959,-0.03508848
ABoKfabPQyY,0.01793275,5.238e-05,0.05251552,-0.00137166,0.00510648,0.27511762,-0.10783885,0.07536402,-0.01784806,0.16727788,-0.11480212,-0.03575304,0.08538844,0.01352266,0.07828605,-0.11297954,-0.15053471,0.14745416,-0.02237322,-0.20510737
kXenRXelpKs,0.00913121,0.00222068,0.02523516,0.00498811,-0.01068827,0.10423708,-0.03853377,0.01207439,0.00082896,0.00317152,-0.02889838,-0.00987326,-0.00596029,-0.00948158,-0.00360952,0.06241333,0.01869714,0.00183218,0.03317339,0.00213749
KfaPxlvQx1M,0.06667836,0.03390441,0.31007581,0.73140944,0.61511599,-0.08621422,-0.04756921,0.0270662,-0.01621227,0.00078702,0.00649956,-0.02158089,-0.03789562,0.02703752,0.10226132,0.0233246,0.02686235,0.09107555,0.00876323,0.00942621
s2NSwy8xraQ,0.15395457,-0.01435093,0.16456599,0.01052251,-0.050701,-0.04527938,-0.04369788,-0.00716675,0.19628869,-0.14372065,-0.12989659,-0.01715941,-0.06178247,-0.09326832,-0.23178494,0.01185026,-0.0939772,0.08709178,0.14076247,-0.12617388
sebAi3RkL4o,0.21443336,0.06974539,0.19462167,0.06517444,-0.19765334,-0.09774868,-0.09064235,0.07634095,-0.04297111,0.13389231,0.16790394,-0.04711972,0.0348155,-0.08801057,-0.04701938,0.01063708,-0.00368139,-0.07820409,-0.02656911,-0.01138835
rhVEOqNhjKo,0.01211345,0.00136262,0.03668358,0.00053106,-0.00311287,0.13972518,-0.06175722,0.02311532,-0.00817202,0.05701311,-0.04914542,-0.00401451,-0.02749886,-0.01601053,0.03568419,-0.01592325,0.00097847,0.0062046,0.01786615,-0.02093622
EFhMcL3Kf1c,0.01713095,0.0086692,0.03645374,0.0055651,-0.01890162,0.11590847,-0.04693765,0.0094513,0.00021965,0.02259675,-0.03843074,-0.01590091,-0.03210495,-0.00062774,0.01126489,0.13111876,0.0317888,0.03837482,0.03911409,-0.03580653
GmTuhpMe1oM,0.04938903,0.01747619,0.03784067,0.00789854,-0.02009337,0.01896852,0.02414902,-0.06888345,0.03237831,-0.00394289,-0.0069959,-0.04360084,-0.00723025,0.07621044,-0.02793675,-0.02328685,-0.01155988,-0.06578582,0.01492627,-0.00691791
