video_id,lsa_1,lsa_2,lsa_3,lsa_4,lsa_5,lsa_6,lsa_7,lsa_8,lsa_9,lsa_10,lsa_11,lsa_12,lsa_13,lsa_14,lsa_15,lsa_16,lsa_17,lsa_18,lsa_19,lsa_20
QPWScf-86po,0.02685555,0.00389811,0.0444245,0.03080217,-0.03903838,0.1931957,-0.06898859,0.04932753,-0.00691469,0.01876022,-0.03433574,-0.02228633,-0.01180495,0.00150446,0.00443073,-0.08865478,0.06704291,0.05617579,0.01576458,0.02863241
WgcdDVIUXcI,0.05507174,0.02931461,0.06743713,0.04597865,-0.08130859,0.02120446,0.04020334,-0.07002618,0.04708182,-0.03513098,0.01061419,-0.0383872,-0.02047245,-0.03538978,0.05401573,-0.05170391,-0.10476357,0.00318886,-0.16605522,0.05118661
OrI86PV-aPg,0.07965122,0.00636509,0.08289683,0.06640084,-0.10829543,-0.02229883,-0.0235249,-0.06742285,-0.02820869,0.18778054,0.04033855,0.01891765,-0.04917908,-0.05191873,-0.01251178,-0.00454952,-0.02929438,-0.1481066,-0.00724678,0.08423609
qgzwtKsXCMo,0.00761821,0.00191716,0.01808054,0.01166131,-0.01959061,0.01512609,-0.00024886,-0.01130663,-0.00773829,-0.00863174,-0.00068069,0.00769438,-0.00086232,0.00974863,0.00949988,-0.00725921,-0.02028631,-0.01339497,0.00922517,-0.01049752
ksn5yrsC3Wg,0.02233525,0.00396382,0.04848182,0.0246488,-0.02882625,0.24019145,-0.09119557,0.0401432,-0.00178566,0.03796079,0.10556686,0.0264786,0.02036271,-0.00712908,-0.00936498,0.00167731,0.05973447,0.02574241,0.05447442,0.0856597
Su0aCV35IFM,0.01178201,0.00565669,0.03508653,0.01775919,-0.02164033,0.26356535,-0.11552503,0.05709818,0.00657328,0.01661015,0.20470288,0.08149843,0.00140985,0.00046774,-0.0104271,0.05660063,0.15627985,0.03359303,0.01371936,0.22602003
pXI3xinu4bc,0.00806513,0.00225881,0.0288411,0.01440123,-0.01021111,0.12554119,-0.0566995,0.01771041,-0.00293564,0.021844,-0.11363683,-0.02853077,0.01777727,-0.01881947,0.02944618,-0.0499376,0.02909091,0.02994811,-0.03891893,-0.01715183
reCJ5EuvukI,0.01838361,0.01129917,0.01970258,0.01539119,-0.00832454,0.06657399,-0.02105672,0.00310784,-0.00047021,-0.00736023,0.02567646,0.00506377,0.0107694,-0.00454428,-0.03712424,0.02325157,-0.03153192,-0.02418506,-0.02444749,-0.02647663
dqazxW8R5BY,0.00459038,0.00129931,0.01534414,0.00874601,-0.01167589,0.10661549,-0.04208848,0.02629296,-0.00135787,0.00806698,-0.01631013,-0.0023422,0.00199888,-0.0081263,-0.00565804,0.03044893,-0.00677188,0.00027201,0.0340711,0.01910275
WOTUpoI2LQA,0.04104851,0.02564092,0.0808594,-0.01956735,-0.01079669,0.00925603,-0.01316582,-0.03640223,-0.00190949,0.00056083,-0.00607745,0.02819337,0.01622767,-0.05637178,0.00063661,-0.01210138,-0.0198116,0.02329094,-0.01488598,0.03474368
IEJALLQFmDs,0.009481,0.00077558,0.03251091,-0.00092031,-0.00852929,0.14182989,-0.05360742,0.03549836,0.00157033,0.02536997,-0.10002334,-0.03050756,-0.03157695,-0.01937249,0.02623502,-0.06536592,0.04925663,-0.00228796,0.07082671,-0.0137262
kB_PJC80JhY,0.10586467,-0.03986392,0.10295906,0.06306673,-0.12356867,-0.02480777,-0.00066869,0.01546921,-0.06300421,-0.04795396,-0.06625418,0.11274837,0.23271979,0.02667718,0.05935663,-0.02538801,-0.09747003,0.0291197,0.20373213,0.04860005
jLFG_FZKbks,0.02298406,0.00509073,0.06338756,0.00687831,-0.01610413,0.21618251,-0.08165194,0.04013755,-0.00563412,0.00720266,-0.12342748,-0.00911793,0.00943114,-0.0127306,0.08035942,-0.05966076,0.0313948,0.01255127,0.00894302,-0.00327622
u_f8bJkfg68,0.08740593,0.06711464,0.01729101,0.02401719,-0.04687878,-0.00254584,-0.0265024,0.04138188,-0.02853502,0.01221889,0.0101332,-0.0128908,-0.00482488,-0.03323199,0.02095242,0.01878732,0.02053739,0.04394092,-0.06962228,0.0168102
GDex3WIPF7c,0.01443858,0.00831539,0.03158383,0.02403061,-0.01761182,0.16504632,-0.07036796,0.01747537,0.00686388,-0.01234868,0.1781295,0.06266368,0.00812413,0.00085977,-0.03199101,0.06360848,0.06392635,0.03338021,0.00061316,0.08256857
snM0UfZxakc,0.02099443,-0.00118416,0.0384934,0.03287008,-0.01444769,0.16330012,-0.05969117,0.01787166,0.00057936,-0.0125539,0.03885708,0.00393496,0.02590544,0.02147283,0.03934187,-0.0562591,-0.05994582,-0.04367259,-0.15703055,-0.05379669
yE8fJOgv7Pc,0.0171417,-0.00075207,0.03498577,0.02201268,-0.0337776,0.11087722,-0.03552601,0.00871222,-0.02525192,0.00257632,0.04466138,0.03558507,0.03563203,0.01498788,0.02462912,0.03661853,-0.10403899,-0.01451583,-0.13270752,-0.01516801
vmRbevilfpU,0.12000704,0.05324246,0.0609542,0.04143726,-0.07435479,0.00438983,0.02905809,-0.13910273,0.04139329,-0.02536618,-0.0149412,-0.07430598,-0.12747059,0.07860897,0.00697595,-0.01756936,-0.05005056,-0.03997173,0.07032756,-0.00565866
TmkbUF0V0hM,0.02982763,0.0045764,0.03666611,0.03548789,-0.02107069,0.1855771,-0.03973012,-0.03120096,0.02502137,-0.08465067,0.60774102,0.12645541,0.02928566,0.09529216,0.03249941,-0.15396467,-0.02668775,-0.00139068,0.05491739,-0.19086492
eOI7WQIEX1Y,0.05875219,0.05167597,0.05664324,0.02427118,-0.04394868,0.02940123,0.01762904,-0.10203747,0.01119988,-0.02296266,-0.03255051,0.08173856,-0.04422936,-0.0773685,0.01788459,-0.00438241,-0.01949919,0.00177148,0.02714944,-0.04312745
FMdrD_jcYgE,0.01272078,0.00332691,0.03382946,0.02089654,-0.03077778,0.14706482,-0.05638755,0.01320131,0.00367038,-0.01633733,0.0659535,0.02849599,0.01024726,-0.03204034,-0.0300579,0.03374437,0.08329217,0.0365967,0.03259083,0.13071828
XGAhqBxEV78,0.0185568,0.00410646,0.03201843,0.01446416,-0.01583905,0.08916694,-0.03423942,-0.01221233,0.00697681,0.0008523,-0.0150526,0.00630808,0.05736651,-0.01627904,0.006385,0.03944584,-0.0594681,-0.02260155,0.00702478,0.02356701
3PZ3d4eNWrc,0.01744968,0.01094622,0.0461818,0.01172743,-0.02389237,0.25670278,-0.10993739,0.07098811,-0.02393889,0.05946524,-0.12559906,-0.05807208,0.00882878,0.03978262,0.00935727,0.05370997,0.13282854,0.01677213,0.23551445,0.25792165
io_Ysi-LFWE,0.01108607,0.00539062,0.02562958,0.01733927,-0.02111382,0.14596988,-0.05724396,0.01437363,-0.00494349,-0.02306968,0.15627549,0.05257408,0.01967273,0.01376539,-0.02322253,0.08234312,-0.06976838,-0.00687972,-0.05818862,0.00295301
2pao0845DQQ,0.01492482,-3.018e-05,0.03413552,0.01757922,-0.02888883,0.04671995,-0.01024022,0.00807209,-0.02849342,-0.00341281,-0.05321602,0.04315657,0.08879953,-0.00821512,0.01670193,-0.02253157,-0.01633719,-0.07565331,0.00423542,0.03049837
xjcVnFd-4YA,0.0162775,0.00581124,0.01790906,0.01366854,-0.02063921,0.02081563,-0.00561115,-0.02286538,-0.00197909,0.0074155,7.157e-05,0.02741386,-0.00066282,-0.00583241,-0.01592542,0.00525643,-0.02324426,-0.02251264,-0.00279394,0.01589239
iBpxQpktHN4,0.00405766,-0.00072545,0.00940164,0.00615885,-0.01153161,0.02690914,-0.0192637,0.0199469,-0.01262302,-0.02176619,0.01247841,0.00617228,0.00055928,0.00860717,0.00026096,-0.00925429,-0.02678879,-0.00326244,-0.02883914,0.00739414
N-zjDtQOwxc,0.10741569,0.03133122,0.16642854,0.07523193,-0.13755659,-0.0014095,0.00894255,-0.15439315,-0.0246855,0.14122398,-0.05059635,0.200331,0.03187384,-0.11788063,-0.01656652,-0.02868838,-0.06268971,-0.03096127,0.05701662,0.02021793
pG99B0ui06s,0.0069433,0.00166582,0.02043942,0.01212361,-0.0187816,0.11038637,-0.04561617,0.02321689,-0.0072646,0.00458419,-0.0058776,-0.00432575,0.0076412,-0.00426858,-0.04037682,0.11009794,-0.01203873,-0.01245904,0.07775848,0.09792433
2ZV29QhLfjw,0.07623435,0.04958656,0.06765466,0.04903663,-0.07041772,0.03332339,0.02747627,-0.11393451,-0.00647298,-0.03885149,0.00612719,-0.01226825,-0.05041825,0.0032751,0.1309162,0.08985529,0.04261997,-0.06456646,0.03795631,-0.0556844
7Y7Iv5XAXwI,0.01900192,0.00798206,0.03716574,0.01952938,-0.03067557,0.1250203,-0.04573387,0.011586,-0.00221872,-0.04665681,0.10226531,0.03297055,0.01460127,-0.00041647,-0.00798698,0.01226498,-0.04683637,-0.00642592,-0.0583322,-0.10705033
UncqiOQc4rI,0.01184929,0.00548253,0.03655094,0.00990141,-0.01753488,0.10698772,-0.05124124,0.00785389,-0.01466405,0.020721,-0.03055617,-0.00061123,0.03008324,0.00941353,0.01697961,0.03891326,-0.0825125,0.01832591,-0.09869517,-0.01327368
31t_CBePs34,0.03976302,0.00459694,0.11400891,-0.0187857,-0.03014929,-0.02061589,-0.00718123,-0.0555103,-0.02769544,-0.04298476,0.01071148,-0.08209179,0.01617706,-0.00738469,0.04221099,0.09749226,0.15090728,-0.10531295,-0.03349739,-0.01751183
0y8vRPcSvbw,0.02071081,0.01146214,0.03797749,0.03129449,-0.02813154,0.13572267,-0.04474149,-0.00038207,0.01291417,-0.0188627,-0.01037587,-0.01396085,0.01073538,-0.01012963,0.00189999,-0.05006309,-0.03491523,0.00805284,-0.1145034,-0.10373122
W65cfPslnzo,0.01053933,0.00033777,0.02234063,0.01602928,-0.01725072,0.12012118,-0.04512661,0.01770422,0.00156288,-0.00794213,0.03821352,0.01254376,-0.00831663,-0.02327367,-0.03082307,0.04750692,0.00998562,0.01493592,-0.0042785,0.01956825
mpZK1dqX6aA,0.00162979,0.00114436,0.00200519,0.00200209,-0.00117204,0.01090445,-0.00363419,-0.00141266,0.00170451,-0.00332629,0.00105054,-0.00033166,-0.00144845,0.00153068,-0.002388,0.01252253,-0.00452453,0.00041028,-0.00319101,0.00396285
PnpHwhTWw0c,0.02868506,0.01846912,0.04347763,0.01401528,-0.02036547,0.15286469,-0.06698144,0.02233643,-0.00290297,-0.01966954,-0.07430465,-0.02090791,-0.02747653,0.03328042,0.0720872,-0.08582929,-0.02842241,-0.03253077,-0.11169272,0.01548113
jKTNMlUEdgU,0.00045579,0.00014623,0.00164116,0.00129524,-0.000557,0.00699066,-0.00339394,0.00080872,-0.00091351,0.00296562,-0.00064614,-0.00116055,-0.00103163,-0.00224216,0.00185888,-0.00210538,-0.00141692,0.00113863,-0.00474568,-0.00455843
Hk-ARbCTKzM,0.01964645,-0.00356791,0.03585009,0.02167822,-0.01517903,0.17702783,-0.07838675,0.02653566,0.01381695,0.0181954,-0.12488036,-0.03273955,0.02345237,-0.02433097,-0.01219617,-0.0296266,0.03103979,0.0371731,-0.0195735,0.02978809
YUwjueXzffE,0.0244789,-0.0075298,0.04955036,0.01495141,-0.00700326,0.2220887,-0.08136032,0.04899165,-0.00091697,-0.00024548,0.04548889,0.02275845,-0.00175186,0.04256777,0.04826964,-0.07186501,-0.00940047,0.00258684,0.0151013,-0.03156846
ndkH5fZSIvs,0.0220928,0.0048329,0.05780639,0.07665995,0.02429646,0.16250428,-0.08001444,0.01508843,0.00016933,0.01844139,0.0029421,-0.01925273,-0.02401207,0.02265164,-0.00613477,-0.06825381,0.0108558,0.04393963,-0.0208414,0.01101061
U0f47Nt9g-Q,0.05125644,0.02505007,0.10862292,0.00847602,-0.04097326,0.00221216,0.00513429,-0.06647406,0.0095109,-0.05233933,-0.00669178,-0.03243573,0.00502476,-0.05998344,0.10634926,0.05840311,0.08341951,0.00340036,-0.04451001,-0.06053124
pUlUgkaTQZg,0.01003307,0.0033858,0.03382117,0.02700119,-0.01620443,0.19878242,-0.07827486,0.02673496,0.00522718,-0.00968841,0.01183938,-0.01534654,-0.01782034,0.01653702,-0.02495615,-0.00722678,-0.02958058,-0.04084467,-0.09219202,-0.0483808
PoHZWjU54jY,0.01713842,0.01684181,0.02030706,0.01095437,-0.00733958,0.17847398,-0.07691212,0.03685464,0.00620956,0.00844602,0.14844238,0.05312711,0.0128153,-0.00101466,-0.03816035,0.03801531,0.09823268,0.01459784,0.00582468,0.12184498
Czf68kDF_7Y,0.01026033,0.0030453,0.03366667,0.02910862,-0.0161057,0.19473807,-0.08615175,0.03984928,-0.01319508,0.01257007,-0.01129464,-0.00633047,0.00453522,0.02880516,0.0091028,-0.00795467,-0.09935956,-0.04344624,-0.17114912,-0.0750119
dU5sDKcwN9E,0.02127404,-0.00320285,0.04337105,0.01530466,-0.01498121,0.25172165,-0.10000946,0.05292032,0.00975053,0.01425613,0.03185446,-0.01023696,-0.02277046,-0.02530467,0.01794686,-0.03672094,0.09419002,0.02887161,0.07122792,0.06173506
0t118SCf-2w,0.00547599,0.00204316,0.01567664,0.00985543,-0.0114266,0.11216245,-0.04704534,0.01858319,0.0046124,-0.00275919,-0.01025655,-0.00187443,-0.01409495,-0.01558775,-0.02770487,-0.00440117,0.02169156,0.01764927,-0.01089433,0.00360544
tkLxg6h07aE,0.03248921,0.00591585,0.05543933,0.04836937,-0.03312553,0.31234565,-0.10003965,-0.01811678,0.03103363,-0.11207574,0.79241372,0.17903705,0.03046958,0.1067315,0.00275548,-0.1188982,-0.01869442,0.00879796,0.0733553,-0.18472623
W41XcEogOB0,0.0184728,-0.00497817,0.02395864,0.02448164,-0.00965927,0.1167855,-0.0392826,0.01432323,0.00224099,-0.02768029,0.12895103,0.03817646,0.01172743,0.00610203,-0.05328081,0.04699195,-0.04700801,-0.00689528,-0.00328639,-0.06154874
0D14LJGiBkg,0.00827283,0.00471608,0.0184912,0.01592321,-0.00835671,0.08589794,-0.0357499,0.00913917,-0.00505268,0.00610014,-0.02682986,0.01358835,0.0319217,0.00922406,0.02299584,-0.00727967,-0.03082438,-0.02070997,-0.07286995,-0.02055806
69AWec8qjjo,0.05160117,0.01133849,0.04808589,0.02499998,-0.04051306,0.04294751,0.00609711,-0.0992946,0.00314875,-0.00869457,-0.03266611,0.0097963,0.09825679,0.08782309,0.0241682,0.00595926,-0.11438512,0.06354961,-0.08125442,-0.05207302
IrGd4xIhTN0,0.01164412,0.00348822,0.02837384,0.01945917,-0.02080421,0.15453668,-0.0545332,0.01788238,0.00871628,-0.00972586,0.12959152,0.05265678,-0.00090188,-0.00060039,-0.00073034,0.02880159,0.071427,0.03287637,-0.00540152,0.12434336
vgwG6e9TFcw,0.01245238,0.00589181,0.03148507,0.01501046,-0.02053776,0.16400092,-0.07842776,0.04393223,-0.0108049,-0.01503029,-0.08486067,-0.02645611,-0.02706967,0.09807568,0.08841721,-0.1665234,-0.04365707,-0.05757489,-0.28007953,-0.039308
gdjCR9h1yGc,0.01463354,0.00259535,0.05619739,-0.00346359,-0.01320502,0.22916176,-0.10018799,0.06244685,-0.01123842,0.02829991,-0.11479512,-0.00989533,-0.01631232,-0.00643351,0.03127847,-0.02234009,0.01795353,0.00061731,0.04996213,-0.02431256
rfRFwXnk660,0.03677106,-0.00293469,0.03799045,0.0193219,-0.03638588,0.00520407,-0.00321781,-0.02196446,0.0107975,-0.05688346,-0.01852398,0.0121534,0.00600238,-0.07876756,0.00434766,-0.01825938,0.02679666,0.01683121,-0.02539155,-0.03720795
dNNyCZwEa6k,0.01091804,0.00299673,0.04037604,0.01012217,-0.02077376,0.15709561,-0.06017161,0.03282776,-0.00530806,0.01491799,-0.05693344,-0.01951647,-0.02146917,-0.01234086,0.01561119,0.00335694,-0.0540116,-0.03732748,0.03343823,-0.02332288
RniYUmKs93U,0.00762097,0.00154217,0.01952184,0.01347415,-0.01921011,0.04497417,-0.01830187,-0.00497287,-0.00561973,0.0035093,-0.02927794,-0.00906142,0.00059587,-0.00129891,-0.00253392,-0.01839657,-0.01665141,0.01541059,-0.01850716,-0.01287048
jytAQWCc_TI,0.06387426,0.04899957,0.02907054,0.01831901,-0.00538337,0.33818557,-0.13791478,0.11087538,0.03257032,0.03129088,0.02107683,-0.00709959,-0.02181045,0.03057541,0.02039506,-0.08942282,0.09744674,0.00814497,0.04699463,0.09215397
t9PF8V132Y4,0.01356616,0.00354338,0.02561215,0.01465262,-0.01840629,0.07865845,-0.03744476,0.00422741,-0.00263743,0.00488786,-0.01819067,-0.00949353,0.00812487,0.005215,0.00829231,0.02419412,-0.00463075,0.01184836,0.04202312,0.06163054
WPOhGVSPOyM,0.02826441,0.01430374,0.01374319,0.02319893,-0.01109236,0.03712437,-0.02824649,0.02129155,-0.02054597,-0.01353609,-0.01957593,-0.00869396,0.00570608,0.0128024,0.03234697,-0.00115432,0.07613597,-0.00992591,-0.05209757,-0.05037253
9rHaUzPlJws,0.03533842,0.01618003,0.13587797,-0.02919813,-0.0173479,-0.013031,-0.02038873,-0.07065641,0.00441641,0.02044463,0.00383212,-0.04718044,0.03661691,-0.08618354,-0.03402642,-0.01725492,0.02196252,-0.03821838,-0.07116952,0.03302867
XsY6iChNzf0,0.02406087,0.01748507,0.059405,0.00626139,-0.00356604,0.03719802,0.03979135,0.00411193,-0.00832057,-0.00143876,0.00403071,0.01764936,0.05334271,-0.02648673,0.02111576,0.01413796,-0.00863144,0.013619,-0.027217,0.02205402
8TvJvfKz8Fo,0.0663915,-0.00080607,0.1066022,0.07171768,-0.14373528,-0.02474139,0.01625127,0.09704608,-0.06382417,-0.07660533,-0.04264389,0.07228674,-0.00872373,0.0902159,-0.06197619,-0.06177306,4.746e-05,-0.02830268,0.00714723,-0.02470591
4iXwPD-VHyg,0.04897737,-0.0286975,0.02271585,0.01198169,0.0196918,0.14559087,-0.05445602,0.01778384,0.02452404,0.01617274,-0.03290867,-0.02300597,-0.00994599,0.03174025,0.02091241,-0.05393812,-0.03499479,-0.02349733,-0.08423436,-0.06766816
VgH5rhALEfU,0.02423457,0.01771937,0.03301319,0.01722832,-0.01944713,0.08625809,-0.03638306,0.00833687,-0.00201927,-0.00703048,-0.04997589,-0.03275927,-0.01120804,0.01539837,-0.03192232,0.02330292,-0.03263859,0.00850551,0.00843614,0.02823169
5YKhtb3DNNo,0.05909412,-0.01995158,0.05344739,0.05196306,-0.02396087,0.00569386,0.00969891,-0.0434422,0.00203198,0.10879909,0.0022766,-0.03002871,0.03231009,0.06773334,0.02529299,0.06988869,0.02261838,0.1185586,-0.01701236,0.03041372
JjwHFerSu4M,0.05085635,0.02381057,0.0631778,0.04639835,-0.03761485,0.05518463,0.03172912,-0.10677331,0.00890379,-0.04810998,0.00339432,0.00097874,0.00203249,0.05707619,0.11257015,0.03634096,-0.06742638,-0.0162911,0.01110381,-0.00447437
z7Qp9Q_Br88,0.01608728,0.00253487,0.03020532,0.02204511,-0.02876913,0.1087968,-0.04826033,0.00942181,-0.00237833,-2.906e-05,-0.04126919,0.00661608,0.00714689,0.01951881,0.02664696,-0.05689549,0.01845165,-0.03404427,-0.09384848,-0.00556215
5W2lIWDyXjI,0.01099371,0.00271101,0.03140257,0.01271439,-0.01914579,0.07047619,-0.01791939,0.00423917,-0.00740766,0.00725925,-0.01574765,-0.00258037,0.01282178,-0.00328269,0.00303965,-0.01048827,0.00677721,-0.02420298,0.02311193,0.03526264
v_1Dhh8G84c,0.01713246,0.00843137,0.03322107,0.02355754,-0.03229961,0.12090298,-0.04427677,-0.00329752,0.00449073,-0.00205654,0.01432529,0.00131467,0.01827034,-0.02189853,-0.04455662,0.06416672,-0.02785696,0.03721737,0.01340102,0.02693769
IMM5cm6xrXQ,0.01384143,0.00430627,0.03688169,0.01769898,-0.02698744,0.1192967,-0.05207665,0.00492481,-0.02094609,0.01717595,0.01955673,0.02719458,0.05869528,-0.00082398,0.01926815,0.08603855,-0.07708562,0.01678097,-0.06751921,0.019017
39czcByvq7c,0.02545375,0.0042224,0.03401085,0.02226106,-0.03253073,0.14951474,-0.0382899,0.03091727,-0.00583023,0.00052187,0.00569963,-0.01743661,-0.02411909,-0.03853136,-0.01380076,-0.07759622,0.02549645,0.04322028,-0.01458778,0.01928496
vNXFk8iGHk8,0.01977648,0.01128783,0.05143104,0.01501185,-0.03124142,0.26827627,-0.11516344,0.0748118,-0.02627807,0.06255606,-0.104598,-0.05332162,0.01056447,0.03321686,-0.00340293,0.06722713,0.13918529,0.01523511,0.23236668,0.26818742
dl0-TveDDGA,0.01111756,0.00479318,0.0423262,0.0085127,-0.01735365,0.22491403,-0.09355595,0.06399226,-0.00574202,0.03869389,-0.12457771,-0.04005422,-0.02554808,-0.01308049,0.06241133,-0.09229762,0.02672832,0.03083996,0.03780661,-0.04773133
m-nnyNZ0TQ0,0.01668476,0.00468608,0.05997043,0.00036882,-0.01617447,0.20284037,-0.06634731,0.05535203,0.00255819,0.02149804,-0.1398902,-0.0618682,-0.05042343,-0.01842384,0.03462283,-0.03163277,-0.07163101,-0.00371686,0.06927881,-0.0690445
Cr7oGnSzmb4,0.00854762,0.00535221,0.01712182,0.01023342,-0.01468046,0.11307035,-0.04987038,0.02650744,-0.01043376,0.01389052,-0.04233478,-0.00857103,-0.01790476,0.03357141,0.04852179,-0.07966871,0.00487808,-0.03173685,-0.10554149,0.00090972
MVFd0qFB9TE,0.0086402,0.00425582,0.02363686,0.01304425,-0.01359585,0.14526246,-0.05729226,0.03117844,-0.00306748,0.0278237,-0.1083494,-0.00801093,0.01219623,-0.01213141,0.04711513,-0.0775152,0.02768767,0.01928732,-0.03085267,-0.06703579
pcAJLeGAtwc,0.01357287,-0.00082014,0.02514835,0.01219113,-0.01615114,0.06934084,-0.02957464,0.00206054,-0.00739889,0.00500602,-0.03459225,0.00672507,0.02118358,-0.00653202,0.02068251,0.01768417,0.00739653,-0.01733754,-0.02144539,-0.00342844
jAaw0vn7eLs,0.00994666,0.00233261,0.02928066,0.02079487,-0.02065148,0.14893869,-0.06083915,0.0252047,0.00147802,0.01255964,0.04102965,0.02838615,0.01765042,-0.00759814,0.02354456,-0.01852116,0.07992096,0.01360003,-0.02021836,0.07317652
eRD2C7w9r6Y,0.05184876,0.03123223,0.02595478,0.02175508,-0.03257093,0.01657589,0.03939551,-0.04869625,0.00383819,-0.03459626,-0.00839466,-0.01385207,-0.02396364,0.02829504,0.02769843,0.01538584,-0.00409065,-0.04593749,0.03056131,0.00646752
u5HPVyEpyNI,0.09048149,0.03385101,0.10028815,0.06792153,-0.11392952,0.02113798,0.03078832,-0.18021791,0.00698482,-0.03214454,-0.065145,0.00050014,0.16772394,0.13450517,0.00897914,-0.03195553,-0.15271551,0.11012532,-0.03204296,0.01993987
LMJb-_uL6lQ,0.00540338,0.00157294,0.01654256,0.01478534,-0.00848162,0.06597018,-0.0235853,-0.00221658,-0.00355711,0.00495756,-0.01547544,0.01840112,0.04897303,0.00443616,0.01824307,0.00777732,0.02457786,-0.01734371,-0.03085582,-0.00283099
Ycdklm6W1_o,0.01603403,0.00304931,0.02939278,0.01791614,-0.01847119,0.1851762,-0.08453454,0.04024143,-0.00922869,0.00251717,0.00104219,-0.00953921,-0.00028314,0.0477114,0.01213236,-0.03798878,-0.06747324,-0.02588179,-0.09342233,0.01172737
DYkyYUjOZTk,0.01415167,0.00800004,0.02329065,0.01550006,-0.02413739,0.08642759,-0.03134985,0.00837395,-0.00615488,0.02166391,-0.00950067,-0.00493116,-0.00168811,0.00842387,-0.01053003,-0.01907773,0.0163243,0.01881319,0.00039816,0.04812478
JWOErbTL9N4,0.01537366,-0.00226847,0.03004167,0.01078292,-0.01752927,0.13179164,-0.05271946,0.00936314,-0.00300111,0.01742042,-0.02773696,-0.01901714,0.01716264,-0.01824806,-0.04688897,0.05959498,0.00499432,0.00978201,0.05683808,0.07445898
oOCN30ulVyo,0.01978095,0.01566928,0.01886127,0.01036388,-0.01836735,0.05090352,-0.01911732,-0.00795713,-0.00798734,-0.00022961,0.00115039,-0.00143896,0.039914,0.01494449,-0.00379925,0.07575076,-0.03602618,0.02421708,-0.03697918,-0.01127535
wgADj9n8XMs,0.08164113,0.05273409,0.12031203,0.03932575,-0.09193322,0.00398419,0.00131127,-0.06709298,-0.05478239,0.01217943,-0.0439917,0.06767703,0.24648046,0.01416606,-0.01328999,-0.02391857,-0.12109125,0.21951857,-0.06321066,0.00189775
BdUzhVM5w1U,0.01026098,0.00173652,0.02141759,0.01241671,-0.01437223,0.16114504,-0.0697151,0.03136586,0.00272361,0.01479359,-0.07237293,-0.00611981,0.01271831,0.01569653,0.04471066,-0.06516944,0.03074503,0.00130179,-0.08225476,-0.0129096
UsS6bOYnnOI,0.01275383,0.00499437,0.03361334,0.0256806,-0.02139029,0.15986959,-0.05493659,0.01146111,0.01292345,-0.00793336,0.09288307,0.06274403,0.04724221,-0.05262094,0.01611086,0.04064554,0.13534072,0.05551025,-0.00425225,0.04787955
4at2bVIhLgc,0.00995883,0.00132266,0.01436623,0.0075158,-0.00657318,0.11075096,-0.03964961,0.02646101,0.00246769,0.00826318,0.11762703,0.04139287,0.00729776,-0.00649804,-0.02188809,0.05889295,0.06214325,0.01771918,0.00375119,0.07010467
s6XPoPYDn-Y,0.01870519,0.00502005,0.03493777,0.02643219,-0.03070827,0.14434189,-0.03554934,-0.04245766,0.02509233,-0.08582013,0.57237675,0.10439941,0.02282944,0.08324215,0.02224752,-0.14644765,-0.06218051,-0.00189117,0.06390533,-0.22113243
ExlWYbISs6I,0.01819643,0.00217823,0.04789452,0.03170891,-0.03358986,0.19188015,-0.08329852,0.02094046,-0.0213313,0.00543788,-0.05609932,0.0036906,0.03972526,-0.00318344,-0.09418676,0.22039041,-0.12118931,0.0020757,0.19393831,0.18787048
_WrHMsTYlOU,0.01228707,0.00574809,0.02779588,0.01487623,-0.01619061,0.07326098,-0.02801744,-0.00684104,-0.01043687,-0.00610009,0.04585192,0.0144369,0.03107071,-0.00907293,-0.00230539,0.05745429,-0.06766338,0.01439201,-0.05136293,-0.00091427
wdCDxH9KBss,0.12287306,0.05192436,0.13333874,0.09461885,-0.11839614,0.01274304,0.04446714,-0.22303072,0.00912001,-0.06866743,-0.03122028,-0.06698092,0.05324356,0.0645201,0.02778041,0.070265,0.08468345,0.05966309,-0.01945018,0.00229206
fwUWAoSeg2g,0.04507966,0.02015605,0.13778821,0.25368689,0.19899759,-0.01700086,-0.02283466,-0.02015666,0.00738957,-0.01919978,-0.00311961,0.03003234,-0.02266147,-0.01487277,-0.01336914,-0.01851327,-0.02384713,0.02203567,-0.03026093,0.01905793
Hk20QLW6nEc,0.08034563,0.04321056,0.09909802,0.07706367,-0.10381369,-0.00736496,0.0133124,-0.1039769,-0.02734676,0.08486417,-0.00306642,-0.04436108,-0.02140172,0.01542215,0.0919459,0.09591018,0.04877205,-0.09107425,0.04298946,-0.05033154
TET8fTKH1e8,0.13022161,0.03555699,0.13856803,0.04657351,-0.0912811,0.01640854,0.02667116,-0.15859252,-0.00353736,-0.01644366,-0.02315347,0.06741792,-0.04757095,0.02669989,0.1367632,0.11669294,0.09124519,-0.02784786,-0.00423206,0.02613744
ERWIJPTNZVM,0.00614121,0.00473053,0.01177458,0.01145826,-0.00612149,0.03934105,-0.01349008,-0.01123563,-0.00805423,-0.00378949,0.00389977,0.02896252,0.02959366,-0.0145593,-0.00670768,0.04752162,-0.03020327,-0.03290409,-0.01856738,-0.02198708
QfUb5MEAOXA,0.01147322,0.0048386,0.03121402,0.01088719,-0.02082013,0.08912611,-0.03639613,0.00898871,-0.00527625,-0.0036543,-0.01932865,-0.00455148,0.00940133,0.01447734,0.02653084,0.00895359,-0.00153486,-0.00334925,-0.06703276,0.0070571
roUppNywDks,0.02819747,0.00476792,0.04923182,0.03244936,-0.0387638,0.26761322,-0.09119077,-0.00882562,0.02240312,-0.08633111,0.62518879,0.14947024,0.03914434,0.08046641,0.02769371,-0.09888056,-0.01529368,0.00131061,0.07104525,-0.09106319
Lqq78q17jDY,0.13002969,0.04921021,0.19493224,0.05443976,-0.1174336,0.02013963,0.02053723,-0.25611975,0.08159114,-0.25053177,0.03245808,-0.37172551,-0.051536,-0.12847714,-0.5341233,-0.16141329,0.3321705,-0.15879341,-0.00401534,0.24776472
wy3a_xJI3so,0.02110922,0.00745754,0.0629365,0.00318102,-0.01822742,0.21734285,-0.0756739,0.04871979,0.00491512,0.04080539,-0.15743516,-0.05564064,-0.00063246,-0.01943219,0.06598529,-0.04908078,0.0396822,0.04980623,0.10430497,0.04761156
kijJaXVri7Q,0.04815707,0.03258517,0.04281817,0.03488976,-0.04172955,0.03000132,0.01467322,-0.05934267,0.0034259,-0.04374932,-0.01993188,-0.01944789,-0.03302436,0.0247178,0.00418916,0.00418669,-0.03161001,-0.01085498,0.04823265,-0.0067941
oNjLzGpMCuw,0.07022626,0.02137185,0.07523386,0.00089053,-0.03597221,0.00947635,-0.00020755,-0.08258437,0.01941765,-0.04166282,-0.00281725,-0.01400867,-0.08174551,0.05075489,0.04308148,0.00853725,-0.03580159,-0.02512683,-0.01342283,0.0787152
-1Fhry-Mqks,0.01254617,0.00282317,0.02493474,0.01448692,-0.01477208,0.14163784,-0.0587351,0.01959125,-0.00062946,0.00326051,-0.00357456,0.0063894,0.01281985,0.02067081,-0.0006174,0.05022832,-0.02513371,0.00794139,0.04896938,0.03782347
LLK879SXq_w,0.12308636,0.04398686,0.36418083,-0.09472262,0.16139027,-0.04166545,-0.0746001,-0.10924293,0.0449491,-0.04255994,-0.00148848,-0.05152815,-0.02527526,0.01237896,-0.01908875,0.00063148,-0.0188909,-0.05128489,-0.05817719,0.0989952
ktkpd9A8MD8,0.07580494,-0.00704429,0.10270077,0.04569558,-0.09590946,-0.02026031,-0.01568545,-0.06068606,-0.02592635,0.11826183,0.02671909,-0.03709368,0.03554122,-0.02072728,0.0908793,0.07895467,0.05974151,-0.09727835,0.01887515,-0.0105232
4Zi41MRVP0g,0.09272431,0.02382585,0.09134899,0.16491147,0.06827706,0.01078423,0.01488189,-0.09964611,0.02648669,-0.04101573,0.00575426,-0.06056734,-0.06619671,0.09671865,0.07993959,0.05433858,0.00942131,-0.03103864,0.02892588,0.00966182
FYMdllTCrc0,0.01271907,0.0030197,0.0343339,0.01858547,-0.02188015,0.2497727,-0.09327975,0.04758729,0.01127586,-0.00395647,0.24171302,0.09024144,0.01486756,-0.00946167,-0.02977967,0.05930313,0.14615522,0.03718938,-0.01136163,0.1976497
a9T6IRpz31E,0.04519227,-0.00173328,0.05188771,0.04500168,-0.03759428,0.16481556,-0.03389046,-0.05596333,0.02097092,-0.09916409,0.58286532,0.11516621,0.03972996,0.08008323,0.03529419,-0.14667702,-0.072076,-0.01615175,0.07704729,-0.19184034
HRxULulg_hM,0.02513143,0.00722123,0.04774638,0.03734514,-0.04616811,0.17073659,-0.06709927,0.04332229,-0.03706579,0.00206372,-0.01104925,0.03126294,0.06262574,0.01021142,-0.07140434,0.18510888,-0.10908192,-0.01659307,0.14058917,0.16983356
1PIbKMyFMAY,0.05433913,0.03825097,0.09762159,0.00663892,-0.0445908,0.00665298,0.01093023,-0.06527178,-0.01356256,-0.04110762,0.02195969,-0.00460063,0.00658577,-0.06733826,0.11705164,0.06948383,0.07069191,0.01792594,-0.02620905,-0.01011069
oRVJREzko-M,0.01470598,0.0046851,0.02056172,0.02231863,-0.00833662,0.08745575,-0.04219342,0.01980994,-0.00165972,0.00739852,0.00408031,0.00199625,-0.02867595,0.00059248,-0.03255084,-0.0058911,-0.00274627,-0.00119774,-0.02170738,0.00130505
aRLwX_dN8AQ,0.00788791,0.00279946,0.02982957,0.02050788,-0.02072769,0.22832001,-0.09844596,0.04591468,-0.00637276,-0.00300649,-0.02159355,-0.01433909,-0.03023303,-0.06294176,-0.27360114,0.43634631,-0.22945543,-0.00354649,-0.0381031,-0.08132256
ucN2hf0CgI8,0.02398632,0.00487697,0.02999389,0.02538309,-0.02647594,0.06955908,-0.01952204,-0.00248485,0.01790329,-0.01473205,0.04403644,-0.00271155,0.00108362,-0.00345756,-0.00518554,-0.00184711,-0.00311216,0.00823542,0.01246488,0.03236139
Y254oB1QNOE,0.02776745,0.00730482,0.03409712,0.01346781,-0.02211318,0.13896528,-0.06049472,0.01994091,0.00304248,0.00102469,-0.03385861,-0.00337174,-0.00248224,-0.01013637,-0.01982442,0.04818689,-0.01543756,-0.01381149,0.05088751,0.0137871
UM9dcnJXX0k,0.02951989,-0.00815548,0.02303187,0.02497935,-0.0076268,0.05392193,-0.00400264,-0.01549247,0.00626284,-0.00237725,-0.01430801,0.00569381,0.00706277,-0.02991031,-0.02780761,-0.04597424,0.08925421,-0.04542986,-0.04260548,0.00677812
kH_bSvf7EVA,0.00719475,0.00478912,0.01624631,0.01128567,-0.01170943,0.13573191,-0.05771912,0.02880004,-0.00301621,-0.00256118,-0.03086347,-0.00425472,0.01113038,0.05473791,0.03069149,-0.06550645,0.01706963,-0.01747621,-0.15303242,0.01074695
er7v-GJj_V0,0.09894154,0.03005197,0.08206191,0.06557291,-0.1022682,0.00135885,0.00827988,-0.0616725,-0.02746753,-0.06951189,-0.018702,0.02537638,0.00397095,0.1162803,0.03104893,-0.00045047,-0.06315764,-0.05611501,0.04379663,0.01765009
Bcag49Fk3zA,0.01839118,0.00749403,0.0419851,0.03341983,-0.03608977,0.18719923,-0.05474152,-0.04163586,0.01070655,-0.08624881,0.59998448,0.13490615,0.05814127,0.10064023,0.04731074,-0.11122654,-0.10957016,-0.00026563,0.0224115,-0.1885643
KGeCwEOLPGE,0.01876123,0.01098899,0.05059732,0.01481823,-0.02839558,0.28145325,-0.11951549,0.07277599,-0.02248502,0.06201478,-0.10781861,-0.05120836,0.00906367,0.03611888,0.00978038,0.05236666,0.1419233,0.02181511,0.24038741,0.28008222
eBbqRceO2qY,0.0757557,0.07567469,-0.01489877,0.00736216,0.00285153,0.03643029,-0.00639342,0.03201261,0.03409251,-0.00712361,0.0289339,0.01799715,-0.00189301,0.01361724,-0.02379786,-0.01674903,-0.01196316,-0.00137317,0.01822774,0.03260875
3era1_feC3U,0.00853366,0.0012989,0.0172853,0.01302127,-0.01823434,0.01426233,-0.00496625,-0.00575223,-0.006949,-0.01337454,-0.00611453,9.937e-05,0.00014101,0.00456464,-0.00438865,0.00265996,-0.016392,0.00612151,-0.01729148,-0.00464527
-uSQcEfnKp0,0.0105893,0.00019551,0.02157347,0.01428828,-0.01733452,0.07880202,-0.02515743,0.00101196,0.00348886,-0.00273251,-0.00208435,0.01320071,0.00664814,0.00077268,-0.00818509,0.00027298,0.01803526,0.01024439,-0.00578038,0.02501436
tbvteFr4SPQ,0.06165772,0.02326483,0.0985537,0.01905417,-0.05638163,0.01918673,0.00698934,-0.10421344,-0.00999595,0.01196209,0.00981639,0.00351302,-0.02859017,0.05027249,0.09199303,0.08976697,0.02762586,-0.08304891,0.01083206,0.00083977
3LnNwS6rqk8,0.07436806,0.05800441,0.07548192,0.04715029,-0.08459567,0.04016918,0.03066384,-0.11970622,0.00307323,-0.06393125,-0.00156261,-0.06110185,-0.05861965,0.09625999,0.1211572,0.08119567,0.00494118,-0.04799976,0.05170357,-0.02227304
rc-xQnupse0,0.10419633,0.02750316,0.12594054,0.08401522,-0.13175372,0.0115538,0.00164919,-0.18229895,0.00559914,0.0469017,0.00234896,-0.03399076,-0.00940971,-0.00085857,0.17003797,0.09401552,-0.01527121,-0.18819829,0.10360018,0.04601606
yk8ziJow5dw,0.01339407,0.00212246,0.04757734,0.01828527,-0.01626065,0.23073283,-0.09786567,0.06446817,-0.01160413,0.02599723,-0.09913378,-0.06031568,-0.02412159,0.01593318,0.02406114,-0.02851603,-0.16736383,-0.03704971,-0.12731428,-0.15446781
gzjXoJoWgjs,0.03903654,0.01625004,0.05388424,0.01518428,-0.0333016,0.26432527,-0.10461986,0.05374814,0.00462128,0.01045213,-0.08867676,-0.03187561,-0.03103455,-0.04994657,-0.04816497,0.12229497,-0.02523194,0.00758105,0.17737437,0.08288013
8QsAx7s9PmQ,0.01193517,-0.00239274,0.02249172,0.00197846,-0.00941811,0.06354979,-0.01628668,0.00957944,-0.00135953,0.0014331,-0.03374108,0.01100216,0.03090908,-0.01097661,0.00771381,0.00201394,0.00633015,-0.01296818,0.00704683,0.02422176
5-ASQ44GpNI,0.14794009,0.08027006,0.1490934,0.03851313,-0.09412436,0.02546568,0.03756315,-0.19102395,0.04038367,-0.07833957,-0.01178418,-0.04594994,-0.11222958,0.02163542,0.10794017,0.05141665,0.02857191,-0.02593796,0.03042668,0.02006473
BOmc_wliaRg,0.02382912,0.0023879,0.02093607,0.02469153,-0.00784614,0.03193434,-0.00509139,-0.02110672,0.00485225,-0.02235115,0.05518356,0.00987698,-0.00782314,0.02720082,0.03342534,-0.01111881,3.417e-05,0.002994,0.00032696,-0.02135392
KdmRWazuBRU,0.06519117,0.03882515,0.09893449,0.00564418,-0.05196564,0.02655221,0.02096716,-0.12187697,-0.01080343,-0.10139582,-0.00976166,-0.08615514,0.10916581,0.18076297,-0.18069923,-0.03512349,0.09417722,-0.12223576,0.03181164,-0.03016768
98ShZgIhSbk,0.02471172,0.00273838,0.05872169,0.04644806,-0.04055334,0.23716842,-0.09337543,0.04498291,0.00276107,0.04064896,-0.09293569,-0.04168835,0.00484297,-0.01150707,0.00342029,-0.09230079,-0.04113662,-0.05546213,-0.17512948,-0.21411996
if955Z_s4Ts,0.01252787,-0.00448736,0.01868426,0.01223696,-0.00985022,0.13401919,-0.05609421,0.02901688,-0.00262237,0.01845171,-0.10164523,-0.01640951,0.01867754,-0.01869254,0.03279081,-0.03221975,0.02241094,0.00202646,-0.05524827,-0.10109964
UPbaPjDGQIE,0.00978642,0.00297252,0.03870635,0.0108749,-0.01160663,0.16947242,-0.07790917,0.03509814,0.00142662,-0.00282352,0.05925662,0.03134669,0.00389152,-0.00893391,-0.04350303,0.08434713,0.04255818,0.03053036,-0.022883,0.05449568
0HSNPIttevk,0.03821694,0.00416395,0.06592051,0.04054606,2.807e-05,0.29797282,-0.12787663,0.0710284,-0.00414489,0.00405685,-0.13444703,-0.06934098,-0.02543718,-0.00856991,0.0074394,-0.00148931,-0.16261617,-0.05638827,-0.05546683,-0.14525106
8u7HqZJQHDM,0.02327096,0.00793575,0.05210952,0.04304338,-0.03674379,0.30492307,-0.10116512,-0.01746248,0.03201493,-0.09649888,0.76348823,0.17430618,0.03346018,0.09391068,0.03011035,-0.13771708,0.04058719,0.0322866,0.05850423,-0.11357362
mDh52QTqR0o,0.09840338,0.03438579,0.12068282,0.03919776,-0.08489373,0.04505673,0.05030208,-0.15570063,0.03265751,-0.08002102,0.00102836,-0.03803215,-0.02654278,0.01415711,0.0924121,0.00467235,-0.01460671,-0.01692948,0.0155362,-0.01237205
t6GzhyGTKCo,0.0103831,0.00289939,0.0434173,0.01035242,-0.01622008,0.22141895,-0.0920849,0.0571821,-0.00673896,0.01958382,-0.13787967,-0.01690483,0.00981825,0.0171596,0.04299367,-0.05455319,0.03906576,0.02111393,0.00930499,-0.0115573
1d3wR5LJ4-4,0.03754386,0.0064043,0.07582282,0.05369433,-0.07759071,0.02764168,0.01464402,-0.11451342,-0.07103576,0.00615285,-0.07976009,0.08492122,0.37929468,0.11843815,0.01377242,0.01957119,-0.14616533,0.17459248,-0.0791697,-0.11303004
48hHo2WcAQI,0.04991645,0.03365828,0.07082143,0.0478003,-0.06936811,0.04488129,0.03764391,-0.12632001,-0.00721476,-0.11191259,0.02441325,-0.08584557,-0.02860189,0.06766779,0.23010382,0.07741178,-0.04032597,-0.0273321,-0.04723522,0.08298714
5wuHYQMnYhA,0.01725245,0.00493213,0.03131866,0.0234685,-0.0244108,0.14376459,-0.06342384,0.0217324,-0.00200819,-0.01833166,0.00550484,-0.01775201,-0.03591443,-0.07008005,-0.22652642,0.34394779,-0.17843568,-0.0051662,-0.06811847,-0.1151046
iRach9lpIlg,0.01543101,-0.00667188,0.01953559,0.00421962,-0.01209783,0.00707183,-0.00416197,0.00541273,-0.00887504,-0.00689441,-0.00403812,0.00631734,0.01975851,0.00703048,0.00171303,0.00092854,-0.00028543,-6.94e-06,0.01203957,-0.00846116
up__2flbXw4,0.01131323,0.00542419,0.0269469,0.00713765,-0.01290957,0.06854453,-0.03192557,-0.00689178,-0.01451326,-0.00431543,0.06144639,0.03110648,0.04149456,0.01902899,0.03434936,0.01059025,-0.06620208,0.01204299,-0.06968224,-0.00591367
POn6IRgP5-A,0.11831379,0.01250511,0.05771627,0.03274563,-0.05429516,0.03121861,0.02995709,-0.12075212,0.05230516,-0.04322947,-0.02567489,-0.02787256,-0.11284785,0.06522868,0.01569812,0.00422385,-0.0322183,-0.03214026,0.02185731,0.07026318
RWGr8LwG3TY,0.12315489,0.03996367,0.10186831,0.06580283,-0.10866888,0.02520728,0.06039783,-0.19613335,0.05033842,-0.11260457,-0.0395033,-0.08583827,-0.0170376,-0.01111822,0.11184189,0.13213748,0.10658668,-0.01915401,0.05122836,-0.08335425
LDXkrlIxj8U,0.74011783,-0.66039861,-0.13414767,-0.07437432,0.10950379,0.02714441,0.0013214,-0.00077645,0.02320203,0.07793114,0.00340799,0.0666219,0.10381211,0.01443922,0.0586049,0.06379103,0.0507432,-0.06187876,-0.01931666,-0.05576746
tVpky2riji0,0.09175692,0.04729436,0.07437751,0.06238933,-0.05795534,0.02379506,0.03480853,-0.10779704,0.01538383,-0.04997322,-0.03130376,0.00745524,-0.03274149,0.01528149,0.04583902,0.02388569,-0.04530067,-0.00405896,0.06704391,0.02923358
aZVcAlzBIp4,0.01741826,0.01145233,0.00891963,0.01020496,-0.0120679,0.03157269,-0.01494284,0.00910204,-0.00582224,0.00098847,0.00305476,0.00174693,-0.00434628,-0.01148556,-0.00731555,0.02325358,-0.00267079,-0.00152213,-0.01009078,0.01303164
o1LnQHf3b6I,0.03696071,0.01053595,0.08287596,0.02208004,-0.03146724,0.26797562,-0.1094488,0.09149258,-0.03954415,0.01238886,-0.17156409,0.01530555,0.07998115,0.0025207,0.10829259,-0.10189738,0.04290618,-0.04313393,0.10344807,0.03661515
NRELko2BoRk,0.14999349,0.04783167,0.08530188,0.06822325,-0.10644211,0.02716821,0.043088,-0.13431749,0.01673879,-0.10328659,-0.05839805,-0.00565796,0.03794147,-0.11512225,-0.00446185,0.01515961,0.00993793,0.0051941,0.09920845,-0.10167221
LkaaMQx9uZ0,0.07099318,0.02331428,0.15385268,0.04499387,-0.11464681,-0.00099124,-0.01617753,-0.14323904,-0.00959719,0.09108718,0.05023601,-0.1041764,-0.06493437,-0.14524873,0.00272501,0.10087788,0.12854115,-0.1910545,0.01675471,-0.00687988
CPJhzRv9y_8,0.0124965,0.00456725,0.04857936,0.00040079,-0.0164829,0.13856886,-0.05059361,0.03209263,-0.00538921,0.0163496,-0.12235615,-0.04037868,-0.01654786,-0.03410341,0.01575859,0.00913742,-0.08958959,0.01644852,0.07839008,-0.06937338
GXeBi91SkIw,0.01310957,-0.00142959,0.02591471,0.02223554,-0.01124923,0.15004427,-0.05737716,0.01899133,0.00859858,-0.00430627,0.13280777,0.04254128,0.00531278,0.00339291,0.00862284,-0.0081147,0.06798942,0.0255174,0.00200067,0.05445312
YhNUPGphSM8,0.07148742,0.06086604,0.06279858,0.03666038,-0.0623497,0.02985418,0.0206165,-0.09770418,-0.00716479,-0.05828043,-0.01838183,-0.07063899,-0.04846198,0.09820792,0.11825385,0.10011424,0.06845105,-0.06811364,0.07368999,-0.05623421
gEUMAljLr78,0.06712979,0.04991466,0.06943771,0.05091011,-0.08384717,0.02782957,0.01660764,-0.11198193,-0.03802152,-0.01214052,-0.04692578,0.10117045,0.19058925,0.01409176,-0.03872326,-0.01270456,-0.08168155,0.14470072,0.00738993,-0.0645791
Cp3DxMyEBIM,0.06185471,0.00090531,0.14961259,0.05115999,-0.12434395,-0.01833714,-0.03293787,-0.14388089,-0.0752192,0.11699654,-0.06616581,0.29674659,0.10157422,0.01414916,-0.13802077,-0.05524182,0.01460766,-0.03316892,-0.05148575,-0.10775221
MqpQhyjFZQU,0.04369445,-0.03434751,0.00489305,0.00828301,0.00380479,0.0267986,-0.0027369,-0.01202576,0.00276809,0.00984851,-0.01286368,0.01211199,0.02104658,-0.0218406,0.0194087,0.02106942,0.01590831,-0.01512758,-0.00384066,0.02800586
zxQJIBt9CBI,0.07889385,0.02876214,0.07982462,0.05620704,-0.10112099,0.00353568,-0.01261212,-0.00476149,-0.02603862,-0.06476524,-0.02225626,-0.00260215,-0.05847677,0.06025797,-0.00405638,0.00437364,-0.05959406,-0.00314503,-0.03231076,-0.00313336
WeliLUboy3M,0.04128946,0.00176459,0.05075658,0.04909442,-0.02645193,0.28985639,-0.07740776,-0.00544571,0.0297588,-0.09886843,0.74268439,0.16822225,0.02543325,0.09602461,-0.00924196,-0.11181203,-0.0207218,0.00696008,0.06259637,-0.18049875
8fIRAhGGRgA,0.02210722,0.00915695,0.05549296,0.02504309,-0.02463833,0.34608372,-0.14144138,0.08057899,-0.00130157,0.01525519,0.05016957,0.02705574,0.00031452,0.04746323,0.09313264,-0.08970929,0.1144109,0.02104735,-0.05927616,0.10420177
0kHJZFOuMWc,0.06748631,0.00604999,0.17803413,-0.04351033,-0.02989311,-0.01519257,-0.01986926,-0.09813142,-0.02242253,-0.04168537,-0.00127097,-0.06835546,0.02848914,-0.01336941,0.13565612,0.17704777,0.14346149,-0.20115521,0.01293671,0.01644552
oqoBSeL5GIU,0.01321602,0.00399534,0.0422788,0.00604317,-0.01756132,0.17233341,-0.05744165,0.04131979,0.00128938,0.01282127,-0.08693248,-0.07759436,-0.03716602,-0.02090957,0.0154039,-0.00890869,-0.12502144,-0.00212819,0.01514479,-0.10476619
0Z1lChyi2W4,0.0126171,0.0002937,0.03285758,0.02323789,-0.01895342,0.16808817,-0.06919622,0.03499058,-0.00795492,0.0139042,-0.0565261,-0.01290017,0.01129179,0.00891198,0.02267054,-0.00926715,-0.05392613,-0.02144394,-0.11103708,-0.07732722
FBq_mtNPweg,0.10482585,-0.01296598,0.22967645,0.62934456,0.54294062,-0.05797925,-0.03332489,0.02523387,0.01008027,0.06932374,0.00154466,-0.02333205,0.0002021,0.09897638,0.01334959,0.03759472,0.04276617,0.13215171,-0.02055281,-0.00214653
msYTFQ4OIu8,0.02243074,0.00834148,0.05440326,0.04434838,-0.0418293,0.27476686,-0.09403779,-0.00860833,0.02196107,-0.07574148,0.51989613,0.07468909,0.01034873,0.09300111,0.03575132,-0.21687041,-0.10024987,-0.01840816,-0.03085863,-0.21978121
EGTF9mGda4U,0.01790107,-0.00190112,0.01651748,0.0166727,-0.01356479,0.0600211,-0.02411439,0.01583161,0.00576848,-0.02185333,0.07657003,0.01623876,-0.00491262,-0.00839957,-0.04999699,0.03921274,-0.01191248,0.0134371,-0.00663582,-0.02113029
QzZ4VwDHAT4,0.00737197,0.00211593,0.0220229,0.0179207,-0.01306872,0.06825445,-0.02049399,-0.00181868,-0.00244217,-0.00887223,-0.0267582,-0.00759878,0.02048924,0.02858308,0.02027694,-0.02833906,-0.01936388,-0.00883421,-0.07046437,-0.00975973
07T7V-Szcx0,0.00908831,0.00338932,0.04169594,0.005226,-0.0127775,0.22722824,-0.09059801,0.06452351,-0.00090325,0.03584577,-0.17573656,-0.03788372,-0.012283,-0.02133607,0.0626949,-0.11843837,0.07927492,0.03519315,0.02135674,-0.03640963
sKME5er1OKc,0.05794825,0.02170525,0.0840751,0.06459757,-0.09930436,-0.00771622,-0.00030168,-0.09166143,0.04026858,0.12908424,-0.0139524,-0.03505734,-0.01756546,-0.02787798,0.01113196,-0.03816389,-0.07191569,0.00799082,-0.05625765,0.06910325
wEb6ULf3TzU,0.01394738,0.00592018,0.0235478,0.01089423,-0.01591307,0.09989576,-0.04325609,0.01161578,-0.00127903,0.02078948,-0.0388412,-0.00305985,-0.01278831,0.00389808,0.0254206,-0.07519523,0.02362676,0.01742653,-0.04886107,-0.023095
-uUlnDjQxhg,0.02143321,0.01547013,0.03606603,0.02292168,-0.00756988,0.26267998,-0.10904484,0.06376476,0.01186493,0.00853796,0.09636064,0.03017646,-0.01561869,0.03194475,0.00465,-0.02585896,0.07397548,0.00683171,-0.03714623,0.12560505
JrGlAw_Q7ow,0.01665025,0.00452142,0.05131129,0.01193739,-0.03048598,0.22344431,-0.09878248,0.07632833,-0.01580729,0.03621627,-0.11549014,-0.01818059,-0.01388568,-0.0005377,0.07777027,-0.0966893,0.02688543,0.00911944,0.00340805,-0.04891543
5tW7CPAVii0,0.01302164,0.00563576,0.03780764,0.02989913,-0.020635,0.2777452,-0.12601699,0.06307008,-0.00913771,0.00141725,-0.11656968,-0.04029939,-0.01688827,0.05612697,0.0505886,-0.17597626,-0.06119971,-0.07156288,-0.2939668,-0.11339125
D4fkiQfzw_I,0.00550832,0.00166626,0.01801582,0.01377857,-0.01265857,0.08793218,-0.03532148,0.0093007,-0.00747535,0.01391097,0.01066961,0.00653608,0.01911185,-0.00601282,-0.0302576,0.1093107,-0.04279915,-0.00820277,0.04532181,0.06454313
UUzxEVhRQgQ,0.03761636,0.03188998,0.02385748,0.02767846,-0.01544985,0.00457293,-0.00121195,-0.02722527,-0.00256471,-0.02774404,-0.0186958,0.00711764,-0.02876023,-0.00191236,-0.00379779,-0.01373463,-0.01630287,-0.01406885,0.04472611,-0.00550144
P9MkPdQc74o,0.04517246,-0.01497741,0.04113752,0.03078977,-0.03639792,0.00453282,0.01745287,-0.07202106,0.01223318,0.07344523,-0.03216339,0.13229823,-0.0726642,0.01739938,0.01127819,0.04862822,0.09000951,0.03105595,-0.06266735,0.05645006
TRVnxUYQAmI,0.06482232,0.03307699,0.08021413,0.05155873,-0.07136313,0.03701614,0.06570705,-0.07599626,-0.00630666,-0.06514602,0.01125915,-0.06936881,-0.05925937,0.02628785,0.12515857,0.0748904,0.04154234,-0.02874273,0.02694434,-0.03480484
OwbaFLtBpkQ,0.01564275,0.00541149,0.04166518,0.02251799,-0.02884072,0.12551533,-0.0504277,0.00567719,-0.01369273,0.00683613,-0.00942253,0.01612701,0.023284,-0.00952747,-0.02394156,0.08208303,-0.08162864,0.00316492,-0.08200701,-0.03088287
FJNk3OGtmbk,0.06480823,0.02178146,0.24763919,0.60965087,0.54555836,-0.06162417,-0.05490144,0.02944317,-0.00807561,0.02729776,-0.00933488,0.01003781,-0.02277967,0.02610444,-0.00062345,0.01289962,-1.729e-05,-0.0125252,-0.01986368,-0.00077306
nVHr2D6tnA4,0.10303098,-0.00376119,0.09321261,0.07114782,-0.1313072,-0.0418728,-0.02937473,-0.04545475,0.24454842,0.24462727,-0.00265182,-0.0065343,0.03536849,-0.04690047,-0.02240669,-0.04165577,-0.04358873,0.06352673,-0.06887697,0.05931712
S0WQP5GeTZs,0.01482412,-0.00039741,0.03335312,0.02367101,-0.02690066,0.16594317,-0.06306462,0.02078301,-0.00193225,0.01290778,0.09529926,0.0460101,0.02857705,-0.0052128,0.01149393,0.01781482,0.05138033,0.00713491,-0.01469252,0.12160771
DSRfs1qKWR0,0.00186757,9.767e-05,0.00483577,0.00355974,-0.00525262,0.02273234,-0.01122732,0.00475161,-0.00135207,0.00146683,-0.00120959,-6.215e-05,-0.002494,-0.00744839,-0.01194091,0.00338324,-0.00306747,-0.00413244,-0.0015139,-0.00168512
9oVPXnEkegY,0.09146735,0.02143048,0.07506452,0.03481356,-0.05249284,0.03571583,0.01998753,-0.07470838,0.02932211,-0.00551837,0.01672831,-0.03655622,-0.0188265,0.00467256,0.02162223,-0.00915952,-0.08200559,0.03879309,0.02669623,0.02388683
ZUpr3u1inlg,0.05367824,0.01440609,0.08069587,0.06949943,-0.08143388,0.0228724,0.0102606,-0.11684556,-0.05171362,-0.01765668,-0.09304727,0.37018472,-0.08630549,0.00842023,-0.02170897,0.01291028,0.08188157,-0.08081792,-0.0029082,0.04410947
YPboGQjMxNY,0.01339332,0.01355868,0.00575563,0.00771767,-0.00724158,0.01682638,-0.00602051,-0.00848096,-0.0095351,-0.00632564,0.00556883,0.02282056,0.01316545,-0.00349983,-0.00055981,0.00938377,0.00560554,-0.00607187,-0.02362129,-0.02066428
iaYdIU5n6vw,0.02811923,0.0050382,0.06095936,0.02696026,-0.04531208,0.26797167,-0.11364287,0.08217733,-0.03502363,0.03068172,-0.09198466,-0.00467659,0.00994793,0.00438949,-0.03163567,-0.00453284,-0.09414594,-0.01349126,0.04632099,-0.00269519
AzNb2nQrM7U,0.03228491,0.0151923,0.04116493,0.02731745,-0.03811784,0.01425516,-0.01499487,-0.01866311,0.00272837,0.03977449,-0.00086395,0.01301392,0.0150623,-0.03495728,-0.0232425,-0.01235966,-0.04051977,-0.02993137,-0.00478385,-0.011102
ehizptRtYzM,0.06583551,0.04883384,0.07946116,0.02237293,-0.0505011,0.01273801,0.00667737,-0.06234804,-0.00017951,-0.03693862,-0.01695142,0.00072357,-0.01328606,-0.01481115,0.03616977,0.00573164,-0.0489113,0.00800633,0.0315926,0.00849196
fpmYvXCzO1c,0.01093405,0.00555372,0.02814829,0.01990498,-0.01952399,0.1826231,-0.07917053,0.03526268,-0.00726421,0.02098271,-0.03552752,-0.01651392,-0.0300571,0.00120041,-0.03167456,-0.05825601,-0.0072531,0.03876157,-0.06252481,-0.02964773
wJOakc64crg,0.04193485,0.00953862,0.06453073,0.05551941,-0.04454474,0.02363377,0.01234994,-0.07370602,-0.00493525,-0.06987169,0.02217406,-0.06759199,0.04506805,-0.00368548,0.12957947,0.03127157,-0.02530173,0.10731856,-0.03145891,0.11044914
Rax-kdRVG74,0.29646375,-0.13365139,0.10476535,0.10415361,-0.24593788,-0.18610346,-0.16517094,0.32165116,0.28483663,-0.20783271,0.01772942,-0.00330043,-0.22201116,0.09739391,0.01034063,-0.02526823,-0.10458464,0.06155732,-0.19556111,0.10177914
MWrMtRjLhjk,0.0580708,-0.00330293,0.07426193,0.05649632,-0.09032332,-0.02873336,-0.03819088,-0.04881031,-0.00848684,0.20948977,0.02262959,-0.03073628,0.00705563,-0.02603934,-0.02329181,-0.02450062,-0.01762971,-0.08552279,-0.02957975,-0.04073087
mQR17nCXUSA,0.04733663,0.03033447,0.06454534,0.05867398,-0.02325151,0.01248429,0.01060783,-0.0396729,0.00266698,-0.0131484,-0.02066087,0.0063233,-0.03047495,0.00150217,0.03224614,-0.01292031,-0.032448,0.04998727,-0.0668272,0.04061179
oixqYBAPwXA,0.0028671,0.0010876,0.00988157,0.00061707,-0.00358006,0.00547361,-0.00197428,-0.00722997,-0.00165791,-0.00592967,-0.00507691,-0.00355427,0.0065993,0.00398024,-0.00186124,0.00499064,0.00315042,0.0011119,0.00310917,0.01645943
iQxwDGnuByc,0.16693736,0.01677439,0.14741587,0.06824701,-0.12177006,0.02075206,0.02258157,-0.13981065,0.01210066,-0.02338755,-0.00178605,-0.05792276,-0.00648293,0.068429,0.1121729,0.04330126,-0.03738254,-0.02695091,0.10670377,-0.00849736
k7aOM--Ycts,0.01069694,-0.00119543,0.02256591,0.0183986,-0.01358596,0.09658321,-0.02028198,0.02092293,0.00394099,-0.01341194,-0.04207707,0.00538317,-0.01431461,-0.04014802,-0.02492497,-0.12274172,0.16623537,-0.05388699,-0.04254273,0.06156709
6WqWhSmCbXk,0.107646,0.02052527,0.1678916,0.02705663,-0.10340147,0.01143252,0.01479712,-0.13347433,0.14638619,-0.09829309,-0.00525568,-0.10080333,-0.04386143,-0.27135739,-0.12598613,-0.05985643,0.06638305,0.01681023,-0.02415682,0.04375894
FZbMPtLRr00,0.00589541,0.00297759,0.02857032,0.00571231,0.00432821,0.11480379,-0.04423198,0.03857427,0.00276703,0.02056894,-0.08922818,-0.04972404,-0.03500573,-0.01649326,0.00517318,0.01723712,-0.10322383,-0.00739883,0.04303535,-0.09270055
mbGPgjXCx24,0.09116181,-0.00148494,0.09470033,0.07866262,-0.08634336,0.02170631,-0.00320484,-0.13793071,0.00942021,0.06014526,0.02535859,-0.03264728,-0.05606323,-0.005737,0.08109471,0.03834252,-0.01138578,-0.09518976,-0.01455366,0.03933579
6r-qlEX6hGY,0.01122744,0.00140776,0.02847776,0.01184404,-0.02050665,0.07038734,-0.02617538,0.00049795,-0.00575634,0.00176175,-0.02009913,-0.00892824,-0.00176876,0.01888943,0.01550006,-0.01376175,-0.0401923,0.00191244,-0.04449506,-0.01657339
o8Z1Q8UPSOU,0.30047095,-0.02888869,0.23949411,0.12752134,-0.28897779,-0.1505205,-0.10625448,0.05504735,0.14960395,0.22087353,0.03364518,-0.12062022,-0.10866089,-0.07892216,-0.14354733,-0.05912684,-0.0014022,0.05736004,-0.08836028,0.16813103
_jxLMMcKmRQ,0.11251074,0.03050008,0.06937238,0.04119492,-0.06789987,0.02162805,0.04411169,-0.17839493,0.00479821,-0.06101128,-0.00345724,-0.0875284,-0.12571757,0.1104693,0.11501657,0.11716676,0.06314035,-0.06119156,0.0479346,-0.0192472
VjqsnOrW3AM,0.02223362,0.00076216,0.03174443,0.02217288,-0.0156048,0.21544821,-0.09349346,0.04739256,-0.02058415,0.0021988,0.02104593,0.02531248,0.01970403,0.04512336,0.0416185,-0.00794308,-0.06221899,-0.04719415,-0.09361874,0.03670396
kTlm_3HwRFg,0.01606997,-0.00198274,0.02868616,0.02336451,-0.01963662,0.09435303,-0.04174551,0.00576787,0.00343754,-0.00909762,0.01505913,-0.00125704,-0.00010366,-0.01285677,-0.00334056,-0.00018904,-0.02659744,-0.01451756,0.00507965,0.00938107
T7_l896OH20,0.07184765,-0.0318996,0.04611629,0.04271612,-0.03673809,0.00684952,-0.00381555,-0.00559537,-0.00631196,-0.02809301,-0.02583648,0.02847278,0.03953126,-0.06856345,0.00041641,0.00428375,-0.05912763,-0.03627871,0.04552919,0.02673474
dhbt8y_LXQY,0.03011978,0.01591613,0.03082758,0.0243236,-0.02863216,0.12737421,-0.05357257,0.032391,-0.01083819,0.00461001,0.02041956,-0.00509748,-0.01113249,-0.00973638,-0.05592621,0.10591188,-0.0230965,-0.00384448,0.01741024,0.03541793
BPt0fwBCDbQ,0.08932917,0.05988997,0.08058953,0.08265631,-0.09018935,0.00569832,0.0129041,-0.09260937,0.02702293,0.02895564,-0.05108646,-0.03610051,0.0142153,0.12359473,-0.15022812,-0.10648873,-0.01450084,-0.07109241,-0.00300419,-0.0723375
XfY_L8MLOsU,0.01729196,0.0025176,0.04506571,0.0294254,-0.0308915,0.1811208,-0.07832359,0.01386268,-0.01976276,0.00577111,-0.05506951,-0.00145885,0.04666955,0.01833657,-0.10059669,0.2240197,-0.1139549,0.00558416,0.19490829,0.18795248
kf9ghd5-VII,0.09535634,0.06648013,0.12673504,0.0364883,-0.09478441,0.01996631,0.00632808,-0.07631942,-0.00567628,-0.05487704,0.0011298,-0.01313234,0.01035591,-0.11278112,0.0957769,0.04059723,0.08392755,0.02838239,-0.05751613,-0.14999715
J7ieKmP96Hc,0.01397868,0.00327169,0.03381109,0.01666875,-0.0166996,0.25672372,-0.10749591,0.05764445,0.01088033,8.184e-05,0.23505728,0.08594976,0.01270262,0.00341012,-0.02402836,0.02973743,0.13541668,0.04040746,-0.02021494,0.16545718
ZAmCJoz4c4w,0.01463979,0.00050969,0.03254708,0.02305983,-0.02830514,0.14543807,-0.05672481,0.02568793,0.00233879,-0.02931074,0.00477234,-0.01662595,-0.03418195,-0.09052773,-0.24388897,0.37688297,-0.16632692,0.00661889,-0.04587591,-0.13189506
VsLOWe6VuyQ,0.01698625,0.00732435,0.0284826,0.01414556,-0.00588626,0.06921604,-0.02641991,-0.00926273,0.00471908,0.01238295,-0.00562182,0.0308797,0.07252874,-0.03327532,0.05471831,0.01421749,-0.02469861,-0.02912085,-0.02141345,0.0170255
MlcUa5-3G68,0.12119272,0.05938836,0.11706719,0.0662625,-0.10930939,-0.0098104,-0.00677669,-0.11838491,0.00182483,0.20300045,0.00808957,-0.05014437,-0.02361643,-0.05770665,-0.01437746,-0.04628775,-0.07371377,-0.04539229,-0.02783574,-0.03132224
Q5rmW96IGqA,0.00741639,0.0062003,0.01022381,0.01338635,-0.00055846,0.07413611,-0.0352306,0.02131173,-0.00679568,-0.00332044,0.03470634,0.00683967,-0.00218415,0.01279908,0.00243656,0.01381531,-0.03322491,-0.00544229,-0.00804813,0.0268668
sbzsqNJuZvg,0.01217934,0.00661537,0.04108487,0.01283784,-0.00707933,0.22833852,-0.09549036,0.07434985,-0.00098735,0.01550929,-0.12631075,-0.07983043,-0.06871194,0.02521711,0.0246431,-0.10985491,-0.13213383,-0.07100363,-0.09665936,-0.19067103
rVixyOY_Xr4,0.07535818,0.02381595,0.0848242,0.02053753,-0.047104,0.01499282,0.01777568,-0.05484561,0.085145,-0.03608815,0.01972325,0.00384421,0.04554188,-0.18631362,0.00221809,-0.03423101,0.00802877,0.05742824,-0.04666362,0.00961604
lk7HWLeXjS4,0.09443542,0.03877642,0.09099361,0.05422892,-0.05363846,0.02503476,0.02581637,-0.12110348,0.00683498,-0.03660719,-0.03454543,-0.00087675,0.07717941,0.08409383,0.05962016,0.00659566,-0.11345715,0.04256313,0.07269366,0.03386473
EFhMcL3Kf1c,0.01816143,0.00597114,0.02981259,0.0145715,-0.02570151,0.12131971,-0.05244072,0.01396058,-0.00934246,0.00214947,-0.03428439,-0.02336983,0.02554767,0.02129215,-0.06690057,0.16996164,-0.03076226,-0.01635263,0.10485473,0.08855625
Cql6TAdpPDU,0.21781412,0.22912264,0.07560545,-0.02511567,-0.01543866,0.0242946,0.01707292,-0.09292929,-0.00151302,-0.08557892,-0.04019079,-0.03630255,0.01437605,0.0278216,-0.07793047,-0.06237959,-0.00199557,-0.04386701,0.09621074,-0.09154373
SZ8r5VKtGes,0.10090911,0.05875907,0.08564533,0.05249333,-0.08232683,0.04918796,0.04717817,-0.15283422,0.01651138,-0.1015693,0.02412616,-0.11241209,-0.07656051,0.10847797,0.20574859,0.07540614,-0.03514307,-0.04892417,0.00041033,0.06855902
KKwxanUOAd4,0.05892804,0.02025059,0.11527484,0.0207052,-0.06597138,-0.01503411,-0.02864176,-0.07286059,-0.02417367,0.08268084,-0.01845704,0.01567103,0.07149952,0.00157533,0.03287052,0.0265875,-0.0355748,-0.04411691,0.03057455,0.02280214
2gFNJ6_ogzg,0.10375173,0.02917956,0.12803383,0.0917369,-0.16141604,0.00479208,0.00712708,-0.09343176,-0.02657153,0.31975256,0.00877006,0.01219022,0.06314427,0.02249313,0.01289614,-0.04715532,-0.10476533,-0.14468937,0.04956005,-0.03114012
Rvy2kXZpBtM,0.10184197,0.06232006,0.06635788,0.05307662,-0.07568079,0.03330106,0.05384505,-0.15943965,0.05663592,-0.08038891,-0.03731187,-0.0420463,-0.13610345,0.09606401,0.01943508,-0.01355419,-0.09283355,-0.01455529,0.09557644,0.06022036
RGWm_UCIWnc,0.21534891,-0.07701091,0.11923064,0.09202599,-0.20247176,-0.09065426,-0.07642936,0.1142461,-0.08593984,-0.16499118,-0.02365964,0.10374497,0.11439327,0.007673,0.02518255,-0.07407751,-0.11873647,-0.00207266,0.15514225,-0.02749388
NoXtR658c_k,0.05935926,0.01653768,0.06574006,0.05993053,-0.0499482,0.04289655,0.01230699,-0.1000884,0.03182687,-0.02848356,0.00438014,0.0031191,-0.01281018,0.00505835,0.03773934,0.00636563,-0.08423216,-0.01941474,0.01316806,0.03516004
K9S3YgFZN9Y,0.00796862,0.00133615,0.02059218,0.01390517,-0.01979648,0.06197415,-0.02647161,0.00503666,-0.01780287,0.01732832,-0.00489098,0.01723451,0.02440395,-0.00119766,0.00420681,0.04674587,-0.06355045,-0.0092999,-0.07382496,-0.00757253
9rRvmcDpWwA,0.01291508,0.00570435,0.0381242,0.02757819,-0.01858903,0.24127084,-0.10493636,0.04166637,0.00658944,-0.00566031,0.17995052,0.08464042,0.00814547,-0.02230576,-0.01961695,0.06574122,0.13818871,0.03710077,-0.00479772,0.17591655
F1gM7N-WXdU,0.02447311,0.01145281,0.04694286,0.05587859,0.00758063,0.07418736,-0.03470525,-0.00723042,-0.0036092,-0.00022007,0.02368529,-0.00769714,0.01932437,-0.01471723,-0.00097658,0.05232129,-0.03255585,-0.01043813,0.01205152,0.01182963
fKtG9uPeMCc,0.1126514,-0.0031212,0.06441373,0.05111103,-0.07503684,0.01351509,0.02023801,-0.13308864,0.00779345,-0.0589097,-0.12690057,0.3885821,-0.16958849,0.04357451,-0.04904839,-0.00814413,0.03471251,-0.03122054,0.08897079,-0.0020803
-CB2CwSPtAQ,0.02093169,0.00124385,0.04703071,0.01948042,-0.02565423,0.11170255,-0.0322237,0.01301831,-0.00064381,-0.02442902,-0.04061129,-0.05611559,-0.03705785,-0.0483995,-0.01798908,0.02097618,-0.12537479,0.00508685,0.01951847,-0.0573791
rQmlUxDeTxE,0.24461923,-0.09051244,0.21089132,0.1415197,-0.2474065,-0.10786494,-0.08594108,0.13673271,-0.17149645,-0.26512057,-0.05740509,0.11230298,0.3762252,-0.17688508,0.17053713,0.06676652,0.04713407,-0.18731273,0.38936331,0.05436095
THMW7bXTog4,0.02842645,0.00595021,0.05831882,0.02325692,-0.02852194,0.03243309,-0.00469669,-0.02965326,-0.03485988,-0.03252153,-0.0235552,0.03117139,0.08535519,0.02638402,0.04234042,0.02643784,-0.04177449,0.04029804,0.03407239,0.00890879
xhCLLakHBa8,0.04411097,0.01363655,0.05739849,-0.0091647,-0.00038281,0.0131618,-0.0074885,0.00565342,-0.00753692,-0.0324147,0.01385468,-0.00762336,0.01954194,-0.03571532,0.00822102,0.01169151,0.00734646,0.01968327,0.00391762,-0.01213142
shkHigLwBnM,0.04588728,0.02935826,0.02607954,0.02242278,-0.02765718,0.02146023,0.02233129,-0.05133221,0.00778809,-0.03834863,-0.01714778,-0.02184151,-0.02435398,0.04875363,0.04255227,0.01825212,0.0099047,-0.00191844,0.04726953,-0.02556537
-pNi4dh7VFo,0.07029621,0.03108144,0.05746235,0.02988884,-0.0546266,0.02190149,0.00955675,-0.08726547,0.02014787,-0.00801667,-0.01890256,-0.05182738,-0.06949433,0.08008169,0.0095331,0.00542213,-0.07901324,0.01971821,0.03220355,0.01890201
CdlFyd3WHbg,0.1368472,0.1023784,0.10669431,0.04501536,-0.08814235,0.00664439,0.01772928,-0.10362544,0.03489714,-0.07973034,-0.04384501,-0.05267967,-0.01492251,-0.05186548,0.03963565,0.00371114,-0.02812741,0.03125328,-0.04301621,0.0221433
iTOXHp4c1YE,0.04918979,0.02639015,0.06539295,0.04976029,-0.06689665,-0.00257196,-0.00344789,-0.05534472,-0.02595419,0.04048556,-0.0195261,0.03940373,0.11619504,-0.01005717,0.00961689,-0.00910415,-0.0460607,0.01141832,0.06312307,-0.03530001
QIKiQjEMUjY,0.03439496,-0.00330022,0.11433361,0.31529794,0.27445383,-0.01400622,-0.0394276,0.0104526,-0.00354717,-0.00291854,-0.00753834,0.00587796,-0.01123916,0.0079635,0.00753096,-0.00910195,-0.01205934,-0.01535322,-0.01342514,-0.00763494
2mOqRPcWgMM,0.02201529,0.00732946,0.03070581,0.02205956,-0.01416395,0.22739517,-0.10410423,0.05778805,-0.00821333,-0.00076047,-0.02027831,-0.00861039,-0.00180493,0.01864735,0.00775097,-0.0086595,-0.03208772,-0.02627601,-0.06050167,0.02138507
OgbLx7K5jKI,0.01171075,0.00296591,0.03277892,0.02292913,-0.02684122,0.15250381,-0.06329243,0.02000752,0.00040628,0.00760649,-0.02837463,-0.01549928,-0.03349739,-0.00447788,-0.0467964,-0.01285923,-0.02500594,0.02375295,-0.03960862,-0.00185485
AHyZdLVYJfc,0.0507157,0.05360926,-0.00522917,-0.00070227,-0.00200566,0.0770353,-0.0276603,0.02981644,0.02670015,-0.00224199,0.00324977,0.01104972,-0.00091681,0.00734618,-0.02131394,-0.02540728,-0.00226819,0.00866924,-0.0148275,0.00744246
ftk4VdOcaj8,0.12081819,0.04862057,0.16770938,0.08879382,-0.16257959,-0.03409428,-0.02692037,-0.08584256,-0.02352007,0.28774522,0.00693421,0.05036823,0.06976143,-0.16515996,-0.01294416,-0.01466097,-0.01658765,-0.00637528,-0.01037596,-0.01242595
dqOmDZPkIF4,0.11473891,0.04059459,0.17270997,0.04384459,-0.09867321,0.00804509,0.01549764,-0.20101474,0.07975239,-0.20287454,0.04323354,-0.3302361,-0.12840926,-0.23874076,-0.39222077,-0.14020163,0.2429605,-0.14835745,-0.01957184,0.24705459
bfENsVP77VQ,0.05685273,0.05132288,0.024244,0.00969264,-0.01785124,0.28093329,-0.10791901,0.08763409,0.03258549,0.00476354,0.05056822,0.03188675,-0.00471317,-0.0403212,0.00343315,-0.04224978,0.12817799,0.0471918,0.05809815,0.09918413
x2r3FTy9HHE,0.02054615,0.00653789,0.03491901,0.01857457,-0.02492234,0.18483554,-0.07893245,0.02170611,-0.00799532,0.03971916,0.0843765,0.01869435,0.03565802,0.00523267,-0.04547854,0.12601151,0.05063511,0.01279604,0.07242293,0.17527063
hXPy19kPego,0.05725582,0.03642232,0.06474177,0.04179686,-0.06511251,0.01629925,0.03863442,-0.07332415,-0.00760873,-0.04654803,0.00483613,-0.0629835,-0.04072049,0.05472748,0.09787065,0.09041625,0.05209503,-0.0645356,0.01696117,-0.02596146
7FYFhOiiMIU,0.01103117,-0.00013319,0.03321464,0.00138486,-0.0086124,0.13618656,-0.04458925,0.0271371,-0.0002515,0.01741602,-0.08428985,-0.05581445,-0.0319379,-0.00936134,0.00729477,0.00401031,-0.09524826,-0.03164663,0.02549363,-0.0808989
kmKuk_TCEvU,0.1267095,0.03001226,0.10386494,0.07519246,-0.11959502,0.02727297,0.04453665,-0.17877605,0.0629785,-0.03059324,-0.01587635,-0.08255336,-0.07199139,0.13170663,0.04170377,-0.03690115,-0.12317721,0.11277596,-0.02290031,0.09496825
s23TO2BQBcU,0.13797224,0.09483663,0.09166036,0.07532556,-0.07163037,0.03692275,0.06662167,-0.17693941,0.01302869,-0.11452236,0.03673193,-0.12254037,-0.01923857,0.13404509,0.13295043,0.12584322,0.07464003,-0.09376977,0.0019249,-0.05204611
CE6tiT3Q6c4,0.09128019,0.04886715,0.12658659,0.08511945,-0.14987383,-0.00694535,-0.0160767,-0.11517874,-0.05253608,0.23854001,0.02264347,-0.06216676,0.05071524,0.09398055,0.04936201,0.03424659,-0.0017988,-0.1529163,0.03703172,-0.07541958
9opMZrn2-zg,0.01475073,0.00471608,0.06403227,0.00163943,-0.02261545,0.26120993,-0.09644205,0.07465021,-0.00280404,0.042184,-0.21332559,-0.04962361,-0.00347858,-0.02664948,0.07449596,-0.09259182,0.08504384,0.0488404,0.18095677,0.03603936
0VjrLsr61pk,0.08305973,0.06694831,0.08692215,0.03753912,-0.08009453,0.02492995,0.02789154,-0.12346265,-0.00471911,-0.0791551,-0.00212621,-0.08613921,-0.07236012,0.11221195,0.15565124,0.16011044,0.11173912,-0.09451985,0.05829008,-0.08610359
kXenRXelpKs,0.00973387,0.00080516,0.02233725,0.01120564,-0.01704594,0.11200299,-0.04256469,0.01206536,-0.00305319,-0.00201853,-0.01902035,0.00124486,0.00969267,0.00620145,-0.04151981,0.07075377,-0.05324438,-0.00115612,0.06292491,0.068068
LKxIrZFhONI,0.03024187,-0.01409145,0.02116116,0.02400267,0.00174243,0.10003561,0.00248754,0.0032371,0.01565897,-0.0054177,-0.03493885,0.01436598,-0.01035325,-0.05723267,-0.06395928,-0.12858415,0.18471812,-0.0823285,-0.08940149,0.02845729
TfojYStTlZE,0.06860936,0.01255873,0.100108,0.08290318,-0.1159018,-0.01441572,-0.02918251,-0.04001137,-0.01410931,0.16884391,-0.01457556,-0.00812418,0.00425277,-0.09942538,-0.04433302,0.00186432,-0.06308172,-0.04967067,-0.03548885,0.04943048
yy_J5fdELm0,0.00919189,0.00105795,0.02530926,0.01919356,-0.01698749,0.11826562,-0.02622303,0.01078401,0.00865191,-0.01043134,-0.05217353,0.01291791,-0.00860025,-0.02332436,-0.0467869,-0.14501707,0.1663648,-0.06930989,-0.10864673,0.02204844
21UbB1_pq3o,0.03245691,0.0185896,0.0420188,0.02388158,-0.04084253,0.02001364,0.00398845,-0.09030746,-0.00018864,0.00664338,-0.04409181,0.2705234,-0.11612981,0.02287373,-0.03135966,-0.00560049,0.04380748,0.01135234,-0.03506618,-0.01659386
sjbKZ4CY1Ow,0.02679194,0.00722579,0.05111797,0.02110421,-0.03690196,0.30103408,-0.12208535,0.06797689,0.00191531,0.01217939,-0.00263789,0.01466719,0.01297028,-0.01708227,-0.03145882,0.10930949,0.03879409,0.03053242,0.1250567,0.16213092
-X2P40t70LM,0.10083279,0.00586589,0.13261243,0.04497154,-0.10863242,-0.00231286,0.02213677,-0.25154885,-0.01289834,0.16985438,-0.1582392,0.73388436,-0.30813308,0.01182824,-0.09529246,0.05205314,0.20150253,0.01184496,-0.13795155,0.01714475
s9TcINJc2pw,0.01669663,-0.0007053,0.05557751,0.01014433,-0.00864141,0.33804362,-0.13888081,0.10042684,-0.00567258,0.04282767,-0.23486656,-0.05855872,-0.02028543,0.00849201,0.11025941,-0.17743758,0.06309049,-0.04753487,0.01439904,-0.14610899
na5Enw8P18A,0.01921875,-0.00894449,0.02269127,0.01526507,-0.0051015,0.11224247,-0.02258725,0.01594819,0.012105,-0.01314326,-0.06594462,0.00249222,-0.02195015,-0.0444632,-0.05181521,-0.15127776,0.17064396,-0.07691447,-0.08583715,0.00973537
1VSBgPn28zA,0.01579053,0.00191309,0.05879174,-0.00371996,-0.01065714,0.24869137,-0.10071533,0.06769528,-0.01485607,0.03178957,-0.12883875,-0.00456537,0.01362024,0.00488248,0.07722247,-0.07781485,0.07664499,-0.01168211,0.03546179,-0.01431248
MK3Lz4fAvZo,0.05067482,0.03490328,0.05383236,0.02799367,-0.04550751,0.02525399,0.02385598,-0.06911951,0.00831597,-0.05364387,-0.01728062,-0.00720575,-0.04450799,-0.00645579,0.01556364,0.00728638,0.00400924,-0.02067788,0.04477116,0.01336181
IldLswg2yAM,0.10395328,-0.02873206,0.04174744,0.02111498,-0.03709203,0.04523023,0.00554196,-0.07495575,0.0195851,-0.00897427,-0.00426394,0.0331044,0.03802125,-0.10749312,-0.00647792,-0.0443169,-0.01065394,-0.00484379,-0.08813294,-0.00780519
uSjcVPbJayU,0.10293921,-0.00142591,0.10572624,0.07537096,-0.09818532,0.02399503,0.06494061,-0.20481614,-0.02802811,0.01274743,-0.09345905,0.32622391,-0.0351629,0.09545978,0.00055254,0.0819352,0.14945557,0.03208565,-0.11925152,-0.01840245
wN3O2GSvoWE,0.06007528,0.01308462,0.0909473,0.0199769,-0.05338109,0.02230837,0.01958498,-0.08928674,-0.07340761,-0.03081471,-0.00849549,0.04942607,0.13839233,-0.17641456,-0.0257147,-0.05190129,-0.01400307,0.09225791,-0.04791739,0.01064169
XXZ2wOom1l0,0.08546263,0.05651402,0.18123586,-0.07446036,0.01449872,0.00982056,-0.00964172,-0.115681,-0.00952994,-0.10308934,-0.01932924,-0.0697512,0.14910286,0.16944544,-0.17609892,0.00213521,0.14656134,0.00036319,0.02742898,0.01496365
eYDQWSBQ47s,0.0681181,-0.0056488,0.09296738,0.07035601,-0.06309497,0.01559197,0.01945495,-0.10387322,-0.01121323,-0.05243545,-0.01234272,-0.04206925,0.05417243,-0.03886342,0.06823032,0.05931338,0.05846144,-0.04881227,-0.01925404,0.03827286
nnKkk3CpLes,0.03536717,-0.00193917,0.06270399,0.01716902,-0.00972101,0.0303914,-0.00888671,-0.0425883,-0.00333815,-0.02954776,-0.01160327,-0.00365013,0.04378587,-0.04585975,-0.03710294,0.02009163,0.01444295,-0.02025424,-0.01574345,0.00392655
WwEyLRmGU9g,0.04363076,0.01685719,0.13587914,-0.01640507,-0.04328626,0.0002159,-0.00828115,-0.08655153,0.019744,0.00038499,-0.00665502,-0.04824576,0.01432855,-0.00642626,0.01245013,-0.01349768,-0.01980827,-0.05836887,-0.10132999,0.04478616
tUmd3tWCDKs,0.00683234,0.0024814,0.02669439,0.02265535,-0.00678027,0.22967458,-0.1026666,0.06033434,0.00380905,-0.00539295,-0.0726319,-0.03534043,-0.02977975,0.05788767,0.03835402,-0.14791959,-0.04241802,-0.0699746,-0.22471333,-0.11804476
FbRnMwKmmTA,0.08980287,0.06242123,0.14925324,0.00287982,-0.05615963,0.03296106,0.04218765,-0.14321095,0.04247145,-0.08981362,-0.01512915,-0.01203511,0.01666988,-0.32547277,0.02249635,-0.02156259,0.07730624,0.20578012,-0.01692721,-0.09488615
SK7yqZdN3Dg,0.23391349,-0.01994274,0.19030573,0.04774753,-0.20560519,-0.16949088,-0.11704638,0.21203083,-0.17559264,-0.15313605,0.01578353,-0.10758444,-0.00839271,0.0647827,0.04409663,0.16830876,0.30952438,-0.09177856,-0.22946234,-0.16384041
Y9HJ_U3TdXk,0.01258207,0.00109454,0.03654865,0.00874806,-0.01941608,0.14777461,-0.04848048,0.03006295,0.00429917,0.00735435,-0.05660737,-0.02397349,0.0085169,-0.01897462,-0.02878404,0.03206503,-0.00307675,0.02247915,0.03944289,0.01517673
yA-SufBCL7g,0.91870927,-0.7574139,-0.15450017,-0.07699253,0.09942793,-0.01598618,-0.03182832,0.07735696,0.65134536,0.01918523,-0.02106018,0.0651637,0.11530133,0.04940975,0.03828749,0.05551183,0.02056054,-0.07998314,-0.00872771,-0.05662952
3OUrr_2UCYs,0.01499137,0.00435821,0.04649304,0.00073488,-0.01150944,0.24412257,-0.0979109,0.07042645,-0.00330876,0.03647201,-0.10846052,-0.01239309,-0.01279921,0.00021703,0.06265225,-0.04572739,0.07811687,0.02649059,0.1385828,0.05646165
d0VoQtmw9Eg,0.14396635,-0.01033656,0.11034612,0.03506111,-0.11338977,-0.03916449,-0.02010678,0.02903625,-0.00896335,-0.09160205,0.01762503,-0.01498102,-0.07890988,0.05507972,0.01116649,-0.02294972,-0.09715893,0.05522296,-0.02104553,0.03380602
yIUDe9YH0ac,0.01585222,0.00786591,0.03256253,0.01806363,-0.02453152,0.06739445,-0.02247142,-0.0096467,0.0028025,0.00498614,-0.025955,0.00327817,-0.00270809,-0.01518745,0.01067171,-0.01025623,-0.02182608,0.02823495,-0.02572629,0.02987368
ZhRgnBzcYHQ,0.09614415,0.05351827,0.21483615,-0.00408965,-0.04659122,0.03108907,0.026016,-0.15447164,0.00014102,-0.12000666,0.01445032,-0.05915604,0.06055824,-0.20038964,-0.10612166,-0.05216966,0.03009813,0.02991394,-0.00569956,0.07172563
Aa1qfpfSaVY,0.01426009,0.00105428,0.05063459,-0.0002716,-0.00972519,0.21810186,-0.07971118,0.05555774,0.00758716,0.02429769,-0.10606005,-0.03160367,-0.02112135,-0.00903416,0.03687188,-0.04395689,0.03849941,0.02128408,0.07336421,-0.03355434
RCl-cN1Hf-Q,0.10025422,0.0582972,0.28228671,0.67292803,0.57035152,-0.04678633,-0.03504329,-0.00342184,0.00086734,-0.03090922,0.0224623,-0.02071664,-0.03901578,0.04358597,0.04313194,-0.01733088,-0.03574758,0.00449736,0.03477049,-0.03775282
1X8BPKi1kP8,0.01642605,0.00214059,0.0405523,0.02352899,-0.03420056,0.14298364,-0.05155504,0.01427828,-0.00267147,0.01271221,-0.03167953,-0.01476342,0.01975188,-0.01566032,-0.0297157,0.0969524,-0.0232781,0.01378477,0.093126,0.0922505
nGakcu0V0ZM,0.0129096,0.00669016,0.0263907,0.01676016,-0.02106188,0.14250297,-0.06476867,0.02813132,-0.02404063,-0.00342917,0.04953968,0.02912941,0.02056997,0.05381528,0.0362897,-0.02502504,-0.102485,-0.02949343,-0.19837456,-0.03207639
KztyymfW3Dg,0.12066332,0.06839265,0.14363909,0.30167276,0.17825029,-0.01326338,-0.00979375,-0.0359301,0.01563821,-0.02002428,-0.01552722,-0.03261263,-0.04053305,0.02991541,0.02160306,0.01912752,-0.03838926,0.03246651,-0.03405388,0.03267153
KXpgCNB6Dcs,0.08737826,0.04574338,0.08373691,-0.01673167,-0.02069686,0.0050788,0.00512866,-0.09693983,0.04553695,-0.04265545,-0.01296279,-0.04848755,-0.08585186,0.09518758,0.00982578,-0.01366529,-0.05201571,-0.01274546,0.02049039,0.03057515
_9bYQ2tvc_s,0.08291047,-0.00687124,0.07003915,0.05221675,-0.09108151,0.01274677,-0.03036587,-0.07404355,0.02264138,0.18305164,0.02745662,-0.03679876,0.00122348,0.02717667,-0.02486631,-0.01505462,-0.04429593,-0.0533511,0.01940969,0.03269534
nHH771Vtkxw,0.06721953,0.02663224,0.1162111,0.03781183,-0.07529377,0.00861588,0.02266145,-0.13536908,-0.05092441,-0.03786768,-0.09870566,0.23488377,0.22217258,0.00101735,-0.00973837,-0.00544865,-0.0986159,0.18138399,-0.00803314,-0.00061688
GAf7J_t1o8U,0.11688556,0.05817807,0.14028838,0.03129884,-0.07932943,0.06954902,0.10743328,-0.14012764,0.07284099,-0.05322064,-0.02487676,-0.09592547,-0.17045659,0.031702,-0.00969885,-0.01728367,-0.07421731,0.07866122,0.10713797,0.0012146
o8YcWD2ri9U,0.00990891,0.00443295,0.02517652,0.01898194,-0.01571809,0.17139246,-0.07378879,0.0290467,-0.00121323,-5.372e-05,-0.0254862,-0.00906329,-0.00663693,0.01142087,-0.01686982,-0.02340008,-0.01830541,-0.00161165,-0.0765122,-0.04313886
9VyCOVdFpL8,0.00872468,0.00294966,0.02979978,0.02162787,-0.01844415,0.22157332,-0.09394609,0.04605992,0.00149859,-0.00100157,0.10044364,0.04419248,0.00360082,0.00110204,-0.012588,0.02275811,0.0537536,0.00420292,-0.07453927,0.06085908
fr78adfAnuA,0.02174204,0.00416642,0.07529111,0.02122745,-0.0358471,0.36469241,-0.14451721,0.06070958,-0.00347278,-0.00179061,-0.06776508,-0.07045233,-0.07557539,-0.07398158,-0.31585479,0.54008382,-0.32473881,-0.02527454,0.07538857,-0.14086947
YR-4vFbwe18,0.08498401,0.03083541,0.14249872,0.04866663,-0.10304607,0.00825742,-0.00951085,-0.12919092,-0.00366144,0.1196964,-0.00509087,-0.04076172,-0.03268141,-0.01330775,0.03953266,0.08125004,-0.01264902,-0.01184691,-0.07629388,0.00805535
UgfrzicHc80,0.03243695,0.01075521,0.11869787,0.26308689,0.17592393,-0.00536336,-0.03189156,-0.01186552,-0.00454853,-0.04587883,-0.0090566,0.00447716,-0.0025572,-0.05120404,-0.02903232,-0.00328497,-0.00101308,0.00644305,-0.00760842,0.03737298
nH8YRX4Stfs,0.05307619,0.03989272,0.09950962,0.02952066,-0.02123645,0.04382928,0.01652438,-0.11708817,0.01322905,-0.06347755,0.03987979,0.02517696,-0.00599559,-0.12141421,0.09268559,-0.02277544,-0.04851114,0.03708072,0.00046008,0.01816817
enQeP-ztP5A,0.08342281,0.02832211,0.0554715,0.013023,-0.01603683,0.02034723,0.00843954,-0.06009308,0.01528839,0.00958537,-0.00471231,0.01144144,0.01003572,-0.01773916,0.0230261,-0.01793181,-0.0425289,-0.00222255,0.00763124,0.01186712
lB_XJmoBLjw,0.16346249,0.13008632,1.01745105,-0.81156267,0.45869254,-0.11648705,-0.13546678,0.04532856,-0.0152539,0.01003902,0.0188917,0.03341523,0.01962247,0.03030679,-0.01369089,-0.00058254,-0.01071204,-0.01974306,-0.02491367,0.01928176
zj0BKLv9r8Y,0.16546667,-0.03289945,0.0968339,-0.00944197,-0.02116969,0.05309182,0.01661276,-0.15033664,0.02910897,-0.03820751,-0.02254974,-0.05740682,-0.06141116,0.09044883,0.13141915,0.13272074,0.04048501,-0.08795392,0.01768612,0.02438251
95KqKaDsIAM,0.08121464,0.04070482,0.09477337,0.07532913,-0.07717765,0.03478434,0.02451116,-0.11609966,0.00937272,-0.04809483,0.02767658,-0.00888669,0.07915452,0.00526501,0.00951528,-0.05151854,-0.0572203,0.01523897,0.0952991,-0.03445449
wnoSOSgBNHk,0.06987891,0.03030788,0.05861634,0.03874653,-0.07684898,0.0171508,0.02541717,-0.10516863,0.02008455,-0.06728464,-0.02873372,-0.09861914,-0.07232194,0.13261652,-0.03026204,-0.02258299,-0.02756114,-0.01055834,-0.01357389,-0.02371289
GybLbhXj2Nw,0.01890791,0.00109812,0.03715051,0.02548943,-0.02078373,0.24280271,-0.0955698,0.01809688,0.01461752,-0.00555065,0.21890284,0.09739373,-0.0142929,-0.02336916,-0.00346199,0.05319066,0.14793645,0.03824002,0.01293635,0.20251508
KfaPxlvQx1M,0.07569146,0.02403471,0.28701526,0.74241939,0.62749333,-0.08121707,-0.04278111,0.03880738,-0.02222775,0.00491056,0.01282674,-0.0364751,-0.01995541,0.03684602,0.08141882,0.0842068,0.08490391,-0.03507903,-0.01529475,-0.04841094
XeN7wKfDOPk,0.01670542,0.00196167,0.03685929,0.03792458,-0.0111267,0.12014709,-0.04878837,0.00182039,-0.00580021,-0.01712713,-0.01836279,-0.01648792,-0.00032091,-0.01735457,0.01582488,-0.03875199,-0.03477501,0.0094224,-0.05360376,-0.03070553
crrTHKN_R58,0.06574154,0.05085833,0.06757303,0.05323274,-0.05525037,0.01943131,0.01784705,-0.10991646,-0.02361596,-0.01359712,-0.03510909,0.07135142,0.17394155,0.02941046,-0.01104075,-0.02702379,-0.09920473,0.09265232,0.00717267,-0.05397652
gPmmDEGCQLg,0.04716702,0.00227028,0.09683358,0.06768088,-0.10608809,-0.00078313,0.0019224,-0.06704909,-0.07557782,0.01754112,-0.0500084,0.04502088,0.25911619,0.11158062,-0.05159814,-0.01451122,-0.04932845,0.07420549,-0.03316632,-0.09527096
h9kh7KssnMc,0.08437396,0.0346682,0.10625766,0.04027643,-0.06937279,0.02293971,-0.0012244,-0.09684436,-0.00881806,-0.01786437,-0.0021277,0.0109926,-0.01702373,-0.00907598,0.06018095,0.02258699,-0.08618084,-0.00716311,0.04474066,0.05142693
OEqMxMEBQQY,0.04329457,0.01119459,0.0942601,0.04676021,-0.07000746,0.01743777,0.00476395,-0.09898377,-0.06428323,-0.01253299,-0.06822644,0.06075002,0.32075924,0.07032977,-7.319e-05,-0.01063506,-0.1573305,0.16776103,0.01233449,-0.02600195
w_Z0cdu9c9I,0.02871818,-0.01530954,0.02628133,0.01725033,-0.01384381,0.01102056,-0.00177137,0.0011369,-0.02136568,-0.01514394,-0.00295444,0.0276866,0.02043769,-0.01490053,0.02293699,0.00154312,-0.0153493,-0.01618258,-0.02344178,-0.00568485
_FP4gbF0KWY,0.11152,0.07648248,0.05184288,0.05101551,-0.08205214,0.0063464,0.03188955,-0.04438599,-0.03754416,-0.02103643,-0.02352773,-0.05195289,0.20533367,0.30877318,-0.2364427,-0.05716929,0.15107178,0.07551231,-0.01187766,-0.00252049
ByJAH8vTgfw,0.06451113,0.02303164,0.12554062,0.06315232,-0.12168192,-0.03698758,-0.00813723,-0.09180017,-0.0240573,0.13732068,0.04660782,-0.10461749,-0.02446695,0.04765381,0.18330214,0.21625243,0.21506751,-0.1829555,0.00282248,-0.11377204
quCJwkDAx0g,0.01861153,0.00337271,0.042235,0.00713463,-0.02077218,0.10899726,-0.04355974,-0.01801637,-0.00499202,-0.03587462,-0.04726799,-0.0393611,0.07482884,0.09776348,-0.13789385,-0.00264607,0.0708028,-0.01310974,0.05003997,0.01845853
vTXoE7BLv9s,0.06239882,0.02231695,0.06409756,0.04441132,-0.06497991,0.03395962,0.02976577,-0.08388258,-0.0096843,-0.05812246,0.01787865,-0.04049162,-0.00484829,0.0173392,0.14007209,0.06870141,0.01293136,-0.05554557,0.02807839,-0.01906898
q1l42BPzbIk,0.02371672,0.01027736,0.04442752,0.03325584,-0.03415421,0.00568057,-0.01496228,-0.02998493,-0.01036228,0.05329638,0.00150597,0.00956826,0.02055331,-0.02675916,0.02028573,0.00403967,-0.01383117,-0.05911386,0.03774795,0.00530901
sj1y9FDJKCM,0.01427865,0.01207406,0.0375717,0.00316656,-0.01026731,0.29076,-0.11911643,0.08767688,5.39e-06,0.03591488,0.02285433,0.01355357,-0.01842018,0.01003763,0.04012793,-0.06989634,0.1555049,0.0516547,0.06988608,0.10639412
6UPfq3KETg4,0.03885466,0.01904226,0.09406917,0.00637168,-0.0357603,0.02910166,-0.00845978,-0.0850766,0.00981505,-0.03563914,0.01852724,-0.02138437,-0.01587314,0.00231503,0.03469308,0.01042932,-0.01593673,-0.05159244,-0.0264952,0.00086752
XFpBgNMBNNI,0.01264893,0.00734599,0.03218128,0.02635925,-0.01520705,0.22166346,-0.09063701,0.02983399,0.01132914,-0.01055356,0.18176488,0.06332036,0.01170372,0.0202178,-0.02746578,0.05395511,0.0631943,0.02847704,0.00374739,0.13294823
f2fDaAMvlV4,0.06781747,0.01153808,0.22886257,0.59811856,0.51868659,-0.05634333,-0.05749256,0.0313629,-0.00052023,-0.03349902,-0.00161117,-0.02109477,-0.00145573,-0.01026561,-0.02889281,-0.01081571,0.01223129,0.00877765,0.00960889,0.00645761
LDQnGP6iSH4,0.10810323,0.06141287,0.14368753,0.10002901,-0.16770958,0.00353166,0.02600455,-0.18799309,-0.00450363,-0.00790052,-0.05461071,-0.11043359,-0.04979172,0.12911012,0.07683277,0.02338974,-0.03988422,-0.05194333,-0.03699451,-0.03590261
VKaslzzv1QM,0.06100255,0.03618915,0.08357421,0.05686329,-0.05518528,0.04519285,0.03927063,-0.15278708,0.00895934,-0.07842828,0.00409581,-0.02940953,-0.00599885,0.06734315,0.07203641,-0.00102282,-0.05546112,-0.04072758,0.0089768,-0.02174658
HyO6rMqRXw0,0.07439975,0.03741997,0.03297942,0.01913324,-0.03741623,0.02127924,0.02813787,-0.10096556,0.03605667,-0.04110727,-0.01619501,-0.04333756,-0.06466899,0.09342283,0.01828355,-0.00539052,-0.06311776,-0.01617796,0.01636375,0.01835631
0DB_Qj43O6Q,0.01786409,0.00119929,0.02979926,0.0274792,-0.02736804,0.05404671,-0.02106504,0.01838371,-0.02315923,-0.00553307,-0.0178385,0.05330626,0.08218441,-0.00474398,0.02046394,0.00809791,-0.01855257,-0.04831293,0.03196351,0.0324939
UEBpQgCIFTk,0.09135159,0.02409404,0.08531934,-0.00037401,-0.03428891,0.01265724,0.01568311,-0.12314459,0.05199663,-0.04323676,-0.00831337,-0.04803009,-0.08756749,0.05816629,0.03352079,0.03229344,-0.02659962,-0.03595709,0.01364922,0.04776066
3GUtClCifjw,0.05653215,0.02404659,0.09162892,0.06958517,-0.08545643,0.01687768,0.03242401,-0.06569421,0.00863294,-0.03736963,0.00094778,-0.05755801,-0.04355896,0.03733718,0.05091488,-0.0199977,-0.03113304,0.17062893,0.06546645,0.0628068
UszcZZ1QZho,0.13179224,-0.05094266,0.05771037,0.03850191,-0.04208759,0.02125203,0.05204643,-0.01743128,0.06505945,-0.00773559,-0.02707543,0.0229406,0.04920661,-0.16169051,0.00400818,0.00663689,0.00294535,0.04553778,-0.05845905,0.01333728
Lnhy0tZ8SUI,0.02198899,0.01460467,0.04028694,-0.00301727,0.00079642,0.20372839,-0.08546848,0.06475663,-0.00141544,0.02525939,-0.14076801,-0.05936336,-0.02713154,-0.00965346,-0.02050506,0.06241239,-0.14295844,-0.01804596,0.10409813,-0.08666746
WEnvorobhEE,0.02524892,0.00063848,0.04262368,0.02843637,-0.03850613,0.09600492,-0.02651067,-0.00725505,-0.00156161,-0.02035793,0.024489,-0.00161083,-0.00191294,-0.03294097,-0.01855267,-0.00567518,0.00198539,0.00503595,0.01242197,0.04725507
0elkAIACdFE,0.10659789,0.03850615,0.13577533,0.11238113,-0.17574234,-0.04761501,-0.05503534,-0.05391865,-0.04874736,0.34575307,0.04858312,0.0054834,0.12364324,-0.12863483,0.00389055,-0.0578513,-0.04982269,-0.19344972,0.10275085,0.07333359
LK1OJ-izQfQ,0.01221587,3.86e-05,0.0238432,0.01423211,-0.02304425,0.1226229,-0.05222409,0.01669307,-0.01733088,0.01582237,-0.0712699,-0.00738412,0.03210342,-0.02832718,-0.01786768,0.12336529,-0.06297213,-0.04975745,0.06705009,0.03358138
qGDMB-PryIU,0.02402915,0.01223068,0.04496002,0.03943515,-0.02610736,0.19476039,-0.07669737,0.01678233,0.00185452,-0.00147522,0.06609042,0.01479857,-0.00902697,-0.03848849,-0.02621738,0.02854237,0.04957237,0.03605391,-0.00386559,0.05879579
RNUjufFVGXs,0.03178644,0.01523674,0.05328323,0.03155211,-0.05426162,-0.00531478,0.01536576,-0.03798549,-0.02176584,-0.01725261,0.01906224,-0.05537855,-0.00610344,0.02238068,0.14755529,0.14891997,0.13592419,-0.0586573,-0.02236063,-0.04358824
krqt6eg3UoI,0.07751655,0.05206778,0.06572303,0.04863654,-0.06515228,0.02812792,0.02051645,-0.08813249,-0.00995602,-0.05943108,-0.00172988,-0.07976698,-0.04682307,0.0799459,0.1458398,0.1238189,0.10335003,-0.06392492,0.03280273,-0.07296744
r6AB_e8Rk1I,0.09161172,0.07516786,0.06091131,0.05194965,-0.07391133,0.05576196,0.03928027,-0.17614576,0.00233646,-0.04943789,-0.0720567,0.27575328,-0.1880647,0.03347441,0.0271513,0.0477241,0.05512401,-0.04369254,0.04216086,-0.0453559
pra3fiwosjU,0.05598834,0.01481325,0.09812427,0.07369915,-0.0738745,0.01199189,-0.00494035,-0.06620334,-0.02207922,-0.04416399,-0.02092057,0.02029302,0.08538657,-0.11833838,0.01551411,-0.00095524,-0.0024102,-0.05448663,0.06720457,0.11047295
PN8bHAr0f1M,0.00724547,0.00297128,0.02666102,0.01838049,-0.01725894,0.22463347,-0.09595737,0.04669012,-0.00127149,0.00718336,0.08688944,0.04478869,0.02629124,0.03603607,0.0241475,-0.02164065,0.09666601,0.02334434,-0.08363097,0.07131136
oj3-hWAf1uQ,0.05274994,0.02538002,0.10253653,0.03938559,-0.04687716,0.00098635,0.00983118,-0.06115896,-0.04366192,-0.03172776,-0.04517146,0.02694407,0.10480827,0.01385654,0.0617578,0.04833894,-0.00369214,0.01836196,-0.04852238,0.00130539
N8Bc_M2Ew2E,0.10593677,0.03777513,0.14329712,0.05257311,-0.11007661,0.01524179,0.05400723,-0.13382194,0.01664719,0.04825513,-0.05803757,0.00742165,0.211758,0.07726426,-0.03316671,-0.03534422,-0.15336105,0.31776414,-0.09262179,0.04733298
U14_qm5y38o,0.05763497,0.04033524,0.09459983,0.01539723,-0.04329831,0.0175086,0.03820015,-0.05519175,0.01291028,-0.01249334,-0.02789252,0.02125263,0.02168552,-0.09329854,0.02224032,-0.03324098,-0.10912729,-0.00337064,-0.1180182,0.07910168
rk2b7fH_Gcc,0.07225692,0.05234338,0.09119065,0.01699608,-0.04478434,0.03275554,0.02441693,-0.11759705,0.00524122,-0.08877806,0.03195947,-0.05658233,-0.01850594,0.02333792,0.15901038,0.00255033,-0.1223288,0.0273366,-0.01650361,0.11214625
8Uk97zU2GCg,0.05031058,0.01595092,0.0375447,0.02987849,-0.03384623,0.0310934,0.00872595,-0.09075928,0.01579189,-0.06040694,0.02158819,-0.03061561,-0.01631249,0.02443485,0.14382714,0.02813821,-0.0595207,-0.0087613,-0.0136779,0.07816943
Hf6NC8AzAKo,0.1117749,0.07835989,0.12660752,0.00582912,-0.05943363,0.03012639,0.01543812,-0.15341628,0.0063139,-0.02564279,-0.03348156,-0.02649235,0.00668034,0.00109549,0.00067695,0.00407205,-0.02983858,-0.07107937,-0.03281451,-0.02265373
31WQ21L6kE8,0.01753398,0.00219783,0.06759862,0.00846634,-0.01691327,0.3597081,-0.1481708,0.10187218,0.00081161,0.0374997,-0.05134153,0.00032064,-0.01567928,-0.01419859,0.05629074,-0.06925069,0.13400584,0.04375207,0.15209899,0.10581852
4IeYytwcpuQ,0.01014788,0.00266609,0.03065285,0.0237093,-0.01788798,0.1540909,-0.04478439,0.01023911,0.01171347,-0.03064056,0.08602473,0.03924199,-0.00338313,-0.04754195,-0.04729689,-0.06020596,0.17461149,-0.02176199,-0.02979506,0.11200016
GmTuhpMe1oM,0.05401696,0.01035663,0.03040122,0.01664576,-0.02525047,0.01575344,0.01845572,-0.07586226,0.04152783,-0.01862747,-0.01650777,-0.03169797,-0.05017146,0.05516659,-0.00860001,-0.02774929,-0.06042168,0.00336252,-0.01111318,0.04123595
NlW_R21cBXs,0.04843601,0.00388164,0.07664263,0.06435083,-0.06059524,0.03216596,0.01784759,-0.08160038,0.00878462,-0.07914224,0.01157664,-0.04693675,0.04722127,-0.033335,0.15814639,-0.00360419,-0.11226304,0.01500517,-0.09749095,0.1496144
TekYNY3eGC0,0.03849052,0.02168121,0.05984566,0.00544431,-0.01316709,0.0191806,0.00946952,-0.02616046,0.01072744,-0.02643358,-0.00426749,-0.00119676,0.00165595,-0.03502325,0.00930601,-0.02452517,-0.01628509,0.00230239,-0.00580698,0.02244558
bFO0uAMPx1g,0.01616674,0.00427292,0.03027389,0.02341587,-0.02427437,0.11075214,-0.04546606,-0.00871151,-0.00682988,-0.01458555,0.01785227,0.00564097,0.01581914,0.02992585,0.04024375,-0.03633182,0.00266677,-0.01612857,-0.09749641,-0.01395039
_twN29IEQlc,0.07731113,0.02911558,0.0430454,0.03590345,-0.04610133,0.03694566,0.02011114,-0.12129133,0.05532396,-0.06086824,0.0055426,-0.04552909,-0.09845768,0.09812453,0.03450737,-0.02599508,-0.0614581,-0.00669918,0.02539924,0.03478144
xfMhpaP8QSg,0.05474128,0.03928056,0.04725063,0.04541175,-0.06236368,0.01790669,0.02404153,-0.12127758,-0.03254444,-0.00054703,-0.10497209,0.47202047,-0.1349122,-0.01441276,-0.05205686,-0.01026802,0.06727104,-0.05905369,0.00327714,-0.02370187
IwjPma4PPTM,0.10551004,0.04260899,0.10615183,0.06465866,-0.11504056,0.04515176,0.0634967,-0.23597158,0.08206055,-0.14384319,-0.00500114,-0.21786001,-0.1107056,-0.1305767,-0.17162929,-0.05970345,0.09747009,0.00897368,-0.02409298,-0.02441932
WB1bBLedJQ4,0.09100093,0.01770763,0.22704339,0.57440036,0.45828323,-0.04278047,-0.03996442,-0.01903099,0.01309184,-0.01175699,-0.03006381,0.03612549,0.02846875,0.07780248,-0.00530913,-0.01265073,-0.04870252,0.04766446,0.01651022,0.01330143
jIj6PuMrDGA,0.28552356,-0.19081389,0.0689435,0.06058787,-0.17538429,-0.1298525,-0.12285861,0.27798282,-0.10009207,-0.16040833,-0.0070294,0.1092741,0.00168667,-0.01804002,-0.01430559,-0.04719933,-0.06809715,-0.04689094,0.08468918,-0.02361963
VVfMO6SJZLw,0.10214657,0.05212669,0.10386945,0.01960585,-0.06045394,0.04937869,0.10494605,-0.06806436,0.02876754,-0.05379876,0.02653799,-0.02267578,-0.04384801,0.05782772,0.0242795,-0.0226101,-0.09316399,0.02905797,0.00295659,0.01815217
H_i8nh8uBco,0.8656195,1.0465953,-0.31964986,-0.07723961,0.11956125,-0.00398552,-0.01208252,0.0656098,-0.00952776,0.02019521,0.0013985,0.0172293,0.0111047,0.02366309,-0.03521276,-0.02614559,-0.01923395,-0.02747768,0.00265485,0.02187767
UDiJI3q9wFQ,0.0243192,0.01189723,0.10254266,-0.03783687,-0.00425758,0.003701,-0.02383034,-0.03990577,-0.00615364,0.00458154,0.00734745,-0.06514472,0.00646128,-0.05520798,-0.06951432,0.00900206,0.03276933,-0.07927166,-0.07786419,-0.03086601
-APimd6TUro,0.0954757,0.01741394,0.29101056,0.65275227,0.44677139,-0.08535642,-0.06356016,0.02382835,-0.05474974,0.20760949,0.00485949,0.03992565,0.04545994,-0.0014893,-0.01685353,-0.03631143,-0.02246164,-0.1001622,0.03065916,-0.00828503
0SSctcuOy0o,0.04647348,0.02642728,0.04449445,0.03387716,-0.03889226,0.02024178,0.01611727,-0.05727966,0.04776082,-0.04019203,-0.0098893,-0.03403936,-0.05274607,0.0480955,0.02459565,-0.0131995,-0.03284265,-0.00640254,0.02915103,0.01035455
ND9eyW5Fw0s,0.01832728,0.00920745,0.03989026,0.02585506,-0.02550442,0.15858033,-0.06329897,0.01437662,-0.0025542,-0.00623794,0.06351085,0.02507642,0.0039532,-0.01935114,0.00399306,0.00986105,0.04755394,0.03270472,0.00942507,0.11934292
HeY4a7uDlkg,0.01046638,-0.00099374,0.02063254,0.01138703,-0.01795979,0.1326671,-0.05489639,0.0243366,-0.01860218,0.01161104,-0.07829131,-0.00506495,0.03087734,-0.03252236,-0.0183775,0.13444272,-0.06060704,-0.04851817,0.0771246,0.03871996
2A0dbP8LJoA,0.10715438,0.05143788,0.13242263,0.04867739,-0.11382138,0.00322743,-0.00072466,-0.1039822,0.01520958,-0.05626085,-0.01827548,-0.04756362,0.01655892,-0.13709592,0.10697346,0.03036302,0.07312019,0.00168579,-0.08165883,-0.04743488
Cd5EHfRerGI,0.06267157,-0.01897254,0.1464247,-0.07389784,0.04827666,0.26377854,-0.03840988,0.10735329,0.02191239,0.0463544,0.02709301,0.01796263,-0.05024855,0.04146094,-0.01374373,-0.01591185,0.03674067,0.08464019,0.11180181,0.02991942
x3P8Zqux4A4,0.0101608,0.00426853,0.05469867,0.00337002,-0.00442243,0.29462738,-0.1198528,0.09768308,-0.00406858,0.04223886,-0.21882052,-0.06755877,-0.06757831,0.02343106,0.12812717,-0.19312173,0.08063622,-0.06829933,0.05832341,-0.10955499
HVPhcOmSMtM,0.15947183,0.05827003,0.12088555,0.10590499,-0.1337043,0.01749564,0.01030572,-0.17218038,0.03102545,0.17037173,0.07890602,-0.06113007,-0.08159651,-0.17212731,-0.02485176,-0.05271298,-0.01416856,-0.13499062,-0.08401595,0.0847063
v3JV42WbomE,0.1089982,0.07551242,0.1069155,0.05553864,-0.05050746,0.02566833,0.02879569,-0.14995036,-0.00046177,-0.05311759,-0.08635764,0.20151979,0.00143561,-0.10551929,-0.00861204,-0.00586807,-0.05761568,0.08127752,0.02381047,-0.00607574
sGEEHGc7eyo,0.69673161,0.82381671,-0.22929142,-0.05280026,0.07666253,-0.0094008,-0.00535879,0.04442282,-0.01336049,0.01672482,0.01063458,0.01602505,-0.01424596,-0.04032894,0.04974112,0.0300755,-0.00959935,0.0263162,-0.00716226,0.02438419
nWfp_X31vqk,0.07225719,0.04066149,0.10097588,0.03535036,-0.07112929,0.03216763,0.02834473,-0.03410598,-0.01159402,0.05700546,0.03413492,0.0397719,0.03348223,-0.03803599,0.01928402,-0.03630205,-0.0764094,0.0396065,-0.02751836,0.01264554
yemarhfhVA0,0.01838378,0.00709084,0.03496229,0.02416153,-0.02484875,0.14860104,-0.04975737,0.00683279,0.00912389,-0.01549375,0.0348479,0.00648067,-0.00151228,-0.0165642,-0.04312647,0.05014139,-0.00144701,-0.01412114,0.01785656,0.04780931
qey62i2fvg0,0.00851114,0.00223675,0.02618641,0.01461722,-0.01891774,0.1368259,-0.05396467,0.01953907,0.00050509,0.01631614,-0.08303456,-0.02045608,0.00267824,-0.0245898,0.02797569,-0.08688142,0.0382908,0.01589012,-0.01931785,-0.07165471
ABoKfabPQyY,0.01851026,-0.0024393,0.05187113,0.00994178,-0.00897615,0.28720493,-0.11077104,0.08347961,-0.00183792,0.05433308,-0.21830236,-0.01220504,0.03363942,-0.037153,0.13962894,-0.09555845,0.11500587,0.01812107,0.07663232,-0.05553434
8CpQzf_RYb4,0.03678494,0.00879979,0.06836363,0.0363869,-0.0665343,0.03488067,0.00157112,-0.06665782,-0.01301551,-0.06065714,0.07301162,-0.1031603,-0.03291478,-0.31372211,-0.10120139,-0.060538,0.06997383,0.01175695,-0.05347167,-0.01841801
nJ0oh5u6YbM,0.02739133,0.01011296,0.04015758,0.02305522,0.00345476,0.16746428,-0.06800562,0.03766751,0.00233027,0.0345129,-0.08670577,-0.01119323,-0.00299474,-0.02334688,0.06334187,-0.07541829,0.0463442,0.04695699,-0.03716125,-0.10042802
ckyeC880OPA,0.05048177,0.03253818,0.08396402,0.04016534,-0.06056572,0.02567964,0.02302143,-0.08607196,-0.02925208,-0.03930544,0.02682973,-0.04233405,0.1180721,0.06234045,0.04378648,0.0510907,0.05963933,-0.03740109,-0.01462736,-0.08412117
IJJbQTVdAtE,0.0359931,0.02645672,0.0455447,0.0290046,-0.01300451,0.30975047,-0.09984066,0.07677111,0.01268623,-0.00307335,0.17348243,0.06309555,0.00345681,-0.02604764,-0.09711428,0.11640509,0.09120431,0.04006133,-0.01816626,0.12084556
0EqJD2o-Mnk,0.01031001,0.00290295,0.03101518,0.02211327,-0.02305722,0.15924677,-0.06752123,0.02111494,-0.00185211,-0.020811,0.01412304,-0.02419442,-0.04000313,-0.07153504,-0.2578104,0.35956467,-0.19588515,-0.0199784,-0.0685803,-0.1362709
NM-bwZZoX80,0.09388815,0.03848913,0.13687811,0.09813821,-0.18670139,-0.03420218,-0.03562261,-0.10505814,-0.06272641,0.37891733,0.03115331,-0.04051553,0.09164297,0.09501132,-0.01067573,-0.0342141,-0.07570496,-0.14522389,0.03881581,-0.06728916
NuoEsHIW5JA,0.01482998,-0.00287191,0.0231425,0.01235205,-0.01391081,0.08936329,-0.03254941,-0.00091176,-0.00637013,-0.00833853,-0.03789712,-0.01259971,0.01330903,-0.0120649,0.01384907,-0.02127296,0.00976993,-2.69e-05,0.00021544,-0.01098774
k30WHO9_ppU,0.8656195,1.0465953,-0.31964986,-0.07723961,0.11956125,-0.00398552,-0.01208252,0.0656098,-0.00952776,0.02019521,0.0013985,0.0172293,0.0111047,0.02366309,-0.03521276,-0.02614559,-0.01923395,-0.02747768,0.00265485,0.02187767
tQCVAU-fZPA,0.91870927,-0.7574139,-0.15450017,-0.07699253,0.09942793,-0.01598618,-0.03182832,0.07735696,0.65134536,0.01918523,-0.02106018,0.0651637,0.11530133,0.04940975,0.03828749,0.05551183,0.02056054,-0.07998314,-0.00872771,-0.05662952
rfnB9MhBI44,0.06698787,0.04665091,0.09569222,-0.00587665,-0.0239964,0.01280545,0.00471522,-0.08668029,0.00456581,-0.05751035,-0.02002104,-0.01434333,-0.05328809,0.03640165,0.07288941,0.05340738,-0.0441428,-0.03842361,0.01989546,0.04994756
9LsgBjswQZY,0.013081,0.00781585,0.02292151,0.02373418,-0.01095126,0.07309701,-0.02784097,-0.00783985,-0.00324777,-0.00535387,0.03014873,0.0072584,0.01993715,-0.00762197,-0.00194304,0.05890109,-0.05172599,0.03299635,-0.03230908,-0.00804169
LPTQADIf6Xk,0.07596052,0.03569019,0.09038101,0.07106522,-0.12329961,-0.01121972,-0.00186622,-0.12623804,0.01907402,0.21534504,0.05222339,-0.04902925,-0.03151959,-0.01030551,0.02673379,-0.06381611,-0.08273698,-0.10143562,-0.01215434,0.05594381
W4BkgA1P27o,0.05594668,0.03575412,0.07408179,0.05256386,-0.09260027,0.04338184,0.01917149,-0.11551714,0.02596474,-0.04851175,-0.07105675,-0.05276627,-0.0439406,0.09723522,0.10657165,-0.0658791,-0.14272169,-0.04489265,-0.11153994,0.01771723
1lx0bttCAbs,0.19496818,0.01677685,0.1087608,0.05395315,-0.13050149,-0.05176672,-0.00022618,0.12507789,-0.03218374,-0.07412994,0.00362095,0.02472991,-0.05728779,-0.03702832,0.01375622,3.359e-05,-0.04562088,0.05548299,0.00373361,0.02648232
OWkM5YoEhgM,0.09529001,0.04987954,0.08225945,0.04904751,-0.07403441,0.0295347,0.01919143,-0.12108514,0.01519426,-0.07584955,0.04922867,-0.0851375,-0.08377651,0.12395005,0.11036144,0.13245275,0.07062106,-0.08331755,0.01897888,-0.07737322
GEXxx3JQmdw,0.03270926,0.00753765,0.06044621,0.0539719,-0.06021019,0.01724629,0.00592948,-0.07045373,-0.02280564,0.07169137,0.05494974,-0.00481904,-0.02262342,0.03954147,0.06124841,-0.06364323,-0.01926371,0.01565634,-0.06477953,0.00285194
waOGddip3Wk,0.11683994,0.04413734,0.07351021,0.05755957,-0.08767751,0.05619375,0.04578918,-0.24635485,0.07082455,-0.06852302,-0.01534579,0.30349295,-0.2892421,0.17248802,-0.03742404,-0.02895691,-0.00487988,0.00268007,-0.00462765,-0.00661814
uHXjo7DUAAM,0.01173523,0.00788838,0.02233829,0.00900372,-0.00869349,0.01963991,-0.00433014,-0.0177099,0.00109152,0.00135416,-0.00411715,0.01301973,8.322e-05,-0.0128151,0.00462083,0.00088793,-0.01214283,0.01656303,-0.00777561,0.03130528
dVb9vyCwM2s,0.03683217,0.01790966,0.11687004,-0.04627248,0.0097429,0.05942726,0.04528727,0.02204388,0.02155136,0.00658662,-0.02756088,-0.00842129,-0.0411163,0.02892778,0.02428653,-0.05087732,-0.03737705,0.07555161,0.05482657,-0.09224962
4ZK7Ms4IZ7g,0.02158539,0.00827023,0.05237262,0.01537079,-0.02187512,0.27889465,-0.11378068,0.07676656,-0.0125342,0.00349432,-0.09740846,-0.06631662,-0.0603295,-0.04807148,-0.26219367,0.47268318,-0.30317986,-0.02160961,0.09308567,-0.07718797
H3lUaL6-XQQ,0.01978911,0.01214026,0.10707932,-0.05506513,0.01810007,0.05904609,0.04425601,0.03234278,0.01596477,0.00557999,-0.01967312,-0.01393334,-0.04724976,0.00930215,0.02158158,-0.02952306,-0.01002527,0.04670415,0.09033405,-0.07752496
ZOPXzlpBVoM,0.06423831,0.0755292,0.01213912,0.02348928,0.02910027,0.00174986,0.00091697,-0.00270572,-0.01781781,-0.02922081,0.00500712,-0.02878586,0.01756776,-0.01824239,0.04699319,0.03970146,0.03203735,-0.00430826,-0.01923971,-0.01854746
Cs1nC8kqS5k,0.07572486,0.06035274,0.09721461,0.02087121,-0.05741553,0.02014013,0.02763297,-0.08903438,-0.0121283,-0.05466391,0.00939157,-0.03514164,-0.00702453,0.05077486,0.16178812,0.11980591,0.04364534,-0.04104346,0.02691173,-0.00773159
yGC0oT995TM,0.01213552,0.00196734,0.029168,0.01327415,-0.01207054,0.08315904,-0.03679334,0.00251574,-0.00422313,-0.00722365,-0.03302181,-0.00029998,0.02183503,0.00224739,-0.00433821,0.02151068,-0.03065054,0.01050001,0.02110381,0.01486198
2JhSWzxzLXA,0.0471594,0.00489263,0.06134156,0.04211073,-0.03906436,0.01328769,0.01491151,-0.08282454,0.03228731,-0.02659227,-0.03002057,0.00341019,-0.03810069,0.01643048,0.03865446,0.02581019,-0.03648352,-0.03493399,-0.01072557,0.05342271
UxUmboIvArE,0.15849152,0.01957323,0.24219932,-0.00191248,-0.08842656,0.05234363,0.08126139,-0.10134285,0.03537785,0.10022213,-0.04117687,-0.05566225,-0.19301758,0.08753431,-0.06807952,-0.06019833,-0.11761065,-0.06435873,0.12330084,-0.03047445
OuOIrxBXB0M,0.0069236,0.00542243,0.01106224,0.00735683,-0.01040222,0.08201176,-0.0345178,0.01529647,-0.00777411,0.00663155,-0.01102872,-0.01339917,0.01149158,0.00345098,-0.04372509,0.1153545,-0.02300981,-0.01183315,0.07495143,0.07153785
8hN5PF2oXGs,0.01021863,0.00201195,0.02754978,0.01918943,-0.02123871,0.07237078,-0.02535097,-0.00692072,0.00563138,0.00705309,-0.00473889,-0.00653457,-0.03565903,-0.01290012,-0.03064863,0.01171045,-0.0348426,-0.06565629,0.02159279,0.01272277
wd_xh6gSSOs,0.00563426,0.00283146,0.03254641,-0.01169631,0.00370804,0.07618226,-0.04042855,0.01700388,-0.00366509,0.00340625,-0.01957532,-0.00091736,0.01081929,0.01756165,0.00721716,-0.01290142,-0.00181581,0.00673288,0.00573498,0.01576262
DerWppSGkmE,0.16034282,0.07415881,0.12733627,0.05518884,-0.12232728,-0.01611652,0.02662119,-0.08654312,0.00254106,-0.07504716,-0.03178893,-0.03546049,0.02482111,0.01929151,-0.03517135,0.00212012,0.05853867,0.10362126,-0.16796195,-0.01870789
YD2iT-SCJb0,0.16346249,0.13008632,1.01745105,-0.81156267,0.45869254,-0.11648705,-0.13546678,0.04532856,-0.0152539,0.01003902,0.0188917,0.03341523,0.01962247,0.03030679,-0.01369089,-0.00058254,-0.01071204,-0.01974306,-0.02491367,0.01928176
EZLeWRbCEbA,0.09331953,0.06024465,0.13314637,0.02342056,-0.07731413,0.04452786,0.03091822,-0.12119723,0.00984866,-0.06965352,0.02203154,-0.03982202,0.01792294,-0.28965338,0.04732228,0.01040369,0.06211737,0.12481458,-0.02039309,-0.06726069
DQiQ30VepbU,0.03341407,0.00477921,0.05774926,0.0380391,-0.0618281,0.05241866,0.03625241,-0.11805963,-0.00744162,-0.04491889,-0.06035048,0.02254565,0.22609565,-0.00156679,-0.06564378,0.02603292,0.02764991,0.14733444,-0.11551492,-0.1592893
_dASAu79K0s,0.00491258,0.00129339,0.01844725,0.01098339,-0.0128391,0.17054656,-0.07290647,0.03809325,0.00359912,0.00626899,0.10163861,0.04902019,0.01354889,-0.00622757,-0.03063581,0.0770386,0.06596834,0.02961728,0.01485507,0.12235336
Ff0AYRWrnGY,0.01913076,0.00945172,0.04539264,0.02290174,-0.01593658,0.14181651,-0.05360253,0.0045629,0.00319086,0.00396528,0.08527207,0.05026913,-0.00377629,-0.01091822,0.01788433,0.00318427,0.04743748,0.01107794,0.02444694,0.07945894
uvfU2B8b4G4,0.05570375,0.00918582,0.09420036,0.06307779,-0.09672782,0.01877001,0.03534803,-0.11729976,-0.02559192,-0.05080663,-0.07675325,0.05469848,0.26001127,-0.04004211,-0.02879018,0.01560327,-0.04651666,0.22074044,-0.04947921,-0.10338941
-txFIHA4ez8,0.05428375,0.03150935,0.05635051,0.03166692,-0.04569947,0.02406604,0.02013168,-0.08039669,0.00467941,-0.05038329,-0.01197792,-0.01368402,-0.03070814,0.02044137,0.06467081,0.00388276,-0.03367772,-0.02415574,-0.00708998,0.02198684
_SdzVNht_nU,0.1105916,-0.01053869,0.1826368,0.02085509,-0.10350578,-0.00474765,-0.05081172,-0.12655378,-0.02020852,0.18623705,0.00993093,0.01262077,0.05632559,-0.08224667,0.10625515,0.10851602,-0.00082487,-0.25542737,0.08556932,0.0692066
4vHF2qU89Jo,0.17871553,-0.00869092,0.05022406,0.05815335,-0.07617039,-0.02365822,-0.02867534,-0.05109325,0.25175976,0.16457889,-0.00127142,-0.03980827,-0.04556773,0.02959136,-0.04059065,-0.0281549,-0.0617069,0.03448741,-0.04191535,0.05921376
JTtyJPD0ZOw,0.6376663,-0.55475139,-0.08674894,-0.04428801,0.04410721,0.0035262,-0.00333399,0.05210436,-0.03425831,-0.04616182,-0.01768016,0.10818298,0.11051972,0.001487,0.07319609,0.03925367,0.0120492,-0.11097576,0.08113029,0.0252436
3QRWlCFdzyE,0.91870927,-0.7574139,-0.15450017,-0.07699253,0.09942793,-0.01598618,-0.03182832,0.07735696,0.65134536,0.01918523,-0.02106018,0.0651637,0.11530133,0.04940975,0.03828749,0.05551183,0.02056054,-0.07998314,-0.00872771,-0.05662952
MmtdaRSSUZA,0.06987856,0.04868183,0.12277937,-0.00431187,-0.03534582,0.02073057,0.02911089,-0.09437674,0.04659826,-0.06918864,-0.04094186,-0.02280732,0.08134688,-0.13973107,0.01242912,0.01656097,0.05315927,0.12132638,-0.00732128,-0.07994556
51dULrDA8E8,0.13498267,0.01570567,0.06223176,0.04312574,-0.06831578,0.00933085,0.0181042,-0.01194741,0.00703568,-0.04688882,-0.03015317,0.05529888,0.07734958,-0.03304615,0.06136957,-0.00444028,-0.04791001,-0.04744357,0.08436201,0.04121488
iGaMJCi8mAk,0.06477597,0.04549432,0.08019,0.04204585,-0.03261979,0.02624767,0.0305512,-0.07939052,0.01244556,-0.0546654,0.00757747,-0.01237578,-0.03963046,0.02665298,0.08123662,0.00202453,-0.0330933,0.03140701,0.04219692,-0.03763277
DB1fSfulSJQ,0.02211397,0.01464983,0.0431867,0.03350996,-0.01790728,0.25040978,-0.11340591,0.06097431,-0.00695079,-0.02341801,-0.08862431,-0.04692578,-0.0525548,0.11427128,0.10222763,-0.22218076,-0.07476323,-0.09877069,-0.33518243,-0.11574474
pGGJHrxn1VU,0.10193477,-0.01628058,0.19730756,0.54454773,0.47659132,-0.05329509,-0.03789397,0.03872745,0.00236171,0.00096261,-0.01322779,0.01746563,-0.01769913,0.01574494,-0.00812211,-0.00168339,-0.01191856,0.01195253,0.00172016,-0.01569963
g_7mUw6Xt2E,0.0582487,0.00622952,0.05660491,0.04953406,-0.05682022,0.00366481,-0.00354247,-0.02478395,0.00745848,-0.06678876,-0.00933502,0.04545866,-0.00761897,0.02806373,0.05287307,-0.00135547,-0.0670088,-0.05151926,-0.02756531,0.05704232
