video_id,lsa_1,lsa_2,lsa_3,lsa_4,lsa_5,lsa_6,lsa_7,lsa_8,lsa_9,lsa_10,lsa_11,lsa_12,lsa_13,lsa_14,lsa_15,lsa_16,lsa_17,lsa_18,lsa_19,lsa_20
QPWScf-86po,0.0265943,0.00881012,0.05012774,0.01491382,0.04311246,0.19289748,-0.08144982,0.06169998,-0.01667055,0.00800823,-0.02125802,-0.01495701,-0.01099333,0.00177107,0.04031544,-0.02026602,0.01154316,0.03558591,0.06816296,0.02291419
qgzwtKsXCMo,0.0073166,0.00183292,0.01895573,0.00362976,0.01892478,0.01568806,-0.00223834,-0.00913109,-0.00131349,-0.00385725,-0.00608172,-0.0094458,-0.01581524,-0.02659757,0.00030867,-0.01285971,-0.02630412,0.03528291,-0.01076988,0.01367699
IEJALLQFmDs,0.00873739,0.00366261,0.03274774,-0.00783159,0.00571248,0.13762169,-0.0620338,0.04132536,-0.01745777,0.03281124,-0.12526222,-0.02850404,-0.02064976,-0.01906678,-0.01855044,-0.04605181,0.00143823,0.0309264,0.03234651,0.01438894
WgcdDVIUXcI,0.05975251,-0.00476413,0.07390836,0.0159754,0.08052575,0.03065734,0.0311058,-0.08887128,0.06154241,0.02839007,-0.01406732,-0.02755003,0.01405902,0.01956621,-0.06192776,-0.07836959,0.00314644,-0.01554337,-0.02261342,-0.08286925
ksn5yrsC3Wg,0.00820159,0.00479293,0.0192424,0.00491738,0.01587621,0.07977994,-0.02750664,0.01212399,-0.00539301,-0.00246285,-0.01888281,0.00132685,-0.00686225,0.01565525,0.01334834,0.06457086,-0.05556201,-0.0200127,-0.04110909,-0.01461194
dqazxW8R5BY,0.00473237,0.00116244,0.01700875,0.0035087,0.01280776,0.10824748,-0.05183658,0.0341415,-0.01068659,0.00449049,-0.0208927,-0.00099636,-0.00361382,0.01066071,-0.00155032,0.02801639,-0.02946116,0.00992327,0.00694975,-0.00965258
GDex3WIPF7c,0.0163458,-0.00104057,0.03559048,0.01530972,0.02211497,0.16774897,-0.0853313,0.0262632,0.0204818,-0.00601203,0.19194502,0.04324668,0.02363951,0.02661305,0.05677835,0.07306842,-0.05508355,0.13848598,-0.02428426,0.01293257
yE8fJOgv7Pc,0.01559008,0.00905352,0.03779575,0.00787904,0.03592808,0.09535709,-0.03514006,0.01057029,-0.0078223,-0.03591643,0.0169196,-0.03673728,-0.00410276,0.01049136,0.00776348,-0.03956682,0.06969609,-0.22512933,0.0297407,-0.07235028
Su0aCV35IFM,0.01287906,0.00047645,0.03836177,0.0075967,0.02391852,0.26667224,-0.13700749,0.07114875,0.01611332,0.01780873,0.2240938,0.05227347,0.03555876,0.03738272,0.08057583,0.08480648,-0.09509736,0.31879427,-0.07351636,0.00852429
u_f8bJkfg68,0.10577433,-0.02904602,0.02336337,0.01007715,0.05049544,-0.00786761,-0.02434217,0.05158767,-0.03746718,-0.00257097,0.01727023,-0.02198487,-0.00674656,0.01017802,-0.03549056,0.02826254,0.02530096,0.0029879,0.02725924,-0.01960277
2ZV29QhLfjw,0.08805561,-0.01497731,0.07817916,0.02210766,0.07699568,0.03970047,0.02118307,-0.11173484,-0.00732822,-0.03537499,0.02907792,-0.02726903,-0.01022328,-0.03244477,-0.11079014,0.09394917,0.08852561,0.03356907,-0.04429506,0.02040662
WOTUpoI2LQA,0.04644406,-0.00601709,0.07830001,-0.03116806,0.00043922,0.00855367,-0.01579892,-0.03029408,-0.01957554,0.00222247,-0.00498155,0.02638004,0.02551614,0.04046786,-0.04022768,-0.00719871,-0.00868097,-0.00676919,-0.05898484,-0.03460129
jLFG_FZKbks,0.02275595,0.00595017,0.06432432,-0.00642888,0.0139745,0.20436446,-0.09257122,0.04974836,-0.02781973,0.00798709,-0.13480053,-0.02201839,0.00619267,-0.03962719,-0.04647064,-0.07122215,0.06335397,0.02074817,-0.04992794,0.03727273
xjcVnFd-4YA,0.01726083,0.00162656,0.02102354,0.00620315,0.02327849,0.01972457,-0.00895497,-0.0207408,-0.00433477,0.00929167,-0.01833328,0.03394604,-0.00997346,-0.01255453,0.00513265,0.00603522,-0.02834008,-0.00040808,0.02327131,-0.04396588
eOI7WQIEX1Y,0.07183933,-0.02468148,0.06206764,0.0067502,0.04582782,0.03228531,0.00903924,-0.09338408,-0.01910354,-0.01169317,-0.02495709,0.10536105,-0.01400789,0.05781305,-0.05514727,0.04082443,0.04401066,0.05846346,-0.0243888,0.06081424
N-zjDtQOwxc,0.10924672,0.01790165,0.17741544,0.02080986,0.14183375,-0.00727577,-0.00351517,-0.13250794,-0.15843756,0.11194055,-0.03959383,0.21259116,0.02197479,0.13741169,-0.00739301,-0.01257417,-0.01914905,0.02165885,-0.02450672,-0.10086986
vmRbevilfpU,0.131162,-0.00229974,0.07232813,0.01514559,0.08275111,0.00631569,0.02208678,-0.13513882,0.07302989,0.01721571,0.00247402,-0.04337922,-0.13653943,-0.09602155,-0.0059703,-0.05343312,-0.04414824,0.01384738,0.00034611,0.07158028
VgH5rhALEfU,0.02866218,-0.00616956,0.03592745,0.00723412,0.02219571,0.08163845,-0.04066675,0.01189788,-0.00605737,-0.00911703,-0.04495411,-0.01339079,-0.00267039,-0.01359651,0.00770188,0.02219159,-0.02497535,-0.03416413,0.02213068,-0.03262801
W65cfPslnzo,0.00969454,0.00455896,0.02406468,0.0088309,0.01873168,0.11834658,-0.05254106,0.02562745,-0.00095225,-0.01206317,0.03154186,0.00276011,0.00620626,0.01411025,0.00822712,0.03121222,-0.02209634,-0.01308915,0.01919527,-0.00476165
FMdrD_jcYgE,0.01262739,0.00301624,0.03741301,0.00835925,0.03301156,0.14930171,-0.06831363,0.01921143,0.00780636,-0.01054795,0.07745635,0.0201661,0.01380478,0.04270464,0.04301649,0.05760642,-0.06982393,0.15733465,-0.0162037,-0.00362529
7Y7Iv5XAXwI,0.02047934,0.00160759,0.0410435,0.00683116,0.03308668,0.12748181,-0.05577774,0.01966088,0.01799742,-0.03903619,0.0995065,0.00816594,-0.00152395,0.03091516,-0.0155948,-0.02136173,0.04434279,-0.13654547,0.02029466,-0.00190146
0y8vRPcSvbw,0.02301076,-0.0011513,0.04333681,0.01857382,0.03335781,0.13857718,-0.05679479,0.00908208,0.00989689,0.0072734,-0.00061039,9.862e-05,0.0088879,0.04749433,-0.02682536,-0.04686778,0.06737728,-0.06909674,0.06604911,0.04462984
mpZK1dqX6aA,0.00191976,-0.00035863,0.00243535,0.00147521,0.00158424,0.01187665,-0.00505512,-0.00014741,0.00122017,-0.00220126,0.00083949,-0.00086391,0.00137967,-0.00171213,-0.00017233,0.00935669,-0.01386901,-0.00070277,0.00072847,0.00567328
pG99B0ui06s,0.00707653,0.00201697,0.02312147,0.00452076,0.02075769,0.11523256,-0.05678313,0.03114524,-0.0088755,0.00029873,-0.02252329,0.00146226,-0.00475474,0.00895108,0.02061287,0.08857185,-0.11135069,0.00824143,-0.08024018,-0.03322849
UncqiOQc4rI,0.01274632,0.00065819,0.03856801,0.00025311,0.0183069,0.10098781,-0.0584742,0.01257161,-0.02157018,-0.01298654,-0.03523276,-0.0406264,-0.00089163,-0.00780593,-0.00026223,-0.04009962,0.06311487,-0.16642898,0.01924577,-0.05336655
wgADj9n8XMs,0.09548116,-0.01260941,0.13203774,0.00307939,0.09921218,-0.00621582,-0.01101707,-0.0513906,-0.10899524,-0.0559832,-0.03391755,0.04399796,0.31824159,-0.04721698,0.04313546,-0.07003884,-0.1510607,-0.03341263,0.08601728,0.09784154
iBpxQpktHN4,0.00351295,0.00293855,0.00963378,0.00199863,0.01245367,0.0189834,-0.01731886,0.01962797,0.00999034,-0.03186429,0.00552788,0.00326981,-0.01470596,0.00375493,0.00800232,-0.00206927,0.0274167,-0.0382089,0.00095712,-0.00231566
W41XcEogOB0,0.01573284,0.01266893,0.02785564,0.01834943,0.01445719,0.12494091,-0.05450467,0.02115413,0.01535517,-0.01931413,0.13284228,0.0276629,-0.01045895,-0.00630648,0.00954017,0.02704495,0.00401018,-0.05079504,0.02205847,-0.02210676
0t118SCf-2w,0.00571906,0.00080864,0.0167808,0.00451253,0.01202484,0.10098397,-0.04944731,0.0225443,-0.00886737,0.0018494,-0.02405257,-0.00626938,0.00185656,0.00399123,-0.00638017,-0.01142528,0.00212453,0.00271261,0.03464297,-0.00677268
31t_CBePs34,0.037926,0.01438007,0.11315395,-0.03959915,0.01895714,-0.02349452,-0.01065301,-0.05227689,-0.01081799,-0.07294878,-0.00585778,-0.08896996,0.02182746,-0.02150056,0.00394321,0.18312641,0.07154575,0.07772644,0.15376922,-0.03964103
jKTNMlUEdgU,0.00044111,0.00010652,0.00176845,0.00097285,0.00068277,0.00636052,-0.00360786,0.00087162,-0.00141503,0.00265099,-0.00173046,-0.00039663,0.00018386,0.00022513,-0.00015648,-0.00166538,0.00174814,-0.00063365,0.00422945,-0.00371682
tkLxg6h07aE,0.03229901,0.00887465,0.06409245,0.03218956,0.04172478,0.33939234,-0.14068457,-0.00349748,0.15526897,-0.06451932,0.78454538,0.13809101,0.01037314,-0.02794441,0.06801311,-0.08860642,0.06987258,-0.14748282,0.08921093,0.05568403
v_1Dhh8G84c,0.01904509,0.00020449,0.03827014,0.01087961,0.03666812,0.1245755,-0.05637705,0.00694819,0.00106188,0.0003908,0.00917744,-0.00757831,-0.00019928,0.03359349,0.00729236,0.0313847,-0.04226508,-0.08514966,-0.00020223,-0.01903422
PnpHwhTWw0c,0.03306766,-0.00482957,0.04608195,0.00268452,0.02064242,0.14039579,-0.07383424,0.0290176,-0.01529727,-0.01394969,-0.07960543,-0.0205732,0.00529667,-0.03528158,-0.04358681,-0.11723883,0.11345547,-0.01563794,-0.04516741,-0.0003771
ndkH5fZSIvs,0.02212919,0.00625957,0.06713415,0.07230007,-0.00834198,0.15876611,-0.09134164,0.02763299,-0.0251297,0.01372282,0.00114983,-0.00072397,-0.00038601,-0.03910885,0.04439585,-0.0286025,0.02302815,-0.00039613,0.06015294,-0.00115403
dU5sDKcwN9E,0.01804903,0.01223658,0.04400311,0.00449996,0.01533394,0.23511709,-0.10892241,0.05983135,0.00688125,0.02802984,0.03500891,-0.005042,-0.00794829,0.01738299,0.01893858,0.00225097,-0.02578686,0.13595312,0.01545991,0.03603942
jytAQWCc_TI,0.07626446,-0.02134612,0.0328896,0.0115513,0.00724278,0.33248084,-0.1572924,0.1268257,0.01166654,0.06319527,0.01151402,0.01657739,0.0056952,-0.01444905,0.03851936,-0.05392742,-0.01728767,0.13739028,-0.01472508,0.00851862
pUlUgkaTQZg,0.01030243,0.00207864,0.03814088,0.017818,0.02098729,0.20282422,-0.09717247,0.0441166,-0.0055113,0.01194284,0.02435018,-0.00573602,-0.01092905,0.01037877,-0.02924785,-0.00130806,0.03343454,-0.04429622,0.07025749,-0.02746731
0D14LJGiBkg,0.00939965,-0.00058329,0.02112365,0.01089158,0.01132126,0.08410621,-0.04310256,0.01269924,-0.01166734,-0.00381933,-0.03840713,-0.00383142,0.0111128,-0.01179834,-0.01153811,-0.03311805,0.03749816,-0.03615681,0.00342787,-0.0402776
Czf68kDF_7Y,0.0102501,0.00234856,0.03707019,0.01932979,0.02021225,0.1863384,-0.09842713,0.05322486,-0.025043,0.00717638,-0.0095809,-0.02675639,-0.00376712,0.00038545,-0.02825736,-0.05511917,0.08367402,-0.17150127,0.11770784,-0.03909408
RniYUmKs93U,0.0076864,0.00242741,0.02227515,0.00635025,0.02153851,0.04654131,-0.02336915,-0.00098374,-0.00888873,-0.00754318,-0.03990734,-0.00595693,0.00080796,-0.00889937,0.00199615,-0.01349159,0.00097064,-0.00296529,0.03111212,0.00522606
IrGd4xIhTN0,0.01218923,0.0025433,0.03177374,0.01026676,0.0239164,0.15504662,-0.06746188,0.02448519,0.01688972,-0.0029709,0.1474121,0.03603732,0.02806707,0.02565413,0.03865559,0.04649054,-0.06557277,0.19066172,-0.04086568,0.02738028
8TvJvfKz8Fo,0.06089393,0.03180185,0.11585236,0.02146356,0.14418419,-0.02600628,0.03169991,0.0955613,-0.00665926,-0.07058442,-0.01696955,0.07222969,-0.04568501,-0.02801111,0.0794176,-0.08913547,0.06754648,0.01143934,-0.11289183,0.05671676
MVFd0qFB9TE,0.0094927,0.0002197,0.02607399,0.00611141,0.01506582,0.13977162,-0.06603609,0.03813151,-0.01812097,0.01695158,-0.10780448,-0.00685142,-0.00820495,-0.0177082,-0.01893583,-0.03401033,0.06328043,-0.03968285,0.03613853,0.02455658
Y254oB1QNOE,0.02832186,0.00479851,0.03613398,0.00295007,0.02285724,0.13356276,-0.06999975,0.03015585,-0.00876182,9.7e-06,-0.02208769,-0.01502833,-0.01883195,0.00129135,-0.01612418,0.03654197,-0.01181021,-0.04735505,-0.03859351,-0.00362014
s6XPoPYDn-Y,0.01895536,0.00378985,0.04002959,0.01337464,0.03532327,0.16301696,-0.0586357,-0.03616348,0.12390602,-0.0481194,0.53846197,0.09224873,0.00754457,-0.02534309,0.03300646,-0.1245072,0.08486615,-0.24923808,0.09813254,0.05114799
5YKhtb3DNNo,0.04905584,0.0443007,0.06205007,0.03920534,0.03480298,0.00384471,0.0088272,-0.03290742,-0.05367964,0.10721627,0.02044832,-0.03788,0.04623924,-0.04599482,0.00530949,0.0833304,0.01712723,-0.02869827,-0.03589657,-0.01152109
IMM5cm6xrXQ,0.01450288,0.00291863,0.04043096,0.00555034,0.02972143,0.11500043,-0.06034105,0.01157519,-0.01938611,-0.02488312,0.0109181,-0.03494281,0.00600626,-0.00089008,0.00300633,-0.01836821,0.03850922,-0.19239307,-0.01814625,-0.07380054
Hk-ARbCTKzM,0.01698976,0.01222487,0.0388214,0.01264116,0.01823692,0.1730494,-0.0898263,0.03865512,-0.03255992,0.01982284,-0.12822677,-0.01561343,0.03360203,-0.03040052,0.01004729,-0.02579521,0.02308558,-0.01152148,0.05235372,0.00189425
XsY6iChNzf0,0.02795254,-0.00570093,0.05978157,-0.00568296,0.00222956,0.03741941,0.03599147,-0.0005968,-0.01449657,-0.0059932,-0.00381886,0.00648036,0.02587536,0.02050164,-0.0172934,-0.00091908,-0.00486119,-0.0390488,-0.00332906,-0.04883728
dNNyCZwEa6k,0.01101155,0.00290589,0.04239238,-0.00051184,0.02075769,0.15498453,-0.07180833,0.04576609,-0.01899728,0.00944441,-0.05737557,-0.00194495,-0.00479153,0.00807639,-0.03823208,-0.00474742,-0.03110044,-0.00094145,0.01972466,-0.01991395
gdjCR9h1yGc,0.0140082,0.0048841,0.05541356,-0.01454127,0.00803805,0.21679982,-0.11055389,0.07247292,-0.03732436,0.01590382,-0.13958032,-0.02438696,-0.00364658,-0.03755478,-0.01767083,-0.02240743,0.00758006,-0.03294041,0.00948157,0.00416888
rfRFwXnk660,0.03355121,0.01872124,0.04152766,0.00515142,0.03790281,0.00498429,-0.00551776,-0.02255408,0.02313977,-0.03499462,-0.02586878,0.02815677,0.01828613,0.05358475,-0.04950616,0.03350784,0.05631498,-0.00525585,-0.007366,-0.02915779
PoHZWjU54jY,0.02213292,-0.00887328,0.02205176,0.00531794,0.0098792,0.17691585,-0.0896316,0.04487782,0.01435846,0.00807163,0.16958171,0.03366318,0.02180238,0.03515708,0.07449456,0.05518687,-0.06555316,0.23345253,-0.04500167,-0.00969239
98ShZgIhSbk,0.02389391,0.00950124,0.06565378,0.02792762,0.04752206,0.23294742,-0.11287199,0.06527111,-0.03458082,0.05812784,-0.0626789,-0.01661161,-0.00273626,0.00793046,-0.09618608,-0.03415772,0.12747371,-0.18161116,0.17988828,-0.0037356
vgwG6e9TFcw,0.01345877,0.00040557,0.0336095,0.00546908,0.02128255,0.15228349,-0.08664998,0.04633547,-0.01651467,-0.00600835,-0.0966522,-0.01253804,0.00834242,-0.04881971,-0.02684787,-0.20941252,0.2155226,-0.04369011,0.05424108,-0.02709489
roUppNywDks,0.02757333,0.00809638,0.0549205,0.0159981,0.04318597,0.28460147,-0.12197302,0.00351015,0.12543885,-0.06203663,0.6060653,0.10394164,0.02376625,-0.0043152,0.06440031,-0.06905235,0.04986966,-0.13893861,0.0445899,0.04424903
ExlWYbISs6I,0.01811806,0.00713114,0.05492128,0.01655952,0.03953022,0.19672316,-0.10340166,0.02930267,-0.00177537,-0.02287165,-0.10806612,-0.00212472,0.00183218,0.0166164,0.05535759,0.21030407,-0.20948709,-0.11902756,-0.16483517,-0.01802931
a9T6IRpz31E,0.04129388,0.02086754,0.05914867,0.02767293,0.04436457,0.1880831,-0.06133374,-0.04626852,0.12419732,-0.07609993,0.55369671,0.09423048,0.01274326,-0.04021887,0.01603537,-0.13132989,0.08527017,-0.24311709,0.06763839,0.02287866
pcAJLeGAtwc,0.01253005,0.00711973,0.02740408,0.00502327,0.01755054,0.06775418,-0.03470983,0.00441208,-0.0106829,-0.0018113,-0.04333179,-0.00596481,0.00644834,-0.00484402,-0.01335231,0.00984247,0.01067449,-0.00192741,-0.02413656,-0.00462074
oRVJREzko-M,0.01540299,0.00205843,0.02358226,0.01688901,0.01190888,0.08567317,-0.04643662,0.02385109,-0.01106785,0.00447199,-0.00088966,0.00359812,-0.01647098,0.01096817,0.03581078,-0.00032028,-0.01811716,0.02941353,0.01790359,-0.03924002
BdUzhVM5w1U,0.01007996,0.00303565,0.0237879,0.00558312,0.01579927,0.15923429,-0.0823355,0.04017314,-0.01251711,0.01591662,-0.08489744,-0.00636641,0.00712009,-0.02628812,-0.01080387,-0.06685037,0.07475556,0.04570729,0.03211792,0.01079355
39czcByvq7c,0.02521452,0.00706753,0.03806807,0.00899694,0.03493473,0.15189762,-0.04908818,0.03951738,-0.00970043,-0.01156643,-0.01137199,-0.00294036,-0.006136,0.0349674,0.00814393,-0.03359722,0.00578981,0.01833065,0.07536425,0.01848936
u5HPVyEpyNI,0.096439,0.00754151,0.11570789,0.02723723,0.12815944,0.01448165,0.00222435,-0.17494054,-0.00333688,-0.06261559,-0.04819977,-0.00481213,0.22270934,-0.1385258,0.05749594,-0.09440302,-0.16988921,-0.02014244,0.14363731,0.10727934
eRD2C7w9r6Y,0.05917843,-0.0083319,0.03149573,0.00965686,0.03630058,0.01902843,0.03239493,-0.04982005,0.01466322,-0.02143255,0.00293317,-0.01588004,-0.0269658,-0.03461589,-0.01165246,-0.00557742,0.01029774,0.02569328,-0.0254637,-0.01516238
UsS6bOYnnOI,0.01341764,0.00152376,0.03773394,0.01531448,0.02524989,0.16298657,-0.06686021,0.01751247,0.01824473,-0.0017363,0.10886375,0.02815735,0.03471476,0.062182,0.03744668,0.04335262,-0.00230269,0.20526356,-0.07535596,0.07933998
Cr7oGnSzmb4,0.00927248,-0.00116661,0.01756573,0.00328974,0.01533473,0.09507722,-0.04903037,0.02569267,-0.02194772,0.01022196,-0.06694628,-0.00701966,0.01143314,-0.02580478,-0.00245021,-0.07955518,0.09925074,-0.03342016,0.00867421,-0.02560968
jAaw0vn7eLs,0.00991919,0.00293993,0.03241948,0.01124987,0.02357919,0.14638192,-0.07260588,0.03320301,-0.0009598,0.00694844,0.04685522,0.01200842,0.01512101,-0.0014374,0.02743356,0.00091588,-0.00164632,0.16105971,-0.02088753,0.00657267
4at2bVIhLgc,0.00973132,0.00294113,0.01537354,0.00385901,0.00722198,0.10999088,-0.04675247,0.03085301,0.00695297,0.00571836,0.1305712,0.02276837,0.01689367,0.02110686,0.04179744,0.06752759,-0.05270214,0.13706286,-0.02581022,0.00218897
m-nnyNZ0TQ0,0.01676687,0.0036676,0.06030093,-0.01201276,0.01195957,0.19382493,-0.07538588,0.06352498,-0.0189684,0.02846281,-0.1453586,-0.02178483,-0.04311082,-0.01052637,-0.06311423,-0.02507093,0.00521305,-0.05272558,0.05332153,0.00562372
4Zi41MRVP0g,0.09489713,0.01587256,0.11345384,0.1657601,-0.03280142,0.01494797,0.00953682,-0.09944272,0.04301942,-0.00869488,0.02434559,-0.05443807,-0.03608033,-0.12261822,-0.04023575,0.0399521,0.01529417,0.02536058,-0.01720945,0.00112019
JWOErbTL9N4,0.0132838,0.0089006,0.03185525,0.00200592,0.01848294,0.12891976,-0.06327925,0.01397525,-0.01578965,0.01460908,-0.04203546,-0.02623517,-0.0056774,0.02451314,0.03655773,0.05607723,-0.05535893,0.00983583,-0.0331696,-0.01758122
dl0-TveDDGA,0.01170479,0.00117849,0.04417746,-0.00201399,0.01671193,0.21938382,-0.10705399,0.0771281,-0.02956309,0.0375779,-0.13515418,-0.03062305,-0.02031687,-0.01658505,-0.03241928,-0.06419719,0.0510571,0.00297889,0.06846064,0.04000922
Bcag49Fk3zA,0.01946631,0.00187571,0.04817713,0.01841038,0.04195656,0.20443141,-0.08025064,-0.03345346,0.12193471,-0.07139218,0.55980121,0.08643252,0.01249592,-0.02605166,0.03598412,-0.12952738,0.11742064,-0.34340596,0.06342211,0.0134782
ktkpd9A8MD8,0.06741536,0.03940389,0.10870373,0.00836,0.09677601,-0.02402031,-0.01846718,-0.04281958,-0.08108795,0.0724778,0.04457069,-0.0604961,0.04663105,-0.01625305,-0.06746461,0.06901026,0.03907603,0.05816765,-0.00249307,-0.02419773
wy3a_xJI3so,0.02191497,0.00290113,0.06462633,-0.01025557,0.01538192,0.21177248,-0.08723683,0.05724703,-0.02466623,0.04733539,-0.16731622,-0.03862992,-0.01811384,-0.02373624,-0.02146837,-0.05363134,0.0173525,0.01231771,-0.01154493,0.02623148
DYkyYUjOZTk,0.01605312,-0.001073,0.02654197,0.00620102,0.0263204,0.08647397,-0.03847323,0.01293069,-0.01893014,0.0108616,-0.01776595,0.00368739,0.00420488,-0.00060152,0.04134416,-0.00673576,-0.00702817,0.02314066,-0.0085593,-0.03397139
0HSNPIttevk,0.03606039,0.01221509,0.06926913,0.02903559,0.00530321,0.28503273,-0.14221818,0.08312388,-0.02197908,0.01602239,-0.11995354,-0.02582844,-0.02874117,0.01627283,-0.1007549,0.00106456,0.04376256,-0.19671715,0.12145452,0.00636954
-uSQcEfnKp0,0.00999065,0.00494698,0.02422196,0.00673733,0.01958317,0.08018363,-0.03369097,0.00459646,0.00093472,0.00029571,-0.01152473,0.01224793,-0.00571103,-0.00232118,0.02216752,0.00924968,-0.00549518,0.02180787,-0.02537411,-0.02050969
1PIbKMyFMAY,0.0631497,-0.01240567,0.10130279,-0.01615025,0.04016139,0.0085916,0.00864692,-0.06458366,-0.02808568,-0.03318247,0.01983437,-0.01645361,0.04982236,0.0040788,-0.13350465,0.09921573,0.07181009,0.03939664,-0.05562789,0.0081898
-1Fhry-Mqks,0.01253208,0.00324667,0.02727076,0.0067213,0.01691203,0.14152472,-0.07026536,0.02723382,-0.00167146,-0.00538546,-0.01151907,0.00094427,0.01016543,-0.00232957,0.02572205,0.06190958,-0.01980331,-0.05930555,-0.07026302,-0.00600857
z7Qp9Q_Br88,0.01549027,0.00492278,0.03293367,0.01051634,0.02972345,0.10497308,-0.05577057,0.01252688,-0.0036722,0.00497629,-0.05045019,-0.00734426,0.00885893,-0.00850481,-0.00821688,-0.06709475,0.05282233,0.0260232,0.02523246,-0.0279293
rc-xQnupse0,0.10668267,0.01945701,0.14361201,0.03516306,0.14483477,0.01051848,-0.00902529,-0.16762197,-0.00654684,0.01949294,0.02313982,-0.0268996,-0.02595644,-0.05821205,-0.16050312,0.05506268,0.02019534,0.08969453,-0.0709111,-0.12180921
mDh52QTqR0o,0.10364061,0.0103181,0.13077557,0.00267435,0.08770172,0.04957476,0.03727531,-0.1555062,0.05442244,-0.05450335,-0.00402542,-0.03456474,-0.00089771,-0.0519562,-0.12618646,-0.00272336,0.01850887,0.05951947,-0.1267208,-0.02281238
LLK879SXq_w,0.12638483,0.01300341,0.3498887,-0.09831217,-0.20293237,-0.0526259,-0.09167378,-0.10517744,0.07502796,-0.01733061,-0.01616926,-0.02504067,-0.01730613,-0.03308074,-0.00130938,0.03738331,0.0063167,0.02280207,0.09632974,-0.06453873
fwUWAoSeg2g,0.04878159,0.00254597,0.16588404,0.27724406,-0.14427387,-0.01534445,-0.02202862,-0.02309376,-0.00043095,-0.00420703,-0.00424791,0.04005096,0.00473539,0.00620943,-0.00907997,-0.01705284,0.01236331,-0.00140966,-0.03614815,-0.0165385
kijJaXVri7Q,0.05637753,-0.0102336,0.0512798,0.01890754,0.04806148,0.03142916,0.00811048,-0.05830828,0.0180268,-0.03435939,-0.01744814,-0.01244986,-0.03392651,-0.03219577,-0.0044977,-0.00257614,-0.00298566,0.00366105,-0.03465758,0.01868023
_WrHMsTYlOU,0.0133189,0.00036424,0.02989764,0.00647278,0.0180923,0.07075156,-0.03396953,-0.00432352,-0.00077103,-0.03185739,0.03226301,-0.01598812,-0.00049437,0.00999422,-0.00244187,0.00837585,0.03746434,-0.14302422,-0.00473522,-0.04970525
POn6IRgP5-A,0.11443361,0.0346582,0.06548782,0.01086597,0.05831814,0.03424946,0.0256273,-0.1193958,0.08259721,0.0089053,-0.02721436,0.00613654,-0.09072429,-0.09872783,-0.0363853,0.01032065,-0.02198865,0.03574191,-0.0146659,-0.02511478
vNXFk8iGHk8,0.02207904,-0.00128927,0.05505241,-0.00036561,0.03175022,0.27293372,-0.13547387,0.09073871,-0.05135015,0.0416381,-0.15729048,-0.02338397,-0.03563979,-0.04374662,0.09866687,0.06130482,-0.12503478,0.11840439,-0.24463309,-0.01136027
oOCN30ulVyo,0.02414921,-0.00630837,0.02167633,0.0031412,0.02045904,0.05115259,-0.02364983,-0.00453056,-0.01149467,-0.01673268,-0.01157749,-0.00733781,0.04493074,0.01130375,0.0230129,0.05318271,0.03679579,-0.06037847,-0.04481653,0.02853375
FYMdllTCrc0,0.01294752,0.00360169,0.03724943,0.00836476,0.0243496,0.2508114,-0.11388002,0.05793307,0.02604203,0.00381893,0.26424569,0.05582306,0.04226458,0.05377456,0.07376782,0.08400602,-0.08144689,0.29868158,-0.04370239,-0.00501661
TET8fTKH1e8,0.13444741,0.02260381,0.15029863,0.00638643,0.09577914,0.01790105,0.02457309,-0.15627614,-0.0159081,-0.02064594,-0.00663803,0.05715163,-0.02355611,-0.07923882,-0.13979315,0.15088456,0.12902381,0.03598053,-0.14527261,-0.09775823
QfUb5MEAOXA,0.01240191,0.00124587,0.03370228,0.00165822,0.02218157,0.08664195,-0.04402719,0.01365803,-0.01375305,-0.00116385,-0.01132477,-0.00898395,0.00714655,-0.00581935,-0.01056004,-0.02118027,0.03212777,0.0055582,-0.00500924,-0.03004253
kH_bSvf7EVA,0.00821064,-0.00119219,0.01715426,0.0057621,0.01320929,0.12078536,-0.0604723,0.02945992,-0.00797608,0.00490975,-0.03561573,-0.00274481,0.01474878,-0.00694929,0.01741092,-0.0819167,0.12074853,0.01979623,0.00600626,-0.01359748
gzjXoJoWgjs,0.04210532,0.00148102,0.058506,-0.00130379,0.03458648,0.25994856,-0.1218944,0.06752653,0.00328342,0.01833029,-0.11186519,-0.0292393,-0.05893154,0.0148333,-0.02919175,0.11494159,-0.11387357,-0.05619696,-0.09776507,0.02062144
Lqq78q17jDY,0.13876496,0.00996494,0.21316305,0.00121073,0.12046137,0.02687504,0.00825142,-0.2934223,0.32436217,-0.13807245,-0.10522142,-0.34864451,-0.24250218,0.36017324,0.44964179,0.09984424,-0.08900112,0.05250592,0.4437702,-0.15405069
3LnNwS6rqk8,0.08946291,-0.02257194,0.0879144,0.01573981,0.09212307,0.04534123,0.02072426,-0.11712084,0.03385223,-0.05268399,0.00787965,-0.07852885,-0.04659829,-0.1494572,-0.04579085,0.03857041,-0.01333434,0.05896851,-0.05149412,0.02282934
s9TcINJc2pw,0.01454208,0.00853767,0.05594087,-0.00056576,0.00707546,0.32012827,-0.15431508,0.1159092,-0.03557776,0.05220056,-0.23298002,-0.04171495,-0.02010583,-0.06130247,-0.09245759,-0.08830757,0.12584127,-0.07107436,0.09383426,0.04127279
UPbaPjDGQIE,0.00996456,0.00229097,0.04041606,0.00347744,0.01182759,0.17120069,-0.09152256,0.04561372,-0.00283343,-0.00873727,0.05867597,0.01194201,0.02092994,0.01067517,0.04017135,0.07042539,-0.04815603,0.06683477,-0.02002645,-0.00843509
UM9dcnJXX0k,0.0247255,0.01974499,0.02613459,0.01935858,0.01189751,0.05370054,-0.01332511,-0.01328369,-0.01189826,-0.01912628,-0.0013311,-0.02715255,0.02276311,-0.00040197,-0.02242614,-0.03039553,0.01213672,0.13493344,0.0613425,-0.05534301
JrGlAw_Q7ow,0.01674752,0.00410019,0.05299687,-0.00315025,0.02870433,0.21370739,-0.11042745,0.08475862,-0.02425393,0.03737195,-0.1356855,-0.02215705,-0.01282539,-0.02763527,-0.03325918,-0.08011509,0.05188553,-0.00917313,0.01590391,0.02397485
ERWIJPTNZVM,0.00716452,-0.00184635,0.01266784,0.00707159,0.00766531,0.03927858,-0.01727902,-0.01172382,-0.00612233,-0.00729539,-0.01043949,0.01107816,-0.00798221,-0.0068036,0.00408157,0.02995045,-0.0289853,-0.01798695,0.01351663,-0.03876362
LkaaMQx9uZ0,0.07249133,0.01069006,0.16321879,-0.0031281,0.11257444,-0.00241303,-0.02487295,-0.13393353,-0.04778142,0.09939014,0.02826542,-0.09632834,-0.06636329,0.15214303,-0.0303742,0.1425479,0.01775365,0.10809536,0.10795734,-0.03509964
KdmRWazuBRU,0.07324291,-0.00749214,0.10399076,-0.01916193,0.05026844,0.02695668,0.00910799,-0.12315796,0.07279139,-0.12444833,-0.03228016,-0.0992121,0.01225335,0.00566521,0.25874588,0.02093034,0.10680406,-0.01470397,-0.03445092,-0.05338117
mQR17nCXUSA,0.12642995,0.01216095,0.08638716,0.02344103,0.11237913,0.01041113,0.01843157,-0.10777452,0.07510941,-0.05158593,0.00904275,-0.05148382,-0.10333832,-0.19785196,-0.00977357,-0.04282007,-0.05196073,0.01520502,0.03259004,-0.01810647
tVpky2riji0,0.1022185,-0.00662384,0.08630191,0.03586604,0.06933996,0.02942786,0.02806632,-0.1082045,0.03599276,-0.02754096,-0.01676282,0.02630865,-0.02689481,-0.03606993,-0.06580082,-0.01074848,-0.00723991,0.02186846,-0.05053358,0.00855377
tbvteFr4SPQ,0.06548344,0.00566406,0.10560707,-0.00768108,0.0558091,0.01897462,-0.0045864,-0.09591442,-0.04275907,0.01939839,0.03469877,0.00381667,-0.00120981,-0.07580042,-0.04016576,0.10066908,0.06009739,0.05595778,-0.02119227,-0.04114691
5-ASQ44GpNI,0.16523878,-0.01505079,0.16092765,-0.00331943,0.09345074,0.03225804,0.03172215,-0.18592307,0.06075764,-0.03642403,-0.02492761,-0.02082622,-0.05880179,-0.11436748,-0.14396916,0.07126652,0.02051274,0.06880582,-0.07739961,0.02297995
TRVnxUYQAmI,0.07112984,-0.00397281,0.09064715,0.02177751,0.07532888,0.04934389,0.06918024,-0.0819987,0.02238621,-0.03846208,0.00085888,-0.06755675,-0.03608518,-0.0709464,-0.11057831,0.07371623,0.01843266,0.02145672,-0.0291819,0.0209238
ucN2hf0CgI8,0.02401898,0.00567315,0.03384288,0.01381265,0.03001467,0.07463237,-0.02666738,0.00064129,0.02435335,-0.0103572,0.02997237,0.00453137,-0.00059628,-0.01855807,-0.00085591,-0.00892147,-0.01981884,-0.00799774,-0.02862767,-0.0258292
BOmc_wliaRg,0.02322892,0.007681,0.02478009,0.01954851,0.01279852,0.03340912,-0.00966467,-0.01848536,0.01484602,-0.01256949,0.0555798,0.01396724,-0.00861362,-0.0402773,-0.00704957,-0.01203261,0.03475438,-0.0003448,0.00199937,0.00445337
0kHJZFOuMWc,0.06392834,0.02552006,0.17544526,-0.07269047,0.00863001,-0.02016209,-0.0289448,-0.09055017,-0.01278333,-0.07584259,-1.48e-05,-0.06043503,0.03041825,-0.02639758,-0.08537821,0.25031215,0.07998813,0.12485296,0.08009448,-0.08445568
eBbqRceO2qY,0.09766962,-0.04352101,-0.01112373,0.00934341,-3.173e-05,0.03853561,-0.00773656,0.03234592,0.03868981,0.00799246,0.02348762,0.02695119,0.01016637,-0.00912485,0.03594329,-0.01688671,-0.03904389,0.02599102,-0.00864015,-0.03177483
quCJwkDAx0g,0.01835025,0.00559966,0.04458491,-0.00393861,0.02065848,0.1082117,-0.05141924,-0.0173375,0.03169652,-0.04277897,-0.05588625,-0.05633398,-0.00387511,0.04555158,0.18053339,0.03353942,0.06263903,-0.06904145,-0.10856329,-0.03554047
WeliLUboy3M,0.03928089,0.01576704,0.05928185,0.03470653,0.03526162,0.31654045,-0.11504204,0.00733719,0.14262738,-0.053107,0.73473749,0.13490849,0.00703216,-0.02756331,0.06494207,-0.08150562,0.06288763,-0.1377487,0.09748234,0.0402109
KGeCwEOLPGE,0.02092745,-0.00146901,0.05398471,3.963e-05,0.02867894,0.28626869,-0.14121412,0.08838783,-0.0496992,0.04508654,-0.16513564,-0.01883522,-0.0384205,-0.05512666,0.0946868,0.05111319,-0.11915879,0.1115055,-0.25962065,-0.01882635
3era1_feC3U,0.00823014,0.00285258,0.0188916,0.0059926,0.01908794,0.01434047,-0.00581895,-0.00435936,-0.00191462,-0.018187,-0.00645327,-0.00023788,-0.00598104,-0.00526896,0.00324715,-0.00195612,0.00065688,-0.01355984,0.00657344,-0.00597108
k7aOM--Ycts,0.00954694,0.00625971,0.02515405,0.01153543,0.01611874,0.09734872,-0.02920948,0.02617468,-0.0181605,-0.03026239,-0.0257431,-0.04097767,0.01341854,-0.02363607,-0.04228114,-0.08784685,0.01771773,0.2869523,0.05748386,-0.0962472
48hHo2WcAQI,0.05744732,-0.00970421,0.08006514,0.01918351,0.07649276,0.05418322,0.03477754,-0.13598849,0.01613576,-0.04960278,0.065351,-0.12943529,-0.00294773,-0.05481863,-0.20804313,-0.02617608,0.02027177,-0.04889263,0.01996716,-0.24215887
8fIRAhGGRgA,0.02351399,0.00158664,0.05894716,0.01026491,0.02666406,0.33322705,-0.15870835,0.09091039,-0.00683172,0.02959286,0.0449135,0.01780902,0.02480364,-0.02226982,0.02586859,-0.08413121,0.08011661,0.17536412,-0.03051392,0.01923117
8u7HqZJQHDM,0.02437215,0.00381578,0.05990454,0.02637141,0.04418231,0.32933437,-0.13924172,-0.00235803,0.14705899,-0.04719644,0.75147858,0.13911111,0.03256057,-0.00464112,0.06785047,-0.0997949,0.06734462,-0.05872637,0.072661,0.06309631
0Z1lChyi2W4,0.01176405,0.00587668,0.03602188,0.01330228,0.02228656,0.15894638,-0.07888192,0.04347505,-0.02225721,0.00830362,-0.06025443,-0.02706212,-0.00523156,-0.01527652,-0.02959401,-0.04951817,0.0773849,-0.13161319,0.07527128,-0.02260046
er7v-GJj_V0,0.1035943,0.01378461,0.09567555,0.03032695,0.1142022,0.00044936,0.0030549,-0.05327262,0.01678432,-0.0797477,0.00172018,0.0333877,-0.03263986,-0.11954586,0.01915039,-0.03544083,-0.0427544,-0.00367245,-0.01518267,-0.0300884
nVHr2D6tnA4,0.09510717,0.04797853,0.10411896,0.02727466,0.14113269,-0.05240489,-0.04053495,-0.03493104,0.11820207,0.33198877,-0.02971027,0.01729265,0.11290582,0.02615265,-0.01609482,-0.03309651,-0.02633059,-0.02279862,0.03057318,-0.02053453
t6GzhyGTKCo,0.01055073,0.00286832,0.04565616,0.00014478,0.01613157,0.21526033,-0.10499351,0.06880198,-0.03478473,0.0177878,-0.15153176,-0.01523852,0.01211308,-0.03606899,-0.00966993,-0.06480689,0.05237737,0.01250227,0.01113217,0.02432806
P9MkPdQc74o,0.03802842,0.03454358,0.04740085,0.01625047,0.04244737,0.00417731,0.02160222,-0.07350995,-0.03497606,0.07382587,-0.02177547,0.14383951,-0.04391753,-0.03702589,-0.06216378,0.09785613,0.07784957,0.01764362,-0.041653,-0.08480373
8QsAx7s9PmQ,0.01025421,0.00769479,0.0231898,-0.00343979,0.0081634,0.06681549,-0.02151389,0.01671641,-0.00827325,-0.00568245,-0.01552584,0.00948677,0.02139937,0.00250473,-0.00917587,-0.01466926,-0.0176184,0.00228133,-0.01897231,0.0127383
6r-qlEX6hGY,0.01101395,0.00451463,0.03090979,0.00289029,0.02177922,0.07193897,-0.03326691,0.00750859,-0.00702467,-0.00242975,-0.02649767,-0.01559677,-0.00470732,-0.01608947,-0.01124224,-0.02259809,0.01332781,-0.00011249,0.0080787,-0.00138649
OgbLx7K5jKI,0.01181895,0.00325359,0.03631672,0.01115629,0.02996789,0.14598936,-0.07235666,0.02735462,-0.01367629,0.00683495,-0.04390365,-0.00896474,-0.01016276,-0.00433891,0.0194202,-0.01481727,-0.02058836,-0.02864818,0.04861785,-0.01273359
9opMZrn2-zg,0.0151262,0.00342513,0.06596061,-0.01279749,0.01982328,0.25577984,-0.11124277,0.08610636,-0.02554637,0.04658877,-0.24060462,-0.02568496,-0.04434099,-0.02581786,-0.00355863,-0.05829794,0.02325922,0.02537134,0.00879814,0.10975979
OwbaFLtBpkQ,0.01644934,0.00266768,0.0456554,0.0090361,0.03199468,0.1195551,-0.05802515,0.01210701,-0.01632014,-0.02453623,-0.01627305,-0.03485286,-0.0135943,0.00209733,-0.00508858,-0.00124232,0.0237688,-0.20130314,0.01720071,-0.07494506
_jxLMMcKmRQ,0.11254467,0.01556796,0.07691296,0.01498499,0.07281339,0.02574273,0.03427275,-0.16598019,0.03556599,-0.02890267,0.01731783,-0.07056007,-0.08592783,-0.14469444,-0.05348296,0.12006983,0.0311765,0.02594316,-0.00622221,0.05379344
HRxULulg_hM,0.02641595,0.00568136,0.05484968,0.01890665,0.0526519,0.17479908,-0.08462436,0.05822173,-0.0219803,-0.02799536,-0.02324965,0.01772046,0.02729252,0.02761505,0.05498957,0.14351556,-0.20181694,-0.09561102,-0.1332818,-0.04629746
if955Z_s4Ts,0.00990413,0.00948123,0.02009826,0.00715489,0.01137141,0.12726007,-0.06243941,0.03503242,-0.01889932,0.0128734,-0.09468152,-0.01687063,0.00505727,-0.01791662,-0.04849174,0.01015149,0.05405539,-0.0821415,0.04560909,0.01362243
NoXtR658c_k,0.06126581,0.00945027,0.0767075,0.03810334,0.06034852,0.04568383,0.00419966,-0.10041946,0.05320414,-0.0092019,0.00430279,0.0017943,-0.01248026,-0.03554976,-0.04188811,-0.00606262,-0.00302895,-0.01634983,-0.00418918,-0.04121182
S0WQP5GeTZs,0.01349294,0.00763354,0.03654208,0.01215404,0.0299117,0.1651194,-0.07585854,0.02925517,0.00255038,0.00275202,0.09820685,0.02376369,0.02238953,0.02543029,0.03147763,0.00816008,-0.01834285,0.10503642,-0.04415535,-0.0385267
gEUMAljLr78,0.08032757,-0.01812428,0.08151737,0.02124592,0.09310701,0.02423667,0.00037583,-0.10011919,-0.10186798,-0.06070331,-0.02155426,0.08744438,0.26908644,-0.00358117,0.07223816,-0.04889985,-0.11713507,4.38e-06,0.12940078,0.17059896
BPt0fwBCDbQ,0.10547805,-0.01774085,0.09845311,0.05013905,0.10887333,0.00424766,0.0076169,-0.08546387,0.03298362,0.0167532,-0.0759642,-0.00416475,-0.02036349,-0.10940097,0.13877782,-0.11525327,-0.0137151,0.04686406,-0.07751406,-0.07539225
MqpQhyjFZQU,0.02944467,0.04916906,0.00518441,0.00818317,-0.00172634,0.0280168,-0.00419575,-0.01211892,-0.00329926,0.00594111,-0.00824125,0.00865123,0.01010592,0.00755816,-0.02411854,0.01943883,0.01770777,0.0389853,-0.02455069,-0.02874398
5wuHYQMnYhA,0.0179418,0.00328924,0.03483609,0.01321496,0.02733236,0.13459914,-0.06876492,0.02844999,-0.01584573,-0.02778217,-0.03758739,-0.00353589,-0.02125386,0.05031032,0.0112478,0.25055824,-0.19773651,-0.21705998,-0.00505098,-0.10914962
Aa1qfpfSaVY,0.01319819,0.00584661,0.05098979,-0.00977367,0.00683225,0.21194955,-0.09194397,0.0639075,-0.00983231,0.036953,-0.10890229,-0.02343762,-0.0391319,-0.03433251,-0.02552648,-0.03129195,0.02988584,0.00596348,0.01073604,0.03873805
iRach9lpIlg,0.01202187,0.01306821,0.0195663,-0.00213179,0.01196226,0.00720802,-0.00435433,0.0077345,-0.0052879,-0.01844056,-0.00028853,0.00341385,0.01510716,0.00017101,0.00613627,-0.00876249,-0.00716022,0.00753521,-0.00729478,0.01451347
KKwxanUOAd4,0.06192096,0.00853211,0.12171453,-0.00967123,0.06402485,-0.02242673,-0.03535925,-0.05655739,-0.07833351,0.04336363,0.00073483,-0.00169284,0.09264597,-6.957e-05,0.00481315,-0.01405465,-0.03036712,0.03988307,0.01185927,-0.00998851
-uUlnDjQxhg,0.02527305,-0.00516226,0.03993514,0.01505681,0.0112444,0.26530658,-0.13056433,0.07966514,0.00892098,0.02180965,0.10795194,0.02526316,0.00729064,0.01264149,0.04525787,0.01841767,-0.00659596,0.15357222,-0.01382639,0.01533198
MWrMtRjLhjk,0.05343336,0.02940676,0.08321255,0.02561483,0.09773417,-0.03449768,-0.03698608,-0.03240542,-0.09614181,0.17309771,0.01705185,-0.03441242,-0.00234222,0.04274371,0.03332159,-0.04870811,0.04506112,0.00957826,0.00948319,-0.06002783
lk7HWLeXjS4,0.10205148,0.00273097,0.10281507,0.02719097,0.06420966,0.02456346,0.01484466,-0.11834142,0.01532641,-0.05222779,-0.00897246,-0.02010885,0.08063776,-0.1066219,-0.0012444,-0.05026177,-0.0656718,-0.03460572,-0.01168912,0.01978252
2mOqRPcWgMM,0.02286336,0.00263249,0.03367825,0.01335013,0.0172533,0.22246457,-0.11941967,0.07207056,-0.02021704,-0.00194642,-0.03970505,-0.0046228,0.00258847,0.00987694,-0.00935251,0.03021876,0.04327137,-0.05161185,-0.00641321,0.00345573
aZVcAlzBIp4,0.02017462,-0.00362578,0.01109376,0.00591671,0.01372904,0.03086416,-0.01690795,0.0118062,-0.00847935,-6.21e-05,0.00061992,0.00240023,-0.00333765,0.01364873,-0.00527954,0.01912573,-0.00137107,-0.00697111,0.00119578,-0.01248626
xhCLLakHBa8,0.04589218,0.00523374,0.05464427,-0.02201736,-0.00366171,0.01446001,-0.00871263,0.00497833,0.00427587,-0.0315529,0.01472359,-0.01447612,0.00480922,0.03657544,-0.02407583,0.00602733,0.00990784,-0.02826425,-0.0256729,0.01133316
GXeBi91SkIw,0.01148742,0.00732704,0.02854216,0.01511739,0.0151022,0.1503341,-0.06921957,0.02583369,0.01773531,0.00637876,0.14667128,0.02268818,0.01488914,0.01078169,0.0343929,0.00774162,-0.01776244,0.12735261,-0.00250876,0.01559516
zxQJIBt9CBI,0.0837239,0.00685483,0.08973557,0.02084226,0.10587032,0.00511114,-0.01128738,-0.00600958,0.01635046,-0.05533649,-0.01111662,0.01383308,-0.06598056,-0.07355933,0.01008411,-0.0398574,0.0191558,0.00355441,-0.0411002,-0.00536548
mbGPgjXCx24,0.08442308,0.03977056,0.10854086,0.04418705,0.09946806,0.02353005,-0.00612413,-0.1316748,0.0072566,0.05731156,0.01348962,-0.00812475,-0.042286,-0.03867559,-0.12110713,0.03635264,0.03053933,0.04818084,-0.02251745,-0.09876581
FBq_mtNPweg,0.09336998,0.05886709,0.29474049,0.70732536,-0.39491839,-0.05555508,-0.02197613,0.02776303,-0.02299051,0.07624363,0.01974019,-0.03105744,0.02408861,-0.07172956,0.04041367,0.05143949,0.00847963,-0.03482198,-0.01649505,0.05021196
9VyCOVdFpL8,0.00914935,0.00176305,0.03351412,0.01266661,0.02203131,0.22033588,-0.10899619,0.05567143,0.00092993,0.00372202,0.10754956,0.02219091,0.01812167,0.02261507,0.03204063,0.01257573,-0.03192424,0.17327531,-0.00709846,-0.03560747
kmKuk_TCEvU,0.12871074,0.02424489,0.12024332,0.03219103,0.13320937,0.02811471,0.02539753,-0.17528514,0.10986388,0.01775181,-0.01215365,-0.06254383,-0.0590088,-0.13063821,-0.03131687,-0.05665085,-0.11648634,-0.04196157,0.03861262,0.05012359
RWGr8LwG3TY,0.1283428,0.01269463,0.11704853,0.0246209,0.11706945,0.03536769,0.0573289,-0.19809488,0.08582946,-0.06783946,-0.02033883,-0.05912445,-0.01932587,0.00300589,-0.10365503,0.14476211,0.05728408,0.03842292,-0.08392369,0.12867302
EGTF9mGda4U,0.01609999,0.00938565,0.01867386,0.01071228,0.01618567,0.06253623,-0.03188528,0.0209129,0.01620766,-0.01344845,0.07482368,0.01743033,-0.00959788,0.01129585,0.01201288,0.02638889,-0.01648644,-0.003742,0.01508189,-0.01026426
sKME5er1OKc,0.06080034,0.00577905,0.09292857,0.02937446,0.10691316,-0.01500392,-0.01369622,-0.07088726,-0.02679868,0.13140741,-0.01106892,-0.02922143,0.01360594,0.00381144,-0.02678241,-0.05370552,-0.00727777,0.01149231,0.01021543,-0.03509495
YhNUPGphSM8,0.0878036,-0.02728124,0.07337594,0.01273213,0.06856285,0.03287711,0.01292325,-0.0958085,0.00392106,-0.04595989,-0.00345739,-0.08000294,-0.03518642,-0.13618283,-0.03746251,0.07641598,0.044098,0.03633126,-0.06239336,0.03836578
Cql6TAdpPDU,0.28389395,-0.13188012,0.08280866,-0.04194981,0.00995382,0.02619127,0.012952,-0.1026835,0.04691756,-0.06927206,-0.04982485,-0.02826466,-0.05344229,0.06437704,0.08088442,-0.06910799,0.04168804,-0.0301929,-0.11087217,0.01202551
-CB2CwSPtAQ,0.01917557,0.00796186,0.04926634,0.00620195,0.02457274,0.11065707,-0.03479203,0.01373507,0.01155107,-0.01595102,-0.06418363,-0.021389,-0.03281494,0.02776005,-0.07693301,0.01261007,-0.04761488,-0.11309459,0.02918032,-0.01775552
dhbt8y_LXQY,0.03346349,-0.00215561,0.03521307,0.01259721,0.0320884,0.12503319,-0.0610583,0.0396708,-0.01166044,-0.0048255,0.00442347,0.00516916,-0.01550556,0.02288666,0.02283562,0.07803328,-0.06488392,-0.02125639,-0.04214046,-0.0322862
VsLOWe6VuyQ,0.01763986,0.00037318,0.02849444,0.00827752,0.00839243,0.05904642,-0.03039205,-0.00847292,0.00198337,-0.00719774,-0.01597603,-0.00390893,0.02593511,-0.02366743,0.00308857,0.00117152,0.0175495,0.03254923,-0.05904858,-0.02103511
fpmYvXCzO1c,0.01212467,0.00010926,0.03163531,0.01075754,0.02246755,0.17831479,-0.09070564,0.04500649,-0.02817506,0.00686863,-0.05131823,-0.00708926,0.00038982,-0.0027884,0.04353292,-0.03775137,0.00582529,-0.01170948,0.09315155,-0.00684964
msYTFQ4OIu8,0.02332167,0.00319755,0.06153469,0.02583704,0.04881386,0.28643389,-0.12548699,0.00885161,0.10408907,-0.02524908,0.48858609,0.08601553,0.0064053,-0.01302647,0.00034912,-0.17728721,0.13911059,-0.27245187,0.17809141,0.04963546
UUzxEVhRQgQ,0.04630523,-0.01481868,0.02873542,0.02048796,0.01967142,0.00547352,-0.00261392,-0.02381212,0.00515173,-0.02391006,-0.01465687,0.02383148,-0.02881831,-0.00425944,-0.02338927,-0.00816411,0.00787093,0.0367446,-0.00474403,0.02879843
wEb6ULf3TzU,0.01525207,0.00102311,0.02572597,0.00344972,0.01781008,0.09789265,-0.05019211,0.01768933,-0.0184692,0.01961415,-0.02944297,0.00052939,-0.0020152,0.00050672,0.00279898,-0.04440479,0.03417225,-0.0007379,0.02854374,-0.00693589
9oVPXnEkegY,0.09276249,0.01685862,0.08246865,0.01018428,0.05579075,0.03893636,0.01573902,-0.06804188,0.04816196,0.01290501,0.01134265,-0.03638248,-0.02036876,-0.05246015,-0.03954401,-0.03184822,-0.08405017,-0.02933705,-0.05927003,0.01626626
wJOakc64crg,0.04241175,0.01001127,0.07424462,0.03408444,0.05462615,0.02795128,0.01074297,-0.08286196,0.01957085,-0.0200783,0.03842905,-0.09826404,0.03588484,0.03721084,-0.14957359,-0.01325523,0.00071428,-0.07960867,0.02994534,-0.16881379
Cp3DxMyEBIM,0.05932901,0.03007516,0.16429883,0.0045033,0.1356627,-0.03094375,-0.0485109,-0.13647023,-0.20013022,0.01191465,-0.03608287,0.25634489,0.12911278,0.03960067,0.18634682,-0.01708624,-0.08259327,-0.0016219,0.24013232,0.0782846
MlcUa5-3G68,0.13308492,-0.0056593,0.12889107,0.0227407,0.11632503,-0.01424678,-0.01051137,-0.09666951,-0.08304978,0.18364734,0.01713462,-0.03815981,-0.03527381,0.04192774,-0.00741657,-0.0989441,0.01829226,0.0277072,0.03324154,0.01598368
iQxwDGnuByc,0.16058516,0.05332849,0.15913626,0.01845273,0.1275565,0.02208069,0.01523814,-0.11846348,0.02145777,-0.04144688,0.00524246,-0.07958197,0.02223681,-0.11634704,-0.05655693,0.03380786,0.03012676,-0.00830989,-0.11755173,0.03348466
07T7V-Szcx0,0.00910806,0.00161402,0.04253937,-0.00412467,0.01091686,0.22042827,-0.10413458,0.07684423,-0.03074742,0.03344604,-0.20118291,-0.02238777,-0.01601505,-0.04857319,-0.02055767,-0.08060922,0.07201214,0.04979782,0.03824502,0.05643108
sbzsqNJuZvg,0.01336551,-0.00013925,0.04224092,0.00497744,0.00781752,0.21695829,-0.10780548,0.08908282,-0.0256572,0.04037126,-0.12137258,-0.01718558,-0.03245653,0.01643105,-0.08185652,-0.08833655,0.09785737,-0.14255985,0.1635374,0.01183225
oqoBSeL5GIU,0.01358367,0.00301995,0.04364329,-0.00459309,0.01625776,0.16444041,-0.06557202,0.05143471,-0.0025891,0.01326628,-0.09192331,-0.03213953,-0.0411074,0.02943959,-0.0656402,-0.00083553,0.01280324,-0.11333885,0.12817966,0.01605893
sjbKZ4CY1Ow,0.02751261,0.00550049,0.05557426,0.00445393,0.03981639,0.29563533,-0.14191938,0.08219888,0.00569268,0.0098911,-0.01382433,-0.01319384,-0.02132738,0.01717853,0.04057009,0.08061755,-0.08348282,0.02120692,-0.08525868,-0.00259123
MK3Lz4fAvZo,0.05897778,-0.01124557,0.06077852,0.00903904,0.04917058,0.02812997,0.0175899,-0.07165708,0.02520371,-0.02815518,-0.0146468,0.00426539,-0.04884089,-0.00065238,-0.01485903,0.01601665,-0.00875844,0.02948342,-0.00618262,-0.00182207
ZAmCJoz4c4w,0.01360318,0.00642432,0.03556285,0.01168916,0.03064897,0.13648441,-0.0615954,0.03057695,-0.01268776,-0.0346507,-0.03308709,-0.00483627,-0.02065113,0.07579414,0.01117407,0.27998594,-0.21547849,-0.232317,-0.02059871,-0.07610882
up__2flbXw4,0.01226971,0.00028631,0.02779294,-5.343e-05,0.01324915,0.06444358,-0.03542653,-0.00525608,-0.00078371,-0.03458745,0.05057681,-0.01421333,0.00372871,-0.00818234,0.00747508,-0.03916778,0.08314973,-0.16091098,-0.00385092,-0.04442813
0elkAIACdFE,0.11382271,0.01221661,0.15602358,0.05272863,0.19343118,-0.06211472,-0.05539711,-0.01761722,-0.18968606,0.25630483,0.06210138,-0.03022795,0.06836564,0.15297557,-0.00251694,-0.10177408,-0.08061415,0.01155995,-0.07206524,-0.18730024
K9S3YgFZN9Y,0.00789827,0.00286417,0.02286661,0.00573001,0.02168814,0.05353228,-0.02801339,0.00798054,-0.01898687,-0.01193871,-0.01300851,-0.03174906,0.00254277,0.00669616,0.00407523,-0.02176339,0.02445683,-0.14010751,0.0211131,-0.06540221
kf9ghd5-VII,0.11183175,-0.02144395,0.13713115,-0.00216276,0.09583796,0.02023299,-0.00366816,-0.06253692,-0.02052828,-0.05494784,-0.01888287,-0.00958391,0.06388066,0.04887344,-0.12107656,0.10118102,0.11600619,0.10353136,-0.0337073,0.09305723
FZbMPtLRr00,0.00610063,0.00026194,0.02883556,0.00210479,-0.0045505,0.10784643,-0.04886668,0.04435014,-0.00530241,0.02122011,-0.0897937,-0.00861029,-0.02164322,0.02383565,-0.04932467,0.02298245,-0.01580843,-0.11520228,0.04864087,0.00328244
D4fkiQfzw_I,0.00575795,0.00136018,0.0209226,0.00810062,0.01548662,0.09236668,-0.04478111,0.01554402,-0.00204192,0.00447088,-0.00758606,0.00286024,-0.00831989,0.01901856,0.00735793,0.0643256,-0.07334806,-0.05747545,-0.07301632,-0.04336496
yA-SufBCL7g,0.58681879,1.03087721,-0.20778716,-0.04052209,-0.13489157,0.00114264,-0.01314304,0.03395315,0.48365021,0.25884455,-0.08709554,0.16315724,0.2392716,-0.03116821,-0.00544345,0.09331085,0.06589664,0.02834354,0.03472756,-0.00630515
9rRvmcDpWwA,0.01341376,0.00092334,0.03954579,0.01733891,0.02208101,0.22905207,-0.1176896,0.05436073,0.01224417,-0.00301273,0.19391486,0.04006363,0.04273698,0.04367329,0.05273221,0.07306492,-0.06561002,0.25294603,-0.03031438,0.02242463
YPboGQjMxNY,0.01728879,-0.00733924,0.0074566,0.00420393,0.00961662,0.01754567,-0.00759051,-0.00885648,-0.01194915,-0.00556977,-0.00505065,0.01968414,-0.00692923,0.00193863,0.01059146,0.00150663,-0.00299638,-0.00503903,0.02087751,-0.02438091
5tW7CPAVii0,0.01358284,0.00076833,0.04154515,0.01889609,0.02407624,0.26883285,-0.14264173,0.07677461,-0.03503585,0.02026366,-0.12937455,-0.00973368,0.01805324,-0.01947202,-0.04870499,-0.17949978,0.20013991,-0.07947887,0.17730976,-0.00492554
kTlm_3HwRFg,0.01405431,0.00919889,0.03217157,0.01440105,0.02272595,0.09626023,-0.04977901,0.01036686,0.00348803,-0.00765224,0.01236777,0.0076507,-0.00248709,0.0100567,-0.00621209,-0.01108894,-0.0008812,-0.01617557,0.02199132,0.00875548
T7_l896OH20,0.05628036,0.05973275,0.05130146,0.02762474,0.04161026,0.00757013,-0.00381407,-0.00341177,0.00941785,-0.0320557,-0.01233447,0.03391676,0.0217921,0.04820559,-0.0380735,-0.04484167,-0.03497122,0.01721033,-0.03976675,-0.06822838
0DB_Qj43O6Q,0.01728874,0.007569,0.0335181,0.01627897,0.03127358,0.05366608,-0.02611224,0.0246475,-0.02671831,-0.02804151,-0.01278309,0.02400531,0.05860145,0.00276976,0.00092054,-0.02809262,-0.0083384,-0.02099989,-0.07432653,-0.02928712
-pNi4dh7VFo,0.07610279,-0.00043404,0.06582895,0.00875353,0.05956355,0.02350042,0.0052314,-0.08716341,0.04000378,0.00823281,-0.01999514,-0.04269037,-0.05537242,-0.09979675,-0.00662316,-0.01806885,-0.06101331,-0.02881065,0.01430181,0.03368126
nH8YRX4Stfs,0.06234035,-0.01378941,0.10513473,0.01112802,0.02319453,0.04756265,0.00879963,-0.11446612,0.03615349,-0.05394735,0.03083774,0.01937023,0.00888879,0.03752843,-0.18274612,-0.01098818,0.05219616,0.02433677,-0.07630562,-0.00430127
WwEyLRmGU9g,0.04646515,0.00585182,0.13882855,-0.04316534,0.03560035,-0.0075014,-0.03015611,-0.0846791,0.01701855,0.00280998,-0.01353598,-0.05300996,0.01258989,0.01992429,0.00910706,0.00837387,-0.0058801,0.06334471,0.13618365,-0.06313263
shkHigLwBnM,0.05324019,-0.00859373,0.03216487,0.01192545,0.03255658,0.02420273,0.01694122,-0.05159507,0.01906758,-0.02397277,-0.00609329,-0.02651696,-0.02812135,-0.06508091,-0.00432811,-0.00519949,0.00110056,0.01831978,-0.02787772,0.03783099
0VjrLsr61pk,0.10101108,-0.02745229,0.09917991,0.00639237,0.08536203,0.02918432,0.01918832,-0.12204013,0.00866623,-0.05316221,0.02850939,-0.0803013,-0.05953364,-0.15370358,-0.06580672,0.13246456,0.0885452,0.04812359,-0.10182111,0.03667754
iTOXHp4c1YE,0.05487602,-0.00343658,0.07454005,0.02459825,0.07364361,-0.00377588,-0.00814745,-0.04832796,-0.08150435,0.00258423,0.00049726,0.00704491,0.12226031,0.03027292,0.02596588,-0.05621201,-0.04542896,-0.01195966,-0.00601425,0.05335957
1VSBgPn28zA,0.01488583,0.00601598,0.05788299,-0.01427237,0.00586553,0.23950186,-0.11444906,0.07835566,-0.03082267,0.02186795,-0.15507318,-0.01717663,0.00842607,-0.05056591,-0.02548222,-0.06433021,0.04757474,0.0419376,-0.01468539,0.02629737
fKtG9uPeMCc,0.10251449,0.04862621,0.07097453,0.02330862,0.08021307,0.01556794,0.01322196,-0.13497585,-0.05588815,-0.04618414,-0.06530165,0.38279087,-0.12725994,-0.01840198,0.03514732,0.01625697,-0.02796858,-0.01712547,0.01264085,0.02490555
Ycdklm6W1_o,0.01582677,0.00452862,0.03086585,0.0089076,0.02035147,0.16594481,-0.089279,0.04577531,-0.01612301,-0.00436974,-0.02201285,0.00593259,0.02055141,-0.00042582,0.01999718,-0.04196219,0.09454587,-0.11589836,-0.00319848,-0.02307916
31WQ21L6kE8,0.01642965,0.00677616,0.0685299,-0.00542299,0.01405524,0.34777016,-0.1667682,0.11678707,-0.01772806,0.03394355,-0.04041345,-0.01159621,-0.01523404,-0.01309351,0.01746699,0.01540448,-0.00319219,0.18127608,-0.03445032,0.04878163
3OUrr_2UCYs,0.01503563,0.00310983,0.04632467,-0.00894721,0.00821203,0.22776141,-0.10639527,0.07803681,-0.02382676,0.02981774,-0.11522843,-0.0183358,-0.01935832,-0.03477835,0.00154746,-0.01009035,0.00111651,0.05683822,-0.02514391,0.02644868
XfY_L8MLOsU,0.01715291,0.00630824,0.05137365,0.0150418,0.03635067,0.18599648,-0.09821773,0.02280174,0.00356124,-0.02257569,-0.10686534,-0.00800194,0.00188601,0.01341844,0.07569058,0.21766586,-0.19717861,-0.12981394,-0.17837162,-0.01301611
VjqsnOrW3AM,0.02057225,0.00879189,0.03370053,0.0126797,0.01794427,0.20094661,-0.10256664,0.05430382,-0.01607795,-0.02263741,-0.01271562,-0.00295525,0.01494569,-0.00121196,0.01431476,-0.01990177,0.09744123,-0.14018768,-0.03738718,-0.03239882
AzNb2nQrM7U,0.03616953,4.621e-05,0.04745834,0.01308949,0.04342168,0.01258643,-0.01735491,-0.01421111,-0.02501951,0.03439597,-0.00356697,0.01251826,0.0104192,0.04650432,0.00107221,-0.01805351,0.00722759,-0.01584574,-0.0426299,-0.05663793
dqOmDZPkIF4,0.12129418,0.01120792,0.18733927,-0.00190922,0.09915421,0.01310631,0.0049649,-0.23393023,0.27801264,-0.09367539,-0.09199461,-0.29416853,-0.2389014,0.31173842,0.26739751,0.093816,-0.17954849,0.10100422,0.53357055,-0.12601487
yy_J5fdELm0,0.00893873,0.0037584,0.02851343,0.01131185,0.01989635,0.12181444,-0.03909333,0.01889876,-0.02203243,-0.02508882,-0.02645751,-0.04323984,0.02210568,-0.02290082,-0.04348627,-0.11949658,0.05237427,0.28160357,0.09508419,-0.11078835
ByJAH8vTgfw,0.06656213,0.0073373,0.13510137,0.01651142,0.1229856,-0.03864742,-0.00580301,-0.07069511,-0.10956089,0.0939637,0.05853757,-0.10557388,0.00205176,-0.0857358,-0.07984167,0.22143341,0.17994397,0.07450774,-0.0424765,0.00218517
GAf7J_t1o8U,0.12901943,-0.00574526,0.1535019,-0.00736449,0.07980077,0.08116634,0.10821079,-0.13165009,0.09587357,0.03858614,-0.04348232,-0.07976364,-0.12176223,-0.09719205,-0.04492679,-0.01990966,-0.14648636,0.06362685,-0.06615913,0.10218159
DSRfs1qKWR0,0.00186823,0.0009205,0.00559753,0.00165754,0.00620296,0.0214627,-0.01289388,0.00659457,-0.00519997,0.00085566,0.00018947,0.00043335,-0.00390532,0.00657856,0.00432322,0.0021452,0.0012233,-0.00132885,0.00333844,0.00174545
x2r3FTy9HHE,0.021323,0.0028064,0.03810063,0.00741974,0.02781073,0.18332442,-0.09498149,0.0303843,-0.020808,0.03043687,0.07658835,-0.00094115,0.02336915,0.01562042,0.0821717,0.11495669,-0.13288303,0.14415974,-0.1050021,-0.04440571
EFhMcL3Kf1c,0.01850651,0.00232292,0.03172825,0.00356523,0.02630491,0.11951399,-0.06096821,0.02180494,-0.00950321,-0.01282261,-0.05168463,-0.02805202,-0.0119942,0.0070948,0.04395607,0.16328261,-0.07466137,-0.09172286,-0.12790322,-0.03774778
CE6tiT3Q6c4,0.10236755,-0.00485443,0.1445514,0.03266915,0.16423101,-0.01441778,-0.02517584,-0.09673283,-0.15921997,0.17928685,0.04560882,-0.11128994,0.01784732,-0.09025821,0.10131912,-0.01978455,0.00180164,0.07282959,-0.03434586,-0.09950881
eYDQWSBQ47s,0.06189072,0.03568809,0.10498678,0.04229026,0.07343016,0.01808928,0.01388572,-0.10599743,0.00832564,-0.06269294,-0.00584806,-0.05843977,0.03243758,0.02743416,-0.07276117,0.05812246,0.05991447,0.04739258,-0.00773412,-0.07185496
SZ8r5VKtGes,0.11458789,-0.01394347,0.09920698,0.01986077,0.09055382,0.05672382,0.04017831,-0.16222703,0.05291978,-0.03392316,0.05404306,-0.13012531,-0.05066252,-0.11898999,-0.1665194,-0.00045115,0.01255095,-0.04177567,0.01189951,-0.16562998
LKxIrZFhONI,0.02327615,0.02532253,0.02391289,0.02055639,0.00209109,0.10431034,-0.00984597,0.0083742,-0.02080837,-0.02805812,-0.00523265,-0.05184473,0.02791173,-0.01236245,-0.05576481,-0.09866715,0.0213647,0.3164298,0.10969176,-0.12991944
oixqYBAPwXA,0.00299615,0.00049713,0.01017686,-0.00138003,0.00346368,0.00575992,-0.00368438,-0.00693091,0.00179041,-0.00598554,-0.00834548,-0.00304653,0.00061949,0.00146032,0.00723001,0.00299544,0.00454783,0.00091479,-0.0204321,-0.00700706
iaYdIU5n6vw,0.02755107,0.00867078,0.06409168,0.00671646,0.04553226,0.25364074,-0.12514524,0.09630446,-0.05056717,-0.0009851,-0.11135145,0.00788525,0.01584111,0.01773244,0.03004367,-0.0050074,-0.06054769,-0.0791922,0.01892855,-0.02602736
HeY4a7uDlkg,0.00949256,0.00581056,0.02334746,0.00415013,0.01988663,0.1399755,-0.0703917,0.0329265,-0.01783775,-0.00157299,-0.13415218,-0.00105799,-0.0302406,0.00860284,-0.01724887,0.09828032,-0.04939926,-0.07506758,-0.10145624,0.05338055
bfENsVP77VQ,0.07068117,-0.02619259,0.0268204,0.0011422,0.01865998,0.26900973,-0.12127051,0.09721701,0.02640591,0.02575341,0.06193553,0.01960475,0.01119435,0.02939451,0.01595172,-0.02697457,-0.02437843,0.20351287,-0.02386118,0.0132655
o8YcWD2ri9U,0.01082202,0.00074603,0.02842603,0.01103635,0.01886779,0.1686313,-0.08597814,0.04036411,-0.01835646,0.00554958,-0.03278936,-0.01088991,0.00075297,-0.0031213,-0.01287155,-0.03696315,0.04677262,-0.03475043,0.07444017,-0.01798784
2gFNJ6_ogzg,0.10714094,0.01868539,0.14616153,0.0358696,0.17594506,-0.00376005,-0.00308332,-0.07557393,-0.17535782,0.26265172,0.02898097,-0.04203054,0.02404623,-0.00491211,0.10519485,-0.12225881,-0.05539411,0.05352983,-0.02616012,-0.15113828
UEBpQgCIFTk,0.09246363,0.01411762,0.08866492,-0.0198937,0.02908297,0.01279748,0.00532986,-0.12232704,0.07303032,0.00288632,-0.00281647,-0.02548264,-0.06957383,-0.07672867,-0.01768114,0.0195062,-0.02093744,0.01097772,0.02598276,-0.00096005
YR-4vFbwe18,0.09003382,0.0089744,0.15416359,0.00575387,0.10710567,0.00433514,-0.01268139,-0.11261111,-0.05602381,0.11248186,-0.00333538,-0.04118046,0.00170309,-0.03912829,-0.08040611,0.07627055,0.03888453,0.01406138,-0.03957472,-0.05289514
zj0BKLv9r8Y,0.14242514,0.09611066,0.09546885,-0.02819358,0.01028963,0.05618868,0.00545692,-0.14936104,0.02318438,-0.00985308,-0.00787754,-0.04519099,-0.02899845,-0.12045379,-0.06875018,0.12328556,0.0493648,0.05513818,-0.01808361,-0.0167713
J7ieKmP96Hc,0.01405313,0.00341388,0.0365612,0.00783529,0.01853188,0.25790184,-0.12805259,0.07042217,0.02738714,0.01006482,0.26399113,0.05507129,0.03642819,0.04818242,0.07782957,0.06248536,-0.0609429,0.29319726,-0.01708044,0.02526239
6WqWhSmCbXk,0.10635134,0.02731322,0.17535438,-0.01930732,0.09670218,0.01618427,0.0061053,-0.14882978,0.16765238,0.0133787,-0.08661629,-0.07796741,-0.02144685,0.23378608,-0.00067073,0.03812471,-0.08784025,0.0544982,0.10779753,0.02979304
F1gM7N-WXdU,0.02674341,0.00031763,0.05409304,0.04973406,0.00335812,0.07172418,-0.04038165,-0.00259572,0.00091749,-0.01333036,0.01005056,-0.02505521,-0.00198168,-0.00347558,-0.00780933,0.04885517,-0.01980928,-0.04592028,-0.03728674,-0.03826282
qGDMB-PryIU,0.02677623,-0.00047409,0.05168704,0.0262689,0.03332015,0.19733717,-0.09282964,0.03081574,0.00041522,0.00010918,0.07416004,0.00806214,-0.00198441,0.03204841,-0.00054145,0.04528102,-0.03271476,0.09176809,0.00476034,0.00335564
GybLbhXj2Nw,0.01789979,0.00763058,0.04101724,0.01501435,0.02531786,0.24183248,-0.11408413,0.0283022,0.03042494,0.00104618,0.24588086,0.07007293,0.02245053,0.04799075,0.05355423,0.1072654,-0.07313304,0.33553382,-0.05702634,0.02861293
nnKkk3CpLes,0.03215767,0.01745551,0.06563563,0.00692783,0.00995608,0.02984858,-0.01481677,-0.04435019,0.0114298,-0.03235236,-0.03135226,-0.00470179,0.0175541,0.04689548,0.00523072,0.0436502,-0.01128822,-0.00583421,0.05671837,-0.05388984
HyO6rMqRXw0,0.08269671,-0.0063531,0.03970537,0.00561962,0.04159108,0.02418848,0.02207515,-0.10208744,0.07939225,-0.01575151,-0.01286615,-0.02908699,-0.0623871,-0.10903992,0.00897454,-0.0309292,-0.02744818,0.00045065,0.01619477,0.02584845
THMW7bXTog4,0.02898109,0.00802432,0.06297205,0.00729746,0.03234949,0.03046085,-0.00928665,-0.02415241,-0.04769006,-0.06106393,-0.01411452,0.00989306,0.09164314,-0.02938592,0.00377531,-0.01600336,-0.02301359,-0.03575286,-0.03284871,0.01880759
hXPy19kPego,0.06592251,-0.00950428,0.07458547,0.01636005,0.07062359,0.01993153,0.03495948,-0.07206558,0.00582328,-0.0376946,0.00783352,-0.06738995,-0.02461537,-0.08966908,-0.04909348,0.0801832,0.03745444,0.03273078,-0.01311646,-0.00187768
Nz7vsR3_W3I,0.16698287,0.15764145,0.18659427,0.0129774,0.23083801,-0.16785576,-0.1178851,0.20325028,-0.06581329,0.0593268,0.03720251,0.01205893,-0.07893246,0.06051454,-0.04338669,-0.05660301,-0.01504986,-0.02102569,-0.02856532,-0.13383426
KztyymfW3Dg,0.13715054,-0.0135268,0.18098515,0.31735174,-0.11058698,-0.01415956,-0.00915528,-0.033447,0.03453562,0.00524527,0.0066542,-0.0306067,-0.03697834,-0.04033849,-0.02482866,0.00692801,-0.0306131,-0.02447012,0.0105729,0.00790502
QIKiQjEMUjY,0.03099895,0.0200012,0.14743486,0.35895778,-0.20407478,-0.01345782,-0.03488199,0.01207495,0.00478379,-0.012354,-0.00801909,0.00705444,-0.01313309,-0.00576827,-0.00990324,-0.01816882,0.01591626,0.00062274,0.00534061,0.00245659
vTXoE7BLv9s,0.06583551,0.00552078,0.0733381,0.01901916,0.07073243,0.03937845,0.02342209,-0.08697003,0.0099865,-0.05623871,0.02597602,-0.06540796,0.01388247,-0.04994075,-0.1153533,0.04718261,0.03135419,0.00442254,-0.03632158,-0.04308605
TfojYStTlZE,0.06980661,0.02046444,0.11614539,0.04276467,0.13162621,-0.02521779,-0.03219921,-0.01616367,-0.07385283,0.14200387,0.00425943,0.00981808,-0.00828785,0.08423726,-0.02273219,-0.05050243,-0.02002813,0.00980927,0.0057809,-0.17541026
SK7yqZdN3Dg,0.21237696,0.11748174,0.19359551,-0.02499488,0.19395659,-0.18605944,-0.09949484,0.22939847,-0.08414349,-0.26554028,0.00744852,-0.09468986,-0.02801976,-0.13849839,0.04374266,0.33517858,0.23768415,0.13769972,0.32367748,-0.02184912
Y9HJ_U3TdXk,0.01204346,0.00517457,0.03893402,-0.00125197,0.01922082,0.14960345,-0.05902514,0.04025417,-0.01177897,0.00512852,-0.05633823,-0.01775654,0.00072061,0.01301549,0.00949403,0.01625772,-0.04125959,-0.03213787,0.01385168,-0.00669571
tUmd3tWCDKs,0.00714718,0.00126339,0.02992892,0.01656641,0.01070578,0.22982966,-0.12201187,0.07747265,-0.01953807,0.03142766,-0.0658405,-0.00720494,0.0055257,-0.00858142,-0.06604251,-0.13850296,0.15013953,-0.0514237,0.16966558,-0.01301468
U14_qm5y38o,0.06769318,-0.01246245,0.09968363,-0.00694533,0.04302521,0.01848361,0.0325832,-0.05331845,0.00241687,-0.01056005,-0.02598134,0.00858708,0.02138344,0.03553954,-0.07707715,-0.08084047,-0.02006366,0.03637225,-0.0438943,-0.15528514
wnoSOSgBNHk,0.07570131,0.00051157,0.06849722,0.01232703,0.08375844,0.02095341,0.01905764,-0.10606619,0.07184797,-0.04370342,-0.02092494,-0.09019236,-0.10171918,-0.15536725,0.06906178,-0.04292755,-0.08792351,0.01565867,0.01836665,0.0560176
uSjcVPbJayU,0.09536752,0.04535675,0.11839744,0.03413441,0.11292511,0.02420171,0.04628298,-0.21771114,-0.13312072,-0.00011282,-0.04898787,0.31750781,0.03341631,-0.11722387,0.04404506,0.13189799,0.09242475,0.00061017,0.04643235,0.00290229
XeN7wKfDOPk,0.01584588,0.00574704,0.04187107,0.02903108,0.0171201,0.12073179,-0.05522812,0.00643833,0.00053281,-0.01194979,-0.03473661,-0.01401367,-0.00570227,0.01867238,-0.06182908,-0.05406482,0.0177127,-0.04644043,0.02962841,-0.00271137
LK1OJ-izQfQ,0.01153502,0.00580217,0.0271189,0.00535245,0.02562247,0.1292004,-0.06709968,0.02568034,-0.0186153,0.00173073,-0.12347175,-0.0044398,-0.02326233,0.0076154,-0.01547019,0.08579646,-0.04620052,-0.07046194,-0.09561303,0.05252478
Rvy2kXZpBtM,0.11567038,-0.01724071,0.07837175,0.0249466,0.08257881,0.0381976,0.04325528,-0.15396941,0.09086699,-0.02689531,-0.01562238,-3.279e-05,-0.10137222,-0.12288618,-0.02894203,-0.04844412,-0.07711084,0.00239917,-0.03071383,0.01387793
OEqMxMEBQQY,0.04436652,0.01050129,0.1046758,0.01590313,0.07899701,0.01394266,-0.00514294,-0.09628845,-0.10498136,-0.10211152,-0.05173347,0.02457739,0.35513287,-0.0594326,0.08075193,-0.10216884,-0.15058504,-0.07255225,0.09150068,0.11492601
sj1y9FDJKCM,0.01718838,-0.00497726,0.03819744,-0.00501676,0.0082339,0.28161579,-0.13330681,0.09783624,-0.00929322,0.03643553,0.03117017,0.00710186,-0.00178495,-0.00579546,0.06049081,-0.01481822,-0.01526586,0.21881571,-0.02900631,0.03948042
W4BkgA1P27o,0.06474571,-0.00816686,0.08639405,0.02023271,0.10271363,0.04542363,-0.0025617,-0.11909392,0.04161511,-0.0454937,-0.0550899,-0.07345643,-0.03950703,-0.13297697,-0.06731506,-0.15389804,-0.06410055,0.01187016,0.04584553,0.02442349
XXZ2wOom1l0,0.09821031,-0.01582,0.17426144,-0.09509742,-0.03818715,0.00929039,-0.01933272,-0.12621232,0.06865657,-0.09632406,0.00139483,-0.11775017,0.00782221,0.08774955,0.26400633,0.01961207,0.166733,-0.11849175,-0.16703202,-0.03153203
ZhRgnBzcYHQ,0.10743829,-0.00735163,0.22017102,-0.04349593,0.0346296,0.0361937,0.01229344,-0.17121458,0.04698516,-0.074894,-0.0246718,-0.08106895,0.01098417,0.23291808,0.00902006,-0.00853696,-0.10657162,0.02222177,0.09054971,-0.04810586
PN8bHAr0f1M,0.00776134,0.00100618,0.02973556,0.01032594,0.02023389,0.22179193,-0.11140519,0.0556591,0.00151031,0.01089331,0.104289,0.01795909,0.03763722,0.00039682,0.04228345,-0.00816163,0.02167598,0.19078633,-0.00071689,0.01011887
Lnhy0tZ8SUI,0.02420589,-0.00449596,0.03681111,-0.01046949,-0.00277987,0.17553763,-0.08624919,0.06690955,-0.01190604,0.01007099,-0.12767847,-0.00979719,-0.02075057,0.02124388,-0.03444431,0.0802111,-0.04645122,-0.16169905,0.01160968,-0.01564506
_dASAu79K0s,0.00503228,0.0014302,0.02032063,0.00504951,0.01487348,0.17102257,-0.08601423,0.04774845,0.00305,0.00538704,0.11894904,0.03047292,0.01913026,0.0219774,0.04733797,0.08907101,-0.07539152,0.16292122,-0.05176649,0.0090207
na5Enw8P18A,0.01478589,0.0165667,0.02452481,0.01044961,0.00729041,0.11499549,-0.03439252,0.0229166,-0.0219944,-0.02863643,-0.03539545,-0.0488975,0.02171061,-0.02503027,-0.06235388,-0.11678647,0.04035444,0.29385528,0.11355434,-0.11473426
fr78adfAnuA,0.02132391,0.00710738,0.07925304,0.00166619,0.0365506,0.34615778,-0.16327861,0.07718737,-0.02195647,-0.00657324,-0.11967275,-0.02669234,-0.07822173,0.05241634,-0.0195442,0.42964465,-0.34107685,-0.35072553,-0.04146881,-0.08569004
s2NSwy8xraQ,0.13032989,0.10176516,0.14984516,0.00466648,0.05630661,-0.04087871,-0.03892069,-0.02367262,0.27502249,-0.0665464,-0.1039728,-0.04104083,0.05775484,0.18122896,0.11629469,0.04994396,-0.09375959,0.05049342,0.24811509,-0.05602219
VKaslzzv1QM,0.06933409,-0.00729945,0.09633175,0.03174676,0.06597615,0.05124856,0.02894777,-0.15763427,0.06289243,-0.07897294,0.01049886,-0.04664839,-0.02286002,-0.08373688,-0.03693368,-0.0201568,0.03261493,0.00018147,-0.0689475,-0.01350929
IldLswg2yAM,0.07459461,0.0073357,0.07935217,0.02010257,0.0684132,0.05585039,-0.01323651,-0.11863824,0.04940592,-0.00523549,0.00937875,-0.04506752,-0.06509884,0.04772499,0.024661,0.03620511,-0.06369034,0.00419056,0.11512279,0.01310952
h9kh7KssnMc,0.09068007,0.00417104,0.11412846,0.00919572,0.07404557,0.02411188,-0.00667753,-0.08600627,-0.00680149,-0.02136107,0.00664958,-0.00478572,-0.02674134,-0.03649193,-0.05457689,-0.00618203,-0.03350953,-0.01293024,-0.09473581,-0.09106985
Wz8CxWdCHC0,0.15948342,0.19162134,0.13203099,0.05846543,0.16438132,-0.08872421,-0.05051963,0.1792907,0.00266098,-0.25080821,-0.02909631,0.0698024,0.09325559,0.07959081,-0.01626196,-0.08442265,-0.11017331,-0.02058325,0.0127398,0.02048013
JTtyJPD0ZOw,0.40386616,0.7565595,-0.12645098,-0.02973758,-0.06913456,0.01058438,0.00380323,0.04039068,-0.05828619,-0.07457788,0.01174289,0.06545055,0.08067091,0.06713351,-0.02861374,0.00852042,0.01292551,0.01421572,-0.1180111,-0.08393489
6UPfq3KETg4,0.04292104,0.00046653,0.09944493,-0.01424897,0.03418409,0.02635005,-0.01962534,-0.0827966,0.01311298,-0.02495422,0.01704698,-0.02313266,-0.01868646,-0.00661301,-0.02709292,0.01047141,0.03456461,0.01488281,-0.00384913,-0.02593869
_9bYQ2tvc_s,0.07539682,0.04094425,0.07974938,0.02147629,0.09992829,0.0064684,-0.03624721,-0.05531511,-0.04369776,0.16911891,0.03763805,-0.03706333,-0.00234012,-0.03127818,0.05465182,-0.0406498,-0.06233423,0.04080537,0.02656323,-0.04818099
s23TO2BQBcU,0.16183774,-0.03437062,0.10850949,0.04298042,0.08573829,0.04372042,0.05359129,-0.17680831,0.07898769,-0.09780641,0.06692501,-0.12710074,-0.02604896,-0.11470775,-0.06084678,0.12787575,0.1219041,-0.01184862,-0.00111005,0.09053124
nHH771Vtkxw,0.07231493,0.00545165,0.12635906,0.00575864,0.08101577,0.00434026,0.00855686,-0.13141308,-0.12610056,-0.07932959,-0.08342165,0.2249535,0.25439104,0.01871556,0.04372879,-0.02329577,-0.13952353,-0.01885064,0.14083429,0.02615458
IJJbQTVdAtE,0.0429452,-0.00991165,0.05017718,0.01805108,0.01690461,0.30916322,-0.12047425,0.09219809,0.01643309,-0.00218376,0.1949885,0.04017864,0.02105735,0.04558842,0.06721727,0.12142159,-0.12326322,0.20977812,-0.02899445,-0.00745671
KXpgCNB6Dcs,0.09704526,-0.00799766,0.08534155,-0.03166489,0.01372608,0.0049608,-0.00313456,-0.09454384,0.07933985,-0.00864908,-0.00897504,-0.02574441,-0.07696317,-0.12300622,-0.00033484,-0.03352719,-0.0578354,0.00816498,0.01412311,0.01437784
yGC0oT995TM,0.01180992,0.00401593,0.03140512,0.0052695,0.01403967,0.08131396,-0.04367842,0.00673697,-0.00655568,-0.01783916,-0.03886122,-0.00446074,0.0184567,0.00232611,0.00541311,0.02910223,-0.01189999,-0.01176842,-0.02918144,0.01143206
kXenRXelpKs,0.00923951,0.0039585,0.02456192,0.00348439,0.01864956,0.11232555,-0.05160974,0.01753267,0.00165274,-0.01497313,-0.03475257,-0.00313627,0.00338912,0.00611747,0.02851423,0.06775272,-0.07274473,-0.07182582,-0.05163505,-0.01793486
ND9eyW5Fw0s,0.01998946,-0.0003004,0.04408596,0.01379999,0.02884758,0.16007356,-0.07610934,0.02120462,0.00071528,-0.00606038,0.06260885,0.02557927,0.00827996,0.0196105,0.01916906,0.02791006,-0.02442871,0.10432787,-0.02023669,0.01240854
q1l42BPzbIk,0.02550682,0.00129587,0.04923711,0.01886104,0.03827877,0.0039728,-0.01746038,-0.02171197,-0.04289492,0.03173006,0.00982128,0.00516108,0.00115268,0.03451156,-0.00373229,-0.02492626,-6.75e-06,0.01326686,-0.02169955,-0.04366152
cnCEUFzWspI,0.01626267,0.00360816,0.03172298,0.01440814,0.01821215,0.21290334,-0.09944222,0.05174184,0.00207035,0.00202616,0.08228974,0.01202857,0.02853686,-0.01680103,0.04826511,0.02143533,0.01039049,0.29280399,-0.0674297,0.0291232
KfaPxlvQx1M,0.07816509,0.01502661,0.36350385,0.82870161,-0.45784374,-0.07740548,-0.02744033,0.04035294,-0.02633305,-0.00760492,0.01940004,-0.04272815,-0.00166198,-0.04831194,-0.02583087,0.09688713,0.0654703,0.02592623,-0.01545392,0.0293639
XFpBgNMBNNI,0.01405809,-0.00081951,0.03608563,0.0175437,0.02019274,0.22469631,-0.10976878,0.04186117,0.02098785,-0.00466225,0.19081783,0.04720618,0.03982574,0.03515728,0.06817339,0.07148546,-0.04249761,0.12239646,-0.04851916,-0.0063128
qey62i2fvg0,0.00850771,0.00235261,0.0284947,0.0063609,0.02041946,0.13005067,-0.06077165,0.0270958,-0.01480316,0.01331121,-0.07075252,-0.0158588,-0.00418919,-0.01267059,-0.03926506,-0.02552673,0.03492709,-0.01962095,0.05323717,0.00475466
AHyZdLVYJfc,0.06585041,-0.03159075,-0.00332782,-0.00075976,0.00190935,0.07710684,-0.03195122,0.03349796,0.01882732,0.00778934,-0.00464274,0.01112497,0.02180145,-0.00995515,0.02526316,-0.03351262,-0.01958409,0.02480094,-0.00259587,-0.02636808
Fy8H9I2kJkI,0.02570421,-0.00036641,0.05737848,0.00483496,0.02759711,0.22383797,-0.10984477,0.05372973,-0.01590665,-0.00429331,-0.08508244,-0.02180518,-0.01326849,-0.02011403,-0.00256722,-0.05671852,0.11422103,-0.05647361,-0.02077764,-0.01833275
GmTuhpMe1oM,0.05397056,0.01089121,0.03485617,0.00674249,0.02787732,0.01793904,0.01368645,-0.07268595,0.06219502,0.00545484,-0.02359845,-0.01128781,-0.03818132,-0.08801534,-0.00155641,-0.03591359,-0.03423425,0.00833587,0.01351013,0.01346078
crrTHKN_R58,0.0793049,-0.02000065,0.07836042,0.02940915,0.06615466,0.01823467,0.00641313,-0.10458036,-0.06268124,-0.05719673,-0.02220324,0.07012197,0.22470744,-0.04879495,0.0525889,-0.06248011,-0.08027829,-0.00686724,0.09430644,0.11621565
95KqKaDsIAM,0.08944008,-0.00368522,0.10926951,0.04284368,0.08782322,0.03997179,0.01306547,-0.11443626,0.00833873,-0.03749351,0.03214837,-0.02898481,0.07453682,0.01300383,0.00459695,-0.08671393,-0.05116793,-0.01787367,-0.00057599,0.06004185
gPmmDEGCQLg,0.04561799,0.02133692,0.11027422,0.0297521,0.11975873,-0.0101515,-0.01178398,-0.05559448,-0.12527467,-0.08504918,-0.04720512,0.026464,0.29252294,-0.11027422,0.15374832,-0.04403002,-0.09483856,0.00803385,0.1334281,0.0973049
v3JV42WbomE,0.1280508,-0.02614731,0.11970916,0.02915403,0.05885695,0.02861547,0.02060431,-0.14880856,-0.03328844,-0.02610708,-0.08225226,0.21212808,-0.02547646,0.12515517,-0.04342203,0.00864707,0.00117294,0.01549488,0.00944211,-0.01534548
jIj6PuMrDGA,0.20169871,0.2948359,0.06207173,0.00775094,0.16729143,-0.13863605,-0.10153518,0.28687412,0.00933135,-0.21734774,0.00343968,0.0930122,-0.05308289,0.05388277,-0.01551447,-0.07235834,-0.06286322,-0.022596,-0.04076278,-0.01422817
UgfrzicHc80,0.03406271,0.00674221,0.14857287,0.2831665,-0.11755477,-0.00488364,-0.03367529,-0.01518981,0.02047579,-0.03202165,-0.00662752,0.01452463,-0.00917039,0.03539998,-0.01509849,-0.02019211,-0.01100027,0.0271797,-0.02328516,-0.0576729
pGGJHrxn1VU,0.08960897,0.0595143,0.25301658,0.61589572,-0.35189104,-0.05256885,-0.02814349,0.03990238,-0.00198199,0.00134754,-0.00831318,0.0204503,-0.01649086,-0.01827714,0.02367431,-0.0117993,-0.02559551,0.01204237,-0.00697678,0.00924471
r6AB_e8Rk1I,0.11219143,-0.03309417,0.07535338,0.02542155,0.08502122,0.06486822,0.02706455,-0.18565757,-0.04383681,-0.03115978,-0.02211235,0.27848664,-0.14246292,-0.04798419,-0.02724715,0.06823228,0.05338821,0.04169383,-0.02658743,0.07123891
wN3O2GSvoWE,0.06069579,0.01405384,0.09714352,-0.00389636,0.05511833,0.02154487,0.01048858,-0.08621599,-0.08650021,-0.0806837,-0.0268847,0.04949286,0.15321814,0.12458303,-0.10326928,-0.03763425,-0.01134066,0.01022519,0.04111267,0.07999347
iGaMJCi8mAk,0.07586108,-0.01534418,0.08849453,0.02119405,0.03772768,0.0324594,0.02687416,-0.08390192,0.04186633,-0.03149368,0.02502032,-0.01185852,-0.03473535,-0.05733238,-0.0580882,-0.0102551,0.02089154,-0.04488157,-0.06363117,0.0461324
oj3-hWAf1uQ,0.05825013,0.00090954,0.11075677,0.01336877,0.0543559,-0.00248215,0.001687,-0.05287997,-0.06841332,-0.08764167,-0.03101508,0.00649132,0.14901654,-0.08691777,-0.02003489,0.03593295,-0.00439604,0.04478505,0.05390965,-0.02644209
WB1bBLedJQ4,0.09082898,0.02496882,0.28781499,0.63423601,-0.32485979,-0.04046472,-0.03461981,-0.01576489,0.0015084,-0.01957863,-0.01472638,0.04130028,0.05757668,-0.08143821,0.05281284,-0.03949914,-0.06441012,-0.00697753,0.02752193,0.05414403
f2fDaAMvlV4,0.06703051,0.02207431,0.29085822,0.67395305,-0.38313694,-0.05639357,-0.04905455,0.02836832,0.02377834,-0.0295248,-0.01201328,-0.01861063,-0.01448558,0.02066885,0.00847855,0.01032889,-0.00458462,-0.00218551,0.01201593,0.00502781
WEnvorobhEE,0.02370843,0.01080011,0.0474827,0.01266095,0.04187756,0.09884644,-0.03480281,-0.00357684,0.00800828,-0.02426979,0.0119293,-0.00253206,-0.00173728,0.04117257,-0.00463228,0.01854883,-0.00207792,0.00561708,-0.01469591,-0.0056393
Cd5EHfRerGI,0.05048129,0.04415736,0.13580242,-0.08081395,-0.07500641,0.26107378,-0.04458071,0.11617616,0.00905857,0.0535076,0.04124777,0.01486905,-0.03072616,-0.00597599,0.08910219,0.0062556,-0.07777729,0.10553005,-0.08482829,0.07587398
8Uk97zU2GCg,0.0520921,0.00548735,0.0419854,0.01287264,0.03899212,0.03612508,0.0091635,-0.09498006,0.02176711,-0.01073002,0.03890699,-0.04596555,-0.00272988,-0.01509139,-0.12210812,-0.04598858,0.02236543,-0.05840432,-0.01148526,-0.16182844
tQCVAU-fZPA,0.58681879,1.03087721,-0.20778716,-0.04052209,-0.13489157,0.00114264,-0.01314304,0.03395315,0.48365021,0.25884455,-0.08709554,0.16315724,0.2392716,-0.03116821,-0.00544345,0.09331085,0.06589664,0.02834354,0.03472756,-0.00630515
UszcZZ1QZho,0.1048478,0.09990259,0.0603981,0.01895958,0.0425409,0.02787094,0.05316858,-0.02858106,0.05297789,0.03077306,-0.03980285,0.04945396,0.05046199,0.12107237,-0.0544138,0.01170352,0.04837327,-0.01285415,-0.0084116,-0.06579683
8erUsIGULKc,0.04939976,0.00987735,0.08561652,0.03186442,0.10102404,-0.02132014,-0.03761894,-0.04927936,-0.15619131,0.18944111,0.03775538,-0.046254,0.01223637,-0.00751941,0.03977441,-0.08388004,0.14310891,-0.06243553,-0.00933911,-0.03776023
UDiJI3q9wFQ,0.02651447,0.00132684,0.09981484,-0.04990376,-0.00857991,-0.00025008,-0.02911796,-0.03488252,0.00088706,-0.01417582,-0.0177782,-0.05205005,-0.01305413,0.03611766,0.03997205,0.06272442,0.01074645,0.03991877,0.17454076,-0.06471672
NlW_R21cBXs,0.04553657,0.01845434,0.08446444,0.03595601,0.0700641,0.03501451,0.00850465,-0.09334135,0.03634061,-0.02370865,0.02681611,-0.08962875,0.04850959,0.04161922,-0.18500729,-0.09554307,-0.01529319,-0.06093035,0.05318033,-0.2685999
IwjPma4PPTM,0.11228366,0.00295872,0.12230214,0.02139412,0.1229056,0.06084476,0.05811164,-0.26091612,0.18413681,-0.03811594,-0.05126697,-0.19922485,-0.17920447,0.16560975,0.09329161,-0.01028033,-0.13977689,0.03254532,0.1111817,0.1310124
KppJdbUvqp8,0.38098586,0.51271587,0.03919215,0.01863947,0.15973727,-0.16741687,-0.11203203,0.2978849,0.71156086,0.21158101,-0.11856155,0.24143107,0.18785495,-0.0713911,-0.00811057,0.05430795,0.01553607,-0.00772906,0.04062503,0.02644904
-txFIHA4ez8,0.06215845,-0.00604054,0.06396918,0.01003238,0.05479992,0.02639624,0.01304342,-0.08419927,0.02731651,-0.0355908,-0.00126183,-0.01395537,-0.04583857,-0.04048169,-0.04784354,-0.03298965,-0.00760722,-0.00130942,-0.01873625,-0.05002574
TekYNY3eGC0,0.04356393,-0.00374276,0.06264432,-0.00466488,0.01192049,0.02059352,0.00704231,-0.02235257,0.00453456,-0.01784155,-0.01458394,0.0018934,0.01759166,0.00314127,-0.04410873,-0.02074668,-0.01152719,0.02168815,-0.02838164,-0.02593022
lB_XJmoBLjw,0.18391782,-0.04055086,0.88933573,-0.79542805,-0.6888715,-0.13866111,-0.15576379,0.04401522,-0.01186414,-0.00369694,0.02726115,0.02985093,0.01023305,-0.01104153,0.02708094,-0.0151321,0.00841759,-0.01593822,-0.00562574,-0.02980025
MlSS4ZqvJuA,0.13888064,0.14523741,0.14912167,0.03000294,0.21560813,-0.07300624,-0.0335558,0.1717563,-0.01439056,-0.10276226,0.10261515,-0.03317944,-0.01365525,-0.10778472,-0.10742744,0.03409954,-0.00753286,-0.06236337,-0.18028757,0.04529103
VVfMO6SJZLw,0.11276392,-0.00634971,0.11140869,-0.00927912,0.05898468,0.05388923,0.09830765,-0.06844543,0.06293552,-0.03133243,0.01303109,-0.01702261,-0.02802538,-0.07770127,-0.01250663,-0.04268698,-0.06494387,-0.07145935,0.0135833,0.02651394
ZOPXzlpBVoM,0.08771991,-0.04751612,0.01664572,0.02611872,-0.02215728,0.00116356,0.00131308,-0.00403616,-0.00074783,-0.03799383,0.02864558,-0.03720358,-0.00329264,0.03194209,-0.04815085,0.03631935,0.05466558,-0.01566447,0.0285197,0.05278952
0EqJD2o-Mnk,0.01035761,0.00249645,0.03379539,0.01230775,0.02594713,0.14850995,-0.07461911,0.02746774,-0.0137102,-0.02623383,-0.03140791,-0.00525385,-0.03236079,0.05390799,0.00891442,0.27435288,-0.20595665,-0.24168516,0.01883181,-0.11023874
7IL0scdhgJA,0.00846513,0.0039388,0.02256453,-0.00340249,0.00902546,0.04206401,-0.0206223,0.00536141,-0.00465699,0.00711453,-0.0097365,-0.00449025,0.00441318,-0.00670838,-0.00373211,-0.024401,0.01607268,0.00121834,0.01100444,0.00210055
rk2b7fH_Gcc,0.08553234,-0.01840846,0.09812036,-0.00556911,0.04534577,0.03873049,0.01956702,-0.12778399,0.02934145,-0.03268791,0.0552249,-0.08937188,-0.00198661,-0.02861871,-0.18809212,-0.10460738,-0.06177318,-0.0820549,-0.00718242,-0.2017747
H_i8nh8uBco,1.18600562,-0.68062493,-0.29338802,-0.01056913,-0.11078177,-0.00464029,-0.00880971,0.06044436,-0.00765349,0.00613186,-0.00588519,0.02076329,0.00616654,-0.00745808,0.04479739,-0.02315649,-0.01988739,0.00271893,0.00993455,-0.0518743
yIUDe9YH0ac,0.01744838,-1.73e-05,0.0358363,0.00752021,0.02680632,0.06768467,-0.02864722,-0.00621988,5.746e-05,0.00769748,-0.03166728,0.00564936,-0.00558907,0.00278796,-0.0258078,-0.0329859,0.01436323,-0.01931242,0.00524296,-0.02820614
nJ0oh5u6YbM,0.02874104,0.00193743,0.04208253,0.01735455,-0.00063932,0.14813611,-0.06937418,0.04031977,-0.0169777,0.03555938,-0.06338985,-0.01767183,-0.00680863,-0.01308982,-0.05625378,-0.02046265,0.0736333,-0.05346387,0.07386111,0.04056501
9LsgBjswQZY,0.01496657,-0.00142208,0.02634138,0.01734057,0.01529867,0.06991006,-0.03291534,-0.00671827,-0.00248047,-0.01449247,0.0274177,-0.01104985,0.01057352,0.00355848,-0.01388407,0.01860311,-0.001418,-0.0887603,0.00249882,-0.03796128
Ju0usucry_g,0.08119555,0.01212146,0.11861149,0.02273268,0.11238005,-0.04494921,-0.04333298,-0.00520733,-0.14444132,0.17014827,0.03759255,-0.00371974,0.0418077,0.0793431,0.02306661,-0.08046706,-0.00253546,0.01252029,-0.06788607,-0.15384771
enQeP-ztP5A,0.0875351,0.00649423,0.05897872,0.00225287,0.01627496,0.01955575,0.00126943,-0.05921996,-0.00100895,0.0150579,-0.00568255,0.00423983,0.02476914,-0.00784319,-0.03409663,-0.03248378,-0.02873828,-0.00044302,-0.01659367,-0.01469223
HVPhcOmSMtM,0.16699511,0.01004006,0.13884354,0.05515209,0.15030307,0.0157589,-0.00242814,-0.163282,-0.00642044,0.20345467,0.04027533,-0.0616398,-0.09380548,0.19366826,-0.05309441,-0.02823972,0.01072313,0.07802167,0.08853742,-0.12903009
xfMhpaP8QSg,0.06549786,-0.01378869,0.05732299,0.02381748,0.07105484,0.02108178,0.01843903,-0.13068261,-0.13469534,-0.00605217,-0.04478109,0.45493959,-0.11032909,0.03795873,0.01969201,0.01938742,0.05121984,-0.00354589,0.01016358,0.01750853
_SdzVNht_nU,0.09889489,0.05907068,0.18910929,-0.02730956,0.0961611,-0.01383313,-0.06146945,-0.09880723,-0.12123033,0.12225838,0.03967302,0.02183,0.02279162,0.07523622,-0.08797055,0.07726824,0.01400872,0.12314213,-0.05818971,-0.19056749
LQd65ctML6o,0.30830851,0.15379098,0.17966625,-0.0031321,0.18331889,-0.0490679,0.01678829,-0.0082478,0.0327512,-0.15509781,-0.02529608,-0.09730082,-0.22700824,0.10657905,0.08468014,0.11157872,-0.01564773,0.0990418,0.34122262,0.05940302
_twN29IEQlc,0.08244986,0.0031687,0.05170285,0.01859813,0.05376257,0.04165611,0.01152017,-0.1212738,0.10180738,-0.01766157,0.0069055,-0.01796484,-0.08100382,-0.13954586,-0.02141793,-0.03654201,-0.06027631,0.00157941,0.01394306,0.0294669
dVb9vyCwM2s,0.03984503,8.94e-05,0.11220399,-0.05851666,-0.02853225,0.06195137,0.04558556,0.02168618,0.01477369,0.0229756,-0.03095899,0.00824865,-0.02477104,-0.04881194,0.01041002,-0.07135792,-0.03439988,-0.00241046,-0.03866214,0.08051122
k30WHO9_ppU,1.18600562,-0.68062493,-0.29338802,-0.01056913,-0.11078177,-0.00464029,-0.00880971,0.06044436,-0.00765349,0.00613186,-0.00588519,0.02076329,0.00616654,-0.00745808,0.04479739,-0.02315649,-0.01988739,0.00271893,0.00993455,-0.0518743
wd_xh6gSSOs,0.00595444,0.00031521,0.03099392,-0.0144878,-0.00786034,0.07555947,-0.04734354,0.01984079,-0.00511144,-0.0028837,-0.03544858,-0.00520227,0.01008314,-0.01212859,0.01439062,0.01344706,0.00619708,-0.01415776,-0.0473566,0.00514355
rfnB9MhBI44,0.07787037,-0.01539474,0.09788023,-0.02499483,0.01517068,0.013466,-0.00329752,-0.08383563,0.01112336,-0.03170729,0.00376422,-0.0041122,-0.02803711,-0.05984209,-0.04569214,0.02844274,0.00488654,0.03142599,-0.04511647,-0.01502485
DQiQ30VepbU,0.03227281,0.0108254,0.06496129,0.01459662,0.068103,0.05511997,0.02700002,-0.12162911,0.01023357,-0.07408876,-0.05734884,0.01114723,0.1959841,0.08203624,0.12839887,-0.02100255,0.09171341,-0.05298405,-0.04914949,0.17055328
DB1fSfulSJQ,0.02556521,-0.00376103,0.04812286,0.02223646,0.02290711,0.24269317,-0.13006305,0.07376582,-0.02365755,0.0103791,-0.09192459,-0.01346774,0.00516846,-0.05109064,-0.07837577,-0.2467689,0.25309254,-0.09141687,0.14965418,-0.03125113
NM-bwZZoX80,0.10162127,0.00711342,0.1571164,0.03644319,0.20435204,-0.04810525,-0.04297198,-0.07867437,-0.22420994,0.29142137,0.05444383,-0.1030308,0.03657462,-0.06313395,0.17405833,-0.11028524,-0.05474911,0.05228165,-0.02725889,-0.14660898
ckyeC880OPA,0.0576758,-0.00855445,0.09122595,0.01278462,0.06489155,0.02841559,0.01813336,-0.09101207,-0.00049818,-0.05796222,0.01085679,-0.05744382,0.07878486,-0.04232219,0.02341338,0.03761688,0.07324727,-0.00913228,-0.07970907,-0.03178603
fgasMQ6UWPY,0.0800091,-0.01852832,0.05922546,0.01375245,0.06643315,0.01444145,0.02267676,-0.08406325,0.00574604,-0.03716037,-0.01240842,0.01518366,-0.04253092,-0.00426895,-0.00406637,-0.01367824,-0.03012492,0.00900115,-0.01196151,0.01565103
XjAeQOmdNFU,0.01403857,0.0104786,0.03268135,0.0004301,0.01400695,0.12000252,-0.06392982,0.02092994,-0.03387279,0.00459161,-0.07074869,-0.00707547,0.02737996,-0.00892214,0.0086482,0.06330888,0.00578711,-0.08359492,-0.03517011,0.00758744
nWfp_X31vqk,0.0792634,-0.00745021,0.10387215,0.00383255,0.06920759,0.02527495,0.01062095,-0.03715197,-0.05472101,0.06257877,0.02504625,0.0046293,0.03431358,0.00158753,-0.01220513,-0.04942744,-0.05700956,0.00673072,-0.07486023,-0.09211006
waOGddip3Wk,0.1247814,0.00493617,0.08903953,0.02668348,0.10041204,0.06657858,0.03211828,-0.2586487,0.06363759,0.0025704,0.0272341,0.3375633,-0.24734721,-0.19192297,0.04239467,-0.00470121,-0.03578987,-0.05521385,0.07832452,0.06292452
H3lUaL6-XQQ,0.02177645,-0.0012814,0.10121358,-0.06402172,-0.03806526,0.06248065,0.04668828,0.03015499,0.01644254,0.02494078,-0.02673923,-0.00354449,-0.04071257,-0.01664937,0.00219208,-0.0412468,-0.02723374,-0.00252392,-0.03570633,0.05492253
x3P8Zqux4A4,0.01040838,0.00133543,0.05547433,-0.00608011,0.0015287,0.28757094,-0.13727798,0.11531823,-0.03904586,0.0670004,-0.25236558,-0.04062067,-0.02595275,-0.0860689,-0.09629367,-0.13370794,0.09612576,-0.00636082,0.08677915,0.0264453
QDZUOBnmf4Q,0.08048273,0.01417036,0.07769727,0.04022345,0.0594649,0.0320522,0.03665861,-0.08394179,0.01748323,-0.00742712,-0.05151124,0.14675037,-0.06826124,0.0194628,0.01646995,0.00452547,-0.06170555,-0.00810695,0.0469929,-0.05699457
pdNaIhcp3z4,0.09254701,0.02658344,0.0956331,0.01610465,0.03705668,0.02994316,0.00596268,-0.07884163,0.00793945,0.02363462,0.01945454,-0.02237325,0.01640709,0.08362961,-0.04759593,-0.07189333,-0.02144413,0.00748392,-0.03834523,-0.08394527
yemarhfhVA0,0.01964054,0.00184751,0.03920215,0.01302612,0.02867247,0.14728273,-0.0606088,0.01505451,0.01334072,-0.01449452,0.03729194,-0.00019651,-0.00263609,0.03921385,0.01430749,0.07104327,-0.00984908,-0.02850141,-0.00439037,-0.02808284
zyJ1yZwX_tE,0.02199833,0.00052977,0.0531396,0.00100056,0.00295256,0.12531721,-0.05472821,0.03104546,-0.01592117,-0.01432417,-0.06151724,-0.01599974,0.01367063,0.01995203,-0.02770502,0.05761456,0.01667146,-0.1223829,-0.03777954,-0.00654486
LkRVMOzUypo,0.01371316,0.00598257,0.04039313,0.00887998,0.01811125,0.20760743,-0.10178481,0.04866215,0.00751194,0.00264375,0.08498393,0.0093619,0.01531816,-0.01359579,0.04086371,0.01203906,-0.00018761,0.25997337,-0.07098507,0.0466148
4IeYytwcpuQ,0.01045319,0.00271522,0.03464868,0.01474973,0.02203677,0.1569803,-0.0594558,0.01801544,0.00922732,-0.03800918,0.11771178,-0.01662355,0.02556409,0.00505622,-0.0131411,-0.03307083,-0.05529761,0.34795784,0.02566069,-0.07927099
DerWppSGkmE,0.17417569,-0.00462452,0.13860059,0.00923856,0.12496235,-0.01535829,0.02783255,-0.08069862,0.02608731,-0.06242145,-0.01540602,-0.0255883,0.01303665,-0.01991862,0.03509964,0.04126064,0.0772872,-0.02604987,0.03444692,0.02480709
fpkC4nn2D60,0.10032396,-0.00352054,0.08876556,0.01763986,0.09864045,0.04832121,0.04323408,-0.22664699,-0.03678605,0.01298021,-0.06679606,0.39740467,-0.18592962,-0.00046115,0.02975786,0.07880732,0.03612722,-0.03401144,0.02164983,0.12633006
lWj_3TE2UsE,0.00644111,0.00085721,0.03669732,-0.01289647,-0.00097365,0.17063935,-0.08345931,0.07267675,-0.02108885,0.04361469,-0.15335888,-0.01893667,-0.01523225,-0.06223929,-0.03255747,-0.06450283,0.00362901,0.05968244,-0.01057031,0.01524167
uHXjo7DUAAM,0.01379648,-0.00216785,0.02438315,0.0039555,0.00994233,0.02123135,-0.00606783,-0.01612875,-0.00109301,0.00364926,-0.00369356,0.01514584,-0.00332426,0.00900031,-0.01469222,-0.01134544,-0.00030327,0.00357552,-0.01699128,-0.01768481
-APimd6TUro,0.0955615,0.03099235,0.36228566,0.70342496,-0.30092384,-0.091088,-0.05432648,0.04217078,-0.14317953,0.14623972,0.03194692,0.00595546,0.02231464,0.03542307,0.0517662,-0.07409797,-0.00272955,9.791e-05,-0.05820763,-0.04906498
sncgYGQt1T8,0.56846943,-0.28127896,0.00837438,0.00181495,0.04553135,-0.00501136,0.02719204,-0.05120696,-0.08979963,-0.012812,0.05034615,-0.10139431,0.08653803,0.13271699,-0.20212735,0.19172494,0.10782373,-0.05569446,-0.01468432,0.26862551
eGmGoahyI-U,0.04396424,0.00092933,0.08628741,0.02841922,0.04507418,0.00393795,-0.00217406,-0.02015999,-0.01049269,-0.04839324,-0.01282727,0.00617544,-0.0328743,-0.03366804,-0.00857075,-0.01961687,0.01404941,0.0408101,-0.07231157,-0.05698083
n1G2FQ0UEqc,0.05885415,0.02874588,0.13442777,0.04301913,0.15385638,-0.00660124,0.00135873,-0.08456654,-0.13946432,-0.13525478,-0.04467922,0.03538783,0.35504228,-0.08135376,0.14422851,-0.06247928,-0.04792566,-0.04076795,0.07789522,0.09164777
-IhdnUzV64Y,0.13076521,0.01215971,0.13990561,-0.00230747,0.0980316,-0.01796309,-0.02250665,-0.11618947,0.00752361,0.09130589,-0.00066367,-0.02695889,-0.06411098,-0.06037553,-0.04910818,-0.05103158,-0.03219332,-0.01645838,0.01366623,-0.01821558
6XxQMeqG1P4,0.10590138,-0.01743902,0.14853175,0.00864476,0.11450732,0.04422851,0.04084522,-0.20147305,0.09519292,-0.1027262,0.00316864,-0.16210248,0.0016012,-0.02827128,0.14085057,0.07347467,0.14134795,-0.03323417,-0.03676879,-0.00497895
t9_dqoKfqLo,0.1196202,-0.02133637,0.06646416,0.01172842,0.09072388,-0.0181452,0.01940082,0.02397862,-0.09557408,-0.06238524,-0.01332856,0.00332971,0.12642927,-0.07645824,0.06489666,0.05819363,0.05119757,-0.01475772,0.073907,0.04715936
1t2Yd_bmg_k,0.58681879,1.03087721,-0.20778716,-0.04052209,-0.13489157,0.00114264,-0.01314304,0.03395315,0.48365021,0.25884455,-0.08709554,0.16315724,0.2392716,-0.03116821,-0.00544345,0.09331085,0.06589664,0.02834354,0.03472756,-0.00630515
uvfU2B8b4G4,0.05511949,0.01711764,0.10754126,0.02683103,0.10715443,0.0187734,0.02718903,-0.11559028,-0.06172308,-0.08421481,-0.05637993,0.0549426,0.31059225,0.05472617,0.03924181,-0.02143838,-0.08102106,-0.04492314,0.07024163,0.23055486
GMXWOLJHnJc,0.01318061,0.00985115,0.0301192,0.005926,0.01556197,0.07694971,-0.04344559,0.01160529,-0.00430903,-0.00809316,0.02689278,0.00031501,-0.00668795,0.01240592,-0.00445502,0.04330729,-0.02040435,-0.05802416,0.01687879,-0.01971157
bFO0uAMPx1g,0.01669576,0.00359636,0.03433687,0.01288824,0.02748719,0.11253276,-0.05414227,-0.00289727,-0.00264473,-0.00855792,0.0255653,-0.00887778,0.01360231,-0.00974502,-0.02033005,-0.05949723,0.08016933,0.02341328,0.0105681,-0.0265716
yXl7MRLoxrM,0.0133976,0.00160435,0.02836183,0.0096716,0.02736197,0.07362702,-0.03594003,0.016784,-0.02251753,0.00031146,-0.03656897,0.00490874,-0.00941538,0.01824542,0.02723621,-0.03421338,0.00578438,0.00019794,0.03958301,0.0194903
jcfifYFAdpM,0.07202754,0.00303719,0.11226724,-0.03192964,0.02801757,0.00428052,0.00425228,-0.15476075,-0.05229657,0.02510259,-0.03852537,0.3027809,-0.13042344,-0.06501453,0.00700861,0.06587778,0.04463702,-0.02528768,0.0422543,0.00421789
8hN5PF2oXGs,0.0101939,0.00328786,0.03108476,0.01027116,0.02445859,0.07329559,-0.03183997,9.982e-05,-0.00895345,0.00731027,-0.02198979,-0.00643256,-0.01961331,-0.01734236,0.00418274,0.00966053,-0.0524713,0.03467811,0.01081578,-0.07077595
LPTQADIf6Xk,0.08276199,0.00071126,0.10474747,0.02954842,0.1360218,-0.02133255,-0.0211807,-0.10567315,-0.04289094,0.208777,0.0416759,-0.07099286,-0.01724229,0.04134463,-0.01815414,-0.09882481,-0.00178824,-0.0009869,0.00886714,-0.07507708
yzajLZXh9JU,0.06770919,-0.02828398,0.01205597,0.00802329,0.01947917,0.18387786,-0.0823906,0.06452074,0.0190941,0.0157045,0.06217354,0.01855395,0.03152499,0.01330739,0.09084739,0.01298919,-0.07214896,0.1254786,-5.003e-05,-0.03010785
nbHMeopNtDg,0.00840366,0.002519,0.03216335,0.00811224,0.02418263,0.25167102,-0.13010319,0.0801417,0.0029877,0.01549111,0.10902957,0.03184875,0.02876964,0.02085059,0.02350803,-0.02446778,0.01399888,0.17022299,0.01195728,-0.0106655
4ZK7Ms4IZ7g,0.02282299,0.00240676,0.05457399,0.00232534,0.02227238,0.26131957,-0.12483639,0.08835025,-0.02380974,-0.01557081,-0.14951364,-0.01311145,-0.06766891,0.04845855,0.00501177,0.37784119,-0.31242858,-0.32249636,-0.06083344,-0.09451629
MmtdaRSSUZA,0.08175064,-0.01508517,0.12638698,-0.03117632,0.02960709,0.02560068,0.02557042,-0.10221953,0.0614773,-0.02518279,-0.03591816,-0.01557703,0.05700856,0.16211434,-0.04287547,0.00779297,0.06225473,-0.0550907,-0.09223625,0.13248769
krqt6eg3UoI,0.09149592,-0.0166667,0.07846539,0.02364247,0.07519771,0.02943123,0.01490996,-0.08986716,0.00226358,-0.05301306,0.01856493,-0.09116626,-0.03121403,-0.14219124,-0.06809218,0.11362582,0.08481707,0.06304601,-0.0250407,0.04406743
ys1zQyiLrMc,0.08376268,0.01904927,0.30504158,0.64848897,-0.31056991,-0.06577523,-0.04537983,0.03149207,-0.05689509,0.11550583,0.01734426,-0.03208064,-0.02016113,0.01936761,0.00448459,-0.0256822,0.01963326,0.00557369,0.00286146,-0.01974846
CZe8DucT3qA,0.02104328,0.00122558,0.03718155,0.00793126,0.03578594,0.03009053,-0.00670801,-0.02857976,0.0293512,-0.02445479,-0.01834381,-0.00290996,-0.04530471,-0.09083046,-0.02683775,-0.10459705,0.00305844,-0.01102265,0.00528261,0.0043882
4vHF2qU89Jo,0.16441068,0.07679232,0.0592339,0.03270639,0.08600242,-0.02828593,-0.02733482,-0.03895135,0.17129067,0.27640116,-0.01730473,0.01614877,0.03337528,-0.06564668,0.01212357,-0.00433377,-0.02915018,-0.02530241,0.04855713,-0.00098262
sqXsMACtso0,0.04628718,0.01490415,0.10697711,-0.01249564,0.04710396,-0.0017552,-0.01052335,-0.04993917,0.00380828,-0.0493488,0.00332191,0.02227225,-0.03210954,-0.0589458,-0.06832304,0.10603699,0.10585307,0.03748249,-0.05401803,-0.01704165
aqIgIWIc3uw,0.06935709,0.00402936,0.08869348,0.01935639,0.0982406,0.04778931,0.0462863,-0.22205056,-0.15980284,0.00234476,-0.0705488,0.55863848,-0.23074549,-0.02914225,0.07236265,0.10168129,0.08513308,-0.03590753,0.06386499,0.02028536
67JREKwyixk,1.18600562,-0.68062493,-0.29338802,-0.01056913,-0.11078177,-0.00464029,-0.00880971,0.06044436,-0.00765349,0.00613186,-0.00588519,0.02076329,0.00616654,-0.00745808,0.04479739,-0.02315649,-0.01988739,0.00271893,0.00993455,-0.0518743
TUSbI3pqiCM,0.11824741,-0.00014913,0.14515077,0.02827088,0.18824142,-0.03863411,-0.03346802,-0.08850603,-0.0845088,0.13274362,0.02339499,-0.0674681,-0.12824691,0.20102049,0.08797374,0.02192189,-0.02574584,0.07197525,0.13343055,0.08130132
myMj_ZfZ_xI,0.01071092,0.00585145,0.03643056,0.00590252,0.0233951,0.26920104,-0.14019227,0.08101012,-0.00676978,0.00522613,0.05282144,0.01165522,0.00565163,0.01348519,0.06714936,0.17643129,-0.13626676,0.15823972,-0.13566627,0.01218355
Ff0AYRWrnGY,0.02064727,8.62e-05,0.04784714,0.0126744,0.01832913,0.12943757,-0.05829772,0.00889222,0.01532515,0.00049405,0.10235128,0.02349811,-0.00395084,0.00023504,0.01634159,0.02315852,-0.01414807,0.12910597,-0.04519399,-0.0275774
0SSctcuOy0o,0.05246916,-0.00479021,0.05160993,0.01816888,0.04518465,0.02321434,0.01328008,-0.05629309,0.05579146,0.00185318,-0.01164848,-0.01928095,-0.02555486,-0.07027433,-0.0037184,-0.03671159,-0.01288583,0.02099711,-0.04170299,0.00818545
2JhSWzxzLXA,0.04629506,0.01637618,0.06950055,0.02277558,0.04853248,0.01674105,0.01219147,-0.08535557,0.04730094,-0.00803789,-0.02051171,0.01989594,-0.03829546,-0.06795603,-0.06714691,-0.01190578,-0.0195484,0.04623407,-0.03660702,-0.08365681
Hs6RxFMX1i4,0.01673413,0.00520376,0.0374535,0.01560414,0.02820089,0.09085844,-0.0446927,0.03400802,-0.02752916,-0.02705739,0.04239382,0.02644993,0.05723584,0.00559502,0.02402693,-0.03556195,0.01154394,0.05770536,-0.08581744,-0.03598549
shgZ8WYcC6k,0.01330699,0.00258037,0.03778066,-0.00823662,0.00814997,0.18890751,-0.09148524,0.06914954,-0.02530861,0.03285786,-0.15958834,-0.02295661,-0.01740267,-0.04711889,-0.02798883,-0.04093728,-0.00509302,0.01437293,-0.00580324,0.02103821
AU6gGMDF7ts,0.05228401,0.00551227,0.08402368,0.02465925,0.08400542,0.03972413,0.02460959,-0.18460985,-0.14014906,0.00065868,-0.11945988,0.59341984,-0.16761563,0.08012556,0.03931213,0.08111825,-0.00376139,-0.02282615,0.11715944,-0.02865613
ABoKfabPQyY,0.01586655,0.01070072,0.0529188,-0.00024471,0.00807709,0.27460687,-0.12506999,0.09242993,-0.02572054,0.04535041,-0.24747789,-0.01795822,-0.02772997,-0.06305981,-0.03623578,-0.07709815,0.12569021,0.09368746,-0.0436254,0.13049819
Jr9Xm5f44NQ,0.10286067,0.01997017,0.12317514,0.06139239,0.11169307,0.0089229,-0.01689632,-0.1112388,-0.03585062,0.1277385,0.00631941,-0.02647327,-0.05890411,-0.05406677,0.00518443,-0.093516,-0.02829751,0.00134283,-0.03525823,-0.06307002
g_7mUw6Xt2E,0.0549965,0.01649381,0.06067026,0.02710011,0.05515094,0.01430856,0.00022916,-0.0402735,0.03258168,-0.035653,-0.00724915,0.05794931,0.01984374,-0.05292575,-0.03801057,-0.02803076,-0.00907362,-0.03563545,-0.03526218,-0.01255033
DBWMP58IOcw,0.17970165,0.13740819,0.10664317,0.03182958,0.19840741,-0.11166559,-0.06481304,0.20506545,0.13773259,-0.00430849,-0.02341284,0.0927212,0.06059857,0.07336693,-0.03641651,-0.02223072,-0.01005663,-0.02782197,-0.08022675,-0.0013452
4uRgDr5maYo,0.09032199,0.11094389,0.04513305,0.0036374,0.02602349,0.05776576,0.03328635,-0.15677556,0.02753064,-0.03433886,-0.02429559,-0.0903729,0.05656558,0.13584533,0.22379557,-0.00257182,0.18152563,-0.05926702,-0.12208141,-0.14197978
QLnHGjCD-Vw,0.18286876,0.16340374,0.11397081,0.0202962,0.21490391,-0.15628181,-0.08857775,0.24398637,0.01155735,-0.1035159,0.04234537,-0.01149069,-0.11376269,-0.06469536,-0.09667309,0.10828344,0.1220561,-0.0071604,-0.05612518,0.02643318
5fKeNMp7F6s,0.01218065,0.00264826,0.04932789,0.01796761,0.03261636,0.33789342,-0.17044538,0.08688461,-0.02142263,-0.00776987,0.02319035,0.00943181,-0.01247787,0.05400675,0.05014322,0.29794561,-0.23978705,-0.1067012,0.02515767,-0.09263782
sGEEHGc7eyo,0.94697193,-0.52868267,-0.20685438,-0.00734436,-0.07030671,-0.0093371,-0.00315878,0.04299777,-0.02522369,0.01139843,0.02347446,0.00182133,-0.00211162,0.00818144,-0.05238876,0.01841578,-0.02751774,-0.00122489,0.04477621,0.03665049
z-7AhJ55htQ,0.08744671,0.0061006,0.11103647,0.00058551,0.07511868,0.01970689,0.00837372,-0.11001048,0.02827063,-0.01780358,-0.02395036,0.02288098,-0.01222575,-0.00748157,-0.11089922,-0.02008864,-0.01134985,0.02994497,-0.02661343,-0.05262673
EXOQ7vN2NXk,0.11024863,0.02121078,0.1211097,0.0381278,0.13874248,0.00664158,0.06213703,-0.09733275,0.01673869,0.0249605,-0.00992863,-0.10481776,0.02338366,-0.06230472,0.10424689,0.05071911,0.06764449,-0.11938427,-0.02529376,0.209862
p5zWy46yWxU,0.00843987,0.00498108,0.02654377,0.00395873,0.01805489,0.15449518,-0.08157159,0.04214039,-0.01473096,-0.00829928,-0.05019765,-0.00661531,-0.00582831,0.00789189,0.01688746,0.10371307,-0.07938651,-0.09925696,-0.11845708,-0.02641376
-0FsgHxwxgQ,0.0972681,0.0133413,0.0796184,0.01953365,0.09902533,0.00979085,0.00692111,-0.09057512,0.10096996,-0.05110532,-0.01203393,-0.03466118,-0.08198834,-0.14918998,-0.01768964,-0.0471945,-0.06051502,0.01225845,0.03304288,0.01567352
M_FKC2NTb24,0.08358192,0.00323845,0.04553528,0.01548239,0.04537431,0.02434592,0.01488878,-0.08230301,0.03562245,-0.03051942,-0.00115649,-0.03855458,-0.04520917,-0.05279172,-0.00275575,-0.01528996,-0.01550696,0.02323034,-0.02750498,0.01179555
87jnYKGVetM,0.01400593,0.00707035,0.04476093,0.01974563,0.02413908,0.20512955,-0.11106611,0.04602267,-0.01930298,0.0235259,0.0538273,0.02081367,0.02108927,-0.00771564,0.00428819,-0.04639256,0.07426656,-0.05593329,0.09540776,0.02384465
NuoEsHIW5JA,0.012671,0.00921967,0.02524386,0.00524709,0.01525141,0.08861809,-0.03987592,0.00394336,-0.00305241,-0.014813,-0.06014259,-0.01371317,-0.00831309,-0.00999993,-0.01717385,-0.01652739,0.02245413,-0.00346636,-0.0295023,0.00614219
1gyuiKoSc-w,0.07176905,0.01199735,0.09747839,0.00514118,0.06053185,0.04565993,0.09163868,-0.04157627,-0.01290216,-0.01856789,-0.01177292,0.01122139,0.08457517,0.07568106,-0.07857561,-0.04941781,0.03448785,0.0047437,-0.0055894,-0.21363787
lWQY5zccbQs,0.00893563,0.00182963,0.02796469,0.00745793,0.02466845,0.18084641,-0.09264657,0.05196149,0.01278673,0.03259253,0.14966876,0.02073027,0.02306433,0.02308974,0.05238058,0.06578424,-0.05328643,0.22281447,-0.05481263,0.03943039
AXvou3mSGQA,0.05777878,0.00324988,0.06665031,0.01243589,0.08399577,0.00018271,-0.01604031,-0.0246102,-0.05383439,-0.04384782,-0.01979481,0.00614404,0.09358733,0.07750009,0.13039371,-0.07531497,0.08335271,-0.03756452,-0.02946456,0.08741425
51dULrDA8E8,0.13405999,0.0403946,0.07137422,0.01649068,0.07671597,0.01233319,0.01864253,-0.01542956,0.03275308,-0.05388263,-0.01099875,0.0420241,0.04656193,0.01922733,-0.0424994,-0.0454866,-0.02638361,-0.00826917,-0.11182185,-0.0571835
lE7rIBv-nV8,0.00846191,0.00218885,0.03618613,0.00118704,0.01332973,0.16614837,-0.08460332,0.05091154,-0.01588996,-0.01382546,-0.06159926,-0.00683409,-0.03359633,0.0505186,0.00568461,0.26843683,-0.20043241,-0.21345692,0.02125598,-0.09848991
MnlZeYcfowk,0.21886688,0.10652082,0.1264564,0.02580168,0.23612555,-0.15605877,-0.07688295,0.2450875,-0.06068398,-0.22251964,0.03565036,-0.08055176,-0.1094333,-0.08900563,0.01423541,0.17595073,0.19387507,0.10988261,0.12680228,0.01319591
EZLeWRbCEbA,0.10746821,-0.01683559,0.14225024,-0.01264734,0.07475096,0.0524584,0.0297973,-0.11887742,0.0062061,-0.05268533,-0.02883994,-0.03315825,0.04260851,0.20760984,-0.23684111,0.03326757,0.04897629,0.01824161,-0.06620732,0.16465387
DHk0gFHyHeE,0.22377433,-0.03418611,0.03428294,0.01915905,0.08066644,-0.00578342,-0.00194711,-0.03067594,0.17030078,-0.02401276,-0.09141308,0.02067182,0.01317831,-0.09365426,0.19500717,-0.04274098,0.07159374,0.0224007,-0.07116066,-0.05957652
YY99Gla0v4E,0.11506617,0.00081076,0.20315636,-0.01359208,0.12317828,-0.01545022,-0.01569669,-0.09833211,-0.08088496,0.01445039,-0.01765023,0.00070329,0.1412086,-0.04609787,-0.01315082,-0.04308982,-0.04012036,0.01736812,-0.12598368,0.00937235
3QRWlCFdzyE,0.58681879,1.03087721,-0.20778716,-0.04052209,-0.13489157,0.00114264,-0.01314304,0.03395315,0.48365021,0.25884455,-0.08709554,0.16315724,0.2392716,-0.03116821,-0.00544345,0.09331085,0.06589664,0.02834354,0.03472756,-0.00630515
Cs1nC8kqS5k,0.0913683,-0.02427588,0.10422391,-0.00539371,0.05809039,0.02141707,0.01855076,-0.08569187,-0.01484268,-0.0530948,0.02070379,-0.06137967,0.02679147,-0.10585072,-0.12377326,0.12567361,0.07020006,0.00568126,-0.07614468,-0.03559348
B2ag364pRgQ,0.00950496,0.00536431,0.02413002,0.01051117,0.01527931,0.09125927,-0.04109201,0.00847198,-0.00067203,-0.00343593,-0.01262844,-0.0042137,0.01591644,0.01389964,0.02452831,0.02074495,-0.00994801,-0.03019547,-0.00319465,-0.00358164
kLJNcHqVmJA,0.07952568,0.00685852,0.10070901,0.03162691,0.12934886,0.01945204,-0.0501001,-0.09403873,-0.03823324,0.20686035,0.22867912,-0.04143441,-0.00828519,0.11858225,-0.04605206,-0.09848411,0.04888502,-0.08212553,0.05414755,-0.04906989
1lx0bttCAbs,0.18868455,0.06473494,0.11458358,0.00717944,0.12823965,-0.05357597,0.00841164,0.1321535,0.02357449,-0.06138898,0.0093511,0.03128449,-0.07026569,0.02435848,-0.06691162,-0.01688765,0.00099355,-0.02783587,-0.05072833,-0.02591174
L8_m7pOI2-A,0.0634225,-0.01656852,0.08954144,-0.01857099,0.02731844,0.01140798,-0.01037586,-0.07126373,-0.00424972,-0.0088883,-0.02152382,0.00500653,-0.00860086,-0.02872519,-0.05344593,-0.01417054,-0.01401189,0.07086861,0.03917112,-0.01386808
jdrW-vJOD1w,0.11898004,0.02575853,0.10019588,0.03532915,0.05208686,0.02698978,0.01616439,-0.14518409,0.06906481,-0.03928767,-0.04925793,0.03720244,-0.03303155,0.03683782,-0.03030936,0.01406835,0.03924701,-0.00608631,-0.00263924,-0.0475089
U4gpio58908,0.03561024,0.0017532,0.05313961,0.00042638,0.03291265,0.12695855,-0.05528299,0.01446867,0.00232291,-0.01999598,0.01693324,-0.00440165,0.01192579,-0.00649629,0.01074804,-0.06237664,0.05586121,0.05055441,-0.0005895,0.02409107
dYJM9jmLBzY,0.04326144,0.0254886,0.08699013,0.01732987,0.10190416,-0.02342898,-0.00494465,0.05170799,-0.11611931,0.08030595,0.03368287,-0.00501424,0.07178394,0.02977756,0.01888859,-0.06900148,-0.0205515,-0.02418428,-0.12933893,-0.05404869
xO5diVmgE8Y,0.00684552,0.00235277,0.02161265,0.00949458,0.01333564,0.06539931,-0.00973216,0.0045353,-0.01376774,-0.02801335,0.00693974,-0.03121801,0.01847119,-0.01391416,-0.04179805,-0.05993635,-0.0155227,0.23648738,0.05719841,-0.09572149
