video_id,lsa_1,lsa_2,lsa_3,lsa_4,lsa_5,lsa_6,lsa_7,lsa_8,lsa_9,lsa_10,lsa_11,lsa_12,lsa_13,lsa_14,lsa_15,lsa_16,lsa_17,lsa_18,lsa_19,lsa_20
QPWScf-86po,0.02509238,0.00790618,0.0527401,0.01539209,-0.03434416,0.19211174,-0.07435068,0.0531771,-0.00783794,0.02556514,-0.03239213,-0.00675625,-0.05064549,0.02073792,0.02604392,-0.02964742,0.04723998,-0.06728183,0.00627604,-0.03597385
n2T6AOoUkOM,0.01199739,0.00876085,0.04253935,0.01447352,-0.01260725,0.17777217,-0.08471209,0.02327004,0.00521877,0.03533131,-0.05666194,-0.0503644,0.02073529,-0.01971291,-0.0682993,-0.05650093,-0.08625094,0.04664559,-0.02371558,-0.02357797
P1DSZNhApJA,0.02642837,2.57e-05,0.06135828,0.02347097,-0.06318458,0.00097321,0.00408792,0.03282683,-0.07358195,0.03130265,-0.02902069,0.17585407,-0.02064418,-0.13621056,0.08446655,-0.12423128,0.068847,0.17287042,0.0926772,0.05322835
5LJ1cxjQhyE,0.02163295,0.01516681,0.03322487,0.01513288,-0.02087218,0.06853324,-0.02607428,0.00092073,-0.0123806,0.01570617,-0.01970196,0.01279504,-0.01177016,0.01279832,-0.02428489,-0.02114405,-0.00047708,0.00319487,0.01396986,0.01625778
4s9LuOSR3Q4,0.0141743,0.00653384,0.03101506,0.00690758,-0.01116778,0.20150355,-0.0917625,0.04557528,-0.00044842,-0.00815788,0.05743707,-0.00319562,-0.01147055,-0.00370261,-0.02493374,0.01900977,0.02516019,-0.01372493,0.1159098,0.08134087
OrI86PV-aPg,0.0747443,0.01649328,0.10059076,0.03069737,-0.1013232,-0.02434904,-0.02142615,-0.04815618,-0.02084817,0.14432291,0.07406529,-0.03365597,0.07368987,-0.08640262,0.01256161,0.05691041,0.01162162,0.01931689,-0.07763202,-0.0145977
Su0aCV35IFM,0.0106526,0.0071777,0.03873995,0.00716905,-0.01659836,0.25705795,-0.12030825,0.06099722,0.0028751,-0.02772469,0.15630582,0.00593334,-0.01697111,-0.0011041,0.1647535,0.19551906,0.12932714,-0.06860674,0.17415824,0.05446681
qgzwtKsXCMo,0.00693978,0.00309657,0.02174507,0.00499341,-0.01840871,0.01739313,-0.00046,-0.01498633,-0.00588872,-0.00299537,-0.01132541,0.00298577,0.01947098,0.0094096,0.01779568,-0.00442539,0.00921987,0.00038468,0.02867764,0.04670987
ksn5yrsC3Wg,0.02072655,0.00698337,0.05379228,0.01046912,-0.02171988,0.23562451,-0.09341602,0.04551843,-0.00074975,0.01375993,0.08518854,0.00580804,-0.0270431,-0.02902299,0.08073026,0.0816032,0.07560876,-0.04264731,0.03874285,-0.00212703
WOTUpoI2LQA,0.036622,0.0304761,0.0786926,-0.03390775,0.00627922,0.00755442,-0.01255098,-0.03304031,-0.00498223,0.01253367,-0.00398126,0.0456549,0.02138925,-0.05721211,-0.00724519,0.01032629,-0.02653312,-0.01874128,0.06291835,0.01198147
IEJALLQFmDs,0.00878837,0.00185802,0.03226459,-0.00784552,-0.00220801,0.13525548,-0.05651314,0.03531201,-0.00087639,0.04578476,-0.07343683,-0.02907077,-0.00295559,-0.01766205,-0.01958559,-0.08145318,0.05884279,-0.04959015,-0.02162654,-0.02238627
A2O_CSDImRs,0.01725492,0.00904771,0.06728812,-0.01667749,0.00204973,0.36655058,-0.15673996,0.1117779,0.00328476,0.06333633,-0.06737127,-0.02510883,-0.01264176,-0.02867552,-0.01152716,-0.08402256,0.15610771,-0.11696999,0.08437783,0.05385239
dqazxW8R5BY,0.00400635,0.0019449,0.01714754,0.00360789,-0.00951843,0.10230794,-0.04322162,0.02852229,-0.00354675,0.01654505,-0.0197231,-0.00337167,-0.00412179,-0.00906294,0.02941702,0.00561523,0.00794901,0.00926082,-0.00052312,0.00059353
MOrBFf1DVvs,0.01620312,0.00887789,0.03516432,0.01393364,-0.01409624,0.15555446,-0.07372881,0.02331779,0.00183883,-0.01141646,0.01720334,0.00293306,0.02090653,-0.01637284,-0.08278086,-0.01534026,-0.13403885,0.05376532,-0.03330542,-0.06438952
4yDM3ZFcQm4,0.00593976,0.00331539,0.02614733,0.00729954,-0.01205738,0.206925,-0.09544068,0.05166393,0.00135228,0.00247188,0.04377328,-0.01455871,-0.00675921,0.00746846,0.10397475,0.08289314,0.06098014,-0.01960657,0.09922439,0.03391381
reCJ5EuvukI,0.01646789,0.01372831,0.02275697,0.00975264,-0.0074976,0.06687123,-0.0238189,0.00686063,-7.775e-05,-0.00622018,0.01609419,0.01082581,0.00088218,-0.0037063,0.01469038,0.03628496,-0.01321433,0.02108799,-0.00868038,0.00136238
pXI3xinu4bc,0.00745036,0.00335819,0.03244905,0.0068415,-0.00831107,0.12038402,-0.05812864,0.02259449,-0.0022654,0.04162205,-0.07356163,-0.01671312,-0.01206677,0.00164173,-0.01210343,-0.10779068,-0.00194321,-0.00166503,-0.0174921,-0.06699989
mK3xENFCGnI,0.07177404,0.05447382,0.11846976,0.02032081,-0.0767302,0.02339391,0.04364877,-0.12814458,0.02070978,-0.0571561,-0.00226199,-0.0586236,-0.06284805,-0.03339903,0.16021257,-0.07723318,-0.04434381,-0.05098198,-0.01274099,0.13780466
snM0UfZxakc,0.02007799,0.00192621,0.0446013,0.0222453,-0.01306886,0.16196895,-0.06231673,0.02325878,0.008986,-0.01588325,0.02098271,-0.00624949,0.01338159,-0.0184291,-0.110934,-0.02426688,-0.15088556,0.04686295,0.02090251,-0.02572961
jLFG_FZKbks,0.02084114,0.00783035,0.06458283,-0.00805347,-0.00440846,0.21066213,-0.08546469,0.04083432,-0.0078009,0.03787447,-0.09909908,0.00107777,0.00602587,-0.01410173,-0.0073418,-0.1088394,0.03753792,-0.06575466,0.00745909,0.00096304
GDex3WIPF7c,0.01263089,0.01013037,0.03604954,0.01463942,-0.01505498,0.16127984,-0.07304345,0.02062785,0.00206658,-0.05055152,0.13800829,0.01563616,-0.0023299,0.02428717,0.09422187,0.12091571,0.05586165,-0.01862635,0.08776438,0.04155586
WgcdDVIUXcI,0.04822395,0.03621286,0.08348028,0.01935777,-0.07561332,0.02687614,0.04536606,-0.06172613,0.04747411,-0.05463151,-0.00847404,-0.05534454,0.00483365,0.01630844,-0.05419377,0.01041363,-0.07996203,0.03454241,0.08808281,0.06340049
FMdrD_jcYgE,0.01178432,0.00546096,0.04067638,0.00830679,-0.02740669,0.14381533,-0.06019738,0.01794754,-0.00600396,-0.03006631,0.03322307,0.01303862,-0.01633686,-0.00021137,0.075586,0.1032417,0.05636947,-0.04291485,0.06362175,0.00280071
iBpxQpktHN4,0.00352674,8.35e-06,0.01045676,0.00225564,-0.00945319,0.02567851,-0.0183898,0.01669828,-0.00681928,-0.02824482,0.00999841,0.00236397,0.01206497,-0.00253618,-0.02869893,0.02074415,-0.04098502,0.0343028,-0.00179123,-0.01580571
UncqiOQc4rI,0.01035618,0.0069259,0.03964952,0.00069156,-0.01236397,0.10815554,-0.05356445,0.01153585,-0.00516649,0.00808475,-0.01278383,0.01284556,-0.0013069,0.00327156,-0.06271871,0.05780384,-0.17158552,0.10644851,0.00956388,-0.07697354
R-klQGp_308,0.01765261,0.01935894,0.02928563,0.00825275,-0.01348837,0.15059032,-0.07138437,0.03899246,-0.0061264,0.02260958,-0.01064215,-0.00138003,-0.04102611,0.02818908,0.01986849,0.00927543,-0.02033148,0.00477961,0.00116554,0.02025906
ywEV7NQlO1Y,0.0275882,0.02902831,0.0645321,-0.02250963,-0.00017053,0.02945909,0.00099948,-0.02542773,0.00017041,-0.03511001,0.01767785,0.02041765,0.00226175,0.00118694,-0.03090103,0.03192157,-0.08838521,0.04020936,0.07300277,0.00237992
0y8vRPcSvbw,0.01799361,0.0140571,0.04509762,0.01890803,-0.02538649,0.13258727,-0.04838593,0.00436151,0.01456141,0.00468304,-0.02587098,-0.01955551,0.02008687,-0.02457031,-0.10824035,-0.02736484,-0.08498832,-0.00619489,-0.00410151,0.03886556
8--Bq5oEsZ8,0.03005352,0.0243563,0.01890054,0.00906993,-0.02406032,0.03862954,-0.02250296,0.01931136,-0.01297707,-0.01086151,0.00150176,0.0091938,-0.00741759,0.03264862,-0.01202366,0.03864439,-0.01120691,-0.00611605,0.01627024,0.00279877
tpay1lEGZ7g,0.05907935,0.01353366,0.13206708,0.03908818,-0.09343551,-0.0148812,-0.01416855,-0.07207981,-0.02178787,0.10303593,0.05440566,-0.0228471,-0.00911825,-0.07234824,0.10521109,-0.04397912,-0.02848609,-0.00900017,0.00672099,-0.00610601
eOI7WQIEX1Y,0.05031912,0.05866821,0.06540112,0.00655046,-0.03926644,0.02847484,0.01417288,-0.09005275,0.00111875,0.00327469,-0.02670576,0.04873845,0.10012521,-0.06249015,-0.00483784,-0.00368668,-0.03363582,-0.06304435,0.0071681,0.05468163
vmRbevilfpU,0.10730728,0.0671293,0.07637052,0.01626576,-0.06999805,0.00952495,0.02693674,-0.14142395,0.04012117,-0.01960633,-0.0090825,-0.1239463,0.06231326,0.04549099,0.05202503,-0.07211119,0.05139936,0.01658438,-0.02924261,0.0651305
7Y7Iv5XAXwI,0.0168021,0.01054904,0.04246024,0.00691329,-0.02662172,0.12211302,-0.04925262,0.01353714,0.00252509,-0.06481275,0.08297759,0.01768826,0.02407485,-0.02843485,-0.05825957,0.00745612,-0.07302613,0.02426727,-0.01538646,0.00399985
TmkbUF0V0hM,0.02819023,0.00865191,0.04478877,0.02475193,-0.020861,0.19214117,-0.04413583,-0.02730388,0.02769485,-0.27941795,0.58254635,0.11944456,0.02568585,0.05762415,-0.14174551,-0.17309561,0.03269844,-0.01120569,-0.08597383,-0.02402069
fuxYQrqkfns,2.396e-05,2.905e-05,7.119e-05,7.52e-06,-6.237e-05,9.913e-05,6.632e-05,-0.00012279,5.473e-05,-0.00015377,-0.00014921,-0.00087749,-0.00112428,-8.24e-06,0.00043787,-0.00042932,-0.00042106,0.00016646,-0.00059251,-0.00152014
81RBVN6P9cM,0.02694991,0.01035592,0.05609876,0.00786816,0.00704206,0.14771386,-0.03652933,0.03446291,0.00878889,0.02987086,-0.054038,-0.01583269,0.00075694,-0.04036345,-0.06931207,0.00146603,-0.13658467,0.01461035,-0.01337706,-0.04064176
Hk-ARbCTKzM,0.01891632,-0.00067388,0.04061088,0.0120709,-0.0121441,0.1722905,-0.08252001,0.03504095,0.00947403,0.0503592,-0.08921021,-0.02797231,-0.00143711,0.01437306,-0.00978695,-0.1076184,0.01508006,0.00586813,-0.00788357,-0.06411732
u_f8bJkfg68,0.07578289,0.0769903,0.02605271,0.01188538,-0.04421664,-0.0041248,-0.02511935,0.04154243,-0.02820671,0.0106252,0.00230599,-0.00286343,-0.00099699,-0.0058516,0.00869957,0.02183246,-0.04159228,-0.06584009,0.03326993,-0.04236156
Czf68kDF_7Y,0.00922693,0.0045396,0.04014321,0.01970153,-0.01418139,0.1962958,-0.09340968,0.04454553,-0.00023848,0.01553186,-0.00705938,-0.01612562,0.03355337,-0.00316579,-0.12946322,0.02399258,-0.22656938,0.10524062,-0.00697275,-0.02441182
jKTNMlUEdgU,0.00040541,0.00020722,0.00186758,0.00080577,-0.00051663,0.00697067,-0.00329921,0.00095735,7.727e-05,0.0023466,-0.00063792,-0.00188121,-0.00094814,-0.00304118,0.00325842,-0.0026901,0.00011745,0.00256115,0.00380482,0.00051198
3PZ3d4eNWrc,0.01508929,0.01312998,0.04868411,-0.00126808,-0.01586274,0.24507232,-0.10963201,0.06143613,-0.01843821,0.10917723,-0.13129384,-0.01612333,0.00183339,-0.03905518,0.06211967,-0.03058673,0.09742468,-0.21861645,-0.15976024,-0.08534693
N-zjDtQOwxc,0.09877839,0.04573058,0.19092667,0.02246207,-0.12184424,-0.00252602,0.00713994,-0.12920925,-0.03883588,0.15997474,-0.01712458,0.19778896,0.18802962,-0.08909195,-0.01623835,0.04860842,0.01420642,0.06226854,0.0227802,0.03296906
PoHZWjU54jY,0.01481922,0.01906652,0.02126985,0.00508836,-0.00399955,0.17492722,-0.0804421,0.0409434,0.00075107,-0.02125371,0.10860494,0.00457562,-0.02503624,0.00467838,0.11053137,0.15114333,0.1021642,-0.00235652,0.11873351,0.06316864
2r0m4TsyIxs,0.00968287,0.00099479,0.02235586,0.00526747,-0.01650166,0.08689387,-0.04211439,0.02181003,-0.0106162,0.00340275,-0.0180142,0.01017045,0.01108322,-0.01045167,0.01039884,-0.01000592,0.04714026,-0.03903758,0.05380928,0.01478152
pG99B0ui06s,0.00630564,0.00274063,0.02414431,0.00476317,-0.01639277,0.10792031,-0.04693034,0.02195965,-0.00395135,0.02087231,-0.02830097,0.00822102,-0.00806218,0.00080348,0.07208644,0.08507941,0.00112455,-0.01856879,-0.06638434,-0.02420205
mpZK1dqX6aA,0.00132078,0.00120646,0.00279304,0.0012211,-0.00121038,0.01255973,-0.00488087,-0.00087651,0.00099031,-0.00120319,-0.00046492,-0.0028911,0.00469986,0.00108852,0.00800206,0.01076685,-0.00268316,-0.00388702,-0.00079822,0.0059932
PnpHwhTWw0c,0.02519759,0.02238847,0.04742129,0.0025888,-0.01272926,0.15136369,-0.06972428,0.01714568,-0.00560815,-8.082e-05,-0.04210744,-0.02525167,-0.00377492,-0.02196997,-0.06344113,-0.1034799,-0.0666114,0.02509453,0.06877862,0.15744709
yE8fJOgv7Pc,0.01701913,0.0018789,0.04436571,0.00955371,-0.03234883,0.11907243,-0.04151564,0.00906631,-0.00011513,-0.04501416,0.07967338,0.03993022,0.0074845,-0.01137895,-0.12414519,0.16073418,-0.30537781,0.16424713,0.03594133,-0.14926475
OEtIq4tR1rA,0.01055799,0.00457612,0.03759934,0.0080191,-0.0265736,0.10952678,-0.04047761,0.01828976,-0.00058888,0.01571862,-0.03720198,-0.00242672,0.04084449,-0.02313049,-0.09388548,-0.03457003,-0.04422235,0.11188046,0.07351149,-0.00451065
W41XcEogOB0,0.01896352,-0.00173418,0.03075864,0.01827352,-0.0111393,0.11946037,-0.04394731,0.01156068,0.0058219,-0.05514721,0.1018075,0.02249156,0.00620997,0.00456479,0.03897097,0.04569739,-0.00294246,0.01486453,-0.03526016,0.02181038
1baBzd1XPkU,0.01354396,0.00431521,0.0324105,0.00176503,-0.01720085,0.05636625,-0.02932718,0.00490261,0.00032643,-0.00286571,-0.00936177,-0.00889622,0.00465136,0.00146204,-0.03175273,-0.0059257,-0.02743931,0.02245208,0.02178199,0.01025696
W65cfPslnzo,0.01007378,0.00200645,0.02649956,0.00830411,-0.01543207,0.11597184,-0.04676238,0.01962399,-0.0010183,-0.00774625,0.03129007,-0.00078835,0.00473614,0.01068863,0.04012619,0.01531427,-0.00045067,-0.02258462,0.01546023,-0.00204823
kB_PJC80JhY,0.1076069,-0.02335751,0.12825266,0.0240935,-0.11932929,-0.02610355,0.00386868,0.02072606,-0.06433008,-0.01142078,-0.07008318,0.21682094,-0.09063624,0.06718367,0.03070782,-0.00943841,0.08656126,0.02243643,0.10416426,-0.04770208
7NeECqsR_u4,0.01080808,-0.00103181,0.02528247,0.00600283,-0.01815119,0.14188816,-0.0719581,0.04462933,-0.00265827,-0.03435621,0.05119347,0.01589689,0.02031537,-0.01236531,-0.1328928,-0.00978836,-0.18171217,0.09502657,0.02043238,-0.05005245
tkLxg6h07aE,0.03099224,0.01089396,0.06749762,0.03194813,-0.03296082,0.31789088,-0.10621416,-0.01960941,0.03526748,-0.35770329,0.7327513,0.13882711,0.01675101,0.05753686,-0.08489414,-0.09498724,0.06645795,-0.01666538,-0.07010651,0.00777584
xjcVnFd-4YA,0.01532622,0.0078518,0.02321022,0.00635248,-0.02014742,0.02010323,-0.00526759,-0.01801523,0.0002374,0.0084171,-0.02167696,0.01656817,0.03013348,0.00331365,-0.01407978,0.01681922,0.00158501,0.02497382,-0.04564658,-0.01748773
pUlUgkaTQZg,0.00911046,0.00485458,0.03984647,0.01733319,-0.0138497,0.19578653,-0.08389812,0.03233631,0.00895383,0.01171065,-0.00651259,-0.03274216,0.02434881,-0.02609447,-0.03187471,-0.01160614,-0.07541355,0.01715766,-0.01231155,0.02823557
vgwG6e9TFcw,0.01128783,0.00803542,0.03569042,0.00571856,-0.01672681,0.16636328,-0.08417372,0.04100446,-0.00595864,0.0061894,-0.06341339,-0.07498132,0.01965281,0.00968718,-0.2094181,-0.18686324,-0.13060057,0.11504848,0.12240956,0.21997333
dU5sDKcwN9E,0.02072217,-0.00024284,0.04573988,0.00428684,-0.00825858,0.24511763,-0.10539775,0.05667951,0.00525297,0.01556237,0.00792222,-0.01839659,-0.01396622,-0.0159255,0.04459034,0.00966967,0.09109544,-0.10068529,0.0439886,0.03231733
t9PF8V132Y4,0.01272425,0.00551198,0.03062098,0.00763991,-0.01552322,0.07526793,-0.03825273,0.00341871,-0.00512904,0.01033191,-0.0057374,0.00716629,-0.01496909,-0.01211911,0.03736461,9.33e-05,0.00454124,-0.0098786,0.0048162,-0.07211531
Gmfpq60LbVQ,0.03032637,0.01450167,0.11064914,-0.05071958,0.00697619,0.03598685,0.01809389,0.01259963,0.0225281,9.398e-05,-0.03289464,-0.00858717,0.05726272,-0.01038244,-0.05410653,0.04231504,0.07127475,-0.08270148,-0.00861177,0.01139247
rfRFwXnk660,0.03521366,0.00217548,0.04508205,0.00657495,-0.03449815,0.00302563,-0.00478045,-0.01679433,0.00356536,-0.04316793,-0.03189973,0.03585577,0.01679763,-0.06679189,-0.01595095,0.02923187,-0.02424248,-0.05194162,0.02505811,-0.00864907
dNNyCZwEa6k,0.00985779,0.00464571,0.04354902,-0.00094283,-0.01486764,0.15259089,-0.06457954,0.0359742,-0.00550544,0.0279279,-0.05029013,-0.00718439,0.00776526,0.00131846,-0.00378476,-0.02217246,0.00809905,0.03408671,-0.01483502,-0.01420311
ndkH5fZSIvs,0.02014803,0.00792454,0.06652493,0.06946376,0.02125299,0.15896985,-0.08109862,0.0204198,0.00179763,0.0136512,0.01204552,-0.02324034,-0.02538344,0.03906856,0.03399465,-0.08055054,-0.01032828,0.02199504,-0.00180871,-0.03317302
JjwHFerSu4M,0.04669285,0.0306244,0.07930901,0.02707038,-0.03749019,0.05844017,0.03581806,-0.10834413,0.01744248,-0.06981149,-0.00951669,-0.00966614,-0.00642406,0.03559175,0.04268861,-0.03751341,-0.03635662,0.10474557,0.06528805,0.01256271
IrGd4xIhTN0,0.01066223,0.00519635,0.03421627,0.00985147,-0.01871181,0.15680291,-0.06047535,0.02070937,0.00496262,-0.03140709,0.09277148,0.00831018,0.00276411,-0.0003324,0.09809747,0.132426,0.07183732,-0.03816873,0.11967473,0.05134102
vNXFk8iGHk8,0.01730028,0.01394267,0.05543286,-9.13e-05,-0.02269232,0.2582602,-0.11585246,0.06618274,-0.02102262,0.10952392,-0.11619071,-0.01376751,-0.00891239,-0.03286472,0.08253571,0.01058381,0.11564234,-0.2065898,-0.13102671,-0.06567554
io_Ysi-LFWE,0.00968598,0.00683255,0.02990937,0.00844377,-0.018391,0.14168666,-0.05860481,0.01561073,-0.0002875,-0.06623242,0.14444426,0.03653924,0.01305218,0.00677525,-0.01036185,0.09743398,-0.11295195,0.04735173,0.00905988,-0.05149399
gdjCR9h1yGc,0.01327043,0.00445481,0.05595221,-0.01512591,-0.00162546,0.22107991,-0.10438233,0.06242118,-0.0091468,0.04916865,-0.08156273,-0.01397228,-0.00230761,-0.00149736,0.03293341,-0.06343706,0.02736456,-5.83e-06,0.01006971,-0.05998018
v_1Dhh8G84c,0.01534037,0.01065011,0.0398155,0.01156524,-0.02964547,0.1162712,-0.04645578,0.00228057,0.00041603,-0.00102699,0.01278695,0.01361507,0.00401397,0.00080897,0.01694247,0.03975914,-0.027854,-0.00849977,-0.03048813,-0.04606542
2ZV29QhLfjw,0.06737465,0.05880736,0.08422911,0.02294816,-0.06775778,0.03313977,0.02629873,-0.10129661,0.00558575,-0.04327524,-0.00554364,-0.02830708,0.00952413,-0.05825487,0.10144778,-0.07365576,-0.0372716,-0.04635832,0.00269015,0.02858789
3fsJFUvA6Ts,0.01434343,0.00942963,0.05108753,0.01453907,-0.02812727,0.34077953,-0.16040972,0.08822517,-0.01783578,0.00222823,0.02445291,-0.04291366,-0.01900881,0.04522193,0.12791261,0.29610328,-0.23353564,0.20238361,0.05167985,0.07841149
BdUzhVM5w1U,0.00988363,0.00345499,0.02663957,0.00406179,-0.01023443,0.15725539,-0.07374483,0.03275463,-0.00191371,0.03235095,-0.06068465,-0.02739975,0.00129808,0.00580971,-0.04223809,-0.0968848,0.0209848,0.02460638,0.04735528,0.05303218
m-nnyNZ0TQ0,0.01485474,0.00664695,0.06011575,-0.01284056,-0.00503133,0.19798814,-0.07404247,0.06055591,-0.00559162,0.05308382,-0.1241356,-0.02822215,0.02245739,0.00340598,-0.04056042,-0.10707052,0.01690662,-0.00445239,-0.0539813,-0.02452763
oqoBSeL5GIU,0.01215756,0.00533184,0.04410397,-0.00458074,-0.01056499,0.17134927,-0.06452943,0.048957,-0.00146888,0.03676182,-0.09444681,-0.04576615,0.01303833,0.00246783,-0.08156212,-0.09746851,-0.07596634,0.04505817,-0.05663911,-0.03858502
YUwjueXzffE,0.02477987,-0.00363165,0.05337827,0.00495336,-0.0015186,0.2162823,-0.08619647,0.04023914,0.00960779,-0.01881193,0.04391018,-0.00835691,0.0101214,-0.02670234,-0.02864982,-0.07818684,0.03926415,-0.0013039,-0.02116954,-0.01949948
dl0-TveDDGA,0.00970495,0.00614266,0.04464251,-0.00209591,-0.00991876,0.2191638,-0.09881827,0.06757384,-0.0015551,0.06339267,-0.10838309,-0.03229818,0.00240782,-0.00415915,-0.03106771,-0.12583923,0.03766974,-0.03854193,0.00633778,-0.00796294
Cr7oGnSzmb4,0.0078676,0.00723375,0.0194458,0.00449415,-0.0121963,0.11329992,-0.05302707,0.02678633,-0.00403659,0.00850231,-0.01209104,-0.01234139,-0.01065459,-0.00817424,-0.07606053,-0.05927869,-0.0511862,0.0355042,0.07510021,0.03465294
ExlWYbISs6I,0.01705749,0.00482504,0.05586979,0.0170926,-0.0295501,0.18750401,-0.08643314,0.01580122,-0.00709618,0.03530806,-0.05176133,0.03981373,-0.00893712,0.0256834,0.09737709,0.14184852,-0.08333778,0.00533275,-0.21949673,-0.12997319
XGAhqBxEV78,0.01772433,0.00665458,0.0371333,0.00637317,-0.01282223,0.09894233,-0.03967469,-0.0080698,0.00511647,0.02685848,-0.04153631,0.00472859,-0.01898877,-0.02553813,-0.00494455,0.05816257,-0.09426992,0.01915474,-0.04482646,-0.07821465
8TvJvfKz8Fo,0.06095753,0.01059623,0.13113413,0.02636868,-0.12874706,-0.0215094,0.01200139,0.08522448,-0.04409515,-0.04271447,-0.02467597,0.01498809,0.09852758,0.02735954,-0.03376732,-0.01912527,0.06923377,0.10673748,0.11430812,0.04909517
z7Qp9Q_Br88,0.01471438,0.00488934,0.03626346,0.01119434,-0.02644602,0.10617668,-0.05029386,0.0125697,0.00023505,0.01380809,-0.03867309,-0.03162694,0.01710642,-0.01729338,-0.0398736,-0.08507267,-0.01318804,0.06373965,0.06179626,0.03232009
5YKhtb3DNNo,0.06051507,-0.01196323,0.06495859,0.03589009,-0.02655984,0.00750612,0.01133021,-0.04486885,0.00397895,0.09867705,0.03244544,0.01444852,-0.07855508,0.07097191,0.03871153,-0.06042898,0.00501288,0.01760384,0.0006399,-0.08009262
IAn3Wu2BdyY,0.0985115,0.03478018,0.10932706,-0.00367987,-0.04962148,0.02854655,0.03513681,-0.18553457,0.06896749,-0.01067405,-0.0480939,-0.0934073,0.00202307,0.11636181,0.02718356,-0.04836867,-0.03342595,-0.01184026,0.02819213,-0.03352736
HRxULulg_hM,0.02274392,0.01124316,0.05746994,0.02068346,-0.04221878,0.16446412,-0.07105924,0.04198956,-0.02554591,0.02859733,-0.01968563,0.0686201,-0.01121985,0.00874165,0.10810034,0.12306472,-0.05597588,0.06156742,-0.1185833,-0.04495342
s6XPoPYDn-Y,0.01699858,0.0076761,0.04222109,0.01475449,-0.02944848,0.15181273,-0.03904955,-0.04080954,0.02766189,-0.27519254,0.55735768,0.11510146,0.02026393,0.04582179,-0.16638507,-0.16541037,-0.00329025,-0.00678666,-0.12019687,-0.03059519
JWOErbTL9N4,0.01494269,-0.00030219,0.03281494,0.00249961,-0.01350991,0.12897201,-0.05421828,0.01186802,-0.00606676,0.03445327,-0.04013454,0.0019252,-0.03357567,0.00173122,0.05698804,0.06708382,-0.01941626,-0.0172961,-0.06706063,-0.03642888
XsY6iChNzf0,0.02050392,0.02004514,0.06075418,-0.00299015,0.00702202,0.03749486,0.03975678,0.01346348,-0.00780424,0.00161788,-0.02721585,0.02881745,0.00168527,-0.03137941,-0.02312167,0.00322999,-0.03854765,0.02088572,0.00489073,-0.03608256
2pao0845DQQ,0.01355717,0.00244813,0.03891689,0.00618933,-0.02574394,0.04332116,-0.01244387,0.00969675,-0.02507985,0.02569544,-0.03290301,0.07844184,-0.0057999,-0.06279598,0.02365406,-0.05541612,0.02965861,0.06184777,0.03525355,0.01446616
Lqq78q17jDY,0.11608134,0.06536387,0.21189879,0.00204221,-0.09989924,0.02543371,0.0172105,-0.25351742,0.08510641,-0.23629426,-0.09066945,-0.36944484,-0.14240671,-0.29524717,-0.35105185,0.29782972,0.11035681,0.13009036,-0.28008386,-0.34748634
31t_CBePs34,0.03665097,0.00899314,0.11129253,-0.03811831,-0.01451392,-0.0210416,-0.00505861,-0.05485008,-0.01623244,-0.05810842,-0.01416153,-0.04329736,-0.09384121,-0.04793905,0.04519632,-0.00905639,-0.06490876,-0.04759701,-0.12073017,-0.06006077
if955Z_s4Ts,0.01252207,-0.0027634,0.02099213,0.00636,-0.00791922,0.12589343,-0.05634943,0.03150538,-0.00517717,0.04007466,-0.08140432,0.02327629,-0.03331416,0.00540061,0.01518246,-0.04631311,0.00328875,-0.02409004,-0.03935045,-0.07171274
ERWIJPTNZVM,0.00554726,0.00550311,0.01467584,0.00760264,-0.00554673,0.04266927,-0.01395093,-0.00927102,-0.0060207,0.0102927,-0.02764802,0.01499979,0.01290768,-0.01082289,0.01048499,0.02063326,-0.05927155,0.0351382,-0.01599659,0.01477954
eRD2C7w9r6Y,0.04593076,0.0368515,0.03395339,0.01021012,-0.03153497,0.01796114,0.03683184,-0.0486962,0.00566624,-0.04032954,-0.01335194,-0.02004769,0.01429647,0.00562853,0.04013641,-0.01372372,0.00513312,0.01217615,-0.02176203,0.0431119
wgADj9n8XMs,0.07162283,0.06331094,0.13695942,0.0048038,-0.07603882,0.00798281,0.0136898,-0.05495847,-0.06908346,0.06208011,-0.05267271,0.25427847,-0.11788787,0.14202231,-0.13425415,0.04901299,-0.07539566,-0.14598444,0.01913163,0.03083084
RniYUmKs93U,0.00685698,0.00261555,0.02325745,0.00639274,-0.01759804,0.0430027,-0.01840276,-0.00250237,-0.00328274,0.00686153,-0.03020893,-0.00617343,-0.00916358,0.01680465,-0.01413646,-0.01410052,-0.01220409,0.02959983,0.00661793,0.00912535
jAaw0vn7eLs,0.00931135,0.00418269,0.03414322,0.01173561,-0.01827774,0.14806405,-0.06525795,0.02958088,-0.00489358,-0.00348061,0.03744014,0.00265531,-0.02023749,0.00011635,0.05446014,0.04612154,0.07859526,-0.01911772,0.09331096,0.06075378
4at2bVIhLgc,0.00965277,0.00290006,0.01653428,0.00368694,-0.00541326,0.11467013,-0.04465347,0.02896819,-0.00033982,-0.02024289,0.08995967,0.00420015,-0.01908943,0.00899654,0.10238891,0.12074072,0.05581971,-0.01656262,0.07475679,0.03108906
up__2flbXw4,0.01000295,0.00675542,0.02902317,0.00017902,-0.00937641,0.06827168,-0.03170079,-0.00636702,-0.00110832,-0.04621128,0.07961873,0.03303879,0.00651197,-0.01598844,-0.06307613,0.03740317,-0.12694372,0.07181378,-0.00019862,-0.10671026
69AWec8qjjo,0.05049122,0.01926101,0.06185811,0.01108916,-0.04335556,0.04897356,0.0119915,-0.11891607,0.02076807,-0.0122749,-0.07519562,0.02842388,-0.06620134,0.14229282,-0.06227391,-0.03382289,-0.02915973,0.02525785,-0.04155937,-0.12148066
QfUb5MEAOXA,0.00994676,0.00635382,0.03405906,0.00108372,-0.01519271,0.08707831,-0.03859873,0.01232508,-0.00482638,0.00331345,-0.01890646,-0.01659563,0.00092522,-0.00686389,-0.01882911,-0.02886814,-0.03668142,0.04290747,0.04020511,0.01870748
UsS6bOYnnOI,0.01825926,0.00786858,0.04761284,0.00708183,-0.01995322,0.15037008,-0.06627447,0.03188034,-0.00650169,-0.01435373,0.0203008,-0.00094064,-0.01772269,-0.00983989,0.06071208,0.07414123,0.05731361,-0.02332234,0.07830109,0.01880285
jytAQWCc_TI,0.05611767,0.05777572,0.03209038,0.01055396,-0.00026032,0.33542216,-0.14932026,0.1138399,0.03307782,0.0482251,0.00111749,-0.03167081,0.01586992,-0.02245264,-0.01445979,-0.02475283,0.05524436,-0.11777711,0.02084281,0.04994332
ucN2hf0CgI8,0.02237503,0.00836128,0.03824176,0.01567556,-0.02535205,0.07679,-0.02401112,0.00237354,0.01285425,-0.01639408,0.03202135,0.0103192,0.00516722,-0.0208232,0.01349842,0.0070542,0.01287757,-0.02262062,-0.00955278,-0.06553504
pcAJLeGAtwc,0.01357238,0.00084709,0.02882589,0.00528249,-0.01393478,0.06582727,-0.02886787,0.00342042,-0.0064496,0.01635756,-0.03497449,0.01025921,0.00857235,0.00182813,0.00834306,-0.01376135,0.00295555,0.01349146,-0.00124847,-0.00306276
MpPS5I1pJD8,0.01802294,0.00881494,0.05576762,-0.00442406,-0.00968948,0.27779599,-0.12588429,0.0823707,-0.01246096,0.07843858,-0.14234676,0.03996221,-0.03401373,-0.03201966,0.03099518,-0.10997057,0.12306858,-0.1356062,-0.0818003,-0.11775748
U0f47Nt9g-Q,0.04481534,0.03147103,0.11153771,-0.01706588,-0.02418018,0.00227027,0.00675337,-0.060958,0.00200806,-0.04438504,-0.01671624,0.01199351,-0.02793744,-0.06746079,0.08505059,-0.02703988,-0.09597834,-0.10496807,0.07180604,0.05707186
MVFd0qFB9TE,0.00768259,0.00555894,0.02700556,0.00582782,-0.01088877,0.14248688,-0.06091902,0.03527692,-0.00576226,0.04503769,-0.08146024,0.02169531,-0.02549191,0.00746012,-0.02285481,-0.05455157,0.01576455,-0.02617562,-0.01399461,-0.05111229
roUppNywDks,0.02636399,0.00870588,0.05781765,0.01629482,-0.03518757,0.27005828,-0.09600472,-0.00734631,0.02595443,-0.2865879,0.58945484,0.12558331,0.00818001,0.02892717,-0.080162,-0.04424589,0.02654519,-0.00829025,-0.04390778,-0.0499992
KGeCwEOLPGE,0.0163395,0.01341809,0.05416358,0.00039074,-0.01979635,0.27013372,-0.12010577,0.06450504,-0.0178013,0.10816647,-0.12076062,-0.01388941,0.0019705,-0.0399502,0.07240842,-0.01594164,0.10655906,-0.22615823,-0.1444378,-0.08445466
oOCN30ulVyo,0.01689514,0.01779218,0.02225499,0.00360344,-0.01586238,0.04941622,-0.01748651,-0.0097092,-0.00464566,-0.00442172,0.00599179,0.02148288,-0.0213028,0.03119139,-0.00332171,0.03869327,-0.0454306,-0.00671846,-0.00178661,-0.07479482
-1Fhry-Mqks,0.01144075,0.00458691,0.02781147,0.00662879,-0.01166413,0.13034211,-0.05794816,0.01545769,0.00104108,-0.00256067,0.01159385,0.01115573,-0.00227045,0.00326338,0.03027903,-0.00038096,-0.02087896,-0.01082436,-0.06355581,-0.08233949
DYkyYUjOZTk,0.01236881,0.01003945,0.02748317,0.00699847,-0.02115251,0.08410564,-0.03075557,0.00978092,-0.00353888,0.02634252,-0.01177808,0.00316241,-0.0151979,0.01228698,0.0053525,-0.00363064,-0.00403193,-0.00768942,0.0152664,0.00808843
IMM5cm6xrXQ,0.01275684,0.0061676,0.04280814,0.00664349,-0.02305668,0.11700353,-0.05265871,0.00596566,-0.00579801,-0.0123264,0.03730792,0.03904142,-0.00205513,-0.00479516,-0.02850611,0.11647186,-0.180654,0.10323284,-0.01086991,-0.11817483
wy3a_xJI3so,0.01855567,0.00999848,0.06329853,-0.01080934,-0.0057461,0.20870848,-0.07985574,0.05204261,-0.00333607,0.07517365,-0.1322739,-0.01148955,0.00132992,0.00163585,-0.02739671,-0.11905446,0.08443995,-0.09671191,-0.02210189,-0.03769785
u5HPVyEpyNI,0.08212016,0.04553112,0.12551248,0.02992668,-0.11071886,0.02799793,0.03915431,-0.16911905,-0.00781311,0.00821474,-0.06388053,0.12802967,-0.12314587,0.19631604,-0.06233135,-0.03076109,-0.02887433,-0.06368081,-0.07244586,0.09970557
VgH5rhALEfU,0.02077352,0.02092198,0.03615337,0.00719824,-0.0155199,0.08265315,-0.03713568,0.01084745,-0.00779818,0.00992671,-0.04741504,-0.01205495,-0.00996182,0.04337159,-0.00566471,-0.01282273,-0.02137019,0.01229856,-0.01882465,-0.00361119
gzjXoJoWgjs,0.03541711,0.02135614,0.0585352,-0.00124144,-0.0241844,0.2557931,-0.11040136,0.05201924,0.00726445,0.04726135,-0.07695944,0.014974,0.0046222,-0.03132097,0.09663532,0.06570277,0.02515021,-0.10449397,-0.14955269,-0.06339025
FYMdllTCrc0,0.01224053,0.00468151,0.03818884,0.00792732,-0.01723771,0.24434771,-0.09622703,0.05460181,0.00437862,-0.05350292,0.18048255,0.02011379,-0.02395852,-0.00387574,0.16518831,0.18959178,0.10763176,-0.03907499,0.17860747,0.07324469
Hk20QLW6nEc,0.07069926,0.05293971,0.12108708,0.0382979,-0.09747432,-0.00411174,0.01655435,-0.09734158,-0.01658068,0.0619032,0.02102249,-0.03445582,-0.01893687,-0.01238604,0.09674569,-0.03822525,-0.01217224,-0.00409811,-0.0542913,0.03471011
fwUWAoSeg2g,0.03991352,0.02602698,0.15738571,0.26221602,0.17480404,-0.01953117,-0.02265825,-0.01875375,-0.00089227,-0.01192726,-0.0071065,0.03252958,0.04414462,0.01040557,-0.02851315,0.04643061,-0.03039224,-0.00806428,0.0694902,0.01556277
jCyhEO3h-Ik,0.01478738,0.00543649,0.04969729,-0.00816313,-0.00645001,0.14195995,-0.06818367,0.01325834,-0.00543094,0.00653902,0.00424022,0.01713556,0.00444004,0.01051977,0.070029,0.02835379,0.00489913,-0.03936183,0.00560648,-0.09058739
TET8fTKH1e8,0.12166868,0.05078787,0.15356084,0.00467112,-0.07395078,0.0179154,0.0316727,-0.14443011,0.01507024,-0.04572108,-0.01369085,0.03009528,0.06520957,-0.04166798,0.14719553,-0.03669498,-0.01139339,0.03722604,0.03728183,-0.00175806
UPbaPjDGQIE,0.00895522,0.00435706,0.04077196,0.00151431,-0.00678188,0.16381794,-0.08064867,0.03827587,-0.00402155,-0.01260625,0.04426229,-0.00595633,-0.00193402,0.01409171,0.08387741,0.0869272,0.02597527,-0.01056563,0.06357506,0.02802474
39czcByvq7c,0.02374697,0.00770373,0.03976229,0.00982827,-0.02814814,0.14354364,-0.03956685,0.03466032,-0.00217188,0.00697632,-0.01001286,-0.01160124,-0.02721278,-0.01073481,-0.01598171,-0.03552281,0.00488371,-0.02648072,0.04933279,0.01932474
kijJaXVri7Q,0.04273122,0.03821208,0.05600561,0.02029625,-0.04076911,0.03013707,0.01200058,-0.06190707,-0.00065039,-0.03369974,-0.03104074,-0.01454771,0.01430367,0.0407757,0.01475391,-0.00070652,0.0240457,0.00806318,-0.01235141,0.03971465
0D14LJGiBkg,0.00744517,0.00566503,0.0216918,0.01108977,-0.00677304,0.08758904,-0.03836601,0.01226894,-0.0022132,0.0187454,-0.03733305,-0.00445808,0.00877215,-0.01096968,-0.04024663,-0.01806676,-0.07140639,0.05092823,0.01362335,0.00591904
er7v-GJj_V0,0.09259477,0.04385725,0.10750246,0.03274778,-0.10187946,0.00313083,0.00642127,-0.07173095,-0.01122009,-0.05466542,-0.01694271,-5.438e-05,0.02257744,0.05223471,0.07090559,-0.07869457,0.04571958,0.10073378,-0.04297405,0.01368956
8QsAx7s9PmQ,0.01145937,-0.00074926,0.02283716,-0.00375937,-0.00519683,0.05819967,-0.01671644,0.01045869,-0.00326365,0.00774147,-0.01439194,0.02444802,-0.00820795,-0.01333316,0.02219046,-0.02381033,0.04232922,-0.00362619,0.01737882,0.01835766
0kHJZFOuMWc,0.0637932,0.01354924,0.17201634,-0.07062396,-0.00297229,-0.01835786,-0.01800392,-0.09283707,-0.00967044,-0.06157951,-0.02310049,-0.02141535,-0.12507302,-0.13269038,0.19290831,-0.08344122,-0.03864902,0.02884099,-0.17885603,-0.07096101
kH_bSvf7EVA,0.0062888,0.00593416,0.01842803,0.00572241,-0.00927713,0.13343955,-0.05958234,0.02852885,0.00160234,0.01244201,-0.02310161,-0.02190887,-0.00595778,-0.00010071,-0.09366053,-0.05869532,-0.05474431,0.05580571,0.07111291,0.09221014
a9T6IRpz31E,0.04426744,0.00462654,0.06538869,0.02942782,-0.0384434,0.17945626,-0.04037302,-0.05116611,0.02316394,-0.29521994,0.57553557,0.14343544,0.01339297,0.02833016,-0.1478558,-0.16289528,0.02066549,0.00583949,-0.11641056,-0.08407696
zuzydZz-cmo,0.06477512,0.05891448,0.11113172,0.15056031,0.06824889,-0.00289996,-0.00660738,-0.03204866,-0.01608976,-0.04891977,-0.01476724,-0.0128927,-0.05311768,-0.05593139,0.07046494,-0.06853082,-0.04275125,-0.01087243,0.0187803,0.00062144
4iXwPD-VHyg,0.05205074,-0.02207714,0.02393457,0.01059015,0.02034889,0.15193973,-0.06309447,0.02076098,0.02536077,0.03608776,-0.03194003,-0.03113148,0.03376894,-0.00995952,-0.07516118,-0.05784372,-0.07820493,-0.00222926,-0.02775383,0.02225547
eBbqRceO2qY,0.06420274,0.08506151,-0.01261874,0.00905835,0.00049842,0.03959496,-0.01079091,0.03356963,0.03433473,-0.00853358,0.0232868,0.01486393,0.00871772,0.02042822,-0.00079358,0.03869163,0.02608078,0.00225463,-0.00571749,0.02212466
LLK879SXq_w,0.11062272,0.0574386,0.32580706,-0.11703827,0.21448641,-0.04275617,-0.07192171,-0.1139201,0.04042579,-0.01903314,-0.01890465,-0.04584467,-0.04761088,-0.00724064,0.03461951,-0.02801864,-0.08400381,0.04060735,-0.01287157,-0.04540251
WeliLUboy3M,0.04031575,0.00803578,0.06300381,0.03491455,-0.02728006,0.29729482,-0.08442121,-0.00497061,0.03299985,-0.32701447,0.6861226,0.13109159,0.02059185,0.05827064,-0.07767629,-0.08272903,0.06366375,-0.01967259,-0.07347813,0.01017281
4Zi41MRVP0g,0.08562015,0.03509423,0.11229985,0.15512614,0.05081634,0.01410431,0.01698772,-0.10371083,0.03040543,-0.05302361,-0.00464327,-0.06580208,-0.00709802,0.05841702,0.09646499,-0.07760959,0.00901937,0.010699,-0.01960244,0.03746473
WPOhGVSPOyM,0.02562111,0.01834205,0.01804146,0.01775882,-0.01115011,0.03569048,-0.02571438,0.0146654,-0.01604179,-0.01459543,-0.0306967,0.00745425,-0.01174919,0.03387019,6.533e-05,0.03456795,0.01944017,-0.03895285,0.00356867,-0.04094816
oNjLzGpMCuw,0.06432743,0.02997071,0.07989625,-0.01663733,-0.02588401,0.01175242,0.00333944,-0.08408652,0.0180795,-0.02825862,-0.00784912,-0.03850189,0.03615417,-0.00325917,0.07500897,-0.05703989,-0.0491346,-0.00112079,-0.01117167,-0.01886428
_WrHMsTYlOU,0.01137083,0.00722482,0.03216922,0.00690949,-0.01491986,0.0716284,-0.02814756,-0.00362643,-0.00483693,-0.03793055,0.05429289,0.02361491,0.00055563,-0.02368381,-0.02367539,0.05906988,-0.10541021,0.05912264,-0.01571042,-0.08017827
ktkpd9A8MD8,0.07510965,0.00432328,0.12424461,0.01182112,-0.08983127,-0.01820544,-0.00837076,-0.0575289,-0.02222014,0.08681796,0.04832488,-0.01317495,-0.08411407,-0.05470039,0.10351731,-0.07668287,-0.00309359,0.06466748,-0.00384281,0.00132483
sXV44nHGfAA,0.02896394,0.00909965,0.04891076,0.01242131,0.02621934,0.22069011,-0.10007613,0.07985507,-0.00861288,0.0647608,-0.12848778,-0.0044272,-0.01394165,-0.01588213,-0.01997252,-0.14402867,0.08104572,-0.05439671,-0.08178302,-0.10653362
1PIbKMyFMAY,0.04774684,0.04514064,0.10456851,-0.01971175,-0.02971272,0.00392326,0.01128528,-0.05513606,-0.01775471,-0.05241818,-0.00539915,0.01627488,-0.04046213,-0.05870383,0.08884556,-0.03682981,-0.088627,-0.08409633,0.07436659,0.05019595
tbvteFr4SPQ,0.05521619,0.03046178,0.10549156,-0.00773571,-0.04374687,0.01950881,0.00937962,-0.09638256,-0.00262433,-0.00521403,0.02212855,0.00895149,-0.00729621,-0.00511629,0.13945524,-0.09353403,-0.03140564,0.02010542,-0.09979086,0.03803191
Y254oB1QNOE,0.02545207,0.0109774,0.03760884,0.00319269,-0.01667641,0.13236913,-0.06079672,0.01990829,-0.00359761,0.01825207,-0.01181272,0.02390392,-0.01212933,-0.01200951,0.05706803,0.01810777,0.01195092,-0.02281259,-0.05432327,-0.03373916
UM9dcnJXX0k,0.02919898,-0.00388042,0.02819035,0.01874775,-0.00821818,0.05188733,-0.00872374,-0.00763653,-0.00926824,-0.01076011,0.0017967,0.03705247,-0.01298289,-0.03836582,0.00840518,0.00569862,0.01644093,-0.04025736,0.01270777,-0.08079948
8u7HqZJQHDM,0.02211939,0.01118837,0.06273358,0.02701551,-0.03491537,0.31426378,-0.10933427,-0.01101087,0.03417172,-0.33085763,0.71910336,0.14049128,0.01569446,0.05399069,-0.08458263,-0.0917254,0.08412341,-0.04584231,0.00040042,0.02714271
BOmc_wliaRg,0.02279426,0.00574013,0.02679868,0.01886344,-0.00958196,0.03249647,-0.00696987,-0.0211069,0.00396736,-0.03961057,0.05255364,0.00658166,0.0114413,0.00509453,0.01048563,-0.04307079,-0.00894042,0.00383267,-0.02420235,0.00469424
5wuHYQMnYhA,0.01614161,0.00754032,0.03763393,0.01291526,-0.02338982,0.1408536,-0.06664942,0.0259581,-0.01380195,0.00655144,-0.0271578,-0.03158101,0.00406516,0.03348682,0.13830007,0.22649752,-0.15932822,0.12669677,-0.06737893,0.03151252
3era1_feC3U,0.00769891,0.00251989,0.02087551,0.00649092,-0.01715704,0.01471652,-0.00434405,-0.00462989,-0.00647453,-0.00736701,-0.01265994,0.00306086,0.00577401,0.01337723,-0.00792513,0.01099384,-0.00642216,0.01107664,0.00967853,-0.0115392
KdmRWazuBRU,0.05827744,0.0470937,0.1068764,-0.01614408,-0.03916399,0.03024756,0.0269127,-0.13156227,0.01242732,-0.08150317,-0.028876,-0.03053457,-0.13394334,0.07081737,-0.09008657,0.06664951,0.10790144,0.153994,-0.07562134,-0.00632617
D4fkiQfzw_I,0.00491537,0.00247525,0.02081839,0.00754399,-0.01142106,0.08319867,-0.03426725,0.00665101,-0.00072114,0.0175055,-0.00216126,0.01822832,-0.00447111,0.00822441,0.05302189,0.07901534,-0.03857171,0.01424778,-0.07345636,-0.03746207
3LnNwS6rqk8,0.06423868,0.06678157,0.09537042,0.01895258,-0.07744612,0.0432018,0.03336508,-0.12414835,0.01093048,-0.09192045,-0.02966769,-0.07718891,-0.01000845,0.06921152,0.12430448,-0.04322419,0.00181216,0.00972943,-0.02115653,0.06833213
9rHaUzPlJws,0.03200455,0.02048775,0.13160075,-0.0488138,-0.00155416,-0.015404,-0.01996489,-0.0637279,0.00150933,0.02948274,-0.00073059,-0.01888302,-0.05531055,-0.07489068,-0.07329999,0.05913716,-0.07752905,-0.01926307,0.00557969,-0.07242795
07T7V-Szcx0,0.00790061,0.00453918,0.04293657,-0.00450855,-0.00561682,0.21744731,-0.09530551,0.06747402,-0.00773841,0.06929261,-0.13813974,-0.02905918,-0.00234081,0.0114341,-0.04167532,-0.16081624,0.09188366,-0.06140568,0.00610577,0.00160845
rc-xQnupse0,0.09636925,0.04050727,0.15593019,0.03767163,-0.12762422,0.01273362,0.00291931,-0.16773286,0.00923704,0.02406346,0.01149708,-0.03683349,-0.04307332,-0.14082609,0.18317831,-0.13684707,0.04869727,0.1695503,-0.06979403,-0.03132051
5-ASQ44GpNI,0.13225882,0.0987328,0.16637709,-0.00549286,-0.07737964,0.02777304,0.03763893,-0.18281756,0.03188406,-0.06292029,-0.02920501,-0.06331016,0.0230166,-0.02369899,0.13156266,-0.08355102,-0.02665973,-0.0452941,0.03523728,0.07814169
tVpky2riji0,0.06646718,0.02945707,0.14774112,2.685e-05,-0.08145773,-0.01209026,0.01869988,-0.09541712,0.01593752,0.08807977,0.06075235,-0.0934138,-0.06472798,-0.00099596,0.18728791,-0.12216095,-0.04756728,-0.01832883,-0.03254926,-0.07609448
5W2lIWDyXjI,0.00996805,0.00408776,0.03447974,0.00355516,-0.01531903,0.06670776,-0.01918251,0.00483848,-0.00414977,0.01478607,-0.01535136,0.00615225,0.00143911,-0.02248693,0.00777736,0.0103503,0.0348887,-0.0056935,0.01157052,-0.00528495
oRVJREzko-M,0.01356694,0.0068702,0.02418512,0.01626678,-0.00815081,0.08757653,-0.04358709,0.02350535,-0.00014486,0.00616892,-0.00259029,-0.01485024,-0.00752951,0.01659309,0.02899101,0.02370431,-0.00259786,0.030005,0.02825322,0.01956894
qxj4Sr5Cm24,0.03980698,0.02095472,0.03841678,0.02704809,0.00911422,0.08788555,-0.04523264,0.01570045,-0.00631179,-0.01206344,0.00316381,0.01347772,-0.02375106,-0.04410195,0.00198055,-0.02385226,-0.02451035,0.01103264,-0.03223538,-0.09964598
GXeBi91SkIw,0.01277883,0.00071259,0.02966932,0.01463034,-0.00950023,0.1467862,-0.06009155,0.02144667,0.00918212,-0.03280842,0.10257399,0.00840405,-0.00796153,0.0045996,0.05313574,0.06125896,0.05705513,-0.03449039,0.07499834,0.0429877
48hHo2WcAQI,0.04275825,0.0391256,0.08462182,0.02074167,-0.06391813,0.04562853,0.04312914,-0.10657992,0.00921718,-0.09869614,-0.08305032,-0.05446757,-0.04238033,-0.01749172,0.14812157,-0.11859528,-0.01795674,0.04449398,0.17310746,-0.01599121
RWGr8LwG3TY,0.1134147,0.05467392,0.12841351,0.02938939,-0.10351519,0.02692069,0.05825225,-0.19464007,0.05396615,-0.08201625,-0.06530501,-0.07394106,-0.06167629,-0.04882407,0.11831931,-0.06238195,0.04191411,-0.05359742,-0.04994207,0.05023029
iRach9lpIlg,0.01568449,-0.00446917,0.02097115,-0.00125889,-0.00964653,0.00603189,-0.00474642,0.00574677,-0.00749759,-0.00593972,-0.00294885,0.01245022,-0.00993245,0.00380906,-0.00406891,0.00354432,0.01783971,0.00514544,-0.00227996,0.00650003
Ycdklm6W1_o,0.01543461,0.00569013,0.03308226,0.00920381,-0.01501399,0.17937452,-0.0869477,0.03734815,-0.00417343,-0.00232487,0.03816041,0.00247808,-0.01100474,0.00070477,-0.08244257,-0.05244462,-0.07556917,0.05234275,-0.00167195,0.02029659
mDh52QTqR0o,0.0908696,0.04548819,0.13630232,0.00321885,-0.06976167,0.04466524,0.04618172,-0.14110675,0.03535722,-0.06735632,-0.02348406,-0.02170958,-0.01569668,-0.04651464,0.07819883,-0.05004515,0.00579054,0.01350276,0.10706056,0.05747787
JuRjZqzpP0g,0.01604331,0.00607743,0.072841,-0.00728004,-0.00832893,0.36376471,-0.15353522,0.10899314,-0.01468231,0.05034939,-0.09660828,-0.04235401,-0.00186599,0.04217908,0.13713798,0.16772143,-0.02063486,0.05008962,-0.04458216,0.04485432
nrIEhoSCOg8,1.08026236,-0.72872928,-0.24927134,-0.0581997,0.20000512,0.09419771,0.08246519,-0.15278168,-0.33019625,0.0290738,0.01620902,-0.09040152,0.01733886,0.01945689,-0.02731809,0.01617886,-0.01240207,-0.03235189,0.02803241,0.00960655
gEUMAljLr78,0.05915046,0.05979344,0.08936093,0.02406305,-0.08273425,0.03379675,0.02934684,-0.09989588,-0.05197584,0.05462157,-0.03100331,0.23986121,-0.07227004,0.1088453,-0.10236062,0.02179395,-0.02696049,-0.18095706,-0.10220308,0.06590249
t6GzhyGTKCo,0.00914882,0.00429398,0.04497352,-0.00084307,-0.00909851,0.21226458,-0.09569858,0.05994614,-0.00959491,0.05465722,-0.10797858,-0.01676361,0.00719642,0.00561813,-0.03863845,-0.12386845,0.06089752,-0.03225005,0.01227651,0.01781946
yk8ziJow5dw,0.01267289,0.00382264,0.05236438,0.00685272,-0.01051671,0.23442673,-0.10854332,0.07088164,-0.00247423,0.03791551,-0.07433928,-0.04210323,0.03690425,0.00837422,-0.16825257,-0.07923683,-0.21090482,0.12557245,-0.05067397,-0.03229906
f9AFrDB-73g,0.10650911,-0.01469578,0.12327687,0.02839358,-0.12185857,-0.04898222,-0.05065493,-0.02893106,0.25983848,0.20914254,0.07741996,0.03104644,-0.08744353,-0.14820245,0.13705469,-0.05677036,0.03630483,0.10063348,-0.07098298,0.04128972
iK6HT02LYX4,0.01110732,0.00811012,0.03653576,-0.00976251,-0.00372,0.13769983,-0.05776933,0.05507957,-0.00928159,0.04097181,-0.09108181,-0.03523439,0.02708033,0.01038232,-0.05873854,-0.08224372,-0.02668027,0.04939516,-0.0552178,-0.00884576
zxQJIBt9CBI,0.0706932,0.03932482,0.09831972,0.02299477,-0.09235722,0.00580054,-0.01166543,-0.01572349,-0.01714569,-0.06147049,-0.04013598,-0.03306503,0.05404551,0.07904174,0.00592557,0.02301539,-0.00574044,0.02228148,0.03887155,0.02488791
OwbaFLtBpkQ,0.01416315,0.00757488,0.04883165,0.00969439,-0.02563315,0.12684789,-0.05331074,0.00947679,-0.00198462,-0.00820651,0.01514174,0.02358268,0.00823468,-0.0086991,-0.03851112,0.13065924,-0.19589281,0.12149935,0.00786707,-0.1013447
aZVcAlzBIp4,0.01552396,0.01357487,0.01187434,0.00601745,-0.01200201,0.03141337,-0.01623808,0.01039928,-0.00464214,0.00301984,0.00233628,0.00575776,0.0074737,-0.00248647,0.00847166,0.02331261,-0.00487059,-0.01650206,-0.00207805,-0.00223418
sKME5er1OKc,0.05249915,0.0297817,0.10494858,0.03210874,-0.095771,-0.00611318,-0.00019422,-0.08193788,0.03073813,0.13584773,0.04385959,-0.03546253,0.00797636,-0.01382073,0.00263308,-0.00014665,-0.03771574,-0.01313536,0.05888829,0.0372371
msYTFQ4OIu8,0.0203406,0.01159597,0.06558998,0.02698335,-0.03938234,0.2805744,-0.10208928,-0.0040924,0.02712536,-0.23546284,0.50538703,0.08322226,0.03994018,0.03291581,-0.25248791,-0.22556557,-0.0726674,0.00409237,-0.11951714,-0.00129122
-uSQcEfnKp0,0.01008658,0.00149008,0.02493709,0.00700785,-0.01492126,0.07529527,-0.02570204,0.00354842,0.00186545,-0.00172343,-0.00490688,0.01006199,0.01180025,-0.00457581,-0.00067808,0.01737141,-0.00340936,-0.01177865,-0.0138896,-0.02765544
Cp3DxMyEBIM,0.05864031,0.01016223,0.17166298,0.00773498,-0.1124253,-0.013971,-0.0178993,-0.13235937,-0.06994318,0.14300276,0.00452146,0.33807509,0.10332886,0.1033015,-0.15150317,0.09663448,-0.02622034,-0.05641896,-0.16929798,0.05007113
JrGlAw_Q7ow,0.01435745,0.00659128,0.05372671,-0.00278333,-0.02060764,0.20934089,-0.09934953,0.07475085,-0.01058666,0.05347815,-0.09711315,-0.02551489,0.00831522,-0.00853352,-0.03145295,-0.13817783,0.03494056,-0.02437531,0.01646898,0.01206904
iaYdIU5n6vw,0.0256686,0.00939467,0.06768335,0.00797988,-0.03665857,0.25605382,-0.11678743,0.08565597,-0.02520639,0.06036561,-0.09296615,0.01310881,-0.01049491,0.00713664,0.01917787,-0.07099805,-0.04730197,0.12867536,-0.01187044,-0.01263335
YhNUPGphSM8,0.06067719,0.06815771,0.0761414,0.01281945,-0.05754356,0.03105333,0.01954189,-0.09992186,0.00406963,-0.07988146,-0.02173033,-0.0749214,-0.014824,0.03688897,0.13445367,-0.0666887,0.03966856,-0.01271212,-0.08390589,0.05205427
UUzxEVhRQgQ,0.03237169,0.03637431,0.02961867,0.01910639,-0.01694433,0.00269326,-0.00452835,-0.01937596,-0.01257152,-0.01302022,-0.02414625,0.0010477,0.01685159,-0.01392763,0.00583041,-0.03619582,0.01277497,0.01483491,-0.011161,0.00812914
Bcag49Fk3zA,0.01681837,0.01022606,0.05166989,0.01943343,-0.03538822,0.19644086,-0.05815991,-0.0425681,0.02497699,-0.30548095,0.60991713,0.14939878,0.02212715,0.04695129,-0.19239704,-0.11975321,-0.09669527,0.05076099,-0.12134084,-0.10698848
0HSNPIttevk,0.03650677,0.0092515,0.07314038,0.02800982,0.00547277,0.30467351,-0.14393064,0.08372391,-0.00381286,0.05466174,-0.1423678,-0.04376102,0.03826235,-0.01205102,-0.11818928,-0.13187566,-0.1413932,0.07252362,-0.12751685,-0.04746881
S0WQP5GeTZs,0.01446623,0.00173637,0.03872224,0.01212464,-0.02405249,0.1604491,-0.0640904,0.02429818,-0.00079572,-0.01437144,0.07018352,0.01854958,-0.00387226,-0.02818084,0.06139967,0.09347615,0.02710872,-0.01319166,0.0686961,-0.01866574
98ShZgIhSbk,0.02289386,0.0062524,0.06825511,0.02703965,-0.03612731,0.22729551,-0.09647741,0.05283873,0.00023419,0.07508012,-0.0654289,-0.01576104,0.00201812,-0.05084778,-0.08430892,-0.08902551,-0.10891356,-0.0032305,-0.05913009,-0.03896465
POn6IRgP5-A,0.11415682,0.02932758,0.07404267,0.01248224,-0.0548386,0.03368185,0.03003422,-0.12469487,0.06117369,-0.04774864,-0.03345618,-0.0751696,0.07416746,0.04416503,0.07231529,-0.02030089,0.01790433,0.01797037,-0.03056257,-0.02497273
fpmYvXCzO1c,0.00930148,0.0069812,0.03130213,0.01081761,-0.0153977,0.17306052,-0.07813926,0.04136964,-0.00107227,0.02700627,-0.0483964,-0.02844745,-0.02270182,0.03519226,0.01293062,-0.04753065,-0.042,0.05958026,0.04777036,0.00055704
yy_J5fdELm0,0.00830133,0.00244671,0.029646,0.01120218,-0.01504507,0.11593517,-0.03723712,0.02362487,-0.01975886,-0.00717286,-0.03064508,0.03407559,0.0167124,-0.05507665,-0.03403066,-0.04640159,0.08439317,-0.03934241,0.09586861,-0.11488298
aRLwX_dN8AQ,0.00696413,0.00400655,0.03396028,0.01106546,-0.01713573,0.22043726,-0.10225317,0.05016033,-0.01822229,0.02084586,-0.04786457,-0.02266647,-0.00842391,0.06400688,0.18166729,0.27181736,-0.21599897,0.17546088,-0.1322394,-0.00202791
EGTF9mGda4U,0.01781933,0.00109117,0.02118074,0.01145235,-0.01372,0.06867485,-0.03129817,0.02118898,0.00463699,-0.03035922,0.05983299,0.00209721,0.00679999,0.00262355,0.04398982,0.06490373,-0.00404743,-0.00535027,0.0131204,0.0410658
kTlm_3HwRFg,0.01527077,0.00036531,0.03366443,0.01381346,-0.01817088,0.09596361,-0.04595783,0.01099494,-0.00106015,-0.00668368,0.00972144,0.00787585,0.01787651,-0.00258865,-0.02227428,-0.0102644,-0.01455298,0.00239874,-0.03017615,-0.02183953
b-NJDpglmeM,0.99057163,-0.61340252,-0.14563678,-0.0257122,0.06487184,-0.03086878,-0.04344028,0.09977808,0.70157869,0.01397223,-0.0279855,0.1278176,-0.06302428,0.00030863,0.03236131,-0.02318649,-0.02811324,0.01964923,-0.02761724,0.00925843
CPJhzRv9y_8,0.01133895,0.00617392,0.05159759,-0.01028059,-0.0087444,0.14755304,-0.05931016,0.03449051,-0.00994219,0.03840145,-0.07463598,0.01961809,0.02398789,0.05546713,-0.07952621,-0.07570602,-0.002224,-0.0196557,-0.10932201,-0.03909097
-uUlnDjQxhg,0.01892476,0.01883804,0.03937314,0.01431164,-0.00349984,0.26371438,-0.11859779,0.07010248,0.01511039,-0.00755936,0.07244142,-0.01400631,0.01777616,-0.00920241,0.01825257,0.07177259,0.03216344,-0.03487763,0.08692191,0.03943053
0Z1lChyi2W4,0.0117807,0.00229926,0.03822571,0.01330349,-0.01635718,0.16488472,-0.07251422,0.03681572,-0.00122968,0.02209766,-0.04353363,-0.00589909,0.01737627,0.00068252,-0.08607733,0.00744135,-0.14238036,0.06652595,-0.01798378,-0.02098694
wdCDxH9KBss,0.11264579,0.06852824,0.16641007,0.04856761,-0.11746449,0.02122721,0.05297398,-0.22793312,0.01955947,-0.04632422,-0.05261377,0.01133411,-0.11529423,0.05474146,0.03675266,-0.08719975,-0.02637041,-0.02074374,-0.07132857,-0.01444416
g-7nUex4nVg,0.10669079,0.0983164,0.12844477,-0.02050033,-0.04489997,0.01410862,0.02231765,-0.16559644,0.03384701,-0.0358889,-0.0047719,-0.08801742,0.00736971,-0.04533994,0.16833293,-0.10550192,-0.03876749,-0.05315567,-0.15393732,0.08941554
f0ukpT07u2c,0.2031696,-0.06300251,0.19384535,0.04510045,-0.24844173,-0.14625064,-0.12107179,0.21493222,-0.06267997,-0.27035646,-0.01859271,-0.27506637,0.0603179,-0.12155419,-0.0513843,0.04191012,-0.18646381,-0.04304845,-0.07055301,-0.07459631
6r-qlEX6hGY,0.01073803,0.00280371,0.03250165,0.00329879,-0.01746232,0.0716336,-0.02839385,-0.00058204,-0.00201676,0.00964299,-0.03050212,-0.00440737,0.0168472,0.02363066,-0.03407879,-0.01226013,-0.04163901,0.00318489,0.00090755,0.00232739
dhbt8y_LXQY,0.02708011,0.01962998,0.0374118,0.01318413,-0.02633905,0.12612273,-0.05669159,0.03486626,-0.0113133,0.01074584,0.00248955,-0.00059918,0.00338253,0.0067819,0.06220879,0.09371523,-0.01134903,-0.01154676,-0.02697373,0.00190041
8fIRAhGGRgA,0.01969221,0.01213801,0.05983817,0.01053187,-0.01567433,0.33493747,-0.14595788,0.08049977,0.00214671,0.00611652,0.04012002,-0.01070359,0.0094031,0.00590904,-0.01548797,-0.05981914,0.08985143,-0.05324632,0.15279963,0.10666884
MqpQhyjFZQU,0.04735318,-0.0280376,0.00698799,0.00784956,0.00164118,0.02376364,-0.00375776,-0.00591162,0.00639469,0.00820598,-0.00929124,0.02975298,-0.00593051,-0.02139873,0.02531433,0.02070167,0.01876454,-0.00584724,-0.02075463,-0.01269197
DSRfs1qKWR0,0.00180948,0.00054277,0.00669415,0.00209047,-0.00525486,0.03344924,-0.01705211,0.00752148,0.00026081,0.00038097,0.01075332,-0.00104034,0.00332551,-0.00948365,0.02168717,0.03582578,0.01298072,-0.00818508,0.01039403,0.02209798
YPboGQjMxNY,0.01147731,0.015314,0.00853513,0.00440336,-0.00686503,0.01715431,-0.00376261,-0.00774357,-0.00504866,-0.00286079,-0.01498677,0.01410616,0.01684874,0.00037308,-0.02122698,0.01147301,-0.02911717,0.01154327,-0.00370915,0.001147
AzNb2nQrM7U,0.0280128,0.01967693,0.04725519,0.01238897,-0.033522,0.01317198,-0.01412445,-0.0125388,0.0006028,0.04532825,0.0059202,0.02228403,0.00645059,-0.02578501,-0.00986144,0.02859514,-0.0039583,0.03884795,0.03271553,0.03399449
5tW7CPAVii0,0.0118038,0.00789657,0.04501485,0.01901638,-0.01784454,0.28475476,-0.13893238,0.07253768,0.00098116,0.04571556,-0.11821411,-0.07704882,0.04140945,-0.00436572,-0.24624904,-0.22137662,-0.17920532,0.11771251,0.05538004,0.12389581
K9S3YgFZN9Y,0.00768778,0.00252296,0.02637051,0.00696755,-0.01951831,0.06838056,-0.03123528,0.00710359,-0.00411314,-0.00293355,0.020169,0.02507836,0.00281118,-0.00167733,-0.05662187,0.11855333,-0.18778518,0.11154444,0.0280533,-0.08286494
wEb6ULf3TzU,0.01264191,0.00781536,0.02675026,0.0036233,-0.01316584,0.09867255,-0.04555798,0.01624831,0.00105571,0.02916157,-0.0327324,-0.00022159,-0.01321142,-0.00319084,-0.01094094,-0.05402791,-0.00705393,-0.01544016,0.02765655,0.00085249
LMJb-_uL6lQ,0.00474344,0.00226186,0.01918212,0.00977853,-0.00738013,0.06799485,-0.02680672,-0.0008391,-0.00295355,0.0112755,-0.02592432,0.0389251,-0.01618732,0.03843947,-0.01516964,0.04265539,0.02739549,-0.01866731,-0.01355128,-0.00895837
mbGPgjXCx24,0.08782189,0.01007612,0.11629849,0.04427256,-0.08391615,0.0213769,-0.00135762,-0.1220541,0.01741127,0.0491938,0.03361593,-0.0528471,0.01033076,-0.08456022,0.07126873,-0.05676275,-0.04084264,0.04112656,-0.03063169,-0.04868742
ZAmCJoz4c4w,0.01376594,0.00258757,0.03835645,0.01154827,-0.02590211,0.1399701,-0.06130212,0.0322214,-0.01455923,-0.00181628,-0.03134116,-0.03100014,0.00453057,0.01327577,0.14626437,0.24362059,-0.15650505,0.10884048,-0.09144605,0.02088513
6WqWhSmCbXk,0.0987867,0.03569607,0.18195754,-0.01783113,-0.08559434,0.0090185,0.00907472,-0.11824638,0.12962328,-0.06824449,-0.05627791,-0.10188219,-0.00734714,-0.21031758,-0.13355353,0.17502605,-0.02475997,-0.15643107,-0.07531033,-0.00496878
Rvy2kXZpBtM,0.0897153,0.07388577,0.08548279,0.02639495,-0.07429332,0.03755178,0.0500522,-0.15996864,0.05268229,-0.07412995,-0.04025463,-0.08594937,0.0963261,0.07968847,0.07299815,-0.0498358,0.05337025,0.00760135,-0.02924623,0.03108574
J7ieKmP96Hc,0.01352355,0.00526157,0.03795625,0.007225,-0.01336571,0.25395728,-0.11451602,0.06259338,0.00442448,-0.05317207,0.17501351,0.01048352,-0.01823731,0.00352584,0.12535259,0.180052,0.10429286,-0.04292796,0.17052913,0.06306719
ftk4VdOcaj8,0.10866054,0.06418036,0.19315503,0.0299278,-0.14517685,-0.0348474,-0.02533396,-0.06328659,-0.03087432,0.29317945,0.10570008,0.04808289,0.04698899,-0.17025675,-0.02745876,0.02879182,0.00580734,-0.0092409,0.07277163,0.06424986
RCl-cN1Hf-Q,0.0872528,0.07023704,0.33024296,0.71102289,0.48858307,-0.04718573,-0.03404782,-0.01186735,0.00363669,-0.05575527,0.01536391,-0.03891635,0.01862087,0.02964596,-0.00562675,-0.0398154,0.01854531,0.00989451,-0.02088569,0.02070457
Cql6TAdpPDU,0.18364281,0.25288574,0.07489816,-0.04250534,0.00186614,0.02265738,0.01789991,-0.08834384,-0.00292299,-0.0778123,-0.07274138,-0.00605902,-0.01945132,0.03323156,-0.04207889,0.07007,0.1130172,0.08911026,0.02189099,0.03696164
0t118SCf-2w,0.00492394,0.00291774,0.01816001,0.00479629,-0.00968744,0.11096024,-0.04982746,0.02300571,0.00198527,0.0121738,-0.00869052,-0.01894137,0.00414602,-0.00109121,0.02989665,-0.01623003,0.00664886,0.00171115,0.04222066,0.01652935
FZbMPtLRr00,0.0049084,0.00351029,0.02802144,0.00096082,0.00832767,0.11208374,-0.04878659,0.04158273,-0.00276965,0.03198822,-0.07462245,-0.0259408,0.00952238,0.01187136,-0.03289841,-0.0749556,-0.03840823,0.05224058,-0.06225904,-0.0377253
LkaaMQx9uZ0,0.06559842,0.03288323,0.17494013,0.00055598,-0.10038288,-0.0018507,-0.01330098,-0.1361917,0.00492213,0.07386071,0.06724811,-0.11001852,-0.048363,-0.25624581,0.1000084,0.02086467,-0.05296737,-0.02972,-0.20440613,0.02229092
9rRvmcDpWwA,0.01156003,0.00761241,0.04309004,0.01661878,-0.01491377,0.24016289,-0.111224,0.04892185,-0.00190755,-0.03505783,0.1400074,0.01544369,-0.00284264,0.0129395,0.15614828,0.1529808,0.10717572,-0.07301094,0.16019659,0.01255709
40-68Uco_u0,0.0482596,0.03041554,0.08626652,0.01088783,-0.02127761,0.0106906,-0.0005875,-0.06602353,0.01056369,-0.02664637,-0.02468335,0.00498862,0.0315276,-0.0085028,0.06921047,-0.01198046,0.01083405,0.02206944,-0.01978144,0.00862517
KXpgCNB6Dcs,0.07731935,0.0555656,0.08285312,-0.033331,-0.0063082,0.00879385,0.00414446,-0.10031614,0.04158396,-0.03401017,-0.01995439,-0.08209819,0.02813035,0.0814707,0.02973876,-0.04368013,0.01064819,0.03313838,-0.0077586,0.0375382
uSjcVPbJayU,0.0982633,0.01117797,0.12557054,0.03720668,-0.08887786,0.02657195,0.0690729,-0.17958145,-0.00612229,0.02698223,-0.02456301,0.23475572,0.20200561,0.04913923,0.05659236,-0.03019896,-0.06185919,-0.00801583,-0.06542198,-0.04505701
wJOakc64crg,0.03855192,0.01461833,0.07808533,0.03303249,-0.0452816,0.02304967,0.01597032,-0.06089716,0.00245142,-0.05004686,-0.06904964,0.00635149,-0.08907633,-0.01258153,0.03729833,-0.07116548,0.00505209,0.04090943,0.17599307,-0.10312019
iQxwDGnuByc,0.16330292,0.04040339,0.18211223,0.02301183,-0.11807431,0.02035943,0.02429398,-0.152127,0.02143224,-0.01180736,-0.0019895,-0.03502375,-0.05959789,0.07540592,0.09849183,-0.02620132,0.03153027,0.01789262,0.13021054,0.00434283
rVixyOY_Xr4,0.06758274,0.03430645,0.09239399,-0.00221376,-0.03612675,0.01395287,0.01825347,-0.04421428,0.07542521,-0.00992074,-0.02021645,0.07580531,-0.03189089,-0.14758084,-0.05651335,0.03658532,-0.05332317,-0.06676428,0.14218348,0.08489777
VjqsnOrW3AM,0.02149414,0.00450487,0.03633204,0.01400525,-0.01121928,0.21288524,-0.09807721,0.04493445,-0.00146704,-0.02201137,0.06616134,0.03551628,-0.00305843,-0.00383257,-0.08721703,0.02293535,-0.12974376,0.08021152,0.00808792,-0.03633784
bfENsVP77VQ,0.04876254,0.05851727,0.02713777,0.00076398,-0.01219885,0.27522747,-0.11641011,0.09388787,0.02383572,0.00733036,0.0364784,0.0209898,-0.01948199,-0.02389547,0.06929103,0.05701599,0.11445872,-0.10970546,0.08367977,0.04353664
QzZ4VwDHAT4,0.00656676,0.0032267,0.02610527,0.01110661,-0.01170011,0.07164597,-0.02306619,0.00056396,4.865e-05,-0.00117392,-0.02102866,-0.0073354,-0.00421351,0.00699555,-0.05577229,-0.04423636,-0.02975846,0.02473637,0.01782754,0.03476469
iTOXHp4c1YE,0.04297895,0.03264469,0.07973657,0.02499962,-0.06417142,-0.00037299,0.0018383,-0.04912161,-0.03003641,0.04493657,-0.00951163,0.10355132,-0.03199364,0.01424781,-0.01889228,0.0261464,0.03628446,-0.03636444,0.00395678,0.02077523
XfY_L8MLOsU,0.01610775,0.00485218,0.05232568,0.0158181,-0.02688824,0.17570548,-0.0803784,0.00786659,-0.00380101,0.03325678,-0.04784185,0.04028413,-0.01536282,0.03684393,0.09053223,0.15058341,-0.07699161,0.01266417,-0.21911532,-0.13866911
nVHr2D6tnA4,0.09453858,0.0144577,0.11754309,0.03128151,-0.12614775,-0.04092322,-0.03027108,-0.02597475,0.22634632,0.23569737,0.08591994,-0.00849807,-0.02135116,-0.01125123,-0.04729955,0.00181126,-0.04313532,-0.01002753,0.0286557,0.0270954
sbzsqNJuZvg,0.01066405,0.00817402,0.04329139,0.00386029,-0.00103793,0.23389243,-0.10920505,0.08380051,-0.00233499,0.05094342,-0.12049022,-0.07864873,0.0499763,-0.00352204,-0.18674866,-0.17357986,-0.13062394,0.08589226,-0.04432136,0.05687726
T7_l896OH20,0.07319101,-0.02113551,0.05577114,0.02675096,-0.03707339,0.00824912,-0.00317392,-0.00603434,-0.00141575,-0.00396712,-0.02775269,0.05254137,0.01227888,-0.03709133,0.01959444,0.03963656,0.03222027,0.0158357,-0.02921816,0.04056263
F1gM7N-WXdU,0.02197396,0.01452016,0.05501572,0.04804126,0.00590463,0.07516386,-0.03662391,-0.00724747,-0.00549945,-0.00124656,0.01021352,0.00892959,-0.02458813,-0.02229891,0.03152742,0.03300204,-0.04586276,0.00306159,-0.0440171,-0.09424362
kmKuk_TCEvU,0.11886616,0.0468718,0.13471546,0.03606196,-0.12123836,0.03343472,0.040678,-0.18106708,0.04821363,0.00058134,-0.01989394,-0.10113015,-0.02698247,0.15292413,0.00787878,-0.1005254,-0.00186652,0.01034695,0.04015691,0.01267232
SZ8r5VKtGes,0.08747524,0.06930388,0.10119829,0.02002651,-0.07376365,0.05102975,0.05101659,-0.13941373,0.03241135,-0.10699685,-0.07227587,-0.10603051,-0.01945524,0.02931073,0.15350517,-0.12748957,0.00279341,0.06185843,0.11318263,0.00274408
k7aOM--Ycts,0.01028976,0.00039512,0.02650934,0.01146293,-0.0125553,0.09072769,-0.02862599,0.03042174,-0.02551714,-0.01775346,-0.03215241,0.04833385,0.00775351,-0.0498234,-0.00376084,-0.00952429,0.11265009,-0.08228044,0.06900466,-0.12053842
_jxLMMcKmRQ,0.10742617,0.04473066,0.09102417,0.01608967,-0.06823497,0.0263507,0.04573303,-0.19176617,0.03415516,-0.06370718,-0.00970943,-0.12505515,-0.00629604,0.0316699,0.16934971,-0.12171536,-0.02083359,-0.03000306,-0.10330888,0.05632236
x2r3FTy9HHE,0.01897714,0.00930063,0.03953273,0.00777621,-0.02011112,0.18026434,-0.07776128,0.02681823,-0.00914018,0.02756195,0.04415092,0.01077583,-0.03735422,0.01018602,0.13956731,0.15389145,0.04712951,-0.0377892,0.00588412,0.01558109
fKtG9uPeMCc,0.10905308,0.01166368,0.08026478,0.02572559,-0.07032842,0.01378452,0.01940783,-0.11689824,0.02102562,-0.04394824,-0.06278898,0.17918671,0.36301682,0.05013342,0.05924031,-0.00295648,0.04936618,0.00508612,-0.06624574,-0.03192844
9oVPXnEkegY,0.08609747,0.03311178,0.08798153,0.01300777,-0.04586327,0.03768862,0.02022811,-0.07098052,0.02126277,-0.01419166,0.00751818,-0.04649434,-0.00621519,0.00085754,0.01637112,-0.00744982,0.01042884,0.01992705,-0.00653874,0.01869916
1d3wR5LJ4-4,0.03775785,0.01282588,0.09812504,0.02903999,-0.08031924,0.03542493,0.0326266,-0.12452578,-0.05560235,0.02633407,-0.11217585,0.28551209,-0.21637038,0.24899653,-0.15067909,0.02783854,-0.02022754,-0.08524146,-0.12601676,-0.07168227
UtXLbVdM7wk,0.13313822,0.0034077,0.15408714,0.05808255,-0.12546959,0.00608535,0.01709528,0.04468242,-0.02700277,-0.13822907,0.07747447,-0.0617387,0.08497037,-0.06260645,-0.07978836,0.02345722,-0.02490762,0.00566249,-0.07053873,0.00758374
TfojYStTlZE,0.06377793,0.0222984,0.12346598,0.04312461,-0.11239831,-0.01363858,-0.02595689,-0.03624726,-0.01281864,0.1889637,0.04760657,0.00135345,0.04392653,-0.06798442,-0.00805049,0.08093133,-0.01027842,0.05833425,0.00320197,0.03228585
QIKiQjEMUjY,0.03262316,0.00127197,0.13401532,0.332091,0.22960154,-0.01395652,-0.03860512,0.00629874,0.00223943,-0.00657659,-0.00428778,0.00106602,0.01849012,-0.00550396,-0.01624937,0.00045906,-0.01086535,0.00675045,-0.00308394,0.01217141
LDXkrlIxj8U,0.83561259,-0.56770094,-0.14270482,-0.02939572,0.09117659,0.01450213,-0.00646744,0.02662574,0.0943286,0.04149393,0.03710075,0.13242906,-0.03871046,-0.09335363,0.04937402,-0.01217429,0.04015123,0.06418561,-0.0510452,-0.07247998
IldLswg2yAM,0.10530413,-0.01523051,0.05250659,0.00790221,-0.03564659,0.04394077,0.00716,-0.0658764,0.03238481,0.0046471,-0.01481678,0.08650483,0.01096307,-0.04883815,-0.06907154,0.0597068,-0.03763134,-0.03231608,0.03758778,0.0442424
NRELko2BoRk,0.14180018,0.06797328,0.11330257,0.0344023,-0.10820358,0.02717229,0.04338708,-0.13713496,0.01116982,-0.05462181,-0.08299637,0.02596223,0.00712475,-0.03768717,-0.01693984,0.09075271,0.10783915,-0.06416562,0.04692854,0.08542495
XXZ2wOom1l0,0.07381596,0.06409585,0.16571981,-0.10026067,0.05223213,0.01011826,-0.00865401,-0.11238403,0.00839053,-0.08941993,-0.02013855,-0.02770057,-0.11490977,0.04227632,-0.08882198,0.07749229,0.1356992,0.16242638,0.01246116,-0.08371543
Q5rmW96IGqA,0.00663595,0.00780353,0.01170164,0.01112776,-0.00012223,0.0794035,-0.03953504,0.02478393,0.00058072,-0.01714366,0.03913178,0.00362241,0.00939873,-0.00136228,-0.01341639,0.02008999,-0.02409459,0.03631181,0.01932738,0.01702134
TRVnxUYQAmI,0.05805106,0.04040249,0.09709824,0.02333045,-0.06616243,0.03780919,0.06046323,-0.07482531,9.68e-05,-0.08874658,-0.0315545,-0.07401761,-0.009781,-0.01468752,0.07854692,-0.07411412,-0.00129506,-0.00961046,-0.01264583,-0.04259132
9VyCOVdFpL8,0.00812617,0.00425764,0.03433451,0.01229884,-0.01612732,0.21721453,-0.09794256,0.05069329,-0.00086721,-0.01126111,0.05525758,-0.0108797,-0.01331562,-0.00124498,0.06387986,0.08245219,0.03024239,0.02722745,0.12322178,0.08305643
yIUDe9YH0ac,0.01385294,0.0099564,0.03691,0.00748483,-0.02094226,0.06497148,-0.02194801,-0.00529109,0.00041032,0.00925068,-0.02651279,0.00124188,0.01636857,-0.00396851,0.00671005,-0.01394921,-0.01333433,0.00933248,0.03275422,-0.01247926
2gFNJ6_ogzg,0.09481977,0.04252457,0.15522657,0.03955674,-0.15083233,0.00814994,0.01259419,-0.07024756,-0.03110408,0.27192246,0.09171568,-0.02057833,0.02871081,-0.00666999,0.01579534,-0.01988466,0.08733458,0.13162716,-0.05420121,0.12047497
EFhMcL3Kf1c,0.0169076,0.0086399,0.03574546,0.00418049,-0.02244078,0.11578703,-0.0513441,0.00767739,-0.00232791,0.0212447,-0.0277763,0.00948409,-0.03207492,0.00733844,0.09691192,0.09255252,-0.02612289,0.01442629,-0.12643716,-0.10185773
hXPy19kPego,0.04988919,0.04304353,0.07856199,0.0172086,-0.06027284,0.01675249,0.03923452,-0.07066698,0.00043115,-0.06224666,-0.01171457,-0.06244422,-0.02938632,0.00789375,0.11544221,-0.03715778,-0.00834907,-0.01058303,-0.06118842,0.01446284
THMW7bXTog4,0.02598346,0.00995377,0.06439833,0.00853502,-0.02235325,0.03182271,-0.00180528,-0.02432396,-0.03093721,-0.02223788,-0.03371864,0.08582456,-0.02595718,0.0412209,0.00496217,0.01813424,0.01036277,-0.01619002,-0.00617134,-0.02883463
BPt0fwBCDbQ,0.07759549,0.07185656,0.10032635,0.04940233,-0.08452167,0.01069972,0.01876433,-0.09308618,0.01055852,0.04883243,-0.0165039,-0.00869363,-0.066639,0.1239277,-0.09889114,0.08628829,0.0411555,0.15679033,0.07763579,0.07805052
Y9HJ_U3TdXk,0.0115137,0.00285795,0.03855178,-0.00102781,-0.01297673,0.14295608,-0.05207068,0.03423429,-0.00319887,0.01960004,-0.0422896,-0.00288771,-0.01107443,0.00981962,0.01153644,-0.01661004,0.01685464,-0.00114645,-0.01294459,-0.00947031
dqOmDZPkIF4,0.10300146,0.05503948,0.18652378,-0.0009979,-0.08377627,0.0112975,0.01100329,-0.19703767,0.07276831,-0.20738895,-0.09011138,-0.34907284,-0.07704009,-0.32204198,-0.28151222,0.2432694,0.01587246,0.02241951,-0.29487955,-0.3096162
na5Enw8P18A,0.01940153,-0.0060445,0.02538984,0.00969725,-0.00390819,0.10400001,-0.03272135,0.0282371,-0.0197922,-0.01802733,-0.03706308,0.03826965,0.01094237,-0.06573762,-0.02245093,-0.04586513,0.09185145,-0.0516408,0.08601778,-0.13613949
kf9ghd5-VII,0.08398001,0.0795382,0.14369335,0.00049191,-0.0794622,0.01689152,0.00182205,-0.06659154,-0.01876047,-0.02961511,-0.01382041,0.0254638,-0.01946122,-0.08347318,0.01663722,-0.00195383,-0.10104745,-0.17248576,0.08195545,0.1180089
e5jQUYrRPRk,0.17820937,0.00420902,0.14005684,0.04128987,-0.13686351,-0.05334647,-0.00934783,0.09457286,-0.03529609,-0.14390607,-0.06330592,-0.00972699,0.0398284,-0.02673562,0.00277629,0.02661866,0.02317629,-0.0457026,-0.00094911,0.02276786
P9MkPdQc74o,0.04555414,-0.00978098,0.04614864,0.01526501,-0.03143524,0.00409414,0.01945474,-0.05523089,0.02371488,0.05337329,0.01834775,0.05218714,0.12751443,-0.01121126,0.05844319,0.00884394,-0.00222004,0.02249161,-0.01306888,-0.07863624
VsLOWe6VuyQ,0.01573199,0.00966125,0.03221694,0.00798524,-0.00317331,0.08048998,-0.03161212,-0.00513909,0.00245906,0.03503418,-0.05135312,0.02762207,-0.00558297,-0.00967743,-0.01914259,0.06189183,-0.07411931,-0.01199383,-0.02606844,-0.061406
LKxIrZFhONI,0.03093606,-0.00959785,0.02543328,0.01976009,0.00063148,0.09357565,-0.00735352,0.01724321,-0.01824391,-0.01977274,-0.00762385,0.05479563,0.00363923,-0.07489172,0.0095678,-0.00816408,0.09003573,-0.0629915,0.08243871,-0.16554206
kXenRXelpKs,0.00895926,0.00215594,0.02516512,0.00414391,-0.01332093,0.10597989,-0.04268521,0.01026914,-0.00011027,0.00145437,-0.00893426,0.02274642,-0.014645,0.02043365,0.04351819,0.05198807,-0.02854606,0.03506785,-0.05339064,-0.07175881
MWrMtRjLhjk,0.0563991,0.00503329,0.09086272,0.02690735,-0.08557669,-0.02763132,-0.03295421,-0.04481396,-0.00446413,0.18530156,0.08509333,-0.03629132,-0.00279787,-0.04445587,-0.0225756,0.01852545,0.0046056,0.0713865,0.00983538,0.01173761
fr78adfAnuA,0.01983279,0.00710503,0.0810342,0.00064023,-0.02472816,0.36417127,-0.15719406,0.06803746,-0.0153549,0.05320598,-0.10801719,-0.04510558,0.01232838,0.04701872,0.2409314,0.30300781,-0.20180455,0.13879657,-0.26201782,-0.02749608
KKwxanUOAd4,0.05272565,0.02814766,0.12214124,-0.0097975,-0.05151838,-0.01397808,-0.02119791,-0.06528331,-0.02167809,0.08814714,0.01089507,0.06241338,-0.03888381,-0.00379617,0.04391636,-0.00716712,0.00979504,-0.01183948,-0.05052566,0.00896809
Gr6qcQdzDfw,0.07474585,0.03904384,0.13267601,-0.04033943,-0.01555997,0.01158868,-0.00589104,-0.11822466,0.04269082,-0.03562413,-0.0180994,-0.04941365,-0.03051455,-0.03075782,0.04247498,-0.03753658,-0.05114718,0.00921766,0.01331816,0.00749566
crrTHKN_R58,0.05790936,0.05965329,0.08436963,0.0310705,-0.05627004,0.02382112,0.02519325,-0.09855433,-0.03218369,0.01884765,-0.03043678,0.18370637,-0.0639562,0.09810322,-0.10443099,0.00086709,-0.01913773,-0.09994514,-0.097934,0.06444307
s23TO2BQBcU,0.12247454,0.1119103,0.11784068,0.04606784,-0.07073567,0.04412282,0.07064126,-0.18455224,0.02720291,-0.10555816,0.00333802,-0.11273337,-0.08345792,0.07583274,0.13732637,-0.14065188,-0.0183267,-0.02584959,-0.04673559,0.07871722
DYhg0nWZ1UQ,0.10414846,0.04623872,0.11181104,0.02283746,-0.10045931,0.07684699,0.03862315,-0.16682898,0.09329334,-0.13018907,0.16059307,-0.05996474,0.03945652,0.07456791,-0.01361552,-0.11116895,0.00518053,-0.03606318,-0.04098345,0.08946585
UgfrzicHc80,0.02875868,0.01493295,0.14051919,0.263911,0.14368458,-0.00605076,-0.03175949,-0.01561685,-0.00866085,-0.02807685,-0.02880011,0.02756337,0.00269052,-0.02063667,-0.02334003,0.04324881,-0.00217359,0.03380431,0.0362424,-0.01754915
o39vHtwxPRg,0.06669335,0.04671773,0.29501217,0.65061786,0.50662329,-0.06606395,-0.04622784,0.0387669,0.00434234,-0.00077861,0.004668,0.00440004,0.00687053,0.01785514,-0.00197234,0.00677218,0.00595729,-0.00046743,-0.00450728,0.00264479
rr8ZpzHcZJc,0.25633457,0.0168651,0.15312122,0.00023126,-0.16644679,-0.13151689,-0.09868681,0.18999571,0.29062046,-0.09042133,-0.06542722,-0.00416258,0.03155701,-0.05622837,-0.10242764,0.13619613,-0.07221412,-0.23716876,0.10668133,0.05490165
_9bYQ2tvc_s,0.07980325,0.00498336,0.08617642,0.02324801,-0.08539268,0.01518842,-0.02691193,-0.06939593,0.02133358,0.17025485,0.07844136,-0.0523852,-0.01061128,0.01053389,0.02673469,-0.02620919,0.04975761,0.06112156,-0.02711896,0.02452277
iPg5fXvAqqo,1.08026236,-0.72872928,-0.24927134,-0.0581997,0.20000512,0.09419771,0.08246519,-0.15278168,-0.33019625,0.0290738,0.01620902,-0.09040152,0.01733886,0.01945689,-0.02731809,0.01617886,-0.01240207,-0.03235189,0.02803241,0.00960655
-pNi4dh7VFo,0.06288454,0.03981666,0.06957072,0.00928789,-0.04991147,0.02632329,0.00957141,-0.08972886,0.02009655,-0.0045182,-0.02670795,-0.07048578,0.01025419,0.08209076,0.02462731,-0.03465811,0.0004611,0.02487344,-0.0395422,-0.0031854
0VjrLsr61pk,0.07055265,0.07556238,0.10130415,0.00670521,-0.06992161,0.02636314,0.02697591,-0.12199931,0.00276365,-0.10773599,-0.00525366,-0.09607147,-0.01515091,0.03055549,0.17193061,-0.08731619,0.02076785,0.00480993,-0.07008113,0.04347902
OgbLx7K5jKI,0.01021673,0.00461171,0.03726053,0.01160544,-0.02264409,0.14596923,-0.06316704,0.02431863,0.00076094,0.0147793,-0.03225969,-0.0290219,-0.00254229,0.02644599,0.03781418,-0.01277118,-0.03147965,0.0472189,0.02733016,-0.0236982
lk7HWLeXjS4,0.08626173,0.05070177,0.1086221,0.02890003,-0.05014924,0.03007794,0.03105912,-0.11769654,0.00543743,-0.03116644,-0.06136161,0.05326898,-0.0394779,0.09821375,0.01394714,-0.02992064,0.03066342,0.0391347,-0.0095671,-0.00939093
qf_JlCrcPy0,0.03292092,0.03569614,0.03163862,0.01338377,-0.0185179,0.01710036,0.01968428,-0.07249019,0.00849546,-0.044308,-0.02571041,-0.0361815,0.00488037,0.05868072,0.02045304,-0.0067728,0.04474955,0.04920273,-0.02557093,0.04657757
AHyZdLVYJfc,0.04276502,0.06008244,-0.00419913,-0.00068827,-0.00161559,0.07888281,-0.03209116,0.0323595,0.02653383,0.00609662,0.00122246,0.00203695,0.00097278,0.01474676,-0.01046191,0.00229646,0.00255851,0.00479041,0.02417801,0.04357383
ehizptRtYzM,0.0566389,0.05647577,0.08802188,-0.00154548,-0.04048812,0.01491478,0.00558167,-0.05704596,-0.00433832,-0.0283704,-0.03550577,0.01450409,0.02990748,0.00247958,0.02163655,0.0003679,-0.00669931,-0.00595942,0.04900164,0.02295976
wN3O2GSvoWE,0.05651892,0.01999651,0.09749078,-0.0058716,-0.04046709,0.02535602,0.02498264,-0.07884052,-0.07152924,0.01877684,-0.02327549,0.16311229,-0.07352015,-0.14228462,-0.09445684,0.01188197,-0.04071215,-0.07905117,0.12184705,0.09748966
nHH771Vtkxw,0.06154508,0.03557487,0.13137892,0.00521343,-0.06393911,0.01185098,0.03213749,-0.11649512,-0.06272866,0.01546911,-0.12665991,0.36041649,0.04120026,0.13766575,-0.10076599,0.07601218,-0.05789429,-0.08266756,-0.03912143,0.04078975
CdlFyd3WHbg,0.1193784,0.11923204,0.1266015,0.00927267,-0.07921794,0.00682549,0.01873315,-0.10383359,0.03215095,-0.04498204,-0.08143802,-0.02014784,0.02664801,0.04897991,0.02681452,0.08256702,-0.00292432,-0.08940483,0.13540178,0.01652118
0DB_Qj43O6Q,0.01657916,0.00460105,0.03693541,0.01710031,-0.02711433,0.05579894,-0.02328097,0.01933404,-0.01796211,0.00583419,-0.0007217,0.07887267,-0.0044309,-0.02017395,0.03385816,-0.01351512,0.01640412,0.06224147,0.01183345,-0.00717694
FBq_mtNPweg,0.1017699,0.00171826,0.27481951,0.67365224,0.46111393,-0.05765644,-0.03208522,0.00919861,0.01051805,0.06060605,0.03284411,-0.00949878,-0.05497933,0.11572354,0.00730925,-0.05305894,0.00795283,-0.0314429,0.01589332,-0.05041188
DB302vKJ2Go,0.04794225,0.02225183,0.05760747,0.01490546,-0.05228116,0.02303827,0.03424383,-0.08237218,0.03592419,-0.02405693,-0.04480101,-0.06736999,0.04865554,0.03484005,-0.03590177,0.03179542,-0.00445134,0.03583634,0.09270517,0.01977614
21UbB1_pq3o,0.02857264,0.02233163,0.04952763,0.00875947,-0.03668612,0.02144181,0.00605098,-0.07348526,0.00578077,0.00075387,0.00089333,0.12143229,0.23658232,0.01574099,0.00400931,-0.01243313,-0.01574867,0.02654314,-0.01126552,-0.0501281
3OUrr_2UCYs,0.01353839,0.00621207,0.04610577,-0.00964071,-0.00195293,0.23253164,-0.10226576,0.06742489,-0.0016792,0.05634543,-0.06944337,-0.01024257,-0.00812203,-0.03335384,0.04422611,-0.05895175,0.12954143,-0.08507297,-0.02128697,-0.05161225
oj3-hWAf1uQ,0.0467116,0.03235395,0.1112046,0.01204152,-0.03533505,0.00310915,0.01757746,-0.05077211,-0.04071133,-0.02549142,-0.04620546,0.10731611,-0.06487179,0.07296747,0.01394995,0.02150108,-0.06954328,-0.0387721,0.0268763,0.04081488
XeN7wKfDOPk,0.01550405,0.00409989,0.04327923,0.02792872,-0.01044802,0.12107578,-0.05219194,0.00813367,-0.0084666,-0.0009914,-0.0372224,-0.01797062,0.01521603,-0.04707641,-0.06699905,-0.0632021,-0.04147898,0.03933928,0.03960994,0.00225619
tUmd3tWCDKs,0.00616664,0.00356296,0.03183738,0.01598801,-0.00543774,0.2368952,-0.1163046,0.0692362,0.00526345,0.03002356,-0.08370086,-0.0777384,0.04885322,-0.01533441,-0.21173313,-0.18640077,-0.15169617,0.08917959,0.04021364,0.10836083
dIwCndpKuSE,0.20128275,0.03946759,0.08217594,0.03176783,-0.15572335,-0.10661128,-0.10784053,0.19930278,-0.09261867,-0.10861593,-0.03944771,-0.07494828,0.12144427,-0.00995868,-0.06252162,-0.0290226,-0.06754138,-0.0137619,-0.0145823,0.07318533
KfaPxlvQx1M,0.06719122,0.03417364,0.33949258,0.7896829,0.53639449,-0.08313878,-0.03976725,0.02907917,-0.01161347,-0.01768566,0.02061136,-0.04016306,-0.03381662,0.00519988,0.08314263,-0.04376109,-0.02210386,-0.04229726,-0.04047029,0.0244483
YR-4vFbwe18,0.07698649,0.04163246,0.15895251,0.00564797,-0.08612476,0.0096356,-0.0034207,-0.11807755,0.00225495,0.11669057,0.01161228,-0.02709307,0.0116557,0.00732467,0.07007303,0.02833397,-0.0418262,-0.02085896,0.0444694,-0.03583449
XNDiFY5vIk0,0.0074488,0.00836879,0.01883673,0.00499728,-0.00987557,0.16570206,-0.07859768,0.04385227,-0.00140346,0.01856829,-0.04169046,-0.04865352,0.0095206,-0.00954467,-0.17298554,-0.14954363,-0.0967144,0.08645374,0.10331351,0.15036597
xhCLLakHBa8,0.04072131,0.01879112,0.05673233,-0.01738182,0.0104897,0.01295886,-0.00825022,0.00887973,-0.00890683,-0.03411322,-0.00447753,0.01267827,-0.01700364,-0.03538823,0.01414173,0.00507902,-0.0024787,-0.01908097,0.01396752,-0.02216363
SK7yqZdN3Dg,0.22622283,0.01288144,0.21471945,-0.0158806,-0.18006173,-0.17183844,-0.11402519,0.19047874,-0.1450792,-0.17770345,-0.01456851,-0.05746473,-0.12300359,0.10100666,0.04559344,0.03955672,-0.16431488,-0.15866221,-0.15325128,-0.02163429
eYDQWSBQ47s,0.06708982,0.00288326,0.11236368,0.03926262,-0.06249255,0.01678244,0.02230179,-0.09712516,-0.00445325,-0.04217398,-0.0431094,0.00385661,-0.0869986,-0.06048767,0.06001159,-0.00289068,-0.02633593,0.04881639,0.05394523,-0.04110888
tPuup43tbgA,0.08691704,0.02264078,0.08353741,0.02604082,-0.08273997,0.01186712,0.00757006,-0.10725227,0.0443911,0.10021654,0.04701912,-0.08309874,0.01967526,0.01586217,-0.00489771,-0.05524438,-0.01979896,0.05659069,-0.00344449,-0.01638235
sj1y9FDJKCM,0.0120923,0.01372968,0.0371535,-0.00529896,-0.00107385,0.28050582,-0.12376354,0.08903263,-0.00158846,0.02402558,0.01224968,-0.00896015,-0.03368578,0.01079355,0.07366887,0.00715993,0.15003871,-0.09726894,0.09997158,0.04237713
o8Z1Q8UPSOU,0.28819351,0.01640522,0.28547013,0.03670483,-0.26536175,-0.14895361,-0.10369996,0.06626299,0.12317002,0.23033362,0.09268829,-0.16594407,0.05083497,-0.05767342,-0.10488077,0.05046403,-0.03504256,0.04705247,0.00652859,-0.05528252
1VSBgPn28zA,0.01433768,0.00366124,0.05682325,-0.01556454,0.00173759,0.2346157,-0.10175254,0.06494882,-0.0086968,0.0518511,-0.09461316,0.00791411,-0.01242861,0.01167029,-0.00887815,-0.1136843,0.07882007,-0.03784433,-0.00549469,-0.02536196
ABoKfabPQyY,0.01786017,-0.00012666,0.05339778,-0.000833,-0.00034002,0.277509,-0.1185109,0.08308712,-0.01355305,0.10381303,-0.19772741,0.05801852,0.00247225,0.06919749,-0.05901299,-0.10245096,0.18197788,-0.15641702,-0.09420567,-0.03188692
o1LnQHf3b6I,0.034026,0.01610564,0.08963122,0.0020365,-0.02081035,0.26215453,-0.11710404,0.08962218,-0.03650521,0.06664528,-0.13249122,0.05789016,-0.01729747,-0.07178287,-0.00314939,-0.21081136,0.10760881,0.0156738,0.01266843,-0.01201274
GAf7J_t1o8U,0.10455686,0.07285925,0.15361752,-0.00755086,-0.06121319,0.07629207,0.09495973,-0.14763702,0.07365757,-0.0567917,-0.05874793,-0.13967487,0.11917479,0.05061055,0.03289864,0.01238144,0.08934771,-0.04672971,0.07096829,-0.03305803
vTXoE7BLv9s,0.0572833,0.02990662,0.08006351,0.02154842,-0.0611582,0.03546889,0.03018009,-0.07905425,0.00235263,-0.06574381,-0.0223398,-0.02483924,-0.03716769,-0.03342872,0.10005449,-0.07608129,-0.01926633,-0.02065715,0.0072309,0.01662809
nnKkk3CpLes,0.03526355,0.00252321,0.0683927,0.00508851,-0.00658511,0.03248453,-0.00921604,-0.03863507,0.00355704,-0.01967275,-0.04519109,0.02478669,-0.02601249,-0.05563479,-0.03506118,0.02938977,-0.03528585,0.04474686,-0.02711268,-0.04798638
0elkAIACdFE,0.09745178,0.05363038,0.16929899,0.05753557,-0.17039724,-0.04976046,-0.05325432,-0.03394326,-0.06511869,0.31677627,0.12761726,0.06553425,-0.00642027,-0.25396401,0.02793736,-0.05277069,0.11778633,0.20988999,-0.01727356,-0.02280317
o8YcWD2ri9U,0.00880978,0.00579364,0.02910192,0.01142236,-0.01287873,0.1680085,-0.07754295,0.03415311,-0.00121678,0.01747311,-0.02271072,-0.02757599,0.00971102,0.00034651,-0.01560823,-0.05892402,-0.02802566,0.03515013,0.02696877,0.0224576
ZUpr3u1inlg,0.04877205,0.02231321,0.10002913,0.03989021,-0.07882461,0.02187294,0.00932265,-0.10083893,-0.03014962,0.01215172,-0.02156277,0.20700108,0.29489922,-0.06670119,0.07073815,-0.02998266,-0.00169055,0.07019317,0.01386768,-0.06402807
2mOqRPcWgMM,0.02036896,0.01031749,0.03518729,0.01327547,-0.01101839,0.22208938,-0.10836794,0.05596861,-0.00673517,0.01440623,-0.01881821,0.00212486,0.02126488,-0.00130124,-0.0469111,0.00578342,-0.07199718,-0.0090304,-0.04494348,-0.04987914
mQR17nCXUSA,0.04220912,0.03703277,0.07914053,0.04286965,-0.02305408,0.01345878,0.00913373,-0.04155665,0.00186985,-0.01559072,-0.03532816,0.00912705,0.06786385,0.02473621,0.02301853,0.03384616,-0.01481841,-0.06789824,0.0767358,-0.0175336
95KqKaDsIAM,0.07189094,0.05072911,0.11606135,0.04177984,-0.07640475,0.03910797,0.02595808,-0.11157789,0.00537615,-0.05072869,0.00059154,0.05338175,-0.02975903,0.02434584,-0.03511735,-0.00457144,0.06662512,-0.00757919,0.01352289,0.00476427
XFpBgNMBNNI,0.0109449,0.00892974,0.03648861,0.01703776,-0.01214396,0.21547418,-0.09347632,0.03305286,0.00455484,-0.05017389,0.15032216,0.017525,-0.00242147,0.02213196,0.09804946,0.10612655,0.06078221,-0.01440828,0.09953561,0.00069633
ZhRgnBzcYHQ,0.08470225,0.06455313,0.21779211,-0.04843667,-0.01633815,0.0326237,0.02781684,-0.13929348,-0.00817827,-0.11570038,-0.0754609,0.00928462,-0.03727006,-0.18114423,-0.11021118,0.14662629,-0.00399015,-0.04142796,-0.04158167,-0.12358116
q1l42BPzbIk,0.0208269,0.01350492,0.05238355,0.01898964,-0.03165413,0.00703069,-0.01398375,-0.02571924,-0.01550548,0.0490466,0.01359373,0.02415573,0.00791159,-0.04879117,0.02036633,-0.00259508,0.01293297,0.05030005,-0.00298614,0.011112
OEqMxMEBQQY,0.03961408,0.01743751,0.10925578,0.01779958,-0.0634667,0.02565613,0.0202263,-0.08354647,-0.07031868,0.02439365,-0.10411431,0.27189682,-0.16469061,0.15916544,-0.12124697,0.03084382,0.00126621,-0.08097588,-0.09353337,-0.0148938
gPmmDEGCQLg,0.04481094,0.01023439,0.12026205,0.03422233,-0.10127613,0.00417123,0.01703238,-0.06556763,-0.0734248,0.0566383,-0.03365605,0.23403384,-0.16589877,0.17608908,-0.09168678,0.06882756,-0.01640125,-0.07679884,-0.07913405,0.09692381
sjbKZ4CY1Ow,0.02460971,0.01098951,0.05665023,0.00471282,-0.02901224,0.2905812,-0.12744076,0.06864714,0.0030119,0.01811468,-0.00518046,0.02894932,-0.01139145,0.00734334,0.09753373,0.12094034,0.01746895,-0.0707055,-0.06174367,-0.08123588
CE6tiT3Q6c4,0.07950446,0.05983966,0.15124108,0.03657129,-0.13458146,-0.00082277,-0.00821839,-0.10729223,-0.03877111,0.18227315,0.08041877,-0.05884511,-0.03648594,0.03506982,0.07995315,-0.0418074,0.07474557,0.11239179,-0.06192907,0.10892626
VKaslzzv1QM,0.05488345,0.04342776,0.10418801,0.03355089,-0.05310114,0.04939729,0.04018525,-0.15974673,0.01976611,-0.06776585,-0.02401636,-0.03461583,-0.00878548,0.05441533,0.01492158,-0.02778863,-0.00029994,0.06159847,0.07965695,0.06941198
GybLbhXj2Nw,0.01816885,0.00363292,0.04264944,0.01431279,-0.01757651,0.23940026,-0.10091355,0.024943,0.01326188,-0.05111622,0.16013866,0.00872812,0.00377573,-0.0275334,0.16419206,0.1944629,0.11343568,-0.06815938,0.18231903,0.05901622
-X2P40t70LM,0.09561709,0.01804483,0.14383361,0.00112173,-0.08608359,-0.0015667,0.02675219,-0.20226279,0.01467977,0.16715696,0.0173568,0.33653103,0.65656632,-0.00578989,0.06984485,0.00995876,-0.03619512,0.06643652,-0.02737571,-0.1557021
nGakcu0V0ZM,0.01152336,0.00876266,0.03073908,0.0079662,-0.01825011,0.14395721,-0.0672593,0.02783366,-0.002241,-0.04006188,0.07731243,0.01865146,0.00985292,-0.00016892,-0.14873711,0.05100611,-0.24915083,0.15002542,0.05364965,-0.02151434
MlcUa5-3G68,0.1083899,0.07471977,0.13649958,0.02624691,-0.09801287,-0.00723418,-0.00188221,-0.10770142,-0.00771548,0.19486369,0.05496329,-0.04539173,0.03816354,-0.05707482,-0.02489748,-0.00470594,0.00944256,-0.00291557,0.01192441,0.03690722
Aa1qfpfSaVY,0.01307388,0.00289962,0.05040124,-0.01062814,0.00019346,0.2082254,-0.08410204,0.05460255,0.00169425,0.04473129,-0.07340631,-0.00861202,0.01018175,-0.00053141,-0.01119263,-0.07949006,0.08502516,-0.07850769,-0.03313151,-0.00046462
IwjPma4PPTM,0.09663681,0.05661818,0.13179265,0.02584173,-0.11160583,0.0519626,0.06182642,-0.24537126,0.07128934,-0.12971918,-0.06402818,-0.2885005,-0.03325864,-0.12640108,-0.15831746,0.17069621,0.06923157,-0.02937393,-0.1006687,0.0289044
oixqYBAPwXA,0.00265309,0.00156423,0.01101837,-0.00169448,-0.00220717,0.00627284,-0.00175549,-0.00900879,0.00076935,-0.00181041,-0.00750954,-0.00083833,-0.00240912,-0.00907764,-0.00261071,0.00909662,-0.0014047,-0.0071671,0.00204829,0.00156429
VVfMO6SJZLw,0.09090409,0.06424629,0.1134233,-0.00918994,-0.04557382,0.05437994,0.10149812,-0.06847239,0.0322459,-0.06158871,0.01032321,-0.04301316,0.03177066,0.04983022,-0.01631295,-0.01092693,-0.0382029,0.01313796,-0.0021866,0.02141095
WwEyLRmGU9g,0.03947874,0.02229825,0.13699506,-0.04127166,-0.0270433,0.00128976,-0.00872887,-0.08345007,0.00845028,-8.197e-05,-0.0061213,-0.03455792,-0.06976471,-0.00507381,-0.00594127,-0.00013077,-0.09756189,-0.00894991,-0.03475987,0.02406139
6UPfq3KETg4,0.0350621,0.02361613,0.0993356,-0.01341241,-0.02450562,0.02835833,-0.00841853,-0.07795047,0.00169975,-0.04249536,0.01152186,-0.00607662,-0.02672527,-0.03448669,0.04062693,0.00463763,-0.06065422,0.0164108,0.0009561,-0.0068668
Rax-kdRVG74,0.29440982,-0.08215115,0.14989119,0.04492661,-0.24260433,-0.18664013,-0.16549757,0.31016034,0.26392278,-0.20548549,-0.04861868,-0.17653797,0.12208791,0.14047156,-0.06442627,-0.0332566,-0.16540187,0.01260228,0.09521553,-0.05216876
TekYNY3eGC0,0.03372274,0.02625081,0.06051808,-0.00777168,-0.00421245,0.01873859,0.00897705,-0.01926761,0.00286887,-0.01361212,-0.02167648,0.01168453,0.00804561,-0.03322108,0.00449226,0.00774165,-0.01624254,-0.00872894,0.06494794,0.00069198
HVPhcOmSMtM,0.14768491,0.07824096,0.15297097,0.05987819,-0.13299945,0.01708923,0.00887435,-0.1475443,0.02396636,0.11740544,0.08490732,-0.11791739,0.03221022,-0.20882048,-0.05120292,0.0471497,-0.07192805,-0.01786202,-0.12559472,-0.05156185
ByJAH8vTgfw,0.05691565,0.03116689,0.14416338,0.0184574,-0.1066644,-0.03614134,-0.00189902,-0.08206173,-0.0112285,0.09387563,0.09451056,-0.08307553,-0.08891684,-0.06915326,0.21979345,-0.11034072,-0.03383914,-0.01269721,-0.09492605,0.01739046
8Uk97zU2GCg,0.04531086,0.0222332,0.04496335,0.01542262,-0.03140486,0.03104003,0.01282724,-0.07607349,0.02745789,-0.0463079,-0.04638955,-0.00582566,0.00171027,-0.02167586,0.0671216,-0.06754464,-0.00640521,0.04968352,0.13464924,-0.02569806
NoXtR658c_k,0.05460924,0.02519901,0.082542,0.03892698,-0.05058532,0.04741355,0.01431777,-0.10146953,0.03869039,-0.03033397,-0.0147366,-0.00030527,0.02347845,0.0124068,0.01664817,-0.00672551,-0.03558434,0.05813427,0.01768772,0.02410412
zj0BKLv9r8Y,0.16390606,-0.01155991,0.09954408,-0.0286493,-0.00805849,0.05293566,0.01682334,-0.14615938,0.04268284,-0.04259028,-0.02248663,-0.0642683,-0.01808619,0.00555006,0.18739088,-0.10635972,-0.01498587,0.00343877,-0.07146782,0.00952736
yemarhfhVA0,0.01648005,0.00929707,0.04056298,0.01260381,-0.02187811,0.14150741,-0.05248536,0.01138867,0.00212389,-0.02485527,0.0378089,0.01067038,0.00177901,-0.02469187,0.0328134,0.05939009,-0.00436647,-0.00613376,-0.02640424,-0.08985856
IJJbQTVdAtE,0.03150032,0.03101168,0.04943832,0.0174174,-0.00697808,0.30157272,-0.1061635,0.08344604,0.00032973,-0.03252787,0.1267982,0.0044026,-0.02718137,0.0095847,0.18115014,0.20755498,0.09429374,-0.01880855,0.13159593,0.08400508
Xshu2lM5PZE,0.20670034,-0.01554877,0.20872138,0.05465225,-0.19766192,-0.11214808,-0.08270433,0.14834203,-0.12020617,-0.21145156,-0.15753022,0.09818442,-0.05940252,-0.22675132,0.06270594,-0.1510864,0.17207884,0.24076276,0.10347501,-0.20376181
qey62i2fvg0,0.00795557,0.00357145,0.03090378,0.0066874,-0.01728917,0.13342424,-0.05512395,0.022692,-0.00603284,0.04039133,-0.06844482,0.01398404,-0.04782354,-0.01759063,0.02993146,-0.04609111,0.01531802,-0.03773799,-0.00134884,-0.04618889
quCJwkDAx0g,0.01686492,0.00564017,0.0441612,-0.00352361,-0.01336318,0.10426425,-0.04376261,-0.0191789,0.00633343,-0.01502735,-0.0246158,-0.01661745,-0.05823976,0.00993021,-0.04664624,0.04477664,0.08088988,0.10074379,-0.02550452,-0.08063988
Cd5EHfRerGI,0.06195031,-0.01162223,0.12467062,-0.08791493,0.08480202,0.25348703,-0.05382926,0.10805905,0.02837362,0.02208021,0.03704866,-0.03028369,0.02419232,0.04652479,0.03810522,0.09565124,0.13407983,-0.02073833,0.04263122,-0.0153646
OuOIrxBXB0M,0.00592179,0.00630942,0.01310887,0.00363774,-0.0083429,0.07966916,-0.0349399,0.01255249,-0.00423929,0.02434229,-0.02382069,0.01180754,-0.01226272,0.01267949,0.06061631,0.06941521,-0.01908312,-0.02241643,-0.0966178,-0.03642736
wnoSOSgBNHk,0.06334184,0.0394668,0.07460496,0.01564673,-0.07314233,0.02262324,0.02742903,-0.11927571,0.01851729,-0.06983526,-0.03708005,-0.14837001,-0.01621778,0.13789068,-0.00447796,0.01732883,0.0604217,0.08255362,-0.01103337,0.09554833
PN8bHAr0f1M,0.0065571,0.00404191,0.03073906,0.01010938,-0.0136206,0.22140499,-0.09643204,0.0520004,-0.00093163,-0.00985076,0.05018104,-0.00836319,-0.02057302,0.01719962,0.03824428,0.05577559,0.05046307,0.00054324,0.14311386,0.06552724
i6wL2IzuW7s,0.13431778,0.02592294,0.13191125,0.03758244,-0.14203246,-0.01396144,-0.02343217,-0.02674838,-0.05810298,0.14560643,0.14812821,0.12929198,0.08782427,-0.1827762,-0.03337932,-0.05370792,0.05579412,0.06513798,-0.0684186,0.09437684
FJNk3OGtmbk,0.05803243,0.0306886,0.28878323,0.65158381,0.47291413,-0.06366344,-0.05396362,0.01885668,-0.00418979,0.02109717,0.01228945,-0.01006723,0.02122489,0.02329935,0.01678765,0.01554286,-0.00698573,-0.00062282,-0.00809919,0.02026189
HyO6rMqRXw0,0.06646846,0.04583669,0.04257808,0.00638096,-0.03631611,0.02506356,0.02746912,-0.10551249,0.03966709,-0.03841627,-0.03449398,-0.07415456,0.01955567,0.07235925,0.02913916,-0.05169537,0.01263851,0.03482305,-0.01914083,-0.00347228
GmTuhpMe1oM,0.05011631,0.01758355,0.03720519,0.00652053,-0.02389815,0.01977914,0.0211616,-0.07774192,0.03388558,-0.0033464,-0.01367227,-0.04584908,0.00620169,0.04475217,0.00903853,-0.03831916,-0.02370335,0.02103369,0.01555391,0.01696231
r6AB_e8Rk1I,0.07968361,0.08558045,0.07984602,0.02599401,-0.07229519,0.05470413,0.034375,-0.15589555,0.01714099,-0.0454682,-0.02484962,0.08533979,0.2968999,0.00697967,0.07290304,-0.03810942,-0.0041007,-0.01767302,-0.04071513,0.02104869
WEnvorobhEE,0.02377458,0.00402233,0.04992978,0.0133453,-0.03455148,0.09195346,-0.02721274,-0.00444343,-0.00267431,-0.01727747,0.01712808,0.01420166,-0.00915264,-0.02990139,0.00197325,0.03723142,0.00566335,-0.01851267,0.01675913,-0.02589231
9opMZrn2-zg,0.0129761,0.00662102,0.06614371,-0.01295711,-0.01021981,0.26054996,-0.10675998,0.0768973,-0.01350018,0.09557322,-0.17715299,0.02058439,0.00814919,0.06024742,-0.06700189,-0.14375172,0.17060318,-0.17710682,-0.11946917,-0.0720539
d0VoQtmw9Eg,0.1388719,0.00987761,0.1262557,-0.0034222,-0.09902516,-0.03671371,-0.02159364,0.0278434,-0.01488753,-0.08771684,-0.00414986,-0.05683123,0.04744792,0.07076355,-0.00771958,-0.02860688,-0.03439183,0.00812289,0.0248729,0.05624305
1lx0bttCAbs,0.18616947,0.04358545,0.13163688,0.01288628,-0.11823394,-0.05510363,-0.00442299,0.12622998,-0.03905597,-0.06860783,-0.01941564,-0.02379912,0.07013692,-0.01017865,0.01110812,0.01129243,-0.01860467,-0.02844305,0.03194725,0.02269575
LPTQADIf6Xk,0.06839379,0.04507884,0.11449376,0.0324932,-0.11853637,-0.01080526,-0.00298074,-0.11133237,0.01567734,0.15832475,0.08747237,-0.08362479,0.00857778,-0.03384091,-0.00787005,-0.00825625,-0.01584846,0.01926863,-0.0240377,0.04613694
4IeYytwcpuQ,0.00935353,0.00415181,0.03605013,0.01500772,-0.01569335,0.14830075,-0.05256018,0.02073367,-0.01508872,-0.05626543,0.05909813,0.04892598,-0.01245458,-0.05160436,0.08515533,0.09288321,0.13027387,-0.07221035,0.12908623,-0.09674809
s9TcINJc2pw,0.01557146,0.00135491,0.05541419,-0.00200729,0.00153734,0.31846579,-0.14331998,0.09807623,-0.00435433,0.08660599,-0.16487235,-0.01030791,-0.02217262,-0.03681302,-0.09232769,-0.19738122,0.05153778,-0.07617642,-0.07318397,-0.0752277
_SdzVNht_nU,0.10886125,0.00318835,0.19388032,-0.02557421,-0.08134876,-0.00997581,-0.04786637,-0.10667218,-0.02044712,0.15439481,0.05562251,0.06037822,-0.02885028,-0.19288233,0.19437807,-0.04917735,0.08373474,0.15619314,-0.13118585,0.0007581
7FYFhOiiMIU,0.01030198,0.00109587,0.03328809,-0.00613919,-0.00227349,0.13552599,-0.05114747,0.0334467,-0.00213842,0.03775091,-0.0902273,-0.0360612,0.01314829,0.00624887,-0.04244305,-0.06521753,-0.04292094,0.04972204,-0.04928961,-0.02645
lB_XJmoBLjw,0.13226395,0.13838727,0.8052888,-0.86028977,0.71657623,-0.1312549,-0.14001517,0.04453066,-0.01599328,0.0081974,0.0293996,0.03354543,-0.00628448,0.02659028,0.00065703,-0.001182,-0.01800021,0.04192538,0.00390119,0.01212709
2JhSWzxzLXA,0.04352744,0.01124613,0.07179396,0.02253793,-0.0358674,0.0145073,0.01762444,-0.07701839,0.03019791,-0.0166013,-0.02415526,-0.02294817,0.01527519,0.00460263,0.05757279,0.00014485,-0.01365404,0.05793446,0.01222926,0.00544115
h9kh7KssnMc,0.07649891,0.04551756,0.12022954,0.00889932,-0.05942027,0.02286468,0.0006183,-0.09281698,-0.00639926,-0.02158421,-0.01704499,0.00926449,0.03852474,-0.00420873,0.0426335,0.01264717,-0.01482423,0.04733463,0.0644267,0.01996182
9LsgBjswQZY,0.01155901,0.00939752,0.02803545,0.01890543,-0.00927712,0.07037801,-0.02804393,-0.00472368,-0.00177928,-0.01705494,0.02906024,0.0085021,-0.00865408,-0.0017498,0.02126589,0.02441045,-0.05461303,0.03236823,0.00452863,-0.0504903
_twN29IEQlc,0.04698003,0.01745416,0.0715037,-0.00981243,-0.01725822,0.03167695,4.488e-05,-0.08709349,0.0341378,-0.03459849,0.00144131,-0.02725713,0.03018799,0.01704953,0.05569762,-0.05056558,-0.01810172,0.01304266,-0.02201819,0.01288099
wd_xh6gSSOs,0.00478362,0.00334014,0.0297828,-0.01588333,0.01077581,0.07404347,-0.04101734,0.0138023,-0.00186991,0.01014015,-0.01182364,0.00795139,0.00450539,0.00262715,-0.00762892,-0.00898925,-0.01882388,-0.02784923,-0.03600645,-0.02525034
Cs1nC8kqS5k,0.06469787,0.06868098,0.10593721,-0.00694288,-0.04322739,0.02189802,0.03001951,-0.07956599,-0.00933821,-0.075494,-0.01511805,-0.00856903,-0.04600908,0.00320232,0.14231732,-0.06297096,-0.07723847,-0.01419646,0.00525283,0.04471662
HeY4a7uDlkg,0.0103568,0.00043983,0.02505482,0.00505155,-0.01616156,0.13403098,-0.05813908,0.02186988,-0.01817045,0.05070096,-0.08795969,0.06602517,0.00717226,0.10872892,0.03384137,0.0760484,0.00015685,-0.05183009,-0.20445792,-0.04508934
krqt6eg3UoI,0.06767772,0.06081128,0.0822604,0.02361132,-0.06186424,0.02949211,0.01866481,-0.08900422,-0.00034443,-0.08300037,-0.01505303,-0.07653937,-0.03163382,0.0152444,0.15085642,-0.08309852,-0.01340649,-0.03613498,-0.0735931,0.04411809
MK3Lz4fAvZo,0.04476528,0.04120686,0.06645943,0.00884216,-0.04235065,0.02545353,0.02133262,-0.06772943,0.00617913,-0.05748422,-0.03715184,-0.03029372,0.02020859,0.01013146,0.0322715,0.01401899,-0.00942189,-0.01893713,-0.04746712,0.05481374
vMnp3ptycik,0.13226395,0.13838727,0.8052888,-0.86028977,0.71657623,-0.1312549,-0.14001517,0.04453066,-0.01599328,0.0081974,0.0293996,0.03354543,-0.00628448,0.02659028,0.00065703,-0.001182,-0.01800021,0.04192538,0.00390119,0.01212709
Hf6NC8AzAKo,0.0995826,0.0931435,0.13787489,-0.02187665,-0.04955089,0.03497832,0.01510115,-0.14975772,-0.00569686,0.00914044,-0.02407072,0.00043329,-0.03686008,-0.02006085,-0.00397513,-0.03257041,-0.08352162,-0.05401681,-0.12721687,0.04744739
U4gpio58908,0.02976033,0.01802984,0.05414615,0.00084234,-0.02530987,0.11972393,-0.04562064,0.00813621,0.00264335,-0.03126683,0.00790178,0.00408181,-0.00969489,0.00610893,-0.02982829,-0.04457971,0.00387814,-0.00654878,0.06824441,0.02944436
4vHF2qU89Jo,0.17148896,0.01908191,0.0740751,0.03564715,-0.08194794,-0.02307401,-0.02207137,-0.03826205,0.23442047,0.17678873,0.05345755,-0.06040685,0.01170147,0.04280865,-0.01433911,-0.02791477,-0.03769632,-0.00234665,0.00145412,-0.02860693
xfMhpaP8QSg,0.04732047,0.04647809,0.05977638,0.02427094,-0.05972564,0.01769713,0.02189043,-0.09656692,-0.02583991,0.03186705,-0.02608598,0.24820148,0.3790733,-0.04867512,0.03424864,-0.05069416,-0.00740186,0.06135359,-0.00977686,-0.02866921
1X8BPKi1kP8,0.01504996,0.00452006,0.04688341,0.01028826,-0.02931632,0.13982492,-0.05325919,0.01587463,-0.00625633,0.03126322,-0.02787359,0.01532945,-0.0158508,-2.023e-05,0.06049982,0.05599207,-0.00408653,-0.03688128,-0.06843759,-0.06321082
ND9eyW5Fw0s,0.0165307,0.01193674,0.04706004,0.01304709,-0.02270197,0.15595578,-0.06776432,0.01828309,-0.00497982,-0.01885103,0.03486429,0.0127571,0.00730604,-0.00520554,0.02453765,0.06779548,-6.754e-05,-0.04909345,0.04453224,-0.00625117
nJ0oh5u6YbM,0.02501913,0.01357554,0.04335279,0.01581446,0.00738069,0.16036784,-0.06524299,0.03959142,0.00690919,0.05209862,-0.05876978,-0.00285045,-0.01309414,-0.04067826,0.00418575,-0.07087406,0.01911721,-0.06102385,0.00869711,-0.03919729
H3lUaL6-XQQ,0.01623239,0.01373564,0.09366163,-0.06884758,0.04539933,0.05692279,0.037292,0.03365717,0.0229006,-0.00175731,-0.01963337,-0.02997339,0.05441747,0.0282985,-0.02787109,0.00894089,0.09427278,-0.03805786,-0.02140861,0.01637519
-CB2CwSPtAQ,0.01971265,0.0039769,0.05188916,0.00586569,-0.02083579,0.11294102,-0.03724702,0.01963493,-0.01144926,-0.00760568,-0.06742858,-0.03163502,0.00944177,-0.02483483,-0.03845192,-0.01632974,-0.0513594,0.05833486,-0.01722491,-0.05820403
shkHigLwBnM,0.04017375,0.03437966,0.03359688,0.01194159,-0.02665574,0.02214716,0.02033312,-0.05252612,0.01058901,-0.04369612,-0.01879415,-0.03398154,0.01487286,0.03206774,0.03563456,-0.02266957,0.03827465,-0.00960767,-0.03916776,0.03806484
f2fDaAMvlV4,0.06196445,0.02079268,0.26896754,0.634746,0.43963377,-0.05911726,-0.05777819,0.0249657,-0.00193284,-0.02988078,-0.01953083,-0.01456536,-0.023655,-0.01003235,-0.01068234,0.01025422,0.00997638,0.01346217,0.0048292,-0.02007505
UEBpQgCIFTk,0.08451427,0.03505075,0.09068107,-0.01862072,-0.02264924,0.0147792,0.01562142,-0.12402459,0.05421219,-0.03895201,-0.01763852,-0.08469384,0.01865626,0.02410388,0.07724428,-0.04110467,-0.02404426,0.01482549,-0.05057422,0.01127757
-IhdnUzV64Y,0.11481162,0.05860918,0.15026592,-0.00200771,-0.08350485,-0.00662651,-0.01482117,-0.13012198,0.02409023,0.09265742,0.00921966,-0.07237791,0.06080868,-0.00704187,0.00624222,-0.03385664,-0.01812679,-0.00620084,0.10619438,-0.04628035
rk2b7fH_Gcc,0.06200478,0.06003691,0.09680028,-0.00700099,-0.0301762,0.03312915,0.02851932,-0.09946974,0.0120842,-0.07786127,-0.06443,-0.02103468,-0.00076298,-0.01917127,0.06752554,-0.06957313,-0.00943212,0.05058094,0.20229281,0.00446119
Ff0AYRWrnGY,0.01735207,0.01213031,0.05062335,0.0112645,-0.01260665,0.1395851,-0.05595344,0.00334128,0.01573685,-0.01453386,0.06365517,0.00349323,0.01098304,-0.03353679,0.07427811,0.09172252,0.06712646,0.00970537,0.09446367,0.0398611
OWkM5YoEhgM,0.0840338,0.06104093,0.09751433,0.01999532,-0.06663137,0.03276392,0.02067309,-0.11981962,0.01969462,-0.09765402,0.03416224,-0.09522541,-0.02216283,0.05932836,0.14453869,-0.10131043,-0.01135694,0.008039,-0.07974902,0.02931471
RGWm_UCIWnc,0.21912364,-0.04497701,0.15796763,0.03735209,-0.1989939,-0.09400415,-0.07636728,0.11565953,-0.09776239,-0.16849112,-0.07944267,0.14885547,-0.01611232,0.06010647,-0.04431875,0.01648421,0.10785509,0.00475634,-0.03757366,0.06458647
UDiJI3q9wFQ,0.02138898,0.01449895,0.0941608,-0.04867941,0.01056754,0.00286485,-0.02237445,-0.04163044,-0.00335433,0.01162147,0.00120609,-0.03807779,-0.05136584,-0.05204219,-0.05508678,0.05279428,-0.06052347,-0.00614953,-0.07199531,-0.04795113
EZLeWRbCEbA,0.08040138,0.06976105,0.13962944,-0.01516056,-0.0540668,0.04429334,0.03050402,-0.10470298,0.00471804,-0.05020277,-0.02436712,0.02168986,-0.05820576,-0.23307966,-0.03863117,0.03123504,-0.052553,-0.15032596,0.1739592,0.13143833
DQiQ30VepbU,0.03191068,0.00943185,0.07320844,0.01785804,-0.0605454,0.05580443,0.04149049,-0.12179152,0.0100085,0.00755738,-0.0550088,0.12663259,-0.13744198,0.05429689,-0.15983249,0.11135836,-0.00616619,-0.06014685,-0.00671926,-0.01159165
WB1bBLedJQ4,0.08300995,0.03048627,0.27054671,0.60342869,0.38627927,-0.04133868,-0.03567571,-0.02437039,0.00991775,4.958e-05,-0.01760801,0.04881628,0.00578014,0.10183662,-0.01586638,-0.01078519,0.02033136,-0.02981085,-0.0306251,0.00147694
eGmGoahyI-U,0.06081713,0.03715551,0.11412181,0.030872,-0.09392767,0.03433013,0.04172301,-0.14919558,-0.03554879,-0.01894691,-0.06581313,0.19728603,-0.09150232,0.17384576,-0.0170864,-0.00952177,-0.01484485,-0.07907211,-0.0608183,0.11020665
ckyeC880OPA,0.04417468,0.03869902,0.09717383,0.01313417,-0.05319905,0.0280616,0.03309931,-0.07321051,-0.02223219,-0.04575687,-0.02171892,0.03347853,-0.12420922,-0.01090656,0.00580276,-0.02882313,0.00693954,0.08655729,-0.00424729,-0.02587962
bFO0uAMPx1g,0.01511159,0.0059906,0.03605686,0.01365723,-0.02176182,0.10743867,-0.04345113,-0.0036833,-0.00124114,-0.0114402,-0.00219999,0.00252696,0.00541492,0.01669743,-0.04204931,-0.03621709,-0.01295804,0.03152365,0.0796628,0.03196853
NM-bwZZoX80,0.08268925,0.05032864,0.16436836,0.03954565,-0.17038315,-0.02699405,-0.02282469,-0.09275364,-0.05377351,0.31355336,0.12700774,-0.04029179,-0.02399402,0.05380974,0.02086948,-0.01437123,0.10686034,0.1579581,-0.04651204,0.12515206
0EqJD2o-Mnk,0.00938373,0.0043785,0.03628524,0.01173466,-0.02100142,0.15458075,-0.07116469,0.0282224,-0.01665832,0.00371257,-0.02565165,-0.03623193,-0.00252724,0.02913458,0.14759477,0.23417502,-0.17825524,0.14376546,-0.09765933,0.03775784
4ZK7Ms4IZ7g,0.0193051,0.0112196,0.05494867,0.00133355,-0.01363205,0.27181474,-0.12122346,0.07986986,-0.02232171,0.05780115,-0.12171932,-0.04042588,0.00135844,0.06543938,0.19100027,0.23783878,-0.18133059,0.15901885,-0.24739151,-0.03269104
Lnhy0tZ8SUI,0.01925966,0.01725473,0.03810468,-0.01023611,0.00927499,0.19544728,-0.09070415,0.06684266,-0.00753818,0.0496375,-0.11001047,-0.01405033,-0.00922647,0.01919022,-0.00895765,-0.06255251,-0.04060369,0.07633634,-0.11933277,-0.08099084
6XxQMeqG1P4,0.07974274,0.07256384,0.15671653,0.01068794,-0.09721171,0.04810091,0.06330236,-0.20014656,0.03472308,-0.11557951,-0.00295945,-0.1006835,-0.14057872,0.07258043,0.01040879,0.00431509,0.04771271,0.09754101,-0.04570967,0.05814008
k30WHO9_ppU,0.72798451,1.15169913,-0.32761043,-0.01358623,0.0948547,-0.00511215,-0.00965542,0.05961955,-0.0088106,0.01709385,0.00725288,0.01870173,-0.00432948,0.01043414,-0.01294172,0.01058864,0.00859134,0.04355901,-0.02000064,-0.01159872
NlW_R21cBXs,0.04660113,0.0102262,0.09590219,0.03762943,-0.06359824,0.03207094,0.01771334,-0.05660826,0.01163355,-0.06270481,-0.08906935,-0.01273578,-0.05378741,-0.06625641,0.03817302,-0.07042166,-0.05821731,0.05580238,0.18416402,-0.0604914
