video_id,lsa_1,lsa_2,lsa_3,lsa_4,lsa_5,lsa_6,lsa_7,lsa_8,lsa_9,lsa_10,lsa_11,lsa_12,lsa_13,lsa_14,lsa_15,lsa_16,lsa_17,lsa_18,lsa_19,lsa_20
MjWI_rWQL68,0.01448682,0.0092156,0.04659312,0.01254306,-0.0220038,0.15245364,-0.04294049,-0.03356028,0.02504396,-0.32917642,0.42563389,0.10297801,0.03480183,0.01363349,-0.1748781,0.04910744,-0.02901401,0.12339817,-0.08314323,0.05923082
B9ocddyGfo8,0.01156759,0.0014554,0.0335591,0.02766858,0.00556387,0.13034252,-0.06233787,0.01511903,-0.00418291,0.02031244,-0.02298393,-0.01351727,0.00432336,0.02381322,-0.12345991,-0.1135946,0.05973472,0.02340335,-0.01902159,0.02440554
k8j-6Xvw_G4,0.00352652,0.00115157,0.01089673,0.00325829,-0.0078841,0.00881455,0.00254384,-0.00117228,-0.01405687,0.00850497,-0.01564431,0.02186028,0.00935236,-0.0099423,-0.00224809,0.04313427,0.03651893,0.03337742,-0.01390671,0.00729208
lDyiY5vjqaw,0.0146894,0.01180185,0.03046348,0.02046837,-0.00105185,0.06952403,-0.02631494,-0.00451949,0.00088841,-0.00293742,0.00091638,-0.00663799,0.00266642,-0.01058614,-0.02433993,-0.01564319,-0.00926431,0.00745353,-0.01119721,0.02729252
4m_M1Wpnr2Q,0.01219939,0.0046829,0.04149446,0.01557352,-0.02314727,0.11478451,-0.04969584,0.01357499,-0.0063709,-0.03540825,0.00426543,0.02170711,-0.00607203,-0.02067939,-0.07789417,-0.15875457,0.06176028,-0.02762854,-0.04235287,0.00696323
9iKWeo8sWh4,0.0163793,0.00636175,0.03912331,0.01038298,-0.02365318,0.12108253,-0.04776902,0.01226784,0.00678686,-0.09213689,0.02844466,0.03632593,-0.03380764,-0.07534402,-0.1806874,-0.24915995,0.08286875,-0.02670068,-0.09410699,0.07990732
T_LWKGJDKgo,0.01816966,0.01389176,0.05053396,0.02226139,-0.02639825,0.16662876,-0.03598349,-0.05266626,0.03797967,-0.4208337,0.54099748,0.12965763,0.02792548,0.02211845,-0.19051655,0.04739494,-0.02718307,0.11394811,-0.08916159,0.07981669
NdU6UdUKaYc,0.01003173,0.0059334,0.0521387,-0.00679459,-0.00343442,0.26107813,-0.1144511,0.07558139,-0.00094335,0.07126408,-0.08872035,-0.02432263,-0.02980149,0.01136474,0.05446638,0.12665303,-0.06471603,-0.05362033,0.05872279,-0.03244549
SVTPv4sI_Jc,0.0178713,0.00310534,0.03826314,0.00132263,-0.00693071,0.11125094,-0.03752957,0.02042897,-0.0038176,0.0529434,-0.04928857,-0.00817295,0.00126569,0.02329852,-0.02851329,-0.0021827,-0.03449655,0.05272548,-0.0276023,-0.00514096
PGBt4pOj4Vc,0.05357933,0.02309378,0.13434553,-0.00017285,-0.04242228,0.01816209,0.01544747,-0.08946297,-0.01799188,-0.01775734,-0.00271201,0.08945587,-0.07627721,0.00949774,-0.05200906,-0.04263516,-0.07164545,-0.05238479,0.10772095,0.01324513
n2T6AOoUkOM,0.01212347,0.00887326,0.04228036,0.01508584,-0.00733471,0.17828249,-0.08261781,0.0206874,-0.00911924,0.04286203,-0.02672983,-0.01135078,0.01080119,-0.00638961,-0.11205541,-0.11086452,0.08468676,0.05443799,-0.00939952,-0.04527592
Rij6WQMuxcw,0.05766167,0.07820671,0.00930412,0.01496025,-0.00810219,0.2418067,-0.111755,0.08747049,0.03589649,-0.0301139,0.09352671,0.05871159,-0.0129799,0.02213414,0.10590721,-0.00712503,0.09420187,-0.17982914,0.10271798,-0.09904912
4s9LuOSR3Q4,0.01436022,0.0065712,0.0310914,0.00745544,-0.00788441,0.19965104,-0.09287293,0.04818988,0.00732499,-0.00847281,0.03455017,0.01737291,-0.00992116,0.00959352,0.05226944,-0.01578965,0.07229731,-0.1236851,0.07164139,-0.06804666
1_H80JEZ2ko,0.03836384,0.03307345,0.0368007,0.01168567,-0.02801557,0.0190628,0.03288571,-0.06007197,0.00997058,-0.01129195,-0.0369241,-0.01449559,0.03582486,0.02332391,0.00821894,0.00274705,0.03885529,0.0058076,-0.01044142,0.04693643
P1DSZNhApJA,0.02670535,-4.793e-05,0.0627294,0.02812896,-0.05665825,-0.00044104,0.00403712,0.03693215,-0.08465783,0.03727415,-0.04135685,0.137854,0.04210264,-0.11229752,-0.0318436,0.24417184,0.19990097,0.04547402,0.01019061,0.00933832
fRjAMALJ0r0,0.05161135,0.02208762,0.1045551,0.04230942,-0.04258287,0.0407355,0.02306603,-0.08578544,-0.01560976,-0.07096171,-0.09476111,0.16323879,0.18278018,0.02875041,0.0643445,-0.11983512,-0.02823739,-0.06803817,0.02835112,0.06893557
4yDM3ZFcQm4,0.0060695,0.00341351,0.02644705,0.00807009,-0.00854335,0.20710527,-0.09594795,0.05105515,-0.00462031,0.00506652,0.04448471,0.02529933,-0.00649586,0.02917441,0.14521959,0.00756003,0.04605072,-0.06545392,0.0600586,-0.08272492
7Y7Iv5XAXwI,0.01689425,0.01070605,0.0430278,0.00879283,-0.02224634,0.12468022,-0.04944428,0.01433309,0.00496461,-0.07884733,0.05704004,0.01304517,0.00202704,-0.03434901,-0.08027374,-0.065101,-0.00915914,0.0156726,-0.0364481,0.0157855
IEJALLQFmDs,0.00887531,0.00189821,0.03172401,-0.00806657,-0.00019793,0.13097336,-0.0538019,0.03395057,0.00204396,0.05717432,-0.06573121,-0.03593229,0.00019532,-0.00708064,-0.04530583,0.04450606,-0.02067584,0.00868576,0.01563947,0.02043046
OrI86PV-aPg,0.0754055,0.01676781,0.10407838,0.03846704,-0.09199556,-0.01972323,-0.01651588,-0.05577614,-0.00736372,0.11727174,0.08963211,-0.04056654,0.04527317,-0.05445988,0.00999638,-0.03104008,0.04796003,0.03506089,0.07596602,0.00451511
QPWScf-86po,0.02531549,0.00809428,0.05336088,0.01792522,-0.02826067,0.19089596,-0.07413358,0.05211076,-0.01727915,0.0187068,-0.02213614,-0.00052123,-0.01770917,-0.0134603,0.01612168,0.03375871,-0.01289843,-0.0244728,0.04928968,-0.04883886
V6VQ54eTok0,0.00539415,0.00233671,0.02414329,0.00817146,-0.01006865,0.13017376,-0.05942921,0.03028608,-0.01945617,0.02399628,-0.00185525,0.00277831,0.01363493,-0.03414362,0.17551754,-0.0309274,-0.14692806,0.15788611,-0.05103466,0.11165605
ksn5yrsC3Wg,0.02104062,0.00710142,0.05426641,0.01192982,-0.01618862,0.23510094,-0.09331509,0.04547795,-0.00343233,0.00228033,0.08162962,0.02418114,-0.01577945,-0.00885893,0.10366115,0.04250631,-0.00720348,-0.05854335,0.05298714,-0.03226503
WOTUpoI2LQA,0.0365418,0.02999641,0.07712089,-0.03394411,0.00665826,0.00778929,-0.01009566,-0.03102239,-0.00727298,0.00784486,-0.00177733,0.02042618,0.02873526,-0.0485392,-0.01026474,-0.01168642,-0.01788478,-0.03282641,-0.02654364,-0.01343174
qgzwtKsXCMo,0.00698009,0.0031246,0.02195105,0.00621518,-0.01587204,0.01746085,0.00093062,-0.01406784,-0.00713265,0.00078333,-0.01641415,0.00279161,0.00898799,0.02102464,0.00381461,0.03241443,0.01934044,0.00198196,-0.02986341,0.04008822
Czf68kDF_7Y,0.00943933,0.00467183,0.04065151,0.02093387,-0.00912833,0.20156602,-0.09564773,0.0462818,-0.00810365,0.01356877,-0.00194834,0.00927941,-0.01054331,0.02345255,-0.20525219,-0.23175338,0.13751947,0.02064186,-0.04936275,0.01087982
5LJ1cxjQhyE,0.02189534,0.01534967,0.0339646,0.01660537,-0.01667482,0.06870499,-0.02430182,-0.00201639,-0.01461928,0.02238001,-0.01629352,0.01056057,-0.01715156,0.00683595,-0.02246049,-0.00993353,0.00979993,0.01347803,0.00460342,0.01281445
MOrBFf1DVvs,0.01637416,0.0090176,0.03551708,0.01496523,-0.010071,0.15781104,-0.07492535,0.02460305,0.00088058,-0.0194292,0.00276735,0.0079603,0.00244298,-0.00864373,-0.15226515,-0.13461794,0.07107795,0.01150426,-0.05517388,0.02339312
AtSQBfBK6HE,0.01590827,0.00722115,0.02781329,0.01138933,-0.01153626,0.17170653,-0.07358486,0.04034601,-0.002825,-0.01165783,0.07395945,0.02482124,0.00354804,0.04207665,0.16249469,0.00767078,0.01951788,-0.06656663,0.06399343,-0.06974415
dqazxW8R5BY,0.00408066,0.00196913,0.01723986,0.00424838,-0.00739666,0.10124396,-0.04241628,0.02900501,-0.00705257,0.02462866,-0.01356053,0.0063182,0.00645604,0.00372026,0.02573996,0.01871585,-0.01971593,0.0129979,0.00708501,-0.01762732
U5l0Z8T4tCk,0.0015576,0.00196101,0.0047817,0.00530402,0.00393725,0.00388437,-0.00099367,-0.00465719,-0.00166561,-0.0015508,0.00089133,0.00607096,0.00313883,-0.00982834,-0.00355253,-0.00575898,-0.0001824,0.00089214,-0.00173891,-0.00272755
vmRbevilfpU,0.10486596,0.06524516,0.07591404,0.02084824,-0.06015279,0.01204714,0.03230525,-0.13444238,0.04103449,-0.02716497,-0.01526418,-0.11970911,0.02906205,0.09059881,0.01221354,0.09024683,0.02420376,-0.02657372,0.07341927,0.09923372
GDex3WIPF7c,0.01286497,0.01032339,0.03652199,0.01554838,-0.01051892,0.16216849,-0.07284746,0.02085814,0.00035226,-0.05382557,0.11178062,0.04734549,-0.00126608,0.03721754,0.17628417,0.0290843,0.01178831,-0.06199958,0.05610672,-0.07558479
UncqiOQc4rI,0.01051876,0.00705334,0.03975308,0.00169761,-0.00930604,0.11376532,-0.05517443,0.01562359,-0.00870149,-0.01129647,-0.01456071,0.02118649,-0.02061372,-0.0243222,-0.10641458,-0.1541003,0.07683319,0.01850605,-0.0726824,0.02563614
0y8vRPcSvbw,0.01836697,0.01419388,0.04646252,0.02065423,-0.02005537,0.13685829,-0.04843728,0.00432496,0.00752332,0.01883855,-0.01344913,0.00102796,0.0101505,0.0011446,-0.12916629,-0.07987387,0.06192123,0.00976135,-0.03587941,-0.02778508
ydRguU_cH8Y,0.01484857,-0.00304822,0.02605438,0.01114761,-0.00769607,0.12715231,-0.06449987,0.03848848,-0.00277548,0.05300622,-0.09405824,-0.00568907,-0.00048874,-0.01846049,0.01681716,0.10947683,-0.00453952,0.03790739,-0.0186684,0.07875206
Su0aCV35IFM,0.01080498,0.0073292,0.03903708,0.00815635,-0.01212828,0.25767536,-0.12178937,0.0628187,0.00353774,-0.02287655,0.12107537,0.04884928,-0.00948062,0.04934494,0.27933279,0.05221746,0.04705224,-0.19387607,0.13282144,-0.14274096
snM0UfZxakc,0.02035787,0.00215093,0.04498019,0.02318447,-0.00759166,0.16433227,-0.06340333,0.02455275,0.00856626,-0.0153632,0.01488532,0.00866731,-0.01856327,0.00719587,-0.15520432,-0.16717558,0.09934749,-0.02194241,-0.02045626,-0.03408877
A2O_CSDImRs,0.01735559,0.00926544,0.06615127,-0.01775764,0.00652027,0.35873485,-0.15593251,0.11279691,0.0155914,0.0891471,-0.09128725,-0.04886337,-0.02873356,0.00992597,0.0263132,0.11444994,-0.00358193,-0.12147434,0.08509488,-0.05642135
SAtFZPtbMpI,0.0068952,0.00543094,0.01795349,0.00333641,-0.00626666,0.02715731,-0.00399838,-0.00655127,-0.0032586,-1.928e-05,-0.00872039,0.00460822,-0.00247482,-0.00625273,0.00417475,-0.01206361,-0.00317247,-0.02219604,0.00299482,-0.00861729
reCJ5EuvukI,0.01659257,0.01392478,0.0226706,0.01018727,-0.00446975,0.06550238,-0.02258853,0.00650472,-0.00171096,-0.00625925,0.01402706,0.00744259,-0.00551189,-0.00468752,0.02044598,-0.01197298,-0.02436242,0.02253486,-0.00051979,0.01850619
66gMxbNKaYA,0.10474865,0.13571554,0.06898754,0.02646872,-0.06604044,0.02069017,0.03933616,-0.09572267,-0.01516262,-0.01885258,-0.05118876,-0.07313319,0.03270582,-0.08084307,0.03137207,-0.02256677,0.00697043,0.07076196,-0.0315727,0.02905202
iBpxQpktHN4,0.00354332,6.584e-05,0.0106964,0.00300102,-0.00841885,0.02650354,-0.01901515,0.01744953,-0.0044604,-0.03198272,-0.00297051,-0.00491121,-0.00067688,-0.0131934,-0.03432547,-0.02596765,0.00511098,0.0094886,-0.01932851,0.01300576
33HT7CnI79k,0.00658429,0.00391972,0.02737492,0.00967993,-0.01088056,0.20030403,-0.09106783,0.04486468,-0.00375912,-0.0171431,0.08041026,0.05683941,-0.03410197,0.04602574,0.24029201,0.03463405,-0.00424892,-0.1306591,0.0907896,-0.10822582
jLFG_FZKbks,0.02101306,0.00801391,0.06389595,-0.00841999,0.00021189,0.20885776,-0.08505245,0.04443234,0.00189922,0.05601833,-0.10672637,-0.04315795,-0.02187696,-0.01254474,-0.05662433,0.04880854,-0.01483381,-0.05125241,-0.00104457,0.00507362
jKTNMlUEdgU,0.00040823,0.00020796,0.00184887,0.00083351,-0.00026367,0.0068922,-0.00323496,0.00085427,-0.00072623,0.0011832,0.00052472,-0.00016635,-0.00057279,-0.00302173,0.00190112,-0.00033066,0.00126724,0.00123486,0.00255124,-0.00270231
KUvWaj4IFZg,0.07227747,0.04335577,0.02629191,0.01856971,-0.00522289,0.01798131,0.01082444,-0.05417761,0.00361834,-0.01637842,-0.01145534,-0.03329734,-0.01910443,0.04527456,-0.00548598,0.03156183,-0.00781643,-0.02996402,0.04289439,-0.00807035
ExlWYbISs6I,0.01727494,0.00474145,0.05618917,0.0193016,-0.02366053,0.18544207,-0.08676747,0.02522548,-0.01469522,-0.00600195,-0.03842837,0.00021801,0.0229242,-0.06887291,0.02102562,0.06844942,-0.10417154,0.04543744,-0.06931558,0.14689177
a1aFhMw2wQE,0.14723859,0.0285245,0.1206089,0.04063743,-0.13732132,-0.04065559,-0.03726994,0.02207566,-0.03624264,-0.12358948,0.01319155,-0.11780509,0.03208361,-0.00271514,-0.05716756,0.01948966,-0.03774477,0.04636636,0.03283425,0.07222402
FMdrD_jcYgE,0.01204047,0.00553192,0.04153331,0.01025527,-0.0232407,0.1450759,-0.05957567,0.01884235,-0.00744308,-0.02514631,0.02309401,0.03741451,-0.0062212,-0.00022814,0.14246528,0.01172989,0.01373899,-0.04927451,0.07354461,-0.06633184
3PZ3d4eNWrc,0.01517013,0.01317473,0.04836334,-0.00060459,-0.01142378,0.23836287,-0.11076524,0.06205328,-0.00346104,0.09126959,-0.06268582,-0.06262413,0.02601807,-0.01348436,-0.00206152,0.16004035,-0.10528396,-0.00283094,0.02925939,0.13670417
pG99B0ui06s,0.00648193,0.00273572,0.02453819,0.00597118,-0.01383272,0.10746026,-0.04760528,0.02331167,-0.00605947,0.00950487,-0.00472816,0.00394654,0.01274391,-0.01657949,0.06223619,0.03187485,-0.04552673,-0.00104102,0.00780914,0.05802741
eOI7WQIEX1Y,0.05013653,0.05836731,0.06593718,0.00881748,-0.0329772,0.03227514,0.02040194,-0.08721834,-0.0018033,-0.00531188,-0.03118754,0.04582727,0.10939541,-0.04359117,0.03591064,-0.04915757,0.00743248,-0.01404798,0.02051279,0.0303976
suqYhItddAc,0.01352947,0.00548244,0.02797619,0.00710302,-0.01585058,0.10152395,-0.0390974,0.00765301,-0.0077236,0.00510663,-0.01876637,-0.00450189,0.01833452,-0.02845525,0.0292795,0.02570047,-0.03436393,0.02280802,-0.03445024,0.08618442
kB_PJC80JhY,0.10746454,-0.02196259,0.13013964,0.03293959,-0.10713423,-0.02208719,0.00734825,0.01972723,-0.07306648,0.00241108,-0.08119851,0.24235884,-0.0918418,0.01789959,-0.00517266,0.12448055,0.08161524,-0.09266178,-0.04115744,0.05088223
mK3xENFCGnI,0.07160676,0.05405078,0.11838181,0.02535519,-0.06464063,0.02898399,0.05087615,-0.1293678,0.019754,-0.02356829,-0.03842574,-0.10670094,-0.06435128,-0.01869794,0.07951301,-0.06869926,0.04469274,-0.02503847,-0.04406813,0.08545743
bRy54zQmixQ,0.01510013,0.00850467,0.0388821,0.01403761,-0.00282152,0.16306541,-0.07168055,0.01653569,-0.00242272,0.08313531,-0.02200733,-0.00405359,0.04238457,0.02605089,-0.10598462,-0.13160007,0.05642305,0.13446681,-0.1224622,0.13193393
VVLYJf2t88c,0.0416277,0.02109637,0.12136135,0.01308959,-0.0482214,0.03513899,0.01380378,-0.12567994,0.00219059,0.01389908,0.01320441,-0.00080994,0.02401499,-0.11323252,-0.01354867,0.01881371,-0.00073541,-0.00440194,0.0722235,-0.08283846
PoHZWjU54jY,0.01489998,0.01936925,0.02093701,0.00508122,-0.00085389,0.17563033,-0.08180118,0.04203907,0.00144394,-0.01878667,0.09297576,0.0357269,-0.01348096,0.03582564,0.20148726,0.04328769,0.03743655,-0.11290016,0.09114728,-0.10539752
TmkbUF0V0hM,0.02831241,0.00876137,0.04539386,0.02614726,-0.01401222,0.19636183,-0.04256419,-0.02860687,0.03809879,-0.38433014,0.51944354,0.12318683,0.03414707,0.03712207,-0.13614921,0.05353066,-0.00900614,0.10004735,-0.05227094,0.03558199
tpay1lEGZ7g,0.05985698,0.0135992,0.13464536,0.04560842,-0.08165374,-0.00993989,-0.00894568,-0.07897134,-0.01568022,0.1018711,0.06016794,-0.05125302,0.00512825,-0.05128571,0.07384861,-0.06794682,0.07411294,0.03553647,-0.03535977,0.0116741
N-zjDtQOwxc,0.09968334,0.04555122,0.19446233,0.03164877,-0.10834949,0.00473535,0.01902647,-0.13492111,-0.01969288,0.12534179,0.02350461,0.1739838,0.20377924,-0.07259532,0.0575466,-0.05203547,0.05995421,-0.04013869,0.02614938,0.09814934
LNKCHWOW7aI,0.01062757,0.00631693,0.04408221,-0.00057142,-0.00821645,0.16287487,-0.06535657,0.00654177,-0.00203392,0.01384549,-0.01299489,-0.02464137,0.02098565,-0.03596471,0.04901006,0.00386488,-0.11218379,0.03968982,-0.02412446,0.07044145
fuxYQrqkfns,2.378e-05,2.888e-05,6.955e-05,1.132e-05,-4.928e-05,6.848e-05,5.121e-05,-0.00022931,4.022e-05,-1.308e-05,-0.00029207,-0.00046236,-0.00024979,0.00026668,0.00035294,0.00038155,-1.718e-05,0.00116851,0.00044707,0.00104302
pXI3xinu4bc,0.00788988,0.00373737,0.0330988,0.00754911,-0.00564203,0.12088806,-0.05734993,0.01804106,-0.01615167,0.04037215,-0.06199271,0.00723833,-0.02088982,-0.03907437,-0.04904822,-0.02835264,0.03619623,0.04005542,0.00511009,-0.02005113
PnpHwhTWw0c,0.02523919,0.02243934,0.04692957,0.00315645,-0.00905473,0.14724048,-0.06889164,0.02088273,0.00640302,0.01907054,-0.07498017,-0.04918728,-0.02112484,-0.00913717,-0.07938387,-0.06850885,0.06581083,-0.09548984,-0.01507173,0.04690445
Hk-ARbCTKzM,0.01923459,-0.00043695,0.04070001,0.01284866,-0.00755853,0.17254183,-0.08066123,0.0286237,-0.00436566,0.04459788,-0.06600379,0.01942437,-0.02164648,-0.03687783,-0.03942902,-0.01612338,0.04943862,0.06202339,0.01353366,-0.03022119
QNHEqcXa3Zg,0.10954626,0.0952054,0.13103093,0.01845333,-0.07034721,0.02831924,0.04579674,-0.11243815,0.01408303,-0.087174,-0.06031318,-0.0954844,0.00108748,0.06603181,0.08385373,-0.04648347,0.02797985,-0.00206712,-0.0308635,0.05088675
W65cfPslnzo,0.01035723,0.00215813,0.02742226,0.00931939,-0.01253463,0.11965094,-0.04780317,0.02093898,-0.00639554,-0.01666568,0.03157605,0.0119152,0.00565864,0.00098739,0.03045007,0.00110824,-0.00685977,0.01113048,0.01619382,-0.047606
ucN2hf0CgI8,0.02252902,0.00838989,0.03883473,0.0175709,-0.02091655,0.07619246,-0.02284187,0.0028759,0.01315801,-0.02475137,0.0292348,0.00072786,0.00464048,-0.00728443,-0.00667241,0.01043186,-0.00826104,-0.02088097,-0.01761717,-0.00912685
rfRFwXnk660,0.03546067,0.00176039,0.04671079,0.00980718,-0.03217995,0.00418906,-0.0035063,-0.01614882,0.00078317,-0.03263124,-0.03251399,0.02434762,0.01704298,-0.0746646,-0.00349853,-0.03090625,0.00998608,-0.00391926,0.01685144,-0.03257686
-CTY5XDxt8E,0.00550891,0.00261522,0.02319694,0.00733945,-0.00649417,0.1777148,-0.08052497,0.04425561,0.00016086,-0.01333,0.07345713,0.03142046,-0.00993292,0.03535603,0.20075429,0.0413219,0.02971115,-0.11853297,0.0870672,-0.10094566
xjcVnFd-4YA,0.01535646,0.00789928,0.02336983,0.00781869,-0.01744265,0.02071674,-0.00336003,-0.01926652,0.00131197,0.00714357,-0.01368189,0.01288959,0.02351905,0.0151226,-0.00176463,-0.00082529,0.00266969,0.0050717,-0.01110152,0.01103112
p4zPmpXfGyY,0.03086479,0.00884876,0.07905658,0.02077093,-0.02250753,0.25203171,-0.0975528,0.05467047,-0.00447919,-0.03045596,0.05166055,0.01135856,0.01880986,0.01102249,-0.0110914,-0.02563542,-0.00662876,-0.01925826,-0.05208423,-0.03314427
WgcdDVIUXcI,0.04818956,0.03603895,0.08460055,0.02472737,-0.06627534,0.03045062,0.05107159,-0.06440546,0.04050823,-0.05048305,-0.01326584,-0.07214007,-0.02768499,0.00780186,-0.04378627,-0.07872332,-0.02709417,-0.07764118,0.03154084,0.01516185
mpZK1dqX6aA,0.00134505,0.00124456,0.0028694,0.00130085,-0.00085511,0.01356939,-0.0049685,-0.00087497,-0.00051279,-0.00111406,-0.00041209,0.00101232,-0.00033391,0.0022942,0.00891627,-0.00413728,-0.00411025,0.00184413,0.00183685,0.00371573
OEtIq4tR1rA,0.01068053,0.00462559,0.03772749,0.00975479,-0.02232811,0.10963738,-0.03841058,0.01898715,-0.00212622,0.01492973,-0.05117639,0.00536246,0.00728988,-0.01536011,-0.12165189,-0.03201162,0.08447315,0.00960879,-0.00606582,-0.03234915
tkLxg6h07aE,0.03120957,0.01116324,0.06866144,0.03427772,-0.02321401,0.32440072,-0.10505597,-0.02004992,0.04522802,-0.47257861,0.63914576,0.15432318,0.024271,0.0632718,-0.03801005,0.06985395,-0.03400572,0.03793748,-0.00596815,0.03724922
81RBVN6P9cM,0.02766841,0.01080086,0.05692131,0.00651029,0.01210505,0.1504283,-0.03853476,0.03169048,-0.00055698,0.06216224,-0.01666965,0.00965726,0.02125949,0.00497343,-0.11483383,-0.14331262,0.0867147,0.07578688,-0.10380036,0.06515934
2r0m4TsyIxs,0.0098259,0.00105535,0.0228119,0.0064304,-0.01406559,0.08619803,-0.04137407,0.02170933,-0.00897217,0.00810753,-0.02021648,0.0007402,0.00195098,-0.00800037,0.03041043,0.0319545,0.04052157,-0.03406394,0.02324555,-0.02276672
W41XcEogOB0,0.01913199,-0.00149611,0.03111292,0.01893667,-0.00642924,0.11878977,-0.04176999,0.01095362,0.00451947,-0.06098917,0.0797132,0.03284071,-0.0129049,0.01156756,0.05764653,-0.00141558,-0.0699593,0.02277739,0.01526391,0.05219403
8TvJvfKz8Fo,0.06091891,0.01077539,0.13259617,0.03564932,-0.11557215,-0.0185795,0.01455145,0.08380845,-0.04471175,-0.04276921,-0.05631203,0.00671172,0.05971729,0.04847314,-0.06911635,0.14648216,0.06213375,0.06960077,-0.08020117,-0.00014279
8--Bq5oEsZ8,0.03160865,0.02374012,0.0217517,0.01191505,-0.02475877,0.03485161,-0.02554714,0.02801088,-0.01786891,-0.02436421,-0.0118484,0.02163417,-0.01351459,0.01289161,0.01364815,-0.00737898,-0.01928422,0.01245309,-0.0158023,-0.01966028
s6XPoPYDn-Y,0.01715377,0.00771973,0.0436234,0.01703135,-0.02433926,0.15815473,-0.03840911,-0.04170128,0.03720067,-0.38162524,0.50468873,0.11381445,0.0376148,0.02099138,-0.17235011,0.04041931,-0.03151132,0.12109512,-0.07792336,0.07523489
8OjVlmrtW4M,0.16566251,0.0347762,0.13020497,0.05038238,-0.1109097,-0.00764882,0.02248429,-0.09755754,-0.00641689,-0.03675946,-0.03853209,-0.01023408,-0.12326522,0.16748667,0.0111893,0.09001443,0.05071715,-0.02889719,-0.10331783,-0.04811761
5z8hOrxhApI,0.05305028,0.0115401,0.0998541,0.03775256,-0.07585478,-0.00579678,0.0181971,-0.00666064,-0.04496438,-0.01886338,-0.05682585,0.06431394,-0.03837585,0.04888259,-0.03042209,0.0728843,0.04488738,-0.03090308,0.0455057,0.00832663
JjwHFerSu4M,0.04678665,0.03072936,0.07910078,0.02911238,-0.0278154,0.06317339,0.04063916,-0.10528999,0.01085542,-0.09082086,-0.02541833,-0.00457946,-0.02440972,0.0132076,0.04494196,-0.06522092,0.07834324,-0.01799525,-1.8e-05,0.06870355
OCGgYu3vku4,0.0966032,0.0942311,0.06069531,0.02708128,-0.04875887,0.01669197,0.0128442,-0.05348445,0.00594721,-0.05159775,-0.06961101,-0.01742456,-0.01302411,0.02259619,0.03678379,-0.025751,0.03962578,0.02062213,-0.01044087,0.01547545
yE8fJOgv7Pc,0.01728872,0.0021048,0.04550478,0.01224323,-0.02809843,0.1275507,-0.04478585,0.01524048,0.00381061,-0.10305801,0.03357128,0.03274162,-0.03942648,-0.08150067,-0.19016794,-0.28816875,0.08706972,-0.02857177,-0.09943548,0.07717961
JWOErbTL9N4,0.01515238,-0.00022859,0.03286164,0.00321087,-0.01014621,0.1279835,-0.05329274,0.01101796,-0.00894051,0.02068851,-0.00974669,-0.00174787,0.00413376,-0.03311705,0.04083288,0.01985385,-0.06324782,0.03244829,-0.00864864,0.04283226
dl0-TveDDGA,0.00985378,0.0062371,0.04434342,-0.00168392,-0.0060057,0.21528923,-0.09677686,0.06527874,-0.00594765,0.08060869,-0.08941525,-0.03357558,-0.00632616,0.00553499,-0.07424865,0.03021089,0.01268196,0.01016869,0.00050334,-0.02713981
pUlUgkaTQZg,0.00920315,0.00494899,0.03973609,0.01813823,-0.00836641,0.19536275,-0.08286241,0.03042249,0.00081474,0.02800954,-0.00164016,-0.01278144,0.00639463,0.02672998,-0.06440036,-0.10578389,0.05891811,0.01761533,0.00114008,-0.01714409
if955Z_s4Ts,0.01254314,-0.00270541,0.020708,0.00686385,-0.00494638,0.12283768,-0.05589145,0.02926303,-0.00652906,0.05517622,-0.08082702,-0.026192,-0.01411564,-0.02345015,-0.03910153,0.00414791,-0.02716308,0.04257003,-0.00178407,0.00950984
BdUzhVM5w1U,0.00993227,0.00352484,0.02649654,0.00465787,-0.00702054,0.15610719,-0.07336751,0.03152749,0.00040126,0.04935322,-0.05645505,-0.0265202,-0.02243198,0.0355594,-0.04890046,-0.0105581,0.04515145,-0.02590075,0.06283583,-0.0709426
dU5sDKcwN9E,0.0210408,-9.259e-05,0.04568076,0.00450286,-0.00357557,0.24248515,-0.10429691,0.05601621,0.0051219,0.03486468,0.00773339,-0.01434224,-0.0097586,0.02818488,0.06942636,0.07093853,-0.01701881,-0.05330658,0.05533233,-0.05224113
5YKhtb3DNNo,0.06065391,-0.01174447,0.06447857,0.03698498,-0.01802476,0.01122809,0.01502862,-0.05224286,0.00841371,0.08993184,0.04065851,0.03043312,-0.04698129,0.00413657,0.04717272,-0.03765227,0.02243689,-0.00359988,-0.13990851,-0.07546215
2ZV29QhLfjw,0.06710654,0.05850797,0.08497226,0.02718055,-0.05769131,0.03860109,0.03312012,-0.10372087,-0.01040213,-0.02834722,-0.03640541,-0.03415988,0.02194832,-0.0420752,0.08673712,-0.06947675,0.07126801,0.06860508,-0.04740645,0.01977429
Lqq78q17jDY,0.117253,0.06476948,0.2132918,0.01025476,-0.0891008,0.0276081,0.02650029,-0.23862874,0.06851476,-0.20988552,-0.07271324,-0.28295764,-0.12697438,-0.15534804,-0.19007136,0.13675799,-0.20231206,0.38533307,0.33935961,-0.35058452
XoDfpxBy8Ag,0.05371804,0.01000575,0.12714142,0.04870444,-0.07053757,0.04307755,0.04224611,-0.14769721,-0.04463337,0.05252601,-0.08021561,0.34373387,0.12479197,0.07941922,-0.07002195,-0.00638856,-0.19540054,0.06399644,-0.00504153,-0.06982842
IrGd4xIhTN0,0.01076933,0.00532032,0.03451742,0.01101998,-0.01445787,0.15869516,-0.06048067,0.02284951,0.00161915,-0.03311003,0.06778276,0.0366841,-0.00288611,0.02650313,0.17023188,0.01958536,0.0236529,-0.11038745,0.0618046,-0.07928621
4Zi41MRVP0g,0.08502266,0.03509911,0.10799506,0.14878986,0.07276058,0.01654579,0.0212998,-0.1030669,0.0271286,-0.04382166,-0.03045377,-0.06949962,-0.02157846,0.05957158,0.06307207,-0.0094852,0.04932074,0.01381647,-0.00902464,0.02762351
fwUWAoSeg2g,0.03981875,0.02581216,0.14919969,0.24540536,0.20453937,-0.02123045,-0.02209718,-0.0177511,0.00350123,-0.01342025,-0.01210977,0.02140911,0.03482939,0.00926801,0.00110856,-0.02936282,-0.02631067,-0.04169933,-0.02087741,-0.00703539
Hpl10gpuOGw,0.14139745,-0.03038229,0.18432373,0.06699748,-0.16590366,-0.06653525,-0.0832825,0.08848219,-0.05597076,-0.1607586,-0.02829456,-0.07804813,-0.00524235,-0.01182404,-0.0631258,-0.13132385,-0.07164328,-0.11535637,0.02415373,-0.01816044
R-klQGp_308,0.01781824,0.01959265,0.02934528,0.00915382,-0.00998474,0.14944652,-0.07146089,0.03657482,-0.01623547,0.00692284,0.02156408,0.0259282,0.00529943,-0.01884139,0.0176292,-0.007982,0.01199861,0.01167681,-0.00848978,-0.00897061
ERWIJPTNZVM,0.00559458,0.00551648,0.01448698,0.0078229,-0.0032899,0.04178828,-0.01311862,-0.01027607,-0.01171627,0.0150098,-0.0186446,0.02041553,0.03235258,0.00453234,-0.00346253,-0.01238782,0.01342407,0.06499836,-0.06136926,0.04128098
98VQpHj17Ws,0.01363005,0.0099209,0.03564685,0.00672203,-0.01916235,0.06677728,-0.0255191,-0.00755346,-0.00868182,0.01683771,-0.02835792,0.00707067,-0.01412249,0.01781829,-0.01531328,0.0116273,0.03260825,-0.01117176,-0.02746873,0.03923434
4at2bVIhLgc,0.00969185,0.00294238,0.01635899,0.00392622,-0.00321443,0.11348891,-0.04464316,0.02919956,0.00099974,-0.01638871,0.07478038,0.02747715,-0.00926545,0.0306447,0.16752351,0.02069986,0.01092857,-0.06532749,0.04926144,-0.05762179
UPbaPjDGQIE,0.00919658,0.00459996,0.0410767,0.00171918,-0.00327955,0.1699205,-0.08297893,0.03947231,-0.00767183,-0.00909855,0.03732341,0.01636778,-0.0115521,0.02990008,0.12600554,0.0087448,-0.00211182,-0.02555481,0.04770654,-0.08044574
ndkH5fZSIvs,0.02030332,0.0080071,0.06502806,0.06695626,0.03234633,0.15912789,-0.08087347,0.01566322,-0.01558929,-0.02173472,0.03909416,0.02668897,0.01313315,-0.02202591,0.00699739,-0.02164613,0.04070169,0.02389202,0.00790168,-0.02947445
eRD2C7w9r6Y,0.04570131,0.03652589,0.03422565,0.01233202,-0.02695471,0.01979055,0.04024589,-0.04618431,0.00380446,-0.02998267,-0.02673127,-0.03134293,-0.00752581,0.01718971,0.01921838,0.00333034,0.03676445,0.01553754,0.01842228,0.05325315
vgwG6e9TFcw,0.0113901,0.00812348,0.03558801,0.00661721,-0.01336127,0.16389096,-0.08459417,0.04109596,0.00335066,0.02943118,-0.07642004,-0.04645088,-0.02574376,0.05248225,-0.19645299,-0.15968057,0.19346411,-0.09274709,0.02800385,-0.03604898
465Vc9I4fvc,0.01571691,0.01029605,0.04944852,0.00902343,-0.00361205,0.21677068,-0.10968988,0.055642,0.00822025,0.06277962,-0.09241132,-0.06207388,-0.01329187,0.08308084,-0.29119496,-0.22922491,0.23263433,-0.02721205,0.00353005,-0.04611949
uWa0odbimaU,0.14621494,0.00411464,0.12166572,0.03891386,-0.10001725,-0.00551996,-0.00200387,-0.11965654,0.31953209,0.07790278,0.01847271,-0.05661475,-0.00095206,-0.00511781,0.07799474,-0.01858911,0.06784523,0.06378558,0.09281786,0.04368785
5wuHYQMnYhA,0.01657709,0.00788701,0.03859495,0.0147704,-0.01876955,0.14578449,-0.06760976,0.0266868,-0.01704773,0.0094453,0.01385289,0.00303115,0.0079825,-0.00828692,0.17826814,-0.07784754,-0.1519299,0.19252336,-0.06083877,0.10732678
dNNyCZwEa6k,0.0100027,0.00473401,0.04339939,-0.00013739,-0.01102546,0.1516164,-0.06253427,0.03593006,-0.00629746,0.04420353,-0.04441177,-0.01176475,0.00946548,0.01617573,-0.02700514,0.01072634,-0.00624313,0.00789656,-0.00126645,-0.01286108
ywEV7NQlO1Y,0.02727263,0.02845424,0.06293882,-0.02184692,0.00117523,0.03172112,0.00192097,-0.02453552,0.00246603,-0.05116111,0.0076047,0.01212349,-0.00333365,-0.02906523,-0.02844291,-0.07882871,-0.01296983,-0.0381088,-0.05366548,0.02927544
1baBzd1XPkU,0.01380996,0.00439999,0.03304138,0.00302772,-0.0151505,0.05712567,-0.02931053,0.00572498,-0.00351732,-0.01043557,-0.0017943,-0.00394962,0.00572083,-0.01125939,-0.01828438,-0.02178774,0.04090801,0.00262248,-0.00985894,-0.00572012
u_f8bJkfg68,0.07589642,0.07622281,0.02901132,0.01598822,-0.04287393,-0.00417821,-0.02573011,0.04080758,-0.03264186,0.01301344,-0.00569713,0.00772269,-0.01175262,0.00562223,0.018321,-0.05146785,-0.04285865,0.00644261,-0.01561609,-0.03631657
KGeCwEOLPGE,0.01646428,0.01348183,0.05400122,0.0013664,-0.01471134,0.26398907,-0.12139495,0.06529658,-0.00359269,0.08961133,-0.05168142,-0.05643182,0.02735716,-0.01007694,0.01693693,0.16300625,-0.09754199,-0.02092302,0.04035437,0.12292392
m-nnyNZ0TQ0,0.01500889,0.00678847,0.05945802,-0.01301864,-0.00113763,0.19334472,-0.0704613,0.06030569,-0.00298481,0.0824682,-0.10857287,-0.05060216,0.0213198,0.0312919,-0.07448578,0.04427781,-0.06342103,0.05232324,-0.03485663,-0.0039524
0kHJZFOuMWc,0.06428654,0.01360882,0.16855037,-0.07011252,-0.00104963,-0.0128883,-0.01368948,-0.09807207,-0.01211777,-0.03813546,-0.04507945,-0.02739078,-0.02691571,-0.12906112,0.15218353,-0.11753916,0.11189649,0.1264605,0.13843504,-0.02940976
3fsJFUvA6Ts,0.0146484,0.00961726,0.05196609,0.0167676,-0.02174961,0.34367828,-0.16292527,0.0896639,-0.02048872,-0.00112849,0.04225184,0.032802,-0.01259654,0.00240559,0.21203644,-0.18665782,-0.02854258,0.09467651,-0.02841209,0.06319705
nN9QYJdEcw0,0.00748004,0.00296289,0.02486533,0.00770297,-0.01650055,0.04213844,-0.01400555,-0.01061166,-0.0036947,0.01914977,0.00495273,-0.00031169,-0.01428212,-0.00476391,-0.00295882,-0.01551887,-0.01097235,0.00049847,-0.00030919,0.00587084
7NeECqsR_u4,0.0108775,-0.00092264,0.02571246,0.00741998,-0.01557753,0.14372692,-0.07557853,0.04828923,0.00389492,-0.06656634,0.01837672,0.0043498,-0.01604358,-0.03998017,-0.19324686,-0.15724115,0.07593908,-0.04427037,-0.04846496,0.01294195
u5HPVyEpyNI,0.08230595,0.04581745,0.12771123,0.03791974,-0.09726955,0.03341752,0.04860166,-0.17596044,-0.0190306,0.00788265,-0.06294195,0.1777524,-0.1444198,0.13919916,-0.04781305,0.00064363,-0.10623071,-0.0771797,0.06919437,0.12595285
io_Ysi-LFWE,0.00994323,0.00705957,0.03090738,0.00986678,-0.01501754,0.14886737,-0.06164078,0.01908623,0.0024684,-0.098414,0.10455587,0.04368084,-0.00284776,-0.02479657,-0.01092711,-0.09946003,0.01577781,0.01110092,-0.02727531,0.00484743
gdjCR9h1yGc,0.01346862,0.00454164,0.05523686,-0.01539203,0.00117362,0.21652935,-0.10217671,0.06159011,-0.01223186,0.0564615,-0.07978515,-0.0105427,-0.0013612,-0.01448527,-0.01786583,0.03472132,0.02731707,0.01124932,-0.02271342,0.02302115
XsY6iChNzf0,0.02065942,0.02029432,0.05933051,-0.00431761,0.01127186,0.03729968,0.04005116,0.01378515,-0.01326594,0.01022256,-0.01416867,0.02261927,0.00804681,-0.02202728,-0.03201908,-0.03310052,0.01484992,0.00347848,-0.05349373,-0.02116538
rRw7sYwfSVI,0.09347065,0.05182598,0.15997014,-0.00583374,-0.06181151,-0.00538598,0.02620155,-0.0360102,0.01790316,-0.06210301,-0.05765248,-0.0600044,0.00501001,0.04943875,0.04366365,-0.07304951,-0.02684808,-0.05225874,-0.06567144,0.01363454
MVFd0qFB9TE,0.0077349,0.00564422,0.0268909,0.00658282,-0.00752556,0.14052193,-0.06072695,0.03511223,-0.00670107,0.05507898,-0.08401685,-0.02438269,-0.01468295,-0.01260878,-0.05870007,0.01294652,-0.00843356,0.01009896,0.01847243,-0.01298022
a9T6IRpz31E,0.04457373,0.00479431,0.06654301,0.0322758,-0.02989243,0.18467754,-0.03838219,-0.05097006,0.03339265,-0.40002275,0.50586596,0.12590424,0.02945876,0.00445333,-0.16692209,0.04136624,-0.00657188,0.09306299,-0.0908455,0.07122732
Gmfpq60LbVQ,0.03146396,0.01458078,0.11097753,-0.05170323,0.00675601,0.03550058,0.01840025,0.01715086,0.0188985,0.00541188,-0.03724579,-0.00714508,0.03611307,-0.01148417,-0.03671169,0.06481912,-0.03937166,-0.00240721,-0.0497619,0.01145216
v_1Dhh8G84c,0.01556507,0.01082486,0.04075475,0.01395316,-0.02510249,0.12034961,-0.04593292,0.00220495,-0.00218981,-0.0190888,0.0134129,0.01479853,0.00164013,-0.02922765,-0.00476723,-0.018933,-0.04857473,0.02783894,-0.01693277,0.02152203
9pPCy9wqxuk,0.04869252,0.03553305,0.11477563,0.02985167,-0.01571871,0.01288636,0.04348524,-0.10016936,-0.00234854,-0.00844632,-0.03952235,0.01715751,0.16975424,0.08151467,0.03505676,-0.04171137,0.01839913,0.07975999,0.04008036,-0.08133862
roUppNywDks,0.02656941,0.00892369,0.05910901,0.01890534,-0.02834031,0.2762081,-0.09675928,-0.0053785,0.03738639,-0.38750975,0.50019212,0.12885446,0.02483357,0.00960348,-0.05738467,0.03250628,0.0019972,0.0169204,-0.02725315,0.01456097
_UFmkJrpc3Q,0.01085711,0.00581693,0.05238189,0.00933613,-0.0005833,0.26771238,-0.12770206,0.07938843,-0.00480237,0.10781558,-0.11477127,-0.06558754,0.02036167,0.09068903,-0.32494273,-0.1741585,0.10700288,0.04626004,-0.04473621,-0.08349947
WeliLUboy3M,0.04059183,0.00827396,0.06403104,0.03687573,-0.01776732,0.30257933,-0.08358438,-0.00515556,0.04306074,-0.43352134,0.60409432,0.14777574,0.02484254,0.06983179,-0.02862917,0.06203769,-0.04268331,0.04631031,-0.00281831,0.03669628
69AWec8qjjo,0.05021514,0.01919664,0.06178235,0.01394942,-0.03614081,0.05110066,0.01698951,-0.11177759,0.02650331,-0.02865872,-0.04295716,0.0333888,-0.06955149,0.09760727,-0.04043961,0.04795744,0.03612363,-0.07615884,-0.02153685,0.03578706
FYMdllTCrc0,0.01245818,0.00483277,0.03859817,0.00900022,-0.0126946,0.24542283,-0.09768091,0.05712286,0.00458429,-0.05224166,0.1450429,0.0587729,-0.0155744,0.04129179,0.28298412,0.02896876,0.0348751,-0.15922145,0.12650181,-0.14659232
8QsAx7s9PmQ,0.01128299,-0.00092264,0.02226588,-0.00343339,-0.00347363,0.05689184,-0.0163836,0.01159165,-0.00575867,0.01509531,-0.02441066,0.00961547,-0.00667655,-0.00354017,0.0077965,0.04466183,0.01042437,0.00487801,0.02811738,-0.01240611
LLK879SXq_w,0.11093799,0.0572736,0.31287591,-0.13564779,0.21684923,-0.04167632,-0.06959903,-0.11478412,0.03562706,-0.03640714,-0.01322049,-0.03847839,-0.02066469,0.01250752,0.02191044,-0.05554164,0.01455883,-0.01426974,0.10796781,-0.05028494
-1Fhry-Mqks,0.0115453,0.00465692,0.02793999,0.00717417,-0.00869889,0.12884293,-0.05756851,0.01859384,0.00018085,-0.01562443,-0.00290039,-0.00587453,0.01238518,-0.02106634,-0.0160887,0.02717572,-0.04081789,0.03301685,-0.02363994,-0.0001176
0t118SCf-2w,0.00503851,0.00296918,0.01851828,0.00550238,-0.00752605,0.11098208,-0.04919614,0.02164536,-0.00467131,0.01161672,0.00158118,0.00616866,-0.00093933,0.00221842,0.01679686,-0.02153634,0.02947269,0.00216178,0.01133265,-0.0326615
XGAhqBxEV78,0.01816583,0.00689149,0.03844931,0.0069558,-0.00940194,0.10074857,-0.04069583,-0.00988536,0.00010546,0.03898337,-0.01377994,0.01392927,0.02840584,-0.02241418,-0.03252041,-0.05654468,0.00644536,0.13482214,-0.14114985,0.12620052
QfUb5MEAOXA,0.01007728,0.00642483,0.03412378,0.00200978,-0.01228661,0.08791015,-0.03803368,0.0116366,-0.00747017,0.00960053,-0.01731245,-0.00400716,-0.01311499,0.00863266,-0.02911613,-0.05251266,0.03659426,-0.01642267,0.01603655,-0.02899207
2pao0845DQQ,0.0133012,0.00225081,0.03840553,0.00779695,-0.0214924,0.04240118,-0.01172445,0.01141538,-0.03042198,0.03522923,-0.04038001,0.05001147,0.01069589,-0.04838288,-0.02582367,0.08861657,0.07894945,0.02326494,0.01929454,-0.00700693
kijJaXVri7Q,0.04250024,0.03795427,0.05618083,0.02306703,-0.03364044,0.03245263,0.01644802,-0.06012748,-0.00284473,-0.03289734,-0.0386827,-0.02110022,-0.00732783,0.01676978,0.00673895,0.02061842,0.02332233,0.0197401,-0.01495535,0.04836665
gzjXoJoWgjs,0.03556082,0.02136649,0.05886492,0.0004256,-0.01949053,0.24969871,-0.10873021,0.05429607,0.01039512,0.03903226,-0.08136058,-0.05531113,0.02547022,-0.08079911,0.04515821,0.09537069,-0.20807053,-0.00090247,-0.04432442,0.13740858
3era1_feC3U,0.00801049,0.00249835,0.02201053,0.00786491,-0.01569801,0.01467537,-0.00475147,-0.00421427,-0.00845158,-0.00728257,-0.00781825,0.00268071,0.00294933,0.00285589,-0.01029478,-0.00453481,-0.00455554,0.00628732,-0.00700135,-0.003441
8nwaOxXIj0g,0.05231865,0.02878792,0.13967425,0.00968875,-0.03993334,0.02538066,0.0202963,-0.0798651,-0.00253298,-0.0666745,-0.05549976,0.01376581,-0.04289832,-0.09508005,-0.02551421,-0.05408828,-0.03546793,-0.02855025,0.04043847,-0.08977183
_WrHMsTYlOU,0.01156311,0.00724945,0.03259514,0.0080469,-0.01204411,0.07483633,-0.02916365,-0.0002309,-0.00402692,-0.05807872,0.03785821,0.02350969,-0.00422056,-0.04680125,-0.04055885,-0.08557099,-0.00106468,0.03130329,-0.0490487,0.03545892
jAaw0vn7eLs,0.00953785,0.00432683,0.03469161,0.0129645,-0.0141407,0.14781583,-0.06475941,0.02879922,-0.00377073,0.00846895,0.01914373,0.01082536,-0.02372182,0.02533585,0.11009001,0.03859113,0.0394513,-0.08423075,0.08447459,-0.06708393
tbvteFr4SPQ,0.05566009,0.03047187,0.10603807,-0.00496776,-0.03738969,0.02391244,0.01472957,-0.10117455,-0.00226621,0.0056325,0.00257981,-0.01062227,0.01994543,-0.00852186,0.08154503,-0.06205819,0.08422662,0.06393623,0.00224269,0.05006556
jFZPpkVszCg,0.10927113,0.07840869,0.18774299,-0.04922959,-0.05113773,-0.02929531,-0.00796444,-0.04890395,-0.0619592,-0.06041101,-0.04138335,-0.01130638,-0.11559266,0.0637266,0.09937385,-0.20746826,-0.00081938,0.15084982,0.12169488,-0.07861802
ktkpd9A8MD8,0.07583196,0.0043754,0.1262351,0.01780861,-0.08053601,-0.01328401,-0.00328211,-0.06772403,-0.01304099,0.08547277,0.06240919,-0.0163656,-0.04005483,-0.06994906,0.07327755,-0.04804986,0.09373567,0.00892469,0.04817144,0.00839268
z7Qp9Q_Br88,0.01504774,0.00494527,0.03728516,0.0130964,-0.0227471,0.10592757,-0.04886649,0.01018462,-0.00385746,0.02012633,-0.03230176,-0.0179457,-0.00213394,0.00716101,-0.06434931,-0.02333653,0.07548987,-0.00875172,0.03713332,-0.05621818
t4S8XOHv1jg,0.14828448,0.05960957,0.11895597,0.04476648,-0.08930959,0.06504779,0.06497891,-0.21687413,0.05792369,-0.10272467,-0.04842453,-0.06228447,-0.12702998,0.25759674,-0.01452272,0.11227405,0.03726268,-0.07626959,0.02299212,0.08320511
kH_bSvf7EVA,0.00633564,0.00597243,0.01838699,0.00616684,-0.00694615,0.13146085,-0.06020377,0.02942666,0.00607876,0.02040086,-0.03040872,-0.00674175,-0.01456534,0.0167467,-0.0716382,-0.06138866,0.08028877,-0.0527633,0.02331183,-0.07789814
HRxULulg_hM,0.02301579,0.01123704,0.05869738,0.0238617,-0.03565232,0.16638903,-0.07310377,0.04762759,-0.03610004,0.0017359,-0.00579784,0.044306,0.03171135,-0.05062185,0.04720166,0.08682233,-0.01815581,0.02812167,-0.03840224,0.12039135
jCyhEO3h-Ik,0.01499568,0.00544729,0.04944243,-0.00820079,-0.00379041,0.13997249,-0.06775083,0.01671538,-0.00400889,-0.0074052,-0.0169465,0.01701152,0.01305621,-0.03131252,0.04551591,0.01860132,-0.04291074,0.00085749,-0.0055332,-0.05190063
er7v-GJj_V0,0.0922203,0.04396259,0.10858048,0.0398171,-0.08925869,0.00822964,0.01099855,-0.07072118,-0.00799429,-0.0629455,-0.03403005,0.00207124,0.0117794,0.07195698,0.02459908,0.07959489,0.08721365,0.00591065,0.04377316,0.06968637
8u7HqZJQHDM,0.02242029,0.0114119,0.06442576,0.02960511,-0.02646025,0.3219187,-0.10947078,-0.01159121,0.04457564,-0.44238241,0.63458347,0.16308337,0.03304847,0.05493019,-0.0196226,0.06460943,0.00697475,0.00803321,-0.00019759,-0.03221737
t9PF8V132Y4,0.01283955,0.00557066,0.03063206,0.00859081,-0.01249974,0.07381634,-0.03659296,0.00466937,-0.00597544,0.00793279,-0.01799001,0.00032295,-0.00056036,-0.02433057,0.01121047,0.01200903,-0.00375361,-0.01113946,-0.02676427,-0.01039495
QUBjCcBXy3o,0.0190747,0.01296652,0.11607271,-0.05472767,0.05778497,0.06879307,0.05149569,0.04608116,0.0122796,0.01792011,-0.03699721,-0.00715749,0.10087141,0.02641658,-0.06626455,0.11082303,-0.00331295,0.03961478,-0.11042776,0.01916713
3REHDZgXE1k,0.00753465,0.0029132,0.02676723,0.00745586,-0.01318085,0.07267422,-0.0294103,0.01491435,-0.00803483,0.00051417,-0.01160868,0.00986686,-0.00250927,0.001466,-0.01536676,-0.06651808,0.03160721,-0.01525644,0.01195433,-0.00206102
6hNY0K71Ewo,0.06086747,0.04631918,0.11057618,0.03019642,-0.08202841,0.01031385,0.0405265,-0.09345043,-0.02981859,-0.05215231,-0.05591155,-0.06139873,-0.0203049,-0.09213855,0.02042814,0.06633611,0.10984167,0.10974037,0.03251297,-0.00028132
oOCN30ulVyo,0.0169582,0.017613,0.02267969,0.00464592,-0.01380563,0.05105439,-0.01718537,-0.00576305,-0.00418682,-0.01149049,-0.00660947,0.02600073,-0.02283818,-0.0086565,0.01133579,-0.01800685,-0.00524384,0.02800054,-0.05277962,-0.01837442
U0f47Nt9g-Q,0.04471241,0.03104248,0.10995294,-0.01535974,-0.01892869,0.00605678,0.01095133,-0.05826378,0.0043562,-0.0252407,-0.03330537,-0.016864,-0.0267985,-0.06523955,0.08066849,-0.12243986,0.02195169,0.00061496,-0.04576574,-0.00058097
d7qfcHa4LTY,0.01637101,0.0163018,0.02755115,0.00937312,-0.01561262,0.09907966,-0.04070927,0.0054365,-0.00220567,-0.00885642,0.00950106,0.01187981,0.00116328,-0.02238796,-0.01043973,-0.0203489,-0.02118676,0.05274379,-0.00118187,-0.00268914
RniYUmKs93U,0.00698364,0.00264318,0.02367723,0.00769887,-0.01518551,0.04343989,-0.01718776,-0.00471038,-0.00842853,0.00647756,-0.01678836,0.00427338,-0.0056724,-0.01370143,-0.01083107,-0.01281241,0.01868567,0.01013078,-0.01029858,0.00260399
TET8fTKH1e8,0.12149676,0.05089363,0.15269644,0.00962568,-0.06144695,0.02489558,0.04188749,-0.14463582,0.02129576,-0.03988264,-0.05659426,-0.00951703,0.06829715,-0.04881535,0.13191375,-0.11845804,0.10469661,0.07662021,-0.09412361,0.00609831
vNXFk8iGHk8,0.01747849,0.01400815,0.05549146,0.00113367,-0.01770605,0.25211349,-0.11689822,0.06679119,-0.00818894,0.09485182,-0.05096717,-0.04993542,0.01888634,-0.00734875,0.04107708,0.16558896,-0.09390572,-0.01822502,0.04158373,0.11741561
Hk20QLW6nEc,0.0712623,0.05272678,0.12332002,0.04499882,-0.085468,0.00108967,0.02314791,-0.10263354,-0.01131484,0.06940629,0.01812095,-0.0485366,-0.01767081,-0.00840482,0.06757845,-0.0578276,0.04303479,0.04271378,0.01415691,0.05229408
YUwjueXzffE,0.02489417,-0.00343719,0.05253302,0.00461051,0.00331725,0.21218701,-0.08427675,0.04176633,0.00897925,-0.02026691,0.01746877,-0.00867897,-0.00873074,0.01513723,-0.05273858,0.02033012,-0.01237802,-0.04242163,0.03351097,-0.01554481
Cr7oGnSzmb4,0.00792919,0.00727984,0.01962322,0.00522073,-0.01019108,0.1115967,-0.05332974,0.02810243,0.00284415,0.01360697,-0.03033776,-0.00559232,-0.01043448,-0.01183886,-0.05605789,-0.05399416,0.08039251,-0.07443652,0.0065007,-0.01419771
mDh52QTqR0o,0.09265218,0.04654569,0.13946803,0.00783386,-0.0601537,0.05256731,0.06075331,-0.15113775,0.02339501,-0.06732964,-0.05102381,-0.06310511,-0.01537935,-0.06249187,0.04973587,-0.07991521,0.10758248,-0.01045733,-0.12254632,0.05014237
07T7V-Szcx0,0.0081247,0.0046658,0.04277039,-0.0045027,-0.0021078,0.21209627,-0.09306245,0.06380418,-0.00575914,0.09152963,-0.12386931,-0.04481778,-0.02149693,0.00418689,-0.06208436,0.06368988,0.01189766,0.01814979,0.02932238,-0.02011175
Y254oB1QNOE,0.02579311,0.01098968,0.03831857,0.00438603,-0.01409526,0.12727186,-0.05968422,0.02028918,0.0002004,0.01962339,-0.0332855,-0.01879137,0.00024272,-0.0388659,0.02101409,0.02991123,-0.08990176,0.00794158,-0.02437651,0.05742774
gEUMAljLr78,0.05934019,0.06002452,0.09126915,0.03014197,-0.07285103,0.03747486,0.03615932,-0.10216078,-0.06136084,0.05050349,-0.03154916,0.29104644,-0.06435093,0.055765,-0.06066265,-0.0030961,-0.18151066,-0.01359667,0.02860567,0.0658828
UsS6bOYnnOI,0.01856833,0.00795345,0.04798628,0.00852269,-0.01568286,0.14986793,-0.0655741,0.03291325,-0.00815594,-0.00617971,0.0152409,0.00906645,-0.01090763,0.0011232,0.1170812,0.02927373,-0.00608893,-0.07365527,0.03814903,-0.05325557
Duk_kOhIimU,0.06716004,0.01486626,0.11709436,0.04218235,-0.08228805,0.02048204,0.00013595,-0.1165613,0.00899488,0.09033969,0.06588918,-0.03446732,-0.01143562,-0.00487229,0.04102771,-0.0444275,0.04088088,0.02313094,0.02723225,0.00957541
lEhOg8oVpjU,0.1762758,0.04664782,0.21046171,0.07238829,-0.17353885,-0.01439847,-0.01110045,-0.12255354,-0.0121656,0.12888404,0.0762273,0.00096116,-0.14883339,0.09164309,-0.03612283,0.12556186,0.11282531,-0.04560817,-0.05482339,0.03129448
DmcKWMeNWaQ,0.06792519,0.03227428,0.14717602,0.05566077,-0.11162182,0.01084099,-0.01777202,-0.08795396,-0.02580147,0.18977333,0.11816196,-0.01620986,0.04294587,-0.07489419,-0.02214809,0.0209379,0.08772423,0.05593657,0.08681428,0.01704375
BOmc_wliaRg,0.02276986,0.00578227,0.02662165,0.01932484,-0.00545538,0.03434082,-0.00546052,-0.02237802,0.00283971,-0.05152837,0.04127638,0.00491292,0.01604165,0.00134628,-0.00400926,-0.01071265,0.02586349,0.00802219,-0.01009577,0.02120529
3LnNwS6rqk8,0.06401718,0.06657692,0.09559013,0.024097,-0.06656273,0.04895319,0.04107043,-0.12112385,0.00895271,-0.0736841,-0.06496599,-0.08978115,-0.04958484,0.06225783,0.06981886,-0.02484271,0.08444332,0.0177722,-0.01702986,0.11209904
GXeBi91SkIw,0.01305955,0.00080575,0.03019781,0.01522294,-0.00546381,0.1466672,-0.06009024,0.02125866,0.00684627,-0.03149174,0.07824243,0.02220576,-0.00892767,0.02665998,0.0928371,0.02605518,0.01750091,-0.08079601,0.05160413,-0.0558303
39czcByvq7c,0.0239669,0.00783829,0.04050478,0.01195709,-0.02401109,0.14291936,-0.03934926,0.03313791,-0.01421967,-0.00471648,0.00814268,0.01282571,0.0047809,-0.04446458,-0.01374308,-0.01126211,0.01249212,-0.04094408,0.01554318,-0.04417101
6jI9H3lyil4,0.0619205,0.03202704,0.13983155,-0.04500215,0.00141854,0.00724048,0.01980243,-0.0893303,0.00411191,-0.02588374,-0.04570839,-0.08938428,-0.05086032,-0.04625811,0.1356532,-0.11518948,0.05250083,0.02261016,-0.03303526,0.07247801
eCw33snvoNI,0.01851908,0.00747794,0.03568612,0.01140717,-0.01227477,0.12051172,-0.05412494,0.01968047,-0.00052358,-0.00765759,0.00762998,0.02371133,-0.00605617,-0.01758987,-0.00156911,0.0011134,0.00764261,-0.032252,-0.00827192,-0.02510169
up__2flbXw4,0.01012543,0.00683054,0.02909335,0.00094686,-0.00740011,0.07228759,-0.03354451,-0.00221998,0.00118435,-0.07976238,0.04989386,0.02872248,-0.01214308,-0.04729444,-0.10517908,-0.111965,0.05283673,4.189e-05,-0.06547389,0.03017337
1PIbKMyFMAY,0.04762767,0.04476597,0.10355759,-0.01740921,-0.02505685,0.00710373,0.01604138,-0.05634846,-0.01701729,-0.03352635,-0.02517958,-0.00296806,-0.01241234,-0.06285914,0.08992998,-0.135362,-0.00334864,-0.00434083,-0.04173246,-0.00490543
JuRjZqzpP0g,0.01639699,0.00629376,0.07258648,-0.00717768,-0.00220393,0.3602254,-0.15152964,0.1082108,-0.00850217,0.09334492,-0.06716531,-0.04053971,0.00866834,0.03908348,0.21547593,0.05090984,-0.19461949,0.13074418,-0.0334426,0.06964998
oNjLzGpMCuw,0.06406007,0.0298159,0.07923016,-0.01506489,-0.02183036,0.01366358,0.00660334,-0.08069466,0.01301261,-0.04638167,-0.02605667,-0.03558646,0.04248009,0.03668388,0.05450832,-0.03565911,0.05306977,-0.02254793,0.03977504,0.01647644
UM9dcnJXX0k,0.02931145,-0.00389298,0.02782421,0.01926089,-0.00367192,0.05362786,-0.00650488,-0.0084799,-0.01080488,-0.00119359,-0.00365563,0.01790554,-0.00940691,-0.04223167,0.00573005,-0.02462121,0.05715565,0.0135494,0.00901708,-0.0282573
0D14LJGiBkg,0.00760994,0.00572992,0.02174035,0.0113815,-0.00390815,0.08706235,-0.0386086,0.01258589,-0.00410769,0.0259529,-0.02629426,-0.00184035,0.00297354,0.00669822,-0.05973919,-0.05690725,0.03397664,0.01869697,-0.03108635,0.00097221
zxQJIBt9CBI,0.07114124,0.03939319,0.10074339,0.02977571,-0.08320342,0.00868921,-0.0077753,-0.01413221,-0.01631284,-0.06258727,-0.05300236,-0.03978051,-0.00447429,0.08332627,-0.0132167,-0.00207721,-0.01383819,-0.00637059,0.00160577,0.04076158
nrIEhoSCOg8,1.07943407,-0.72611894,-0.26658884,-0.07544538,0.18954356,0.0919383,0.0830517,-0.14092965,-0.32874043,0.0201278,0.04142934,-0.09132549,0.01105965,0.0130147,-0.00987033,0.01893569,-0.04878387,-0.05037003,0.00354318,-0.04485618
IMM5cm6xrXQ,0.01297243,0.00632011,0.04352028,0.00860656,-0.01908031,0.12491535,-0.0550798,0.01113526,-0.0077686,-0.05288458,0.02321606,0.03311408,-0.02509818,-0.05437052,-0.09410225,-0.16060762,0.05204212,0.0076274,-0.07140468,0.06633979
D4fkiQfzw_I,0.00506772,0.00252244,0.0213046,0.00851021,-0.00907296,0.08541588,-0.03551106,0.00815803,-0.00256549,-0.00994682,0.01570209,0.00422232,0.01338771,-0.03858439,0.01587662,0.00882742,-0.04300539,0.01339122,-0.01785395,0.06677276
IAn3Wu2BdyY,0.09811534,0.03475557,0.10877359,-0.00081261,-0.04037157,0.03225769,0.04131186,-0.1790621,0.06215566,-0.05280532,-0.04268789,-0.06299187,-0.00110898,0.12061462,0.0208343,0.0383511,0.0009261,-0.07291136,0.07636386,-0.06535644
oqoBSeL5GIU,0.0124558,0.00553137,0.04462057,-0.0038294,-0.00710038,0.17489255,-0.06431297,0.05054066,-0.00516299,0.06374237,-0.06560083,-0.04038541,0.01748589,0.0407165,-0.13276389,-0.04480608,-0.02305847,0.09990237,-0.05640301,-0.03536866
jytAQWCc_TI,0.05607392,0.05765729,0.03221969,0.01044208,0.00411635,0.33430153,-0.15217137,0.11217885,0.03502162,0.0592092,0.02641135,-0.01253451,0.00775371,0.05905737,-0.03963439,0.01630307,0.05706476,-0.09119877,0.05600053,-0.02537246
31t_CBePs34,0.03702956,0.00887289,0.10922241,-0.03594198,-0.01340045,-0.01748673,-0.00193414,-0.05824282,-0.0252311,-0.02606192,-0.02649848,-0.02754889,-0.06029021,-0.02388269,0.06063153,-0.10412713,0.00236991,0.13436135,0.10779146,-0.07496852
kBctc9rV__4,0.09028553,0.06612494,0.27428857,-0.14576707,0.10050677,-0.01718469,-0.02783928,-0.09987851,-0.01140173,-0.07112555,-0.06869737,-0.04116028,-0.03326871,0.01124597,0.04061476,-0.06110897,0.07333556,0.04116508,0.09729527,0.00127428
P9yleRV8tto,0.01846056,0.01049927,0.05049132,0.019619,-0.01713653,0.23044975,-0.1048588,0.05048733,-0.01540914,-0.0080462,0.04714516,0.02949663,0.00167935,-0.00996024,0.30790218,-0.02576912,-0.12660133,0.07165714,-0.00015464,0.04421713
JrGlAw_Q7ow,0.01463672,0.00667361,0.05396885,-0.00155973,-0.01639758,0.20384017,-0.09683495,0.07145633,-0.01137247,0.06622685,-0.08493261,-0.04300474,-0.0055441,0.00137225,-0.08269807,0.05381646,0.00865406,0.00974989,0.00507418,0.01045337
DYkyYUjOZTk,0.01259164,0.01001119,0.0284195,0.00870211,-0.01877606,0.08390238,-0.03064988,0.00889142,-0.00770405,0.01453205,0.00748449,0.01848419,0.00367256,-0.01700494,0.01284531,0.00543782,0.01971773,-0.0179987,0.01830074,-0.01360568
5-ASQ44GpNI,0.13186211,0.09847598,0.1660493,-0.00046716,-0.0651165,0.0339186,0.04732656,-0.17864056,0.03786544,-0.05997624,-0.05123933,-0.10356653,0.03948508,-0.00412671,0.10075342,-0.0443045,0.01607515,-0.03080755,-0.02575601,0.04810524
rc-xQnupse0,0.09700968,0.04071172,0.15926388,0.04666837,-0.11315123,0.02097062,0.01165733,-0.17463812,0.02052786,0.01594855,0.01971508,-0.06034274,0.03820058,-0.15069179,0.14743812,-0.0332433,0.20489152,0.00438816,0.07830575,0.10415382
tVpky2riji0,0.06685696,0.02947634,0.14857425,0.00521728,-0.07125344,-0.00566762,0.02419842,-0.10288574,0.02623876,0.08601439,0.0499399,-0.10016108,-0.02187584,0.00361134,0.13624629,-0.08967703,0.10529248,0.02695927,-0.06095456,-0.01524891
wgADj9n8XMs,0.07251702,0.06338661,0.13860044,0.0110646,-0.0677679,0.01022944,0.01987327,-0.05885696,-0.07731042,0.05346933,-0.04654914,0.30313192,-0.13353428,0.06850991,-0.06149166,-0.0639484,-0.21407221,-0.0829772,-0.01009853,0.05933583
eBbqRceO2qY,0.06330671,0.08372718,-0.01171353,0.00941446,0.0002262,0.03792514,-0.01160019,0.03239502,0.03374996,-0.01115872,0.02129525,0.01841393,0.00634417,0.01925475,0.0091039,0.01843335,0.00563128,-0.02411788,0.01692269,0.00688007
z_XHk-DZ1nY,0.02325817,-0.00088664,0.05251632,0.01003714,-0.02921568,0.00905151,0.01324258,0.02723955,-0.04265801,0.02030775,-0.00801213,0.06773599,0.01729733,-0.05114971,-0.0198506,0.10889812,0.08785392,0.00947132,0.00333894,0.00185758
VgH5rhALEfU,0.02110521,0.02117429,0.03660403,0.00820657,-0.0121458,0.08342339,-0.03623194,0.00883016,-0.01141988,0.00628899,-0.03182576,0.00372259,-0.00634388,0.0003508,0.00190589,-0.0085671,0.00222121,0.03614938,-0.01010556,0.0130957
RWGr8LwG3TY,0.11259978,0.05429216,0.12878004,0.03579316,-0.08830237,0.03411012,0.06665445,-0.18903218,0.05270024,-0.07667611,-0.09786247,-0.07278694,-0.00538292,-0.09877806,0.10463271,0.03564944,0.04599216,-0.00313653,0.00724647,-0.02767907
4iXwPD-VHyg,0.05179585,-0.0216918,0.02260113,0.00869844,0.02379757,0.15528686,-0.06406444,0.01979294,0.02007219,0.04375288,-0.01460789,-0.01184293,0.00355809,0.02469507,-0.12519925,-0.09409446,0.06231795,0.01822524,-0.02137766,0.00795493
wy3a_xJI3so,0.01877823,0.01016486,0.06272898,-0.01093431,-0.00169485,0.20367083,-0.07649087,0.05034876,0.00201565,0.09011222,-0.11546528,-0.03824653,-0.007832,-0.00469808,-0.04821461,0.10053013,-0.05833548,0.01988437,0.00772016,0.00794811
mMLOG0bsjRQ,0.09023508,0.01730965,0.1692783,0.00857595,-0.08248574,-0.00473579,-0.00525896,-0.1323381,-0.01173391,0.06546951,0.04757976,-0.06184383,-0.04462704,0.00563474,-0.0419121,-0.02292231,-0.05831087,-0.04181096,0.17783194,-0.09618137
dZftIemBYVE,0.07993104,0.02556345,0.12982433,0.03965682,-0.09182314,0.02471501,0.0029769,-0.0974744,0.01020183,0.08672167,0.03164817,-0.03820646,0.00444694,-0.12720101,0.09439895,-0.06583983,0.05633689,0.06756195,-0.00423147,0.07103158
9rHaUzPlJws,0.03279272,0.02037163,0.12957825,-0.0469229,-0.00163861,-0.01288716,-0.01583338,-0.06615046,-0.00825251,0.02782791,0.02580711,-0.0065746,-0.04759863,-0.04692954,-0.02600585,-0.07161431,-0.05125193,0.00568887,0.12187206,-0.09726194
zuzydZz-cmo,0.06453724,0.05907592,0.10667009,0.14237413,0.08760927,-0.0004867,-0.00554995,-0.03581596,-0.02849514,-0.02308923,-0.02826903,-0.03181036,-0.03162157,-0.07132415,0.04367727,-0.0809487,0.02333202,0.00584919,-0.04802753,-0.01836896
WPOhGVSPOyM,0.02621675,0.01832953,0.01971382,0.01875045,-0.00906887,0.03547499,-0.02570986,0.01387715,-0.01314612,-0.00045023,-0.04084885,-0.01921289,-0.02109576,0.03135241,0.02340699,0.00696501,0.00397189,0.02683345,-0.01962569,0.00619582
oRVJREzko-M,0.01368305,0.00689637,0.02428609,0.01682743,-0.00478824,0.08695349,-0.04374372,0.0231396,-0.00571251,-0.00072369,0.01132101,0.00911094,0.0116406,0.00637776,0.04025329,-0.00766359,0.01770379,-0.00558737,0.02044422,-0.03167817
KdmRWazuBRU,0.05951996,0.04686607,0.10831985,-0.01239889,-0.03643018,0.03058875,0.030784,-0.1213274,-0.00748751,-0.08981865,-0.04426057,0.00435881,-0.15829932,0.03740879,-0.04413781,0.12120574,0.05592951,0.24247623,0.05607608,-0.09889881
iRach9lpIlg,0.01578394,-0.00437218,0.02103213,-0.0006,-0.00840822,0.00645969,-0.00452101,0.00541023,-0.00787265,-0.00398585,-0.00618377,0.01414269,-0.00854153,-0.0021571,-0.00031318,0.0141454,0.00536721,-0.0049416,-0.00237772,0.00966941
CbDN7o5Ed_M,0.08408173,0.04779426,0.05185651,0.01312287,-0.04690545,0.02174325,0.02878102,-0.11032537,0.02326494,-0.05969351,-0.04354422,-0.08238375,-0.04613748,0.09247756,0.00303719,0.03108299,0.02213799,0.05428231,0.02760024,0.06789839
3Ip-TJvpjLQ,0.07980234,0.05038862,0.10199756,0.02949811,-0.08987399,0.04502395,0.03667508,-0.15368619,0.0283774,-0.07359463,-0.10640061,-0.16171652,-0.08444064,0.21524429,-0.08980759,0.03295324,0.10226062,-0.07266459,0.00435264,0.14138185
msYTFQ4OIu8,0.02080248,0.01172506,0.06777488,0.03000001,-0.03154077,0.28737242,-0.10220632,-0.00710924,0.02946453,-0.3254394,0.47116758,0.1034896,0.04741423,0.0378188,-0.3016206,-0.05495714,0.05660617,0.10713665,-0.06825003,0.03789892
rJgtb2s7Oz8,0.06892379,0.05651304,0.12225155,0.01450332,-0.04945275,0.05048961,0.02311842,-0.15991975,0.00728569,-0.07205616,-0.02978764,0.00159322,-0.12032146,-0.02260308,0.00024449,0.17038277,0.09846009,0.16774464,-0.09451066,-0.08510703
fpmYvXCzO1c,0.0093955,0.00703415,0.03138551,0.01177823,-0.01127267,0.17287554,-0.07810391,0.03885584,-0.02032376,0.01262289,-0.01078996,0.0289233,0.00963638,-0.01236647,-0.00551912,-0.04566449,0.09184701,0.02327421,-0.00814939,-0.03830734
UUzxEVhRQgQ,0.03237767,0.03624873,0.03039679,0.01997784,-0.01287311,0.00375616,-0.00233757,-0.0178764,-0.01362402,-0.01395947,-0.02073959,-0.00161185,0.03573571,-0.02468842,0.00930438,0.01043831,0.03008122,-0.00103456,0.00017136,0.0141835
pcAJLeGAtwc,0.01375874,0.00098737,0.02907358,0.00617007,-0.01122497,0.06514707,-0.02665572,0.00098365,-0.00724718,0.01478876,-0.0326931,0.00373916,0.00182218,-0.02430194,-0.00256561,0.00704178,0.02448329,0.02314062,-0.00010107,0.01828234
rVixyOY_Xr4,0.06843667,0.03419132,0.09441248,0.0015363,-0.03335522,0.01382916,0.02151034,-0.04490476,0.07855899,-0.00195948,-0.01465248,0.05138981,0.00575369,-0.17718071,-0.00066709,-0.05907468,-0.10467524,-0.12186261,-0.04434226,0.02790131
POn6IRgP5-A,0.11360764,0.0292089,0.07413056,0.01604472,-0.04619047,0.03782117,0.03598226,-0.12018087,0.0633458,-0.05076484,-0.04947576,-0.08398859,0.03062441,0.06697421,0.04245648,0.00375114,0.03674612,-0.02126373,0.02626552,0.03591261
Cp3DxMyEBIM,0.06013694,0.01054528,0.17495282,0.01704285,-0.10274592,-0.00806394,-0.01012173,-0.14432231,-0.07812363,0.15390017,0.00161493,0.3574939,0.15607029,0.13290849,-0.098849,-0.02799925,-0.13825494,0.09611088,0.12997024,-0.02585023
sKME5er1OKc,0.05348276,0.0298081,0.10892284,0.03928238,-0.08673261,-0.0023568,0.00443813,-0.08980239,0.0328297,0.11551904,0.07438082,-0.0448048,-0.01183507,0.00850408,-0.02000918,-0.02645697,-0.01250147,-0.08940484,0.03665078,0.01513161
OwbaFLtBpkQ,0.01432633,0.00769144,0.04928436,0.01164447,-0.02072328,0.13147555,-0.05379051,0.01377241,-0.00593313,-0.03843609,0.00053364,0.02365652,-0.02104405,-0.05284442,-0.0868759,-0.17548283,0.02785247,0.02185333,-0.07379002,0.05990777
S0WQP5GeTZs,0.0149249,0.00190032,0.03996005,0.01393332,-0.01994412,0.16123342,-0.0645788,0.02575447,0.00084979,-0.01821031,0.05803473,0.02269533,-0.00149332,0.00163235,0.08785662,0.00513132,0.03416445,-0.09026437,0.05278127,-0.05196008
48hHo2WcAQI,0.04291092,0.03914926,0.08524584,0.02519754,-0.05410222,0.05142734,0.04785236,-0.11143379,-0.02333806,-0.08221077,-0.08490811,-0.06705742,-0.02078097,-0.02034147,0.08694559,-0.07751957,0.07133279,0.01474818,-0.142291,-0.05242248
qxj4Sr5Cm24,0.03989233,0.02098844,0.03751419,0.02605515,0.01411381,0.08636744,-0.04461546,0.01657945,-0.00817402,-0.00928317,-0.01348007,-0.00324,0.00142497,-0.05809803,-0.03578468,-0.00216205,-0.02943372,0.0288085,-0.03949638,-0.01060999
98ShZgIhSbk,0.02333969,0.00639971,0.06934709,0.02983786,-0.02830468,0.22508355,-0.09568927,0.04895478,-0.00276585,0.10961588,-0.05452894,-0.05262809,-0.01341524,0.0202079,-0.18160803,-0.12465868,-0.00670089,0.05628662,0.02370849,-0.0068812
MpPS5I1pJD8,0.01807207,0.00880235,0.05515239,-0.00405473,-0.00508388,0.26911233,-0.12418137,0.08313133,-0.00046286,0.11445934,-0.17013326,-0.07396269,-0.02032044,-0.03260995,-0.04495883,0.12326027,-0.11558281,0.00528193,0.02780524,0.03871131
5W2lIWDyXjI,0.0101545,0.0040548,0.03464038,0.00467498,-0.01264616,0.06552554,-0.01804594,0.00758449,-0.00375865,0.01379489,-0.01168695,0.00603499,-0.00991871,-0.01608237,0.00163309,0.03120359,0.02017481,-0.02113008,0.03030461,0.01573901
Bcag49Fk3zA,0.01708377,0.0104093,0.05369978,0.02250845,-0.02918155,0.2098745,-0.06098347,-0.03971124,0.0389146,-0.44436802,0.53515113,0.13533079,0.02806369,-0.02029281,-0.24294171,-0.05117554,0.00733495,0.1047181,-0.1249834,0.11016187
6r-qlEX6hGY,0.01084072,0.00283553,0.03255966,0.00455113,-0.01447771,0.0718536,-0.02730463,0.00284783,-0.00454381,0.01337187,-0.02790834,-0.00457887,-0.00582511,0.0272073,-0.04691836,-0.03998686,0.04896315,-0.00403857,-0.03602885,0.02135945
iK6HT02LYX4,0.01118977,0.00787668,0.03621389,-0.00964364,-0.00183743,0.1336135,-0.05597331,0.05647513,-0.00733111,0.0690409,-0.07565305,-0.04182467,0.03648932,0.04897965,-0.08293701,0.00771585,-0.03294766,0.07909022,-0.05418186,-0.02573045
YhNUPGphSM8,0.06008036,0.06772413,0.07576759,0.01652192,-0.04882647,0.03735535,0.02530332,-0.09961696,0.00244869,-0.04834779,-0.0631177,-0.08866662,-0.04687076,0.03653963,0.07717309,-0.01369909,0.10251373,0.0751708,-0.02701504,0.08819989
iR6FvFoW0F4,0.06722126,0.04787508,0.2512601,0.63793033,0.5518577,-0.06421418,-0.05567543,0.03762381,-0.00397483,0.00812236,0.00713247,-0.02116845,-0.00730573,0.01713758,0.00129486,0.00571628,-0.01574378,0.01088459,-0.00049107,0.01818762
GlgzzZEePXo,0.09521394,0.03684084,0.18565738,0.02810386,-0.09157122,-0.01124065,0.01364764,-0.11976565,-0.00012935,0.06076854,0.05437907,-0.07567431,-0.03396,0.08917364,-0.00299325,-0.021746,-0.01346376,-0.09082637,0.12043179,-0.09304808
0Z1lChyi2W4,0.0119215,0.00245756,0.03858263,0.01460814,-0.01177955,0.16771725,-0.07307575,0.03759884,-0.00404609,0.02871132,-0.04072932,-0.00818636,-0.01740816,0.01444115,-0.1438618,-0.13889954,0.06850371,0.03563359,-0.03582528,0.0267438
f9AFrDB-73g,0.1080182,-0.01439176,0.12896559,0.03786431,-0.11357163,-0.04082402,-0.04489715,-0.05263645,0.27786785,0.19383953,0.10013664,0.02289804,-0.03051309,-0.17156665,0.10618674,-0.023761,0.18422746,0.0892004,0.0302057,0.09388424
BPt0fwBCDbQ,0.07811134,0.072102,0.1017226,0.05504598,-0.07209134,0.0140072,0.02254998,-0.08580658,0.02372752,0.02037396,0.01931145,-0.01520847,-0.04146517,0.08388961,-0.03641206,0.09432147,0.01920543,-0.04470142,0.06735783,-0.05385265
uSjcVPbJayU,0.0984315,0.0113302,0.12563487,0.04285217,-0.07465949,0.03165496,0.0796953,-0.18001465,-0.00867699,0.05228426,-0.08553527,0.20149123,0.23251388,0.11576654,0.02941729,-0.07494302,0.00995976,0.10941887,-0.02714579,-0.10426309
0HSNPIttevk,0.03669109,0.00943559,0.07175262,0.02690921,0.01413297,0.30004,-0.14147288,0.08002721,-0.00783703,0.09540163,-0.11994817,-0.0554887,0.02719852,0.02239221,-0.22092835,-0.10239788,-0.00811542,0.10156395,-0.08100658,0.00487202
-uUlnDjQxhg,0.01903671,0.01888793,0.03921273,0.01428914,0.00117118,0.26178638,-0.1194377,0.07108732,0.01362723,0.00261263,0.05125708,0.02023004,0.01077653,0.03449661,0.07168609,-0.01386909,0.08676652,-0.11650862,0.06290422,-0.0824835
Qy_YMLKX8bQ,0.70345494,-0.44949954,-0.12678193,-0.03484787,0.07630905,0.04533532,0.03725129,-0.0716063,-0.40447091,-0.02300362,0.03539673,-0.12420604,0.04015868,0.03512601,-0.00622669,0.05350453,-0.06893821,-0.09278108,0.02877956,-0.07064195
fKtG9uPeMCc,0.10804372,0.0122549,0.08094902,0.03082158,-0.06079335,0.01687928,0.02526443,-0.11241618,0.01285438,-0.0177602,-0.1176255,0.13612777,0.35611152,0.14383922,0.00330961,0.03285523,0.04662415,0.05696111,0.01729711,-0.02148016
Ycdklm6W1_o,0.01601904,0.00568822,0.03436504,0.01021068,-0.01311405,0.1750566,-0.08864453,0.04077041,0.00170656,-0.01525953,0.01506982,0.0124509,0.00622035,-0.03390504,-0.07346797,-0.0588252,0.04008076,-0.00111816,-0.000927,-0.01207019
IldLswg2yAM,0.1055453,-0.01499792,0.05253776,0.010388,-0.03023582,0.04570038,0.01183837,-0.0648104,0.02171045,0.01363218,-0.02723936,0.07316892,0.01928375,-0.06888103,-0.02705523,-0.04133587,-0.03184425,0.00716316,0.04540097,-0.01837346
VjqsnOrW3AM,0.02171193,0.00463169,0.03671099,0.01473693,-0.00724409,0.21556547,-0.10179223,0.05002268,0.00848352,-0.0520478,0.01067253,0.02511948,-0.00631806,-0.07807891,-0.09666653,-0.10970115,0.05177665,-0.03539195,-0.03417805,0.04257808
g-7nUex4nVg,0.10586811,0.09777033,0.12717885,-0.0187324,-0.03618294,0.01956334,0.03038558,-0.16440825,0.0313431,-0.02309155,-0.04062629,-0.10188122,0.05108304,-0.00132917,0.10384788,-0.03926435,0.05973953,0.08143446,0.07246437,0.07347985
aZVcAlzBIp4,0.01564846,0.01372463,0.01259569,0.00698571,-0.01052134,0.03485067,-0.01726455,0.01133539,-0.00647219,0.00317107,-0.00260935,0.00842502,0.00056603,-0.00417351,0.01993326,-0.00839472,-0.01189134,0.01239101,-0.00033958,-0.00756137
WKBwkE4dn-k,0.00973615,0.00696907,0.03276467,0.01575903,-0.00728971,0.17608457,-0.08284214,0.04115304,-0.00684721,0.04650613,-0.04064706,-0.00724751,-0.00939599,0.01989773,-0.06150752,-0.06350604,0.07878434,-0.00345763,0.01280959,-0.06112058
yIUDe9YH0ac,0.01408094,0.01001467,0.03738415,0.00901183,-0.01749314,0.06516431,-0.02028535,-0.00507869,-0.00199726,0.00187839,-0.0120611,-0.00321606,0.00946969,-0.0099366,-0.01585801,-0.00768686,0.00963957,-0.01202291,-0.00706311,-0.01062882
ZrvvBKldeo0,0.05809323,0.02595457,0.17495564,0.01237191,-0.07585353,-0.00061289,0.02907006,-0.11884086,-0.08758629,0.08573831,-0.04867181,0.37536608,-0.21663253,0.12126968,-0.06089508,-0.00794984,-0.20354116,0.00028169,0.02537517,-0.00443033
t6GzhyGTKCo,0.00941117,0.00455099,0.04528654,-0.00050932,-0.00505403,0.21653335,-0.09765201,0.06065544,-0.00597862,0.07618649,-0.09894937,-0.02373306,-0.02245527,0.02857865,-0.04823691,0.04009419,-0.00099351,-0.00010536,0.02982116,-0.04058401
tFD4653hJYE,0.72231815,1.15363456,-0.33630447,-0.0198085,0.08014554,-0.00896904,-0.01445402,0.05893822,-0.00608781,0.01157904,0.0193204,0.01676176,0.00559628,0.01177662,-0.01324489,0.01057354,0.01100269,0.00600216,0.02387951,0.00121245
YPboGQjMxNY,0.01192106,0.01481102,0.00930739,0.00525883,-0.0067681,0.01563686,-0.00421871,-0.00531059,-0.01021086,-0.00434101,-0.01691878,0.01537252,0.02007817,0.01361471,-0.01773616,-0.01502768,0.0074882,0.01276842,-0.03595222,-0.00977758
JRHTVNoJjb0,0.09125201,0.02073319,0.09747568,0.04818907,-0.07808603,0.00654628,0.00990747,-0.06088142,-0.01142663,0.03588158,0.00166366,0.02294986,0.06279503,-0.08252616,-0.01748927,0.18688507,0.12683243,-0.03301608,0.09416124,0.02338558
RnT_izvRznQ,0.10530883,0.04358816,0.18605626,0.06016806,-0.1478353,-0.00336514,0.03037976,-0.05468521,-0.0164748,0.16074813,0.15436413,-0.13942729,0.02427867,-0.13445881,-0.03142242,-0.11991254,-0.12134531,0.08108864,0.09132318,-0.01584533
ZAmCJoz4c4w,0.01400274,0.0027608,0.03935968,0.0135278,-0.02121892,0.14510982,-0.06205228,0.03200202,-0.01566167,0.00525396,0.0051833,0.00019446,0.02151916,-0.03407742,0.19432657,-0.06093621,-0.18214925,0.20557192,-0.0746915,0.11454275
QIKiQjEMUjY,0.03260459,0.00136299,0.12479481,0.31202127,0.26588194,-0.01681364,-0.040569,0.00665601,0.00048437,-0.00075732,-0.0087181,-0.00912491,0.011952,0.00684458,-0.02346057,-0.00917599,0.01277059,-0.00137444,-0.00769834,-0.00664497
DSRfs1qKWR0,0.00182098,0.00055448,0.00675106,0.00244814,-0.00438663,0.03300077,-0.01658293,0.00759638,-0.0046426,0.00540932,0.00536343,0.01044443,-0.00274113,0.00030018,0.03083563,0.00198136,-0.00518747,-0.01947313,0.01197064,-0.01280816
XXZ2wOom1l0,0.07365913,0.06415124,0.15983063,-0.10599173,0.05370667,0.01316027,-0.00467178,-0.10690096,-0.0043769,-0.0924801,-0.05097702,0.00767874,-0.13563655,-0.01719517,-0.03565424,0.14534283,0.05716549,0.22875675,-0.07184175,-0.17137557
K9S3YgFZN9Y,0.00779247,0.00261608,0.02692536,0.00864467,-0.016775,0.07341709,-0.03251602,0.0102455,-0.00541005,-0.03295273,0.00643464,0.02573342,-0.02749976,-0.04178259,-0.09457783,-0.1746789,0.05872961,-0.01036802,-0.05686355,0.04979958
JbjnuF8OiZc,0.06155205,0.05625668,0.10638448,0.03238564,-0.07916355,0.04115937,0.03611482,-0.13026156,-0.00796793,-0.06438246,-0.07975996,-0.03433698,-0.06180469,0.08615179,0.02409988,0.04855693,0.02818367,-0.06928336,-0.03820124,0.00293075
Cit2bKRejmc,0.17525965,-0.02970305,0.1333841,0.04337635,-0.16579572,-0.09229094,-0.09663192,0.13200507,-0.03578328,-0.12488598,-0.05827388,-0.09775325,0.04162615,-0.00454676,-0.00381689,0.02972479,-0.0485559,0.0102383,0.01615212,0.02494782
J7ieKmP96Hc,0.01375818,0.00544653,0.03830096,0.00799181,-0.00905051,0.25482716,-0.1157421,0.06413797,0.00260597,-0.04578334,0.13978538,0.06009197,-0.01446355,0.05709948,0.25147577,0.02326121,0.05830874,-0.1723447,0.13157643,-0.15371005
Gl_2LVRaM8U,0.02988258,0.02515312,0.06854489,-0.01303571,-0.01281996,0.0421374,0.01011857,-0.05522914,0.02248611,-0.00344472,-0.02445221,-0.00293878,0.00919487,-0.08505516,0.01323705,0.03143627,-0.13458079,-0.03198069,-0.07235099,-0.02757961
wdCDxH9KBss,0.1124737,0.06831621,0.16691227,0.05604296,-0.09924052,0.02769701,0.06436863,-0.22757777,0.01547013,-0.03079106,-0.08050049,0.02123237,-0.08715845,0.01972478,0.04469006,-0.05680629,-0.02240767,0.02387909,-0.01696903,-0.02412053
Cql6TAdpPDU,0.19962893,0.31653569,-0.00047419,-0.06824722,0.06462043,0.0121899,-0.0040629,-0.02300514,-0.00666888,-0.05469965,-0.0357346,0.01071925,-0.06295352,0.00829902,-0.01701209,0.08142324,0.08801014,0.04044817,-0.015143,-0.06755575
5tW7CPAVii0,0.01196296,0.0080015,0.04494113,0.0199524,-0.01175883,0.28192563,-0.13819195,0.06851033,-0.00331308,0.08217548,-0.09386668,-0.02595315,-0.00540609,0.05358439,-0.28258198,-0.21033002,0.19900825,-0.01044456,0.02152607,-0.09747591
x2r3FTy9HHE,0.01920136,0.00941492,0.03994745,0.00903138,-0.01560081,0.18074748,-0.0779979,0.02599242,-0.00854101,0.01538606,0.06375528,0.0242284,-0.01517498,0.00836855,0.18515885,0.05206231,-0.02352293,-0.052412,0.06160474,0.01181592
SZ8r5VKtGes,0.08711097,0.06912614,0.10138427,0.02484404,-0.06225601,0.05690711,0.05638973,-0.13808723,0.00894814,-0.09271123,-0.08107321,-0.11054751,-0.01916461,0.02521769,0.09791609,-0.03193481,0.07943864,0.02366136,-0.07559411,-0.00728048
1pglkwgsu1I,0.07075066,0.05561165,0.12217808,0.04242659,-0.09340697,0.03118042,0.04497769,-0.11999961,-0.02191541,0.00133236,-0.07896762,0.19878564,-0.10539525,0.03306889,-0.05817525,0.03610613,-0.08394742,-0.0198909,0.00268953,0.10446556
Y9HJ_U3TdXk,0.01170211,0.00301166,0.03872495,-0.00022618,-0.00982631,0.14215384,-0.05050589,0.03368091,-0.00470337,0.02481435,-0.03727048,0.00235982,-0.00838276,-0.00468717,0.00539408,0.0205772,-0.02140861,0.05039762,0.00753954,0.00104728
F1gM7N-WXdU,0.02220203,0.01460993,0.05458006,0.04723446,0.01383721,0.07460747,-0.03577049,-0.00759469,-0.00622579,-0.00559514,0.00789745,-0.00143701,0.0037382,-0.03374987,0.00191907,-0.03099784,-0.01711299,0.04259027,-0.07826599,0.03671931
MqpQhyjFZQU,0.04754883,-0.02807682,0.00642248,0.00763526,0.00323074,0.0236133,-0.00279241,-0.00588688,0.00710853,0.01040013,-0.01575606,0.02026968,-0.00192637,-0.03932456,0.02435646,-0.0001771,0.01143683,0.0069065,-0.00560095,0.00889363
yk8ziJow5dw,0.01290813,0.00395996,0.05236691,0.00752279,-0.00541948,0.23604113,-0.10852519,0.07221895,-0.00796018,0.05578501,-0.05418724,-0.02589686,0.00287459,0.04861523,-0.25330938,-0.18780361,0.08050077,0.09095797,-0.08683258,6.04e-06
FZbMPtLRr00,0.00496523,0.00356926,0.02728169,-2.318e-05,0.01073837,0.10901209,-0.04689036,0.04129454,-0.00385189,0.05509174,-0.06266569,-0.03350532,0.02619608,0.0265192,-0.06755703,0.01163671,-0.05621121,0.08030769,-0.04903794,-0.02939334
iQxwDGnuByc,0.16288752,0.04053196,0.18336075,0.03167524,-0.10247657,0.02695112,0.03259848,-0.14542692,0.01795563,-0.03096301,-0.02038438,-0.03524159,-0.09314722,0.05846318,0.08869316,0.02211907,0.09826258,-0.05117941,-0.07544007,0.03938603
PDQ3laPc--4,0.68947631,-0.44604095,-0.10448488,-0.01756806,0.04544483,-0.02208517,-0.02252648,0.07696022,0.04694917,0.01608477,-0.00111619,0.0689346,-0.01465261,-0.02616067,0.01631959,-0.03824255,0.0591485,0.06830426,-0.07064761,0.03158929
-uSQcEfnKp0,0.01015339,0.00157728,0.02509792,0.00804356,-0.0119962,0.07560894,-0.0251044,0.00479345,0.0019736,-0.00576344,-0.00394558,0.0051197,0.01210717,-0.00027919,-0.00207717,0.00578325,-0.01607225,0.00991079,0.00365382,-0.01057226
9rRvmcDpWwA,0.01178237,0.00770712,0.04330317,0.01736502,-0.00948512,0.23953929,-0.11157703,0.0508226,-0.00114882,-0.0406619,0.10289572,0.05065829,-0.00415202,0.02751333,0.2338205,0.03837846,0.02528054,-0.13822803,0.10247615,-0.16304399
TRVnxUYQAmI,0.057792,0.04004867,0.0967803,0.02740829,-0.05513668,0.04188175,0.06534037,-0.07251948,0.00113481,-0.06792622,-0.04926456,-0.09425058,0.0080778,-0.02017195,0.06723584,-0.06605824,0.04463673,0.0044413,-0.05626158,0.00496736
aRLwX_dN8AQ,0.00713417,0.00405025,0.03451954,0.01248492,-0.01254803,0.22295068,-0.10313521,0.05177172,-0.02298468,0.01938738,-0.00807952,0.0065572,0.02706725,-0.02853115,0.21967358,-0.07192598,-0.2049052,0.25975909,-0.08493778,0.17253726
iaYdIU5n6vw,0.02592694,0.00948696,0.06817969,0.01045072,-0.03021517,0.25357514,-0.11665288,0.08657376,-0.04157826,0.05561886,-0.05677132,0.03298395,0.03218921,-0.03267562,-0.05330115,0.05215908,0.08292246,0.06360558,-0.03933827,-0.00015958
aQi987cz1nk,0.08098449,0.06897967,0.043912,0.02055683,-0.04304423,0.02254639,0.02142417,-0.04347896,-0.02159655,-0.01148512,-0.03821804,0.05936322,-0.05149616,0.06420445,-0.0231199,0.0296558,-0.01696018,0.01252691,0.01397279,0.09475313
q_ynGwBIxLk,0.72231815,1.15363456,-0.33630447,-0.0198085,0.08014554,-0.00896904,-0.01445402,0.05893822,-0.00608781,0.01157904,0.0193204,0.01676176,0.00559628,0.01177662,-0.01324489,0.01057354,0.01100269,0.00600216,0.02387951,0.00121245
UgfrzicHc80,0.02936836,0.0148007,0.13462819,0.24960093,0.17222818,-0.00829002,-0.03247362,-0.01446238,-0.01005259,-0.02370274,-0.0244389,0.01410878,0.01085146,-0.04812274,-0.0071415,-0.01688084,-0.01960251,-0.0474077,0.01030953,-0.02972371
6WqWhSmCbXk,0.10010681,0.03539206,0.18449972,-0.01041828,-0.07862792,0.0104041,0.01575578,-0.11412868,0.12839741,-0.05120095,-0.04620632,-0.11291546,-0.01068777,-0.16113541,-0.0813852,0.00876256,-0.22477679,-0.01459405,0.09930185,-0.07870724
kmKuk_TCEvU,0.11878266,0.04692054,0.13681081,0.04462183,-0.10585734,0.03950895,0.04970323,-0.18402375,0.04070044,-0.03071573,-0.01047439,-0.08057837,-0.03145015,0.12559003,-0.0066383,0.0318564,-0.00093015,-0.15070347,-0.00719968,0.00279253
8fIRAhGGRgA,0.01985,0.01239343,0.05953694,0.01109362,-0.00908629,0.33060302,-0.14528838,0.08100803,0.01050299,0.01742474,0.01075596,0.00380681,-0.01826657,0.0446483,0.05174627,0.04062745,0.06751758,-0.13568442,0.09172972,-0.10656801
ftk4VdOcaj8,0.10996055,0.0641973,0.19871931,0.04087319,-0.13165943,-0.02725973,-0.01817714,-0.07523099,-0.01648493,0.25876258,0.15285011,0.02850096,0.07071505,-0.13525147,-0.02330017,0.06379924,-0.00921718,-0.04556374,0.00180914,-0.0243578
_jxLMMcKmRQ,0.10608098,0.04429945,0.08974756,0.01982002,-0.05663058,0.03206325,0.05383363,-0.1892106,0.02912789,-0.05044022,-0.05535583,-0.12931688,0.01499086,0.05700867,0.11979948,-0.02862476,0.07200607,0.06219616,0.03057243,0.02600966
yy_J5fdELm0,0.00849088,0.00253871,0.02999854,0.01243784,-0.01115884,0.11568638,-0.03376679,0.02296999,-0.01562258,0.01905034,-0.04129129,0.00182156,-0.0118777,-0.0467492,-0.01232224,-0.02157909,0.14551534,-0.03671398,0.01300827,-0.11171168
dqOmDZPkIF4,0.1041236,0.05447098,0.18793058,0.0061299,-0.07534939,0.01202979,0.01815315,-0.18497928,0.06148927,-0.16530583,-0.06183987,-0.28431827,-0.0585297,-0.14841127,-0.1640707,0.03432303,-0.22279354,0.24912546,0.37738153,-0.23367299
LMJb-_uL6lQ,0.00476762,0.00228238,0.01897082,0.01006749,-0.00444914,0.06595762,-0.02468382,-0.00136058,-0.00065355,0.02022287,-0.03291791,0.01989114,-0.02549894,0.00090557,0.0276826,0.03254956,-0.006412,0.01798699,-0.01666473,0.02421832
1d3wR5LJ4-4,0.03821854,0.01343766,0.09907951,0.03472033,-0.06863465,0.04008892,0.04079467,-0.12424799,-0.05411843,0.02954881,-0.09085528,0.33601291,-0.21936705,0.13137575,-0.0715385,0.02890127,-0.09534854,-0.06239705,-0.03572739,0.11090538
DYhg0nWZ1UQ,0.10348623,0.04589746,0.11358512,0.02947702,-0.08749872,0.0816596,0.04597823,-0.16179717,0.09142607,-0.15463766,0.13271368,-0.07590305,0.00891877,0.07912338,-0.04807373,0.05232472,-0.0149384,-0.08229632,0.00515733,0.11828129
crrTHKN_R58,0.05805136,0.05979938,0.08543015,0.03490242,-0.04667367,0.02732077,0.0317781,-0.10082806,-0.03880489,0.01536454,-0.03246029,0.2279448,-0.07037538,0.05915266,-0.05970945,-0.00319613,-0.12621561,-0.02394883,0.04702647,0.09349491
ByJAH8vTgfw,0.05738042,0.0312705,0.1458362,0.0255845,-0.09501053,-0.02818686,0.00414539,-0.09654219,0.00560904,0.10914595,0.07587329,-0.10586218,-0.03786601,-0.05189598,0.16238999,-0.13635453,0.14409302,0.13926021,-0.03092797,0.02077199
TfojYStTlZE,0.06520334,0.02267826,0.13058951,0.05271558,-0.10451376,-0.00827493,-0.02289292,-0.05048252,-0.0031185,0.15941007,0.10777758,0.00301464,0.01438676,-0.12285922,-0.00774005,-0.02721352,0.01323731,-0.02506996,0.08554131,0.0594402
wJOakc64crg,0.03927727,0.01446839,0.07905187,0.03629963,-0.03723106,0.02644492,0.01817137,-0.06335167,-0.02397857,-0.04464788,-0.05484097,0.00887383,-0.04378156,-0.07672525,0.04139291,-0.05065673,0.01833361,-0.03754397,-0.17953612,-0.13791868
EGTF9mGda4U,0.01792967,0.00118367,0.02168869,0.01260123,-0.01101897,0.06735658,-0.0306065,0.02062597,0.00301185,-0.02971009,0.05268583,0.0202375,-0.00186078,0.00849689,0.06890113,-0.0074363,-0.03759784,-0.00336033,0.01804758,0.00032513
ABoKfabPQyY,0.01787777,1.215e-05,0.05216929,-0.00150292,0.00490417,0.26724879,-0.11432395,0.07846218,0.0079094,0.13906819,-0.19802067,-0.05475155,-0.02202712,-0.00047678,-0.04021831,0.19057399,-0.06026659,0.04556826,-0.00262977,0.07993052
bbhBRpDlFHE,0.01184826,0.0046134,0.04172057,0.01860288,-0.01849263,0.07991651,-0.02278461,0.00020223,-0.00746397,-0.02423594,0.00276982,0.0085288,0.0075327,-0.00425522,-0.04734838,-0.03744756,0.02573048,0.00487737,0.01767998,-0.00241442
KXpgCNB6Dcs,0.07632466,0.0551943,0.08100053,-0.03402857,-0.00252962,0.01102144,0.00761928,-0.09765532,0.04033939,-0.04322117,-0.02375572,-0.07656595,0.00355641,0.09300914,0.01104801,0.04202472,0.01823195,-0.03510813,0.04018427,0.04287817
sXV44nHGfAA,0.02903738,0.00921842,0.04695117,0.00967504,0.03092964,0.2122687,-0.09791347,0.07883688,-0.00128616,0.08721705,-0.14187163,-0.04783831,-0.00642766,-0.04313823,-0.06912312,0.10312461,-0.05922809,0.03492509,-0.03089867,0.02085456
dhbt8y_LXQY,0.02727234,0.01968676,0.03836288,0.01527738,-0.02211423,0.12699925,-0.05720353,0.03606005,-0.0113584,0.00965779,0.01209378,0.01090866,0.00890263,0.00450531,0.07948775,0.00572771,-0.05175714,0.04120443,-0.00257016,0.03029158
MWrMtRjLhjk,0.05748766,0.00520306,0.09490941,0.03329221,-0.07861902,-0.02316902,-0.02820014,-0.05412827,0.00908229,0.16022239,0.12175178,-0.03700897,-0.01519738,-0.01933513,-0.02106234,-0.01586764,0.04680449,0.03397547,0.02850539,0.03145186
mbGPgjXCx24,0.08847215,0.01038856,0.1186013,0.04997219,-0.07171195,0.02674962,0.00518937,-0.12619011,0.02289066,0.036926,0.03879253,-0.07528817,0.04764246,-0.04181487,0.05205661,-0.08620628,0.074422,-0.01089072,0.03757007,-0.00908569
CPJhzRv9y_8,0.01153414,0.00579241,0.05124926,-0.00983514,-0.00597096,0.14386992,-0.05673111,0.03488891,-0.00730701,0.04518332,-0.05945643,-0.00890373,0.0341747,0.01195442,-0.10718214,0.06199975,-0.07433925,0.09286775,-0.07374483,0.00596752
T7_l896OH20,0.07312862,-0.02037406,0.05765685,0.02970864,-0.03213477,0.00963358,-0.00267502,-0.00628598,-0.00170564,-0.00463054,-0.01964757,0.04473744,0.00153693,-0.06564423,0.00056816,0.01711061,0.02113779,-0.03282725,0.02833977,0.04778623
2y_3sFy4R1A,0.04944872,0.02363562,0.07139362,0.02513886,-0.04580397,0.02493353,0.00702343,-0.06852995,0.07578493,-0.05553124,-0.03647674,-0.02098448,-0.00181962,-0.03616068,0.05481484,-0.02646328,0.0509245,0.02492475,0.00920187,0.0243514
2mOqRPcWgMM,0.02052571,0.01012289,0.03540967,0.01394345,-0.00724934,0.21948901,-0.10941379,0.05796766,-0.00415148,0.01487682,-0.02877713,-0.00415548,0.01128299,-0.01395366,-0.07760953,-0.06661053,0.04447789,0.01111021,-0.02531293,0.00025514
fr78adfAnuA,0.02014832,0.00723481,0.08095231,0.00216445,-0.0169334,0.36132813,-0.15424196,0.06833172,-0.01981624,0.06437883,-0.05433049,-0.0427962,0.05253404,-0.02356952,0.24505102,-0.02122449,-0.37285298,0.30734118,-0.16072737,0.23828728
nVHr2D6tnA4,0.0953658,0.01480863,0.12218226,0.04076494,-0.11584923,-0.03469801,-0.02416465,-0.05054353,0.23584841,0.20365485,0.12962227,-0.00140223,-0.0058388,-0.01652305,-0.04856222,-0.02091552,-0.06374071,-0.08811804,0.01756652,-0.06153819
9oVPXnEkegY,0.08609156,0.03323298,0.08845547,0.01600836,-0.03799822,0.04011906,0.02394281,-0.06869059,0.02552986,-0.02241949,0.00384473,-0.05617868,-0.00913685,0.00170816,-0.00815796,0.03369566,-0.02500129,-0.07424012,-0.0341079,0.05523165
v2SVwN2WLHA,0.21060993,-0.01312841,0.24689782,0.04131706,-0.20335659,-0.15714701,-0.14202891,0.11552544,-0.0673853,0.07136961,0.10529264,-0.05762589,0.02016558,0.02619816,-0.03163215,-0.10776695,-0.08896462,0.00412016,0.2163061,-0.07299249
bfENsVP77VQ,0.04868146,0.05840956,0.0279465,0.00181565,-0.00949978,0.27365093,-0.11831707,0.09305374,0.02816868,0.02128717,0.02026435,0.00671439,-0.00310068,-0.00710973,0.10878191,0.06280912,-0.03230403,-0.13797454,0.06138498,-0.05434965
mQR17nCXUSA,0.04251787,0.03706222,0.07920655,0.04361979,-0.01445852,0.01509565,0.01183225,-0.03865394,-0.00012418,-0.00728544,-0.03559966,0.00483836,0.01543863,0.05211198,0.02084913,-0.03304859,-0.0186627,-0.05484885,0.00936335,0.0132296
q8AEtTOo2ZU,0.25737371,-0.01311327,0.27828272,0.0238074,-0.19994802,-0.14648902,-0.07764499,0.13729058,0.12760204,0.02475844,0.04148182,-0.03672154,0.02572713,0.15113224,0.01077753,-0.00267433,-0.08925361,-0.08251111,0.01753782,-0.08513418
4xed6CNu0j8,0.05408805,0.02723819,0.24800508,0.58778387,0.49978877,-0.05595325,-0.0440563,0.02792097,-0.00688053,-0.00553955,0.0104914,-0.01752595,0.00426542,0.03209158,-0.00753662,-0.00340638,-0.0140521,0.00070726,-0.00209622,0.01931021
_9bYQ2tvc_s,0.08017375,0.00507038,0.08949123,0.02959056,-0.07780882,0.01836368,-0.02313775,-0.07791959,0.03176331,0.13626698,0.12015723,-0.03029238,-0.01235632,0.03585295,0.01248839,0.05269485,0.03123801,-0.02299292,0.08917765,0.02780185
wEb6ULf3TzU,0.01275214,0.0079621,0.02697645,0.00466035,-0.01068211,0.09901115,-0.045635,0.01627171,-0.00551992,0.03032212,-0.02881648,-0.00384603,0.00410573,-0.00978975,-0.02768483,-0.01581294,0.04073405,-0.02539722,0.01473373,-0.03436063
wN3O2GSvoWE,0.05859391,0.01933521,0.10109564,-0.0009641,-0.04051416,0.02084944,0.02576461,-0.0694378,-0.08393657,0.02729861,-0.02462231,0.13939934,0.00049559,-0.18242436,-0.05076837,-0.00895453,-0.15074253,-0.10527216,-0.0364079,0.04163183
FBq_mtNPweg,0.1010104,0.00202958,0.2531476,0.62698431,0.53012117,-0.06200594,-0.03509331,0.00381169,0.01302061,0.05652097,0.02998911,0.01393948,-0.04229418,0.07089531,0.02042119,0.00220008,-0.01986975,-0.010433,-0.11388856,-0.07961195
LkaaMQx9uZ0,0.06664938,0.0327938,0.17778105,0.00770889,-0.09057164,0.00351794,-0.00531109,-0.14420917,0.02014182,0.08460307,0.06326745,-0.13636657,0.0407455,-0.17199286,0.07699717,-0.10917374,-0.0083022,0.12898018,0.11647063,0.04707079
THMW7bXTog4,0.02615489,0.01021714,0.0639899,0.00978161,-0.01665864,0.03552047,-0.00047106,-0.02351331,-0.03532343,-0.01456583,-0.04505386,0.0940724,-0.03957976,0.00770327,0.00448653,-0.00716941,0.00990704,-0.02021489,-0.0359248,0.03604311
KKwxanUOAd4,0.05332968,0.02833253,0.1229341,-0.00616797,-0.04534959,-0.00992594,-0.01662753,-0.07174076,-0.01951476,0.08462431,0.01985564,0.06640463,-0.02874927,-0.00728438,0.02317097,-0.01535582,0.02641322,0.00799347,0.03594658,0.04301308
k7aOM--Ycts,0.01041741,0.0004931,0.02674101,0.0124535,-0.00909051,0.08977038,-0.02582659,0.03043301,-0.01692336,0.00478868,-0.04335336,-0.00247197,-0.00886287,-0.06105721,0.04101123,0.02195232,0.10238828,-0.03997234,0.01898881,-0.05884261
AzNb2nQrM7U,0.02823798,0.01959805,0.04817273,0.01483711,-0.02933357,0.01458717,-0.011339,-0.01321204,0.00074269,0.03542921,0.01878027,0.01311718,0.00272621,-0.03480314,-0.00130117,0.00279628,0.03134365,0.02370735,-0.01402711,0.02793273
0VjrLsr61pk,0.07020081,0.07545369,0.10117355,0.0112778,-0.059836,0.03659501,0.03279284,-0.12328219,0.00479759,-0.08184976,-0.05567548,-0.10868086,-0.04317536,0.03098357,0.10122109,-0.08054732,0.13772611,0.0937877,-0.04861646,0.10092524
sebAi3RkL4o,0.21339887,0.0697101,0.19383346,0.06642973,-0.19952758,-0.09825953,-0.08459207,0.07609837,-0.06494601,0.16755143,0.14759665,-0.05238653,0.07130486,-0.08462715,-0.05003619,-0.02027239,-0.05581951,-0.04090676,0.00804264,0.01601103
RCl-cN1Hf-Q,0.08658984,0.06991659,0.30674355,0.6594021,0.56158681,-0.05154184,-0.03645501,-0.01231419,0.00224683,-0.0511636,0.00212065,-0.0444025,-0.00222283,0.03606913,-0.01804398,0.01976233,0.01195953,0.00348886,-0.01532062,0.04776046
2gFNJ6_ogzg,0.09714191,0.04321509,0.16356566,0.05127469,-0.13920961,0.01385392,0.02103361,-0.09033524,-0.01071703,0.23883593,0.17214836,-0.00343188,-0.03270563,0.01737303,-0.01844453,0.05696798,0.14625535,0.05699948,0.09566236,0.21392819
q4PUKnyy3QQ,0.28361468,-0.05522756,0.18297748,0.06895553,-0.22022379,-0.14214384,-0.11579889,0.21532677,-0.13167466,-0.10142945,-0.07839791,0.22003109,-0.00235181,0.04611218,-0.0107644,0.03611125,-0.03277087,-0.0543324,-0.01027647,0.05941616
1VSBgPn28zA,0.01459498,0.00378148,0.0563312,-0.01616436,0.00468843,0.23245572,-0.10109726,0.06347117,-0.00705467,0.06455551,-0.0927566,-0.02020714,-0.01552182,-0.01403424,-0.05097615,0.07857088,0.01750766,0.00126656,0.01331696,0.01446486
a4jo0YM7WRg,0.0133523,0.01216637,0.03205664,0.01646667,-0.01047317,0.03868277,0.00540431,-0.03181029,-0.00926595,-0.01306624,-0.03297128,0.00526855,0.01353132,-0.04024078,0.00506683,-0.03469079,0.00707887,0.02885089,-0.07614355,-0.01315581
HVPhcOmSMtM,0.14778753,0.07802432,0.15624074,0.06921401,-0.11569115,0.02350261,0.01945103,-0.15333539,0.03237389,0.10209595,0.10537419,-0.13358846,0.06982156,-0.11820692,-0.04832804,-0.08247647,-0.04257679,0.04547881,0.16051169,0.02141101
eYDQWSBQ47s,0.0676387,0.00293539,0.11285851,0.04327842,-0.05054429,0.021563,0.02898042,-0.09726751,-0.01081741,-0.04016615,-0.05243919,-0.00144611,-0.06148648,-0.09914427,0.04598263,-0.08541892,0.08010461,0.00829135,0.00545879,-0.03672652
SK7yqZdN3Dg,0.22822708,0.01387471,0.22396333,0.00071984,-0.17645073,-0.16802141,-0.11769771,0.17790213,-0.1614949,-0.11122253,-0.06974949,-0.01972947,-0.15619234,0.13843202,0.09787781,-0.23231318,-0.08803574,0.25047978,0.13444082,-0.15200874
daa-UCIuoY8,0.07857342,0.03358855,0.1124504,0.04953004,-0.06322015,0.00700151,0.03352878,-0.04656546,0.14485094,-0.08302294,-0.0987299,0.00949741,-0.03649259,-0.07445728,-0.02056692,-0.01314172,-0.02558821,-0.07995627,0.04067663,-0.01570655
hXPy19kPego,0.04983563,0.04290989,0.07914197,0.02123655,-0.05202556,0.02050523,0.04343256,-0.07069907,0.0002705,-0.0435857,-0.04085089,-0.07477278,-0.03633698,0.01476119,0.06634902,-0.05644649,0.0632024,0.05469978,-0.0107767,0.03886006
OuOIrxBXB0M,0.00590459,0.00630775,0.01303646,0.00418208,-0.00649961,0.07848568,-0.03521159,0.01289995,-0.00551426,0.00732989,-0.00270023,-0.00373426,0.0112831,-0.02219435,0.03479679,0.03336553,-0.06450711,0.02620144,-0.02592552,0.07340634
EFhMcL3Kf1c,0.01699328,0.00861593,0.03599824,0.00572413,-0.01913198,0.11356678,-0.05040237,0.00929908,-0.00478571,-0.00281995,-0.02293089,-0.01147125,0.00505647,-0.05172811,0.06457599,0.04518046,-0.08559402,0.08722372,-0.06186012,0.05783419
toJGQUZbdqc,1.07943407,-0.72611894,-0.26658884,-0.07544538,0.18954356,0.0919383,0.0830517,-0.14092965,-0.32874043,0.0201278,0.04142934,-0.09132549,0.01105965,0.0130147,-0.00987033,0.01893569,-0.04878387,-0.05037003,0.00354318,-0.04485618
FJNk3OGtmbk,0.0577962,0.03063396,0.26712468,0.60309762,0.53763765,-0.0687727,-0.0581432,0.01745666,-0.00333773,0.01571957,0.01063782,-0.00793819,0.00927049,0.0286269,0.00389836,0.0013744,0.00588631,0.01027878,0.02436362,0.01380131
kXenRXelpKs,0.00903422,0.00211622,0.02518415,0.00508314,-0.01085438,0.1043635,-0.042272,0.01406042,-0.00443583,-0.01516287,-0.0153154,0.01090422,0.01327241,-0.03889601,0.01586295,0.03027003,-0.03491039,0.02577425,-0.03364116,0.03853922
KfaPxlvQx1M,0.06645794,0.03389119,0.31284191,0.731032,0.61360159,-0.08780866,-0.04404341,0.02576511,-0.00930015,-0.00075934,0.00028307,-0.04538065,-0.0230426,0.00907169,0.06401179,-0.04373093,0.02617637,0.05901535,-0.01291224,0.00303207
VKaslzzv1QM,0.05503022,0.04320589,0.10500005,0.03673674,-0.04112285,0.05347045,0.04870124,-0.15575651,0.00124964,-0.09252899,-0.04083211,-0.03037108,-0.03820585,0.02379292,0.0223214,0.01150951,0.07947443,-0.01780139,0.02522771,0.01911698
b-NJDpglmeM,0.99098191,-0.61193686,-0.15874664,-0.03275191,0.06460179,-0.02516562,-0.03996372,0.07775985,0.69493491,0.01284586,-0.05511823,0.14397165,-0.04973574,-0.00228965,0.01348861,-0.02768234,0.02511157,0.04133714,0.0147539,0.0419533
GAf7J_t1o8U,0.10382112,0.07220134,0.15172903,-0.00359133,-0.04916569,0.07961492,0.10321645,-0.13548252,0.07647969,-0.06409131,-0.05331003,-0.14439396,0.04645022,0.05807311,0.05331483,0.06742992,-0.05658269,-0.08596299,-0.10853009,0.09025478
-pNi4dh7VFo,0.06236339,0.03965005,0.06971683,0.0125315,-0.04254237,0.03024259,0.01383174,-0.09067462,0.02010145,-0.00434477,-0.02393202,-0.06365781,-0.00754456,0.07808841,0.00432612,0.015409,0.00660124,-0.01795549,-0.01861728,0.04631774
sj1y9FDJKCM,0.01216579,0.01389122,0.03678494,-0.00571451,0.00221842,0.2781041,-0.12500373,0.08986761,-0.00016723,0.03442791,0.00188463,-0.00053042,-0.01811512,0.02644083,0.1304734,0.10569326,0.01967008,-0.11791672,0.08363165,-0.08726528
sbzsqNJuZvg,0.01084731,0.00808389,0.04320996,0.00374608,0.00275377,0.23227833,-0.10894982,0.08326574,-0.00546058,0.10005175,-0.0942799,-0.05344497,0.02740062,0.08352785,-0.2431817,-0.14031107,0.09730682,0.07237516,-0.04232687,-0.03890674
kf9ghd5-VII,0.08406172,0.0791341,0.14491059,0.00606157,-0.06994724,0.02171771,0.00936526,-0.06784883,-0.0186651,-0.01894425,-0.02131018,0.00277621,-0.01549628,-0.10291413,0.05025836,-0.11652526,-0.03898884,-0.01155416,-0.0240366,-0.00581709
kTlm_3HwRFg,0.01546895,0.00044576,0.0342564,0.01508567,-0.01441593,0.09677319,-0.04550095,0.01036196,-0.00181995,-0.00816953,0.00910277,0.00156338,0.01750958,-0.0045487,-0.03950755,-0.00644619,-0.00209843,0.00876662,0.00055404,-0.01421995
VsLOWe6VuyQ,0.01612274,0.00993896,0.03327619,0.00775579,0.00025397,0.08204396,-0.03254469,-0.00818238,0.00220435,0.05660334,-0.0215436,0.02111782,0.02394136,-0.01063116,-0.02024133,-0.05621299,0.03730476,0.11348435,-0.13700157,0.15227563
LKxIrZFhONI,0.0310394,-0.00960131,0.02456683,0.01964201,0.00559847,0.0938101,-0.00339015,0.01697536,-0.01597432,0.00596847,-0.02126892,0.01109414,-0.00921258,-0.07941125,0.03095406,-0.0214243,0.13721946,-0.01832279,0.00514621,-0.0848472
eAwkhxinCOc,0.09050567,0.09327083,0.10956045,-0.0023289,-0.02797359,0.03443217,0.05479257,-0.11479551,0.02543116,-0.03700747,-0.05352372,-0.09081675,-0.01009549,-0.00372108,0.0375783,-0.00542051,0.01443487,-0.04912577,-0.0445326,0.12557318
NRELko2BoRk,0.14138885,0.06788313,0.11689002,0.04226055,-0.0960849,0.03188563,0.04965852,-0.12555501,0.00626941,-0.05701314,-0.09074849,0.02898254,-0.00451369,-0.10915198,-0.00192707,0.10862801,0.034719,-0.03593084,-0.0449923,-0.01375293
q1l42BPzbIk,0.02119614,0.01350136,0.05362264,0.02134056,-0.02704369,0.00950351,-0.01081107,-0.02788405,-0.00989991,0.04163379,0.02139949,0.01665404,0.01323427,-0.04804249,0.01376972,0.00069718,0.06955452,0.01058555,-0.00109708,0.06286379
MlcUa5-3G68,0.1088073,0.07416608,0.14024978,0.03308238,-0.08730354,-0.00290353,0.00402857,-0.11061692,0.00383427,0.16651673,0.10657848,-0.043779,0.01935073,-0.00624797,-0.04071366,0.0360827,0.00485044,-0.03303412,0.07741636,0.07092164
P9MkPdQc74o,0.04538399,-0.00945541,0.04576378,0.01716806,-0.02528083,0.00753825,0.02376097,-0.05827263,0.03394726,0.04945739,0.00034884,0.03010521,0.12918873,-0.00015363,0.04456247,-0.08489633,0.04395242,0.05240298,-0.05985989,-0.06709837
21UbB1_pq3o,0.02879323,0.02232651,0.05032988,0.01136103,-0.03210938,0.02361817,0.00938145,-0.07429218,0.00061175,0.00444815,-0.02439972,0.08933129,0.25978397,0.07443897,-0.01524977,-0.01523659,0.00308587,0.03754576,-0.00860985,-0.07077435
Gr6qcQdzDfw,0.07463826,0.03890419,0.13071246,-0.03969215,-0.01068129,0.01549118,1.76e-06,-0.11757168,0.04227936,-0.04377447,-0.02156409,-0.06650746,-0.00920685,-0.00156946,0.00583065,-0.06071846,0.00467809,-0.04284295,0.02390315,0.03910094
IZNeoCSdcfY,0.05709944,0.04981342,0.07969066,-0.01063303,-0.02515615,0.03232582,0.00886844,-0.07534534,0.00579874,-0.0156506,-0.00297389,-0.02653599,0.02287314,-0.08773257,-0.02203229,-0.01244973,-0.06038822,-0.07452025,-0.03255912,0.08232705
VVfMO6SJZLw,0.0906288,0.06392425,0.11291179,-0.00598462,-0.0380442,0.05645046,0.10394575,-0.06033669,0.03364801,-0.08028506,-0.00847249,-0.04846429,-0.00506371,0.04566933,-0.04200411,-0.02242987,-0.00605858,-0.0465576,-0.01749504,0.07621483
ckyeC880OPA,0.04480653,0.03903563,0.09805647,0.01633705,-0.04497516,0.03083669,0.03777129,-0.0722738,-0.02503205,-0.03065882,-0.02006957,0.020296,-0.08265471,-0.05054868,0.00280165,0.0092797,0.09268903,0.06062848,-0.08310194,-0.03663875
d0VoQtmw9Eg,0.13846842,0.01023674,0.12890348,0.0045528,-0.09237004,-0.0351923,-0.02141728,0.0267782,-0.01217386,-0.0967343,-0.01343234,-0.06100277,0.0238887,0.06781817,-0.00748618,-0.00692457,-0.04743652,-0.04863449,-0.01174357,0.05928985
rr8ZpzHcZJc,0.25653861,0.01718658,0.16053355,0.01452009,-0.16101264,-0.12938426,-0.10168146,0.17964206,0.29079202,-0.09327088,-0.08420196,0.01392283,0.01986735,-0.11211405,-0.01944793,-0.01100108,-0.21990027,-0.08179815,-0.01813843,-0.18244025
0DB_Qj43O6Q,0.01683722,0.00457513,0.03790739,0.01916866,-0.02310749,0.0567946,-0.02380681,0.02067513,-0.02244719,-0.00072265,-0.0031323,0.06108412,0.01307026,-0.04756458,-0.01195288,0.08090607,0.06080404,0.01674001,-0.00455292,0.02118343
nHH771Vtkxw,0.06185467,0.03553859,0.13141027,0.01023761,-0.05431093,0.01737457,0.04172645,-0.11954566,-0.06012379,0.00614682,-0.11626985,0.38985076,0.05677542,0.08066862,0.01842681,-0.13488063,-0.14001383,-0.07037092,0.00451346,0.09853675
IwjPma4PPTM,0.09676086,0.0559777,0.13447634,0.03375837,-0.09918987,0.05485359,0.0717299,-0.23233299,0.07250883,-0.10876422,-0.07923875,-0.25852254,-0.03327159,-0.06781325,-0.12692301,0.11726143,-0.15420181,0.02953794,0.07427331,-0.02918991
3OUrr_2UCYs,0.01364894,0.00623703,0.04551451,-0.00992156,0.00090722,0.22667818,-0.10061248,0.06810342,0.00167056,0.06551387,-0.07742046,-0.03396604,-0.00470971,-0.0196532,0.01780689,0.10793048,-0.04734774,-0.03034666,0.02829972,0.00694157
az3VKD9_H7Y,0.09273594,0.06941605,0.15679405,0.05127187,-0.12582157,-0.0072926,0.01396148,-0.09030962,-0.04780557,0.22927532,0.09353977,0.14696451,-0.04678353,-0.02177386,-0.0491268,0.08651352,-0.02871557,-0.02226321,-0.06839343,-0.00618398
UtXLbVdM7wk,0.13361644,0.00406774,0.15805023,0.06775792,-0.11103291,0.00675428,0.01895959,0.0482889,-0.01938544,-0.14488455,0.05733264,-0.07845341,0.06578048,0.01687851,-0.06208376,-0.00460826,-0.09303802,0.00206824,0.05377841,0.06051001
e5jQUYrRPRk,0.17937746,0.00516221,0.14647661,0.05239813,-0.12760104,-0.0536992,-0.01135695,0.09819096,-0.03740355,-0.12817453,-0.07605535,-0.02037568,0.02205727,-0.04745037,0.01541285,-0.02294368,-0.0080687,-0.03748018,-0.02069763,0.04348159
XfY_L8MLOsU,0.01630571,0.00474592,0.05255102,0.01782855,-0.02140491,0.17362711,-0.08075764,0.01759911,-0.01132889,-0.01066704,-0.03712267,0.00078145,0.01695488,-0.06425514,0.02065799,0.08233032,-0.10484011,0.05545036,-0.08025825,0.13905898
9VyCOVdFpL8,0.00826085,0.00439624,0.03456432,0.01337386,-0.01142076,0.2174348,-0.09872712,0.0505896,-0.00229324,0.00294789,0.05074964,0.01829756,-0.01240667,0.04738019,0.12313294,-0.01102071,0.03978967,-0.10526987,0.08112524,-0.11156966
YR-4vFbwe18,0.07790467,0.04162058,0.16109739,0.01188865,-0.07581782,0.01383339,0.00294425,-0.12137864,0.00854407,0.09865444,0.0386426,-0.04452235,-0.00868023,-0.00432854,0.05040802,-0.06818394,0.00141993,-0.02257991,-0.036392,-0.04797051
QzZ4VwDHAT4,0.00696504,0.00322239,0.02688456,0.01188528,-0.00926818,0.07090303,-0.02255475,0.00162449,-0.00319407,0.00858258,-0.02192041,0.00245764,-0.01909055,0.02291517,-0.0638135,-0.02931714,0.01733403,-0.01629026,0.01758961,-0.03972035
8Cc0marf_vs,1.07943407,-0.72611894,-0.26658884,-0.07544538,0.18954356,0.0919383,0.0830517,-0.14092965,-0.32874043,0.0201278,0.04142934,-0.09132549,0.01105965,0.0130147,-0.00987033,0.01893569,-0.04878387,-0.05037003,0.00354318,-0.04485618
GmTuhpMe1oM,0.04941178,0.01748212,0.03744786,0.00801634,-0.02009162,0.02075732,0.02253071,-0.07079892,0.03492632,-0.01713462,-0.00604135,-0.04573219,0.00662022,0.06056916,-0.00219558,0.02722088,-0.00861123,-0.05693632,0.03887829,0.01992224
o39vHtwxPRg,0.06635926,0.04691178,0.27126819,0.59768416,0.57099433,-0.07212984,-0.05173359,0.03827938,0.00546058,0.00287989,0.002014,0.007574,0.00359523,0.01827504,-0.00226459,0.0167522,-0.00483935,0.01473184,-0.00027707,-0.00941992
lk7HWLeXjS4,0.08636987,0.05120682,0.10873692,0.0318919,-0.03850685,0.03436478,0.03622164,-0.11662934,-0.00372758,-0.03816357,-0.0580706,0.08923859,-0.05660134,0.0596455,0.01847083,0.0278245,0.01230187,-0.03779075,0.01214,0.0890366
Q5rmW96IGqA,0.00659175,0.00777939,0.01144711,0.01097879,0.00201306,0.07767661,-0.03899936,0.02595816,0.00156398,-0.01598159,0.0187667,0.01370585,0.00882333,-0.00697053,0.00508931,-0.00351914,0.01150375,-0.01085815,-0.00168257,-0.01865845
95KqKaDsIAM,0.07250002,0.05059788,0.11752574,0.04718241,-0.0640349,0.04414012,0.03259293,-0.10674704,0.00205611,-0.05774611,-0.00286474,0.06564331,-0.06246788,-0.00552779,-0.02932749,0.04562226,0.02654328,-0.03210605,-0.04503521,0.07699453
ZhRgnBzcYHQ,0.08531242,0.06401767,0.21507967,-0.04815631,-0.00803118,0.0339384,0.03548741,-0.13069459,-0.01619439,-0.08339328,-0.07115255,-0.00622805,-0.01755057,-0.14450422,-0.05455808,-0.04852511,-0.12590697,0.01227093,0.02302714,-0.01977703
vTXoE7BLv9s,0.05741031,0.03000928,0.08100243,0.02564977,-0.05217083,0.04028676,0.03638347,-0.08473509,-0.01268437,-0.05170585,-0.0435429,-0.03692946,-0.02935959,-0.03157544,0.06169325,-0.0657142,0.07275265,0.02835006,-0.06099039,0.04071936
XFpBgNMBNNI,0.01109251,0.00906942,0.03654418,0.01756805,-0.00711073,0.21576496,-0.09370331,0.03564354,0.00354624,-0.06038361,0.11159672,0.0470975,0.00475518,0.02945537,0.16230183,0.02927019,0.0144709,-0.06337281,0.06031869,-0.12221522
40-68Uco_u0,0.04829415,0.03044021,0.085447,0.01189725,-0.01425678,0.01354019,0.00310455,-0.06414743,0.00793524,-0.02213554,-0.04328938,-0.00950424,0.02828932,0.00328321,0.03800865,-0.00416368,0.05986511,0.02036982,0.01271935,0.0341641
H3lUaL6-XQQ,0.01660699,0.01410148,0.09125263,-0.07343024,0.04436431,0.05740947,0.03797523,0.03482002,0.02139525,0.00265631,-0.02855914,-0.03285572,0.03354782,0.02085677,-0.02323398,0.07267087,-0.0209565,-0.00116321,-0.08746429,0.0550683
HyO6rMqRXw0,0.06549101,0.04535498,0.04226567,0.00875648,-0.03083286,0.02714118,0.0314299,-0.10102657,0.03683213,-0.04575185,-0.03607457,-0.07237585,-0.00679723,0.08074894,0.00727456,0.04361522,0.04638993,-0.02433687,0.02480929,0.05084488
_SdzVNht_nU,0.10992429,0.00361593,0.19567199,-0.02009184,-0.07271738,-0.00150902,-0.03973893,-0.11918122,0.00052811,0.13295584,0.07811937,0.03778602,0.03953792,-0.20028307,0.13984362,-0.02416547,0.22247361,0.0556631,0.12270062,0.12595888
B8E4azaZ13k,0.06852607,0.01614671,0.12293385,0.02108974,-0.0766725,0.0264933,0.03518614,-0.11017162,0.01019899,-0.02184198,-0.07578241,0.00896935,0.04555037,-0.11993299,0.05535974,-0.02376516,-0.00647512,0.06009164,-0.01982125,-0.05636913
AHyZdLVYJfc,0.042337,0.05952334,-0.0037652,-0.00031589,-0.00183895,0.07867043,-0.03307238,0.03243557,0.02335725,0.00435044,0.00613425,0.01683706,0.00013051,0.01365678,-0.00238735,-0.01185706,0.03368313,-0.02323614,0.00719059,-0.00196654
yemarhfhVA0,0.01676734,0.00942761,0.04132197,0.01411406,-0.01746221,0.1445868,-0.05329748,0.01536411,0.00351255,-0.02874024,0.01405149,0.00145758,0.01109529,-0.03343034,0.04957901,-0.00049831,-0.04923245,0.03283017,0.01087551,-0.03127795
nnKkk3CpLes,0.03581703,0.00262381,0.06785078,0.00559215,-0.00261852,0.03395535,-0.00648803,-0.04177927,-0.00765955,-0.01616527,-0.03366947,0.02587331,-0.00244601,-0.06210032,-0.02003586,-0.03234282,0.0091261,0.03926042,-0.02371609,-0.04402419
f0ukpT07u2c,0.20446795,-0.06169158,0.20410604,0.065459,-0.23707979,-0.14589536,-0.12561925,0.20778409,-0.03921734,-0.24092521,-0.0551773,-0.30263206,0.08241711,-0.02340801,-0.00107198,-0.19269422,-0.20111255,0.07700947,0.05502986,-0.05969087
CE6tiT3Q6c4,0.08030294,0.05991115,0.15537987,0.04619941,-0.12037109,0.00685815,0.00168383,-0.12192323,-0.02164308,0.17166618,0.117448,-0.04336033,-0.09573613,0.05657846,0.04174294,0.03798092,0.14774124,0.11508234,0.0513324,0.16553982
oj3-hWAf1uQ,0.04717969,0.03256163,0.11119339,0.01454323,-0.02695517,0.00717115,0.02323944,-0.05534658,-0.0478246,-0.0093605,-0.06324262,0.11547528,-0.08228114,0.03838043,0.02641293,-0.09852162,-0.05713515,-0.01208971,0.04183055,0.01879419
IJJbQTVdAtE,0.0316314,0.03139326,0.04892515,0.01753961,-0.00019894,0.30137323,-0.10806163,0.08560342,-0.00233385,-0.02396275,0.10460182,0.04011895,-0.01721226,0.04216666,0.29131335,0.03569166,-0.02132054,-0.09782035,0.0939207,-0.09094183
XeN7wKfDOPk,0.01566553,0.00414735,0.04329867,0.0285374,-0.004319,0.12164976,-0.05101214,0.00865409,-0.01239781,0.01429928,-0.02503356,-0.02236186,0.02197873,-0.01118019,-0.08798197,-0.03844503,0.00783935,-0.02560916,-0.02537923,-0.08115184
xhCLLakHBa8,0.04123614,0.01937536,0.05570565,-0.01890984,0.0122664,0.01314391,-0.00972262,0.0112245,-0.01173428,-0.02576457,-0.01062447,0.00175111,-0.01020797,-0.03830424,0.00205427,-0.00362113,-0.01332549,-0.0098743,-0.03401735,-0.0184624
