video_id,lsa_1,lsa_2,lsa_3,lsa_4,lsa_5,lsa_6,lsa_7,lsa_8,lsa_9,lsa_10,lsa_11,lsa_12,lsa_13,lsa_14,lsa_15,lsa_16,lsa_17,lsa_18,lsa_19,lsa_20
Su0aCV35IFM,0.01200739,0.00578466,0.04034273,0.01138709,0.02797103,0.22666063,-0.22911262,-0.0830426,0.00394049,0.29783087,0.03368018,-0.03959701,0.03725379,0.00499987,0.11756151,0.2406365,0.19924425,-0.07530987,-0.07859823,0.0075935
u_f8bJkfg68,0.09088037,0.07361907,0.01732484,0.01523213,0.04869598,-0.01760986,-0.02039903,-0.05805699,0.00845528,-0.00141177,-0.00514377,0.06726817,0.00186855,-0.01400202,0.00914478,-0.04190222,0.02073037,-0.03529227,0.01103032,0.05270323
iBpxQpktHN4,0.00479256,-0.00113088,0.01155316,0.00347741,0.01593761,0.01091967,-0.01901465,-0.01867426,-0.04327554,0.01123676,0.01412963,0.00530047,-0.00168222,-0.02944299,-0.01010416,-0.00382205,-0.02356025,-0.02422764,0.00162912,0.0599732
WgcdDVIUXcI,0.05174615,0.0331604,0.07269375,0.01835926,0.08414495,0.02283502,-0.00430758,0.10735066,-0.00594098,-0.00410474,-0.05273849,-0.02327166,0.0119248,0.05460286,-0.06651176,-0.12320901,0.15127787,-0.07526816,0.00341432,-0.03687907
a9T6IRpz31E,0.04364999,-0.00180693,0.05727062,0.03397791,0.04680556,0.14764309,-0.11985896,0.05447344,-0.0701792,0.53981193,-0.0338561,-0.06729077,-0.16384444,0.06452692,-0.0780779,-0.18741801,-0.30794376,0.06193195,0.11323368,0.09130388
s6XPoPYDn-Y,0.01816574,0.00482066,0.03846374,0.01667463,0.0402238,0.12923796,-0.10637307,0.04107176,-0.06652454,0.53485034,-0.03340679,-0.07032156,-0.16474572,0.07453633,-0.09101407,-0.16365336,-0.32103163,0.08317213,0.14058363,0.13407413
eOI7WQIEX1Y,0.05565087,0.05248764,0.05165475,0.01182782,0.03836294,0.02842962,-0.00913091,0.09196233,-0.01521034,-0.00295867,-0.02074761,-0.03394142,0.07126205,0.07896959,0.02399715,0.02465635,0.02358681,-0.05225373,0.01289268,-0.00987734
vmRbevilfpU,0.11753499,0.05341192,0.06038557,0.01243042,0.07408869,0.01692964,0.00864277,0.15954453,-0.04000118,-0.0150154,-0.14291574,-0.00045214,0.01573338,0.01276061,-0.05872934,0.11639432,-0.05655415,0.12434053,-0.06325362,-0.10924653
ZAmCJoz4c4w,0.01476255,0.00096084,0.03946372,0.01660938,0.03563973,0.13066867,-0.12143027,-0.0416265,-0.01910045,-0.01138092,0.03489767,0.07924991,0.42358293,-0.2181061,-0.10573113,-0.17391438,-0.08680428,0.05167358,-0.0394037,0.00936122
_jxLMMcKmRQ,0.11269718,0.02996676,0.06947261,0.01156759,0.07670653,0.02878018,0.00824582,0.17748474,0.01580634,-0.00467945,-0.07990087,0.10263589,0.00645866,-0.00619652,-0.03658714,0.16534045,-0.09276556,0.00536732,0.01788889,-0.03023871
4at2bVIhLgc,0.01053649,0.00156931,0.01802891,0.0057002,0.00918798,0.10187658,-0.08935172,-0.04058172,0.00663954,0.15889407,0.02374913,-0.01412028,0.05160223,-0.02303438,0.04791497,0.10798151,0.08444173,-0.02632137,-0.03458967,0.01219876
5YKhtb3DNNo,0.05911177,-0.01935489,0.05949124,0.02364007,0.06093755,-0.00794802,0.00210399,0.00879384,0.14762349,0.00376499,-0.00336797,0.05145656,0.01075834,-0.04747152,0.04769328,0.0044677,-0.03806598,-0.05342974,-0.00850291,0.02430596
Hk-ARbCTKzM,0.0191162,-0.0028227,0.03868022,0.01438901,0.02042172,0.13786253,-0.13958175,-0.03908064,0.02954328,-0.11615217,-0.0023906,0.0130046,-0.02836709,-0.01216666,-0.03925064,-0.02885054,0.03427753,-0.00131985,-0.00638831,-0.04039461
MVFd0qFB9TE,0.00863631,0.00427623,0.02753319,0.007911,0.01444104,0.11941359,-0.10776502,-0.04866216,0.01323139,-0.13393194,-0.01815151,-0.01093305,-0.08652279,0.06915362,0.01526459,0.05997271,0.04522469,-0.06216727,0.03066672,-0.00147795
v_1Dhh8G84c,0.01759312,0.00885574,0.0392086,0.01524556,0.0401825,0.10100092,-0.09739123,-0.0042767,-0.00366407,0.01975646,0.00984124,0.00670074,0.06155998,-0.04282709,-0.0154719,-0.03498578,0.00390245,-0.02038154,-0.00129282,0.00385166
ndkH5fZSIvs,0.02160017,0.00424229,0.06605078,0.07359418,-0.00463786,0.11899351,-0.13515049,-0.02929217,0.00786237,-0.00923068,0.00168057,0.00649493,-0.04455423,0.01953077,-0.04568346,-0.01191698,0.00216256,0.01325383,0.05909814,-0.03293429
-uUlnDjQxhg,0.02104373,0.01594482,0.04072999,0.01671252,0.01316769,0.21316797,-0.20071216,-0.08455182,0.00203486,0.12749533,-0.00077668,-0.04527031,-0.04961554,0.04512059,0.08046813,0.12535063,0.07168134,-0.03263296,-0.01598243,0.01355793
PnpHwhTWw0c,0.02817849,0.01939521,0.04712844,0.00604672,0.01927485,0.12300032,-0.12821155,-0.03310844,-0.01401356,-0.11311258,-0.03183066,-0.00411837,-0.12824998,0.06962169,-0.05982892,-0.13580321,-0.09776151,0.05267911,0.04928628,-0.02425492
gdjCR9h1yGc,0.01422476,0.0030936,0.05784407,-0.01175089,0.01025891,0.17107173,-0.16826801,-0.06724383,0.01067595,-0.13681004,0.01237479,0.02579431,-0.01057856,0.00132333,0.0110464,0.00123675,0.01165544,-0.01738401,0.05860681,-0.08528917
m-nnyNZ0TQ0,0.01695604,0.00526144,0.06509122,-0.00992346,0.01514773,0.16667864,-0.13118865,-0.05935346,0.02589737,-0.18122427,-0.02905987,0.04330549,0.00813022,-0.01195549,-0.01007915,-0.00613801,-0.00274959,0.03145393,0.01596482,0.0345403
pUlUgkaTQZg,0.00963981,0.00344078,0.03954122,0.0221983,0.02247222,0.17346861,-0.1658367,-0.04996295,0.00462579,-0.02308396,-0.01381645,-0.01420854,-0.00490979,0.01081636,-0.018506,-0.02027601,-0.06316347,-0.0122446,0.00282154,0.03545627
39czcByvq7c,0.02444029,0.00437541,0.03899667,0.01180898,0.03397204,0.12843592,-0.09228209,-0.036895,-0.00709606,-0.02767161,0.01120613,-0.01056332,-0.05280545,0.02045347,-0.01826258,-0.05268792,0.03887302,-0.0361003,0.05243197,-0.05409825
MWrMtRjLhjk,0.05659594,-0.00187983,0.08596369,0.03976597,0.10604009,-0.05471612,-0.02882367,0.01153393,0.16004157,0.00680409,-0.00639029,-0.09434309,0.03249243,0.02991291,-0.10017485,-0.03532195,0.09164311,0.0237948,0.05341373,-0.03140838
IMM5cm6xrXQ,0.0139244,0.00504413,0.04237704,0.00937034,0.03266418,0.09212459,-0.09650708,-0.00146283,-0.03175512,0.01553237,0.01829509,-0.00119176,0.00609722,-0.03751663,0.0089167,-0.02751102,0.05812486,-0.03023028,0.108831,-0.04130851
mbGPgjXCx24,0.09033747,-0.0001627,0.1063106,0.05414059,0.10459825,0.00583742,-0.03949739,0.13186122,0.07541974,0.03052819,-0.08023429,0.0244914,0.0024169,0.03694044,-0.05679671,0.02799228,-0.00606029,-0.06904869,0.06626964,-0.14774975
JWOErbTL9N4,0.01469596,-0.00249362,0.03139366,0.00507207,0.01872726,0.0955212,-0.10275444,-0.01078416,0.02099787,-0.02048668,0.00826851,0.01632518,0.07040837,-0.02976343,0.03878148,0.00841787,0.04270756,0.00877913,-0.01692261,-0.02077528
Bcag49Fk3zA,0.01755636,0.0072126,0.04605598,0.02279522,0.04605306,0.15991567,-0.13878102,0.04332267,-0.08005615,0.56708138,-0.02278109,-0.06889492,-0.15979127,0.04736384,-0.08809986,-0.17243532,-0.30769005,0.06836016,0.15076424,0.1373827
pcAJLeGAtwc,0.01374324,1.487e-05,0.02745741,0.00529635,0.01986829,0.05383813,-0.05680396,-0.00430421,0.00487957,-0.03762871,-0.00098598,0.01486755,0.00657156,-0.01355409,-0.00368835,0.01867577,0.00697859,-0.02620994,0.02159343,-0.02460615
XsY6iChNzf0,0.0231921,0.0189932,0.06129671,-0.0071294,-0.00193184,0.04053045,0.0176912,0.00559556,0.01809595,-0.00907805,0.02466103,0.02312718,-0.01909632,-0.04998738,-0.00118865,-0.04497311,0.02947464,-0.04321866,-0.00132402,6.456e-05
roUppNywDks,0.02722481,0.00487299,0.05274818,0.0201211,0.04629383,0.22196699,-0.19912401,0.00371071,-0.07140677,0.61098267,-0.02317428,-0.07421837,-0.137315,0.05911129,-0.03413993,-0.05171228,-0.20912721,0.04712837,0.08055095,0.10536138
8fIRAhGGRgA,0.0223877,0.00961153,0.06319093,0.01474118,0.03112092,0.28356374,-0.26676414,-0.09610756,0.01504691,0.02583149,-0.00976865,-0.0065105,-0.15709425,0.09051561,0.04501976,0.09864495,0.06881032,-0.00543419,-0.01025865,0.02641577
BOmc_wliaRg,0.02488988,0.00255168,0.02742218,0.02327015,0.01615409,0.02921987,-0.02240527,0.02346902,-0.01846773,0.04612979,0.00131668,0.01557501,-0.02713497,0.02819277,-0.01174423,0.03425569,-0.04140329,0.00156556,0.0584843,-0.05093303
UncqiOQc4rI,0.01184989,0.00605622,0.04027276,0.00344477,0.02063194,0.0769098,-0.09032517,-0.00891741,-0.01337104,-0.07412859,0.00048626,0.00023975,-0.01786275,-0.02223769,0.00418962,-0.06495282,0.01364839,-0.0122603,0.10901218,-0.05873473
ucN2hf0CgI8,0.02403109,0.00587703,0.03598517,0.01855463,0.03342019,0.06417768,-0.05823517,0.00803889,-0.01569796,0.06303082,-0.01956978,0.00441643,-0.00254632,-0.02065734,0.01154428,-0.06497147,-0.01641197,-0.0043016,-0.01606177,-0.04318401
if955Z_s4Ts,0.01246736,-0.0039897,0.0210162,0.00830533,0.01126467,0.10019828,-0.09547491,-0.03836009,0.01842329,-0.11269693,-0.02284359,0.01448512,-0.0440046,0.01571697,-0.00579851,0.024097,0.0094741,-0.04146665,0.03903366,0.04147539
W41XcEogOB0,0.01882584,-0.00483078,0.0288402,0.02147249,0.01658498,0.09341982,-0.08627421,-0.01979986,-0.00747548,0.0865694,0.03110039,-0.02293119,0.10412232,-0.04469187,-0.01109558,-0.04365294,-0.05798826,0.00520025,-0.004935,-0.0033202
48hHo2WcAQI,0.05036862,0.03585825,0.08227262,0.02441845,0.08432005,0.04609357,-0.01785523,0.17812143,-0.06455939,-0.06043918,-0.10202993,0.42092688,-0.14906113,-0.07988127,0.01882327,-0.00105808,0.22658013,0.30872698,0.14193646,0.41897211
0t118SCf-2w,0.00549274,0.00227854,0.01766575,0.00659817,0.01317831,0.08804121,-0.08579963,-0.02694207,0.01265416,-0.03884415,0.0010283,0.00092305,-0.00714122,0.0088504,-0.00692105,-0.0157151,-0.01051893,-0.01206069,0.01816906,-0.020924
kH_bSvf7EVA,0.00748687,0.00514149,0.02016648,0.00909833,0.01576978,0.11883726,-0.1172461,-0.03524322,0.0169527,-0.07439393,-0.00582842,-0.02635945,-0.10338085,0.04701329,-0.0137682,-0.05975307,-0.07044545,0.01822604,0.00876419,0.02327029
31t_CBePs34,0.04013307,0.00714802,0.12027474,-0.03909471,0.02697738,-0.03731647,-0.01347756,0.07072101,0.03793257,0.02415926,0.02157728,0.09475856,0.01277767,-0.09244587,-0.02732269,0.09536678,-0.04754598,-0.07388657,0.10049927,0.04824238
shkHigLwBnM,0.04795447,0.03194633,0.03449117,0.01516857,0.03707794,0.02902358,0.00598509,0.07172323,-0.01842939,-0.01961746,-0.03231425,0.03449941,0.00414097,0.02534628,-0.01439769,0.10172418,-0.02357021,0.04362948,-0.00380041,-0.08450233
0Z1lChyi2W4,0.01203197,0.00055126,0.03643411,0.01566913,0.02370317,0.12679979,-0.12195034,-0.03876897,-0.00469146,-0.10002548,-0.01152387,-0.01652709,-0.05743736,0.04371819,0.0043641,-0.00444674,-0.02972511,-0.02541154,0.07499865,-0.01195628
vgwG6e9TFcw,0.01209548,0.00649782,0.03708898,0.00962977,0.02212082,0.14781704,-0.15561808,-0.0606657,0.01051827,-0.19783243,-0.05126457,-0.03647809,-0.22315572,0.13760823,-0.08771277,-0.18985944,-0.19595765,0.04139861,0.04651998,0.02421137
Czf68kDF_7Y,0.00920316,0.00334024,0.03664299,0.02250415,0.02044349,0.14070484,-0.14247042,-0.05067402,0.00139775,-0.07065501,-0.01698273,-0.02508304,-0.06425195,0.05032528,-0.00885827,-0.02558042,-0.0631298,-0.01960046,0.08648534,0.00474567
QfUb5MEAOXA,0.01342265,0.00760655,0.0333004,0.00623433,0.02706783,0.07538128,-0.06891709,-0.00352508,-0.00393945,-0.07062334,0.00014415,-0.00563134,-0.0803758,0.01768096,-0.05998558,-0.09421993,-0.08856833,0.00923901,0.03552043,-0.00095307
UPbaPjDGQIE,0.00985728,0.00324566,0.04295154,0.00861173,0.01266555,0.13915316,-0.1476501,-0.05804274,0.00762855,0.08256261,0.02177379,0.00431206,0.0778914,-0.03140768,0.01521942,0.06088769,0.05810121,-0.03923387,-0.04449588,-0.01378721
dNNyCZwEa6k,0.01117959,0.00333549,0.04728546,0.0024322,0.02365462,0.1374523,-0.12624284,-0.04958748,0.02456194,-0.07611864,-0.00064776,0.01496749,0.02809524,-0.01735476,0.00137018,0.01395653,0.02649259,-0.00798424,-0.01592656,0.04009353
DYkyYUjOZTk,0.01350544,0.00850516,0.02585557,0.00915417,0.02606988,0.08010227,-0.07523484,-0.01261099,0.00378398,-0.02208347,0.0259642,-0.00662856,-0.006236,0.01551513,0.01741394,0.0199921,0.02795639,-0.01188796,0.0312856,-0.04905203
3LnNwS6rqk8,0.07606792,0.06108423,0.08683183,0.01852051,0.10089794,0.03938416,-0.00814112,0.13683242,-0.01705881,0.00318805,-0.0765616,0.08647799,0.01302508,0.00968669,-0.05212177,0.16881307,-0.02115786,0.03789955,0.0272219,-0.03607408
z7Qp9Q_Br88,0.01509708,0.00319917,0.03221492,0.0141421,0.02889537,0.08899628,-0.09322147,-0.0154665,0.01125346,-0.07720653,-0.00213289,-0.00944384,-0.05804765,0.0365742,-0.02527741,-0.01931308,-0.0125271,-0.02967218,0.00168311,-0.04911332
rc-xQnupse0,0.10096944,0.03050154,0.13499302,0.0416227,0.14570392,-0.00662287,-0.03856393,0.18007348,0.07651675,0.0187119,-0.11081025,0.06796775,0.04129349,0.070131,-0.10789987,0.13192667,-0.03414539,-0.00854772,0.1412882,-0.17285901
iRach9lpIlg,0.01524044,-0.00672582,0.02067012,-0.0006642,0.0129958,0.00761514,-0.00446254,-0.00253559,-0.00425596,-0.0004709,0.01976579,-0.00659318,-0.00023365,-0.00675895,0.00053807,0.00841545,0.00318658,0.00055871,-0.0029749,-0.00609319
iaYdIU5n6vw,0.02743287,0.00575083,0.06865811,0.0130353,0.04833195,0.21803746,-0.20116349,-0.09510573,0.00540016,-0.14994618,0.06154287,0.03857968,-0.03455205,-0.01224287,0.00926028,-0.01078238,0.00200832,0.00145535,0.15033953,-0.10722963
PoHZWjU54jY,0.01832279,0.01778753,0.0235316,0.00783667,0.01168687,0.15793122,-0.15782855,-0.05762306,0.00180258,0.20615569,0.03508542,-0.05072673,0.03642807,-0.01255317,0.06262548,0.16573317,0.12553324,-0.04953024,-0.06830742,0.03237315
0kHJZFOuMWc,0.06620705,0.0095081,0.18398829,-0.07232079,0.0127932,-0.04261892,-0.04433528,0.12375467,0.07799631,0.02113101,-0.01653615,0.10717144,0.08242879,-0.05543225,-0.01816775,0.16294863,-0.11186888,-0.12799922,0.26404413,0.00616086
vNXFk8iGHk8,0.01915772,0.01122655,0.05583081,0.00430993,0.03421315,0.19607214,-0.19063631,-0.07323529,0.02563581,-0.06575862,0.01464238,0.04432049,0.03906505,0.03549567,0.10474032,0.14427548,0.15050353,-0.0003501,-0.05246966,-0.10780062
VsLOWe6VuyQ,0.01564296,0.00719076,0.02664404,0.00968608,0.005885,0.03690715,-0.04246835,0.00808355,0.00480072,-0.02185461,0.02726452,-0.00283897,-0.00443208,-0.02659335,0.01721453,0.01258777,0.03916618,-0.00769825,-0.03113817,-0.02710334
dU5sDKcwN9E,0.02081932,-0.00366728,0.04744538,0.00785076,0.01919975,0.1894514,-0.17337058,-0.05961832,0.02410315,0.04983478,0.00319013,-0.02430532,0.00219116,0.00714218,0.04262763,0.10808382,0.07711441,-0.02263153,-0.02241579,0.01663861
8u7HqZJQHDM,0.02170752,0.00798272,0.05771148,0.03171172,0.04884672,0.26968308,-0.24359693,-0.00565551,-0.06227164,0.73456251,-0.01509592,-0.10170454,-0.18857419,0.09419823,-0.02010677,-0.03322997,-0.23418492,0.0342983,0.09976719,0.14778378
kijJaXVri7Q,0.04950719,0.03490295,0.05202905,0.02470757,0.0502831,0.03005096,-0.00575038,0.0748427,-0.02714997,-0.01854408,-0.02497924,0.0110339,0.01858926,0.00517298,-0.01942504,0.05291576,-0.00787712,0.02138576,-0.00185851,-0.02663115
S0WQP5GeTZs,0.01459097,-0.00032429,0.03771547,0.01648546,0.03142817,0.13407682,-0.13242101,-0.02862437,-0.00679904,0.13837101,0.02802752,-0.01882837,0.01048815,-0.00299975,0.05345702,0.08928277,0.11363755,-0.03937823,-0.0266138,-0.01966677
FYMdllTCrc0,0.0126211,0.0035376,0.03915054,0.01255569,0.02649173,0.22016392,-0.2141867,-0.07134937,-0.00451521,0.32915735,0.03881178,-0.0459653,0.0157605,-0.00068159,0.11026666,0.21795556,0.16161018,-0.06332405,-0.06704503,0.01782077
nnKkk3CpLes,0.03392083,-0.00116633,0.06712242,0.01377929,0.00558867,0.01575756,-0.03282301,0.04075816,0.00880021,-0.01651143,0.01587426,-0.00172296,0.02484494,-0.08043677,-0.01222057,-0.02436522,0.00705658,-0.05024514,0.00308667,0.02704431
eBbqRceO2qY,0.07676894,0.0780142,-0.01006539,0.01057481,0.00234887,0.04107961,-0.00964417,-0.03399281,-0.01982775,0.027154,0.01463057,-0.03826712,0.01157405,0.00256845,0.03403254,0.0001608,-0.00575357,0.02550764,-0.01111379,-0.00808149
1VSBgPn28zA,0.01537042,0.00223044,0.06031082,-0.01158301,0.00700488,0.18403868,-0.17331662,-0.07349185,0.03556559,-0.15024546,0.01014204,0.0124296,-0.07400944,0.03955537,0.04313197,0.08294865,0.0631379,-0.04274814,-0.00242065,-0.03303653
tbvteFr4SPQ,0.06410171,0.0257334,0.11127752,-0.0031171,0.0682339,0.00083019,-0.02703538,0.11563893,0.05901042,0.00614862,0.02541322,0.0584648,0.06131791,0.05536572,0.00231259,0.10762058,-0.05258138,-0.01027974,0.12870619,-0.00986724
yy_J5fdELm0,0.00841218,0.00168949,0.02866577,0.01311531,0.02085911,0.09615832,-0.07451745,-0.01465465,0.02158786,-0.07451016,0.00217131,-0.02080521,-0.09341189,-0.0210896,0.01342897,-0.01925878,0.10747092,-0.0118596,-0.08932197,0.03122892
oOCN30ulVyo,0.0181944,0.0031506,0.03904106,0.01357372,0.03550805,0.07391749,-0.07905608,0.01255119,-0.0141108,-0.02677366,0.01588132,-0.00164754,0.10040627,-0.08952107,-0.02011041,-0.083252,-0.03581435,0.02074594,0.03688775,-0.00105264
qey62i2fvg0,0.00802396,0.00200059,0.02703296,0.00833995,0.02027998,0.09319406,-0.09270704,-0.02561621,0.01630047,-0.07577159,-0.02646098,-0.00508425,-0.05286501,0.04474014,0.00530525,0.00965212,0.04208071,-0.03800541,0.0059994,0.01121218
wy3a_xJI3so,0.02148231,0.00830865,0.06863391,-0.00728922,0.01820179,0.17609876,-0.15190182,-0.05014087,0.03311954,-0.18054623,-0.0215005,0.04174907,-0.0608654,0.03385516,0.03519603,0.06557587,0.08386515,0.00218976,-0.01572535,-0.0316823
TET8fTKH1e8,0.12774069,0.03796696,0.1432154,0.01081586,0.09795983,-0.0038095,-0.01462415,0.12437034,-0.03149215,-0.00055294,-0.04675951,0.1312324,-0.01305771,-0.01976573,0.01909348,0.08122541,-0.04105286,-0.05918189,0.12699963,-0.08838769
ktkpd9A8MD8,0.07281849,-0.00421019,0.107576,0.01568202,0.10287175,-0.04689859,-0.02027584,0.02464169,0.16514119,0.03344673,-0.03029927,0.02030876,0.02465944,0.01950662,-0.07179485,0.05926875,0.04129213,-0.03364492,0.09284005,0.0317113
up__2flbXw4,0.01173747,0.005961,0.03002279,0.00330892,0.01586584,0.04812085,-0.05657875,0.01554825,-0.0272898,0.05958235,0.01148024,-0.01094452,-0.02219378,-0.03664863,-0.0307737,-0.08496599,-0.01780297,0.00854402,0.08035845,0.00845143
BPt0fwBCDbQ,0.0933381,0.06262217,0.10418819,0.06874792,0.12526982,-0.00473154,-0.01029912,0.11929397,0.00441089,-0.08894619,0.04030293,-0.33055821,-0.06847129,-0.03537518,-0.07839078,0.00087949,0.00768905,0.00798105,0.0724575,0.10161255
dl0-TveDDGA,0.01087949,0.00520795,0.04606641,0.00059754,0.01709999,0.17738522,-0.16295202,-0.07528025,0.03555022,-0.16472615,-0.01666637,0.00866491,-0.06945261,0.04801136,0.00811087,0.01351424,0.02210495,-0.03097062,0.02155398,-0.04673937
3OUrr_2UCYs,0.01488774,0.00462859,0.0495382,-0.00676128,0.01027242,0.1850918,-0.16566971,-0.07588547,0.01928613,-0.1045708,-0.01186883,0.00715795,-0.0489918,0.04094519,0.03901032,0.08555472,0.08060065,-0.00864,-0.02626119,-0.06164689
BdUzhVM5w1U,0.0107479,0.00189546,0.02618197,0.00843551,0.01734014,0.14458196,-0.14403261,-0.0535808,0.03566362,-0.13052898,-0.01216576,-0.01076296,-0.08169686,0.06231963,-0.02978515,0.01189052,-0.00015304,-0.04272785,-0.05653789,-0.00475031
Cr7oGnSzmb4,0.00847433,0.00554566,0.02003571,0.00541279,0.01854703,0.08436834,-0.08559756,-0.02390678,0.00744449,-0.09766346,-0.00648861,-0.00704904,-0.08586861,0.04863171,-0.03090611,-0.08818782,-0.06679861,0.01473841,0.05277903,-0.01568392
LLK879SXq_w,0.12336083,0.04538647,0.36533355,-0.09609231,-0.20246028,-0.11243481,-0.10957267,0.11238038,0.00150875,-0.00950448,-0.0547236,-0.01822141,0.01522347,-0.040824,-0.00922127,0.03355992,-0.04839402,-0.02065497,0.01021129,0.00784531
WeliLUboy3M,0.04014113,0.00174513,0.05669354,0.03880665,0.03850259,0.2418027,-0.19633484,-0.00930527,-0.06317207,0.63659305,-0.00837244,-0.08803732,-0.08482204,0.05411024,-0.03697131,-0.06511163,-0.2431915,0.05024112,0.08420833,0.11628028
6UPfq3KETg4,0.03814391,0.0199212,0.09588543,-0.00938448,0.03366501,0.00744348,-0.03761869,0.09640124,-0.00607344,0.0158688,-0.03241335,-0.02104758,0.02501562,0.01501617,-0.03423746,0.00176403,-0.01164106,-0.0253102,0.06995925,0.02602929
0HSNPIttevk,0.03703469,0.00499882,0.07072981,0.03236559,0.00668892,0.23532124,-0.22835472,-0.08331824,0.02121352,-0.17810721,-0.03556045,0.04555863,0.01217893,-0.02882318,-0.07246323,-0.14095223,-0.15075771,0.03339469,0.0498375,0.03600582
sKME5er1OKc,0.05435443,0.02304244,0.08978463,0.04247714,0.10726224,-0.03992393,-0.02466232,0.04925391,0.11895246,0.00035353,-0.05701753,-0.07244691,0.04212234,0.06305969,-0.06762886,-0.05412329,0.10185703,0.01887011,0.01294574,-0.04072982
aZVcAlzBIp4,0.01737385,0.01225985,0.00937016,0.00839273,0.0115268,0.02385457,-0.02445963,-0.01206102,-0.00336811,0.0043918,0.00257896,0.00493174,0.02768322,-0.0035227,0.00938687,-0.01912446,-0.01906763,-0.00817239,0.01928923,-0.01931437
OwbaFLtBpkQ,0.01546852,0.00594963,0.04643803,0.01368727,0.0338,0.09160104,-0.0931914,-0.00330288,-0.03109898,-0.04413222,0.01280087,-0.00887108,0.05568542,-0.05140358,-0.00355941,-0.06081845,0.02997484,-0.02498895,0.0937059,-0.04288042
KGeCwEOLPGE,0.01781388,0.01065908,0.05320069,0.00467267,0.03034502,0.19779714,-0.19236833,-0.06655537,0.02140238,-0.06675247,0.00657881,0.04852352,0.02679732,0.04261658,0.10421751,0.1403584,0.14258575,-0.0001981,-0.06302323,-0.10135319
kf9ghd5-VII,0.09178832,0.06848298,0.1294281,0.00401465,0.08947978,0.0106426,-0.01782821,0.05020028,-0.02319876,0.01756061,-0.00790573,0.0524081,0.00796874,0.02010361,-0.00920299,0.04101386,0.06896063,-0.17425984,0.18370227,0.05256321
MqpQhyjFZQU,0.04570181,-0.03540301,0.00808651,0.00995885,0.0006058,0.02353503,-0.02192772,0.01089507,0.00820534,-0.00719246,0.00942554,-0.00559722,0.02045713,-0.01320941,0.03978254,0.0221104,0.02043275,-0.00850995,0.01090488,-0.02285453
UM9dcnJXX0k,0.02791603,-0.00811634,0.0237025,0.0213433,0.01163067,0.03427892,-0.03106488,0.01583741,0.00879718,-0.00958412,0.00785109,-0.01519543,-0.00852066,-0.02492806,0.00401687,-0.01156724,0.0440812,-0.014742,-0.01230657,-0.0041688
er7v-GJj_V0,0.10192175,0.03213879,0.10149558,0.03929867,0.12952203,-0.00069687,-0.00721918,0.08573105,-0.0768912,0.00362825,0.0501118,0.02987488,-0.01897061,0.01008087,-0.01822723,0.10579431,-0.1150289,0.04777808,0.01653769,-0.12362832
3era1_feC3U,0.00744046,0.00069804,0.01858096,0.00870801,0.01967158,0.01009125,-0.01027019,0.00785322,-0.01792368,-0.00295502,0.0115168,0.01882943,0.00226618,-0.009623,0.00387374,-0.01002667,-0.00246135,0.00030561,-0.0075718,0.03312135
RWGr8LwG3TY,0.12131781,0.04300819,0.11130568,0.02684007,0.11853414,0.04255773,0.02138783,0.2388918,-0.00788183,-0.02068472,-0.10704681,0.01721003,0.0276066,-0.07079898,-0.0091331,0.15747226,-0.08776328,-0.10823272,0.1644514,-0.00165804
EGTF9mGda4U,0.01810891,-0.00202855,0.0205337,0.01404617,0.01820128,0.06012744,-0.05850893,-0.02589647,-0.01283702,0.08364873,0.01902421,-0.02301652,0.06852631,-0.02288572,-0.0082437,-0.0299301,-0.04445898,-0.00760528,0.00239738,0.00911556
ERWIJPTNZVM,0.00554475,0.00481919,0.01161631,0.00884616,0.00508788,0.02897141,-0.02780797,0.00950227,0.00386942,-0.01574664,0.0254562,0.00997646,0.03648987,-0.05829998,-0.04237931,-0.00236402,0.00016458,0.0044352,-0.01094545,-0.00897614
msYTFQ4OIu8,0.0206711,0.00789449,0.05955813,0.03161262,0.05443055,0.22805111,-0.2088065,-0.00592887,-0.05572741,0.46890937,-0.05414843,-0.09568838,-0.2318716,0.12513557,-0.12229512,-0.22176517,-0.38180869,0.08100039,0.16032344,0.13948817
UEBpQgCIFTk,0.09346205,0.02493236,0.09157607,-0.01935025,0.03351656,0.00355915,-0.01573109,0.14572526,-0.01970701,-0.02002123,-0.09281726,0.03316473,0.03309893,0.01551972,-0.00574325,0.0977426,-0.04686813,0.04629571,0.00811842,-0.01842363
n1G2FQ0UEqc,0.05827234,0.00272718,0.13591032,0.05788065,0.16415658,-0.01633253,-0.01210118,0.11671735,0.07625431,-0.026159,0.43759644,-0.0211756,-0.13103416,-0.10454639,0.09835958,-0.07651978,0.01627352,0.08134203,0.05821796,-0.05991472
Ycdklm6W1_o,0.01648746,0.00328301,0.03491062,0.01354416,0.02485216,0.1449183,-0.15065281,-0.04445105,-0.00924063,-0.01663641,-0.02544107,-0.01579772,-0.09457041,0.02024322,-0.08299098,-0.16096438,-0.16056883,0.08303983,0.07517505,0.03491831
oqoBSeL5GIU,0.01273625,0.00493372,0.04400886,-0.00275195,0.01628159,0.13652117,-0.10724477,-0.04817738,0.03051152,-0.10500782,-0.03965382,0.03674505,0.03318434,-0.0586686,-0.04220752,-0.04502054,-0.0818973,0.01428896,0.02699748,0.04204173
YhNUPGphSM8,0.07493175,0.0658472,0.07565,0.0155142,0.07975744,0.03412702,-0.00431477,0.1272983,-0.00056905,-0.0192374,-0.04427136,0.10783215,0.021125,0.00308923,-0.01960132,0.16011274,-0.06831197,0.04274645,0.05629681,-0.10198208
UUzxEVhRQgQ,0.03923335,0.03434268,0.02866067,0.02515468,0.02189285,0.00102009,-0.00545606,0.03162672,-0.03085456,-0.01645337,-0.01664198,-0.02492884,0.01230988,0.00920729,-0.02328713,0.02256417,-0.0128538,0.00249994,0.00148041,-0.00994832
Cp3DxMyEBIM,0.06216436,0.00159749,0.17121598,0.01950833,0.15483189,-0.07183163,-0.05719278,0.11402902,0.12515496,0.01877649,0.33373085,-0.09694831,0.09570028,0.22540731,0.09930377,-0.10368163,0.00889236,0.14210456,0.01140045,0.15101921
_WrHMsTYlOU,0.01211115,0.00600065,0.03033022,0.00933548,0.01967865,0.05676623,-0.06048706,0.00917998,-0.02456575,0.04114694,0.01036715,0.00489394,0.03148054,-0.05950963,-0.03443936,-0.09920267,-0.0033517,0.01163294,0.06718465,0.00577317
-uSQcEfnKp0,0.01076657,0.00024525,0.02520233,0.00933362,0.02124083,0.06110705,-0.05506992,0.00024794,-0.00599091,0.00258617,0.00327958,-0.01193317,0.00322109,-0.0091908,0.01772799,0.00206929,-0.00399689,-0.01695456,0.00171264,0.01518571
yzajLZXh9JU,0.05295566,0.05299034,0.01360666,0.00988729,0.02272877,0.16338524,-0.13582611,-0.06730417,-0.00335173,0.07781245,0.0548024,-0.05616151,0.01317997,-0.0194618,0.06852063,0.06976502,0.0736543,-0.00150312,-0.00951884,-0.01233905
T7_l896OH20,0.07139368,-0.03229108,0.05596486,0.04062309,0.04307755,-0.00173572,-0.01693812,0.00592474,-0.04943902,0.00442252,0.01385618,-0.02176524,0.0566014,0.04519063,0.02590124,-0.02783098,0.05465269,-0.03801857,-0.03595748,-0.07895386
ND9eyW5Fw0s,0.01768284,0.00993464,0.04420096,0.01998344,0.02690639,0.12962093,-0.12677371,-0.02051347,-0.00925646,0.0982497,0.01053055,-0.01255657,-0.01704491,0.02160477,0.03841368,0.05685696,0.0598542,-0.03496911,-0.01786536,-0.01560279
PN8bHAr0f1M,0.00719417,0.00325153,0.03089297,0.01379099,0.02134652,0.19518747,-0.19371346,-0.07224508,0.02613228,0.10758274,0.02926753,-0.04343585,-0.05402301,0.02640923,0.0670031,0.14013699,0.07443989,-0.05741841,-0.06400507,0.04162571
FZbMPtLRr00,0.00575032,0.00312383,0.03082887,0.00220353,-0.00418597,0.09862994,-0.08035948,-0.04873572,0.02412943,-0.12473336,-0.03255194,0.04473659,0.04073097,-0.0605678,-0.04931887,-0.03846256,-0.06943907,0.03263998,0.0262181,0.05464584
wEb6ULf3TzU,0.0137153,0.00657977,0.02604277,0.00490782,0.01853255,0.0768111,-0.07888083,-0.02400971,0.00287147,-0.05457173,-0.00899004,-0.017487,-0.0512092,0.04873437,0.00276177,0.0002543,-0.00159152,-0.02401244,0.04607577,0.000379
6XxQMeqG1P4,0.08906724,0.06350074,0.14506814,0.0153446,0.12381358,0.02930905,-0.00735933,0.23308002,-0.01680155,0.01029733,-0.00215281,-0.04379175,-0.01718514,-0.14070425,-0.08254669,0.09395781,-0.10470759,-0.03728391,0.02150856,-0.06414686
-pNi4dh7VFo,0.07126629,0.03229993,0.06363859,0.01141806,0.06476207,0.01572745,-0.0165697,0.08920671,0.02088191,-0.02175656,-0.05870901,0.03189312,0.00737731,-0.01535069,-0.01261374,0.04086234,-0.07078765,0.06401308,-0.05568203,-0.06834923
fpmYvXCzO1c,0.01077609,0.00538513,0.03294297,0.01309655,0.02321286,0.15038046,-0.14928017,-0.05251034,-0.00185072,-0.0953615,0.02847631,0.00157428,-0.04521657,0.01302875,-0.01237998,-0.03341321,0.00857458,-0.00692333,0.10798901,-0.06923609
sj1y9FDJKCM,0.01485778,0.01273608,0.0423914,-0.0028273,0.01049734,0.24665033,-0.2242374,-0.11048128,0.01958506,0.04644253,0.01996927,-0.031023,-0.05899103,0.05762367,0.09069858,0.1845552,0.14914834,-0.04769714,-0.03109901,-0.02808777
Lqq78q17jDY,0.12145061,0.0526102,0.19866958,0.01744537,0.10909373,0.01625038,-0.01774005,0.31110696,-0.14075028,-0.03563917,-0.18114717,-0.20143432,-0.0029778,-0.27251027,-0.16107399,0.08543438,-0.10758465,-0.19644373,-0.34767952,0.14113729
tQCVAU-fZPA,0.8837399,-0.7175028,-0.12328239,-0.02981411,-0.07366957,-0.0104642,-0.0024021,-0.02911124,-0.00475056,-0.02292081,-0.28226655,-0.23538375,0.04673143,-0.17065516,0.53070151,-0.08030173,-0.00663103,0.19070059,0.16940911,-0.06189661
GybLbhXj2Nw,0.01852085,0.00098162,0.0406045,0.01896265,0.02617523,0.20907203,-0.20158535,-0.04895439,0.00232206,0.3001744,0.02544265,-0.03846166,0.0475831,0.02934362,0.13182916,0.25824517,0.18112654,-0.08724751,-0.07856379,0.00234912
o8YcWD2ri9U,0.00960591,0.00459131,0.02899044,0.0133589,0.02076411,0.14541097,-0.14497172,-0.04730514,0.01819754,-0.08739412,0.00045843,-0.00413836,-0.03049365,0.01267148,-0.04023049,-0.0661138,-0.05734198,0.00385144,0.02158366,-0.00435248
x2r3FTy9HHE,0.02089222,0.00743511,0.03982691,0.01197361,0.03078684,0.15484769,-0.1630196,-0.03833592,0.03130026,0.12794512,0.0405919,0.01561003,0.09128408,-0.03542475,0.08259695,0.14635354,0.13834607,0.00878735,-0.07043008,-0.0291611
EFhMcL3Kf1c,0.01751389,0.00647963,0.03208561,0.0050239,0.02814755,0.09782859,-0.10500983,-0.01473469,0.00085697,-0.00271424,-0.00440791,0.08764325,0.1344628,-0.10052405,0.01317895,-0.03614197,-0.00533944,0.03697803,-0.0084171,-0.03806297
QIKiQjEMUjY,0.0338324,-0.00299571,0.15024779,0.38879403,-0.23021966,-0.02263615,-0.02660833,-0.01668863,0.00094659,-0.00860991,-0.01647769,0.00547699,-0.01494162,0.01720389,0.00840394,0.01234117,-0.03306226,0.00201428,0.01103309,-0.01641094
kXenRXelpKs,0.00995786,0.00114709,0.02520809,0.00554138,0.02011311,0.0837832,-0.07821871,-0.00710905,-0.01753463,0.00514097,-0.00812357,0.02072056,0.00587085,-0.02619028,0.01612703,-0.00221599,0.00710679,0.00907692,0.03046613,-0.00628234
K9S3YgFZN9Y,0.00771706,0.00167172,0.02324336,0.00776037,0.02184232,0.04007404,-0.04084417,-0.00334025,-0.01866914,-0.03388592,0.01591418,-0.00776289,0.01080698,-0.01179008,0.01628911,-0.01007361,0.04300899,-0.02640076,0.06917196,-0.03082456
hXPy19kPego,0.05832698,0.0392223,0.07606972,0.01873547,0.07789553,0.02458144,0.01968145,0.10094616,0.00282516,1.979e-05,-0.03154524,0.10027729,0.01825559,-0.01979064,-0.02877139,0.10657733,-0.01556461,-0.00120364,0.07203016,-0.01117943
U14_qm5y38o,0.05870196,0.04253097,0.10240978,-0.00531056,0.04448015,-0.00275968,-0.01190317,0.06544072,-0.05392747,-0.02842648,-0.00462889,-0.00393176,0.01724556,0.06812298,-0.04634393,-0.10765323,0.17011606,-0.10230901,-0.07516101,0.04717929
GXeBi91SkIw,0.01296367,-0.00157941,0.02923918,0.01753453,0.01606934,0.12143369,-0.11198563,-0.03227852,0.01250554,0.13146385,0.01539029,-0.02507989,-0.00083544,0.01340818,0.04659545,0.10389582,0.07129658,-0.03941443,-0.02199761,0.01633324
8hN5PF2oXGs,0.00937652,0.00191741,0.02984308,0.01438679,0.02597181,0.06227192,-0.0650256,-0.00791891,0.01300194,-0.00942887,0.00766605,-0.02126067,0.05791662,-0.0232853,-0.00333964,-0.00214181,0.04849956,0.01747038,-0.02243642,0.00834979
bfENsVP77VQ,0.05582275,0.05145147,0.02963324,0.00483365,0.02196994,0.22703472,-0.19694621,-0.10403408,0.00034023,0.08241286,0.02379639,-0.04836643,-0.02888305,0.02139985,0.07877529,0.08117758,0.12749004,-0.02890391,-0.05388064,-0.01597804
uSjcVPbJayU,0.09877862,-0.00118436,0.11398514,0.03582389,0.11838363,0.01917721,0.01530182,0.19687092,0.07892337,-0.02961342,0.21639963,0.05677645,0.09917496,0.21970713,0.21009948,0.01705127,-0.13715082,0.00894457,-0.02165148,0.07303739
MlSS4ZqvJuA,0.17187527,-0.06868721,0.16439054,0.04732485,0.23637134,-0.05353325,0.01950364,-0.15443491,-0.0646358,0.06311094,-0.02160607,0.25043783,-0.1316949,-0.04285433,0.09396514,-0.02189353,-0.13976014,-0.0536516,0.02175679,-0.10818365
sqXsMACtso0,0.04446965,0.01137861,0.10901695,-0.00892449,0.04395627,-0.01016824,-0.02016176,0.08931152,-0.00361562,-0.01069296,-0.00483953,0.09973538,0.05973594,0.03283214,0.06576691,0.09188796,-0.06675429,-0.08664817,0.14447456,0.07647034
v3JV42WbomE,0.10799302,0.07780845,0.11415316,0.04028129,0.04805769,0.00562095,-0.01201524,0.14084797,-0.0752249,-0.02259128,0.03039348,-0.05545661,0.06549832,0.0664508,0.09316267,-0.09600853,0.0858612,-0.07460999,-0.08795464,0.03466522
THMW7bXTog4,0.02918162,0.00788477,0.06759482,0.01065521,0.03639482,0.02491382,-0.02488836,0.04676227,0.0019623,-0.01191463,0.1050681,0.06479389,-0.00817989,-0.0248145,0.06711421,-0.03013183,-0.0180341,0.02592847,0.03078902,-0.01494849
crrTHKN_R58,0.06592662,0.05359587,0.07697399,0.0347887,0.07371116,0.00706546,-0.0066236,0.13297595,0.0576887,0.02063181,0.22107993,-0.03147334,-0.03807546,-0.01679784,0.08173711,-0.05593791,0.01770023,0.1245964,-0.05107287,-0.01485726
r6AB_e8Rk1I,0.0917192,0.07672277,0.06875039,0.02906387,0.08655324,0.05508979,-0.01107678,0.17917494,-0.03928242,-0.01423075,0.02855642,0.0253659,0.15982733,0.28946129,0.11300603,0.06485645,-0.09899894,0.00117363,-0.0302259,0.01700758
zxQJIBt9CBI,0.07556156,0.03169929,0.09078457,0.03073958,0.10483646,0.01041298,-0.01011639,0.03954095,-0.0766093,-0.02474273,0.01700314,0.00065964,0.03157483,0.03570101,-0.01607152,0.03649095,0.00697671,-0.01143158,-0.06189662,-0.00834404
D4fkiQfzw_I,0.00535963,0.00157515,0.02083617,0.00838943,0.01842706,0.07593579,-0.07686314,-0.01273102,0.00316879,0.02029221,0.00716901,0.03254936,0.10337551,-0.03365991,0.01797669,0.00046699,0.02910019,-0.00490261,-0.00355387,-0.01914156
VKaslzzv1QM,0.05687231,0.03449876,0.08186567,0.03153584,0.06261026,0.03486934,-0.01496769,0.1449488,-0.02644433,0.00661717,-0.0438239,0.00120655,-0.02594154,-0.00675059,-0.03569627,0.04194805,-0.01425922,0.01214485,0.06095822,-0.08023234
TfojYStTlZE,0.06337993,0.01358597,0.10725591,0.05222694,0.13060866,-0.0351786,-0.03845647,0.00648726,0.11739544,0.00222023,0.01950546,-0.09605581,0.11442418,0.05908426,-0.05575373,-0.02831894,0.09722258,-0.05114017,-0.03038674,-0.08369315
XeN7wKfDOPk,0.0157709,0.00134026,0.04235229,0.03340151,0.01692451,0.09818118,-0.09539442,-0.00723122,0.01417349,-0.05395448,-0.03838438,0.03149518,-0.07146651,0.03230575,-0.02488592,-0.12440016,-0.03704088,-0.04134084,-0.01463015,-0.05887795
x0HFad-M2iE,0.18065369,-0.04430222,0.0467667,0.01704021,0.05289938,0.04890298,-0.00940402,0.17005433,-0.00370762,-0.0388876,-0.06689833,0.00282297,-0.03606525,-0.00928612,0.01595892,0.08249359,-0.05515437,0.10228044,0.00374916,-0.10595428
5wuHYQMnYhA,0.01765622,0.00529885,0.03724216,0.01981208,0.03060043,0.12548073,-0.12968944,-0.04221263,-0.00757123,-0.01785908,0.04135268,0.0749433,0.39799269,-0.19805658,-0.09900482,-0.1879205,-0.07770303,0.06346946,-0.03883384,-0.01460432
5fKeNMp7F6s,0.01172867,0.00408683,0.05298099,0.02451648,0.03505616,0.30059243,-0.2966602,-0.1101529,0.01040049,0.02192289,0.07162224,0.06824737,0.39801536,-0.20715402,-0.06226059,-0.08510395,-0.03394522,0.05067354,-0.02664194,-0.0313365
Fy8H9I2kJkI,0.02333309,0.0126133,0.05957871,0.00973547,0.02962341,0.18919761,-0.18099514,-0.05169834,0.00281056,-0.11938491,0.00777039,-0.01694217,-0.06651561,0.00499104,-0.04497436,-0.08384052,-0.06452314,0.01051271,0.00220966,0.00580716
wnoSOSgBNHk,0.07073559,0.03143605,0.06745493,0.0168596,0.09085118,0.01985259,0.00212111,0.13307565,-0.02950735,-0.02093628,-0.08349453,-0.0337581,-0.02747832,-0.04625422,-0.08783688,0.11989909,-0.07529192,0.09173293,-0.13122592,-0.022306
07T7V-Szcx0,0.00898116,0.00352505,0.04625117,-0.00235635,0.01244379,0.19541336,-0.17342938,-0.08803322,0.03764598,-0.24839242,-0.00800416,0.01316581,-0.1018559,0.07999503,-0.01776873,0.03056406,0.05243535,-0.03426526,-0.02865199,-0.0569849
VjqsnOrW3AM,0.02228164,0.00068282,0.03635644,0.01715979,0.01905944,0.16261372,-0.15963425,-0.05025242,-0.01392471,-0.00032051,-0.00937973,-0.00335535,-0.05864775,-0.00108053,-0.03439219,-0.08813966,-0.07932219,0.02382475,0.04344451,0.03621406
rYKQ0Ukxe6k,0.10792756,-0.00879633,0.06909916,-0.00514549,0.0044674,0.00926879,-0.01825443,0.11295435,0.01069939,-0.01404705,-0.07133992,0.01581995,-0.00902928,0.01260471,0.00317123,0.00571822,0.01941356,0.02474693,-0.04631036,-0.0439301
HRxULulg_hM,0.02512415,0.00785304,0.05649752,0.02378662,0.05617299,0.13922751,-0.12774863,-0.04922344,-0.0349474,0.03430055,0.05823865,0.06807556,0.05702894,-0.03837244,0.07570817,0.06588348,0.05442832,0.00795451,0.08392118,-0.10873269
Xy09nfcwZ3E,0.12304902,0.07034074,0.27920194,0.58539336,-0.34625211,-0.04578694,0.00255453,0.01630864,0.0007754,-0.00192405,-0.04933961,-0.00663381,-0.01542347,0.0390246,-0.0191257,0.00772524,-0.00667542,0.03088677,-0.0127706,-0.03084385
-txFIHA4ez8,0.05588015,0.03328592,0.06218036,0.01075447,0.05933046,0.01889813,-0.01248355,0.09600659,-0.05458885,-0.02337568,-0.03133746,0.01913891,-0.01199962,0.01223388,-0.02223345,-0.01184669,0.02067544,-0.00766151,-0.00640184,-0.04695198
wd_xh6gSSOs,0.00422963,0.00212247,0.02788612,-0.01424416,-0.00809461,0.0310963,-0.04560398,-0.01254111,0.00371724,-0.00681118,-0.00493084,0.00845525,-0.0097994,0.0070007,0.00905972,0.022914,7.773e-05,-0.00737295,0.01052442,-0.00612396
J7ieKmP96Hc,0.01432594,0.00387261,0.03896854,0.01115214,0.0210672,0.221718,-0.21852962,-0.08792882,0.00580149,0.29531117,0.03466427,-0.06344308,0.01375127,0.01291736,0.11112293,0.22406515,0.15935557,-0.08027066,-0.08033482,0.01918483
h9kh7KssnMc,0.085197,0.03609215,0.11555463,0.01682195,0.07946433,0.00202993,-0.02825947,0.07730817,-0.06415691,-0.00185469,-0.02081292,0.05418958,0.00646347,-0.00179019,-0.02178711,0.02615964,0.00906212,0.01221691,0.01211383,-0.05749591
SZ8r5VKtGes,0.10387549,0.06303849,0.09940178,0.02290571,0.09798672,0.05453157,-0.00831293,0.21923073,-0.06655808,-0.06500713,-0.12469275,0.35038513,-0.11693912,-0.06509732,-0.01974499,0.07562147,0.11606814,0.2746635,0.12411509,0.22224961
GfSGy5C1OIA,0.04188878,0.0021884,0.08566783,0.03372831,0.10874382,-0.01574102,-0.00262534,0.01598349,0.1385313,-0.00066286,0.02520312,-0.08908373,0.06148609,0.08525611,-0.06268165,0.00159693,0.05443383,0.03025937,0.06920982,0.02468866
cnCEUFzWspI,0.01688982,0.00431711,0.03566654,0.01850532,0.02171793,0.18901223,-0.17969091,-0.06195775,0.02596489,0.09898684,0.05248692,-0.03042454,-0.01401949,-0.01483576,0.12468253,0.18858164,0.15679256,-0.05868646,-0.10372596,-0.01426268
6WqWhSmCbXk,0.0997385,0.02486298,0.17360866,-0.00699216,0.09660302,-0.00222087,-0.01246472,0.14898528,-0.06056011,-0.00082278,-0.17690161,-0.10035645,0.06572956,-0.03899211,0.00757059,-0.08381865,0.10666336,-0.1400447,-0.01085481,0.1090135
vTXoE7BLv9s,0.06225452,0.02437734,0.07282916,0.02089315,0.07825804,0.03210375,-0.00441459,0.09985764,-0.00332633,0.00740935,-0.0458762,0.14866101,-0.01117035,-0.0082272,-0.0048639,0.03006278,0.04746129,0.03085049,0.08384173,0.02380045
tUmd3tWCDKs,0.00678134,0.00298318,0.03077917,0.01947517,0.01293757,0.19566242,-0.19762043,-0.0875553,0.02788746,-0.15322045,-0.04062276,-0.05124229,-0.16471082,0.10974383,-0.04553036,-0.08541305,-0.15530006,-0.01044954,0.01877399,0.03419597
NlW_R21cBXs,0.04718723,0.0053858,0.08768747,0.04851416,0.07240442,0.01830468,-0.03392269,0.11392196,-0.06123826,-0.04808265,-0.0976962,0.28161177,-0.10313392,-0.07148067,0.02430874,-0.10351092,0.25943234,0.20047992,0.06284752,0.3556639
BnAKfe0qGbE,0.11360998,0.02546565,0.14910579,-0.01843337,0.09286381,0.01684365,0.01831757,0.14314156,-0.11901088,-0.03540301,-0.10224708,-0.13493029,0.01084102,-0.13288112,-0.14165563,0.12759327,-0.07102007,-0.05273766,-0.16200909,0.01796019
na5Enw8P18A,0.01812275,-0.00829642,0.0243891,0.01078195,0.00830905,0.08332349,-0.06094814,-0.01405651,0.01626556,-0.07475197,-0.00059016,-0.01356216,-0.07773101,-0.04099788,0.01403043,-0.0206859,0.1215704,-0.007564,-0.08302054,0.02618392
VVfMO6SJZLw,0.10209582,0.05469012,0.11490909,-0.0077368,0.05775208,0.07493796,0.06994742,0.10803708,-0.03048463,0.03084996,-0.04680536,0.02634115,-0.01926949,0.00752111,-0.0202433,0.00353478,-0.02739987,0.08194652,-0.06933141,-0.06675258
ZhRgnBzcYHQ,0.09363643,0.05883374,0.22345051,-0.03463491,0.02751174,0.01335366,-0.02985473,0.1956195,-0.03801477,0.00485451,-0.03861743,-0.02002009,0.02476864,-0.07654219,0.00461539,-0.18444567,0.14643745,-0.15606471,-0.20610721,0.0810149
dhbt8y_LXQY,0.03054581,0.01698013,0.03594522,0.01717974,0.03427486,0.10370417,-0.10045373,-0.04088876,-0.00617489,0.02330297,0.01587483,0.02100768,0.11320921,-0.03378216,0.01336062,-0.0152791,0.00122365,0.00407699,0.02528501,-0.03831322
kTlm_3HwRFg,0.01560155,-0.00191916,0.03230162,0.01467014,0.02729911,0.08202001,-0.08570625,-0.00517868,-0.0128206,0.03878474,-0.00217121,-0.00288656,-0.00972381,-0.00136973,-0.03037868,-0.06129353,-0.03683912,0.00581997,-0.00300556,0.00435337
_dASAu79K0s,0.00493374,0.00144819,0.02207888,0.00721578,0.01645699,0.15257315,-0.15100735,-0.0555161,-0.00101429,0.16859666,0.02179066,-0.0018483,0.07076979,-0.02484504,0.06913979,0.12366348,0.10336478,-0.01592279,-0.04704754,0.00722108
_9bYQ2tvc_s,0.08457968,-0.00607301,0.08458712,0.03251518,0.11301234,-0.01490662,-0.04692023,0.03806176,0.16101603,0.0293511,-0.03910647,-0.06245689,0.03464266,0.01016295,-0.08873146,0.05256052,0.05132559,0.08275452,-0.0550832,-0.05593571
WEnvorobhEE,0.02466846,0.00099043,0.04791852,0.01721108,0.04345984,0.07956692,-0.06868578,0.01263372,-0.02683459,0.03409991,0.00054073,-0.00576543,-0.00785967,-0.01782204,-0.0115449,-0.03600797,0.04376767,-0.03412997,0.00590174,-0.0175823
IJJbQTVdAtE,0.03737461,0.02816401,0.05497447,0.02280537,0.01784218,0.28383815,-0.2351264,-0.10826872,-8.165e-05,0.21864627,0.04892623,-0.03463664,0.12236976,-0.05350389,0.05835129,0.13223807,0.13398319,-0.05253486,-0.08095814,-0.00739918
mT-7tbs7rVw,0.22231133,-0.06861397,0.17648159,0.06501099,0.26560783,-0.12475829,-0.02030892,-0.13274356,-0.13499862,-0.00425568,0.12491351,0.01451203,-0.02036809,0.03833479,-0.04534977,-0.01456238,0.0367748,0.03547196,-0.07352393,-0.05250629
YPboGQjMxNY,0.01396744,0.01457814,0.00627274,0.00583257,0.00730445,0.01157613,-0.0114953,0.00898003,0.00050938,-0.01579583,0.02622368,-0.000252,-0.00558631,-0.03683118,-0.03252135,0.00661836,0.00088011,-0.01204097,0.00212124,-0.00433422
DSRfs1qKWR0,0.00219273,5.275e-05,0.00628731,0.00262048,0.00753748,0.01801066,-0.02069591,-0.009887,-0.00139837,-0.00268951,0.00360378,-0.01044674,0.00878665,0.00838004,-0.00183491,0.0040691,0.00360608,0.00454746,0.00805575,0.0047374
ABoKfabPQyY,0.01757289,-0.00220334,0.05306438,0.00069146,0.0069057,0.21203302,-0.17826795,-0.09370087,0.04611173,-0.25342154,-0.0087657,-0.00333105,-0.12956621,0.09116806,0.05251752,0.12218324,0.09419991,-0.06449793,-0.06452249,-0.03443909
8QsAx7s9PmQ,0.01133647,-0.00233632,0.02366117,-0.00187761,0.00748614,0.06348724,-0.04870182,-0.02095101,0.00231189,-0.0178094,-0.00048894,-0.00430248,-0.00279501,0.02165555,0.01150644,0.01531196,0.01834762,-0.02827564,-0.01631972,-0.0239701
zj0BKLv9r8Y,0.17039228,-0.03127837,0.10507492,-0.03103895,0.02182668,0.0419548,-0.03627265,0.17245527,0.0374209,-0.03759164,-0.07210497,0.10200615,0.04715177,-0.00738209,0.02893101,0.14963951,-0.08160666,0.01853281,0.12442515,-0.06017156
sjbKZ4CY1Ow,0.02663592,0.00789883,0.05779979,0.00889385,0.04366266,0.23666393,-0.22069678,-0.07388897,-0.01118832,0.03815655,0.02439078,0.01134633,0.07068233,-0.03514196,0.07839,0.09440009,0.10385536,-0.03073665,-0.02669137,-0.03492706
GmTuhpMe1oM,0.05502363,0.01035215,0.03250032,0.00794473,0.02699299,0.0140807,-0.00320643,0.0841314,-0.01172714,-0.02119231,-0.04990283,-0.03540156,-0.03060649,-0.01428015,-0.02975754,0.03712622,-0.02497972,0.06117571,-0.02951959,-0.05107161
0VjrLsr61pk,0.08451026,0.07012851,0.09534485,0.00766326,0.0936583,0.03114074,0.00288707,0.1359581,-0.02772921,-0.00319828,-0.05832822,0.14147987,0.00537946,0.02386259,-0.05565188,0.15957804,-0.07425208,0.00976946,0.04820113,-0.03347515
GMXWOLJHnJc,0.01532985,-0.00304512,0.03154488,0.00789721,0.01914097,0.06101687,-0.07056936,-0.01541412,-0.0056197,0.01331135,0.01968049,0.00466752,0.07393049,-0.03296291,-0.01659805,-0.03839472,-0.02734321,0.00601304,0.00302579,0.01899555
5tW7CPAVii0,0.01191226,0.00619161,0.04374573,0.02453403,0.02530667,0.2388732,-0.24432772,-0.09041911,0.03244525,-0.24413111,-0.02097346,-0.03948355,-0.21121156,0.12133488,-0.09036379,-0.18451977,-0.19447968,0.00452744,0.06560242,0.0173611
Jr9Xm5f44NQ,0.09912707,0.02641739,0.11850259,0.07251252,0.11431945,-0.00954852,-0.03578988,0.10139906,0.09405171,-0.01391306,-0.06814942,-0.04588139,0.03405494,0.04568652,-0.07372077,0.02637053,0.02203752,0.13864657,0.00379435,-0.11360675
SvLaz6y-mhs,0.15860151,0.13125246,0.91834535,-0.77470516,-0.63904325,-0.22867673,-0.15436827,-0.06270624,-0.01876447,0.02008298,0.04080367,-0.03339594,-0.00857351,-0.00273603,0.00229212,-0.00326652,-0.02461767,0.01594606,-0.00367729,-0.007126
Ju0usucry_g,0.07560691,0.02609968,0.12068151,0.03540138,0.11973151,-0.06512512,-0.03100212,-0.01899828,0.13539341,-0.00362569,0.07147348,-0.07391937,0.00197995,0.03436548,-0.08385161,-0.01666908,0.10160378,0.03050971,0.0887641,-0.16752505
Cd5EHfRerGI,0.06468678,-0.01919969,0.15294345,-0.07998465,-0.06363009,0.26251403,-0.11134686,-0.11949793,0.00187817,0.06298109,-0.0256688,-0.03551526,-0.00944787,0.03148089,0.07098861,0.12932434,0.09931826,0.04111115,0.00500414,0.01662746
OuOIrxBXB0M,0.00715386,0.00563901,0.01367484,0.00476298,0.01306699,0.07154181,-0.07255384,-0.02041287,0.00238598,0.00594219,0.00775533,0.0515151,0.09649468,-0.03973384,0.02835204,0.00295984,0.01711276,0.02554547,-0.01950121,-0.02299885
_twN29IEQlc,0.08044078,0.03058004,0.04922063,0.01835476,0.05817668,0.03454584,-0.01174547,0.14177539,-0.03600892,-0.004312,-0.11453043,0.01402399,-0.02123257,0.01719831,-0.02386539,0.0718811,-0.0693388,0.09058649,-0.04647767,-0.08081497
Y9HJ_U3TdXk,0.01241784,0.00150025,0.04020185,0.00069292,0.02017362,0.12573189,-0.09900531,-0.03928691,0.01071783,-0.06268284,0.00521007,0.00579612,0.00160872,-0.00538465,-0.00037213,0.01062314,0.00832828,-0.01103318,-0.00248077,-0.0349682
pVXm6lt1F7w,0.22698549,-0.01436869,0.19968191,-0.00209091,0.21095593,-0.16948954,-0.0220823,-0.17606602,-0.09607381,0.02328963,0.15651556,0.12556736,-0.02170236,-0.12280389,-0.05434613,0.10227216,-0.04979835,-0.16569653,0.19817603,0.0805113
yIUDe9YH0ac,0.01517478,0.00832994,0.03486762,0.01196047,0.02485349,0.04844559,-0.05608067,0.01100624,-0.00191612,-0.03738284,-0.01833321,0.01216633,0.00988642,0.01186045,0.01303247,-0.03077518,0.04534719,-0.01375901,0.00345173,-0.00808549
XFpBgNMBNNI,0.01288892,0.00809303,0.03563091,0.01753886,0.02425512,0.18037555,-0.17800861,-0.03810109,-0.00895825,0.20185813,0.01352815,-0.0241378,-0.02121173,-0.02921847,0.03320856,0.11895725,0.0658478,-0.00717796,-0.02407661,0.03865061
bFO0uAMPx1g,0.01289854,0.00341954,0.02865733,0.01664494,0.02221989,0.09449629,-0.09854721,-0.01076054,-0.00487497,0.00228376,0.00803639,-0.00883482,-0.08448926,0.01703211,0.00386145,-0.04004533,-0.028679,-0.00644505,-0.00186886,0.06718676
dVb9vyCwM2s,0.03734448,0.01986383,0.12372225,-0.05590406,-0.02444876,0.08887865,0.03437572,-0.01337552,-0.00154845,-0.01859211,-0.03959657,-0.01177081,-0.01982093,0.04775153,0.0142412,-0.03480945,0.01218458,0.08680719,0.01510618,0.04474381
vd8fb3noIgY,0.62334301,-0.53498292,-0.06395282,-0.01580442,-0.02374021,-0.00246962,0.00386239,-0.05012585,-0.08065256,-0.0153502,0.04855674,0.0180094,-0.00865188,-0.02821027,0.14352258,-0.01775838,-0.00102197,0.0266148,0.12533867,-0.07529038
q1l42BPzbIk,0.02267129,0.01079204,0.04690458,0.02320083,0.037569,-0.00890373,-0.02143927,0.01386161,0.01773935,-0.00391911,6.344e-05,-0.00676096,0.01470842,0.01389815,-0.02528581,0.00469939,0.02196361,0.02379126,0.00816251,-0.08116352
y3HkZSayX2s,0.04570631,0.01716209,0.07538794,0.02584795,0.09071315,0.01032318,-0.02032461,0.05817818,0.00169238,0.02747086,0.0790225,0.03202178,-0.03878343,-0.01156742,-0.00112154,0.03060696,-0.01995673,0.03863508,-0.01610491,-0.06062677
HVPhcOmSMtM,0.15029834,0.05940258,0.12303078,0.06323532,0.14079061,-0.00292414,-0.01235239,0.13929699,0.07073291,-0.02356505,-0.10859183,-0.1003245,0.12086331,0.05533819,-0.08517137,-0.05432331,0.12548619,-0.07489273,-0.03503909,0.02638914
8Uk97zU2GCg,0.05009543,0.01703103,0.04281833,0.01820109,0.04097276,0.03011088,-0.02273751,0.12399944,-0.06444973,-0.05056424,-0.06660614,0.25470576,-0.10328792,-0.02706881,0.03862698,-0.03183796,0.1462531,0.21096058,0.0962333,0.23005259
CzIJ566XexE,0.11406387,-0.04040382,0.11403298,0.03555308,0.1386317,-0.01034054,-0.00785407,0.00897545,-0.09183106,0.00217318,0.26417994,-0.00113668,-0.04928846,-0.0390456,0.05821324,-0.07999745,0.05540123,0.04230639,0.00192919,-0.18814677
OEqMxMEBQQY,0.04215774,0.01257346,0.10507603,0.02131064,0.08771868,-0.00019475,-0.031796,0.1242779,0.08858688,-0.00424931,0.3152322,0.06115464,-0.10262509,-0.09171514,0.17231905,-0.15957772,0.02210271,0.14469462,-0.09596393,-0.02190481
Ff0AYRWrnGY,0.01882621,0.00989345,0.04848837,0.01668389,0.01976552,0.108467,-0.10891316,-0.02091048,-0.01291659,0.10941618,0.00023222,-0.03548215,-0.00288463,0.00738661,0.03876734,0.11169637,0.0890315,-0.03905408,-0.00643896,-0.04302758
rfnB9MhBI44,0.06774296,0.0495942,0.10327967,-0.0212498,0.01575501,0.0031598,-0.01921329,0.10173371,-0.01861891,-0.02685821,-0.02524918,0.06270565,0.04745282,0.03512472,0.03302211,0.08681021,-0.03098282,0.02478724,0.06968168,-0.01853723
UgfrzicHc80,0.03048326,0.01049725,0.14664871,0.30521785,-0.13535296,-0.0119172,-0.02849554,0.00787609,-0.04608671,-0.0061178,-0.01153527,-0.02360814,0.02323921,0.04005599,0.00713938,-0.02277441,0.01205996,-0.10461847,-0.09476083,0.05079177
F1gM7N-WXdU,0.024216,0.01182958,0.05355304,0.05398402,0.00363481,0.05431387,-0.06092592,0.00568005,-0.00614097,0.0226765,-0.00583626,0.02735672,0.03755178,-0.06091231,-0.02667635,-0.05485459,-0.01213182,0.00125063,-0.01870054,-0.02374358
XXZ2wOom1l0,0.08257772,0.0566328,0.19818126,-0.07582089,0.00326378,0.02391754,-0.0229174,0.16784603,-0.059023,-0.04623222,0.04215616,-0.11194588,-0.05747045,-0.18567225,-0.02867151,-0.05943576,0.00466264,-0.20504851,-0.20530174,-0.04407712
51dULrDA8E8,0.13458498,0.0179381,0.07382087,0.02296834,0.08338936,0.0141117,0.01022719,0.01932362,-0.08726659,-0.01815315,0.0464183,0.01115789,-0.01238188,-0.00313149,0.04902707,-0.03182138,0.03847278,0.00894757,0.06433098,-0.14236334
KXpgCNB6Dcs,0.09095528,0.04761495,0.08735155,-0.03217541,0.0217409,-0.00553032,-0.01736634,0.11187375,-0.03132901,-0.01682899,-0.07628486,-0.00488772,-0.01184693,-0.00102514,-0.03860441,0.06550147,-0.05081684,0.0931521,-0.05821853,-0.07043514
g_7mUw6Xt2E,0.05354632,0.0098482,0.06013136,0.03163449,0.05134727,0.02155396,-0.01313492,0.07978357,-0.02353302,-0.00327792,0.05356729,0.03610691,-0.01311855,0.0152041,0.01616373,0.0015409,-0.05641018,-0.0367646,0.12112568,-0.125978
gPmmDEGCQLg,0.04661335,0.00248146,0.11428604,0.04093964,0.13645494,-0.02629125,-0.0162113,0.07074132,0.07697794,-8.741e-05,0.34830021,-0.04662829,-0.08160725,-0.06334867,0.06145583,-0.0450754,0.02920068,0.18207062,-0.02942441,0.03297824
0dwlHNDdn2s,0.00731277,0.00295042,0.02098271,0.01145963,0.01122032,0.018093,0.00057681,0.0148614,-0.00597116,-0.0125921,-0.01428824,-0.00467117,-0.0168569,0.02407415,-0.00473039,-0.02641012,-0.01538042,-0.01211027,-0.00819182,0.00629426
jIj6PuMrDGA,0.28305677,-0.19134696,0.08030434,0.02650788,0.18949725,-0.1397473,-0.02021812,-0.27625932,-0.31039871,0.01100761,0.06823528,0.03814309,0.02038395,0.03806631,0.00109365,-0.04016121,-0.00160218,-0.00025402,-0.03386796,0.01388729
yawQxLw0K08,0.15523204,-0.0763916,0.11283562,0.03697221,0.20550741,-0.12705186,-0.01536302,-0.18487652,-0.23242072,-0.00944631,0.03232987,0.05329595,-0.02908758,-0.02999987,-0.01700689,0.08701908,-0.08438875,0.01761471,-0.08643413,0.03092295
myMj_ZfZ_xI,0.01205997,-1.05e-05,0.04037732,0.01011912,0.0274724,0.23680651,-0.24049623,-0.08840382,0.00417151,0.13938383,0.02679477,0.04042911,0.14409119,-0.0766148,0.10193388,0.14475974,0.12909181,0.01334668,-0.09725289,-0.03065238
5BbGrGFI2gQ,0.0180738,0.00260939,0.0449124,0.02033955,0.03351213,0.02226774,-0.00211532,0.08158979,-0.01915918,-0.03135263,0.07967871,0.04586126,0.10983963,0.2253776,0.14883419,-0.02614644,-0.08015108,-0.01421987,0.01085074,0.08290736
x3P8Zqux4A4,0.00958791,0.00464075,0.05720414,-0.00413717,0.00400445,0.22310682,-0.20001901,-0.1066644,0.04638427,-0.25914067,-0.02581845,-0.02440565,-0.15047758,0.11297386,0.02531078,0.03247739,-0.01175489,-0.01710555,0.00937253,-0.02498524
jdrW-vJOD1w,0.11345887,0.0232971,0.09048058,0.04962071,0.03747121,0.00726051,-0.018765,0.14271908,-0.04269197,-0.02381962,-0.05044585,-0.05454487,0.00706314,-0.06944946,0.04195577,-0.03512404,-0.0154181,-0.07848532,-0.02964357,0.00310471
rk2b7fH_Gcc,0.07647821,0.05661282,0.10482974,-0.0009243,0.05022544,0.02522211,-0.02985761,0.16815455,-0.0941766,-0.03371741,-0.11200276,0.3647065,-0.15483108,-0.0322418,0.00887158,-0.07967325,0.2262685,0.30048005,0.05890812,0.24179587
H3lUaL6-XQQ,0.02070112,0.01304085,0.11310971,-0.06355714,-0.03159579,0.08484677,0.032598,-0.02058827,-0.01692826,-0.0250524,-0.03480626,0.01290069,-0.00556222,0.02606006,-0.00248872,0.0045306,0.03592934,0.09468819,0.02167201,0.05753997
IwjPma4PPTM,0.10147383,0.04359834,0.11420917,0.02888054,0.12080123,0.06333966,0.01955846,0.28774451,-0.06419155,-0.026575,-0.22896679,-0.14147638,0.0165991,-0.10913314,-0.12953874,0.05866346,-0.00985781,-0.0983847,-0.15240218,0.12444424
XfY_L8MLOsU,0.01604927,0.00282523,0.04656523,0.01655769,0.03444397,0.11447678,-0.12016601,-0.00689765,-0.01571361,-0.00816486,-0.0017021,0.05756384,0.0808098,-0.05767461,0.05541177,0.04147305,0.01986163,-0.00543724,0.0249635,-0.04052436
87jnYKGVetM,0.01432626,0.00139806,0.04800838,0.02557869,0.02946257,0.17218269,-0.18229839,-0.05099616,0.01378216,0.06115187,-0.02339737,-0.03243036,-0.09184298,0.04677224,-0.0712622,-0.07622941,-0.09493073,0.02707973,0.0309537,0.04547676
XX7hskkX1AA,0.10551714,0.07352349,0.1546733,0.0123282,0.12352043,0.01790223,0.0024875,0.18027949,0.07244105,0.05089193,0.01536416,0.19495894,0.00041369,-0.02736183,0.03701948,0.13726044,-0.07114694,-0.03685312,0.12882099,-0.06504194
4IeYytwcpuQ,0.00987749,0.00320218,0.03598862,0.01812637,0.02246566,0.12692049,-0.10903122,-0.01180629,-0.00306336,0.11960394,0.01327186,-0.0070946,-0.03483681,-0.05011224,0.06756364,0.06160413,0.18064516,-0.04193517,-0.12440022,0.01793445
Hs6RxFMX1i4,0.01490501,0.00354882,0.03585872,0.02007912,0.0268288,0.07196582,-0.06813327,-0.02356873,-0.01471965,0.05949922,0.08155749,0.0046197,-0.06205889,-0.01285686,0.05051074,0.02712348,0.04880725,-0.01887444,0.05041757,-0.08630502
Rvy2kXZpBtM,0.10540999,0.06526371,0.07881236,0.02874517,0.08941384,0.04240502,0.00848946,0.19155097,-0.06848623,-0.02108168,-0.11387406,0.00684834,0.04742068,0.05430748,-0.01128665,0.08358143,-0.0496424,0.10618098,-0.08380943,-0.17431543
RVu1kgj-miw,0.04729203,0.01814893,0.0903014,0.06309503,0.05966593,0.00728271,-0.01384228,0.13664289,-0.05456422,-0.03991299,0.11768104,-0.00436421,0.20058542,0.3294699,0.22852659,-0.10867339,-0.0599018,-0.08148078,-0.11456305,0.12776691
pdNaIhcp3z4,0.09699613,0.0159717,0.10160279,0.0227286,0.037685,0.01087217,-0.02136041,0.088444,0.00333725,0.01436175,-0.0384937,-0.03096662,-0.00203601,0.0035896,-0.03167667,-0.11292495,0.13691088,-0.01760298,-0.0756088,-0.04437199
AHyZdLVYJfc,0.05016186,0.0541755,-0.0028222,0.00018942,0.00337168,0.06271491,-0.04295626,-0.0341916,-0.00233747,-0.01735197,0.0128665,-0.03436866,-0.02538559,0.01603035,0.01368073,-0.02958233,-0.02515178,0.01801644,0.0081404,-0.01193339
AYIqxqyY-es,0.06071544,0.02713489,0.05495657,0.01283575,0.06484352,0.00969131,0.00326794,0.06301232,-0.01778053,-0.01776769,-0.02625541,0.01742991,0.02076997,-0.02645856,0.02633416,0.02871856,0.01348562,-0.01396341,0.02873644,-0.00893844
ZjtJALByo70,0.07352609,0.00684027,0.07324699,0.02529825,0.08724673,0.01989683,0.00592596,0.10795549,0.01733797,-0.01360138,0.11691084,-0.01221667,-0.04078154,-0.03777993,0.03197455,-0.02710267,0.03751179,0.07330987,-0.09321776,0.05367426
9LsgBjswQZY,0.01337259,0.00833607,0.02797481,0.02137596,0.01694073,0.06082693,-0.06311487,0.01036069,-0.00839423,0.02204291,0.00714558,0.04320857,0.02801096,-0.05565197,-0.02856226,-0.0666813,0.0141919,0.03845005,0.0591047,0.03434337
-IhdnUzV64Y,0.12214774,0.04209422,0.13513993,0.005721,0.09099408,-0.04307401,-0.03537222,0.11150254,0.06605642,-0.01203372,-0.08496603,0.01124488,-0.01914863,0.01985122,-0.04608242,-0.0233202,0.02759623,0.06186539,-0.04768943,-0.04129957
zyJ1yZwX_tE,0.02012109,0.01044159,0.0543482,-0.0025727,0.00266294,0.10634686,-0.09617738,-0.03309613,0.01164712,-0.05429429,-0.04415146,0.04737744,-0.00352745,-0.05612209,-0.00717559,-0.04027877,-0.00835968,0.00089873,0.04663392,0.01275742
M_FKC2NTb24,0.08098731,0.03179794,0.04629119,0.01857449,0.05153429,0.02544551,0.00378194,0.10222983,-0.04657818,-0.01062032,-0.04951844,0.02480466,0.01075184,0.01958875,-0.03909317,0.08787495,-0.02203312,0.06273115,-0.04198509,-0.08652263
Um1DSnUqmko,0.87225413,1.04314517,-0.31364566,-0.01550031,-0.11537906,-0.00050705,0.00312014,-0.07320388,-0.00512454,-0.00728923,0.04282976,-0.03656775,-0.0028845,0.00796279,-0.00702932,-0.00637792,-0.00707317,0.03920893,-0.01496852,0.00873721
fr78adfAnuA,0.02101793,0.00482315,0.08404577,0.0073301,0.03904284,0.29924252,-0.27984745,-0.0812599,0.02162922,-0.08917678,0.02913262,0.17004878,0.58600026,-0.30983349,-0.10703106,-0.20381083,-0.15352083,0.15340941,-0.04551115,0.01816433
95KqKaDsIAM,0.08062649,0.04409266,0.1086286,0.05515343,0.08782221,0.02469195,-0.01504837,0.14143487,-0.00168616,0.03364934,0.01554804,-0.02849199,-0.03327685,-0.03489454,0.01874226,-0.05475934,-0.01687658,0.05602586,-0.05540749,-0.02277965
qsJSGpOs5q4,0.99726751,-0.87669762,-0.21299187,-0.06623021,-0.20847853,0.07593024,0.00941496,0.09788673,0.07987601,0.00973392,0.11329291,0.08768932,-0.02093848,0.06674719,-0.23043796,0.02874206,0.00668807,-0.07748195,-0.07753577,0.04122449
AMpe2jD0lZw,0.21843518,-0.07471706,0.16013821,0.06308366,0.24352206,-0.09969142,-0.0094134,-0.08604946,-0.22816297,-0.01984902,0.18663467,0.07267134,-0.03647637,-0.0111982,0.06739683,-0.02073708,9.792e-05,0.06089341,-0.13996244,-0.03031115
nZlhHf8vSbU,0.19099003,-0.09753396,0.14365227,0.0481857,0.21451049,-0.06945195,-0.01578503,-0.08988829,-0.23605457,-0.01529703,0.08534032,0.05997917,-0.01159064,-0.00214223,0.05129753,-0.00811127,0.01654703,0.03972557,-0.08487035,0.07573383
2JhSWzxzLXA,0.04669365,0.00567468,0.06692164,0.02622444,0.05333844,0.00083154,-0.0159389,0.08952275,-0.02025323,-0.00847591,-0.06793183,-0.00395084,0.02389101,0.03166611,-0.01899307,0.0490469,-0.0174675,-0.01368181,0.00717033,-0.05564775
ZOPXzlpBVoM,0.06121515,0.07445859,0.00592633,0.02028746,-0.03193349,-0.00351813,-0.00573384,-0.0164281,-0.00483167,0.00162208,0.01074876,0.02911779,-0.0101827,-0.00787467,0.00375439,-0.01094987,0.02579003,-0.02767133,0.01379176,0.00663504
NuoEsHIW5JA,0.01554597,-0.00305135,0.02625224,0.00720043,0.01793404,0.07404167,-0.07053989,-0.00458402,0.00253576,-0.06423976,-0.00810933,0.01603587,-0.03465019,0.01775532,-0.01719472,-0.01973762,0.01614857,-0.02893934,-0.03267193,-0.02712387
NAooB35YkHA,0.09671129,0.01006593,0.077118,0.02665846,0.09251734,0.01216558,-0.02414335,0.16445388,0.00154719,-0.0472706,-0.00407788,-0.06332497,-0.0048068,-0.08527359,0.08148561,0.00843769,-0.05166129,0.09855308,0.0465339,-0.10335082
krqt6eg3UoI,0.08065136,0.05715154,0.0774536,0.02597989,0.08327614,0.03217572,-0.00155218,0.11408587,0.0116625,-0.00906472,-0.04013031,0.12949041,0.01202792,-0.01014944,-0.03003216,0.17861005,-0.0610139,0.00339872,0.10096639,-0.09638049
-0FsgHxwxgQ,0.09319374,0.0276033,0.08131017,0.02529239,0.10773499,0.00454005,-0.00969441,0.10812187,-0.0847781,-0.02868379,-0.07803753,0.04518386,-0.0672675,-0.01983593,-0.0077541,0.05036131,-0.01437598,0.1436797,-0.04927038,-0.00945211
T34ygnCahZc,0.11970679,0.04493552,0.07383011,0.0258655,0.08556149,0.05233961,0.00315846,0.18533413,-0.06238547,-0.0211599,-0.14368104,0.00196627,-0.0022656,-0.01297756,-0.03996181,0.11852463,-0.00663903,0.02610759,-0.01334985,0.04921221
NM-bwZZoX80,0.0914806,0.03883954,0.15532062,0.05415654,0.21976535,-0.07682052,-0.03385709,0.03323349,0.26391812,0.02643188,0.05415128,-0.10654711,0.0489114,0.0367138,-0.18294561,0.07864386,0.08995468,0.24111491,-0.10476798,-0.1017563
cdOcjUyQr8A,0.01190845,0.00324409,0.0498657,0.02175335,0.01332496,0.10515797,-0.10068744,-0.03081962,0.01319041,-0.13462245,-0.0227743,0.00279407,-0.06694133,0.04723078,-0.00019016,0.01132914,0.05355599,-0.00634148,-0.01357753,-0.04356634
UszcZZ1QZho,0.13134084,-0.0506624,0.06516192,0.02873371,0.04542172,0.03717,0.03126916,0.02976714,-0.02512118,-0.01834054,-0.02202624,-0.06058277,0.07980388,-0.01002124,0.08579428,-0.06430106,0.04568141,-0.0831957,0.09787096,-0.11840355
0IGNbK4bbXA,0.0724022,0.04968029,0.080609,0.02705593,0.09849533,0.03371092,0.01964597,0.08915479,-0.08464623,-0.02098727,-0.05607899,-0.00811761,0.03196771,0.0062149,-0.01733533,0.02080735,0.04748158,-0.04949417,0.03142389,0.02924072
7A5KHuRU8BE,0.15384067,-0.06275839,0.13176325,0.0700338,0.17651939,-0.09775379,-0.00800123,-0.15506549,-0.13674838,-0.00216319,-0.03690235,0.13688216,-0.05954255,-0.09672291,0.0548108,-0.01308023,-0.04290273,-0.06982116,-0.13960659,0.1779421
fKtG9uPeMCc,0.11283599,-0.00186963,0.07596462,0.03212304,0.09204368,0.00246343,-0.00422937,0.13384202,-0.10134079,-0.04527883,0.0837291,0.00882037,0.19594007,0.35105603,0.1861028,-0.01604398,-0.11799783,0.04611971,-0.09964648,0.00137593
XoY4BiK1WW8,0.14680019,-0.05385385,0.12474546,0.03555617,0.18985162,-0.0791208,-0.00211272,-0.14575796,-0.17877932,-0.00895183,0.04690112,0.0462171,-0.02756073,0.01495703,-0.04936283,0.0413413,-0.00759721,-0.07911242,-0.03380743,0.0640495
UkbeRKmr5kM,0.1196112,0.05607801,0.44604492,-0.12443184,-0.02776387,0.59829113,0.77713922,-0.23576501,0.04803275,-0.02174121,-0.10171121,0.01191615,0.03251791,0.07060477,0.03402629,0.06838621,-0.03643703,0.15302117,-0.0795984,0.05886555
Cs1nC8kqS5k,0.07899373,0.0651374,0.10656946,-0.00425556,0.06578282,0.00593714,-0.0117006,0.11070439,-0.01464743,0.00726839,-0.02721252,0.19862182,-0.0169282,-0.03655812,0.00987046,0.10104929,-0.01886841,-0.01288907,0.12598679,-0.03226827
AzNb2nQrM7U,0.03239556,0.01577621,0.04836595,0.01827789,0.04689254,-7.791e-05,-0.01951653,0.01462894,0.00115932,-0.01427829,0.01922895,-0.03245027,0.02803089,-0.01881487,-0.01752857,-0.0293446,0.04348873,0.04039515,0.0410072,-0.04960544
EXOQ7vN2NXk,0.06558566,0.01523809,0.0930211,0.0200101,0.11202015,0.00494688,0.03193378,0.01529625,0.0371851,-0.01404343,0.03236171,0.01552391,-0.05569601,-0.07095452,0.01771363,-0.00578676,-0.04463885,-0.20012976,0.02836282,0.05598592
U4gpio58908,0.03216287,0.0144996,0.05393323,0.00412401,0.03290971,0.11388317,-0.10349097,-0.01474214,-0.01468768,-0.01208444,-0.00903062,-0.01123682,-0.08710952,0.0409748,0.00147233,0.00097438,-0.00438804,-0.03207515,0.08374376,-0.00187334
TekYNY3eGC0,0.03880692,0.02330432,0.06406918,-0.00106923,0.00717393,0.01294715,-0.00519826,0.02892483,-0.02838947,-0.00891995,-0.00869848,0.02248171,-0.01444785,-0.00090638,0.00387666,-0.03364112,0.03775153,-0.02863768,0.01388002,-0.03856365
0SSctcuOy0o,0.04812365,0.02902973,0.05301186,0.0224493,0.05193072,0.01882725,0.00306209,0.07153569,-0.02434924,-0.02546405,-0.06603022,0.00256024,0.01039212,-0.00497347,0.00615186,0.03977309,-0.03272132,0.0527852,-0.02231478,-0.04126253
R1iBWKeX42I,0.0988822,0.0444689,0.09846506,0.03415951,0.12279852,-0.02829207,-0.0121369,0.06688388,0.18077739,-0.01810464,-0.06732369,-0.10535129,0.0067764,-0.00547975,-0.06425249,-0.09096736,0.12324875,-0.07275077,-0.02337609,-0.02339683
CZe8DucT3qA,0.01880662,0.00873309,0.03839151,0.01112046,0.03341499,0.03386975,-0.02449277,0.02754539,-0.01798566,-0.02666476,-0.05082945,-0.00935824,-0.07452244,0.06026952,-0.01951719,-0.08996185,-0.06316744,0.0664634,0.02359471,0.01961832
kkQDCTCcgC0,0.07822668,0.0180602,0.32278379,0.80727161,-0.47656452,-0.06045483,-0.02104162,-0.03510221,-0.01774189,-0.00023224,-0.03290068,-0.00304981,0.01820316,-0.05778034,0.01413059,-0.01116763,-0.00788121,0.00779993,-0.02929145,0.02905006
UWRxdKxuOb8,0.99726751,-0.87669762,-0.21299187,-0.06623021,-0.20847853,0.07593024,0.00941496,0.09788673,0.07987601,0.00973392,0.11329291,0.08768932,-0.02093848,0.06674719,-0.23043796,0.02874206,0.00668807,-0.07748195,-0.07753577,0.04122449
1t2Yd_bmg_k,0.8837399,-0.7175028,-0.12328239,-0.02981411,-0.07366957,-0.0104642,-0.0024021,-0.02911124,-0.00475056,-0.02292081,-0.28226655,-0.23538375,0.04673143,-0.17065516,0.53070151,-0.08030173,-0.00663103,0.19070059,0.16940911,-0.06189661
a8LrJMGoVL4,0.09876844,0.01953442,0.13296465,0.02778381,0.13667221,0.03434238,0.01745643,0.13875703,-0.06151419,-0.02260222,-0.12346265,-0.04161086,0.05247014,-0.09343993,0.06452411,0.0595721,-0.04234104,-0.16343092,0.19694142,-0.03064782
OWkM5YoEhgM,0.09854459,0.05430377,0.09201523,0.02028784,0.08739893,0.03586622,-0.01207959,0.15032048,-0.03526372,0.03324422,-0.06247908,0.096363,-0.00960126,-0.032858,-0.0513503,0.12459551,-0.10333212,0.03570961,0.09000872,-0.03195355
4vHF2qU89Jo,0.17636835,-0.00027133,0.06262622,0.03960752,0.09674801,-0.04099907,-0.01910969,0.02694312,0.16720348,-0.01446868,-0.17788645,-0.12397194,0.00893901,-0.04854236,0.12385782,-0.00681824,-0.01099213,0.0969325,-0.01353953,-0.06235721
4ZK7Ms4IZ7g,0.02255722,0.00902525,0.06152237,0.00733452,0.02761887,0.24041476,-0.22041272,-0.09940435,-0.00206671,-0.10976864,0.02591982,0.16188941,0.50664328,-0.27721435,-0.09025921,-0.17246256,-0.13724943,0.14255646,-0.02136332,-0.014382
-APimd6TUro,0.09048155,0.01700092,0.34932179,0.71787938,-0.31473235,-0.10011204,-0.00902743,-0.06820131,0.13540312,0.00486251,0.07386904,-0.03881189,-0.00710717,0.05678841,-0.06495347,0.01351047,0.03411918,0.0640118,0.09810414,-0.10207139
nJ0oh5u6YbM,0.02739234,0.01048159,0.04232374,0.01821518,4.265e-05,0.11715135,-0.10818164,-0.0509113,0.02982716,-0.08446408,-0.04133905,-0.00326811,-0.0834673,0.04642523,0.0092881,0.0370993,0.01619477,-0.04731841,0.02165993,0.00911913
p5zWy46yWxU,0.00924511,-0.00061385,0.02874982,0.00701103,0.01988453,0.13073695,-0.13363054,-0.03961727,-0.00681195,0.01146548,0.00749273,0.05127202,0.10242564,-0.05660436,0.00901013,-0.01460346,0.01216647,0.01507663,-0.0075761,-0.00731354
6AKlPLtjBR8,0.02361605,0.00956632,0.0575057,0.0141779,0.04154815,0.02710466,0.01432815,0.0030275,-0.02383205,-0.01793145,-0.00674573,0.03286337,0.0374616,0.0535054,-0.04423202,0.01178721,0.02152195,-0.04355568,-0.02550819,0.03181318
yemarhfhVA0,0.01773282,0.0072455,0.03780244,0.01727772,0.02860015,0.11849937,-0.10723992,-0.0063941,-0.02560804,0.0598374,-0.00057407,-0.00415315,0.04961358,-0.06251449,-0.01723827,-0.01630682,-0.01066824,-0.00579217,-0.01706392,-0.00388852
dYJM9jmLBzY,0.04348066,-0.00047442,0.08742659,0.02636905,0.1019896,-0.01883001,0.01587949,-0.05218034,0.08448816,-0.00861612,0.07493855,0.01475943,-0.04936303,-0.02039705,0.01044526,-0.01532877,-0.00352063,0.01288183,0.06625364,-0.16603392
tg0LuGGeOPA,0.0536677,0.03506168,0.11234908,-0.00498758,0.04907187,-0.00076995,-0.0173638,0.08259243,0.04203627,0.01350908,-0.06178959,0.00284146,-0.00747062,0.05997564,-0.03538369,-0.18327135,0.21136837,-0.09360981,0.00659017,-0.04358155
sncgYGQt1T8,0.44706572,0.48784519,-0.0066826,-0.0018705,0.0471049,-0.01291599,0.02272372,0.04188231,0.0837142,0.07940979,-0.0846386,0.23953148,0.02514391,-0.04611547,0.05786764,-0.03519367,0.06740652,-0.28331799,0.10416598,0.05356191
DB1fSfulSJQ,0.021104,0.01533263,0.04900015,0.02719465,0.02351676,0.21222289,-0.2175859,-0.08269273,0.01730424,-0.23241256,-0.06630329,-0.04188383,-0.27893534,0.17410925,-0.10033623,-0.21733561,-0.27709158,0.05557055,0.09142079,0.04916226
6-PunI-5Ts4,0.05675247,0.02893283,0.12409925,-0.00849768,0.07009869,-0.04044187,-0.04009944,0.06970569,0.12734368,-0.0101097,-0.03012006,-0.03955114,0.05707893,0.0584028,-0.06548468,0.03021999,0.0532361,-0.01241085,0.10106571,-0.00423873
oOLYgK6RqS4,0.0055164,0.00209836,0.01722266,0.00533488,0.01342246,0.01710483,0.00451123,0.01779261,-0.00041538,-0.01591197,0.00079492,-0.0065731,-0.00380913,-0.01233483,-0.00461823,-0.01154733,0.01142911,-0.00738328,0.0067816,-0.01278316
DHk0gFHyHeE,0.19506045,0.12347973,0.0410947,0.03319869,0.09654804,0.00451317,-0.00395484,0.07020099,-0.09981073,-0.08447103,0.01469757,-0.24819204,-0.03222874,-0.07616143,0.02131418,0.04483473,-0.02685395,0.07890275,0.04734498,0.08692307
rhVEOqNhjKo,0.01242537,-0.00019177,0.03912986,0.00295902,0.01561534,0.12224488,-0.12706812,-0.03361146,0.01691675,-0.05324095,-0.02167804,0.03462374,0.00106493,-0.05345896,-0.05453379,-0.05288356,0.02835891,0.02337242,-0.00310179,-0.00946597
lYpHv3Tg0Vg,0.09210663,0.04399156,0.34767302,-0.08255832,-0.02736508,0.48425328,0.60021465,-0.17389046,0.01924146,-0.00727584,0.01146158,-0.03763627,0.04386547,0.04890811,-0.01232461,-0.11881801,0.10064596,-0.00055157,-0.02943973,0.01325415
ERxzxl6fXbw,0.03302253,0.00816873,0.08477824,0.0369842,0.0776242,0.03407638,0.00280139,0.14919574,-0.05641658,-0.00819844,0.08184338,0.02154396,0.16807184,0.31075537,0.16479825,-0.02426229,-0.13905924,-0.17490661,0.04837104,0.18951525
0EqJD2o-Mnk,0.01036512,0.00309858,0.03793273,0.01820865,0.02979145,0.14372206,-0.14470882,-0.03637646,-0.01182906,-0.03127545,0.0552834,0.07457621,0.44595871,-0.24781259,-0.12044172,-0.2250745,-0.11715383,0.08774497,-0.01192178,-0.00844588
HEW0VJx9iw0,0.00990304,0.00336687,0.04575346,-0.00414663,0.01808235,0.13299641,-0.11061044,-0.04964468,0.02116743,-0.1792691,0.00596328,-0.0269552,-0.05833277,0.04932967,0.03275029,0.02299858,0.03700516,-0.03905126,0.00758561,-0.0374952
XzkJ2WrHR2c,0.1635791,-0.05274092,0.2037968,0.06944233,0.25631322,-0.08081701,-0.00569004,-0.07658677,-0.01071989,0.00341034,0.12640132,0.1163288,-0.01542569,-0.03411379,-0.03422517,0.07219763,-0.00718933,-0.09960588,0.32244975,-0.10580724
PQOKPfU-zIs,0.1830581,-0.01969876,0.13630263,-0.00645145,0.12605602,-0.1041632,-0.02975864,-0.07863515,-0.12594779,-0.01638116,-0.05051451,0.04161102,-0.03141751,0.01872665,-0.01750461,0.00906195,0.01459567,0.00791044,-0.06848097,0.01754399
DQiQ30VepbU,0.03410337,0.00487597,0.06984903,0.02121083,0.07848004,0.05764347,-0.01025394,0.14615631,-0.00185556,-0.03777729,0.16623537,-0.11779321,-0.09714941,-0.13817772,0.08954872,-0.03721603,0.03915306,-0.10516791,0.00324327,0.14483224
iS1jGgfO9Z0,0.56066187,0.63266989,-0.09168092,-0.00677486,0.00056962,-0.00587831,0.00834824,0.06747448,0.05545602,0.07720194,-0.10302633,0.27439602,0.04383231,0.02028401,0.00659441,0.06509318,0.01253094,-0.10676093,0.05217971,-0.08646412
iq599kyAjVA,0.02043298,0.00119251,0.05176635,0.00588973,0.02984184,0.19346005,-0.18729121,-0.05831928,-0.00966797,0.04641297,-0.01354554,0.00413158,-0.0393372,0.00543996,0.01284392,0.02683092,0.04531888,0.0204997,-0.00686876,0.00678624
L8_m7pOI2-A,0.05347105,0.04354766,0.09007834,-0.01489735,0.02909476,-0.01309684,-0.03059378,0.06753499,0.01195809,-0.01290133,-0.03967315,-0.00140453,0.07605875,0.07027241,-0.02730404,0.05614711,0.03160557,-0.01552195,0.04886643,0.05747718
5ymn2oV1Zls,0.0402038,0.00424458,0.09056984,0.02800983,0.10237417,0.00287712,-0.00488679,-0.01881645,-0.08984392,-0.00611478,0.04322459,-0.02205788,-0.00675438,0.02601908,-0.02752929,0.04403192,0.02915502,-0.0970657,0.01346852,0.09030041
IQZiAOokKXo,0.01707547,0.0016666,0.06518683,0.00327377,0.02220011,0.26374083,-0.25037078,-0.11673539,0.05549873,-0.21246351,-0.0219805,0.01889252,-0.04725916,0.04676451,-0.05718459,-0.01460578,0.03626996,-0.03634184,-0.08166167,-0.03523752
DgX6SMZaC_8,0.05617686,-0.00744458,0.0602407,0.03298459,0.05336765,0.00018437,-0.0006837,0.03327497,-0.03522748,-0.01018835,-0.01742066,0.00328635,0.02889993,0.04180687,-0.0001969,0.0152631,0.01772008,-0.03281108,-0.00183128,0.01831084
61fk5yAs7Jw,0.0728905,0.01821894,0.30995032,0.76078797,-0.43291126,-0.07653136,-0.00647448,-0.03357251,-0.04083083,-0.00034479,-0.03163848,-0.00045413,-0.00329285,-0.04755389,0.03365274,-0.01544598,0.00630718,0.00294088,-0.03576993,0.02826089
uvfU2B8b4G4,0.05211841,0.0091728,0.10535517,0.03677509,0.11089536,0.0142831,0.00923729,0.15079363,0.04233683,-0.00774167,0.26415045,-0.01734315,-0.06501013,-0.07368844,0.13181354,-0.06011939,0.06034978,0.03758167,-0.01816175,0.08674138
7vdW8a6jEfw,0.02349628,0.01408666,0.01610621,0.0057887,0.02398066,0.0756752,-0.08158073,-0.05167303,-0.01408763,-0.0749972,-0.00772656,-0.01481543,-0.06625399,0.02474174,-0.03401249,-0.03355203,-0.0437755,0.04059972,0.02314228,0.00707379
nHH771Vtkxw,0.06685675,0.02857972,0.12733704,0.01532561,0.08077284,-0.01680582,-0.01538428,0.13971419,0.00243423,-0.00564925,0.28806733,0.03410817,-0.03215142,0.00402803,0.19425834,-0.14282349,0.08125864,0.07635907,-0.1689113,0.06811143
kLJNcHqVmJA,0.05702943,0.00930946,0.09634279,0.0376699,0.13177445,-0.01534897,-0.0534981,0.05296971,0.1004781,0.18056858,-0.0551776,-0.08435613,-0.01947462,0.10430312,-0.13923471,-0.12807904,0.056882,0.0524,0.08402761,-0.00209096
67JREKwyixk,0.87225413,1.04314517,-0.31364566,-0.01550031,-0.11537906,-0.00050705,0.00312014,-0.07320388,-0.00512454,-0.00728923,0.04282976,-0.03656775,-0.0028845,0.00796279,-0.00702932,-0.00637792,-0.00707317,0.03920893,-0.01496852,0.00873721
B2ag364pRgQ,0.0097399,-0.0004195,0.02081085,0.00598725,0.01879014,0.06384489,-0.05686154,0.00327723,-0.00569673,0.01001359,0.00938075,-0.00310372,-0.00081556,-0.03005687,-0.01245447,-0.02846312,-0.01919409,0.02178882,0.0128439,0.00081049
rXs8JlFIS-U,0.99726751,-0.87669762,-0.21299187,-0.06623021,-0.20847853,0.07593024,0.00941496,0.09788673,0.07987601,0.00973392,0.11329291,0.08768932,-0.02093848,0.06674719,-0.23043796,0.02874206,0.00668807,-0.07748195,-0.07753577,0.04122449
QDZUOBnmf4Q,0.0782037,0.01874125,0.07443988,0.04900908,0.05530562,0.02670526,0.00667431,0.0906351,-0.06638894,-0.02655836,3.401e-05,-0.03426023,0.07069569,0.07401013,0.07494488,-0.00883363,-0.0272601,-0.0161676,-0.08905084,0.00745546
uWOLkr7S47A,0.01265615,0.00365329,0.04322122,0.02398762,0.03117303,0.14011451,-0.14342682,-0.04006974,0.02074921,-0.11261873,-0.02396861,-0.04936066,-0.10928387,0.08590041,-0.04368329,-0.07720393,-0.12459068,-0.02614233,0.04015213,0.02272675
X9fGa-F_ars,0.03955338,0.01643511,0.06275314,0.02056478,0.06419446,-0.00522665,-0.02351942,0.04010537,0.02820252,-0.01858489,0.01421787,0.01832136,0.01744901,0.02251878,-0.02033397,0.01128674,0.00567285,0.01700942,0.06054656,-0.05706919
3skIuC1lP00,0.06749982,0.01132476,0.11107019,0.0058401,0.07285626,-0.0335321,-0.03130632,0.02270736,-0.0472763,0.00119244,-0.01858721,-0.02820443,0.09335183,0.04963892,-0.01148977,-0.01849585,0.0430265,-0.05162684,0.05146399,0.02203224
SK8tkpErsm8,0.17559887,-0.05371723,0.1051016,0.06103346,0.18758666,-0.10753451,-0.01600272,-0.2200176,-0.13416926,-0.00932834,0.08350111,0.08196607,-0.06092982,-0.01960615,0.01783963,-0.01994554,-0.02757116,-0.08578135,0.07083478,-0.10441177
OkuWh46I4m4,0.04970911,0.01531898,0.09255783,0.01781142,0.09655226,0.04615235,0.03515382,0.12883778,-0.05173972,-0.00544793,-0.14364442,-0.11370915,0.0633014,-0.047807,-0.04019787,-0.0532311,0.09158503,-0.23113519,0.02417197,0.2387818
Xf_v62TQOx4,0.00797537,0.00379092,0.01433392,0.01117385,0.010511,0.04351936,-0.04603019,-0.00789735,0.00652375,0.00095866,0.01294184,-0.00035919,0.02326441,-0.03622326,0.00816983,-0.02043398,-0.00693931,0.03886709,0.00569231,0.02916439
LPTQADIf6Xk,0.07296337,0.03615617,0.09744032,0.04005723,0.13600064,-0.04193386,-0.01842956,0.06683913,0.13381488,-8.628e-05,-0.07331043,-0.05552471,0.06475073,0.07011898,-0.12145738,0.00189594,0.10376483,0.07265428,0.01081291,-0.08444575
664cs6FZEZo,0.01992041,0.00034555,0.07411911,-0.00549745,0.02050245,0.32431681,-0.28573702,-0.15603334,0.05207883,-0.22191797,-0.02232784,-0.01367708,-0.17463192,0.14210909,0.06336936,0.18197368,0.14680917,-0.07193396,-0.1123976,-0.02899405
9QKOkpu78CQ,0.07611193,0.03907641,0.15079822,0.02414693,0.13432345,-0.04665795,-0.03765773,0.08638667,0.15776114,0.02031445,0.20989825,0.04897938,-0.08131141,-0.01234856,0.05872807,-0.15093743,0.14481154,0.07801948,-0.02576015,-0.06620097
3QRWlCFdzyE,0.8837399,-0.7175028,-0.12328239,-0.02981411,-0.07366957,-0.0104642,-0.0024021,-0.02911124,-0.00475056,-0.02292081,-0.28226655,-0.23538375,0.04673143,-0.17065516,0.53070151,-0.08030173,-0.00663103,0.19070059,0.16940911,-0.06189661
S3JuEF7RQ5k,0.10760043,0.10439569,0.08294053,0.02451001,0.08907651,0.05659137,0.02786395,0.16076034,-0.01384652,0.04360873,-0.05021887,0.0540984,0.01603412,0.02578003,-0.06158909,0.08496709,-0.04560882,-0.0010929,0.14281853,-0.06753521
G9L3zK57X6Y,0.07620818,0.03025984,0.18410539,0.01629821,0.09490082,-0.0599705,-0.03528177,0.03870666,0.167081,0.02050561,0.13641551,0.04753321,0.02848293,-0.07951927,-0.0914274,0.03132215,0.019437,-0.06820303,0.19811945,0.05784126
0xTKuxdSrRI,0.22833438,-0.03647983,0.22073504,0.01873977,0.24945724,-0.12229615,-0.02597923,-0.05614041,-0.2768037,-0.04605608,-0.02816117,0.00392808,-0.01579303,-0.09012911,-0.07746202,0.15472394,-0.09889896,-0.0045779,-0.21039425,0.02490461
-6t20SnbOyc,0.10609493,0.01568807,0.20251583,0.05283815,0.21935225,-0.0395246,0.00744286,0.03794353,0.14895151,-0.00769493,0.05339321,-0.02247753,-0.01484796,0.01670756,-0.10235866,0.10525874,0.01158269,0.03808815,0.04944727,-0.06858926
1lx0bttCAbs,0.20114208,0.02130766,0.12630071,0.02018341,0.14149046,-0.04506988,0.03325678,-0.11859532,-0.15198469,-0.01139106,-0.04726879,0.06223633,0.02915729,-2.061e-05,0.0159198,-0.0410214,-0.00693513,-0.04371995,-0.04149274,-0.04122199
I-rogofBX8c,0.00985575,0.00039585,0.01327766,0.00403424,0.01469197,0.03334744,-0.03011603,-0.00778258,0.00294812,-0.02100783,0.00978105,0.004334,-0.01371551,-0.00609909,0.00538699,-0.0022044,0.0173127,-0.01985355,0.00158364,-0.0064007
AVyYMXc_t9s,0.05964664,0.04805426,0.06727175,0.01020468,0.05685435,0.04204095,-0.00761166,0.11097166,-0.03987293,-0.0024045,-0.095156,0.00705809,0.0489152,0.00337123,-0.04189322,0.09479913,-0.00519319,0.01737123,-0.04852939,0.01314517
3W1KfxQnQiU,0.0940619,0.00782174,0.0996901,0.03980612,0.10943486,-0.00880804,0.00519963,0.04266398,0.06655794,-0.01191454,-0.16143698,-0.17221488,0.0537802,-0.05650271,0.15997731,-0.09743908,0.09711083,-0.05125973,0.18273936,-0.02744819
gtdao7DVsBo,0.01591146,0.00049806,0.06347333,-0.00283437,0.01672254,0.2668812,-0.25336081,-0.11702941,0.03705585,-0.17184702,-0.00362925,0.0108484,-0.04192235,0.02263777,0.05846525,0.08459844,0.08121775,-0.0016936,-0.05068529,-0.05967967
TUSbI3pqiCM,0.10944379,0.05413153,0.14688638,0.04405709,0.21001252,-0.06867956,-0.01606459,0.03478587,0.09737453,0.01273552,-0.07094912,-0.11041189,0.14671005,0.14764464,-0.14756467,0.03858652,0.10494367,0.05357605,0.12761719,0.22253525
TAJkbsNrZuM,0.03967897,0.01061687,0.06989913,0.0128792,0.07204572,0.0213493,0.02713156,0.09720244,0.02575841,0.0114693,-0.01770649,0.04724468,-0.00787547,-0.05895959,0.00261649,0.05603769,0.00134223,-0.12558538,0.13298155,0.0625341
oeymdn1d4qg,0.0904924,0.03255801,0.11670679,0.01108086,0.08180724,0.02762654,-0.02207346,0.1667257,-0.07596846,-0.07006115,-0.10937259,0.4533656,-0.25182822,-0.09978473,0.04783913,-0.06131173,0.23905952,0.37498182,0.13851544,0.36183761
K38w2QlgHPQ,0.15319569,-0.02367621,0.08101044,-0.00733865,0.04985308,-0.00856169,-0.01905602,0.09781756,0.14783021,-0.00162771,0.25284855,0.03541544,-0.06628009,-0.06152784,0.15587287,-0.11025274,0.05324615,0.07104205,-0.04197393,-0.03259046
QSe13hyv68o,0.17380311,0.10235188,0.07276592,0.05552577,0.09681855,0.0291789,0.00576904,0.1728288,-0.05337157,-0.09751599,-0.10058466,-0.34690778,-0.00549359,-0.07975306,0.09094824,-0.00642735,-0.00916121,-0.03162619,0.11176532,0.10060556
EZLeWRbCEbA,0.08851401,0.0605885,0.1344301,-0.00899848,0.06191629,0.03570396,-0.00692592,0.11827442,-0.03135838,0.02681361,-0.04308775,0.0556601,-0.05287799,-0.02782468,-0.04037957,-0.12395703,0.1218217,-0.17095694,0.01558805,-5.883e-05
l1-D1s67YU4,0.03303932,0.01228934,0.06145481,0.02839708,0.05212732,0.04169424,-0.02007865,0.09569905,0.01097107,-0.05622218,0.0489498,-0.08180977,-0.04472787,-0.07496441,0.049924,-0.10926305,0.09451425,-0.15218143,-0.00298927,0.07112801
RBz3O-4xBYE,0.99726751,-0.87669762,-0.21299187,-0.06623021,-0.20847853,0.07593024,0.00941496,0.09788673,0.07987601,0.00973392,0.11329291,0.08768932,-0.02093848,0.06674719,-0.23043796,0.02874206,0.00668807,-0.07748195,-0.07753577,0.04122449
B18aH00d8oE,0.0669595,0.01099827,0.09763085,0.04168485,0.09311722,0.03274013,-0.00210234,0.13338766,-0.02192409,0.01405792,-0.07315259,0.03136588,-0.01080512,0.03168971,-0.01005777,0.04026437,-0.00260279,-0.12266987,0.06489535,-0.03379922
0ShXZN7aHqA,0.08186928,0.05334479,0.10770852,0.03289351,0.14537413,0.00192684,0.00527989,0.14856439,0.01465291,-0.02713284,0.17047091,-0.04575721,-0.06056457,-0.05077122,-0.01267635,0.07508115,-0.01465187,0.14755592,-0.12655463,0.03243351
AxM96v9ZCzI,0.05920348,0.00846151,0.03285583,0.02004753,0.03453379,0.01666912,-0.00638083,0.12043248,0.00120668,-0.0301328,-0.05533297,-0.07690447,-0.00726442,-0.06005304,-0.01824685,0.0358122,-0.0521383,0.02788299,-0.02287952,-0.03539259
-JTeDTLElVg,0.06583894,0.01223207,0.27881415,0.71288391,-0.42397949,-0.04157866,-0.01860239,-0.03991389,0.00526856,-0.00733648,-0.01321201,0.01744018,-0.02011506,0.01872275,0.0030593,0.02614551,-0.03124441,0.02305971,0.0260562,-0.02143894
8mnzaIML2AM,0.24095959,0.07413634,0.13017825,0.06582242,0.21352419,-0.10351235,-0.02283225,-0.09128915,-0.07419331,-0.02250083,0.02730461,-0.00882171,0.02382525,0.08647389,-0.04836362,0.00471594,0.01156791,-0.06736172,0.0776773,-0.08312552
pS5AOr4B7hg,0.06878385,0.054141,0.08070331,0.00796209,0.06343594,0.00608386,-0.01383639,0.12889036,-0.0210006,-0.07757618,0.03757035,0.10201421,0.05766199,0.05554743,-0.01809178,-0.00114675,-0.05011516,-0.15863677,0.06131248,-0.16556429
z-7AhJ55htQ,0.08238176,0.03223757,0.11121492,0.00801219,0.07688629,0.00114651,-0.01969049,0.10315014,-0.02857751,0.00675916,-0.07192617,0.04209823,0.0182774,0.0739115,-0.02285986,0.00346167,0.03368032,-0.05879973,0.00891705,-0.07291647
XV4eV0wnx-c,0.01109193,0.00864873,0.02064892,0.00691147,0.0171783,0.12379774,-0.11749134,-0.04290999,-0.00772481,0.15538087,0.01104277,0.00707177,0.02447354,-0.01269703,0.07361274,0.15012334,0.12462983,-0.00884672,-0.03945914,0.04764016
ckyeC880OPA,0.04820535,0.03579346,0.0870383,0.0154643,0.06460318,0.02871885,-0.00951538,0.10292831,0.05498024,0.00799986,0.07204088,0.00413857,-0.08069834,-0.12671713,0.00424835,0.00773745,-0.01551118,-0.02557585,0.03492712,0.10679464
L7fVqlOzegQ,0.07789982,0.05961979,0.09602329,0.01383016,0.05584681,0.01958245,-0.01806243,0.12129031,-0.00715585,-0.01014932,-0.01988429,0.07975284,0.02756557,-0.00585572,-0.00919619,0.07698647,-0.03480281,0.02719333,0.03230188,-0.10096746
Nq-c06vj5PM,0.0699375,0.02538724,0.11258249,0.03348482,0.13177033,-0.00472499,-0.0113041,0.11419231,0.12314179,0.00798885,0.29206295,0.03440265,-0.05511839,-0.0119704,0.11223201,-0.05247018,0.02245447,0.04904445,0.09155702,0.01608506
pqIZk9qrBEM,0.06167886,-0.00590822,0.04608554,0.02401922,0.04899007,0.02211491,0.00565834,0.03249845,0.10258356,0.01237096,-0.01412634,0.05731434,-0.01194122,-0.07944921,0.00164192,0.05528841,-0.04594211,0.00857785,-0.06417061,0.01184277
CF4oRpaLSqw,0.04734111,0.03771852,0.04990954,0.01680804,0.06487814,0.02935011,-0.00821464,0.07475704,-0.01402692,-0.01749436,-0.00910219,0.00343195,0.05347404,0.05119221,-0.03319126,0.03895642,-0.02134174,0.06266627,-0.05707889,-0.0834259
wJwQm_aqC8U,0.00225914,0.00132692,0.00789991,0.00119601,0.00398098,0.04968213,-0.03933935,-0.02141822,0.01017732,-0.05315905,-0.01433127,0.01315577,-0.00783816,-0.02032411,-0.02275729,-0.00471548,-0.01702147,-0.00796894,0.00814541,0.03306261
k0ZYVWoVWAc,0.1064091,0.00123905,0.10149897,0.02351159,0.12630809,0.02768879,0.01486574,0.16109156,-0.08599598,-0.01059098,0.00174081,-0.09373415,0.02351163,-0.04694255,0.01071295,-0.04877743,0.0733811,-0.04519957,-0.03331289,0.12556557
F4ZxeuNDoUw,0.03454212,0.0226494,0.02869788,0.01351919,0.04517721,-0.00560927,-0.01202635,0.01749869,0.02010159,-0.01165825,0.033994,0.03271854,0.04625063,0.06624737,0.06601904,-0.02018582,-0.02877172,-0.01659682,-0.00652233,0.07521729
dINRvKoLQ-c,0.99726751,-0.87669762,-0.21299187,-0.06623021,-0.20847853,0.07593024,0.00941496,0.09788673,0.07987601,0.00973392,0.11329291,0.08768932,-0.02093848,0.06674719,-0.23043796,0.02874206,0.00668807,-0.07748195,-0.07753577,0.04122449
wB2Kb0MiyAc,0.06631127,0.015308,0.29462036,0.6587993,-0.33755066,-0.05216864,0.01056188,-0.01699386,-0.00475548,-0.00064917,0.10807706,0.02220542,-0.01546218,-0.0047942,0.05452634,0.02232878,-0.02442319,0.04677559,-0.01822201,-0.01628139
lvw8Fe5wcBo,0.09885884,0.07197787,0.05646801,0.02714523,0.09623581,9.376e-05,-0.00953672,0.05288329,-0.02094662,-0.05112995,0.0831559,-0.14742353,-0.08259254,-0.18898186,0.01687428,0.02421007,-0.1252039,-0.08698695,-0.12730815,0.09927763
01NMf5-J_P4,0.01399803,0.00071896,0.05598707,-0.0113279,0.00496669,0.22469666,-0.19880651,-0.11466758,0.03737623,-0.15819623,-0.02470298,-0.01905934,-0.11327987,0.09859649,0.05167771,0.1514876,0.09675933,-0.0739417,-0.04520347,0.00143306
nOR-IY0SnEY,0.05884393,0.04145471,0.06660208,0.04860411,0.03671603,0.04396791,0.03145596,0.11840623,0.00948744,-0.04048974,0.09894326,-0.01897549,0.20391881,0.39372706,0.16063394,-0.04050572,-0.06667479,-0.03109404,-0.01925892,0.13053988
7m9uIc31Egw,0.07072479,0.01606984,0.17080541,0.01510719,0.15056626,-0.03079406,-0.01024067,0.01454122,0.09696333,0.00245085,-0.08703729,-0.21169186,0.10611123,0.13098037,-0.14554528,-0.02904042,0.20948737,0.08209718,0.20790631,0.15254184
bouvNyq8xCY,0.01085888,0.00209431,0.02683814,0.01593328,0.01139627,0.04405716,-0.03616175,0.01083744,0.00388068,-0.02059111,0.00212769,-0.00469411,-0.00770214,-0.0148413,0.00324853,-0.00422751,0.01831577,-0.00713562,0.0070719,-0.00245099
ys1zQyiLrMc,0.07841524,0.02106978,0.29082288,0.65078021,-0.31367716,-0.08197025,-0.01822702,-0.05075436,0.10466993,-0.0001351,-0.02627116,-0.00796033,0.01054326,0.02608627,-0.05820838,0.02665055,0.04797252,0.03936809,0.03885412,0.00948712
-tzJJPnAenI,0.1165985,0.05560843,0.35485635,-0.06194039,-0.00095234,0.47992203,0.59957596,-0.1073431,-0.03022064,0.00931781,-0.07169889,-0.02824267,0.03846134,0.03415239,-0.05535691,-0.05219551,0.05881148,0.00527946,-0.0928827,0.05474155
5Z4z2oEoxw8,0.09871075,0.05691527,0.17648169,0.0174301,0.13839878,-0.02367473,-0.02531974,0.13176236,0.08933197,-0.00914913,-0.13284769,-0.0263195,0.11671192,0.06203443,-0.12596965,-0.01407226,0.11380393,-0.04686612,-0.0922345,0.10796783
_SdzVNht_nU,0.10594595,-0.00891737,0.19105024,-0.01456733,0.09765181,-0.05491705,-0.0845976,0.08724673,0.1542463,0.03007334,-0.02874499,-0.01895578,0.15392021,0.06650659,-0.05947031,0.11046589,-0.01291234,-0.04294202,0.19187497,-0.08671593
NkWtrW-9GDY,0.07845165,0.0420591,0.1154348,0.02810497,0.12900104,-0.00960219,-0.02038472,0.11564829,0.02523465,-0.03818279,-0.01894536,-0.02365133,0.07797999,0.07617041,-0.04195239,0.03068249,-0.01703329,-0.05805268,0.02683208,-0.08667506
lkM12v2VZyE,0.05844207,0.00821178,0.14628715,0.04027699,0.1846017,-0.03289393,-0.01518448,0.10523025,0.11035611,0.01053662,0.53100514,0.01093836,-0.12193755,-0.15889417,0.11902974,-0.02039361,0.00301454,0.19777116,-0.12196096,0.08991466
X5MyBjZ8Jgw,0.73675681,-0.64886759,-0.11108146,-0.02800065,-0.08037299,0.00447736,-0.0097398,-0.03259519,0.03727305,0.01284499,-0.01272391,-0.05055699,0.03533655,-0.03437379,0.15445614,-0.02486046,0.02428652,0.03137156,0.10168741,-0.0179288
J9p4GMskefU,0.05492603,0.00972684,0.06501142,0.01728735,0.07725171,-0.00289966,0.01353781,0.01981974,0.03858757,-0.02012377,-0.09818686,0.03650617,-0.00081624,-0.0185504,0.03938161,0.04580969,-0.04900834,0.00058923,-0.07072982,0.01741334
v8z-clVwRxM,0.14994193,0.00188657,0.09703748,0.01936117,0.04342761,-0.01712835,-0.02006005,0.07361538,-0.07336248,0.00727999,-0.07748116,-0.02333821,0.00998985,0.01154735,0.0495002,-0.10665684,0.07652281,0.0058504,-0.08234924,-0.01268455
D3h2gmgCBFg,0.87225413,1.04314517,-0.31364566,-0.01550031,-0.11537906,-0.00050705,0.00312014,-0.07320388,-0.00512454,-0.00728923,0.04282976,-0.03656775,-0.0028845,0.00796279,-0.00702932,-0.00637792,-0.00707317,0.03920893,-0.01496852,0.00873721
uAOfsghz2NY,0.56157383,0.61740711,-0.05887186,-0.05545023,-0.09225058,-0.02697948,-0.00211445,-0.00143097,0.03015328,0.06397929,-0.05157874,0.12611819,-0.00506976,0.00254668,0.01986745,-0.11023861,0.10908011,-0.16095314,0.00680399,0.00555939
xO5diVmgE8Y,0.00594065,0.00149311,0.02131267,0.01066706,0.01300566,0.05472921,-0.03185757,-0.00055503,0.0111375,-0.00865435,0.01110503,-0.00379079,-0.03120788,-0.04748338,0.02295947,0.00799249,0.13055478,-0.00776086,-0.0831778,0.03995824
_O6ICkmg1Zg,0.05971213,0.02963841,0.08556991,0.06137359,0.05224292,0.00011383,0.00327377,0.08194876,-0.12245662,-0.01857022,0.01923479,-0.02657096,0.06160628,0.045111,0.09614068,-0.11191161,0.08621561,-0.1136012,-0.18752358,0.11713205
_QHAqfILwPk,0.15860151,0.13125246,0.91834535,-0.77470516,-0.63904325,-0.22867673,-0.15436827,-0.06270624,-0.01876447,0.02008298,0.04080367,-0.03339594,-0.00857351,-0.00273603,0.00229212,-0.00326652,-0.02461767,0.01594606,-0.00367729,-0.007126
nxCFXdIgxmw,0.03452809,0.00938047,0.07791676,0.02829236,0.06680459,0.02193137,-0.00388521,0.0383879,0.00766099,0.00613046,-0.0153389,-0.02724795,0.066777,0.07391594,-0.01219331,-0.00863875,0.02294599,-0.03291703,-0.00399725,-0.05069915
AXvou3mSGQA,0.05480322,0.02366962,0.07035816,0.02167037,0.09591447,-0.01789548,-0.02702753,-0.0024566,0.01176619,-0.01516388,0.14142583,-0.11456813,-0.03299739,0.01114326,-0.01568743,-0.05054129,0.09279944,0.04256693,0.18322803,0.04601721
vrW0swCG3Kg,0.01514029,0.00808513,0.05902164,0.01284482,0.01629182,0.2178633,-0.19763219,-0.07846139,0.0198209,-0.12538563,-0.02517633,-0.00270172,-0.11249777,0.06269469,0.00560956,0.03828106,0.02754485,-0.01340696,0.02542959,0.00643411
La4ogJrxI0g,0.04526924,-0.00694702,0.06098323,0.02703758,0.0416055,0.03389668,-0.01090882,0.04610282,0.00820816,-0.00340964,-0.0406889,0.01724569,0.05907543,0.01166921,0.00237324,0.01931683,0.01651506,-0.01575558,-0.0300279,-0.01491584
PCAPjDDY-h4,0.09433367,0.05686352,0.1054084,0.02030538,0.1103422,0.03710707,-0.00115939,0.14210547,-0.01579168,0.00069251,-0.0410238,0.20667398,0.00375327,-0.05146107,-0.00017285,0.15033694,-0.0435967,-0.01880253,0.16088093,-0.04531334
MSl5mD3E7PE,0.06950037,0.0393536,0.10022195,0.04725496,0.13145933,-0.0614091,-0.02239018,-0.03668624,0.2680411,0.06106049,-0.07025324,-0.00957166,-0.00339907,0.05193569,-0.03409157,-0.07615289,0.01669745,-0.02386252,-0.03223432,-0.05137792
UQXupr6-Wmg,0.01047311,0.00325401,0.03959052,0.01833967,0.02926958,0.14161551,-0.13671093,-0.03166398,-0.00984822,-0.03835731,0.05098228,0.0572994,0.41221201,-0.22522899,-0.11003147,-0.20451488,-0.09564944,0.07446497,-0.00788565,-0.00872703
5ov8sBSV-pc,0.05399469,-0.00639194,0.04517742,0.00994722,0.04339447,0.03502584,0.01171135,0.0856234,-0.01803421,-0.01442385,-0.02008889,-0.05389642,0.00371103,0.01831199,0.01777924,-0.01232762,0.02929565,-0.13981575,0.05953605,0.08883253
PfdNPN9Jv6s,0.99726751,-0.87669762,-0.21299187,-0.06623021,-0.20847853,0.07593024,0.00941496,0.09788673,0.07987601,0.00973392,0.11329291,0.08768932,-0.02093848,0.06674719,-0.23043796,0.02874206,0.00668807,-0.07748195,-0.07753577,0.04122449
Zu3g28TTetU,0.06610492,0.05508301,0.07466305,0.0315434,0.06677272,0.03203208,-0.03139334,0.11036506,-0.00106769,-0.02799976,0.10353644,-0.0161506,0.00050325,-0.00754467,0.07964496,0.00226472,0.02594034,0.00061068,-0.01452021,-0.02257177
9361MUAmA24,0.10758791,-0.03175684,0.09853693,0.02125172,0.11844473,0.00162921,0.00011261,0.0095607,-0.15435821,-0.00394493,0.00231741,-0.04270126,0.0297299,-0.02858372,0.02377794,-0.07924198,0.09397534,-0.21006397,0.13387313,0.02549806
yaBzATxyEYs,0.0821716,0.02368937,0.09703398,-0.0217914,0.01167515,-0.0007811,-0.03662552,0.12332799,0.01195588,-0.02515343,-0.07821501,0.05143491,0.03135903,-0.00813797,-0.02993148,0.06619686,0.00017038,0.03374427,0.05990213,0.02587671
nLlqkXdlNsM,0.27273085,-0.19058446,0.10520909,0.05969496,0.15120858,-0.08045238,0.01251936,-0.16113627,0.02170017,-0.01789209,-0.01353333,-0.0166681,0.03793534,0.02609515,-0.02443921,0.03442136,0.01644119,-0.05687353,0.06331276,0.02254699
HOwVuamQvTc,0.13863112,0.0395733,0.2296155,0.01547885,0.13974706,-0.04967936,-0.02113511,0.11606282,0.03877748,0.00732053,-0.04664975,-7.454e-05,0.06371733,-0.00359142,-0.07598305,0.17603387,-0.08974249,0.01688324,0.01869654,-0.0240989
FpwEaued1Hc,0.01865462,0.01042231,0.06267611,0.00423292,0.02630003,0.2067169,-0.19509263,-0.08886964,0.0368602,-0.24922962,-0.05944331,-0.00041617,-0.18804151,0.09134894,-0.08819727,-0.18289429,-0.2071597,0.03115113,0.0527937,0.03102713
1a5xOhqvm-I,0.00972338,0.00510878,0.02275592,0.00759707,0.02133353,0.11954673,-0.11903373,-0.05253973,-0.00761127,0.13792573,0.01857402,-0.02766901,0.02932343,-0.00932925,0.0508659,0.12534136,0.11010125,-0.0185774,-0.04516551,0.02998051
Mxv60XerzG4,0.99726751,-0.87669762,-0.21299187,-0.06623021,-0.20847853,0.07593024,0.00941496,0.09788673,0.07987601,0.00973392,0.11329291,0.08768932,-0.02093848,0.06674719,-0.23043796,0.02874206,0.00668807,-0.07748195,-0.07753577,0.04122449
fQK8Lx-oRIU,0.14680025,0.06901113,0.14111058,0.00301333,0.04400715,-0.0199614,-0.0349353,0.10434163,-0.0791208,-0.01308919,-0.12647315,0.0158279,0.02350662,-0.00894273,0.10344889,0.00831811,-0.02062696,0.08210866,-0.07799976,-0.1105876
VREVC0wXPfs,0.03509738,0.01553744,0.04541949,0.02230265,0.03778626,0.10818212,-0.09531915,-0.00671498,-0.01763696,-0.0404102,-0.03499221,-0.00526272,0.03713651,-0.02426884,-0.04980491,-0.0690241,-0.10717744,0.00111989,-0.02408915,-0.02597915
OkVrrVAG9yg,0.07906815,0.03245658,0.16641365,0.02792567,0.15417082,-0.06294649,-0.02688967,0.08589539,0.12047181,-0.02693142,0.13222533,-0.08590922,0.15176488,0.38273919,0.1216176,-0.08392198,-0.09152588,-0.03517979,-0.06963265,0.04995843
-5kkpHpexIA,0.06203765,0.01608827,0.28409757,0.65559038,-0.36576217,-0.03361225,-0.00440617,-0.01127587,-0.01329126,-0.00114402,0.00339358,0.03395976,0.01821245,-0.00718963,0.00115331,0.02245468,-0.00816247,0.01728187,0.05038533,-0.00091561
FdFgh2vQp8I,0.09330599,0.01983311,0.13050839,-0.00984027,0.06944775,-0.00896634,-0.02777741,0.16755655,0.02687598,0.0037416,-0.05517186,0.08495431,0.00614497,-0.0523567,-0.03365339,0.12417882,-0.06440159,0.0318033,0.04293609,-0.08326011
5zwotvZ1rl0,0.05877254,0.00084642,0.06783329,0.01799751,0.06397733,0.14372538,-0.13941626,0.08577588,-0.03038278,0.29936487,-0.0167381,-0.0373225,-0.09075706,0.07689468,0.00073741,-0.03938197,-0.01495728,0.05230616,0.00083817,-0.00064157
03uRM4Uz5t8,0.23193303,-0.09219171,0.19068212,0.02865013,0.22159925,-0.11918695,-0.01317588,-0.13786524,-0.18453741,0.00719769,0.23748731,0.16118151,-0.0959154,-0.06056602,0.08983247,-0.03164909,0.00330095,-0.01732607,0.05919601,-0.12952439
XyFrfcsbDGY,0.13735388,0.00674359,0.09845591,0.01094064,0.0706351,0.00195936,0.00450767,0.06528407,-0.11335409,-0.00808792,-0.03288962,0.0306134,0.00629669,0.05383812,-0.03829675,0.0008842,0.03984642,-0.03864712,-0.03169519,-0.04052553
DWt3zfqtI6g,0.00592929,0.00139642,0.01826591,0.00594006,0.01931047,0.03438329,-0.0388389,0.0064408,0.00683564,0.00872227,0.02117793,0.00070627,0.01681387,-0.01140886,-0.00816335,-0.01227226,-0.01391322,0.01596199,0.01612622,-0.00285098
94PJFiyaSrs,0.04045473,0.01165695,0.11414889,0.04802328,0.11099235,0.00759757,-0.02005718,0.13094436,0.04965086,0.04269182,0.17080727,0.12940384,0.00531014,-0.00775881,0.07767892,0.01396335,-0.10617754,-0.07282292,0.1375774,-0.02577382
fHes8kAGJHs,0.00671062,0.00325776,0.01775111,0.00224772,0.00896397,0.0547475,-0.05709768,-0.02507693,0.00466455,-0.05754148,-0.00118979,0.01171946,0.00244448,-0.0155459,-0.01802039,-0.02854527,-0.0153199,-0.01356596,0.00319861,0.00469174
u7sbQBw3X3g,0.06232233,0.02411429,0.29032985,0.68065254,-0.39070997,-0.05946204,0.00598146,-0.02825948,0.0388024,0.01166268,0.00143503,0.06429584,-0.00452871,-0.01108488,-0.00758494,0.08604256,-0.04149728,-0.01045754,0.07465863,-0.00046045
ieJE93iObcI,0.11310602,0.05979916,0.18996748,0.03450696,0.19656229,-0.08012371,-0.05426461,0.09386271,0.23620347,0.01055729,0.17832162,-0.04108169,0.0007391,-0.02502311,-0.03486313,-0.03767311,0.13472366,0.17742257,-0.09585044,-0.00965283
s47EWzAbZL4,0.00738641,0.00318994,0.04178565,-0.0099934,0.00263667,0.15120563,-0.13848992,-0.08090458,0.0276397,-0.15971069,-0.03044229,-0.00471342,-0.10771042,0.08306078,0.03926364,0.11982999,0.06555817,-0.05011493,-0.02117672,0.0305788
-Ap6qWvqk0I,0.13910948,0.07916338,0.0845033,0.03756377,0.12161642,0.01453467,0.00037293,0.10120249,-0.07196953,-0.00026482,-0.06973817,-0.03526191,0.02810698,0.04016155,0.00428996,0.0270354,0.03726981,0.04744572,0.04393698,-0.0349673
IBBboS2nK3c,0.87225413,1.04314517,-0.31364566,-0.01550031,-0.11537906,-0.00050705,0.00312014,-0.07320388,-0.00512454,-0.00728923,0.04282976,-0.03656775,-0.0028845,0.00796279,-0.00702932,-0.00637792,-0.00707317,0.03920893,-0.01496852,0.00873721
EnLpF9i3I4I,0.02702896,-0.00079594,0.04051316,0.00840101,0.0334378,-0.00848844,-0.0084268,0.03852705,0.05094153,-0.00437397,-0.00129291,-0.00085878,0.0277587,0.02864336,-0.01295969,0.02953362,-0.00411603,-0.02285971,0.02475446,-0.02287145
f1rK6WfCjCQ,0.01420037,0.00287019,0.04501319,0.02731836,0.02862475,0.25399736,-0.2478372,-0.09497779,-0.01163056,0.16232785,0.08594339,0.05415361,0.51948726,-0.26288133,-0.05026449,-0.09808335,-0.05161319,0.05960244,-0.06200262,0.00932395
SY53rwqE2i0,0.01127641,0.00294356,0.02606024,0.00665838,0.02701045,0.01066429,-0.00755408,0.04124278,-0.01780707,0.02292811,-0.0417383,0.00480862,-0.01630965,0.02577988,-0.00166634,-0.03379455,-0.00174582,0.01268601,0.00182382,-0.01616049
jjSaUeqJi4s,0.09960871,0.05390827,0.11995094,0.03113272,0.12632216,0.09496301,0.01457679,0.30840098,-0.10063185,-0.06901662,-0.05290859,-0.21355934,-0.12726362,-0.27211022,-0.06076289,0.08762712,-0.14330017,-0.17147773,-0.16047282,0.04891553
7u0DJM1SNPs,0.06976709,-0.04101772,0.05329946,0.03304084,0.04891704,0.01469076,0.00579434,0.01983137,-0.01516288,-0.02273875,0.1394415,0.02163499,-0.0783515,-0.02539852,0.04862832,-0.01615676,0.03093926,-0.01130022,0.20141547,-0.1713972
tveRHTJJyy8,0.01911177,0.00752144,0.06403464,0.00707024,0.01686517,0.28567721,-0.27874798,-0.13359625,0.03441656,-0.31228744,-0.06985671,-0.04993022,-0.2869375,0.19677795,-0.08888439,-0.17398069,-0.23524899,0.03333008,0.04005699,0.01182613
7Ocx3WwDK_c,0.05216165,0.04228684,0.05108447,0.0420659,0.02595745,0.00010676,-0.00742755,0.06230584,-0.02212132,-0.00119516,-0.04087576,-0.05295833,0.03393263,0.00352923,-0.00124611,-0.05476162,0.05253498,-0.04278605,-0.02832467,0.04028013
N14hiQw7Wdk,0.07300017,0.02982308,0.11278788,0.04987153,0.09922652,0.01119232,-0.01183867,0.12530706,0.03448633,0.03994793,-0.10178876,0.10670045,-0.07112317,-0.05690562,0.03324441,-0.02921874,-0.05519705,-0.0083842,-0.11645855,-0.06460049
ZB9IMq0ee0k,0.02530113,0.0156216,0.03955861,0.01777753,0.04240161,0.0326181,-0.02826619,0.06168837,0.00521209,0.01610473,0.04244774,-0.01604773,-0.05778592,-0.03048171,0.03444192,-0.07560647,0.05110271,-0.03039714,0.02452511,0.03147073
sPHe-L95K0o,0.03472172,0.00551087,0.03725871,0.02542185,0.03426178,-0.00395675,-0.00811672,0.022901,0.00174555,-0.00094987,-0.03922279,-0.05962754,0.0448312,0.01030389,-0.02181586,0.0011487,0.02637572,0.02854852,-0.03899773,-0.05088152
aFvAFWzCwF8,0.17009763,-0.06335053,0.13685516,0.0462668,0.22263613,-0.12741387,-0.02869344,-0.1465972,-0.12971375,-0.01826288,0.00726874,0.00675481,-0.02806494,-0.08254814,0.18099131,-0.07491527,-0.00135566,-0.00127769,-0.09167629,0.03171172
ax0ogeQpq3E,0.15860151,0.13125246,0.91834535,-0.77470516,-0.63904325,-0.22867673,-0.15436827,-0.06270624,-0.01876447,0.02008298,0.04080367,-0.03339594,-0.00857351,-0.00273603,0.00229212,-0.00326652,-0.02461767,0.01594606,-0.00367729,-0.007126
FOyH5MIRyD4,0.99726751,-0.87669762,-0.21299187,-0.06623021,-0.20847853,0.07593024,0.00941496,0.09788673,0.07987601,0.00973392,0.11329291,0.08768932,-0.02093848,0.06674719,-0.23043796,0.02874206,0.00668807,-0.07748195,-0.07753577,0.04122449
1gyuiKoSc-w,0.0685515,0.02120598,0.09304363,0.00528742,0.06268787,0.0163481,-0.00709119,0.07985496,-0.03997989,-0.02388842,0.03180817,0.00804974,-0.02572591,0.00822895,-0.02030622,-0.10402328,0.15946961,-0.08972836,0.00353338,0.04198232
